\data\
ngram 1=222
ngram 2=338
ngram 3=367

\1-grams:
-2.5479455	<unk>	0
0	<s>	-0.046715446
-2.4037023	</s>	0
-2.3571072	李	-0.046715446
-2.4037023	家	-0.046715446
-2.4037023	超	-0.046715446
-1.9579258	局	-0.22184873
-2.4037023	長	-0.04671542
-2.3571072	今	-0.033780694
-2.4037023	天	-0.046715446
-2.29242	很	-0.038049616
-2.3571072	多	-0.046715446
-2.29242	人	-0.046715446
-2.3571072	特	-0.046715446
-2.4037023	別	-0.046715446
-1.7712293	是	-0.042980324
-2.3571072	反	-0.033780694
-2.3571072	對	-0.046715446
-2.3571072	派	-0.038049616
-2.4037023	議	-0.046715446
-2.3571072	員	-0.046715446
-2.3571072	單	-0.046715446
-2.3571072	向	-0.046715446
-2.4037023	地	-0.046715446
-2.29242	指	-0.046715446
-2.29242	出	-0.046715446
-1.7012994	警	-0.02546634
-2.4037023	察	-0.046715446
-2.4037023	黑	-0.046715446
-2.3571072	但	-0.046715446
-2.3571072	明	-0.046715446
-2.4037023	眼	-0.046715446
-2.4037023	清	-0.046715446
-2.4037023	楚	-0.046715446
-2.4037023	看	-0.046715446
-2.3571072	到	-0.046715446
-2.4037023	也	-0.046715446
-2.4037023	相	-0.046715446
-2.3571072	當	-0.033780694
-2.3571072	了	-0.046715446
-2.4037023	解	-0.046715446
-2.0937352	事	-0.046715446
-2.4037023	件	-0.046715446
-2.0937352	的	-0.046715446
-2.3571072	來	-0.046715446
-2.3571072	龍	-0.046715446
-2.29242	去	-0.046715446
-2.4037023	脈	-0.046715446
-2.4037023	無	-0.046715446
-2.4037023	論	-0.046715446
-2.29242	如	-0.038049616
-2.4037023	何	-0.046715446
-2.4037023	招	-0.046715446
-2.4037023	致	-0.046715446
-2.4037023	千	-0.046715446
-2.4037023	夫	-0.046715446
-2.4037023	所	-0.046715446
-2.29242	有	-0.046715446
-2.4037023	摘	-0.046715446
-1.588209	他	-0.24457866
-2.4037023	並	-0.046715446
-1.6410835	要	-0.044097476
-2.4037023	求	-0.046715446
-2.4037023	下	-0.046715446
-2.4037023	台	-0.046715446
-2.4037023	或	-0.046715446
-2.29242	做	-0.038049616
-2.3571072	其	-0.046715446
-2.3571072	情	-0.046715446
-2.4037023	例	-0.046715446
-2.4037023	跪	-0.046715446
-2.4037023	低	-0.046715446
-2.3571072	認	-0.046715446
-2.4037023	錯	-0.046715446
-2.4037023	等	-0.046715446
-2.3571072	我	-0.046715446
-2.3571072	可	-0.033780694
-2.3571072	以	-0.046715446
-2.4037023	告	-0.046715446
-2.3571072	訴	-0.046715446
-2.3571072	建	-0.033780694
-2.3571072	制	-0.046715446
-2.4037023	全	-0.046715446
-2.3571072	部	-0.046715446
-2.3571072	支	-0.033780694
-2.4037023	持	-0.046715446
-2.29242	方	-0.046715446
-2.3571072	依	-0.046715446
-2.4037023	法	-0.046715446
-2.4037023	維	-0.046715446
-2.4037023	護	-0.046715446
-2.4037023	香	-0.046715446
-2.4037023	港	-0.046715446
-2.4037023	治	-0.046715446
-2.4037023	安	-0.046715446
-2.0937352	不	-0.046715446
-2.29242	為	-0.046715446
-2.4037023	另	-0.046715446
-2.0937352	一	-0.046715446
-2.3571072	越	-0.046715446
-2.3571072	大	-0.046715446
-2.4037023	聲	-0.046715446
-2.4037023	優	-0.046715446
-2.4037023	勝	-0.046715446
-2.4037023	實	-0.046715446
-2.4037023	際	-0.046715446
-2.3571072	上	-0.046715446
-2.29242	這	-0.046715446
-2.4037023	暴	-0.046715446
-2.4037023	力	-0.046715446
-2.4037023	傾	-0.046715446
-2.4037023	們	-0.046715446
-2.4037023	忘	-0.046715446
-2.4037023	記	-0.046715446
-2.3571072	應	-0.046715446
-2.4037023	照	-0.046715446
-2.4037023	規	-0.046715446
-2.4037023	矩	-0.046715446
-2.4037023	和	-0.046715446
-2.4037023	程	-0.046715446
-2.4037023	序	-0.046715446
-2.29242	行	-0.046715446
-2.4037023	因	-0.046715446
-2.4037023	此	-0.046715446
-2.3571072	需	-0.033780694
-2.3571072	氣	-0.046715446
-2.4037023	餒	-0.046715446
-2.4037023	繼	-0.046715446
-2.4037023	續	-0.046715446
-2.4037023	緊	-0.046715446
-2.4037023	守	-0.046715446
-2.4037023	崗	-0.046715446
-2.4037023	位	-0.046715446
-2.3571072	亦	-0.046715446
-2.3571072	好	-0.046715446
-2.4037023	自	-0.046715446
-2.4037023	己	-0.046715446
-2.3571072	工	-0.033780694
-2.4037023	作	-0.046715446
-2.4037023	市	-0.046715446
-2.4037023	民	-0.046715446
-2.4037023	都	-0.046715446
-2.3571072	會	-0.033780694
-2.4037023	站	-0.046715446
-2.3571072	在	-0.046715446
-2.3571072	那	-0.046715446
-2.4037023	邊	-0.046715446
-2.3571072	打	-0.046715446
-2.29242	時	-0.046715446
-2.4037023	機	-0.046715446
-2.4037023	便	-0.046715446
-2.3571072	政	-0.033780694
-2.4037023	府	-0.046715446
-2.4037023	同	-0.046715446
-2.4037023	質	-0.046715446
-2.4037023	詢	-0.046715446
-2.4037023	中	-0.046715446
-2.4037023	似	-0.046715446
-2.4037023	乎	-0.046715446
-2.4037023	現	-0.046715446
-2.4037023	三	-0.046715446
-2.4037023	十	-0.046715446
-2.4037023	宗	-0.046715446
-2.4037023	投	-0.046715446
-2.4037023	已	-0.046715446
-2.4037023	經	-0.046715446
-2.4037023	未	-0.046715446
-2.4037023	審	-0.046715446
-2.4037023	先	-0.046715446
-2.4037023	判	-0.046715446
-2.3571072	難	-0.046715446
-2.4037023	辭	-0.046715446
-2.4037023	咎	-0.046715446
-2.4037023	負	-0.046715446
-2.4037023	責	-0.046715446
-2.3571072	任	-0.046715446
-2.4037023	像	-0.046715446
-2.4037023	久	-0.046715446
-2.4037023	懂	-0.046715446
-2.4037023	得	-0.046715446
-2.4037023	該	-0.046715446
-2.4037023	處	-0.046715446
-2.4037023	理	-0.046715446
-2.4037023	況	-0.046715446
-2.4037023	速	-0.046715446
-2.4037023	隊	-0.046715446
-2.4037023	服	-0.046715446
-2.4037023	否	-0.046715446
-2.4037023	定	-0.046715446
-2.4037023	編	-0.046715446
-2.4037023	號	-0.046715446
-2.4037023	麼	-0.046715446
-2.4037023	擊	-0.046715446
-2.3571072	恐	-0.033780694
-2.4037023	怖	-0.046715446
-2.4037023	分	-0.046715446
-2.4037023	子	-0.046715446
-2.4037023	道	-0.046715446
-2.4037023	表	-0.046715446
-2.4037023	身	-0.046715446
-2.4037023	份	-0.046715446
-2.4037023	真	-0.046715446
-2.4037023	示	-0.046715446
-2.4037023	委	-0.046715446
-2.4037023	證	-0.046715446
-2.4037023	才	-0.046715446
-2.4037023	捉	-0.046715446
-2.4037023	拿	-0.046715446
-2.4037023	樣	-0.046715446
-2.4037023	想	-0.046715446
-2.4037023	外	-0.046715446
-2.4037023	領	-0.046715446
-2.4037023	導	-0.046715446
-2.4037023	內	-0.046715446
-2.4037023	令	-0.046715446
-2.4037023	陣	-0.046715446
-2.4037023	腳	-0.046715446
-2.4037023	亂	-0.046715446
-2.4037023	就	-0.046715446
-2.4037023	面	-0.046715446
-2.4037023	希	-0.046715446
-2.4037023	望	-0.046715446

\2-grams:
-1.6208519	長 </s>	0
-0.97498435	<s> 李	-0.021363042
-0.97498435	位 李	-0.021363042
-1.263315	李 家	-0.021363042
-0.97663337	家 超	-0.021363042
-1.2154882	李 局	-0.021363042
-0.9512603	超 局	-0.021363042
-1.2154882	天 局	-0.021363042
-1.2154882	訴 局	-0.021363042
-0.9512603	望 局	-0.021363042
-0.39537618	局 長	-0.021363042
-1.6136297	長 今	-0.021363042
-1.2601296	何 今	-0.021363042
-1.1052042	今 天	-0.021363042
-1.2551479	天 很	-0.021363042
-1.5217836	員 很	-0.021363042
-1.4137017	察 很	-0.021363042
-1.2682859	很 多	-0.021363042
-0.97498435	十 多	-0.021363042
-1.4137017	多 人	-0.021363042
-0.9723936	眼 人	-0.021363042
-1.4137017	有 人	-0.021363042
-1.4208968	人 特	-0.021363042
-0.97498435	麼 特	-0.021363042
-1.263315	特 別	-0.021363042
-0.9311079	別 是	-0.021363042
-1.541848	警 是	-0.021363042
-1.3080195	察 是	-0.021363042
-1.1791492	但 是	-0.021363042
-1.3903718	不 是	-0.021363042
-1.3080195	這 是	-0.021363042
-0.9311079	服 是	-0.021363042
-1.7316731	是 反	-0.021363042
-1.4208968	有 反	-0.021363042
-1.1029216	反 對	-0.07503191
-0.97498435	乎 對	-0.021363042
-1.2601296	對 派	-0.021363042
-1.2601296	制 派	-0.07503191
-1.2715974	派 議	0
-0.97498435	議 員	-0.021363068
-1.7723205	警 員	-0.07503191
-1.5310336	員 單	-0.021363042
-1.5310336	不 單	-0.021363042
-1.2601296	單 向	-0.021363042
-0.97498435	傾 向	-0.021363042
-1.263315	向 地	-0.021363042
-1.4137017	人 指	-0.021363042
-0.9723936	地 指	-0.021363042
-0.9723936	所 指	-0.021363042
-1.4137017	指 出	-0.021363042
-1.8295628	要 出	-0.021363042
-1.2551479	站 出	-0.021363042
-1.1620597	特 警	-0.021363042
-1.2851793	出 警	-0.021363042
-0.9213718	黑 警	-0.021363042
-1.2851793	了 警	-0.021363042
-1.2851793	有 警	-0.07503191
-1.1620597	持 警	-0.021363042
-0.9213718	此 警	-0.021363042
-0.9213718	令 警	-0.021363042
-2.4291687	警 察	-0.021363068
-1.7412589	是 黑	-0.021363042
-1.7723205	警 但	-0.021363042
-0.97498435	等 但	-0.021363042
-1.2601296	但 明	-0.021363042
-0.97498435	表 明	-0.021363042
-1.263315	明 眼	-0.021363042
-1.4255166	人 清	-0.021363042
-0.97663337	清 楚	-0.021363042
-0.97663337	楚 看	-0.021363042
-0.97498435	看 到	-0.021363042
-1.5310336	一 到	-0.021363042
-1.263315	到 也	-0.021363042
-0.97663337	也 相	-0.021363042
-0.97498435	相 當	-0.021363042
-0.97498435	像 當	-0.021363042
-1.1029216	當 了	-0.021363042
-0.97498435	記 了	-0.021363042
-1.4255166	了 解	-0.021363042
-0.9616984	解 事	-0.021363042
-1.830121	他 事	-0.021363042
-1.3847742	行 事	-0.021363042
-0.9616984	同 事	-0.021363042
-1.5369962	事 件	-0.021363042
-0.9616984	件 的	-0.021363042
-0.9616984	己 的	-0.021363042
-0.9616984	隊 的	-0.021363042
-0.9616984	真 的	-0.021363042
-1.4208968	出 來	-0.021363042
-1.5310336	的 來	-0.021363042
-1.2601296	來 龍	-0.021363042
-0.97498435	速 龍	-0.021363042
-1.2551479	龍 去	-0.021363042
-1.4137017	以 去	-0.021363042
-1.717854	們 去	-0.021363042
-1.4255166	去 脈	-0.021363042
-0.97663337	脈 無	-0.021363042
-0.97663337	無 論	-0.021363042
-0.9723936	論 如	-0.021363042
-0.9723936	例 如	-0.021363042
-0.9723936	該 如	-0.021363042
-1.2715974	如 何	-0.021363042
-1.6208519	長 招	-0.021363042
-0.97663337	招 致	-0.021363042
-0.97663337	致 千	-0.021363042
-0.97663337	千 夫	-0.021363042
-0.97663337	夫 所	-0.021363042
-1.4137017	指 有	-0.021363042
-1.7083063	要 有	-0.07503191
-1.2551479	作 有	-0.021363042
-1.4255166	指 摘	-0.021363042
-1.1297748	向 他	-0.021363042
-1.1297748	到 他	-0.021363042
-0.902531	摘 他	-0.021363042
-0.902531	求 他	-0.021363042
-1.1297748	其 他	-0.021363042
-1.2428142	為 他	-0.021363042
-1.1297748	在 他	-0.021363042
-1.1297748	任 他	-0.021363042
-1.1297748	號 他	-0.021363042
-0.902531	樣 他	-0.021363042
-1.9049736	他 並	-0.021363042
-1.3370829	的 要	-0.021363042
-0.91184926	並 要	-0.021363042
-1.3370829	不 要	-0.021363042
-1.0178362	需 要	-0.021363042
-0.91184926	餒 要	-0.021363042
-1.1456172	亦 要	-0.021363042
-0.91184926	咎 要	-0.021363042
-0.91184926	定 要	-0.021363042
-0.91184926	道 要	-0.021363042
-1.861241	要 求	-0.021363042
-1.9049736	他 下	-0.021363042
-0.97663337	下 台	-0.021363042
-0.97663337	台 或	-0.021363042
-1.8295628	要 做	-0.021363042
-0.9723936	或 做	-0.021363042
-1.2551479	府 做	-0.021363042
-1.4199873	做 其	-0.021363042
-0.97498435	辭 其	-0.021363042
-1.5310336	事 情	-0.021363042
-0.97498435	理 情	-0.021363042
-1.263315	情 例	-0.021363042
-1.4246908	如 跪	-0.021363042
-0.97663337	跪 低	-0.021363042
-0.97498435	低 認	-0.021363042
-0.97498435	判 認	-0.021363042
-1.263315	認 錯	-0.021363042
-0.97663337	錯 等	-0.021363042
-1.7316731	是 我	-0.021363042
-0.97498435	面 我	-0.021363042
-1.2601296	我 可	-0.021363042
-0.97498435	才 可	-0.021363042
-1.8486809	要 以	-0.021363042
-1.1029216	可 以	-0.021363042
-1.4255166	以 告	-0.021363042
-0.97498435	告 訴	-0.021363042
-0.97498435	投 訴	-0.021363042
-1.6136297	長 建	-0.021363042
-1.2601296	單 建	-0.021363042
-1.5310336	的 制	-0.021363042
-1.1029216	建 制	-0.07503191
-1.5369962	員 全	-0.021363042
-1.2601296	龍 部	-0.021363042
-0.97498435	全 部	-0.021363042
-1.2601296	來 支	-0.021363042
-1.2601296	部 支	-0.021363042
-1.1052042	支 持	-0.021363042
-1.6285932	警 方	-0.021363042
-1.5217836	一 方	-0.021363042
-1.4137017	這 方	-0.021363042
-1.5310336	方 依	-0.021363042
-1.2601296	應 依	-0.021363042
-1.263315	依 法	-0.021363042
-0.97663337	法 維	-0.021363042
-0.97663337	維 護	-0.021363042
-0.97663337	護 香	-0.021363042
-0.97663337	香 港	-0.021363042
-0.97663337	港 治	-0.021363042
-0.97663337	治 安	-0.021363042
-1.3847742	察 不	-0.021363042
-0.9616984	安 不	-0.021363042
-1.2348655	作 不	-0.021363042
-1.2348655	子 不	-0.021363042
-1.2551479	認 為	-0.021363042
-1.4137017	以 為	-0.021363042
-0.9723936	邊 為	-0.021363042
-1.4255166	為 另	-0.021363042
-0.9616984	另 一	-0.021363042
-1.2348655	那 一	-0.021363042
-0.9616984	機 一	-0.021363042
-1.2348655	否 一	-0.021363042
-1.5310336	方 越	-0.021363042
-0.97498435	聲 越	-0.021363042
-1.2601296	越 大	-0.021363042
-0.97498435	腳 大	-0.021363042
-1.263315	大 聲	-0.021363042
-1.263315	越 優	-0.021363042
-0.97663337	優 勝	-0.021363042
-0.97663337	勝 實	-0.021363042
-0.97663337	實 際	-0.021363042
-0.97498435	際 上	-0.021363042
-0.97498435	負 上	-0.021363042
-1.7169578	是 這	-0.021363042
-1.2551479	上 這	-0.021363042
-0.9723936	就 這	-0.021363042
-1.7412589	是 暴	-0.021363042
-0.97663337	暴 力	-0.021363042
-0.97663337	力 傾	-0.021363042
-0.39550653	他 們	-0.021363042
-1.7419922	們 忘	-0.021363042
-0.97663337	忘 記	-0.021363042
-1.4208968	了 應	-0.021363042
-0.97498435	得 應	-0.021363042
-1.263315	依 照	-0.021363042
-0.97663337	照 規	-0.021363042
-0.97663337	規 矩	-0.021363042
-0.97663337	矩 和	-0.021363042
-0.97663337	和 程	-0.021363042
-0.97663337	程 序	-0.021363042
-0.9723936	序 行	-0.021363042
-0.9723936	外 行	-0.021363042
-0.9723936	內 行	-0.021363042
-1.5369962	事 因	-0.021363042
-0.97663337	因 此	-0.021363042
-1.5310336	不 需	-0.021363042
-1.2601296	亦 需	-0.021363042
-1.8486809	要 氣	-0.021363042
-1.2601296	打 氣	-0.021363042
-1.263315	氣 餒	-0.021363042
-1.861241	要 繼	-0.021363042
-0.97663337	繼 續	-0.021363042
-0.97663337	續 緊	-0.021363042
-0.97663337	緊 守	-0.021363042
-0.97663337	守 崗	-0.021363042
-0.97663337	崗 位	-0.021363042
-1.6136297	長 亦	-0.021363042
-1.2601296	否 亦	-0.021363042
-1.2682859	做 好	-0.021363042
-1.732472	們 好	-0.021363042
-1.4255166	好 自	-0.021363042
-0.97663337	自 己	-0.021363042
-1.5310336	的 工	-0.021363042
-1.4208968	好 工	-0.021363042
-1.1052042	工 作	-0.021363042
-1.4255166	多 市	-0.021363042
-0.97663337	市 民	-0.021363042
-0.97663337	民 都	-0.021363042
-0.97498435	都 會	-0.021363042
-0.97498435	便 會	-0.021363042
-1.1052042	會 站	-0.021363042
-1.5310336	事 在	-0.021363042
-1.2601296	站 在	-0.021363042
-1.732472	們 那	-0.021363042
-1.2601296	號 那	-0.021363042
-1.5369962	一 邊	-0.021363042
-1.4208968	去 打	-0.021363042
-1.732472	們 打	-0.021363042
-1.2551479	氣 時	-0.021363042
-0.9723936	現 時	-0.021363042
-1.2551479	子 時	-0.021363042
-1.4255166	時 機	-0.021363042
-1.7419922	們 便	-0.021363042
-1.2601296	持 政	-0.021363042
-1.4208968	為 政	-0.021363042
-1.1052042	政 府	-0.021363042
-1.4246908	派 同	-0.021363042
-1.263315	在 質	-0.021363042
-0.97663337	質 詢	-0.021363042
-0.97663337	詢 中	-0.021363042
-0.97663337	中 似	-0.021363042
-0.97663337	似 乎	-0.021363042
-1.263315	對 現	-0.021363042
-1.4255166	時 三	-0.021363042
-0.97663337	三 十	-0.021363042
-1.4255166	多 宗	-0.021363042
-0.97663337	宗 投	-0.021363042
-1.263315	訴 已	-0.021363042
-0.97663337	已 經	-0.021363042
-0.97663337	經 未	-0.021363042
-0.97663337	未 審	-0.021363042
-0.97663337	審 先	-0.021363042
-0.97663337	先 判	-0.021363042
-1.4208968	時 難	-0.021363042
-1.2601296	府 難	-0.021363042
-1.263315	難 辭	-0.021363042
-1.263315	其 咎	-0.021363042
-1.861241	要 負	-0.021363042
-1.263315	上 責	-0.021363042
-0.97498435	責 任	-0.021363042
-0.97498435	委 任	-0.021363042
-1.4255166	好 像	-0.021363042
-1.4246908	很 久	-0.021363042
-0.97663337	久 懂	-0.021363042
-0.97663337	懂 得	-0.021363042
-1.263315	應 該	-0.021363042
-1.263315	何 處	-0.021363042
-0.97663337	處 理	-0.021363042
-1.263315	情 況	-0.021363042
-0.97663337	況 速	-0.021363042
-1.263315	部 隊	-0.021363042
-1.263315	制 服	-0.021363042
-1.6028128	是 否	-0.021363042
-1.5369962	一 定	-0.021363042
-1.5369962	員 編	-0.07503191
-0.97663337	編 號	-0.021363042
-1.263315	那 麼	-0.021363042
-1.263315	打 擊	-0.021363042
-0.97498435	擊 恐	-0.021363042
-0.97498435	拿 恐	-0.021363042
-1.1052042	恐 怖	-0.07503191
-0.97663337	怖 分	-0.07503191
-0.97663337	分 子	-0.021363042
-1.263315	難 道	-0.021363042
-1.861241	要 表	-0.021363042
-1.263315	明 身	-0.021363042
-0.97663337	身 份	-0.021363042
-0.97663337	份 真	-0.021363042
-1.4255166	出 示	-0.021363042
-0.97663337	示 委	-0.021363042
-1.263315	任 證	-0.021363042
-0.97663337	證 才	-0.021363042
-1.4255166	去 捉	-0.021363042
-0.97663337	捉 拿	-0.021363042
-1.4255166	這 樣	-0.021363042
-1.7419922	們 想	-0.021363042
-0.97663337	想 外	-0.021363042
-1.4255166	行 領	-0.021363042
-0.97663337	領 導	-0.021363042
-0.97663337	導 內	-0.021363042
-1.4255166	行 令	-0.021363042
-1.5369962	方 陣	-0.021363042
-0.97663337	陣 腳	-0.021363042
-1.263315	大 亂	-0.021363042
-0.97663337	亂 就	-0.021363042
-1.5369962	方 面	-0.021363042
-1.263315	我 希	-0.021363042
-0.97663337	希 望	-0.021363042

\3-grams:
-1.4895604	局 長 </s>
-0.82726705	崗 位 李
-1.0003542	<s> 李 家
-0.82838356	李 家 超
-0.974847	位 李 局
-0.8110529	家 超 局
-1.0863837	今 天 局
-0.974847	告 訴 局
-0.8110529	希 望 局
-0.36546764	李 局 長
-0.36546764	超 局 長
-0.36546764	天 局 長
-0.36546764	訴 局 長
-0.36546764	望 局 長
-1.4844662	局 長 今
-1.1174716	如 何 今
-0.9110872	長 今 天
-0.9110872	何 今 天
-1.1140507	今 天 很
-1.3503526	議 員 很
-1.2780019	警 察 很
-1.00293	天 很 多
-1.00293	員 很 多
-0.82726705	三 十 多
-1.2166486	很 多 人
-0.82551	明 眼 人
-1.072	指 有 人
-1.0751041	多 人 特
-0.82726705	那 麼 特
-1.0003542	人 特 別
-0.7970616	特 別 是
-1.122978	特 警 是
-1.2017635	警 察 是
-0.9545935	等 但 是
-1.0617336	子 不 是
-1.0230082	上 這 是
-0.7970616	制 服 是
-1.1827066	別 是 反
-1.0751041	作 有 反
-0.90969604	是 反 對
-0.90969604	有 反 對
-0.82726705	似 乎 對
-0.6884844	反 對 派
-0.6884844	建 制 派
-1.1252996	對 派 議
-0.69104505	制 派 議
-0.97498435	派 議 員
-0.7622592	有 警 員
-1.356264	議 員 單
-1.1190224	作 不 單
-0.9986962	員 單 向
-0.82726705	力 傾 向
-1.0003542	單 向 地
-1.072	有 人 指
-0.82551	向 地 指
-0.82551	夫 所 指
-1.072	地 指 出
-1.2069415	的 要 出
-1.1140507	會 站 出
-0.9448103	麼 特 警
-1.0115776	指 出 警
-0.79023147	是 黑 警
-1.1344852	當 了 警
-0.6940105	要 有 警
-1.0479311	支 持 警
-0.79023147	因 此 警
-0.79023147	行 令 警
-1.2878238	出 警 察
-1.2878238	了 警 察
-1.2878238	此 警 察
-1.1852639	察 是 黑
-1.1932701	黑 警 但
-0.82726705	錯 等 但
-0.9986962	警 但 明
-0.82726705	要 表 明
-1.0003542	但 明 眼
-1.0770818	眼 人 清
-0.82838356	人 清 楚
-0.82838356	清 楚 看
-0.82726705	楚 看 到
-1.1190224	機 一 到
-1.0003542	看 到 也
-0.82838356	到 也 相
-0.82726705	也 相 當
-0.82726705	好 像 當
-0.90969604	相 當 了
-0.90969604	像 當 了
-0.82726705	忘 記 了
-1.2237554	當 了 解
-0.81822133	了 解 事
-1.2070681	其 他 事
-1.0592242	序 行 事
-0.81822133	派 同 事
-1.121211	解 事 件
-0.81822133	事 件 的
-0.81822133	自 己 的
-0.81822133	部 隊 的
-0.81822133	份 真 的
-1.0751041	站 出 來
-1.1190224	件 的 來
-0.9986962	的 來 龍
-0.82726705	況 速 龍
-0.9960914	來 龍 去
-1.2166486	可 以 去
-1.6005516	他 們 去
-1.0770818	龍 去 脈
-0.82838356	去 脈 無
-0.82838356	脈 無 論
-0.82551	無 論 如
-0.82551	情 例 如
-0.82551	應 該 如
-1.0046382	論 如 何
-1.0046382	該 如 何
-1.4895604	局 長 招
-0.82838356	長 招 致
-0.82838356	招 致 千
-0.82838356	致 千 夫
-0.82838356	千 夫 所
-1.072	所 指 有
-1.3702333	需 要 有
-1.1762974	定 要 有
-1.1140507	工 作 有
-1.0770818	人 指 摘
-0.92588115	傾 向 他
-0.92588115	一 到 他
-0.7768852	指 摘 他
-0.7768852	要 求 他
-0.92588115	做 其 他
-0.9895812	邊 為 他
-0.92588115	站 在 他
-0.92588115	責 任 他
-1.024066	編 號 他
-0.7768852	這 樣 他
-1.2229469	摘 他 並
-1.0371193	真 的 要
-0.78350705	他 並 要
-1.0371193	安 不 要
-0.8558326	不 需 要
-0.8558326	亦 需 要
-0.78350705	氣 餒 要
-0.9352426	長 亦 要
-0.78350705	其 咎 要
-0.78350705	一 定 要
-0.78350705	難 道 要
-1.2139322	並 要 求
-1.2229469	求 他 下
-0.82838356	他 下 台
-0.82838356	下 台 或
-1.2069415	亦 要 做
-0.82551	台 或 做
-1.1140507	政 府 做
-1.0747133	或 做 其
-0.82726705	難 辭 其
-1.1190224	他 事 情
-0.82726705	處 理 情
-1.0003542	事 情 例
-1.0767292	例 如 跪
-0.82838356	如 跪 低
-0.82726705	跪 低 認
-0.82726705	先 判 認
-1.0003542	低 認 錯
-0.82838356	認 錯 等
-1.1827066	但 是 我
-0.82726705	方 面 我
-0.9986962	是 我 可
-0.82726705	證 才 可
-1.2112079	不 要 以
-0.90969604	我 可 以
-0.90969604	才 可 以
-1.2237554	可 以 告
-0.82726705	以 告 訴
-0.82726705	宗 投 訴
-1.4844662	局 長 建
-0.9986962	不 單 建
-1.1190224	隊 的 制
-0.90969604	長 建 制
-0.90969604	單 建 制
-1.3600503	議 員 全
-0.9986962	速 龍 部
-0.82726705	員 全 部
-0.9986962	出 來 支
-0.9986962	全 部 支
-0.9110872	來 支 持
-0.9110872	部 支 持
-1.1524925	持 警 方
-1.1524925	令 警 方
-1.1155894	另 一 方
-1.072	就 這 方
-1.2837569	警 方 依
-0.9986962	了 應 依
-1.0003542	方 依 法
-0.82838356	依 法 維
-0.82838356	法 維 護
-0.82838356	維 護 香
-0.82838356	護 香 港
-0.82838356	香 港 治
-0.82838356	港 治 安
-1.2576514	警 察 不
-0.81822133	治 安 不
-1.0999969	工 作 不
-1.0999969	分 子 不
-0.9960914	判 認 為
-1.072	要 以 為
-0.82551	一 邊 為
-1.0770818	以 為 另
-0.81822133	為 另 一
-0.98533934	們 那 一
-0.81822133	時 機 一
-1.0999969	是 否 一
-1.1190224	一 方 越
-0.82726705	大 聲 越
-0.9986962	方 越 大
-0.82726705	陣 腳 大
-1.0003542	越 大 聲
-1.0003542	聲 越 優
-0.82838356	越 優 勝
-0.82838356	優 勝 實
-0.82838356	勝 實 際
-0.82726705	實 際 上
-0.82726705	要 負 上
-1.1786995	不 是 這
-0.9960914	際 上 這
-0.82551	亂 就 這
-1.1852639	這 是 暴
-0.82838356	是 暴 力
-0.82838356	暴 力 傾
-0.36558348	向 他 們
-0.36558348	到 他 們
-0.36558348	為 他 們
-0.36558348	在 他 們
-0.36558348	任 他 們
-0.36558348	號 他 們
-0.36558348	樣 他 們
-1.6179576	他 們 忘
-0.82838356	們 忘 記
-1.0751041	記 了 應
-0.82726705	懂 得 應
-1.0003542	應 依 照
-0.82838356	依 照 規
-0.82838356	照 規 矩
-0.82838356	規 矩 和
-0.82838356	矩 和 程
-0.82838356	和 程 序
-0.82551	程 序 行
-0.82551	想 外 行
-0.82551	導 內 行
-1.121211	行 事 因
-0.82838356	事 因 此
-1.1190224	察 不 需
-0.9986962	否 亦 需
-1.4261048	需 要 氣
-0.9986962	們 打 氣
-1.0003542	要 氣 餒
-1.2139322	餒 要 繼
-0.82838356	要 繼 續
-0.82838356	繼 續 緊
-0.82838356	續 緊 守
-0.82838356	緊 守 崗
-0.82838356	守 崗 位
-1.4844662	局 長 亦
-1.1174716	是 否 亦
-1.00293	要 做 好
-1.00293	府 做 好
-1.6111248	他 們 好
-1.2237554	做 好 自
-0.82838356	好 自 己
-1.1190224	己 的 工
-1.2209857	做 好 工
-0.9110872	的 工 作
-0.9110872	好 工 作
-1.2237554	很 多 市
-0.82838356	多 市 民
-0.82838356	市 民 都
-0.82726705	民 都 會
-0.82726705	們 便 會
-0.9110872	都 會 站
-0.9110872	便 會 站
-1.1190224	同 事 在
-1.1174716	會 站 在
-1.6111248	他 們 那
-1.1174716	編 號 那
-1.121211	那 一 邊
-1.0751041	們 去 打
-1.6111248	他 們 打
-0.9960914	打 氣 時
-0.82551	對 現 時
-1.1140507	分 子 時
-1.0770818	氣 時 機
-1.6179576	他 們 便
-1.1174716	支 持 政
-1.0751041	認 為 政
-0.9110872	持 政 府
-0.9110872	為 政 府
-1.2232611	對 派 同
-1.0003542	事 在 質
-0.82838356	在 質 詢
-0.82838356	質 詢 中
-0.82838356	詢 中 似
-0.82838356	中 似 乎
-1.0003542	乎 對 現
-1.0770818	現 時 三
-0.82838356	時 三 十
-1.0770818	十 多 宗
-0.82838356	多 宗 投
-1.0003542	投 訴 已
-0.82838356	訴 已 經
-0.82838356	已 經 未
-0.82838356	經 未 審
-0.82838356	未 審 先
-0.82838356	審 先 判
-1.0751041	子 時 難
-1.1174716	政 府 難
-1.0003542	府 難 辭
-1.0003542	辭 其 咎
-1.2139322	咎 要 負
-1.0003542	負 上 責
-0.82726705	上 責 任
-0.82726705	示 委 任
-1.0770818	們 好 像
-1.0767292	察 很 久
-0.82838356	很 久 懂
-0.82838356	久 懂 得
-1.0003542	得 應 該
-1.1196525	如 何 處
-0.82838356	何 處 理
-1.0003542	理 情 況
-0.82838356	情 況 速
-1.0003542	龍 部 隊
-1.0003542	的 制 服
-1.1441251	警 是 否
-1.1441251	服 是 否
-1.121211	否 一 定
-0.7373131	警 員 編
-0.60651135	員 編 號
-1.0003542	號 那 麼
-1.0003542	去 打 擊
-0.82726705	打 擊 恐
-0.82726705	捉 拿 恐
-0.9110872	擊 恐 怖
-0.9110872	拿 恐 怖
-0.60651135	恐 怖 分
-0.60651135	怖 分 子
-1.0003542	時 難 道
-1.2139322	道 要 表
-1.0003542	表 明 身
-0.82838356	明 身 份
-0.82838356	身 份 真
-1.0770818	要 出 示
-0.82838356	出 示 委
-1.0003542	委 任 證
-0.82838356	任 證 才
-1.0770818	以 去 捉
-0.82838356	去 捉 拿
-1.0770818	是 這 樣
-1.6179576	他 們 想
-0.82838356	們 想 外
-1.0770818	外 行 領
-0.82838356	行 領 導
-0.82838356	領 導 內
-1.0770818	內 行 令
-1.2869589	警 方 陣
-0.82838356	方 陣 腳
-1.0003542	腳 大 亂
-0.82838356	大 亂 就
-1.121211	這 方 面
-1.0003542	面 我 希
-0.82838356	我 希 望

\end\
