\data\
ngram 1=285
ngram 2=526
ngram 3=602

\1-grams:
-2.7504754	<unk>	0
0	<s>	-0.049443707
-2.5935144	</s>	0
-2.5935144	主	-0.049443707
-2.5935144	席	-0.049443707
-2.2037523	行	-0.12447408
-1.9223155	政	-0.3946147
-2.5286322	長	-0.049443707
-2.5286322	官	-0.049443707
-1.7085583	我	-0.30113256
-2.3610964	希	-0.19176024
-2.5935144	望	-0.049443707
-1.9975067	你	-0.111033954
-2.5286322	明	-0.049443707
-2.5935144	白	-0.049443707
-1.9223155	在	-0.10168226
-2.2037523	疫	-0.049443707
-2.5935144	情	-0.049443707
-2.3610964	之	-0.049443707
-2.2037523	下	-0.049443707
-2.5286322	最	-0.049443707
-2.5935144	受	-0.049443707
-2.5935144	傷	-0.049443707
-1.4587653	的	-0.134377
-1.8024163	是	-0.0791479
-1.6682808	一	-0.14748122
-2.5935144	群	-0.049443707
-2.5935144	手	-0.049443707
-2.3610964	停	-0.049443707
-2.3610964	口	-0.049443707
-2.5935144	打	-0.049443707
-2.0884998	工	-0.111033954
-2.5935144	仔	-0.049443707
-2.5286322	對	-0.049443707
-2.5286322	於	-0.049443707
-1.8024163	失	-0.6688815
-2.3610964	業	-0.08951866
-2.2037523	人	-0.1454479
-2.5935144	士	-0.049443707
-2.3610964	支	-0.19176024
-2.5286322	援	-0.049443707
-2.3610964	們	-0.081951804
-2.5286322	勞	-0.26888105
-2.5935144	界	-0.049443707
-2.0884998	以	-0.049443707
-2.3610964	至	-0.049443707
-2.5935144	整	-0.049443707
-2.2037523	個	-0.049443707
-2.3610964	議	-0.049443707
-1.9975067	會	-0.049443707
-2.5935144	都	-0.049443707
-2.2037523	不	-0.15157667
-2.5935144	催	-0.049443707
-2.5935144	迫	-0.049443707
-2.5935144	府	-0.049443707
-2.5286322	包	-0.049443707
-2.5935144	括	-0.049443707
-2.5935144	閣	-0.049443707
-2.5286322	和	-0.049443707
-2.3610964	羅	-0.19176024
-2.5935144	致	-0.049443707
-2.5935144	光	-0.049443707
-2.5935144	局	-0.049443707
-2.2037523	但	-0.049443707
-2.5935144	予	-0.049443707
-2.5286322	感	-0.26888105
-2.5286322	覺	-0.049443707
-2.5286322	講	-0.049443707
-2.2037523	就	-0.1454479
-2.5935144	全	-0.049443707
-2.5286322	力	-0.049443707
-2.5935144	赴	-0.049443707
-2.5935144	做	-0.049443707
-2.5935144	卻	-0.049443707
-2.5286322	令	-0.049443707
-2.5286322	無	-0.049443707
-2.5935144	能	-0.049443707
-2.0884998	為	-0.049443707
-2.5935144	特	-0.049443707
-2.5935144	首	-0.049443707
-2.5935144	率	-0.049443707
-2.5935144	由	-0.049443707
-2.5935144	低	-0.049443707
-2.5286322	位	-0.049443707
-2.2037523	已	-0.1454479
-2.5935144	上	-0.049443707
-2.5935144	升	-0.049443707
-2.5935144	超	-0.049443707
-2.5935144	過	-0.049443707
-2.5935144	倍	-0.049443707
-2.3610964	現	-0.1828253
-1.9975067	時	-0.10168226
-2.5935144	六	-0.049443707
-2.5286322	十	-0.049443707
-2.5935144	四	-0.049443707
-2.5935144	%	-0.049443707
-2.5286322	這	-0.049443707
-1.9975067	方	-0.11479827
-2.2037523	很	-0.1454479
-2.5286322	保	-0.049443707
-2.5935144	守	-0.049443707
-2.5286322	數	-0.1828253
-2.5935144	據	-0.049443707
-2.5935144	得	-0.049443707
-2.5286322	奇	-0.049443707
-2.5935144	怪	-0.049443707
-2.5935144	申	-0.049443707
-2.5935144	領	-0.049443707
-2.5935144	綜	-0.049443707
-2.5935144	字	-0.049443707
-2.5286322	只	-0.1828253
-2.5286322	增	-0.26888105
-2.5935144	加	-0.049443707
-2.5286322	大	-0.049443707
-2.5935144	約	-0.049443707
-2.5286322	三	-0.049443707
-2.2037523	分	-0.1454479
-2.5286322	說	-0.049443707
-2.5286322	制	-0.049443707
-2.5935144	度	-0.049443707
-2.5935144	其	-0.049443707
-2.3610964	實	-0.049443707
-2.5935144	法	-0.049443707
-2.5935144	幫	-0.049443707
-2.5286322	助	-0.049443707
-2.3610964	多	-0.049443707
-2.3610964	有	-0.049443707
-2.5935144	需	-0.049443707
-2.5286322	要	-0.049443707
-2.3610964	而	-0.049443707
-2.5935144	且	-0.049443707
-2.5935144	友	-0.049443707
-2.5286322	常	-0.049443707
-2.5935144	慨	-0.049443707
-2.5935144	嘆	-0.049443707
-2.5935144	症	-0.049443707
-2.5935144	尚	-0.049443707
-2.5935144	未	-0.049443707
-2.5286322	清	-0.26888105
-2.5286322	零	-0.049443707
-2.5935144	他	-0.049443707
-2.5935144	荷	-0.049443707
-2.5286322	及	-0.049443707
-2.5935144	銀	-0.049443707
-2.5935144	戶	-0.049443707
-2.5935144	經	-0.049443707
-2.5286322	計	-0.049443707
-2.5935144	劃	-0.049443707
-2.5935144	花	-0.049443707
-2.5286322	了	-0.049443707
-2.5935144	八	-0.049443707
-2.3610964	百	-0.049443707
-2.5286322	億	-0.26888105
-2.5935144	元	-0.049443707
-2.5286322	協	-0.26888105
-2.5935144	些	-0.049443707
-2.5935144	企	-0.049443707
-2.5935144	甚	-0.049443707
-2.5935144	市	-0.049443707
-2.5935144	葩	-0.049443707
-2.5286322	何	-0.049443707
-2.3610964	沒	-0.049443707
-2.5935144	香	-0.049443707
-2.5935144	港	-0.049443707
-2.5935144	聯	-0.049443707
-2.5286322	合	-0.049443707
-2.5935144	曾	-0.049443707
-1.9223155	提	-0.25870702
-2.5286322	出	-0.049443707
-2.5286322	五	-0.049443707
-2.5935144	封	-0.049443707
-2.5935144	頂	-0.049443707
-2.5935144	案	-0.049443707
-2.5935144	剛	-0.049443707
-2.5935144	才	-0.049443707
-2.5286322	回	-0.049443707
-2.5935144	答	-0.049443707
-2.3610964	員	-0.049443707
-2.5935144	質	-0.049443707
-2.5935144	詢	-0.049443707
-2.5935144	擔	-0.049443707
-2.5935144	心	-0.049443707
-2.5935144	完	-0.049443707
-2.5935144	再	-0.049443707
-2.5935144	向	-0.049443707
-2.5935144	讓	-0.049443707
-2.5935144	思	-0.049443707
-2.5286322	考	-0.049443707
-2.5935144	設	-0.049443707
-2.5935144	立	-0.049443707
-2.5286322	退	-0.26888105
-2.5935144	場	-0.049443707
-2.5935144	機	-0.049443707
-2.5935144	當	-0.049443707
-2.5286322	落	-0.049443707
-2.5286322	到	-0.049443707
-2.5286322	比	-0.049443707
-2.5935144	較	-0.049443707
-2.5286322	理	-0.049443707
-2.5935144	項	-0.049443707
-2.3610964	臨	-0.19176024
-2.5935144	便	-0.049443707
-2.5935144	結	-0.049443707
-2.5935144	束	-0.049443707
-2.5935144	將	-0.049443707
-2.5935144	來	-0.049443707
-2.5286322	如	-0.049443707
-2.5935144	供	-0.049443707
-2.5935144	恆	-0.049443707
-2.5935144	永	-0.049443707
-2.5935144	久	-0.049443707
-2.3610964	可	-0.1828253
-2.5286322	從	-0.049443707
-2.5935144	詳	-0.049443707
-2.5935144	果	-0.049443707
-2.5286322	作	-0.049443707
-2.5286322	否	-0.049443707
-2.5935144	願	-0.049443707
-2.5935144	意	-0.049443707
-2.5935144	慮	-0.049443707
-2.5935144	金	-0.049443707
-2.5935144	概	-0.049443707
-2.5935144	念	-0.049443707
-2.5286322	呢	-0.049443707
-2.5935144	另	-0.049443707
-2.5935144	外	-0.049443707
-2.2037523	職	-0.31669897
-2.5935144	面	-0.049443707
-2.5935144	創	-0.049443707
-2.5935144	造	-0.049443707
-2.5286322	萬	-0.049443707
-2.5935144	稍	-0.049443707
-2.5935144	点	-0.049443707
-2.5935144	SARS	-0.049443707
-2.5935144	期	-0.049443707
-2.5935144	七	-0.049443707
-2.5935144	社	-0.049443707
-2.5935144	區	-0.049443707
-2.5935144	照	-0.049443707
-2.5286322	顧	-0.049443707
-2.5935144	抗	-0.049443707
-2.5935144	前	-0.049443707
-2.5935144	線	-0.049443707
-2.5935144	旅	-0.049443707
-2.5935144	遊	-0.049443707
-2.5935144	推	-0.049443707
-2.5935144	廣	-0.049443707
-2.5935144	量	-0.049443707
-2.5935144	認	-0.049443707
-2.5935144	應	-0.049443707
-2.5935144	派	-0.049443707
-2.5935144	錢	-0.049443707
-2.5935144	後	-0.049443707
-2.5935144	問	-0.049443707
-2.5935144	委	-0.049443707
-2.5286322	成	-0.049443707
-2.5935144	鄧	-0.049443707
-2.5935144	家	-0.049443707
-2.5935144	彪	-0.049443707
-2.5286322	邀	-0.049443707
-2.5935144	請	-0.049443707
-2.5286322	進	-0.26888105
-2.5935144	公	-0.049443707
-2.5935144	開	-0.049443707
-2.3610964	辯	-0.19176024
-2.5935144	論	-0.049443707
-2.5935144	舌	-0.049443707
-2.5935144	爭	-0.049443707
-2.5935144	也	-0.049443707
-2.5935144	鬥	-0.049443707
-2.5935144	嘴	-0.049443707
-2.5286322	中	-0.049443707
-2.5935144	勝	-0.049443707
-2.5935144	負	-0.049443707
-2.5935144	找	-0.049443707
-2.5935144	救	-0.049443707
-2.5935144	路	-0.049443707
-2.5935144	責	-0.049443707
-2.5935144	或	-0.049443707
-2.5935144	替	-0.049443707
-2.5935144	誠	-0.049443707
-2.5935144	與	-0.049443707
-2.5935144	擺	-0.049443707
-2.5935144	事	-0.049443707
-2.5935144	道	-0.049443707

\2-grams:
-1.2512022	理 </s>	0
-0.95907336	<s> 主	-0.04090498
-0.95907336	主 席	-0.04090498
-0.9461962	席 行	-0.04090498
-0.9461962	銀 行	-0.04090498
-0.33259305	進 行	-0.04090498
-0.9461962	路 行	-0.04090498
-0.7130683	行 政	-0.15029575
-0.92709386	迫 政	-0.04090498
-1.4922357	為 政	-0.04090498
-1.5435379	位 政	-0.04090498
-1.3321663	制 政	-0.04090498
-1.3321663	零 政	-0.04090498
-1.3321663	面 政	-0.04090498
-1.7807903	政 長	-0.15029575
-0.9576267	局 長	-0.04090498
-1.5295362	長 官	-0.04090498
-1.9417822	是 官	-0.04090498
-1.2730526	官 我	-0.04090498
-1.4510877	援 我	-0.15029575
-1.147145	令 我	-0.04090498
-0.9028647	首 我	-0.04090498
-1.2730526	助 我	-0.04090498
-1.147145	了 我	-0.04090498
-0.9028647	慮 我	-0.04090498
-1.2730526	論 我	-0.04090498
-1.147145	負 我	-0.04090498
-0.9028647	替 我	-0.04090498
-0.9028647	與 我	-0.04090498
-1.9223055	我 希	-0.04090498
-1.0938848	是 希	-0.15029575
-0.95275503	彪 希	-0.04090498
-0.4453935	希 望	-0.04090498
-1.3482935	官 你	-0.04090498
-1.445184	望 你	-0.04090498
-1.7607211	是 你	-0.04090498
-1.445184	但 你	-0.04090498
-0.93336844	案 你	-0.04090498
-0.93336844	讓 你	-0.04090498
-1.6940668	你 明	-0.04090498
-1.2483722	說 明	-0.04090498
-1.2512022	明 白	-0.04090498
-1.4251177	望 在	-0.04090498
-0.92709386	白 在	-0.04090498
-1.5435379	以 在	-0.04090498
-1.3321663	至 在	-0.04090498
-1.4922357	府 在	-0.04090498
-1.4251177	要 在	-0.04090498
-0.92709386	外 在	-0.04090498
-0.86381763	在 疫	-0.15029575
-2.0421906	的 疫	-0.04090498
-0.9461962	嘆 疫	-0.04090498
-0.9461962	抗 疫	-0.04090498
-1.5349594	疫 情	-0.04090498
-1.2389072	情 之	-0.04090498
-1.5226376	分 之	-0.04090498
-0.95275503	舌 之	-0.04090498
-1.2263193	情 下	-0.04090498
-1.3824642	之 下	-0.04090498
-0.9461962	閣 下	-0.04090498
-1.2263193	劃 下	-0.04090498
-1.5295362	下 最	-0.04090498
-1.6866306	位 最	-0.04090498
-1.2512022	最 受	-0.04090498
-0.95907336	受 傷	-0.04090498
-1.2370789	下 的	-0.04090498
-0.8581197	傷 的	-0.04090498
-1.1745768	停 的	-0.04090498
-1.3952156	業 的	-0.04090498
-1.2858545	人 的	-0.04090498
-1.07143	士 的	-0.04090498
-1.3101132	援 的	-0.04090498
-0.94801104	們 的	-0.04090498
-1.3101132	會 的	-0.04090498
-0.7975261	時 的	-0.04090498
-0.8581197	守 的	-0.04090498
-0.8581197	怪 的	-0.04090498
-1.1745768	實 的	-0.04090498
-1.2370789	出 的	-0.04090498
-0.8581197	頂 的	-0.04090498
-1.1745768	員 的	-0.04090498
-1.07143	理 的	-0.04090498
-0.8581197	久 的	-0.04090498
-0.8581197	金 的	-0.04090498
-1.3007534	的 是	-0.04090498
-0.554652	不 是	-0.098131664
-1.4487165	府 是	-0.15029575
-1.3875692	但 是	-0.04090498
-1.1683326	覺 是	-0.04090498
-1.4181962	就 是	-0.04090498
-1.1683326	這 是	-0.04090498
-0.4974807	只 是	-0.04090498
-1.3016044	而 是	-0.04090498
-1.259451	之 一	-0.04090498
-1.5709649	是 一	-0.04090498
-1.1369268	於 一	-0.04090498
-1.46184	個 一	-0.04090498
-0.89701295	過 一	-0.04090498
-1.259451	助 一	-0.04090498
-1.3367102	出 一	-0.15029575
-0.89701295	立 一	-0.04090498
-1.1369268	到 一	-0.04090498
-1.3367102	供 一	-0.04090498
-0.89701295	應 一	-0.04090498
-0.89701295	錢 一	-0.04090498
-1.9672701	一 群	-0.04090498
-0.95907336	群 手	-0.04090498
-0.95275503	手 停	-0.04090498
-1.4006135	口 停	-0.04090498
-1.5232697	不 停	-0.04090498
-1.4006135	停 口	-0.04090498
-0.95275503	戶 口	-0.04090498
-1.2389072	作 口	-0.04090498
-2.1969006	的 打	-0.04090498
-1.980077	的 工	-0.04090498
-0.93973494	打 工	-0.04090498
-0.331638	勞 工	-0.04090498
-1.4662225	多 工	-0.04090498
-0.93973494	港 工	-0.04090498
-1.7009522	工 仔	-0.04090498
-0.9576267	仔 對	-0.04090498
-1.2483722	何 對	-0.04090498
-1.2483722	對 於	-0.04090498
-1.5295362	多 於	-0.04090498
-1.009426	的 失	-0.22307043
-1.1683326	對 失	-0.04090498
-1.1683326	於 失	-0.04090498
-1.4948573	援 失	-0.04090498
-1.4948573	以 失	-0.04090498
-0.91481036	領 失	-0.04090498
-0.91481036	且 失	-0.04090498
-0.91481036	當 失	-0.04090498
-0.91481036	救 失	-0.04090498
-0.104253925	失 業	-0.10436583
-0.63095796	就 業	-0.04090498
-0.95275503	企 業	-0.04090498
-2.0421906	的 人	-0.04090498
-1.7683665	業 人	-0.04090498
-0.9461962	予 人	-0.04090498
-1.2263193	令 人	-0.04090498
-0.63336146	人 士	-0.04090498
-1.380274	的 支	-0.15029575
-1.8096848	業 支	-0.15029575
-1.4006135	有 支	-0.04090498
-0.44507363	支 援	-0.08141775
-0.9576267	綜 援	-0.04090498
-0.3342643	我 們	-0.04090498
-0.8034569	你 們	-0.04090498
-0.95275503	他 們	-0.04090498
-1.9124372	們 勞	-0.04090498
-0.9576267	後 勞	-0.04090498
-1.7009522	工 界	-0.04090498
-0.93973494	界 以	-0.04090498
-1.214086	力 以	-0.04090498
-1.214086	元 以	-0.04090498
-0.5043505	可 以	-0.04090498
-0.93973494	果 以	-0.04090498
-1.6611439	以 至	-0.04090498
-0.95275503	倍 至	-0.04090498
-0.95275503	甚 至	-0.04090498
-1.4185712	至 整	-0.04090498
-1.0282905	一 個	-0.04090498
-0.9461962	整 個	-0.04090498
-1.4883324	多 個	-0.04090498
-1.2263193	萬 個	-0.04090498
-1.7153888	個 議	-0.04090498
-1.2389072	計 議	-0.04090498
-0.95275503	答 議	-0.04090498
-1.5896776	工 會	-0.04090498
-1.3482935	議 會	-0.04090498
-1.2021879	合 會	-0.04090498
-1.3482935	員 會	-0.04090498
-0.93336844	心 會	-0.04090498
-0.93336844	便 會	-0.04090498
-1.6944387	會 都	-0.04090498
-1.8250097	們 不	-0.04090498
-0.9461962	都 不	-0.04090498
-1.2263193	呢 不	-0.04090498
-0.9461962	也 不	-0.04090498
-1.4185712	停 催	-0.04090498
-0.95907336	催 迫	-0.04090498
-0.23464377	政 府	-0.07439769
-1.6168439	府 包	-0.04090498
-0.9576267	荷 包	-0.04090498
-1.2512022	包 括	-0.04090498
-0.95907336	括 閣	-0.04090498
-1.5295362	下 和	-0.04090498
-0.9576267	線 和	-0.04090498
-1.2389072	和 羅	-0.04090498
-1.2389072	邀 羅	-0.04090498
-0.95275503	請 羅	-0.04090498
-0.4453935	羅 致	-0.098131664
-0.95907336	致 光	-0.098131664
-0.95907336	光 局	-0.098131664
-1.4883324	長 但	-0.04090498
-0.9461962	赴 但	-0.04090498
-1.6286249	位 但	-0.04090498
-0.9461962	據 但	-0.04090498
-1.9246849	們 予	-0.04090498
-2.1767693	的 感	-0.04090498
-1.5373079	人 感	-0.04090498
-1.9124372	們 覺	-0.04090498
-0.33425322	感 覺	-0.15029575
-1.9124372	們 講	-0.04090498
-1.4144169	實 講	-0.04090498
-1.2263193	講 就	-0.04090498
-1.2263193	保 就	-0.04090498
-1.2263193	加 就	-0.04090498
-1.2263193	考 就	-0.04090498
-1.5417289	就 全	-0.04090498
-0.9576267	全 力	-0.04090498
-1.6168439	為 力	-0.04090498
-1.6944387	以 赴	-0.04090498
-1.5349594	但 做	-0.04090498
-0.95907336	做 卻	-0.04090498
-1.9417822	是 令	-0.04090498
-0.9576267	卻 令	-0.04090498
-1.9417822	是 無	-0.04090498
-1.4144169	實 無	-0.04090498
-1.2512022	無 能	-0.04090498
-0.93973494	能 為	-0.04090498
-0.93973494	葩 為	-0.04090498
-1.214086	作 為	-0.04090498
-0.93973494	稍 為	-0.04090498
-0.93973494	認 為	-0.04090498
-1.2512022	力 特	-0.04090498
-0.95907336	特 首	-0.04090498
-1.8529097	業 率	-0.04090498
-1.4185712	率 由	-0.04090498
-0.95907336	由 低	-0.04090498
-0.9576267	低 位	-0.04090498
-0.28471065	職 位	-0.04090498
-1.4883324	下 已	-0.04090498
-1.3824642	口 已	-0.04090498
-1.6286249	位 已	-0.04090498
-1.3982122	現 已	-0.04090498
-1.5417289	已 上	-0.04090498
-0.95907336	上 升	-0.04090498
-0.95907336	升 超	-0.04090498
-0.95907336	超 過	-0.04090498
-1.9672701	一 倍	-0.04090498
-1.2389072	明 現	-0.04090498
-1.4006135	至 現	-0.04090498
-1.5116285	但 現	-0.04090498
-0.50262284	現 時	-0.15029575
-1.2021879	友 時	-0.04090498
-0.93336844	詢 時	-0.04090498
-1.2021879	比 時	-0.04090498
-0.43958545	臨 時	-0.110690795
-0.93336844	SARS 時	-0.04090498
-2.1969006	的 六	-0.04090498
-0.9576267	六 十	-0.04090498
-1.2483722	五 十	-0.04090498
-1.2512022	十 四	-0.04090498
-0.95907336	四 %	-0.04090498
-1.7516608	時 這	-0.04090498
-0.9576267	% 這	-0.04090498
-1.3482935	官 方	-0.04090498
-1.9257457	的 方	-0.04090498
-1.0752448	一 方	-0.15029575
-1.6135421	個 方	-0.04090498
-1.5700902	位 方	-0.04090498
-0.93336844	廣 方	-0.04090498
-1.2263193	士 很	-0.04090498
-1.6432716	方 很	-0.04090498
-0.9461962	得 很	-0.04090498
-1.3824642	助 很	-0.04090498
-1.7516608	在 保	-0.04090498
-1.5373079	很 保	-0.04090498
-1.2512022	保 守	-0.04090498
-1.3298254	的 數	-0.110690795
-1.4144169	率 數	-0.04090498
-1.4254764	數 據	-0.04090498
-1.2512022	覺 得	-0.04090498
-1.5373079	很 奇	-0.04090498
-0.9576267	市 奇	-0.04090498
-1.2512022	奇 怪	-0.04090498
-1.9549854	是 申	-0.04090498
-0.95907336	申 領	-0.04090498
-1.8529097	業 綜	-0.15029575
-0.509486	數 字	-0.110690795
-1.9124372	們 只	-0.04090498
-1.2483722	字 只	-0.04090498
-1.7516608	在 增	-0.04090498
-1.4223679	只 增	-0.04090498
-0.33446068	增 加	-0.04090498
-1.2483722	加 大	-0.04090498
-1.5295362	供 大	-0.04090498
-1.2512022	大 約	-0.04090498
-0.9576267	約 三	-0.04090498
-0.9576267	造 三	-0.04090498
-1.2263193	三 分	-0.04090498
-1.4883324	要 分	-0.04090498
-1.3824642	百 分	-0.04090498
-1.2263193	中 分	-0.04090498
-1.9556444	一 說	-0.04090498
-1.7516608	時 說	-0.04090498
-1.6866306	援 制	-0.04090498
-0.9576267	機 制	-0.04090498
-1.4185712	制 度	-0.04090498
-0.95907336	度 其	-0.04090498
-0.95275503	其 實	-0.04090498
-1.2389072	落 實	-0.04090498
-0.95275503	事 實	-0.04090498
-1.2512022	無 法	-0.04090498
-0.95907336	法 幫	-0.04090498
-0.9576267	幫 助	-0.04090498
-0.33425322	協 助	-0.04090498
-1.5950474	為 多	-0.04090498
-0.63095796	很 多	-0.04090498
-1.2389072	萬 多	-0.04090498
-1.5116285	多 有	-0.04090498
-1.4006135	沒 有	-0.04090498
-0.95275503	期 有	-0.04090498
-1.4185712	有 需	-0.04090498
-1.9417822	是 要	-0.04090498
-0.9576267	需 要	-0.04090498
-1.5116285	要 而	-0.04090498
-1.2389072	從 而	-0.04090498
-1.2389072	負 而	-0.04090498
-1.4185712	而 且	-0.04090498
-0.8073339	工 友	-0.04090498
-1.7516608	時 常	-0.04090498
-0.9576267	恆 常	-0.04090498
-1.2512022	常 慨	-0.04090498
-0.95907336	慨 嘆	-0.04090498
-1.5349594	疫 症	-0.04090498
-0.95907336	症 尚	-0.04090498
-0.95907336	尚 未	-0.04090498
-0.9576267	未 清	-0.04090498
-1.2483722	經 清	-0.04090498
-1.9556444	一 零	-0.04090498
-0.33425322	清 零	-0.04090498
-1.4185712	零 他	-0.04090498
-2.1969006	的 荷	-0.04090498
-1.2483722	包 及	-0.04090498
-1.2483722	常 及	-0.04090498
-1.2512022	及 銀	-0.04090498
-1.630123	行 戶	-0.04090498
-0.63336146	已 經	-0.04090498
-0.97888094	業 計	-0.15029575
-0.9576267	詳 計	-0.04090498
-1.2512022	計 劃	-0.04090498
-1.2512022	經 花	-0.04090498
-0.9576267	花 了	-0.04090498
-1.4144169	沒 了	-0.04090498
-1.2512022	了 八	-0.04090498
-2.114694	的 百	-0.04090498
-1.9183769	一 百	-0.04090498
-0.95275503	八 百	-0.04090498
-1.2483722	十 億	-0.04090498
-1.4144169	百 億	-0.04090498
-0.33446068	億 元	-0.04090498
-1.6866306	以 協	-0.04090498
-1.5295362	供 協	-0.04090498
-1.1037714	一 些	-0.04090498
-1.2512022	些 企	-0.04090498
-1.8529097	業 甚	-0.04090498
-1.5349594	疫 市	-0.04090498
-1.2512022	奇 葩	-0.04090498
-1.6168439	為 何	-0.04090498
-1.2483722	如 何	-0.04090498
-1.6611439	會 沒	-0.04090498
-1.2389072	友 沒	-0.04090498
-0.95275503	完 沒	-0.04090498
-1.9246849	們 香	-0.04090498
-0.95907336	香 港	-0.04090498
-1.6944387	會 聯	-0.04090498
-0.9576267	聯 合	-0.04090498
-0.9576267	較 合	-0.04090498
-1.6944387	會 曾	-0.04090498
-1.7058723	們 提	-0.04090498
-1.4922357	府 提	-0.04090498
-1.3321663	而 提	-0.04090498
-1.1906071	何 提	-0.04090498
-0.92709386	曾 提	-0.04090498
-0.92709386	再 提	-0.04090498
-1.3321663	面 提	-0.15029575
-2.1767693	的 出	-0.04090498
-0.5265559	提 出	-0.09216524
-1.4144169	百 五	-0.04090498
-0.9576267	点 五	-0.04090498
-1.2512022	元 封	-0.04090498
-0.95907336	封 頂	-0.04090498
-1.701324	方 案	-0.04090498
-1.7009522	你 剛	-0.04090498
-0.95907336	剛 才	-0.04090498
-1.4144169	率 回	-0.04090498
-0.9576267	才 回	-0.04090498
-1.2512022	回 答	-0.04090498
-1.4006135	議 員	-0.04090498
-0.95275503	委 員	-0.04090498
-1.2389072	成 員	-0.04090498
-2.1969006	的 質	-0.04090498
-0.95907336	質 詢	-0.04090498
-1.2512022	說 擔	-0.04090498
-0.95907336	擔 心	-0.04090498
-1.4185712	沒 完	-0.04090498
-1.9563639	我 再	-0.04090498
-1.701324	方 向	-0.04090498
-0.95907336	向 讓	-0.04090498
-1.7009522	你 思	-0.04090498
-0.9576267	思 考	-0.04090498
-0.9576267	意 考	-0.04090498
-1.9549854	是 設	-0.04090498
-0.95907336	設 立	-0.04090498
-1.7443818	個 退	-0.04090498
-1.6168439	為 退	-0.04090498
-0.33446068	退 場	-0.15029575
-0.95907336	場 機	-0.15029575
-1.4185712	制 當	-0.04090498
-1.5373079	已 落	-0.04090498
-1.2483722	回 落	-0.04090498
-1.2483722	落 到	-0.04090498
-0.9576267	找 到	-0.04090498
-1.7443818	個 比	-0.04090498
-1.5373079	分 比	-0.04090498
-1.2512022	比 較	-0.04090498
-1.2483722	合 理	-0.04090498
-0.9576267	道 理	-0.04090498
-1.2512022	這 項	-0.04090498
-1.7153888	個 臨	-0.04090498
-1.2389072	些 臨	-0.04090498
-0.95275503	項 臨	-0.04090498
-1.2512022	劃 便	-0.04090498
-1.6944387	會 結	-0.04090498
-0.95907336	結 束	-0.04090498
-0.95907336	束 將	-0.04090498
-0.95907336	將 來	-0.04090498
-1.4144169	議 如	-0.04090498
-0.9576267	來 如	-0.04090498
-0.8113891	提 供	-0.04090498
-1.5349594	供 恆	-0.04090498
-1.2512022	及 永	-0.04090498
-0.95907336	永 久	-0.04090498
-1.6714917	你 可	-0.04090498
-1.6611439	援 可	-0.04090498
-1.4006135	否 可	-0.04090498
-1.6866306	以 從	-0.04090498
-1.6866306	位 從	-0.04090498
-1.2512022	從 詳	-0.04090498
-1.2512022	如 果	-0.04090498
-1.2483722	字 作	-0.04090498
-1.5295362	要 作	-0.04090498
-1.9417822	是 否	-0.04090498
-1.4223679	可 否	-0.04090498
-1.4185712	否 願	-0.04090498
-0.95907336	願 意	-0.04090498
-1.2512022	考 慮	-0.04090498
-1.6944387	援 金	-0.04090498
-2.1969006	的 概	-0.04090498
-0.95907336	概 念	-0.04090498
-0.9576267	念 呢	-0.04090498
-1.4144169	論 呢	-0.04090498
-1.2512022	呢 另	-0.04090498
-0.95907336	另 外	-0.04090498
-1.7683665	業 職	-0.04090498
-1.6787213	個 職	-0.04090498
-1.692035	時 職	-0.15029575
-0.9461962	量 職	-0.04090498
-0.74367654	方 面	-0.09216524
-1.5349594	出 創	-0.04090498
-0.95907336	創 造	-0.04090498
-1.2483722	三 萬	-0.04090498
-0.9576267	七 萬	-0.04090498
-1.9549854	是 稍	-0.04090498
-1.4185712	零 点	-0.04090498
-1.2512022	五 SARS	-0.04090498
-1.7597045	時 期	-0.04090498
-1.4185712	有 七	-0.04090498
-1.7597045	在 社	-0.04090498
-0.95907336	社 區	-0.04090498
-0.95907336	區 照	-0.04090498
-1.6940668	工 顧	-0.04090498
-0.9576267	照 顧	-0.04090498
-1.2512022	顧 抗	-0.04090498
-1.5349594	疫 前	-0.04090498
-0.95907336	前 線	-0.04090498
-1.2512022	和 旅	-0.04090498
-0.95907336	旅 遊	-0.04090498
-0.95907336	遊 推	-0.04090498
-0.95907336	推 廣	-0.04090498
-1.2512022	大 量	-0.04090498
-1.9563639	我 認	-0.04090498
-1.623484	府 應	-0.04090498
-1.4185712	面 派	-0.04090498
-0.95907336	派 錢	-0.04090498
-1.2512022	最 後	-0.04090498
-1.2512022	顧 問	-0.04090498
-0.95907336	問 委	-0.04090498
-2.1767693	的 成	-0.04090498
-0.9576267	責 成	-0.04090498
-1.4185712	員 鄧	-0.04090498
-0.95907336	鄧 家	-0.04090498
-0.95907336	家 彪	-0.04090498
-1.5295362	望 邀	-0.04090498
-0.9576267	誠 邀	-0.04090498
-1.2512022	邀 請	-0.04090498
-1.5295362	長 進	-0.04090498
-1.9124372	們 進	-0.04090498
-1.630123	行 公	-0.04090498
-0.95907336	公 開	-0.04090498
-1.6057155	行 辯	-0.04090498
-1.7254348	在 辯	-0.04090498
-0.95275503	開 辯	-0.04090498
-0.4453935	辯 論	-0.04090498
-1.4185712	口 舌	-0.04090498
-1.4185712	之 爭	-0.04090498
-0.95907336	爭 也	-0.04090498
-1.7597045	在 鬥	-0.04090498
-0.95907336	鬥 嘴	-0.04090498
-1.4144169	論 中	-0.04090498
-0.9576267	嘴 中	-0.04090498
-0.63336146	分 勝	-0.15029575
-0.95907336	勝 負	-0.04090498
-1.2512022	中 找	-0.04090498
-1.2512022	到 救	-0.04090498
-1.5349594	出 路	-0.04090498
-1.4185712	否 責	-0.04090498
-1.2512022	成 或	-0.04090498
-0.95907336	或 替	-0.04090498
-1.9563639	我 誠	-0.04090498
-1.5349594	長 與	-0.04090498
-1.5349594	望 擺	-0.04090498
-0.95907336	擺 事	-0.04090498
-1.2512022	講 道	-0.04090498

\3-grams:
-0.8510104	道 理 </s>
-0.72149193	<s> 主 席
-0.71466273	主 席 行
-0.71466273	及 銀 行
-0.28984448	長 進 行
-0.28984448	們 進 行
-0.71466273	出 路 行
-0.5749616	席 行 政
-0.5749616	路 行 政
-0.7043572	催 迫 政
-0.9237709	認 為 政
-1.356424	職 位 政
-1.05898	機 制 政
-1.05898	清 零 政
-1.2210277	方 面 政
-0.5167612	行 政 長
-0.537305	光 局 長
-0.5038495	政 長 官
-0.9987237	這 是 官
-1.0292933	長 官 我
-0.8345871	支 援 我
-0.8103874	是 令 我
-0.69098616	特 首 我
-1.0292933	協 助 我
-0.8103874	沒 了 我
-0.69098616	考 慮 我
-1.1051517	辯 論 我
-0.9593985	勝 負 我
-0.69098616	或 替 我
-0.69098616	長 與 我
-0.99666166	官 我 希
-0.92715573	只 是 希
-0.78726506	而 是 希
-0.718153	家 彪 希
-0.38064462	我 希 望
-0.26262406	是 希 望
-0.38064462	彪 希 望
-1.06673	長 官 你
-1.2586594	希 望 你
-1.2165716	覺 是 你
-0.91172314	長 但 你
-0.7077653	方 案 你
-0.7077653	向 讓 你
-0.96538544	望 你 明
-0.8499833	一 說 明
-0.8510104	你 明 白
-1.2466617	希 望 在
-0.7043572	明 白 在
-1.1488714	可 以 在
-0.87862086	甚 至 在
-1.3756552	政 府 在
-1.1927445	是 要 在
-0.7043572	另 外 在
-0.66873753	白 在 疫
-0.66873753	至 在 疫
-1.0081266	下 的 疫
-0.71466273	慨 嘆 疫
-0.71466273	顧 抗 疫
-0.504209	在 疫 情
-1.0112303	疫 情 之
-0.9310496	三 分 之
-0.718153	口 舌 之
-1.0044029	疫 情 下
-0.8941059	情 之 下
-0.71466273	括 閣 下
-1.0044029	計 劃 下
-0.93264776	之 下 最
-1.4352823	職 位 最
-0.8510104	下 最 受
-0.72149193	最 受 傷
-0.84584224	情 下 的
-0.6654192	受 傷 的
-0.82167435	口 停 的
-1.0850486	失 業 的
-0.8632431	予 人 的
-0.91309834	人 士 的
-1.0481403	綜 援 的
-0.9437777	我 們 的
-0.715631	他 們 的
-0.8714348	員 會 的
-0.3922211	現 時 的
-0.81390417	臨 時 的
-0.6654192	保 守 的
-0.6654192	奇 怪 的
-0.82167435	落 實 的
-1.1590983	提 出 的
-0.6654192	封 頂 的
-0.82167435	議 員 的
-0.7770337	合 理 的
-0.6654192	永 久 的
-0.6654192	援 金 的
-0.86831003	傷 的 是
-0.86831003	怪 的 是
-0.46387196	們 不 是
-0.46387196	呢 不 是
-0.46387196	也 不 是
-0.8945042	政 府 是
-0.89560884	據 但 是
-0.46781844	感 覺 是
-0.90436643	考 就 是
-0.8191419	% 這 是
-0.42094293	們 只 是
-0.47570646	字 只 是
-0.868596	負 而 是
-0.8539797	分 之 一
-1.1587317	的 是 一
-0.80607533	多 於 一
-1.268448	一 個 一
-0.6877068	超 過 一
-1.0221783	協 助 一
-0.7363215	提 出 一
-0.6877068	設 立 一
-0.80607533	落 到 一
-1.1911925	提 供 一
-0.6877068	府 應 一
-0.6877068	派 錢 一
-1.0012999	是 一 群
-0.72149193	一 群 手
-0.718153	群 手 停
-0.8993927	停 口 停
-0.9311968	都 不 停
-0.8993927	手 停 口
-0.718153	行 戶 口
-0.8465173	要 作 口
-1.0192189	停 的 打
-1.4035031	業 的 工
-0.7112003	的 打 工
-0.28905663	們 勞 工
-0.28905663	後 勞 工
-1.1188903	很 多 工
-0.7112003	香 港 工
-0.9665482	打 工 仔
-0.7207295	工 仔 對
-0.8499833	為 何 對
-0.8499833	仔 對 於
-0.93264776	為 多 於
-0.87289196	們 的 失
-0.924381	時 的 失
-0.7472809	出 的 失
-0.7472809	久 的 失
-0.8191419	何 對 失
-0.8191419	對 於 失
-1.351574	支 援 失
-0.9244139	果 以 失
-0.6976202	申 領 失
-0.6976202	而 且 失
-0.6976202	制 當 失
-0.6976202	到 救 失
-0.059328597	的 失 業
-0.093789436	對 失 業
-0.093789436	於 失 業
-0.093789436	援 失 業
-0.093789436	以 失 業
-0.093789436	領 失 業
-0.093789436	且 失 業
-0.093789436	當 失 業
-0.093789436	救 失 業
-0.518889	保 就 業
-0.518889	加 就 業
-0.718153	些 企 業
-1.4176967	業 的 人
-1.6799439	失 業 人
-0.71466273	們 予 人
-0.84183323	卻 令 人
-0.5205776	的 人 士
-0.5205776	業 人 士
-0.8934573	士 的 支
-1.1682684	時 的 支
-1.2150655	失 業 支
-0.8993927	沒 有 支
-0.26247552	的 支 援
-0.26247552	業 支 援
-0.3803938	有 支 援
-0.43117303	業 綜 援
-0.2074622	援 我 們
-0.29122248	令 我 們
-0.29122248	首 我 們
-0.29122248	慮 我 們
-0.29122248	論 我 們
-0.29122248	負 我 們
-0.29122248	與 我 們
-0.6326681	是 你 們
-0.6326681	但 你 們
-0.718153	零 他 們
-1.6503317	我 們 勞
-0.7207295	最 後 勞
-1.2002243	勞 工 界
-0.7112003	工 界 以
-0.8371991	全 力 以
-0.9976811	億 元 以
-0.42617518	援 可 以
-0.42617518	否 可 以
-0.7112003	如 果 以
-0.95961	界 以 至
-0.718153	一 倍 至
-0.718153	業 甚 至
-0.904471	以 至 整
-0.44512224	出 一 個
-0.75656694	立 一 個
-0.75656694	到 一 個
-0.71466273	至 整 個
-0.9228081	萬 多 個
-0.84183323	三 萬 個
-0.9689368	整 個 議
-0.8465173	詳 計 議
-0.718153	回 答 議
-0.9457759	港 工 會
-0.8837215	個 議 會
-0.83261395	聯 合 會
-0.8837215	委 員 會
-0.7077653	擔 心 會
-0.7077653	劃 便 會
-0.9654486	議 會 都
-1.6046199	我 們 不
-0.71466273	會 都 不
-0.84183323	論 呢 不
-0.71466273	爭 也 不
-0.904471	不 停 催
-0.72149193	停 催 迫
-0.2075371	迫 政 府
-0.2075371	為 政 府
-0.2075371	位 政 府
-0.2075371	制 政 府
-0.2075371	零 政 府
-0.2075371	面 政 府
-1.451729	政 府 包
-0.7207295	的 荷 包
-0.8510104	府 包 括
-0.72149193	包 括 閣
-0.93264776	閣 下 和
-0.7207295	前 線 和
-0.8465173	下 和 羅
-0.8465173	誠 邀 羅
-0.718153	邀 請 羅
-0.38064462	和 羅 致
-0.38064462	邀 羅 致
-0.38064462	請 羅 致
-0.537743	羅 致 光
-0.537743	致 光 局
-1.2252897	局 長 但
-0.71466273	以 赴 但
-1.4047209	職 位 但
-0.71466273	數 據 但
-1.253612	你 們 予
-1.0179751	人 的 感
-0.93442494	令 人 感
-1.6503317	我 們 覺
-0.29121333	的 感 覺
-0.29121333	人 感 覺
-1.2512076	你 們 講
-0.9033096	事 實 講
-0.84183323	們 講 就
-0.84183323	在 保 就
-1.0044029	增 加 就
-0.84183323	思 考 就
-0.935425	講 就 全
-0.7207295	就 全 力
-0.9512517	能 為 力
-0.9654486	力 以 赴
-0.93389046	赴 但 做
-0.72149193	但 做 卻
-0.9987237	但 是 令
-0.7207295	做 卻 令
-1.2568785	覺 是 無
-0.9033096	其 實 無
-0.8510104	是 無 能
-0.7112003	無 能 為
-0.7112003	奇 葩 為
-0.8371991	字 作 為
-0.7112003	是 稍 為
-0.7112003	我 認 為
-0.8510104	為 力 特
-0.72149193	力 特 首
-1.2104504	失 業 率
-1.189243	業 率 由
-0.72149193	率 由 低
-0.7207295	由 低 位
-0.24997889	業 職 位
-0.24997889	個 職 位
-0.18057911	時 職 位
-0.24997889	量 職 位
-0.9228081	劃 下 已
-0.8941059	戶 口 已
-0.9535423	低 位 已
-0.8987022	但 現 已
-0.935425	位 已 上
-0.72149193	已 上 升
-0.72149193	上 升 超
-0.72149193	升 超 過
-1.0012999	過 一 倍
-0.8465173	說 明 現
-0.8993927	倍 至 現
-0.9284585	位 但 現
-0.42486122	明 現 時
-0.42486122	至 現 時
-0.9910617	工 友 時
-0.7077653	質 詢 時
-0.83261395	分 比 時
-0.37608424	個 臨 時
-0.37608424	些 臨 時
-0.37608424	項 臨 時
-0.7077653	五 SARS 時
-1.4467715	時 的 六
-0.7207295	的 六 十
-0.8499833	百 五 十
-0.8510104	六 十 四
-0.72149193	十 四 %
-0.9746524	比 時 這
-0.7207295	四 % 這
-0.8837215	是 官 方
-0.9970319	頂 的 方
-0.7787922	應 一 方
-0.7787922	錢 一 方
-1.3503629	一 個 方
-1.3719338	職 位 方
-0.7077653	推 廣 方
-1.0044029	人 士 很
-0.95632094	官 方 很
-0.71466273	覺 得 很
-0.8941059	幫 助 很
-0.9746524	府 在 保
-0.93442494	方 很 保
-0.8510104	很 保 守
-0.8778697	援 的 數
-0.8778697	守 的 數
-0.8778697	實 的 數
-1.1870083	業 率 數
-1.2287176	的 數 據
-0.8510104	們 覺 得
-0.93442494	得 很 奇
-0.7207295	疫 市 奇
-0.8510104	很 奇 怪
-1.2593304	的 是 申
-0.72149193	是 申 領
-1.2233728	失 業 綜
-0.36170074	的 數 字
-0.43007356	率 數 字
-1.6503317	我 們 只
-0.62202036	數 字 只
-0.9746524	外 在 增
-1.1004138	字 只 增
-0.29138434	在 增 加
-0.29138434	只 增 加
-1.0163044	增 加 大
-1.3066255	提 供 大
-0.8510104	加 大 約
-0.7207295	大 約 三
-0.7207295	創 造 三
-0.84183323	約 三 分
-1.2252897	是 要 分
-0.8941059	的 百 分
-0.84183323	嘴 中 分
-1.0001416	之 一 說
-0.9746524	詢 時 說
-1.1960608	綜 援 制
-0.43117303	場 機 制
-0.904471	援 制 度
-0.72149193	制 度 其
-0.718153	度 其 實
-0.8465173	已 落 實
-0.718153	擺 事 實
-0.8510104	實 無 法
-0.72149193	無 法 幫
-0.7207295	法 幫 助
-0.29121333	以 協 助
-0.29121333	供 協 助
-0.94688004	稍 為 多
-0.518889	士 很 多
-0.518889	助 很 多
-0.8465173	七 萬 多
-1.1368932	很 多 有
-0.8993927	友 沒 有
-0.718153	時 期 有
-0.904471	多 有 需
-0.67495847	不 是 要
-0.7207295	有 需 要
-0.9284585	需 要 而
-0.8465173	位 從 而
-1.0112303	勝 負 而
-0.904471	要 而 且
-0.6350452	的 工 友
-0.6350452	多 工 友
-0.9746524	友 時 常
-0.7207295	供 恆 常
-0.8510104	時 常 慨
-0.72149193	常 慨 嘆
-0.93389046	嘆 疫 症
-0.72149193	疫 症 尚
-0.72149193	症 尚 未
-0.7207295	尚 未 清
-1.0163044	已 經 清
-1.0001416	於 一 零
-0.29121333	未 清 零
-0.29121333	經 清 零
-1.0987633	清 零 他
-1.2947577	們 的 荷
-0.8499833	荷 包 及
-0.8499833	恆 常 及
-0.8510104	包 及 銀
-0.95383	銀 行 戶
-0.5205776	下 已 經
-0.5205776	口 已 經
-1.0455283	失 業 計
-0.85235405	就 業 計
-0.7207295	從 詳 計
-0.4785876	業 計 劃
-1.0178115	已 經 花
-0.7207295	經 花 了
-0.9033096	完 沒 了
-0.8510104	花 了 八
-1.013782	理 的 百
-0.99623567	個 一 百
-0.718153	了 八 百
-0.8499833	五 十 億
-0.9033096	八 百 億
-0.29138434	十 億 元
-0.29138434	百 億 元
-0.9641124	元 以 協
-1.3066255	提 供 協
-0.7916787	助 一 些
-0.7916787	供 一 些
-1.0178115	一 些 企
-0.9886095	企 業 甚
-0.93389046	的 疫 市
-0.8510104	市 奇 葩
-0.9512517	葩 為 何
-0.8499833	來 如 何
-0.95961	心 會 沒
-1.0112303	工 友 沒
-0.718153	沒 完 沒
-1.6563845	我 們 香
-0.72149193	們 香 港
-0.9654486	工 會 聯
-0.7207295	會 聯 合
-0.7207295	比 較 合
-0.9654486	合 會 曾
-1.5353436	我 們 提
-1.3756552	政 府 提
-0.87862086	從 而 提
-0.8280767	如 何 提
-0.7043572	會 曾 提
-0.7043572	我 再 提
-0.7353954	方 面 提
-1.4434503	業 的 出
-0.442951	們 提 出
-0.442951	府 提 出
-0.442951	曾 提 出
-0.442951	再 提 出
-0.9033096	一 百 五
-0.7207295	零 点 五
-1.0178115	億 元 封
-0.72149193	元 封 頂
-0.96661055	的 方 案
-0.9665482	案 你 剛
-0.72149193	你 剛 才
-1.1870083	業 率 回
-0.7207295	剛 才 回
-0.8510104	才 回 答
-0.8993927	答 議 員
-0.718153	問 委 員
-0.8465173	的 成 員
-1.0192189	員 的 質
-0.72149193	的 質 詢
-0.8510104	時 說 擔
-0.72149193	說 擔 心
-0.904471	會 沒 完
-1.0002141	了 我 再
-0.96661055	個 方 向
-0.72149193	方 向 讓
-0.9665482	讓 你 思
-0.7207295	你 思 考
-0.7207295	願 意 考
-1.0000752	就 是 設
-0.72149193	是 設 立
-1.4104192	一 個 退
-0.9512517	作 為 退
-0.29138434	個 退 場
-0.29138434	為 退 場
-0.43147713	退 場 機
-1.0987633	機 制 當
-0.93442494	現 已 落
-0.8499833	率 回 落
-0.8499833	回 落 到
-0.7207295	中 找 到
-1.4104192	一 個 比
-0.93442494	百 分 比
-0.8510104	個 比 較
-0.8499833	較 合 理
-0.7207295	講 道 理
-0.8510104	時 這 項
-0.9689368	多 個 臨
-1.0112303	一 些 臨
-0.718153	這 項 臨
-1.0178115	計 劃 便
-0.9654486	便 會 結
-0.72149193	會 結 束
-0.72149193	結 束 將
-0.72149193	束 將 來
-0.9033096	計 議 如
-0.7207295	將 來 如
-0.6375228	而 提 供
-0.6375228	何 提 供
-0.39603397	面 提 供
-1.3095713	提 供 恆
-0.8510104	常 及 永
-0.72149193	及 永 久
-0.9614643	官 你 可
-1.4428837	支 援 可
-1.090846	是 否 可
-1.1960608	可 以 從
-1.4352823	職 位 從
-0.8510104	以 從 詳
-0.8510104	議 如 果
-1.132483	數 字 作
-1.2452652	是 要 作
-0.52197397	府 是 否
-0.90552545	你 可 否
-1.0987633	是 否 願
-0.72149193	否 願 意
-0.8510104	意 考 慮
-1.459264	支 援 金
-1.0192189	金 的 概
-0.72149193	的 概 念
-0.7207295	概 念 呢
-1.1870083	辯 論 呢
-0.8510104	念 呢 另
-0.72149193	呢 另 外
-1.2185464	就 業 職
-0.96273834	萬 個 職
-0.6761833	臨 時 職
-0.71466273	大 量 職
-0.3765562	一 方 面
-0.5949873	位 方 面
-0.5949873	廣 方 面
-1.3365827	提 出 創
-0.72149193	出 創 造
-0.8499833	造 三 萬
-0.7207295	有 七 萬
-1.2593304	只 是 稍
-0.904471	一 零 点
-0.8510104	点 五 SARS
-0.97586614	SARS 時 期
-0.904471	期 有 七
-0.97586614	以 在 社
-0.72149193	在 社 區
-0.72149193	社 區 照
-1.1982347	勞 工 顧
-0.7207295	區 照 顧
-0.8510104	照 顧 抗
-0.93389046	抗 疫 前
-0.72149193	疫 前 線
-0.8510104	線 和 旅
-0.72149193	和 旅 遊
-0.72149193	旅 遊 推
-0.72149193	遊 推 廣
-0.8510104	供 大 量
-1.0002141	助 我 認
-1.4555418	政 府 應
-1.2730895	方 面 派
-0.72149193	面 派 錢
-0.8510104	位 最 後
-0.8510104	工 顧 問
-0.72149193	顧 問 委
-1.0179751	會 的 成
-0.7207295	否 責 成
-0.904471	成 員 鄧
-0.72149193	員 鄧 家
-0.72149193	鄧 家 彪
-1.3066255	希 望 邀
-0.7207295	我 誠 邀
-0.8510104	望 邀 請
-1.2452652	局 長 進
-1.6503317	我 們 進
-1.1786642	進 行 公
-0.72149193	行 公 開
-1.1706582	進 行 辯
-0.97056025	望 在 辯
-0.718153	公 開 辯
-0.38064462	行 辯 論
-0.38064462	在 辯 論
-0.38064462	開 辯 論
-0.904471	作 口 舌
-0.904471	舌 之 爭
-0.72149193	之 爭 也
-0.97586614	要 在 鬥
-0.72149193	在 鬥 嘴
-1.1870083	辯 論 中
-0.7207295	鬥 嘴 中
-0.5205776	要 分 勝
-0.5205776	中 分 勝
-0.43147713	分 勝 負
-0.8510104	論 中 找
-0.8510104	找 到 救
-0.93389046	的 出 路
-0.904471	可 否 責
-0.8510104	責 成 或
-0.72149193	成 或 替
-1.0002141	替 我 誠
-1.2478218	局 長 與
-1.3095713	希 望 擺
-0.72149193	望 擺 事
-0.8510104	實 講 道

\end\
