\data\
ngram 1=156
ngram 2=260
ngram 3=291

\1-grams:
-2.4917831	<unk>	0
0	<s>	-0.05155782
-2.3599036	</s>	0
-1.7639344	我	-0.12192426
-2.0209534	要	-0.051557794
-2.3599036	指	-0.05155782
-1.8737017	出	-0.1414538
-2.0209534	當	-0.11737071
-2.1166065	天	-0.05155782
-2.3599036	實	-0.05155782
-2.3599036	際	-0.05155782
-1.6035635	的	-0.09418396
-2.3599036	情	-0.05155782
-2.3599036	況	-0.05155782
-2.3599036	主	-0.05155782
-2.3599036	席	-0.05155782
-2.0209534	那	-0.17609124
-1.7639344	在	-0.05155782
-2.1166065	現	-0.05155782
-2.3599036	場	-0.05155782
-2.3599036	印	-0.05155782
-2.3599036	象	-0.05155782
-2.1166065	很	-0.05155782
-2.3599036	深	-0.05155782
-2.3599036	刻	-0.05155782
-2.3599036	難	-0.05155782
-2.3599036	忘	-0.05155782
-2.3599036	莫	-0.05155782
-2.3599036	乃	-0.05155782
-2.3599036	光	-0.05155782
-2.1166065	議	-0.2549485
-1.8737017	員	-0.12192426
-1.8737017	也	-0.1414538
-2.3599036	五	-0.05155782
-2.3599036	樓	-0.05155782
-1.7639344	他	-0.05155782
-2.0209534	對	-0.051557794
-2.3599036	外	-0.05155782
-2.3599036	國	-0.05155782
-1.8737017	記	-0.09995915
-2.3599036	者	-0.05155782
-2.0209534	說	-0.05155782
-2.1166065	話	-0.051557794
-2.3599036	便	-0.05155782
-2.1166065	應	-0.05155782
-2.3599036	該	-0.05155782
-2.3599036	把	-0.05155782
-2.3599036	再	-0.05155782
-2.1166065	一	-0.05155782
-2.3599036	遍	-0.05155782
-2.3599036	根	-0.05155782
-2.3599036	本	-0.05155782
-1.7639344	是	-0.051557794
-2.1166065	兩	-0.05155782
-2.0209534	回	-0.17609124
-2.3599036	事	-0.05155782
-2.0209534	還	-0.17609124
-1.6763881	有	-0.109376
-2.3599036	影	-0.05155782
-2.3599036	片	-0.05155782
-2.1166065	可	-0.05155782
-2.3599036	看	-0.05155782
-2.3599036	些	-0.05155782
-2.3599036	錄	-0.05155782
-2.3599036	了	-0.05155782
-2.3599036	並	-0.05155782
-2.3599036	作	-0.05155782
-2.3599036	報	-0.05155782
-2.1166065	道	-0.05155782
-2.3599036	居	-0.05155782
-2.3599036	高	-0.05155782
-2.3599036	臨	-0.05155782
-2.1166065	下	-0.05155782
-2.3599036	向	-0.05155782
-2.3599036	望	-0.05155782
-2.3599036	此	-0.05155782
-2.1166065	想	-0.17609124
-2.0209534	問	-0.05155782
-2.3599036	家	-0.05155782
-2.3599036	超	-0.05155782
-1.8737017	局	-0.24230944
-2.3599036	長	-0.05155782
-2.1166065	剛	-0.2549485
-2.3599036	才	-0.05155782
-2.0209534	人	-0.051557794
-2.3599036	補	-0.05155782
-2.3599036	充	-0.05155782
-2.3599036	質	-0.05155782
-2.3599036	詢	-0.05155782
-2.3599036	中	-0.05155782
-1.7639344	警	-0.16730049
-2.3599036	方	-0.05155782
-2.0209534	速	-0.11737071
-2.3599036	龍	-0.05155782
-2.3599036	小	-0.05155782
-1.7639344	隊	-0.05155782
-2.3599036	為	-0.05155782
-2.1166065	何	-0.05155782
-2.3599036	沒	-0.05155782
-2.0209534	展	-0.11737071
-2.3599036	示	-0.05155782
-2.3599036	編	-0.05155782
-2.3599036	號	-0.05155782
-2.3599036	名	-0.05155782
-2.3599036	勤	-0.051557794
-2.1166065	整	-0.05155782
-2.1166065	呢	-0.05155782
-2.1166065	飛	-0.2549485
-2.3599036	虎	-0.05155782
-2.3599036	又	-0.05155782
-1.8737017	會	-0.05155782
-2.1166065	否	-0.05155782
-2.0209534	時	-0.051557794
-2.3599036	甚	-0.05155782
-2.3599036	至	-0.05155782
-2.3599036	戴	-0.05155782
-2.3599036	上	-0.05155782
-2.3599036	頭	-0.05155782
-2.1166065	套	-0.05155782
-2.3599036	蒙	-0.05155782
-2.1166065	面	-0.05155782
-2.3599036	收	-0.05155782
-2.1166065	亦	-0.05155782
-2.3599036	趕	-0.05155782
-2.3599036	快	-0.05155782
-2.3599036	離	-0.05155782
-2.1166065	開	-0.05155782
-1.8737017	不	-0.1414538
-2.3599036	露	-0.05155782
-2.3599036	即	-0.05155782
-2.3599036	使	-0.05155782
-2.3599036	任	-0.05155782
-2.3599036	憑	-0.05155782
-2.3599036	其	-0.05155782
-1.7639344	裝	-0.33921945
-2.3599036	備	-0.05155782
-2.3599036	知	-0.05155782
-2.3599036	們	-0.05155782
-2.3599036	第	-0.05155782
-2.3599036	二	-0.05155782
-2.3599036	反	-0.05155782
-2.3599036	派	-0.05155782
-2.3599036	連	-0.05155782
-2.3599036	關	-0.05155782
-2.3599036	題	-0.05155782
-2.3599036	懂	-0.05155782
-2.3599036	答	-0.051557794
-2.3599036	你	-0.05155782
-2.3599036	真	-0.05155782
-2.3599036	保	-0.05155782
-2.3599036	密	-0.05155782
-2.3599036	隨	-0.05155782
-2.3599036	公	-0.05155782
-2.3599036	陳	-0.05155782
-2.3599036	列	-0.05155782
-2.3599036	和	-0.05155782

\2-grams:
-1.2229539	題 </s>	0
-0.8953975	<s> 我	-0.033541143
-0.8953975	席 我	-0.033541143
-0.8953975	望 我	-0.033541143
-1.3637269	號 我	-0.033541143
-0.8953975	列 我	-0.033541143
-1.5289347	我 要	-0.033541143
-1.3598559	還 要	-0.033541143
-1.4383337	備 要	-0.033541143
-1.3851998	要 指	-0.033541143
-0.90721554	指 出	-0.033541143
-0.7265053	員 出	-0.3053194
-0.90721554	作 出	-0.033541143
-1.587196	隊 出	-0.033541143
-1.4576087	出 當	-0.033541143
-1.5289347	員 當	-0.033541143
-1.1908954	道 當	-0.033541143
-0.6150185	當 天	-0.033541143
-0.52126515	那 天	-0.033541143
-1.5806154	天 實	-0.033541143
-0.9362253	實 際	-0.033541143
-0.8726845	際 的	-0.033541143
-1.3515149	他 的	-0.033541143
-1.3000771	說 的	-0.033541143
-1.1073773	下 的	-0.033541143
-1.1073773	方 的	-0.033541143
-1.3000771	備 的	-0.3053194
-0.8726845	真 的	-0.033541143
-1.7567776	的 情	-0.033541143
-0.9362253	情 況	-0.033541143
-0.9362253	況 主	-0.033541143
-0.9362253	主 席	-0.033541143
-1.5289347	我 那	-0.033541143
-0.9193642	把 那	-0.033541143
-0.9193642	看 那	-0.033541143
-1.4510705	我 在	-0.033541143
-1.4238708	天 在	-0.033541143
-1.1471318	現 在	-0.033541143
-0.6299517	也 在	-0.3053194
-1.2789569	人 在	-0.033541143
-1.5349517	在 現	-0.033541143
-1.5349517	他 現	-0.033541143
-1.2229539	現 場	-0.033541143
-0.9362253	場 印	-0.033541143
-0.9362253	印 象	-0.033541143
-0.9254405	象 很	-0.033541143
-0.9254405	刻 很	-0.033541143
-1.2229539	很 深	-0.033541143
-0.9362253	深 刻	-0.033541143
-1.2229539	很 難	-0.033541143
-0.9362253	難 忘	-0.033541143
-0.9362253	忘 莫	-0.033541143
-0.9362253	莫 乃	-0.033541143
-0.9362253	乃 光	-0.033541143
-0.9254405	光 議	-0.033541143
-0.9254405	派 議	-0.033541143
-0.34537494	議 員	-0.033541143
-1.3081113	人 員	-0.033541143
-0.7288301	警 員	-0.5418728
-1.587196	隊 員	-0.033541143
-1.4651369	天 也	-0.033541143
-1.4651369	他 也	-0.033541143
-1.3081113	人 也	-0.033541143
-1.1684626	題 也	-0.033541143
-1.5806154	在 五	-0.3053194
-0.9362253	五 樓	-0.033541143
-1.4238708	天 他	-0.033541143
-1.1471318	樓 他	-0.033541143
-1.2789569	話 他	-0.033541143
-0.8953975	了 他	-0.033541143
-1.1471318	道 他	-0.033541143
-1.5107398	天 對	-0.033541143
-1.5107398	他 對	-0.033541143
-0.9193642	反 對	-0.033541143
-1.3851998	對 外	-0.033541143
-0.9362253	外 國	-0.033541143
-1.3081113	對 記	-0.033541143
-0.90721554	國 記	-0.033541143
-1.1684626	者 記	-0.033541143
-0.90721554	些 記	-0.033541143
-0.7421285	記 者	-0.19476031
-1.5289347	員 說	-0.033541143
-1.1908954	者 說	-0.033541143
-0.9193642	再 說	-0.033541143
-0.93121254	的 話	-0.033541143
-1.4587387	說 話	-0.033541143
-1.5806154	在 便	-0.033541143
-0.9254405	便 應	-0.033541143
-1.4587387	備 應	-0.033541143
-1.2229539	應 該	-0.033541143
-0.9362253	該 把	-0.033541143
-1.3851998	話 再	-0.033541143
-1.4587387	說 一	-0.033541143
-1.5943775	是 一	-0.033541143
-1.2229539	一 遍	-0.033541143
-0.9362253	遍 根	-0.033541143
-0.9362253	根 本	-0.033541143
-0.8953975	本 是	-0.033541143
-0.51215386	還 是	-0.033541143
-1.5333389	隊 是	-0.033541143
-0.8953975	們 是	-0.033541143
-0.8953975	你 是	-0.033541143
-1.2023199	一 兩	-0.033541143
-1.5943775	是 兩	-0.033541143
-1.1908954	兩 回	-0.033541143
-1.4383337	長 回	-0.033541143
-0.9193642	懂 回	-0.3053194
-1.3955129	回 事	-0.033541143
-0.9193642	事 還	-0.033541143
-1.3393648	勤 還	-0.033541143
-1.3393648	答 還	-0.033541143
-1.251637	要 有	-0.033541143
-1.1267998	才 有	-0.033541143
-0.88389254	沒 有	-0.033541143
-1.1267998	亦 有	-0.033541143
-0.88389254	連 有	-0.033541143
-1.251637	答 有	-0.033541143
-1.656576	有 影	-0.033541143
-0.9362253	影 片	-0.033541143
-1.4748894	也 可	-0.033541143
-0.9254405	片 可	-0.033541143
-1.2229539	可 看	-0.033541143
-1.3955129	那 些	-0.033541143
-1.5023305	記 錄	-0.033541143
-0.9362253	錄 了	-0.033541143
-1.3851998	話 並	-0.033541143
-0.9362253	並 作	-0.033541143
-1.5067166	出 報	-0.033541143
-0.9254405	報 道	-0.033541143
-0.9254405	知 道	-0.033541143
-1.2229539	樓 居	-0.033541143
-0.9362253	居 高	-0.033541143
-0.9362253	高 臨	-0.033541143
-0.9254405	臨 下	-0.033541143
-0.9254405	向 下	-0.033541143
-1.7567776	的 向	-0.033541143
-1.2229539	下 望	-0.033541143
-1.5806154	在 此	-0.033541143
-0.73663425	我 想	-0.033541143
-0.9254405	此 想	-0.033541143
-1.664267	的 問	-0.3053194
-0.5194577	想 問	-0.033541143
-0.9193642	中 問	-0.033541143
-1.4967208	問 家	-0.033541143
-0.9362253	家 超	-0.033541143
-1.3994302	說 局	-0.033541143
-1.3350744	想 局	-0.033541143
-0.90721554	超 局	-0.033541143
-1.3081113	答 局	-0.033541143
-0.36641937	局 長	-0.033541143
-1.4587387	長 剛	-0.033541143
-0.9254405	二 剛	-0.033541143
-0.35022014	剛 才	-0.033541143
-1.5839558	有 人	-0.033541143
-1.6486901	隊 人	-0.033541143
-1.1908954	何 人	-0.033541143
-1.5806154	在 補	-0.033541143
-0.9362253	補 充	-0.033541143
-0.9362253	充 質	-0.033541143
-0.9362253	質 詢	-0.033541143
-0.9362253	詢 中	-0.033541143
-1.4691571	是 警	-0.033541143
-1.3637269	問 警	-0.033541143
-0.8953975	示 警	-0.41693407
-1.1471318	呢 警	-0.033541143
-1.1471318	關 警	-0.033541143
-0.8384529	警 方	-0.19476031
-1.664267	的 速	-0.033541143
-1.4383337	問 速	-0.033541143
-1.1908954	面 速	-0.033541143
-0.6195209	速 龍	-0.41693407
-0.9362253	龍 小	-0.41693407
-0.8953975	小 隊	-0.033541143
-0.8953975	名 隊	-0.033541143
-1.1471318	整 隊	-0.033541143
-0.8953975	虎 隊	-0.033541143
-0.8953975	收 隊	-0.033541143
-1.7478775	隊 為	-0.033541143
-0.9254405	為 何	-0.033541143
-0.9254405	任 何	-0.033541143
-1.2229539	何 沒	-0.033541143
-1.5839558	有 展	-0.033541143
-1.1908954	否 展	-0.033541143
-1.4576087	不 展	-0.033541143
-0.6195209	展 示	-0.41693407
-1.5903127	員 編	-0.5418728
-0.9362253	編 號	-0.033541143
-1.2229539	兩 名	-0.033541143
-0.6474946	出 勤	-0.033541143
-1.5943775	是 整	-0.033541143
-0.9254405	其 整	-0.033541143
-1.355533	勤 呢	-0.033541143
-0.9254405	密 呢	-0.033541143
-1.4587387	號 飛	-0.033541143
-1.2023199	呢 飛	-0.033541143
-0.35022014	飛 虎	-0.3053194
-1.7478775	隊 又	-0.033541143
-0.90721554	又 會	-0.033541143
-0.90721554	至 會	-0.033541143
-1.1684626	亦 會	-0.033541143
-1.424326	不 會	-0.033541143
-1.2023199	應 否	-0.033541143
-1.4587387	會 否	-0.033541143
-1.6486901	隊 時	-0.033541143
-1.3393648	勤 時	-0.033541143
-0.9193642	隨 時	-0.033541143
-1.3851998	時 甚	-0.033541143
-0.9362253	甚 至	-0.033541143
-1.4967208	會 戴	-0.033541143
-0.9362253	戴 上	-0.033541143
-0.9362253	上 頭	-0.033541143
-1.2023199	整 套	-0.033541143
-0.9254405	頭 套	-0.033541143
-1.2229539	套 蒙	-0.033541143
-0.9254405	蒙 面	-0.033541143
-0.9254405	露 面	-0.033541143
-1.2229539	面 收	-0.033541143
-1.2023199	才 亦	-0.033541143
-1.355533	時 亦	-0.033541143
-1.4967208	會 趕	-0.033541143
-0.9362253	趕 快	-0.033541143
-0.9362253	快 離	-0.033541143
-0.9254405	離 開	-0.033541143
-0.9254405	公 開	-0.033541143
-1.606249	的 不	-0.033541143
-1.424326	也 不	-0.033541143
-1.1684626	開 不	-0.033541143
-0.90721554	使 不	-0.033541143
-1.4967208	會 露	-0.033541143
-1.7478775	隊 即	-0.033541143
-0.9362253	即 使	-0.033541143
-1.4967208	號 任	-0.033541143
-1.2229539	可 憑	-0.033541143
-0.9362253	憑 其	-0.033541143
-1.5550764	的 裝	-0.033541143
-1.4691571	是 裝	-0.033541143
-1.1471318	套 裝	-0.033541143
-1.1471318	關 裝	-0.033541143
-0.8953975	和 裝	-0.033541143
-0.26433015	裝 備	-0.122951455
-1.4967208	備 知	-0.033541143
-1.5806154	他 們	-0.033541143
-1.2229539	方 第	-0.033541143
-0.9362253	第 二	-0.033541143
-1.656576	有 反	-0.033541143
-1.3851998	對 派	-0.033541143
-1.4967208	長 連	-0.033541143
-0.8198626	有 關	-0.033541143
-1.4967208	問 題	-0.033541143
-0.6474946	不 懂	-0.3053194
-0.52442956	回 答	-0.033541143
-1.4967208	長 你	-0.033541143
-1.6471599	是 真	-0.033541143
-1.3851998	要 保	-0.033541143
-0.9362253	保 密	-0.033541143
-1.2229539	否 隨	-0.033541143
-1.3851998	時 公	-0.033541143
-1.2229539	開 陳	-0.033541143
-0.9362253	陳 列	-0.033541143
-1.4967208	號 和	-0.033541143

\3-grams:
-1.0335695	問 題 </s>
-0.71646917	主 席 我
-0.71646917	下 望 我
-1.2317836	編 號 我
-0.71646917	陳 列 我
-0.99263626	<s> 我 要
-0.9402665	事 還 要
-1.3733952	裝 備 要
-0.94902647	我 要 指
-0.72367656	要 指 出
-0.60539806	人 員 出
-0.60539806	隊 員 出
-0.72367656	並 作 出
-1.2138891	虎 隊 出
-0.97225046	指 出 當
-1.1901181	議 員 當
-0.8729994	報 道 當
-0.52441573	出 當 天
-0.52441573	員 當 天
-0.52441573	道 當 天
-0.45215055	我 那 天
-0.45215055	把 那 天
-1.3090242	當 天 實
-0.7410423	天 實 際
-0.7024035	實 際 的
-0.93731	了 他 的
-1.078066	者 說 的
-0.833822	臨 下 的
-0.41287073	警 方 的
-0.6202951	裝 備 的
-0.7024035	是 真 的
-1.043205	際 的 情
-0.7410423	的 情 況
-0.7410423	情 況 主
-0.7410423	況 主 席
-0.99263626	席 我 那
-0.7310056	該 把 那
-0.7310056	可 看 那
-0.97026056	望 我 在
-1.1424077	那 天 在
-0.85296905	他 現 在
-0.53558797	天 也 在
-0.53558797	他 也 在
-0.9100197	有 人 在
-0.9942481	天 在 現
-0.9942481	話 他 現
-0.88698065	在 現 場
-0.7410423	現 場 印
-0.7410423	場 印 象
-0.7346407	印 象 很
-0.7346407	深 刻 很
-0.88698065	象 很 深
-0.7410423	很 深 刻
-0.88698065	刻 很 難
-0.7410423	很 難 忘
-0.7410423	難 忘 莫
-0.7410423	忘 莫 乃
-0.7410423	莫 乃 光
-0.7346407	乃 光 議
-0.7346407	對 派 議
-0.30782717	光 議 員
-0.30782717	派 議 員
-0.9213274	隊 人 員
-0.16202947	示 警 員
-0.6070251	關 警 員
-1.0075704	名 隊 員
-1.2479981	當 天 也
-0.974516	天 他 也
-0.9213274	何 人 也
-1.0001414	問 題 也
-0.28573927	也 在 五
-0.25006768	在 五 樓
-1.2243481	當 天 他
-0.98661834	五 樓 他
-0.9100197	說 話 他
-0.71646917	錄 了 他
-0.85296905	知 道 他
-1.1823052	那 天 對
-0.9876617	樓 他 對
-0.7310056	有 反 對
-0.94902647	他 對 外
-0.7410423	對 外 國
-0.9213274	天 對 記
-0.72367656	外 國 記
-1.1668298	記 者 記
-0.72367656	那 些 記
-0.61628145	對 記 者
-0.61628145	國 記 者
-0.61628145	些 記 者
-1.1901181	議 員 說
-0.42278755	記 者 說
-0.7310056	話 再 說
-0.7380749	他 的 話
-0.7380749	說 的 話
-1.1589404	者 說 話
-1.0059576	現 在 便
-0.7346407	在 便 應
-1.3865242	裝 備 應
-0.88698065	便 應 該
-0.7410423	應 該 把
-1.1232542	的 話 再
-0.9725923	再 說 一
-1.0093095	隊 是 一
-0.88698065	說 一 遍
-0.7410423	一 遍 根
-0.7410423	遍 根 本
-0.71646917	根 本 是
-0.44494152	勤 還 是
-0.44494152	答 還 是
-1.2849652	小 隊 是
-0.71646917	他 們 是
-0.71646917	長 你 是
-0.87804854	是 一 兩
-1.0093095	本 是 兩
-0.8729994	是 兩 回
-1.2813362	局 長 回
-0.24831784	不 懂 回
-0.952496	兩 回 事
-0.7310056	回 事 還
-1.1729653	出 勤 還
-1.1729653	回 答 還
-0.8989991	還 要 有
-0.9735037	剛 才 有
-0.7093794	何 沒 有
-0.84329003	才 亦 有
-0.7093794	長 連 有
-1.1155814	回 答 有
-1.0234841	要 有 影
-0.7410423	有 影 片
-0.97741026	人 也 可
-0.7346407	影 片 可
-0.88698065	片 可 看
-0.952496	看 那 些
-0.98531115	者 記 錄
-0.7410423	記 錄 了
-1.1232542	的 話 並
-0.7410423	話 並 作
-0.9865412	作 出 報
-0.7346407	出 報 道
-0.7346407	備 知 道
-1.0335695	五 樓 居
-0.7410423	樓 居 高
-0.7410423	居 高 臨
-0.7346407	高 臨 下
-0.7346407	的 向 下
-1.043205	下 的 向
-0.88698065	向 下 望
-1.0059576	我 在 此
-0.6124676	號 我 想
-0.6124676	列 我 想
-0.7346407	在 此 想
-0.2876539	備 的 問
-0.49885708	我 想 問
-0.450723	此 想 問
-0.7310056	詢 中 問
-1.1761578	想 問 家
-0.7410423	問 家 超
-0.95379955	員 說 局
-1.0971472	我 想 局
-0.72367656	家 超 局
-1.152983	回 答 局
-0.3256279	說 局 長
-0.3256279	想 局 長
-0.3256279	超 局 長
-0.3256279	答 局 長
-1.2943841	局 長 剛
-0.7346407	第 二 剛
-0.31193727	長 剛 才
-0.31193727	二 剛 才
-1.0067785	才 有 人
-1.0217729	整 隊 人
-0.8729994	任 何 人
-1.0059576	人 在 補
-0.7410423	在 補 充
-0.7410423	補 充 質
-0.7410423	充 質 詢
-0.7410423	質 詢 中
-0.97571456	們 是 警
-0.94162613	中 問 警
-0.17663485	展 示 警
-0.85296905	密 呢 警
-0.98661834	有 關 警
-0.68068016	是 警 方
-0.68068016	問 警 方
-0.68068016	呢 警 方
-1.2424846	方 的 速
-1.14935	想 問 速
-0.8729994	露 面 速
-0.52779436	的 速 龍
-0.52779436	問 速 龍
-0.52779436	面 速 龍
-0.17949529	速 龍 小
-0.17663485	龍 小 隊
-0.71646917	兩 名 隊
-0.85296905	是 整 隊
-0.24572375	飛 虎 隊
-0.71646917	面 收 隊
-1.3838763	小 隊 為
-0.7346407	隊 為 何
-0.7346407	號 任 何
-0.88698065	為 何 沒
-1.0067785	沒 有 展
-0.8729994	會 否 展
-0.97225046	使 不 展
-0.52779436	有 展 示
-0.52779436	否 展 示
-0.52779436	不 展 示
-0.14253862	警 員 編
-0.12720513	員 編 號
-0.88698065	一 兩 名
-0.21014354	員 出 勤
-0.54858786	隊 出 勤
-1.2166892	還 是 整
-0.7346407	憑 其 整
-1.1830978	出 勤 呢
-0.7346407	保 密 呢
-1.2943841	編 號 飛
-0.87804854	勤 呢 飛
-0.31193727	號 飛 虎
-0.31193727	呢 飛 虎
-1.2699941	虎 隊 又
-0.72367656	隊 又 會
-0.72367656	甚 至 會
-0.8628688	時 亦 會
-0.96190184	開 不 會
-0.87804854	備 應 否
-0.9725923	又 會 否
-1.0217729	收 隊 時
-1.1729653	出 勤 時
-0.7310056	否 隨 時
-0.94902647	勤 時 甚
-0.7410423	時 甚 至
-0.98372483	至 會 戴
-0.7410423	會 戴 上
-0.7410423	戴 上 頭
-0.87804854	其 整 套
-0.7346407	上 頭 套
-0.88698065	頭 套 蒙
-0.7346407	套 蒙 面
-0.7346407	會 露 面
-0.88698065	蒙 面 收
-1.0211022	剛 才 亦
-0.93873876	隊 時 亦
-0.98372483	亦 會 趕
-0.7410423	會 趕 快
-0.7410423	趕 快 離
-0.7346407	快 離 開
-0.7346407	時 公 開
-1.0121369	真 的 不
-0.96190184	題 也 不
-0.8628688	離 開 不
-0.72367656	即 使 不
-0.98372483	不 會 露
-1.3838763	小 隊 即
-0.7410423	隊 即 使
-1.3180773	編 號 任
-0.88698065	也 可 憑
-0.7410423	可 憑 其
-1.2010176	方 的 裝
-1.163745	還 是 裝
-0.85296905	整 套 裝
-0.98661834	有 關 裝
-0.71646917	號 和 裝
-0.23809156	的 裝 備
-0.23809156	是 裝 備
-0.23809156	套 裝 備
-0.23809156	關 裝 備
-0.23809156	和 裝 備
-1.410371	裝 備 知
-1.0059576	道 他 們
-1.2006985	警 方 第
-0.7410423	方 第 二
-1.0234841	亦 有 反
-0.94902647	反 對 派
-1.3180773	局 長 連
-0.6686227	連 有 關
-0.6686227	答 有 關
-0.28342184	的 問 題
-0.54858786	的 不 懂
-0.54858786	也 不 懂
-0.45464694	長 回 答
-0.18514642	懂 回 答
-1.3180773	局 長 你
-1.021438	你 是 真
-0.94902647	備 要 保
-0.7410423	要 保 密
-0.88698065	應 否 隨
-0.94902647	隨 時 公
-0.88698065	公 開 陳
-0.7410423	開 陳 列
-1.3180773	編 號 和

\end\
