\data\
ngram 1=465
ngram 2=1302
ngram 3=1636

\1-grams:
-3.1046798	<unk>	0
0	<s>	-0.071901485
-2.9549084	</s>	0
-2.3847258	主	-0.21019903
-2.9549084	席	-0.071901485
-2.7400646	就	-0.07190152
-2.830739	梁	-0.071901485
-2.830739	繼	-0.071901485
-2.9549084	昌	-0.071901485
-2.7400646	議	-0.17609124
-2.7400646	員	-0.071901485
-2.474239	質	-0.3972813
-2.9549084	詢	-0.071901485
-1.4979371	的	-0.12908149
-2.3105466	三	-0.10810744
-2.3105466	個	-0.071901485
-2.2472084	部	-0.14714576
-2.2472084	分	-0.09792998
-2.9549084	我	-0.071901485
-2.3105466	作	-0.071901485
-2.0588927	以	-0.1355684
-2.474239	下	-0.071901485
-2.9549084	綜	-0.071901485
-2.474239	合	-0.13137446
-2.9549084	回	-0.071901485
-2.9549084	覆	-0.071901485
-2.0988784	香	-0.739704
-2.7400646	港	-0.09570036
-2.1429224	為	-0.09570036
-2.5871232	國	-0.14714576
-2.9549084	際	-0.07190152
-2.2472084	金	-0.26846
-2.9549084	融	-0.071901485
-2.474239	中	-0.10393223
-2.9549084	心	-0.071901485
-2.0588927	十	-0.13119605
-2.474239	重	-0.15958741
-2.830739	視	-0.07190152
-2.830739	維	-0.071901485
-2.830739	持	-0.071901485
-2.7400646	本	-0.17609124
-2.830739	體	-0.07190152
-2.9549084	系	-0.071901485
-2.9549084	健	-0.071901485
-2.3847258	全	-0.12058922
-2.9549084	穩	-0.071901485
-2.7400646	定	-0.071901485
-2.830739	此	-0.071901485
-1.9885154	一	-0.11345366
-2.9549084	直	-0.071901485
-2.474239	根	-0.3972813
-2.9549084	據	-0.071901485
-2.9549084	標	-0.071901485
-2.9549084	準	-0.071901485
-2.474239	實	-0.071901485
-2.0988784	行	-0.14547634
-2.5871232	措	-0.3003713
-2.9549084	施	-0.071901485
-2.2472084	打	-0.6014013
-2.9549084	擊	-0.071901485
-2.3847258	洗	-0.3901838
-2.9549084	黑	-0.071901485
-2.9549084	錢	-0.071901485
-1.8748387	及	-0.0831623
-2.9549084	恐	-0.071901485
-2.9549084	怖	-0.071901485
-2.9549084	子	-0.071901485
-2.5871232	資	-0.1476085
-2.9549084	籌	-0.071901485
-2.830739	集	-0.071901485
-2.7400646	活	-0.17543255
-2.830739	動	-0.071901485
-2.830739	收	-0.071901485
-1.7103094	情	-0.9322796
-2.474239	報	-0.13032554
-2.7400646	偵	-0.17543255
-2.830739	查	-0.071901485
-1.9005915	有	-0.113292806
-2.3105466	關	-0.11051855
-2.2472084	罪	-0.18386944
-2.5871232	案	-0.113535136
-2.9549084	阻	-0.071901485
-2.9549084	止	-0.071901485
-2.7400646	非	-0.17609124
-2.5871232	法	-0.07190152
-2.474239	進	-0.13137446
-2.474239	出	-0.071901485
-2.3105466	其	-0.187536
-2.5871232	清	-0.3003713
-2.7400646	犯	-0.17543255
-2.830739	得	-0.23935872
-2.9549084	益	-0.071901485
-2.7400646	屬	-0.07190152
-2.7400646	刑	-0.17609124
-2.5871232	事	-0.071901485
-2.3105466	組	-0.11191342
-2.9549084	織	-0.071901485
-2.830739	嚴	-0.23935872
-2.7400646	條	-0.07190152
-2.9549084	例	-0.071901485
-2.2472084	(	-0.071901485
-2.7400646	第	-0.17609124
-2.474239	四	-0.15958741
-2.3847258	百	-0.15502185
-2.2472084	五	-0.1207343
-2.9549084	章	-0.071901485
-2.2472084	)	-0.10810744
-1.9571875	二	-0.25765777
-2.830739	如	-0.071901485
-2.0588927	人	-0.08846923
-2.3847258	處	-0.09570036
-2.5871232	理	-0.07190152
-2.474239	已	-0.071901485
-2.830739	知	-0.23935872
-2.9549084	道	-0.071901485
-2.830739	或	-0.07190152
-2.1919427	由	-0.13137446
-2.7400646	相	-0.17609124
-2.9549084	信	-0.071901485
-2.3847258	於	-0.07190152
-2.3847258	可	-0.17609124
-2.5871232	公	-0.071901485
-2.9549084	訴	-0.071901485
-2.7400646	財	-0.17609124
-2.9549084	產	-0.071901485
-2.9549084	即	-0.071901485
-2.9549084	最	-0.071901485
-2.7400646	高	-0.17609124
-2.830739	罰	-0.071901485
-2.1919427	是	-0.10393223
-2.830739	監	-0.071901485
-2.9549084	禁	-0.071901485
-2.1919427	年	-0.1896998
-1.9005915	和	-0.071901485
-2.830739	款	-0.071901485
-2.9549084	萬	-0.071901485
-2.7400646	元	-0.07190152
-2.5871232	而	-0.071901485
-2.5871232	亦	-0.071901485
-2.9549084	遭	-0.071901485
-2.830739	到	-0.071901485
-2.9549084	充	-0.071901485
-2.9549084	借	-0.071901485
-2.9549084	鑒	-0.071901485
-2.830739	外	-0.07190152
-2.830739	經	-0.23935872
-2.9549084	驗	-0.071901485
-1.9279683	警	-0.28318545
-2.474239	務	-0.13137446
-2.830739	商	-0.23935872
-2.830739	業	-0.071901485
-2.2472084	調	-0.44817576
-2.9549084	科	-0.071901485
-2.7400646	去	-0.17609124
-2.474239	月	-0.071901485
-2.474239	聯	-0.24405576
-2.474239	同	-0.071901485
-2.5871232	管	-0.1476085
-2.3847258	局	-0.113535136
-2.3105466	銀	-0.54340935
-2.3105466	會	-0.071901485
-2.3847258	多	-0.07190152
-2.7400646	家	-0.07190152
-2.474239	成	-0.27714583
-2.5871232	立	-0.071901485
-2.9549084	反	-0.071901485
-2.7400646	訛	-0.17543255
-2.9549084	騙	-0.071901485
-2.3105466	工	-0.24552795
-2.5871232	先	-0.1476085
-2.474239	導	-0.071901485
-2.7400646	計	-0.17609124
-2.9549084	劃	-0.07190152
-2.9549084	目	-0.071901485
-2.830739	建	-0.23935872
-2.9549084	私	-0.071901485
-2.830739	營	-0.071901485
-2.830739	夥	-0.23935872
-2.9549084	伴	-0.071901485
-2.9549084	係	-0.07190152
-2.7400646	透	-0.17543255
-2.7400646	過	-0.071901485
-2.9549084	效	-0.071901485
-2.9549084	享	-0.071901485
-2.9549084	訊	-0.071901485
-2.474239	加	-0.13101777
-2.9549084	強	-0.07190152
-2.830739	預	-0.23935872
-2.9549084	防	-0.071901485
-2.2472084	方	-0.22546348
-2.830739	面	-0.071901485
-2.830739	每	-0.071901485
-2.9549084	均	-0.071901485
-2.9549084	獨	-0.071901485
-2.7400646	特	-0.17609124
-2.5871232	要	-0.071901485
-2.7400646	性	-0.07190152
-2.3105466	策	-0.3901838
-2.830739	略	-0.07190152
-2.9549084	毒	-0.071901485
-2.9549084	品	-0.071901485
-2.7400646	間	-0.07190152
-2.7400646	零	-0.07190152
-2.9549084	售	-0.071901485
-2.9549084	層	-0.071901485
-2.830739	小	-0.23935872
-2.1429224	提	-0.24148746
-2.9549084	供	-0.071901485
-2.830739	針	-0.071901485
-2.9549084	訂	-0.071901485
-2.9549084	優	-0.071901485
-2.830739	次	-0.07190152
-2.9549084	序	-0.071901485
-2.9549084	轄	-0.071901485
-2.9549084	單	-0.071901485
-2.9549084	位	-0.071901485
-2.474239	所	-0.13137446
-2.3105466	識	-0.54340935
-2.830739	別	-0.120879345
-2.830739	戰	-0.23935872
-2.7400646	風	-0.17543255
-2.9549084	險	-0.07190152
-2.9549084	期	-0.071901485
-2.830739	件	-0.071901485
-2.9549084	式	-0.07190152
-2.9549084	採	-0.071901485
-2.9549084	取	-0.071901485
-2.830739	示	-0.071901485
-2.0988784	在	-0.1207343
-2.7400646	運	-0.120879345
-2.3847258	發	-0.17576179
-2.830739	布	-0.07190152
-2.830739	評	-0.23935872
-2.9549084	估	-0.071901485
-2.9549084	告	-0.071901485
-2.7400646	趨	-0.17543255
-2.9549084	勢	-0.07190152
-2.9549084	敏	-0.071901485
-2.9549084	感	-0.071901485
-2.830739	升	-0.07190152
-2.9549084	掌	-0.071901485
-2.9549084	握	-0.071901485
-2.9549084	察	-0.071901485
-2.830739	能	-0.23935872
-2.9549084	力	-0.071901485
-2.474239	至	-0.120879345
-2.5871232	今	-0.14714576
-2.830739	向	-0.071901485
-2.9549084	界	-0.071901485
-2.9549084	放	-0.07190152
-2.7400646	六	-0.07190152
-2.830739	代	-0.23935872
-2.830739	表	-0.07190152
-2.830739	專	-0.23935872
-2.9549084	草	-0.071901485
-2.830739	擬	-0.071901485
-2.7400646	當	-0.17609124
-2.830739	包	-0.23935872
-2.9549084	括	-0.071901485
-2.9549084	貿	-0.071901485
-2.830739	易	-0.071901485
-2.9549084	賭	-0.071901485
-2.9549084	博	-0.071901485
-2.7400646	等	-0.07190152
-2.830739	述	-0.071901485
-2.830739	題	-0.07190152
-2.9549084	亞	-0.071901485
-2.9549084	太	-0.071901485
-2.9549084	地	-0.071901485
-2.7400646	區	-0.071901485
-2.3847258	販	-0.47646254
-2.9549084	口	-0.07190152
-2.474239	這	-0.13137446
-2.3105466	不	-0.113535136
-2.830739	指	-0.071901485
-2.830739	備	-0.071901485
-2.7400646	份	-0.07190152
-2.7400646	文	-0.17543255
-2.9549084	民	-0.071901485
-2.5871232	交	-0.071901485
-2.9549084	給	-0.071901485
-2.9549084	秘	-0.071901485
-2.9549084	書	-0.071901485
-2.9549084	傳	-0.071901485
-2.9549084	閱	-0.071901485
-2.830739	討	-0.071901485
-2.9549084	論	-0.071901485
-2.9549084	後	-0.071901485
-2.5871232	對	-0.071901485
-2.9549084	些	-0.071901485
-2.474239	內	-0.13101777
-2.9549084	容	-0.071901485
-2.5871232	保	-0.071901485
-2.830739	留	-0.071901485
-2.9549084	料	-0.071901485
-2.830739	無	-0.071901485
-2.9549084	證	-0.071901485
-2.9549084	往	-0.071901485
-2.7400646	只	-0.07190152
-2.5871232	因	-0.071901485
-2.830739	決	-0.23935872
-2.9549084	該	-0.071901485
-2.474239	與	-0.13137446
-2.9549084	形	-0.071901485
-2.9549084	象	-0.071901485
-2.830739	利	-0.07190152
-2.9549084	否	-0.071901485
-2.9549084	絕	-0.071901485
-2.9549084	貫	-0.071901485
-2.830739	負	-0.23935872
-2.9549084	責	-0.071901485
-2.830739	續	-0.071901485
-2.9549084	密	-0.071901485
-2.830739	切	-0.071901485
-2.9549084	意	-0.071901485
-2.9549084	手	-0.071901485
-2.3105466	並	-0.071901485
-2.9549084	適	-0.071901485
-2.5871232	時	-0.071901485
-2.9549084	候	-0.071901485
-2.830739	領	-0.071901485
-2.9549084	域	-0.071901485
-2.9549084	助	-0.071901485
-2.9549084	促	-0.071901485
-2.9549084	流	-0.071901485
-2.830739	快	-0.071901485
-2.7400646	執	-0.17543255
-2.3105466	機	-0.3901838
-2.9549084	速	-0.071901485
-2.830739	度	-0.071901485
-2.9549084	整	-0.071901485
-2.830739	護	-0.071901485
-2.9549084	球	-0.071901485
-2.9549084	服	-0.071901485
-2.9549084	聲	-0.071901485
-2.9549084	譽	-0.071901485
-2.830739	截	-0.071901485
-2.5871232	八	-0.1476085
-2.9549084	底	-0.071901485
-2.474239	九	-0.13137446
-2.3847258	宗	-0.11329063
-2.9549084	涉	-0.071901485
-2.9549084	拘	-0.071901485
-2.9549084	捕	-0.071901485
-2.830739	共	-0.071901485
-2.830739	獲	-0.071901485
-2.9549084	約	-0.071901485
-2.9549084	千	-0.071901485
-2.9549084	贓	-0.071901485
-2.9549084	現	-0.071901485
-2.9549084	總	-0.071901485
-2.5871232	司	-0.071901485
-2.830739	從	-0.071901485
-2.9549084	隊	-0.071901485
-2.9549084	撥	-0.071901485
-2.9549084	名	-0.071901485
-2.830739	支	-0.23935872
-2.9549084	援	-0.071901485
-2.7400646	將	-0.07190152
-2.9549084	起	-0.071901485
-2.830739	檢	-0.071901485
-2.9549084	屆	-0.071901485
-2.9549084	考	-0.071901485
-2.9549084	慮	-0.071901485
-2.9549084	設	-0.071901485
-2.9549084	恆	-0.071901485
-2.9549084	常	-0.071901485
-2.9549084	制	-0.071901485
-2.9549084	況	-0.07190152
-2.9549084	普	-0.071901485
-2.9549084	遍	-0.071901485
-2.9549084	但	-0.071901485
-2.474239	政	-0.13137446
-2.9549084	府	-0.07190152
-2.9549084	齊	-0.071901485
-2.9549084	應	-0.071901485
-2.9549084	斷	-0.071901485
-2.9549084	演	-0.071901485
-2.9549084	變	-0.071901485
-2.830739	問	-0.23935872
-2.7400646	長	-0.071901485
-2.5871232	任	-0.1476085
-2.830739	跨	-0.071901485
-2.9549084	門	-0.07190152
-2.9549084	督	-0.071901485
-2.9549084	委	-0.071901485
-2.9549084	安	-0.071901485
-2.830739	勞	-0.23935872
-2.830739	福	-0.23935872
-2.9549084	擔	-0.071901485
-2.9549084	副	-0.071901485
-2.5871232	入	-0.14714576
-2.9549084	境	-0.071901485
-2.474239	海	-0.3972813
-2.9549084	社	-0.071901485
-2.9549084	署	-0.071901485
-2.830739	首	-0.071901485
-2.9549084	律	-0.071901485
-2.9549084	障	-0.071901485
-2.830739	傭	-0.071901485
-2.9549084	頒	-0.071901485
-2.9549084	籍	-0.071901485
-2.9549084	庭	-0.071901485
-2.9549084	套	-0.071901485
-2.9549084	化	-0.071901485
-2.9549084	且	-0.071901485
-2.9549084	具	-0.071901485
-2.9549084	達	-0.071901485
-2.7400646	項	-0.07190152
-2.9549084	涵	-0.071901485
-2.9549084	蓋	-0.071901485
-2.3105466	受	-0.3901838
-2.9549084	害	-0.071901485
-2.9549084	控	-0.071901485
-2.9549084	各	-0.071901485
-2.9549084	者	-0.071901485
-2.9549084	範	-0.071901485
-2.9549084	疇	-0.071901485
-2.9549084	完	-0.071901485
-2.9549084	善	-0.071901485
-2.830739	推	-0.071901485
-2.3847258	七	-0.071901485
-2.9549084	陸	-0.071901485
-2.830739	擴	-0.23935872
-2.9549084	展	-0.071901485
-2.9549084	把	-0.071901485
-2.7400646	接	-0.17609124
-2.9549084	潛	-0.071901485
-2.9549084	大	-0.071901485
-2.9549084	幅	-0.071901485
-2.9549084	增	-0.071901485
-2.830739	%	-0.071901485
-2.9549084	被	-0.071901485
-2.9549084	佔	-0.071901485
-2.830739	數	-0.071901485
-2.9549084	足	-0.071901485
-2.9549084	結	-0.071901485
-2.9549084	果	-0.071901485
-2.9549084	顯	-0.071901485
-2.9549084	了	-0.071901485
-2.9549084	也	-0.071901485
-2.830739	疑	-0.07190152
-2.9549084	A	-0.071901485
-2.9549084	何	-0.071901485
-2.9549084	懷	-0.071901485
-2.9549084	必	-0.071901485
-2.9549084	須	-0.071901485
-2.9549084	盡	-0.071901485
-2.9549084	富	-0.071901485
-2.830739	按	-0.071901485
-2.9549084	上	-0.071901485
-2.9549084	沒	-0.071901485
-2.9549084	存	-0.071901485
-2.9549084	類	-0.071901485
-2.9549084	字	-0.071901485
-2.9549084	統	-0.071901485
-2.9549084	析	-0.071901485
-2.9549084	照	-0.071901485
-2.9549084	審	-0.071901485
-2.9549084	程	-0.071901485
-2.9549084	素	-0.071901485
-2.9549084	需	-0.071901485
-2.9549084	深	-0.071901485
-2.9549084	轉	-0.071901485
-2.9549084	跟	-0.071901485

\2-grams:
-1.7473044	查 </s>	0
-0.80666727	<s> 主	-0.05638155
-1.7269423	個 主	-0.05638155
-1.8299874	報 主	-0.05638155
-1.2647643	況 主	-0.05638155
-1.3863645	任 主	-0.05638155
-0.80666727	副 主	-0.05638155
-0.47688967	主 席	-0.05638155
-1.4013526	席 就	-0.05638155
-1.7746944	會 就	-0.05638155
-1.2806526	表 就	-0.05638155
-1.2830671	就 梁	-0.05638155
-1.4980187	實 梁	-0.05638155
-1.1104659	梁 繼	-0.05638155
-1.7822704	會 繼	-0.05638155
-1.1122122	繼 昌	-0.05638155
-1.1088418	梁 議	-0.05638155
-0.8121348	昌 議	-0.05638155
-1.7746944	會 議	-0.05638155
-0.54716194	議 員	-0.05638155
-1.9804921	人 員	-0.05638155
-0.8121348	委 員	-0.05638155
-1.3873365	員 質	-0.05638155
-2.286543	的 質	-0.05638155
-1.1016383	如 質	-0.05638155
-1.5486188	於 質	-0.05638155
-1.6083462	制 質	-0.05638155
-0.2219666	質 詢	-0.09742619
-1.1866162	席 的	-0.05638155
-1.1866162	員 的	-0.05638155
-1.1866162	詢 的	-0.05638155
-1.4127122	作 的	-0.05638155
-1.2407748	下 的	-0.05638155
-1.4178842	港 的	-0.05638155
-1.2161877	國 的	-0.05638155
-1.3771194	中 的	-0.05638155
-0.9862549	心 的	-0.05638155
-1.1424121	本 的	-0.05638155
-1.1536393	行 的	-0.10832344
-1.2407748	錢 的	-0.05638155
-1.3122699	動 的	-0.05638155
-1.452555	報 的	-0.05638155
-1.3577459	查 的	-0.05638155
-1.0908229	關 的	-0.12711613
-1.334783	案 的	-0.05638155
-1.1866162	益 的	-0.05638155
-1.525537	組 的	-0.05638155
-1.4178842	處 的	-0.05638155
-0.6151408	年 的	-0.11627804
-0.9862549	到 的	-0.05638155
-1.3577459	立 的	-0.05638155
-0.7459217	目 的	-0.05638155
-1.1424121	特 的	-0.05638155
-1.1091015	性 的	-0.05638155
-1.1091015	次 的	-0.05638155
-1.3055365	別 的	-0.05638155
-1.2407748	件 的	-0.05638155
-0.7817524	運 的	-0.05638155
-1.3122699	告 的	-0.05638155
-0.9862549	擬 的	-0.16733238
-1.2810384	口 的	-0.05638155
-0.9862549	備 的	-0.05638155
-1.2674868	內 的	-0.05638155
-0.9862549	容 的	-0.05638155
-0.9862549	獲 的	-0.05638155
-1.1866162	司 的	-0.05638155
-0.9862549	遍 的	-0.05638155
-0.7459217	變 的	-0.05638155
-0.7459217	署 的	-0.05638155
-0.9862549	傭 的	-0.05638155
-1.7328072	的 三	-0.12711613
-1.7788663	為 三	-0.05638155
-1.9573156	一 三	-0.05638155
-1.6341788	( 三	-0.05638155
-1.9341526	年 三	-0.05638155
-0.80485994	撥 三	-0.05638155
-0.80485994	達 三	-0.05638155
-2.1999197	的 個	-0.05638155
-1.6404254	三 個	-0.05638155
-1.3553611	一 個	-0.05638155
-1.598865	四 個	-0.05638155
-1.5290705	多 個	-0.05638155
-1.2595948	六 個	-0.05638155
-0.76170635	這 個	-0.05638155
-2.162329	的 部	-0.05638155
-1.6977955	個 部	-0.05638155
-1.5269871	全 部	-0.05638155
-1.5939338	其 部	-0.05638155
-1.763075	處 部	-0.05638155
-1.7695235	在 部	-0.05638155
-1.4596477	內 部	-0.05638155
-1.0910525	跨 部	-0.05638155
-0.8905778	部 分	-0.05638155
-1.7816465	作 分	-0.05638155
-1.9276377	十 分	-0.05638155
-0.8030601	怖 分	-0.05638155
-1.797801	報 分	-0.05638155
-0.8030601	效 分	-0.05638155
-1.5270289	運 分	-0.05638155
-1.5752275	告 分	-0.05638155
-1.8310199	分 我	-0.05638155
-0.80485994	我 作	-0.05638155
-0.76170635	合 作	-0.05638155
-1.7788663	港 作	-0.16733238
-1.8549713	關 作	-0.05638155
-1.0945525	驗 作	-0.05638155
-0.42319837	工 作	-0.6163024
-1.5356113	運 作	-0.05638155
-1.2465596	議 以	-0.05638155
-1.7181373	作 以	-0.05638155
-1.5346653	動 以	-0.05638155
-1.7398063	報 以	-0.05638155
-1.5051317	可 以	-0.05638155
-1.0773277	騙 以	-0.05638155
-1.5346653	並 以	-0.05638155
-1.0773277	度 以	-0.05638155
-1.5447876	宗 以	-0.05638155
-1.3415626	長 以	-0.05638155
-1.2346319	項 以	-0.05638155
-0.7959345	素 以	-0.05638155
-1.8189907	以 下	-0.05638155
-0.80848217	轄 下	-0.05638155
-1.6083462	制 下	-0.05638155
-1.269996	況 下	-0.05638155
-0.80848217	齊 下	-0.05638155
-1.5022936	下 綜	-0.05638155
-0.80848217	綜 合	-0.05638155
-1.9561768	有 合	-0.05638155
-0.39652458	聯 合	-0.53267354
-1.1016383	營 合	-0.05638155
-1.1016383	伴 合	-0.05638155
-1.5039579	合 回	-0.05638155
-0.8138336	回 覆	-0.05638155
-0.79770494	覆 香	-0.05638155
-1.0807185	此 香	-0.05638155
-1.4287015	擊 香	-0.05638155
-0.95025367	) 香	-0.16733238
-1.4287015	同 香	-0.05638155
-1.5539451	局 香	-0.05638155
-1.4287015	過 香	-0.05638155
-1.0500672	在 香	-0.4077348
-1.239511	布 香	-0.05638155
-1.4388857	與 香	-0.05638155
-1.0807185	護 香	-0.05638155
-0.08712082	香 港	-0.14430837
-0.54716194	本 港	-0.16733238
-1.1088418	萬 港	-0.05638155
-1.7074325	分 為	-0.05638155
-1.748732	作 為	-0.05638155
-1.354156	定 為	-0.05638155
-1.965671	組 為	-0.05638155
-1.6373062	立 為	-0.05638155
-1.554473	面 為	-0.05638155
-0.833617	別 為	-0.05638155
-1.4363538	件 為	-0.05638155
-1.2444456	題 為	-0.05638155
-1.354156	因 為	-0.05638155
-1.8300086	為 國	-0.05638155
-1.3942881	據 國	-0.05638155
-1.2752917	外 國	-0.05638155
-1.8334361	在 國	-0.05638155
-0.6020051	國 際	-0.05638155
-1.1240209	港 金	-0.4077348
-1.2544861	際 金	-0.05638155
-1.5897889	重 金	-0.05638155
-0.66578007	資 金	-0.05638155
-1.6221718	( 金	-0.05638155
-1.8610207	和 金	-0.05638155
-1.3671256	科 金	-0.05638155
-1.4520752	要 金	-0.05638155
-0.4767819	金 融	-0.11627804
-1.3873365	詢 中	-0.05638155
-1.476779	融 中	-0.05638155
-0.54142344	其 中	-0.10832344
-1.4815426	務 中	-0.05638155
-0.54559696	當 中	-0.05638155
-1.0221347	中 心	-0.05638155
-0.9479407	三 十	-0.05638155
-1.0773277	心 十	-0.05638155
-1.8541781	一 十	-0.12711613
-1.8757117	及 十	-0.05638155
-0.8958317	四 十	-0.05638155
-1.713821	五 十	-0.16733238
-1.2622297	二 十	-0.12711613
-0.7959345	禁 十	-0.05638155
-1.2780203	年 十	-0.05638155
-0.6614027	八 十	-0.05638155
-0.7546441	九 十	-0.05638155
-1.5346653	七 十	-0.05638155
-2.286543	的 重	-0.05638155
-1.7812264	分 重	-0.05638155
-1.1016383	直 重	-0.05638155
-0.37095398	嚴 重	-0.10832344
-1.269996	項 重	-0.05638155
-0.91334677	重 視	-0.05638155
-0.81295425	審 視	-0.05638155
-1.2830671	視 維	-0.05638155
-1.1104659	力 維	-0.05638155
-1.1104659	維 持	-0.05638155
-0.81295425	各 持	-0.05638155
-1.8484881	為 本	-0.05638155
-1.1088418	持 本	-0.05638155
-1.494065	出 本	-0.05638155
-1.4980187	融 體	-0.16733238
-0.81295425	整 體	-0.05638155
-1.285668	體 系	-0.05638155
-1.1122122	系 健	-0.05638155
-1.8172615	作 全	-0.05638155
-1.7952536	為 全	-0.05638155
-0.80666727	健 全	-0.05638155
-1.5443667	至 全	-0.05638155
-1.2647643	門 全	-0.05638155
-0.80666727	化 全	-0.05638155
-1.5805317	全 穩	-0.05638155
-0.8121348	穩 定	-0.05638155
-1.494065	過 定	-0.05638155
-0.37185818	決 定	-0.05638155
-1.8569976	為 此	-0.05638155
-1.4045435	因 此	-0.05638155
-1.6479164	的 一	-0.05638155
-1.6787679	港 一	-0.05638155
-1.6014351	中 一	-0.05638155
-1.81759	十 一	-0.05638155
-1.4065217	出 一	-0.05638155
-1.8795302	組 一	-0.05638155
-1.5563643	( 一	-0.05638155
-1.0095781	百 一	-0.4077348
-1.8342068	二 一	-0.05638155
-0.99037766	是 一	-0.16733238
-1.2250351	零 一	-0.23918521
-1.0706247	共 一	-0.05638155
-1.2250351	府 一	-0.05638155
-1.5157218	七 一	-0.05638155
-1.385022	一 直	-0.05638155
-1.1016383	直 根	-0.05638155
-2.014747	行 根	-0.05638155
-2.1048725	組 根	-0.05638155
-1.6083462	告 根	-0.05638155
-0.80848217	起 根	-0.05638155
-0.2219666	根 據	-0.09742619
-1.285668	際 標	-0.05638155
-0.8138336	標 準	-0.05638155
-0.80848217	準 實	-0.05638155
-1.476779	事 實	-0.05638155
-1.4815426	務 實	-0.05638155
-0.80848217	證 實	-0.05638155
-1.1016383	切 實	-0.05638155
-1.4287015	實 行	-0.05638155
-0.6884339	罪 行	-0.12711613
-0.7560474	進 行	-0.16733238
-1.5971981	) 行	-0.05638155
-1.5123063	可 行	-0.05638155
-0.14500763	銀 行	-0.13543002
-1.584956	成 行	-0.05638155
-1.6271379	工 行	-0.05638155
-1.4287015	導 行	-0.05638155
-1.239511	險 行	-0.05638155
-1.0807185	推 行	-0.05638155
-2.3373332	的 措	-0.05638155
-2.040162	行 措	-0.05638155
-1.3942881	施 措	-0.05638155
-1.9520247	和 措	-0.05638155
-0.3012067	措 施	-0.05638155
-1.2544861	就 打	-0.05638155
-1.7732157	以 打	-0.05638155
-1.763075	港 打	-0.05638155
-1.763075	為 打	-0.05638155
-1.2544861	視 打	-0.05638155
-1.3671256	施 打	-0.05638155
-1.9675192	及 打	-0.05638155
-0.8030601	疇 打	-0.05638155
-0.12499762	打 擊	-0.23226535
-1.4683872	擊 洗	-0.05638155
-2.0219028	及 洗	-0.05638155
-1.689354	查 洗	-0.05638155
-0.2998971	清 洗	-0.28999072
-1.9041433	和 洗	-0.05638155
-0.80666727	察 洗	-0.05638155
-0.2430243	洗 黑	-0.8337035
-0.8138336	黑 錢	-0.13682646
-0.7540511	以 及	-0.05638155
-1.3786077	錢 及	-0.05638155
-1.6651695	報 及	-0.05638155
-1.0575211	織 及	-0.16733238
-1.7671112	年 及	-0.05638155
-1.5757269	會 及	-0.05638155
-1.0575211	騙 及	-0.05638155
-1.5742714	工 及	-0.05638155
-1.0575211	享 及	-0.05638155
-1.0575211	防 及	-0.05638155
-1.0721763	提 及	-0.05638155
-1.2064551	險 及	-0.05638155
-1.2064551	勢 及	-0.05638155
-0.78546053	握 及	-0.05638155
-1.3058354	區 及	-0.05638155
-1.4349226	口 及	-0.16733238
-0.78546053	閱 及	-0.05638155
-0.78546053	涉 及	-0.05638155
-2.153707	及 恐	-0.05638155
-0.8138336	恐 怖	-0.05638155
-1.8310199	分 子	-0.05638155
-2.3373332	的 資	-0.05638155
-0.81030464	子 資	-0.05638155
-1.5587332	法 資	-0.05638155
-1.1052251	享 資	-0.05638155
-1.7556913	金 籌	-0.05638155
-0.81295425	籌 集	-0.05638155
-1.1104659	收 集	-0.05638155
-1.494065	錢 活	-0.16733238
-1.1088418	集 活	-0.05638155
-1.7838483	罪 活	-0.05638155
-0.8423351	行 動	-0.09742619
-0.47715518	活 動	-0.10832344
-1.6373575	動 收	-0.05638155
-2.1936467	組 收	-0.05638155
-1.4953214	的 情	-0.12711613
-1.0642438	為 情	-0.16733238
-1.1715224	視 情	-0.05638155
-1.0324436	此 情	-0.05638155
-1.6735786	行 情	-0.16733238
-1.3276465	錢 情	-0.05638155
-1.0324436	集 情	-0.05638155
-1.4167016	動 情	-0.05638155
-1.3476131	進 情	-0.05638155
-1.4487435	( 情	-0.05638155
-1.4651691	) 情	-0.05638155
-1.3276465	已 情	-0.05638155
-1.5278801	由 情	-0.05638155
-1.4909184	是 情	-0.05638155
-1.5936828	和 情	-0.05638155
-1.3773544	略 情	-0.05638155
-1.4487435	示 情	-0.05638155
-0.771877	感 情	-0.05638155
-1.0324436	力 情	-0.05638155
-0.771877	給 情	-0.05638155
-1.2623566	時 情	-0.05638155
-0.771877	底 情	-0.05638155
-1.0324436	援 情	-0.05638155
-1.1715224	將 情	-0.05638155
-1.1715224	疑 情	-0.05638155
-0.771877	富 情	-0.53267354
-2.286543	的 報	-0.05638155
-0.06949333	情 報	-0.5240153
-1.1016383	估 報	-0.05638155
-1.269996	勢 報	-0.05638155
-1.1016383	易 報	-0.53267354
-2.118868	及 偵	-0.05638155
-1.2806526	強 偵	-0.05638155
-1.2806526	升 偵	-0.05638155
-0.47715518	偵 查	-0.05638155
-0.20401806	調 查	-0.20881703
-1.3115895	據 有	-0.16733238
-1.5589771	查 有	-0.05638155
-1.0607601	如 有	-0.05638155
-1.2110261	或 有	-0.05638155
-1.3115895	而 有	-0.05638155
-1.3115895	亦 有	-0.05638155
-1.5589771	立 有	-0.05638155
-1.3854198	過 有	-0.05638155
-0.78718877	均 有	-0.05638155
-0.7476949	所 有	-0.05638155
-1.4565814	運 有	-0.05638155
-1.0607601	述 有	-0.05638155
-1.2110261	只 有	-0.05638155
-0.78718877	象 有	-0.05638155
-1.2110261	將 有	-0.05638155
-0.78718877	沒 有	-0.05638155
-0.78718877	類 有	-0.05638155
-1.799089	作 關	-0.05638155
-0.94039536	有 關	-0.10832344
-0.5440377	相 關	-0.05638155
-1.0945525	伴 關	-0.05638155
-1.0945525	無 關	-0.05638155
-1.6236218	機 關	-0.05638155
-0.22087091	海 關	-0.05638155
-1.4520752	融 罪	-0.16733238
-1.5897889	重 罪	-0.16733238
-1.4520752	擊 罪	-0.05638155
-1.836836	關 罪	-0.05638155
-0.4735312	犯 罪	-0.05638155
-1.4520752	事 罪	-0.05638155
-0.8030601	訴 罪	-0.16733238
-1.0910525	業 罪	-0.4077348
-2.3373332	的 案	-0.05638155
-1.7581867	個 案	-0.05638155
-1.8353878	以 案	-0.05638155
-0.9940015	罪 案	-0.1974554
-1.6449051	案 阻	-0.05638155
-0.8138336	阻 止	-0.05638155
-2.118868	及 非	-0.05638155
-0.8121348	止 非	-0.05638155
-1.9781024	和 非	-0.05638155
-0.54637873	非 法	-0.05638155
-1.1052251	無 法	-0.05638155
-0.81030464	手 法	-0.05638155
-0.4761898	執 法	-0.12711613
-1.7267255	金 進	-0.05638155
-2.0518818	及 進	-0.05638155
-1.6083462	告 進	-0.05638155
-0.80848217	促 進	-0.05638155
-0.80848217	跟 進	-0.05638155
-1.4815426	進 出	-0.05638155
-1.8014736	提 出	-0.05638155
-1.55801	發 出	-0.05638155
-1.3873365	長 出	-0.05638155
-1.1016383	推 出	-0.05638155
-2.1999197	的 其	-0.05638155
-1.0945525	系 其	-0.05638155
-1.912037	有 其	-0.05638155
-1.3737587	對 其	-0.05638155
-1.0945525	留 其	-0.05638155
-0.80485994	球 其	-0.05638155
-0.80485994	照 其	-0.05638155
-1.7214714	中 清	-0.05638155
-2.0840847	及 清	-0.05638155
-1.2752917	式 清	-0.05638155
-0.81030464	意 清	-0.05638155
-1.647083	洗 犯	-0.05638155
-1.9361914	關 犯	-0.05638155
-1.2806526	屬 犯	-0.05638155
-1.79686	的 得	-0.4077348
-1.7898164	罪 得	-0.05638155
-0.37227672	得 益	-0.05638155
-1.4013526	益 屬	-0.05638155
-0.8121348	信 屬	-0.05638155
-0.8121348	即 屬	-0.05638155
-1.2806526	屬 刑	-0.05638155
-1.2806526	或 刑	-0.05638155
-1.2833867	高 刑	-0.05638155
-2.3373332	的 事	-0.05638155
-0.54637873	刑 事	-0.05638155
-1.485336	同 事	-0.05638155
-1.1052251	境 事	-0.05638155
-1.3737587	員 組	-0.05638155
-1.799089	作 組	-0.06739921
-1.967986	行 組	-0.05638155
-1.8135961	報 組	-0.05638155
-1.912037	有 組	-0.16733238
-1.2595948	間 組	-0.05638155
-0.37005168	小 組	-0.05638155
-1.5217402	組 織	-0.12711613
-1.4980187	擊 嚴	-0.05638155
-1.4544944	及 嚴	-0.4077348
-2.0671573	行 條	-0.16733238
-1.8510003	五 條	-0.05638155
-0.8121348	A 條	-0.05638155
-1.285668	條 例	-0.05638155
-1.9675192	及 (	-0.05638155
-1.836836	關 (	-0.05638155
-2.016131	組 (	-0.05638155
-1.0910525	例 (	-0.05638155
-1.763075	處 (	-0.05638155
-1.5824472	局 (	-0.05638155
-1.2544861	性 (	-0.05638155
-0.8030601	序 (	-0.05638155
-1.1088418	例 第	-0.05638155
-1.68583	( 第	-0.05638155
-1.6884359	) 第	-0.05638155
-2.286543	的 四	-0.05638155
-1.3482218	十 四	-0.05638155
-2.0065718	一 四	-0.05638155
-1.2749288	第 四	-0.05638155
-1.5486188	理 四	-0.05638155
-1.2954202	一 百	-0.05638155
-1.608135	四 百	-0.05638155
-1.064477	五 百	-0.05638155
-1.9487067	二 百	-0.05638155
-1.4741358	九 百	-0.05638155
-1.5970237	七 百	-0.05638155
-1.267347	十 五	-0.090310335
-1.9346354	一 五	-0.16733238
-1.0915214	百 五	-0.16733238
-1.275927	二 五	-0.16733238
-1.9160172	年 五	-0.05638155
-1.0910525	款 五	-0.05638155
-1.262543	去 五	-0.05638155
-1.2544861	六 五	-0.05638155
-1.8678946	五 章	-0.05638155
-1.6292087	三 )	-0.05638155
-1.9346354	一 )	-0.05638155
-1.836836	關 )	-0.05638155
-2.016131	組 )	-0.05638155
-0.8030601	章 )	-0.05638155
-1.91713	二 )	-0.05638155
-1.763075	處 )	-0.05638155
-1.5824472	局 )	-0.05638155
-1.9635594	的 二	-0.05638155
-1.5696512	部 二	-0.05638155
-1.6661806	為 二	-0.05638155
-1.2365209	十 二	-0.05638155
-1.8177	及 二	-0.05638155
-1.5463043	( 二	-0.05638155
-0.53785586	第 二	-0.16733238
-1.458643	於 二	-0.05638155
-1.1025058	在 二	-0.16733238
-0.8250936	至 二	-0.16733238
-0.82123744	宗 二	-0.4077348
-0.7906659	約 二	-0.05638155
-0.7906659	千 二	-0.05638155
-1.0673115	從 二	-0.05638155
-0.7906659	足 二	-0.05638155
-1.2830671	條 如	-0.05638155
-1.7419448	是 如	-0.05638155
-1.8512665	十 人	-0.05638155
-1.8757117	及 人	-0.05638155
-1.8180541	有 人	-0.05638155
-1.6993705	百 人	-0.05638155
-1.713821	五 人	-0.05638155
-1.4837341	理 人	-0.05638155
-1.4943011	別 人	-0.05638155
-1.4943011	運 人	-0.8337035
-0.7546441	與 人	-0.16733238
-1.4321665	九 人	-0.05638155
-0.7959345	害 人	-0.08529803
-1.0773277	何 人	-0.05638155
-1.9087228	人 處	-0.05638155
-1.4683872	已 處	-0.05638155
-0.76313263	務 處	-0.05638155
-1.6692736	工 處	-0.05638155
-0.80666727	書 處	-0.05638155
-1.098081	境 處	-0.05638155
-1.4890779	合 理	-0.05638155
-1.1385012	處 理	-0.05638155
-1.5587332	理 理	-0.05638155
-0.670202	管 理	-0.05638155
-2.1048725	組 已	-0.05638155
-1.8122835	處 已	-0.05638155
-1.5486188	理 已	-0.05638155
-1.3873365	而 已	-0.05638155
-1.392156	今 已	-0.05638155
-1.9922619	人 知	-0.05638155
-1.4980187	已 知	-0.05638155
-0.37227672	知 道	-0.16733238
-1.5002135	進 或	-0.05638155
-0.81295425	道 或	-0.05638155
-1.6839244	個 由	-0.05638155
-1.4441434	實 由	-0.05638155
-1.9901685	組 由	-0.05638155
-1.5103643	理 由	-0.05638155
-1.6839244	會 由	-0.05638155
-1.6497451	立 由	-0.05638155
-1.5647264	面 由	-0.05638155
-1.0875804	向 由	-0.05638155
-1.2494367	放 由	-0.05638155
-1.7798254	由 相	-0.05638155
-1.9781024	和 相	-0.05638155
-1.494065	交 相	-0.05638155
-1.2873526	相 信	-0.05638155
-1.2647643	屬 於	-0.05638155
-1.7374249	由 於	-0.05638155
-1.3804946	科 於	-0.05638155
-1.5443667	至 於	-0.05638155
-1.2647643	將 於	-0.05638155
-1.5970237	制 於	-0.05638155
-1.6871053	的 可	-0.53267354
-1.4683872	實 可	-0.05638155
-1.5387347	於 可	-0.05638155
-1.694663	是 可	-0.05638155
-1.3804946	亦 可	-0.05638155
-1.4683872	交 可	-0.05638155
-2.040162	行 公	-0.4077348
-0.8447807	可 公	-0.16733238
-0.81030464	充 公	-0.05638155
-1.7179207	立 公	-0.05638155
-1.4079874	公 訴	-0.16733238
-2.3948603	的 財	-0.05638155
-1.4967463	合 財	-0.53267354
-1.1088418	何 財	-0.05638155
-0.54788715	財 產	-0.05638155
-1.1122122	產 即	-0.05638155
-1.7963005	罪 最	-0.05638155
-1.7899859	的 高	-0.16733238
-0.8121348	最 高	-0.05638155
-1.4013526	供 高	-0.05638155
-1.2852972	刑 罰	-0.05638155
-1.9902682	和 罰	-0.05638155
-2.1277344	的 是	-0.05638155
-1.7648774	作 是	-0.05638155
-1.9901685	組 是	-0.05638155
-1.0875804	產 是	-0.05638155
-1.0875804	罰 是	-0.05638155
-1.3605925	而 是	-0.05638155
-1.5727371	不 是	-0.05638155
-1.0875804	指 是	-0.05638155
-1.2494367	只 是	-0.05638155
-2.1353416	及 監	-0.05638155
-1.7419448	是 監	-0.05638155
-1.1122122	監 禁	-0.05638155
-1.6182742	三 年	-0.05638155
-0.90131795	四 年	-0.05638155
-1.1221337	五 年	-0.05638155
-0.5424839	去 年	-0.05638155
-0.5954715	今 年	-0.05638155
-1.2494367	六 年	-0.12711613
-1.3693616	八 年	-0.05638155
-1.5647264	七 年	-0.05638155
-1.0875804	按 年	-0.05638155
-1.6499301	作 和	-0.05638155
-1.6420503	港 和	-0.05638155
-1.7888981	行 和	-0.05638155
-1.3854198	錢 和	-0.05638155
-1.5020046	案 和	-0.05638155
-1.6420503	處 和	-0.05638155
-1.7799039	年 和	-0.05638155
-0.78718877	訊 和	-0.05638155
-1.2110261	強 和	-0.05638155
-1.6705678	方 和	-0.05638155
-1.2110261	性 和	-0.05638155
-1.4426863	略 和	-0.05638155
-1.0607601	針 和	-0.05638155
-0.78718877	位 和	-0.05638155
-1.4887712	告 和	-0.05638155
-1.0607601	護 和	-0.05638155
-1.3115895	長 和	-0.05638155
-1.1104659	罰 款	-0.05638155
-0.81295425	贓 款	-0.05638155
-1.1089394	百 萬	-0.05638155
-1.8484881	港 元	-0.05638155
-1.1088418	萬 元	-0.05638155
-1.5690887	多 元	-0.05638155
-1.2752917	元 而	-0.05638155
-1.485336	件 而	-0.05638155
-1.3942881	因 而	-0.05638155
-1.1052251	責 而	-0.05638155
-1.7214714	中 亦	-0.05638155
-1.9144186	關 亦	-0.05638155
-1.3942881	益 亦	-0.05638155
-0.81030464	料 亦	-0.05638155
-1.8687994	以 遭	-0.05638155
-1.1104659	收 到	-0.05638155
-0.81295425	遭 到	-0.05638155
-1.1122122	到 充	-0.05638155
-1.4079874	公 借	-0.05638155
-0.8138336	借 鑒	-0.05638155
-0.81295425	鑒 外	-0.05638155
-0.81295425	障 外	-0.05638155
-2.4232233	的 經	-0.05638155
-1.8864495	作 經	-0.05638155
-0.37227672	經 驗	-0.05638155
-1.6264257	的 警	-0.4077348
-1.5975488	個 警	-0.05638155
-1.6327924	分 警	-0.05638155
-1.3923404	出 警	-0.05638155
-1.5485907	) 警	-0.05638155
-1.0293521	由 警	-0.05638155
-1.0640235	驗 警	-0.05638155
-1.3923404	月 警	-0.05638155
-1.3174208	供 警	-0.05638155
-1.3923404	件 警	-0.05638155
-1.4638678	至 警	-0.05638155
-1.0640235	括 警	-0.05638155
-1.2156458	份 警	-0.05638155
-1.3174208	時 警	-0.05638155
-0.78892386	總 警	-0.05638155
-1.0640235	從 警	-0.05638155
-1.476779	事 務	-0.05638155
-0.74948204	警 務	-0.62958354
-0.80848217	貫 務	-0.05638155
-0.80848217	服 務	-0.05638155
-1.4815426	政 務	-0.05638155
-1.8569976	處 商	-0.05638155
-1.0663452	由 商	-0.16733238
-0.3720602	商 業	-0.4077348
-1.1104659	向 業	-0.05638155
-2.162329	的 調	-0.05638155
-1.6362807	部 調	-0.05638155
-1.4520752	下 調	-0.05638155
-1.5824472	案 調	-0.4077348
-1.4520752	事 調	-0.05638155
-1.8667192	人 調	-0.05638155
-0.8030601	品 調	-0.05638155
-1.3749113	入 調	-0.05638155
-1.7473044	查 科	-0.05638155
-2.118868	及 去	-0.05638155
-1.5690887	於 去	-0.05638155
-1.494065	過 去	-0.05638155
-1.6637676	三 月	-0.05638155
-1.9952632	十 月	-0.05638155
-2.0065718	一 月	-0.05638155
-1.8165548	五 月	-0.05638155
-1.6083462	七 月	-0.05638155
-2.286543	的 聯	-0.05638155
-1.9728668	年 聯	-0.05638155
-1.476779	月 聯	-0.05638155
-1.2749288	計 聯	-0.05638155
-1.269996	升 聯	-0.05638155
-1.489066	聯 同	-0.05638155
-1.476779	導 同	-0.05638155
-1.6129521	不 同	-0.05638155
-1.1016383	共 同	-0.05638155
-0.80848217	名 同	-0.05638155
-1.0197592	金 管	-0.16733238
-1.485336	融 管	-0.05638155
-1.5587332	多 管	-0.05638155
-1.1052251	層 管	-0.05638155
-1.5387347	理 局	-0.05638155
-1.3863645	管 局	-0.05638155
-0.9057564	局 局	-0.16733238
-1.2647643	利 局	-0.05638155
-1.098081	跨 局	-0.05638155
-0.80666727	安 局	-0.05638155
-1.7328072	的 銀	-0.16733238
-1.7788663	港 銀	-0.4077348
-1.8549713	關 銀	-0.05638155
-1.7241638	由 銀	-0.05638155
-1.2595948	家 銀	-0.05638155
-0.80485994	售 銀	-0.05638155
-1.2595948	升 銀	-0.05638155
-1.3737587	員 會	-0.05638155
-1.4184088	組 會	-0.05638155
-1.3737587	公 會	-0.12711613
-1.7751669	方 會	-0.05638155
-0.80485994	期 會	-0.05638155
-1.2595948	只 會	-0.05638155
-0.80485994	社 會	-0.05638155
-1.8031902	以 多	-0.05638155
-1.971532	十 多	-0.05638155
-1.3804946	施 多	-0.05638155
-2.0219028	及 多	-0.05638155
-1.2647643	等 多	-0.05638155
-0.80666727	套 多	-0.05638155
-1.5690887	多 家	-0.05638155
-0.37185818	專 家	-0.16733238
-0.8121348	籍 家	-0.05638155
-2.286543	的 成	-0.05638155
-2.014747	行 成	-0.05638155
-1.4321347	組 成	-0.05638155
-1.476779	同 成	-0.05638155
-1.269996	府 成	-0.05638155
-0.36703214	成 立	-0.05638155
-0.37140584	建 立	-0.05638155
-0.81030464	訂 立	-0.05638155
-0.81030464	設 立	-0.05638155
-1.7473044	立 反	-0.05638155
-2.118868	及 訛	-0.05638155
-0.8121348	反 訛	-0.05638155
-1.1088418	括 訛	-0.05638155
-0.47747472	訛 騙	-0.12711613
-1.7328072	的 工	-0.16733238
-1.8135961	報 工	-1.1858861
-1.6757456	立 工	-0.05638155
-1.0945525	防 工	-0.05638155
-1.4601547	要 工	-0.05638155
-0.37005168	勞 工	-0.05638155
-1.0945525	傭 工	-0.05638155
-1.7581867	個 先	-0.05638155
-2.1389985	組 先	-0.05638155
-0.81030464	優 先	-0.05638155
-1.1052251	首 先	-0.05638155
-1.5606971	主 導	-0.05638155
-0.6690923	先 導	-0.16733238
-1.1016383	指 導	-0.05638155
-1.1016383	領 導	-0.05638155
-0.80848217	督 導	-0.05638155
-1.6319175	動 計	-0.05638155
-1.494065	導 計	-0.16733238
-0.8121348	統 計	-0.05638155
-0.54788715	計 劃	-0.05638155
-1.285668	劃 目	-0.05638155
-1.7419448	是 建	-0.05638155
-0.81295425	者 建	-0.05638155
-1.4079874	公 私	-0.05638155
-1.8569976	港 營	-0.05638155
-0.81295425	私 營	-0.05638155
-1.8864495	作 夥	-0.05638155
-1.7398171	立 夥	-0.05638155
-0.37227672	夥 伴	-0.05638155
-1.1718273	關 係	-0.05638155
-1.494065	已 透	-0.05638155
-1.7746944	會 透	-0.05638155
-1.2806526	係 透	-0.05638155
-1.5690887	於 過	-0.05638155
-0.476857	透 過	-0.05638155
-1.6319175	告 過	-0.05638155
-2.030055	有 效	-0.05638155
-1.1083311	分 享	-0.05638155
-1.4096617	資 訊	-0.05638155
-2.0518818	及 加	-0.16733238
-1.8470217	報 加	-0.05638155
-0.80848217	流 加	-0.05638155
-1.1016383	斷 加	-0.05638155
-0.80848217	增 加	-0.05638155
-0.698507	加 強	-0.10832344
-1.7398171	查 預	-0.05638155
-1.9922619	人 預	-0.05638155
-0.37227672	預 防	-0.05638155
-1.7196159	的 方	-0.16733238
-1.6292087	三 方	-0.05638155
-1.5752275	動 方	-0.05638155
-1.2104652	警 方	-0.05638155
-1.0910525	每 方	-0.05638155
-1.5196167	略 方	-0.05638155
-1.6221718	示 方	-0.05638155
-1.0910525	易 方	-0.05638155
-0.7765578	全 面	-0.05638155
-0.5633129	方 面	-0.09742619
-1.2830671	就 每	-0.05638155
-1.6373575	面 每	-0.05638155
-1.6432605	面 均	-0.05638155
-1.6474786	其 獨	-0.05638155
-1.494065	月 特	-0.05638155
-0.8121348	獨 特	-0.05638155
-0.8121348	但 特	-0.05638155
-1.5682381	主 要	-0.05638155
-0.9106187	重 要	-0.05638155
-1.485336	實 要	-0.05638155
-0.81030464	需 要	-0.05638155
-1.494065	要 性	-0.05638155
-1.5690887	略 性	-0.05638155
-1.4013526	對 性	-0.05638155
-1.2595948	體 策	-0.05638155
-1.3737587	據 策	-0.05638155
-1.6404254	) 策	-0.05638155
-1.6129434	成 策	-0.05638155
-1.3737587	供 策	-0.05638155
-1.4668531	政 策	-0.05638155
-0.80485994	具 策	-0.05638155
-0.24291067	策 略	-0.12711613
-0.3720602	戰 略	-0.05638155
-1.4079874	科 毒	-0.05638155
-0.8138336	毒 品	-0.05638155
-1.2806526	際 間	-0.05638155
-2.0470104	十 間	-0.05638155
-0.8121348	民 間	-0.05638155
-1.8197539	百 零	-0.05638155
-0.53025997	二 零	-0.97200626
-1.2806526	間 零	-0.05638155
-1.285668	零 售	-0.05638155
-0.54788715	高 層	-0.12711613
-1.6373575	動 小	-0.16733238
-1.5737921	略 小	-0.16733238
-1.906113	行 提	-0.05638155
-1.354156	施 提	-0.05638155
-1.919194	及 提	-0.05638155
-1.8532459	有 提	-0.05638155
-1.4586391	組 提	-0.05638155
-1.0841359	織 提	-0.05638155
-1.8217957	和 提	-0.05638155
-1.2444456	劃 提	-0.05638155
-1.0841359	責 提	-0.05638155
-0.7994827	也 提	-0.05638155
-0.7395031	提 供	-0.05638155
-1.9902682	和 針	-0.05638155
-1.8312211	方 針	-0.05638155
-2.0036874	和 訂	-0.05638155
-2.4558072	的 優	-0.05638155
-1.4067559	先 次	-0.05638155
-1.1104659	層 次	-0.05638155
-1.285668	次 序	-0.05638155
-1.8663003	處 轄	-0.05638155
-1.7473044	查 單	-0.05638155
-0.8138336	單 位	-0.05638155
-1.3873365	詢 所	-0.05638155
-1.8122835	為 所	-0.05638155
-1.7078605	中 所	-0.05638155
-2.1048725	組 所	-0.05638155
-0.80848217	佔 所	-0.05638155
-1.8872133	人 識	-0.16733238
-1.9341526	年 識	-0.05638155
-1.4668531	所 識	-0.05638155
-0.80485994	蓋 識	-0.05638155
-1.6236218	受 識	-0.16733238
-0.80485994	善 識	-0.05638155
-0.80485994	被 識	-0.05638155
-1.8224795	分 別	-0.05638155
-0.14613481	識 別	-0.20213763
-2.4232233	的 戰	-0.05638155
-0.81295425	取 戰	-0.05638155
-1.6386764	其 風	-0.05638155
-1.5690887	略 風	-0.05638155
-1.2806526	況 風	-0.05638155
-0.47747472	風 險	-0.05638155
-1.4079874	定 期	-0.05638155
-0.91294	案 件	-0.05638155
-0.47715518	文 件	-0.05638155
-1.1095886	方 式	-0.05638155
-1.285668	式 採	-0.05638155
-0.8138336	採 取	-0.05638155
-0.7518764	警 示	-0.05638155
-0.81295425	顯 示	-0.05638155
-1.6574442	個 在	-0.05638155
-1.6340958	中 在	-0.05638155
-1.8352937	有 在	-0.05638155
-1.3478137	亦 在	-0.05638155
-1.239511	題 在	-0.05638155
-1.4924307	口 在	-0.05638155
-1.5444562	並 在	-0.05638155
-0.79770494	候 在	-0.05638155
-1.5444562	制 在	-0.05638155
-0.79770494	潛 在	-0.05638155
-0.79770494	須 在	-0.05638155
-1.4013526	據 運	-0.05638155
-1.1088418	營 運	-0.05638155
-0.17602521	販 運	-0.46069682
-1.7269423	會 發	-0.05638155
-1.6465272	示 發	-0.05638155
-0.80666727	界 發	-0.05638155
-1.6025438	不 發	-0.05638155
-1.3804946	對 發	-0.05638155
-0.80666727	域 發	-0.05638155
-0.84703404	發 布	-0.05638155
-0.81295425	頒 布	-0.05638155
-1.2830671	險 評	-0.05638155
-1.2830671	布 評	-0.05638155
-0.37227672	評 估	-0.05638155
-0.8112559	報 告	-0.05638155
-2.3948603	的 趨	-0.05638155
-1.6319175	告 趨	-0.05638155
-1.6345333	宗 趨	-0.05638155
-0.47747472	趨 勢	-0.05638155
-1.2873526	非 敏	-0.05638155
-0.8138336	敏 感	-0.05638155
-1.1085466	提 升	-0.05638155
-0.81295425	上 升	-0.05638155
-2.0936997	行 掌	-0.05638155
-0.8138336	掌 握	-0.05638155
-1.1122122	監 察	-0.05638155
-2.4232233	的 能	-0.05638155
-1.2830671	體 能	-0.05638155
-0.37227672	能 力	-0.05638155
-1.7034025	立 至	-0.05638155
-1.269996	等 至	-0.05638155
-1.1016383	截 至	-0.05638155
-0.80848217	展 至	-0.05638155
-1.1016383	% 至	-0.05638155
-1.9144186	關 今	-0.05638155
-1.5587332	於 今	-0.05638155
-1.5624255	至 今	-0.05638155
-1.2752917	題 今	-0.05638155
-1.7822704	會 向	-0.05638155
-1.1104659	快 向	-0.05638155
-1.1122122	業 界	-0.05638155
-0.7775414	發 放	-0.05638155
-2.0470104	十 六	-0.05638155
-2.0621376	一 六	-0.4077348
-1.2806526	放 六	-0.05638155
-2.4232233	的 代	-0.05638155
-2.0797708	行 代	-0.05638155
-2.4232233	的 表	-0.05638155
-0.3720602	代 表	-0.05638155
-2.0797708	行 專	-0.05638155
-1.2830671	表 專	-0.05638155
-1.285668	家 草	-0.16733238
-2.1936467	組 擬	-0.05638155
-0.81295425	草 擬	-0.16733238
-1.9804921	人 當	-0.05638155
-1.68583	示 當	-0.05638155
-0.8121348	適 當	-0.05638155
-1.7419448	中 包	-0.05638155
-1.6373575	並 包	-0.05638155
-0.37227672	包 括	-0.05638155
-1.8687994	以 貿	-0.05638155
-0.81295425	貿 易	-0.05638155
-1.4980187	交 易	-0.53267354
-1.5788866	法 賭	-0.05638155
-0.8138336	賭 博	-0.05638155
-1.2806526	係 等	-0.05638155
-0.8121348	博 等	-0.05638155
-1.1088418	度 等	-0.05638155
-1.5002135	所 述	-0.05638155
-1.2830671	表 述	-0.05638155
-1.1104659	述 題	-0.05638155
-0.3720602	問 題	-0.05638155
-2.0036874	和 亞	-0.05638155
-0.8138336	亞 太	-0.05638155
-0.8138336	太 地	-0.05638155
-1.2941698	警 區	-0.05638155
-0.54716194	特 區	-0.16733238
-0.8121348	地 區	-0.05638155
-1.3804946	席 販	-0.05638155
-1.4683872	擊 販	-0.53267354
-1.4683872	出 販	-0.05638155
-1.3804946	區 販	-0.05638155
-1.5387347	口 販	-0.4077348
-0.80666727	了 販	-0.05638155
-1.225119	人 口	-0.23918521
-2.014747	行 這	-0.05638155
-1.476779	件 這	-0.05638155
-1.6592369	示 這	-0.05638155
-1.3873365	對 這	-0.05638155
-1.1016383	% 這	-0.05638155
-1.3737587	定 不	-0.05638155
-1.6818551	是 不	-0.05638155
-1.2595948	間 不	-0.05638155
-1.7846417	在 不	-0.05638155
-1.4668531	這 不	-0.05638155
-1.5859889	並 不	-0.16733238
-1.0945525	數 不	-0.05638155
-1.6497815	策 指	-0.05638155
-1.5002135	所 指	-0.05638155
-2.0170853	有 備	-0.05638155
-1.1104659	擬 備	-0.05638155
-1.1088418	持 份	-0.05638155
-2.0621376	一 份	-0.05638155
-0.8121348	該 份	-0.05638155
-1.68583	示 文	-0.05638155
-1.2806526	放 文	-0.05638155
-1.2806526	份 文	-0.05638155
-1.790534	個 民	-0.05638155
-1.8647516	報 交	-0.05638155
-1.1050087	提 交	-0.05638155
-1.2752917	疑 交	-0.53267354
-0.81030464	轉 交	-0.05638155
-1.5022936	交 給	-0.05638155
-2.213335	組 秘	-0.05638155
-0.8138336	秘 書	-0.05638155
-2.213335	組 傳	-0.05638155
-0.8138336	傳 閱	-0.05638155
-2.1353416	及 討	-0.05638155
-1.1104659	檢 討	-0.05638155
-1.1122122	討 論	-0.05638155
-0.8138336	論 後	-0.05638155
-1.485336	要 對	-0.05638155
-1.1052251	針 對	-0.05638155
-0.81030464	後 對	-0.05638155
-0.81030464	應 對	-0.05638155
-2.0904393	一 些	-0.05638155
-2.286543	的 內	-0.05638155
-1.7812264	分 內	-0.05638155
-2.1048725	組 內	-0.05638155
-0.80848217	些 內	-0.05638155
-0.80848217	隊 內	-0.05638155
-0.698507	內 容	-0.12711613
-1.9800516	有 保	-0.05638155
-1.7652271	由 保	-0.05638155
-1.2752917	強 保	-0.16733238
-0.81030464	控 保	-0.05638155
-1.4045435	保 留	-0.05638155
-1.1104659	切 留	-0.05638155
-1.4096617	資 料	-0.05638155
-1.4045435	亦 無	-0.05638155
-0.81295425	絕 無	-0.05638155
-1.5788866	法 證	-0.05638155
-1.5022936	過 往	-0.05638155
-2.0153728	年 只	-0.05638155
-1.2806526	係 只	-0.05638155
-0.8121348	往 只	-0.05638155
-1.7214714	是 因	-0.05638155
-1.8121815	方 因	-0.05638155
-1.6723299	示 因	-0.05638155
-1.2752917	等 因	-0.05638155
-2.1936467	組 決	-0.05638155
-1.5002135	這 決	-0.05638155
-1.285668	布 該	-0.05638155
-1.3873365	定 與	-0.05638155
-2.0518818	及 與	-0.05638155
-1.9274244	和 與	-0.05638155
-1.269996	利 與	-0.05638155
-0.80848217	存 與	-0.05638155
-2.4558072	的 形	-0.05638155
-0.8138336	形 象	-0.05638155
-2.0170853	有 利	-0.05638155
-0.3720602	福 利	-0.05638155
-1.5039579	與 否	-0.05638155
-0.8138336	否 絕	-0.05638155
-2.0904393	一 貫	-0.05638155
-1.4980187	事 負	-0.05638155
-1.1104659	容 負	-0.05638155
-0.37227672	負 責	-0.05638155
-1.1104659	繼 續	-0.05638155
-0.81295425	陸 續	-0.05638155
-1.1122122	續 密	-0.05638155
-1.8590758	在 切	-0.05638155
-0.81295425	密 切	-0.05638155
-1.1122122	留 意	-0.05638155
-2.153707	及 手	-0.05638155
-1.3737587	席 並	-0.05638155
-1.799089	作 並	-0.05638155
-1.7788663	港 並	-0.16733238
-1.5290705	法 並	-0.05638155
-2.0437446	組 並	-0.05638155
-1.4601547	導 並	-0.05638155
-0.80485994	析 並	-0.05638155
-1.8678946	在 適	-0.05638155
-1.485336	同 時	-0.05638155
-1.2791373	當 時	-0.05638155
-0.81030464	現 時	-0.05638155
-0.81030464	屆 時	-0.05638155
-1.4079874	時 候	-0.05638155
-1.4980187	同 領	-0.05638155
-1.4045435	司 領	-0.05638155
-1.1122122	領 域	-0.05638155
-2.030055	有 助	-0.05638155
-0.8138336	助 促	-0.05638155
-1.5022936	交 流	-0.05638155
-1.5002012	加 快	-0.05638155
-0.81295425	盡 快	-0.05638155
-1.732941	查 執	-0.05638155
-1.9361914	關 執	-0.05638155
-1.1088418	快 執	-0.05638155
-1.5290705	法 機	-0.16733238
-1.8872133	人 機	-0.05638155
-1.5356113	別 機	-0.4077348
-1.7846417	在 機	-0.05638155
-1.0945525	估 機	-0.05638155
-0.80485994	常 機	-0.05638155
-1.2595948	項 機	-0.05638155
-1.7473044	查 速	-0.05638155
-0.81295425	速 度	-0.05638155
-0.81295425	程 度	-0.05638155
-1.8043448	的 整	-0.16733238
-1.1104659	維 護	-0.05638155
-1.4045435	保 護	-0.05638155
-1.5805317	全 球	-0.05638155
-1.5022936	融 服	-0.05638155
-2.4558072	的 聲	-0.05638155
-0.8138336	聲 譽	-0.05638155
-1.9922619	人 截	-0.05638155
-0.81295425	譽 截	-0.05638155
-2.0203667	十 八	-0.05638155
-2.0334666	一 八	-0.05638155
-1.8046075	百 八	-0.05638155
-1.4890568	加 八	-0.05638155
-1.5022936	月 底	-0.05638155
-2.286543	的 九	-0.05638155
-1.9952632	十 九	-0.05638155
-1.9561768	有 九	-0.05638155
-1.7899716	百 九	-0.05638155
-1.9654001	二 九	-0.05638155
-1.971532	十 宗	-0.05638155
-1.8003051	五 宗	-0.05638155
-1.098081	每 宗	-0.05638155
-1.3863645	八 宗	-0.05638155
-1.4741358	九 宗	-0.05638155
-1.5970237	七 宗	-0.05638155
-1.6448959	宗 涉	-0.05638155
-1.4079874	而 拘	-0.05638155
-0.8138336	拘 捕	-0.05638155
-1.946274	關 共	-0.05638155
-0.81295425	捕 共	-0.05638155
-1.1104659	截 獲	-0.05638155
-1.2852972	接 獲	-0.05638155
-1.1122122	獲 約	-0.05638155
-2.0182593	二 千	-0.05638155
-1.285668	元 贓	-0.05638155
-1.1122122	款 現	-0.05638155
-1.4079874	科 總	-0.05638155
-1.9861805	警 司	-0.05638155
-1.4890779	務 司	-0.05638155
-1.3942881	司 司	-0.05638155
-1.4890779	政 司	-0.05638155
-1.9922619	人 從	-0.05638155
-1.6373575	並 從	-0.05638155
-2.0198472	警 隊	-0.05638155
-1.7106823	調 撥	-0.05638155
-1.7003297	三 名	-0.05638155
-1.9902682	和 支	-0.05638155
-1.4045435	供 支	-0.05638155
-0.37227672	支 援	-0.05638155
-1.8524284	以 將	-0.05638155
-1.2806526	劃 將	-0.05638155
-0.8121348	慮 將	-0.05638155
-1.5022936	月 起	-0.05638155
-1.5737921	法 檢	-0.05638155
-1.6373575	面 檢	-0.05638155
-1.1122122	討 屆	-0.05638155
-1.790534	會 考	-0.05638155
-0.8138336	考 慮	-0.05638155
-2.213335	組 設	-0.05638155
-1.8663003	為 恆	-0.05638155
-0.8138336	恆 常	-0.05638155
-0.2430243	機 制	-0.08157642
-1.5014749	情 況	-0.05638155
-1.6449051	不 普	-0.16733238
-0.8138336	普 遍	-0.05638155
-1.1122122	遍 但	-0.05638155
-2.286543	的 政	-0.05638155
-1.7511035	由 政	-0.05638155
-1.3873365	區 政	-0.16733238
-1.3873365	時 政	-0.05638155
-0.80848217	律 政	-0.05638155
-0.7687759	政 府	-0.05638155
-1.4096617	管 齊	-0.05638155
-1.285668	式 應	-0.05638155
-0.913946	不 斷	-0.05638155
-1.1122122	斷 演	-0.05638155
-0.8138336	演 變	-0.05638155
-2.4232233	的 問	-0.05638155
-1.5737921	口 問	-0.05638155
-1.6345481	局 長	-0.05638155
-1.4013526	司 長	-0.05638155
-1.1088418	首 長	-0.05638155
-1.485336	出 任	-0.05638155
-1.2752917	條 任	-0.05638155
-0.81030464	擔 任	-0.05638155
-1.2752917	疑 任	-0.05638155
-1.6395181	局 跨	-0.05638155
-1.2830671	次 跨	-0.05638155
-0.901664	部 門	-0.05638155
-1.285668	門 督	-0.05638155
-1.5022936	導 委	-0.05638155
-1.4079874	保 安	-0.05638155
-1.6941382	) 勞	-0.05638155
-1.9902682	和 勞	-0.05638155
-2.1353416	及 福	-0.05638155
-1.7822704	會 福	-0.05638155
-1.4079874	長 擔	-0.05638155
-1.4096617	任 副	-0.05638155
-1.6723299	( 入	-0.05638155
-1.8300086	處 入	-0.05638155
-1.9935999	年 入	-0.05638155
-0.81030464	深 入	-0.05638155
-0.6020051	入 境	-0.12711613
-1.8122835	港 海	-0.05638155
-2.0518818	及 海	-0.05638155
-1.6592369	( 海	-0.05638155
-1.9274244	和 海	-0.05638155
-1.3873365	區 海	-0.05638155
-2.0036874	和 社	-0.05638155
-1.285668	利 署	-0.05638155
-1.8569976	處 首	-0.05638155
-1.2830671	門 首	-0.05638155
-2.153707	及 律	-0.05638155
-1.4079874	保 障	-0.16733238
-1.2830671	外 傭	-0.05638155
-0.81295425	庭 傭	-0.05638155
-1.285668	府 頒	-0.05638155
-1.285668	外 籍	-0.05638155
-1.285668	家 庭	-0.05638155
-2.0904393	一 套	-0.05638155
-1.285668	元 化	-0.05638155
-1.6432605	面 且	-0.05638155
-0.8138336	且 具	-0.05638155
-1.5788866	多 達	-0.05638155
-2.0621376	一 項	-0.05638155
-1.5690887	多 項	-0.05638155
-1.4967463	這 項	-0.05638155
-1.8687994	以 涵	-0.05638155
-0.8138336	涵 蓋	-0.05638155
-1.7788663	為 受	-0.05638155
-1.5356113	別 受	-0.16733238
-1.7846417	在 受	-0.05638155
-1.5290705	口 受	-0.05638155
-1.0945525	援 受	-0.05638155
-0.80485994	把 受	-0.05638155
-0.5440377	接 受	-0.16733238
-0.2430243	受 害	-0.7757116
-1.1122122	檢 控	-0.05638155
-1.5039579	與 各	-0.05638155
-1.285668	份 者	-0.05638155
-1.790534	個 範	-0.05638155
-0.8138336	範 疇	-0.05638155
-2.0036874	和 完	-0.05638155
-0.8138336	完 善	-0.05638155
-1.4067559	先 推	-0.05638155
-1.6373575	面 推	-0.05638155
-2.241075	的 七	-0.05638155
-1.3427584	十 七	-0.05638155
-1.9812456	一 七	-0.4077348
-1.608135	四 七	-0.05638155
-1.9530784	年 七	-0.05638155
-1.2647643	零 七	-0.05638155
-1.6432605	制 陸	-0.05638155
-1.1104659	續 擴	-0.05638155
-1.6373575	制 擴	-0.05638155
-0.37227672	擴 展	-0.16733238
-1.5022936	已 把	-0.05638155
-1.494065	下 接	-0.05638155
-2.0053158	有 接	-0.05638155
-1.6345333	宗 接	-0.05638155
-2.4558072	的 潛	-0.05638155
-2.0052316	人 大	-0.05638155
-0.8138336	大 幅	-0.05638155
-0.8138336	幅 增	-0.05638155
-2.0091662	二 %	-0.05638155
-1.6373575	七 %	-0.05638155
-2.0052316	人 被	-0.05638155
-2.0052316	人 佔	-0.05638155
-2.4232233	的 數	-0.05638155
-1.9922619	人 數	-0.05638155
-1.6449051	不 足	-0.05638155
-1.790534	個 結	-0.05638155
-0.8138336	結 果	-0.05638155
-0.8138336	果 顯	-0.05638155
-1.6986947	示 了	-0.05638155
-1.4079874	詢 也	-0.05638155
-0.8470363	可 疑	-0.38690072
-0.81295425	懷 疑	-0.05638155
-1.8678946	五 A	-0.05638155
-0.67234564	任 何	-0.05638155
-1.285668	或 懷	-0.05638155
-1.4079874	益 必	-0.05638155
-0.8138336	必 須	-0.05638155
-1.5022936	下 盡	-0.05638155
-1.2873526	財 富	-0.53267354
-1.2830671	勢 按	-0.05638155
-1.6373575	並 按	-0.05638155
-2.0365202	年 上	-0.05638155
-1.6432605	並 沒	-0.05638155
-1.1122122	備 存	-0.05638155
-1.8310199	分 類	-0.05638155
-1.1122122	數 字	-0.05638155
-0.8138336	字 統	-0.05638155
-1.8310199	分 析	-0.05638155
-1.1122122	按 照	-0.05638155
-1.6432605	制 審	-0.05638155
-1.646556	重 程	-0.05638155
-1.4079874	因 素	-0.05638155
-2.030055	有 需	-0.05638155
-1.5022936	要 深	-0.05638155
-1.6449051	案 轉	-0.05638155
-1.8969805	作 跟	-0.05638155

\3-grams:
-1.6092263	調 查 </s>
-1.2437255	一 個 主
-2.0713906	情 報 主
-1.0539408	情 況 主
-0.801815	出 任 主
-0.5869986	任 副 主
-0.3823123	<s> 主 席
-0.3823123	況 主 席
-0.3823123	任 主 席
-0.3823123	副 主 席
-1.1851374	主 席 就
-1.2569795	組 會 就
-0.97103554	代 表 就
-0.7759429	席 就 梁
-0.82492584	事 實 梁
-0.7215888	就 梁 繼
-1.2589866	組 會 繼
-0.7222144	梁 繼 昌
-0.72100556	實 梁 議
-0.5898856	繼 昌 議
-0.86485493	期 會 議
-0.43074676	梁 議 員
-0.43074676	昌 議 員
-0.8829429	理 人 員
-0.5898856	導 委 員
-1.0137973	議 員 質
-0.8986324	員 的 質
-0.7184016	是 如 質
-0.83392316	至 於 質
-1.4480661	機 制 質
-0.18805195	員 質 詢
-0.18805195	的 質 詢
-0.18805195	如 質 詢
-0.18805195	於 質 詢
-0.18805195	制 質 詢
-1.0575677	主 席 的
-0.9280339	議 員 的
-1.1172228	質 詢 的
-1.8342456	工 作 的
-0.7639735	齊 下 的
-1.4424932	香 港 的
-0.75662506	外 國 的
-1.1997088	其 中 的
-0.8195191	中 心 的
-0.7327798	為 本 的
-0.79867566	罪 行 的
-0.73658663	可 行 的
-1.1967403	銀 行 的
-0.9141542	黑 錢 的
-0.70367986	活 動 的
-1.8352718	情 報 的
-1.3908656	調 查 的
-0.651509	有 關 的
-0.8790102	機 關 的
-1.3040638	罪 案 的
-1.0575677	得 益 的
-1.2142525	作 組 的
-0.80882126	書 處 的
-0.4752178	三 年 的
-0.56237185	四 年 的
-0.5957973	五 年 的
-0.56237185	去 年 的
-0.40428942	六 年 的
-0.5957973	七 年 的
-0.6728485	收 到 的
-1.2014432	成 立 的
-0.553773	劃 目 的
-0.7327798	獨 特 的
-0.7210989	對 性 的
-0.88877165	層 次 的
-0.99086887	識 別 的
-1.0408102	文 件 的
-0.57362574	營 運 的
-1.1656524	販 運 的
-1.2205234	報 告 的
-0.40897587	草 擬 的
-0.70718336	人 口 的
-0.6728485	擬 備 的
-0.7716305	組 內 的
-0.53731436	內 容 的
-0.6728485	接 獲 的
-0.7473956	政 司 的
-0.8195191	普 遍 的
-0.553773	演 變 的
-0.553773	利 署 的
-0.6728485	外 傭 的
-0.8601277	詢 的 三
-0.97669524	年 的 三
-0.865304	分 為 三
-1.7587339	零 一 三
-0.84728235	及 ( 三
-1.2941065	今 年 三
-0.5860404	調 撥 三
-0.5860404	多 達 三
-0.89519954	查 的 個
-1.2391105	的 三 個
-1.0016385	中 一 個
-0.45622462	是 一 個
-1.0809581	十 四 個
-0.8305491	等 多 個
-0.7694031	放 六 個
-0.5626087	對 這 個
-0.5626087	% 這 個
-0.89349324	署 的 部
-0.8558557	三 個 部
-0.830182	至 全 部
-0.8412747	留 其 部
-1.4504311	務 處 部
-0.8642931	亦 在 部
-0.8175103	隊 內 部
-0.71452487	局 跨 部
-0.62941366	個 部 分
-0.62941366	其 部 分
-0.62941366	處 部 分
-2.0318267	工 作 分
-0.87901753	心 十 分
-0.58508444	恐 怖 分
-1.5836409	情 報 分
-0.58508444	有 效 分
-1.6705048	販 運 分
-1.3898897	報 告 分
-1.2712978	部 分 我
-0.5860404	分 我 作
-0.5626087	營 合 作
-0.5626087	伴 合 作
-1.2394731	香 港 作
-1.1358502	機 關 作
-0.8810175	經 驗 作
-0.23921798	的 工 作
-0.017991709	報 工 作
-0.34370917	立 工 作
-0.34370917	防 工 作
-0.34370917	要 工 作
-0.8316921	據 運 作
-0.7656603	會 議 以
-0.8583745	我 作 以
-1.3216679	行 動 以
-2.0220215	情 報 以
-0.82624316	亦 可 以
-0.98700875	訛 騙 以
-0.83152765	作 並 以
-0.709409	速 度 以
-0.8332718	十 宗 以
-0.7911583	首 長 以
-0.76216483	多 項 以
-0.5812814	因 素 以
-0.8694309	作 以 下
-0.5879588	處 轄 下
-1.4480661	機 制 下
-1.0567608	情 況 下
-0.5879588	管 齊 下
-0.8257196	以 下 綜
-0.5879588	下 綜 合
-0.8811919	或 有 合
-0.3240417	的 聯 合
-0.3240417	年 聯 合
-0.3240417	計 聯 合
-0.3240417	升 聯 合
-0.7184016	私 營 合
-0.88480914	夥 伴 合
-0.8260269	綜 合 回
-0.5907792	合 回 覆
-0.5822291	回 覆 香
-0.71068233	為 此 香
-1.4312395	打 擊 香
-0.6571172	處 ) 香
-0.6571172	局 ) 香
-0.8111356	聯 同 香
-1.0685252	管 局 香
-1.1348312	透 過 香
-0.6989451	有 在 香
-0.6989451	題 在 香
-0.6989451	口 在 香
-0.76360285	頒 布 香
-0.8132734	定 與 香
-0.71068233	維 護 香
-0.075531185	覆 香 港
-0.075531185	此 香 港
-0.075531185	擊 香 港
-0.057319403	) 香 港
-0.075531185	同 香 港
-0.075531185	局 香 港
-0.075531185	過 香 港
-0.03202343	在 香 港
-0.075531185	布 香 港
-0.075531185	與 香 港
-0.075531185	護 香 港
-0.43074676	持 本 港
-0.43074676	出 本 港
-0.8886343	百 萬 港
-0.85706186	作 分 為
-0.4790143	港 作 為
-0.7942388	穩 定 為
-1.3985674	小 組 為
-0.84772956	設 立 為
-1.3312471	方 面 為
-0.60106266	分 別 為
-0.9762345	識 別 為
-1.0313728	案 件 為
-0.76504564	述 題 為
-0.7942388	是 因 為
-1.131563	作 為 國
-1.2473235	根 據 國
-0.7738048	鑒 外 國
-0.8708346	個 在 國
-0.46681303	為 國 際
-0.46681303	據 國 際
-0.46681303	在 國 際
-1.2033802	香 港 金
-0.4307689	本 港 金
-1.0483552	國 際 金
-1.2969074	嚴 重 金
-0.5067519	子 資 金
-0.5067519	法 資 金
-0.84553933	局 ( 金
-0.87340057	錢 和 金
-1.166531	查 科 金
-0.81598365	主 要 金
-0.13113104	港 金 融
-0.38223615	際 金 融
-0.38223615	重 金 融
-0.38223615	和 金 融
-0.38223615	要 金 融
-0.79411244	質 詢 中
-1.3673763	金 融 中
-0.42688364	的 其 中
-0.42688364	系 其 中
-0.42688364	對 其 中
-0.42688364	球 其 中
-0.8218064	服 務 中
-0.42969492	人 當 中
-0.42969492	示 當 中
-0.6878005	融 中 心
-0.6878005	務 中 心
-0.52681077	的 三 十
-0.6560814	達 三 十
-0.8716806	中 心 十
-0.2115547	百 一 十
-1.1392597	會 及 十
-0.76319534	的 四 十
-0.6319347	理 四 十
-0.47768748	百 五 十
-0.77015	部 二 十
-0.44740182	第 二 十
-0.5812814	監 禁 十
-1.0610553	今 年 十
-0.7745583	八 年 十
-0.504081	百 八 十
-0.504081	加 八 十
-0.558673	的 九 十
-0.558673	百 九 十
-0.83152765	的 七 十
-0.8986324	特 的 重
-0.8655563	十 分 重
-0.88480914	一 直 重
-0.30489406	擊 嚴 重
-0.1104849	及 嚴 重
-0.7723326	一 項 重
-0.64022446	分 重 視
-0.64022446	直 重 視
-0.59031683	制 審 視
-0.9720734	重 視 維
-0.88949263	能 力 維
-0.7215888	視 維 持
-0.59031683	與 各 持
-0.87225306	件 為 本
-0.72100556	維 持 本
-0.824186	進 出 本
-0.9368056	金 融 體
-0.37222952	的 整 體
-0.44978574	融 體 系
-0.89041376	體 系 健
-0.86925995	驗 作 全
-1.1252458	作 為 全
-0.5869986	系 健 全
-1.0657525	展 至 全
-1.0539408	部 門 全
-0.5869986	元 化 全
-0.839167	健 全 穩
-0.5898856	全 穩 定
-1.1628032	透 過 定
-0.30557594	組 決 定
-0.30557594	這 決 定
-0.8730355	定 為 此
-0.80590403	示 因 此
-0.8492266	中 的 一
-0.8492266	備 的 一
-1.6247907	香 港 一
-0.74621385	其 中 一
-1.129353	年 十 一
-0.80634105	提 出 一
-1.7431945	作 組 一
-0.8352256	性 ( 一
-0.89793533	一 百 一
-0.934246	五 百 一
-0.6826498	七 百 一
-1.272067	十 二 一
-0.6746033	組 是 一
-0.6746033	而 是 一
-0.04590485	二 零 一
-0.70687354	捕 共 一
-1.0320171	政 府 一
-1.0571985	十 七 一
-0.8015077	港 一 直
-0.8015077	府 一 直
-0.88480914	一 直 根
-1.5605897	罪 行 根
-1.4278755	小 組 根
-1.4085623	報 告 根
-0.5879588	月 起 根
-0.18805195	直 根 據
-0.18805195	行 根 據
-0.18805195	組 根 據
-0.18805195	告 根 據
-0.18805195	起 根 據
-1.0651141	國 際 標
-0.5907792	際 標 準
-0.5879588	標 準 實
-0.8208865	的 事 實
-0.8218064	貫 務 實
-0.5879588	法 證 實
-0.7184016	在 切 實
-0.8111356	準 實 行
-0.33805287	重 罪 行
-0.520406	擊 罪 行
-0.520406	事 罪 行
-0.33805287	訴 罪 行
-0.5594573	及 進 行
-0.5594573	告 進 行
-0.84177977	二 ) 行
-0.8275541	實 可 行
-0.09318114	的 銀 行
-0.051105782	港 銀 行
-0.124538355	關 銀 行
-0.124538355	由 銀 行
-0.124538355	家 銀 行
-0.124538355	售 銀 行
-0.124538355	升 銀 行
-1.1977644	組 成 行
-0.8462652	傭 工 行
-0.8111356	主 導 行
-1.0401094	風 險 行
-0.71068233	面 推 行
-0.90035903	性 的 措
-0.88687205	實 行 措
-1.1813518	措 施 措
-0.8808837	略 和 措
-0.2512725	的 措 施
-0.2512725	行 措 施
-0.2512725	施 措 施
-0.2512725	和 措 施
-0.7679458	表 就 打
-0.86469495	報 以 打
-1.6762649	香 港 打
-0.8635839	題 為 打
-0.95957637	重 視 打
-1.166531	措 施 打
-0.88202006	防 及 打
-0.58508444	範 疇 打
-0.10771164	就 打 擊
-0.10771164	以 打 擊
-0.10771164	港 打 擊
-0.10771164	為 打 擊
-0.10771164	視 打 擊
-0.10771164	施 打 擊
-0.10771164	及 打 擊
-0.10771164	疇 打 擊
-1.4541817	打 擊 洗
-1.1597354	騙 及 洗
-1.2325369	偵 查 洗
-0.2502469	中 清 洗
-0.2502469	及 清 洗
-0.2502469	式 清 洗
-0.2502469	意 清 洗
-0.87712604	案 和 洗
-0.5869986	監 察 洗
-0.20507804	擊 洗 黑
-0.20507804	及 洗 黑
-0.20507804	查 洗 黑
-0.12507227	清 洗 黑
-0.20507804	和 洗 黑
-0.20507804	察 洗 黑
-0.05756547	洗 黑 錢
-0.55834126	動 以 及
-0.55834126	度 以 及
-0.55834126	宗 以 及
-0.55834126	長 以 及
-0.9568085	黑 錢 及
-1.977696	情 報 及
-0.5551199	組 織 及
-1.2729402	六 年 及
-0.6326626	公 會 及
-0.5551199	訛 騙 及
-1.0742664	勞 工 及
-0.86073506	分 享 及
-0.86073506	預 防 及
-0.7074626	有 提 及
-0.7074626	也 提 及
-1.0214568	風 險 及
-1.0214568	趨 勢 及
-0.57563853	掌 握 及
-0.98169893	警 區 及
-1.1006448	人 口 及
-0.57563853	傳 閱 及
-0.57563853	宗 涉 及
-1.1736699	錢 及 恐
-0.5907792	及 恐 怖
-0.8706027	怖 分 子
-1.187663	容 的 資
-0.5889211	分 子 資
-1.0698949	非 法 資
-0.8867175	分 享 資
-1.1175374	資 金 籌
-0.59031683	金 籌 集
-0.7215888	動 收 集
-0.98576486	黑 錢 活
-0.72100556	籌 集 活
-1.2594014	犯 罪 活
-0.60552293	) 行 動
-0.60552293	成 行 動
-0.60552293	工 行 動
-0.60552293	導 行 動
-0.60552293	險 行 動
-0.26242313	錢 活 動
-0.38249987	集 活 動
-0.38249987	罪 活 動
-1.3151737	活 動 收
-1.4429696	報 組 收
-1.2569115	行 的 情
-0.8244217	處 的 情
-1.0508627	運 的 情
-0.7044373	組 為 情
-0.7044373	因 為 情
-0.74251664	審 視 情
-0.69196385	因 此 情
-0.4760253	進 行 情
-1.3050696	黑 錢 情
-0.69196385	收 集 情
-1.2197586	活 動 情
-0.79264677	促 進 情
-0.81530523	組 ( 情
-0.81861013	組 ) 情
-0.78767526	而 已 情
-0.83033955	放 由 情
-0.8235933	指 是 情
-0.8412357	訊 和 情
-1.010061	戰 略 情
-1.3129656	警 示 情
-0.568227	敏 感 情
-0.8465573	能 力 情
-0.568227	交 給 情
-0.77018595	現 時 情
-0.568227	月 底 情
-0.8465573	支 援 情
-0.74251664	慮 將 情
-1.2840605	可 疑 情
-0.12131359	財 富 情
-0.8986324	獲 的 報
-0.1697414	的 情 報
-0.04604096	為 情 報
-0.060413625	視 情 報
-0.060413625	此 情 報
-0.04604096	行 情 報
-0.060413625	錢 情 報
-0.060413625	集 情 報
-0.060413625	動 情 報
-0.060413625	進 情 報
-0.060413625	( 情 報
-0.060413625	) 情 報
-0.060413625	已 情 報
-0.060413625	由 情 報
-0.060413625	是 情 報
-0.060413625	和 情 報
-0.060413625	略 情 報
-0.060413625	示 情 報
-0.060413625	感 情 報
-0.060413625	力 情 報
-0.060413625	給 情 報
-0.060413625	時 情 報
-0.060413625	底 情 報
-0.060413625	援 情 報
-0.060413625	將 情 報
-0.019256549	富 情 報
-0.88480914	評 估 報
-1.0567608	趨 勢 報
-0.13673604	交 易 報
-0.8913369	報 及 偵
-1.1470839	加 強 偵
-0.97103554	提 升 偵
-0.38249987	及 偵 查
-0.38249987	強 偵 查
-0.38249987	升 偵 查
-0.17341678	的 調 查
-0.17341678	下 調 查
-0.06884606	案 調 查
-0.17341678	事 調 查
-0.17341678	人 調 查
-0.17341678	品 調 查
-0.17341678	入 調 查
-0.77756095	根 據 有
-1.1882293	偵 查 有
-0.7030978	條 如 有
-0.93968225	道 或 有
-0.78355145	元 而 有
-0.78355145	中 亦 有
-1.3133999	成 立 有
-1.1149745	透 過 有
-0.57657397	面 均 有
-0.5547726	為 所 有
-0.5547726	佔 所 有
-1.6351423	販 運 有
-0.7030978	表 述 有
-0.7550451	年 只 有
-0.57657397	形 象 有
-0.7550451	以 將 有
-0.57657397	並 沒 有
-0.57657397	分 類 有
-1.1259633	合 作 關
-0.6526811	查 有 關
-0.6526811	而 有 關
-0.6526811	運 有 關
-0.6526811	類 有 關
-0.42864564	和 相 關
-0.42864564	交 相 關
-0.8810175	夥 伴 關
-0.7158132	絕 無 關
-0.4737461	法 機 關
-0.18716179	港 海 關
-0.18716179	及 海 關
-0.18716179	( 海 關
-0.18716179	和 海 關
-0.18716179	區 海 關
-0.92673945	金 融 罪
-0.744932	嚴 重 罪
-1.4448589	打 擊 罪
-1.3789973	有 關 罪
-0.3799372	洗 犯 罪
-0.3799372	關 犯 罪
-0.3799372	屬 犯 罪
-1.0367428	刑 事 罪
-0.36976892	公 訴 罪
-0.19339164	商 業 罪
-1.187663	錢 的 案
-0.8630401	的 個 案
-0.87102103	議 以 案
-0.4103605	融 罪 案
-0.6761378	關 罪 案
-0.18804163	業 罪 案
-1.4600761	罪 案 阻
-0.5907792	案 阻 止
-1.170347	錢 及 非
-0.5898856	阻 止 非
-0.88277483	告 和 非
-0.43022054	及 非 法
-0.43022054	止 非 法
-0.71970165	亦 無 法
-0.5889211	及 手 法
-0.38181782	查 執 法
-0.38181782	關 執 法
-0.38181782	快 執 法
-1.111527	資 金 進
-1.4175853	以 及 進
-1.4085623	報 告 進
-0.5879588	助 促 進
-0.5879588	作 跟 進
-0.8218064	金 進 出
-0.8676712	劃 提 出
-0.8354998	域 發 出
-0.802037	司 長 出
-0.7184016	先 推 出
-1.3360585	口 的 其
-0.8810175	體 系 其
-0.87777203	均 有 其
-0.7989009	後 對 其
-0.7158132	保 留 其
-0.5860404	全 球 其
-0.5860404	按 照 其
-1.3445214	其 中 清
-1.166781	騙 及 清
-1.0595992	方 式 清
-0.5889211	留 意 清
-1.3767868	清 洗 犯
-1.4038084	有 關 犯
-0.77528197	即 屬 犯
-0.7636754	行 的 得
-1.1255469	動 的 得
-1.2609602	犯 罪 得
-0.110768534	的 得 益
-0.30589145	罪 得 益
-1.1851374	得 益 屬
-0.5898856	相 信 屬
-0.5898856	產 即 屬
-0.77528197	益 屬 刑
-0.77528197	進 或 刑
-0.7760303	最 高 刑
-0.90035903	遍 的 事
-0.43022054	屬 刑 事
-0.43022054	或 刑 事
-0.8225331	名 同 事
-1.0037032	入 境 事
-0.7989009	人 員 組
-0.1334523	工 作 組
-1.6977559	銀 行 組
-1.0051486	情 報 組
-0.4840187	據 有 組
-0.7694031	民 間 組
-0.2147435	動 小 組
-0.2147435	略 小 組
-0.4682498	有 組 織
-0.82925117	間 組 織
-1.4707317	打 擊 嚴
-0.46389747	織 及 嚴
-0.81647366	險 及 嚴
-0.94700944	罪 行 條
-1.4984136	十 五 條
-0.5898856	五 A 條
-0.44978574	行 條 例
-0.88202006	享 及 (
-1.4301898	海 關 (
-1.823499	作 組 (
-0.87913406	條 例 (
-1.4504311	務 處 (
-0.83947164	理 局 (
-0.7679458	要 性 (
-0.58508444	次 序 (
-0.8886343	條 例 第
-0.8543252	例 ( 第
-0.85466164	章 ) 第
-1.0208485	年 的 四
-1.1304537	二 十 四
-0.79279566	禁 十 四
-1.7760694	零 一 四
-0.7737043	( 第 四
-1.0669887	處 理 四
-0.77928317	二 一 百
-0.77928317	共 一 百
-0.77928317	七 一 百
-0.8434488	第 四 百
-0.4220592	二 五 百
-0.7045267	款 五 百
-0.7045267	六 五 百
-0.8806355	千 二 百
-0.8203725	二 九 百
-0.8417529	四 七 百
-0.59604067	一 十 五
-0.44793218	五 十 五
-0.59604067	二 十 五
-1.1881688	零 一 五
-0.71469784	四 百 五
-0.99321485	五 百 五
-0.77398056	的 二 五
-1.0599385	十 二 五
-1.1455065	去 年 五
-0.71452487	罰 款 五
-0.77023864	過 去 五
-0.7679458	十 六 五
-1.5044312	十 五 章
-0.84656584	( 三 )
-0.879563	( 一 )
-1.4301898	海 關 )
-1.823499	作 組 )
-0.58508444	五 章 )
-0.8781831	( 二 )
-1.1190192	境 處 )
-1.0765216	管 局 )
-1.5898384	年 的 二
-0.8374152	全 部 二
-1.0979034	別 為 二
-1.0384476	三 十 二
-0.95148355	四 十 二
-0.95148355	九 十 二
-0.86930335	年 及 二
-0.8335302	序 ( 二
-0.42447358	例 第 二
-0.42447358	) 第 二
-0.81730896	制 於 二
-0.7187167	中 在 二
-0.88527143	制 在 二
-0.5966597	截 至 二
-0.5966597	% 至 二
-0.71348715	五 宗 二
-0.59465396	八 宗 二
-0.59465396	七 宗 二
-0.5784508	獲 約 二
-0.5784508	二 千 二
-0.7056113	人 從 二
-0.5784508	不 足 二
-0.7759429	五 條 如
-0.8611938	不 是 如
-1.2916344	一 十 人
-1.1392597	提 及 人
-0.8693384	如 有 人
-1.2355851	一 百 人
-1.4438128	十 五 人
-1.0471721	管 理 人
-1.4730843	識 別 人
-0.19948468	販 運 人
-0.558673	及 與 人
-0.558673	存 與 人
-0.81186736	有 九 人
-0.0659017	受 害 人
-0.8716806	任 何 人
-0.8775021	有 人 處
-0.819246	組 已 處
-0.56340015	事 務 處
-0.09375317	警 務 處
-1.0986354	勞 工 處
-0.5869986	秘 書 處
-0.564304	入 境 處
-0.8232449	有 合 理
-0.7314384	人 處 理
-0.7314384	已 處 理
-0.83562016	合 理 理
-0.50943935	融 管 理
-0.50943935	層 管 理
-1.8700069	作 組 已
-1.4707915	務 處 已
-1.0669887	處 理 已
-0.802037	責 而 已
-0.8031321	至 今 已
-0.8837583	何 人 知
-0.82492584	理 已 知
-0.30589145	人 知 道
-0.30589145	已 知 道
-0.8253342	跟 進 或
-0.37222952	知 道 或
-0.854078	六 個 由
-0.8143616	證 實 由
-1.8090409	作 組 由
-0.827201	理 理 由
-0.854078	員 會 由
-1.3563203	成 立 由
-0.82486516	方 面 由
-0.7132402	快 向 由
-1.0455892	發 放 由
-0.8654067	理 由 相
-0.88277483	位 和 相
-0.824186	轉 交 相
-0.77710956	由 相 信
-0.77086544	信 屬 於
-0.8606689	實 由 於
-1.1738782	查 科 於
-0.8331999	等 至 於
-0.77086544	劃 將 於
-1.4415424	機 制 於
-0.85449004	報 的 可
-0.64110243	關 的 可
-0.85449004	到 的 可
-0.819246	切 實 可
-0.83223283	屬 於 可
-0.85545856	產 是 可
-0.8004661	益 亦 可
-1.0421801	提 交 可
-0.7227337	銀 行 公
-0.6067662	於 可 公
-0.6067662	是 可 公
-0.5889211	到 充 公
-1.1096363	建 立 公
-0.46049848	可 公 訴
-0.9020926	益 的 財
-0.14506556	聯 合 財
-0.8886343	任 何 財
-0.43123382	的 財 產
-0.43123382	何 財 產
-0.89041376	財 產 即
-1.2626361	犯 罪 最
-0.86648214	席 的 高
-1.3657676	行 的 高
-0.5898856	罪 最 高
-1.1851374	提 供 高
-0.7765511	高 刑 罰
-0.8836217	年 和 罰
-0.8917936	目 的 是
-2.0245297	工 作 是
-1.8090409	作 組 是
-0.87725866	財 產 是
-0.7132402	刑 罰 是
-0.7957873	件 而 是
-0.83791584	這 不 是
-0.7132402	所 指 是
-0.7664933	係 只 是
-0.8921785	握 及 監
-0.8611938	罰 是 監
-0.7222144	是 監 禁
-0.8449646	一 三 年
-0.7667376	十 四 年
-0.6345502	一 四 年
-0.43050826	一 五 年
-0.72573817	去 五 年
-0.42759883	及 去 年
-0.42759883	於 去 年
-0.46259862	關 今 年
-0.46259862	於 今 年
-0.46259862	題 今 年
-0.20001128	一 六 年
-0.7978691	一 八 年
-0.20790611	一 七 年
-0.7132402	勢 按 年
-1.9701878	工 作 和
-1.6011742	香 港 和
-1.4891193	罪 行 和
-1.3442624	黑 錢 和
-1.395029	罪 案 和
-0.8484028	工 處 和
-1.122322	四 年 和
-0.57657397	資 訊 和
-1.1058385	加 強 和
-1.2266871	警 方 和
-0.7550451	略 性 和
-1.3258817	策 略 和
-0.7030978	方 針 和
-0.57657397	單 位 和
-1.3382542	報 告 和
-0.7030978	保 護 和
-0.9840855	局 長 和
-0.7215888	和 罰 款
-0.59031683	元 贓 款
-1.0053397	五 百 萬
-0.7210406	二 百 萬
-0.87225306	萬 港 元
-0.8886343	百 萬 元
-0.83732367	套 多 元
-0.7738048	港 元 而
-1.1592065	文 件 而
-0.80361354	方 因 而
-0.8867175	負 責 而
-1.1104025	詢 中 亦
-1.4553696	海 關 亦
-1.1813518	得 益 亦
-0.5889211	資 料 亦
-0.87409776	可 以 遭
-0.7215888	組 收 到
-0.59031683	以 遭 到
-0.7222144	遭 到 充
-0.8066638	充 公 借
-0.5907792	公 借 鑒
-0.59031683	借 鑒 外
-0.37222952	保 障 外
-0.9028686	國 的 經
-0.8756382	運 作 經
-0.30589145	的 經 驗
-0.30589145	作 經 驗
-0.47388077	擬 的 警
-1.2122458	口 的 警
-0.84183383	四 個 警
-1.2143898	部 分 警
-0.8031738	發 出 警
-0.8339184	三 ) 警
-0.84478486	面 由 警
-0.69072145	向 由 警
-0.86435306	經 驗 警
-0.8031738	七 月 警
-1.1383256	提 供 警
-1.01565	案 件 警
-1.0406872	展 至 警
-0.86435306	包 括 警
-0.7564598	該 份 警
-0.78506213	屆 時 警
-0.5775114	科 總 警
-0.7043528	並 從 警
-0.8208865	境 事 務
-0.66306305	由 警 務
-0.55577826	驗 警 務
-0.55577826	月 警 務
-0.55577826	至 警 務
-0.55577826	括 警 務
-0.5879588	一 貫 務
-0.5879588	融 服 務
-0.8218064	由 政 務
-1.4881313	務 處 商
-0.70524204	組 由 商
-0.86563903	面 由 商
-0.30572826	處 商 業
-0.21569787	由 商 業
-0.7215888	會 向 業
-1.3399099	關 的 調
-0.8475832	內 部 調
-0.81598365	轄 下 調
-0.49341407	罪 案 調
-1.0367428	刑 事 調
-1.5442272	害 人 調
-0.58508444	毒 品 調
-0.7991701	深 入 調
-0.48791927	調 查 科
-1.4304278	以 及 去
-0.83732367	科 於 去
-0.824186	告 過 去
-0.85140514	年 三 月
-1.1564338	年 十 月
-0.88472235	十 一 月
-0.86919	年 五 月
-0.8434807	年 七 月
-0.8986324	立 的 聯
-1.3016224	五 年 聯
-0.8208865	五 月 聯
-0.7737043	統 計 聯
-0.7723326	上 升 聯
-0.8232427	月 聯 同
-0.8208865	指 導 同
-0.8441727	在 不 同
-0.7184016	關 共 同
-0.5879588	三 名 同
-0.68683285	( 金 管
-0.68683285	科 金 管
-1.3724451	金 融 管
-0.83562016	以 多 管
-1.0037032	高 層 管
-1.0641018	管 理 局
-0.4587998	金 管 局
-0.6366536	利 局 局
-0.6366536	安 局 局
-0.9641238	福 利 局
-0.7171055	次 跨 局
-0.5869986	保 安 局
-1.1128154	運 的 銀
-0.8601277	內 的 銀
-0.846435	香 港 銀
-1.1358502	相 關 銀
-0.85910106	個 由 銀
-0.7694031	多 家 銀
-0.5860404	零 售 銀
-0.96184415	提 升 銀
-0.7989009	委 員 會
-1.4040952	作 組 會
-1.1941589	報 組 會
-1.1941589	小 組 會
-0.20380093	行 公 會
-1.2571055	警 方 會
-0.5860404	定 期 會
-0.7694031	往 只 會
-0.5860404	和 社 會
-0.8678465	並 以 多
-1.3013722	三 十 多
-1.1738782	措 施 多
-1.1597354	會 及 多
-0.77086544	係 等 多
-0.5869986	一 套 多
-0.83732367	及 多 家
-0.30557594	行 專 家
-0.30557594	表 專 家
-0.5898856	外 籍 家
-1.1843233	組 的 成
-1.7155352	銀 行 成
-0.8118607	員 組 成
-1.415436	作 組 成
-0.8118607	行 組 成
-0.8208865	共 同 成
-1.0567608	政 府 成
-0.30193242	的 成 立
-0.30193242	行 成 立
-0.3790359	組 成 立
-0.30193242	同 成 立
-0.30193242	府 成 立
-0.30523485	是 建 立
-0.30523485	者 建 立
-0.5889211	和 訂 立
-0.5889211	組 設 立
-1.3972363	成 立 反
-0.8913369	涉 及 訛
-0.5898856	立 反 訛
-0.8886343	包 括 訛
-0.3827255	及 訛 騙
-0.3827255	反 訛 騙
-0.3827255	括 訛 騙
-1.1128154	組 的 工
-1.2454104	口 的 工
-0.24757649	情 報 工
-0.8530065	訂 立 工
-0.8810175	預 防 工
-1.0394529	重 要 工
-0.30421326	) 勞 工
-0.30421326	和 勞 工
-0.7158132	庭 傭 工
-1.2525164	一 個 先
-1.8866863	作 組 先
-0.5889211	的 優 先
-0.71970165	處 首 先
-0.8359458	報 主 導
-0.50876594	個 先 導
-0.50876594	組 先 導
-0.7184016	策 指 導
-0.7184016	司 領 導
-0.5879588	門 督 導
-1.3665425	行 動 計
-0.46653455	先 導 計
-0.5898856	字 統 計
-0.43123382	動 計 劃
-0.29038537	導 計 劃
-1.0651141	計 劃 目
-0.8611938	的 是 建
-0.59031683	份 者 建
-0.8066638	立 公 私
-1.7289404	香 港 營
-0.59031683	公 私 營
-1.140972	合 作 夥
-1.1142828	建 立 夥
-0.30589145	作 夥 伴
-0.30589145	立 夥 伴
-0.74261636	作 關 係
-0.74261636	伴 關 係
-0.74261636	無 關 係
-0.824186	今 已 透
-1.2569795	組 會 透
-1.0624561	關 係 透
-0.83732367	由 於 過
-0.38228923	已 透 過
-0.38228923	會 透 過
-0.38228923	係 透 過
-1.4214722	報 告 過
-0.88624156	過 有 效
-0.8883641	報 分 享
-0.72082186	效 分 享
-0.8070315	享 資 訊
-0.48706496	口 及 加
-2.0801933	情 報 加
-0.5879588	交 流 加
-0.88480914	不 斷 加
-0.5879588	幅 增 加
-0.34108633	及 加 強
-0.52638626	報 加 強
-0.52638626	斷 加 強
-1.2474031	偵 查 預
-1.5891001	害 人 預
-0.30589145	查 預 防
-0.30589145	人 預 防
-0.8585535	下 的 方
-0.8585535	本 的 方
-0.84656584	為 三 方
-1.3410422	行 動 方
-0.93941844	由 警 方
-0.7548726	件 警 方
-0.7548726	時 警 方
-0.71452487	面 每 方
-0.88893896	策 略 方
-1.416173	警 示 方
-0.71452487	貿 易 方
-0.5707929	作 全 面
-0.5707929	門 全 面
-0.5707929	化 全 面
-0.4415296	三 方 面
-0.4415296	動 方 面
-0.4415296	每 方 面
-0.5215391	略 方 面
-0.4415296	示 方 面
-0.7759429	會 就 每
-1.3688935	方 面 每
-1.3714257	方 面 均
-0.84916544	有 其 獨
-0.824186	三 月 特
-0.5898856	其 獨 特
-0.5898856	遍 但 特
-0.837185	個 主 要
-0.63894486	的 重 要
-0.63894486	項 重 要
-0.8225331	務 實 要
-0.5889211	有 需 要
-1.0504657	重 要 性
-1.393411	策 略 性
-0.80519587	針 對 性
-0.96184415	整 體 策
-1.2355102	根 據 策
-0.84817296	一 ) 策
-1.2076362	組 成 策
-1.170189	提 供 策
-0.8189434	的 政 策
-0.5860404	且 具 策
-0.2049866	體 策 略
-0.2049866	據 策 略
-0.2049866	) 策 略
-0.2049866	成 策 略
-0.2049866	供 策 略
-0.2049866	具 策 略
-0.30572826	的 戰 略
-0.30572826	取 戰 略
-1.1886665	查 科 毒
-0.5907792	科 毒 品
-1.0624561	國 際 間
-0.8872915	及 十 間
-0.5898856	個 民 間
-0.86950606	九 百 零
-0.4193208	為 二 零
-0.4193208	及 二 零
-0.4193208	於 二 零
-0.2836736	在 二 零
-0.2836736	至 二 零
-0.14010124	宗 二 零
-0.4193208	從 二 零
-0.77528197	十 間 零
-0.77665204	間 零 售
-0.29038537	的 高 層
-0.43123382	供 高 層
-0.8347038	行 動 小
-0.8979275	策 略 小
-1.6723815	銀 行 提
-1.159306	措 施 提
-1.3870481	以 及 提
-0.8726922	亦 有 提
-1.4371555	作 組 提
-1.2147762	報 組 提
-0.9911226	組 織 提
-0.86970675	行 和 提
-1.0428406	計 劃 提
-0.87539136	負 責 提
-0.58317876	詢 也 提
-0.55013967	行 提 供
-0.55013967	施 提 供
-0.6558573	組 提 供
-0.55013967	責 提 供
-0.8836217	性 和 針
-1.131776	略 方 針
-0.8845304	針 和 訂
-0.90370136	作 的 優
-0.80639267	優 先 次
-0.566978	高 層 次
-0.77665204	先 次 序
-1.4916023	務 處 轄
-1.6092263	調 查 單
-0.5907792	查 單 位
-1.2433499	質 詢 所
-0.86876464	面 為 所
-1.107439	詢 中 所
-1.4278755	小 組 所
-0.5879588	人 佔 所
-0.99135315	害 人 識
-1.2941065	七 年 識
-0.8189434	組 所 識
-0.5860404	涵 蓋 識
-0.4737461	接 受 識
-0.5860404	完 善 識
-0.5860404	人 被 識
-0.86977375	告 分 別
-0.093861304	人 識 別
-0.12548254	年 識 別
-0.12548254	所 識 別
-0.12548254	蓋 識 別
-0.093861304	受 識 別
-0.12548254	善 識 別
-0.12548254	被 識 別
-1.1925392	別 的 戰
-0.59031683	採 取 戰
-0.84792465	照 其 風
-1.0728208	戰 略 風
-1.0624561	情 況 風
-0.3827255	其 風 險
-0.3827255	略 風 險
-0.3827255	況 風 險
-0.8066638	過 定 期
-0.64003396	的 案 件
-0.64003396	以 案 件
-0.38249987	示 文 件
-0.38249987	放 文 件
-0.38249987	份 文 件
-0.42875066	的 方 式
-0.7212739	易 方 式
-1.0651141	方 式 採
-0.5907792	式 採 取
-0.16866435	的 警 示
-0.5571229	出 警 示
-0.5571229	) 警 示
-0.5571229	供 警 示
-0.5571229	份 警 示
-0.59031683	果 顯 示
-1.0958141	這 個 在
-1.0900716	當 中 在
-1.1324878	所 有 在
-0.7926959	關 亦 在
-0.95284325	問 題 在
-1.5284172	人 口 在
-0.8332152	法 並 在
-0.5822291	時 候 在
-0.9846601	機 制 在
-0.5822291	的 潛 在
-0.5822291	必 須 在
-1.2513337	根 據 運
-0.72100556	港 營 運
-0.15037248	席 販 運
-0.044668354	擊 販 運
-0.15037248	出 販 運
-0.15037248	區 販 運
-0.060640614	口 販 運
-0.15037248	了 販 運
-0.85943305	只 會 發
-1.4293146	警 示 發
-0.5869986	業 界 發
-0.8426	定 不 發
-0.8004661	要 對 發
-0.5869986	領 域 發
-0.6079088	示 發 布
-0.6079088	不 發 布
-0.59031683	府 頒 布
-1.0637375	風 險 評
-0.9720734	發 布 評
-0.30589145	險 評 估
-0.30589145	布 評 估
-0.58942264	的 報 告
-0.58942264	估 報 告
-0.58942264	勢 報 告
-0.12378941	易 報 告
-1.1910285	錢 的 趨
-1.4214722	報 告 趨
-1.0901814	五 宗 趨
-0.3827255	的 趨 勢
-0.3827255	告 趨 勢
-0.3827255	宗 趨 勢
-0.77710956	和 非 敏
-0.5907792	非 敏 感
-0.72089934	及 提 升
-0.72089934	和 提 升
-0.59031683	年 上 升
-1.7429171	銀 行 掌
-0.5907792	行 掌 握
-0.7222144	及 監 察
-1.1925392	動 的 能
-0.9720734	整 體 能
-0.30589145	的 能 力
-0.30589145	體 能 力
-1.3794837	成 立 至
-0.7723326	博 等 至
-0.7184016	譽 截 至
-0.37112254	擴 展 至
-0.7184016	七 % 至
-1.4553696	海 關 今
-0.83562016	將 於 今
-0.8362314	立 至 今
-0.96871936	問 題 今
-1.276518	公 會 向
-0.7215888	盡 快 向
-0.7222144	向 業 界
-0.5713305	會 發 放
-0.5713305	界 發 放
-0.5713305	對 發 放
-0.8872915	七 十 六
-0.76683676	零 一 六
-1.0624561	發 放 六
-0.9028686	司 的 代
-1.7383211	銀 行 代
-1.1925392	容 的 表
-0.30572826	的 代 表
-0.30572826	行 代 表
-1.7383211	銀 行 專
-0.9720734	代 表 專
-0.44978574	專 家 草
-1.9120041	作 組 擬
-0.37222952	家 草 擬
-0.8829429	十 人 當
-1.4498041	警 示 當
-0.5898856	在 適 當
-1.1147246	當 中 包
-0.8477369	席 並 包
-0.30589145	中 包 括
-0.30589145	並 包 括
-0.87409776	騙 以 貿
-0.59031683	以 貿 易
-0.14508213	疑 交 易
-1.0755432	非 法 賭
-0.5907792	法 賭 博
-1.0624561	關 係 等
-0.5898856	賭 博 等
-0.72100556	程 度 等
-0.8253342	詢 所 述
-0.7759429	的 表 述
-0.7215888	所 述 題
-0.30572826	的 問 題
-0.30572826	口 問 題
-0.8845304	港 和 亞
-0.5907792	和 亞 太
-0.5907792	亞 太 地
-0.77894825	個 警 區
-0.77894825	分 警 區
-0.43074676	月 特 區
-0.43074676	但 特 區
-0.5898856	太 地 區
-1.1738782	主 席 販
-0.42797944	打 擊 販
-0.819246	推 出 販
-0.8004661	地 區 販
-0.7381551	人 口 販
-0.5869986	示 了 販
-0.7593281	及 人 口
-0.06445322	運 人 口
-0.44338375	與 人 口
-0.88526	推 行 這
-1.1556394	文 件 這
-1.4360375	警 示 這
-0.802037	應 對 這
-0.7184016	二 % 這
-1.008702	決 定 不
-0.8538085	作 是 不
-0.7694031	際 間 不
-0.86591923	候 在 不
-0.8189434	示 這 不
-0.47185653	港 並 不
-0.7158132	人 數 不
-0.8494865	政 策 指
-0.8253342	中 所 指
-0.88541204	沒 有 備
-0.7215888	組 擬 備
-0.72100556	各 持 份
-1.1643958	的 一 份
-0.5898856	布 該 份
-1.4498041	警 示 文
-1.0624561	發 放 文
-0.77528197	一 份 文
-1.2611467	一 個 民
-2.089178	情 報 交
-0.88660264	組 提 交
-0.7196234	織 提 交
-0.23127335	可 疑 交
-0.5889211	案 轉 交
-1.0530511	提 交 給
-1.9207078	作 組 秘
-0.5907792	組 秘 書
-1.9207078	作 組 傳
-0.5907792	組 傳 閱
-0.8921785	閱 及 討
-0.7215888	面 檢 討
-0.7222144	及 討 論
-0.5907792	討 論 後
-0.8225331	實 要 對
-0.71970165	和 針 對
-0.5889211	論 後 對
-0.5889211	式 應 對
-1.1674516	的 一 些
-0.8986324	件 的 內
-1.2587116	部 分 內
-1.8700069	作 組 內
-0.5879588	一 些 內
-0.5879588	警 隊 內
-0.52638626	的 內 容
-0.52638626	分 內 容
-0.52638626	些 內 容
-0.88291204	述 有 保
-0.86382174	會 由 保
-0.69633514	加 強 保
-0.5889211	檢 控 保
-0.80590403	有 保 留
-0.7215888	密 切 留
-0.8070315	的 資 料
-0.80590403	料 亦 無
-0.59031683	否 絕 無
-0.83890456	無 法 證
-0.8257196	於 過 往
-1.3092706	七 年 只
-1.0624561	關 係 只
-0.5898856	過 往 只
-0.8587775	只 是 因
-1.2666625	警 方 因
-1.4428662	警 示 因
-0.7738048	度 等 因
-1.9120041	作 組 決
-0.8253342	件 這 決
-0.97318774	發 布 該
-1.0137973	決 定 與
-1.1632439	提 及 與
-0.8790008	作 和 與
-0.7723326	有 利 與
-0.5879588	備 存 與
-0.90370136	港 的 形
-0.5907792	的 形 象
-0.88541204	象 有 利
-0.30572826	及 福 利
-0.30572826	會 福 利
-0.8260269	利 與 否
-0.5907792	與 否 絕
-0.8898115	組 一 貫
-0.82492584	同 事 負
-1.0067914	內 容 負
-0.30589145	事 負 責
-0.30589145	容 負 責
-0.7215888	會 繼 續
-0.59031683	制 陸 續
-0.7222144	繼 續 密
-0.8732244	須 在 切
-0.59031683	續 密 切
-0.7222144	切 留 意
-0.89308155	勢 及 手
-1.170189	主 席 並
-2.0392485	工 作 並
-1.2394731	香 港 並
-0.8305491	手 法 並
-1.4159139	報 組 並
-0.81761175	領 導 並
-0.5860404	分 析 並
-0.87401724	並 在 適
-0.8225331	導 同 時
-0.77486575	適 當 時
-0.5889211	款 現 時
-0.5889211	討 屆 時
-0.8066638	當 時 候
-0.82492584	不 同 領
-0.80590403	警 司 領
-0.7222144	同 領 域
-0.88624156	立 有 助
-0.5907792	有 助 促
-0.8257196	報 交 流
-0.8253319	流 加 快
-0.59031683	下 盡 快
-1.6027056	調 查 執
-1.1484531	相 關 執
-0.72100556	加 快 執
-0.6284922	執 法 機
-1.5521263	害 人 機
-0.65508723	識 別 機
-1.1232333	制 在 機
-0.8810175	評 估 機
-0.5860404	恆 常 機
-0.7694031	這 項 機
-1.6092263	調 查 速
-0.59031683	查 速 度
-0.59031683	重 程 度
-0.867964	案 的 整
-0.867964	傭 的 整
-0.7215888	力 維 護
-0.80590403	控 保 護
-0.839167	為 全 球
-1.3823694	金 融 服
-0.90370136	心 的 聲
-0.5907792	的 聲 譽
-0.8837583	百 人 截
-0.59031683	聲 譽 截
-1.1595498	八 十 八
-1.7850038	零 一 八
-1.2647558	一 百 八
-0.82324094	增 加 八
-0.8257196	十 月 底
-1.6706414	年 的 九
-1.1564338	四 十 九
-0.8811919	只 有 九
-1.349869	五 百 九
-1.3002146	十 二 九
-1.1533401	九 十 宗
-0.92282087	十 五 宗
-0.7171055	就 每 宗
-0.801815	十 八 宗
-0.8203725	十 九 宗
-0.8417529	零 七 宗
-0.8488036	九 宗 涉
-0.8066638	因 而 拘
-0.5907792	而 拘 捕
-1.4648463	海 關 共
-0.59031683	拘 捕 共
-0.7215888	人 截 獲
-0.7765511	宗 接 獲
-0.7222144	截 獲 約
-0.88548803	約 二 千
-0.77665204	萬 元 贓
-0.7222144	贓 款 現
-1.1886665	查 科 總
-0.8833396	總 警 司
-0.8232449	政 務 司
-0.80361354	務 司 司
-0.8232449	律 政 司
-1.5891001	害 人 從
-0.8477369	導 並 從
-0.88559055	從 警 隊
-0.85746336	部 調 撥
-0.8561752	撥 三 名
-0.8836217	護 和 支
-1.1868379	提 供 支
-0.30589145	和 支 援
-0.30589145	供 支 援
-0.87261707	素 以 將
-1.0624561	計 劃 將
-0.5898856	考 慮 將
-0.8257196	一 月 起
-1.2182871	執 法 檢
-1.2159144	全 面 檢
-0.7222144	檢 討 屆
-0.8665395	方 會 考
-0.5907792	會 考 慮
-1.9207078	作 組 設
-0.873875	立 為 恆
-0.5907792	為 恆 常
-0.20507804	人 機 制
-0.079667136	別 機 制
-0.20507804	在 機 制
-0.20507804	估 機 制
-0.20507804	常 機 制
-0.20507804	項 機 制
-0.62582725	的 情 況
-0.82556814	疑 情 況
-0.47474778	並 不 普
-0.37244618	不 普 遍
-0.89041376	普 遍 但
-0.8986324	次 的 政
-0.86224246	立 由 政
-0.45887786	特 區 政
-0.802037	同 時 政
-0.5879588	及 律 政
-0.36091182	區 政 府
-0.5665202	時 政 府
-0.8070315	多 管 齊
-1.0651141	方 式 應
-0.64050496	是 不 斷
-0.64050496	間 不 斷
-0.89041376	不 斷 演
-0.5907792	斷 演 變
-0.9028686	變 的 問
-1.5775665	人 口 問
-0.4742662	局 局 長
-0.80519587	司 司 長
-0.72100556	門 首 長
-0.8225331	長 出 任
-0.7738048	A 條 任
-0.5889211	長 擔 任
-0.7738048	懷 疑 任
-0.8480442	跨 局 跨
-0.9720734	層 次 跨
-0.63471466	的 部 門
-0.63471466	在 部 門
-0.63471466	跨 部 門
-1.0651141	部 門 督
-0.8257196	督 導 委
-0.8066638	由 保 安
-0.85539174	關 ) 勞
-0.8836217	長 和 勞
-0.8921785	工 及 福
-0.8656675	社 會 福
-1.021357	局 長 擔
-0.8070315	擔 任 副
-0.8525537	處 ( 入
-1.477796	務 處 入
-1.3054297	五 年 入
-0.5889211	要 深 入
-0.46681303	( 入 境
-0.46681303	處 入 境
-0.46681303	年 入 境
-1.7044867	香 港 海
-0.8875861	區 及 海
-0.8507894	關 ( 海
-0.8790008	方 和 海
-1.0137973	警 區 海
-0.8845304	處 和 社
-0.97318774	福 利 署
-1.1361895	境 處 首
-1.0637375	部 門 首
-1.4364947	以 及 律
-0.46049848	強 保 障
-0.9720734	障 外 傭
-0.59031683	家 庭 傭
-1.0651141	政 府 頒
-0.97318774	障 外 籍
-0.77665204	籍 家 庭
-0.8898115	出 一 套
-0.77665204	多 元 化
-1.21787	全 面 且
-0.5907792	面 且 具
-0.83890456	施 多 達
-1.1643958	中 一 項
-0.83732367	十 多 項
-0.8246883	行 這 項
-0.87409776	項 以 涵
-0.5907792	以 涵 蓋
-1.1221213	別 為 受
-1.0489178	識 別 受
-0.86591923	潛 在 受
-1.5510015	人 口 受
-0.8810175	支 援 受
-0.5860404	已 把 受
-0.42864564	下 接 受
-0.42864564	有 接 受
-0.20507804	為 受 害
-0.14967412	別 受 害
-0.20507804	在 受 害
-0.20507804	口 受 害
-0.20507804	援 受 害
-0.20507804	把 受 害
-0.7222144	法 檢 控
-0.8260269	和 與 各
-0.77665204	持 份 者
-0.8665395	多 個 範
-0.5907792	個 範 疇
-0.8845304	強 和 完
-0.5907792	和 完 善
-0.80639267	首 先 推
-1.2159144	全 面 推
-1.6618501	年 的 七
-1.094351	三 十 七
-0.99669313	八 十 七
-0.76424736	零 一 七
-1.0834093	的 四 七
-1.2978482	今 年 七
-0.77086544	百 零 七
-1.4677268	機 制 陸
-0.7215888	陸 續 擴
-1.4644513	機 制 擴
-0.30589145	續 擴 展
-0.30589145	制 擴 展
-0.8257196	處 已 把
-0.824186	制 下 接
-1.1577005	所 有 接
-0.84733313	每 宗 接
-1.1941631	別 的 潛
-0.8846333	五 人 大
-0.5907792	人 大 幅
-0.5907792	大 幅 增
-0.884894	足 二 %
-1.0908879	十 七 %
-0.8846333	九 人 被
-1.5932696	害 人 佔
-0.9028686	告 的 數
-0.8837583	別 人 數
-0.8488049	數 不 足
-1.1243557	這 個 結
-0.5907792	個 結 果
-0.5907792	結 果 顯
-0.8559692	顯 示 了
-1.2550743	質 詢 也
-0.12586327	的 可 疑
-0.6079099	交 可 疑
-0.59031683	或 懷 疑
-1.5044312	十 五 A
-0.5107383	條 任 何
-0.5107383	疑 任 何
-0.97318774	道 或 懷
-1.1886665	得 益 必
-0.5907792	益 必 須
-0.8257196	況 下 盡
-0.14156808	合 財 富
-1.0637375	趨 勢 按
-0.8477369	析 並 按
-0.8866464	按 年 上
-0.8485735	組 並 沒
-0.7222144	有 備 存
-0.8706027	運 分 類
-0.7222144	的 數 字
-0.5907792	數 字 統
-1.1317406	報 分 析
-0.7222144	並 按 照
-1.4677268	機 制 審
-1.3185647	嚴 重 程
-0.8066638	等 因 素
-0.88624156	將 有 需
-0.8257196	需 要 深
-0.8488049	個 案 轉
-0.8765304	關 作 跟

\end\
