\data\
ngram 1=498
ngram 2=1563
ngram 3=1997

\1-grams:
-3.237166	<unk>	0
0	<s>	-0.07053319
-3.0589662	</s>	0
-2.9571362	代	-0.23241428
-2.3678777	理	-0.09028038
-2.7625792	主	-0.07053319
-3.0589662	席	-0.07053319
-2.1257694	現	-0.5411295
-2.2071826	時	-0.085813835
-1.9980565	放	-0.57045543
-2.9571362	債	-0.07053319
-2.164571	人	-0.08148079
-2.1257694	條	-0.48120347
-2.6257455	例	-0.10355369
-2.6257455	第	-0.128259
-2.5218518	二	-0.11808932
-2.6257455	十	-0.128259
-2.9571362	四	-0.23241428
-2.7625792	列	-0.3216042
-2.5218518	明	-0.07053319
-2.0572352	可	-0.5461492
-2.164571	以	-0.08029459
-2.2544346	最	-0.32057792
-2.3678777	高	-0.18594703
-2.9571362	六	-0.07053319
-3.0589662	%	-0.07053319
-1.5064291	的	-0.12433067
-2.2544346	年	-0.07053319
-2.5218518	息	-0.07053319
-2.1257694	貸	-0.27934316
-2.3074627	出	-0.14340694
-2.3074627	款	-0.11254075
-3.0589662	項	-0.07053319
-2.2544346	所	-0.27020806
-2.0266387	其	-0.60656685
-2.6257455	實	-0.07053319
-2.9571362	變	-0.07053319
-2.3074627	相	-0.13925229
-2.2544346	為	-0.07053322
-1.8779866	財	-1.1667023
-2.5218518	務	-0.11096839
-2.5218518	公	-0.5434529
-3.0589662	司	-0.07053319
-3.0589662	創	-0.07053319
-3.0589662	造	-0.07053319
-2.3074627	了	-0.091837205
-2.0572352	一	-0.16525728
-2.5218518	個	-0.28249824
-2.6257455	回	-0.07053319
-2.9571362	報	-0.07053322
-3.0589662	環	-0.07053319
-3.0589662	境	-0.07053319
-2.4380765	因	-0.24009953
-2.4380765	只	-0.11808932
-2.5218518	要	-0.10570327
-1.9980565	借	-0.6461153
-3.0589662	擁	-0.07053319
-1.8379312	有	-0.11558168
-2.7625792	物	-0.3216042
-2.4380765	業	-0.0984377
-2.5218518	或	-0.11808932
-2.3074627	他	-0.17326264
-2.9571362	資	-0.07053319
-2.9571362	產	-0.07053319
-2.7625792	便	-0.14397447
-2.7625792	極	-0.07053322
-2.6257455	大	-0.14397447
-3.0589662	誘	-0.07053319
-2.4380765	向	-0.11808932
-2.2544346	還	-0.27020806
-2.6257455	能	-0.07053319
-2.9571362	力	-0.07053319
-2.5218518	成	-0.07053319
-2.9571362	疑	-0.07053319
-2.4380765	如	-0.16106358
-2.6257455	未	-0.14397447
-2.6257455	名	-0.07053319
-2.6257455	正	-0.07053319
-3.0589662	言	-0.07053319
-3.0589662	順	-0.07053319
-2.7625792	地	-0.07053322
-3.0589662	拍	-0.07053319
-2.9571362	賣	-0.07053319
-2.2071826	收	-0.19906346
-2.7625792	分	-0.07053322
-2.7625792	保	-0.1715007
-3.0589662	證	-0.07053319
-2.5218518	利	-0.24009953
-3.0589662	潤	-0.07053319
-2.0266387	我	-0.24153721
-2.9571362	們	-0.07053319
-1.8574972	在	-0.11926186
-2.3678777	過	-0.10165184
-2.9571362	去	-0.07053319
-2.3678777	數	-0.095825516
-2.7625792	曾	-0.07053322
-2.5218518	接	-0.11808932
-3.0589662	獲	-0.07053319
-2.4380765	多	-0.0877623
-2.9571362	宗	-0.07053319
-2.6257455	類	-0.24399374
-2.9571362	似	-0.07053319
-2.7625792	案	-0.095825516
-1.9980565	中	-0.34287527
-2.2071826	事	-0.16416845
-2.6257455	原	-0.14397447
-2.7625792	本	-0.07053319
-2.9571362	欠	-0.07053319
-2.4380765	銀	-0.6226342
-2.6257455	行	-0.07053319
-2.9571362	萬	-0.23241428
-3.0589662	元	-0.07053319
-2.6257455	卡	-0.44654292
-3.0589662	某	-0.07053319
-2.7625792	天	-0.07053319
-2.3074627	到	-0.091837205
-3.0589662	介	-0.07053319
-3.0589662	電	-0.07053319
-3.0589662	話	-0.07053319
-2.9571362	表	-0.23241428
-3.0589662	示	-0.07053319
-3.0589662	低	-0.07053319
-3.0589662	錢	-0.07053319
-2.7625792	讓	-0.07053322
-3.0589662	償	-0.07053319
-2.2544346	後	-0.09028038
-2.7625792	付	-0.1715007
-3.0589662	昂	-0.07053319
-2.6257455	顧	-0.44654292
-2.3074627	問	-0.3542637
-2.6257455	費	-0.07053319
-2.5218518	間	-0.07053319
-3.0589662	著	-0.07053319
-2.6257455	真	-0.128259
-2.7625792	清	-0.14397447
-2.9571362	卻	-0.07053319
-2.5218518	下	-0.07053322
-2.9571362	終	-0.07053322
-2.2544346	無	-0.3847181
-2.3074627	法	-0.11096839
-2.9571362	被	-0.07053319
-2.9571362	迫	-0.07053319
-2.5218518	樓	-0.07053322
-3.0589662	白	-0.07053319
-3.0589662	率	-0.07053322
-2.9571362	即	-0.07053319
-2.9571362	風	-0.23241428
-3.0589662	險	-0.07053322
-2.0572352	是	-0.10784227
-2.6257455	商	-0.20331699
-2.9571362	社	-0.23241428
-2.3074627	會	-0.07053319
-2.5218518	經	-0.10570327
-2.9571362	常	-0.07053319
-2.7625792	存	-0.1715007
-2.6257455	情	-0.34090376
-3.0589662	景	-0.07053319
-2.7625792	除	-0.3216042
-2.2544346	上	-0.15131025
-3.0589662	述	-0.07053319
-2.9571362	心	-0.07053319
-2.9571362	欺	-0.23241428
-3.0589662	騙	-0.07053322
-2.5218518	外	-0.07053319
-3.0589662	部	-0.07053319
-2.0901518	市	-0.75587714
-2.6257455	民	-0.1134437
-2.9571362	體	-0.07053319
-3.0589662	系	-0.07053322
-2.9571362	才	-0.07053319
-2.9571362	較	-0.07053319
-2.6257455	家	-0.07053319
-2.6257455	看	-0.44654292
-2.7625792	做	-0.3216042
-3.0589662	客	-0.07053319
-3.0589662	觀	-0.07053319
-2.7625792	效	-0.07053319
-2.9571362	果	-0.07053322
-2.6257455	就	-0.07053319
-2.9571362	完	-0.23241428
-2.5218518	全	-0.16106358
-2.5218518	合	-0.128259
-2.7625792	手	-0.07053322
-3.0589662	段	-0.07053319
-2.9571362	營	-0.07053322
-2.2544346	亦	-0.18567438
-2.9571362	鼓	-0.23241428
-3.0589662	勵	-0.07053319
-2.6257455	須	-0.07053319
-2.5218518	機	-0.128259
-2.6257455	令	-0.07053319
-3.0589662	傾	-0.07053319
-3.0589662	蕩	-0.07053319
-2.3074627	作	-0.13186997
-2.6257455	負	-0.44654292
-2.7625792	責	-0.17817245
-2.9571362	任	-0.07053319
-2.2071826	政	-0.8444829
-3.0589662	府	-0.07053319
-2.9571362	否	-0.07053319
-2.9571362	根	-0.23241428
-1.9221151	不	-0.22640249
-2.4380765	應	-0.28249824
-2.6257455	該	-0.07053319
-2.2544346	這	-0.13925229
-3.0589662	種	-0.07053322
-3.0589662	況	-0.07053322
-2.4380765	發	-0.24009953
-2.9571362	生	-0.07053319
-3.0589662	呢	-0.07053319
-2.5218518	修	-0.19485119
-2.9571362	改	-0.07053319
-2.164571	很	-0.54573965
-2.5218518	廣	-0.5434529
-3.0589662	告	-0.07053319
-2.5218518	也	-0.128259
-2.6257455	把	-0.07053319
-2.7625792	說	-0.07053322
-3.0589662	容	-0.07053319
-2.9571362	易	-0.07053319
-2.3074627	當	-0.10570327
-2.4380765	更	-0.11808932
-3.0589662	寫	-0.07053319
-3.0589662	抵	-0.07053319
-3.0589662	押	-0.07053319
-2.9571362	幫	-0.07053319
-3.0589662	你	-0.07053319
-2.9571362	近	-0.07053319
-3.0589662	目	-0.07053319
-2.5218518	由	-0.07053319
-2.9571362	零	-0.07053319
-3.0589662	足	-0.07053319
-3.0589662	八	-0.07053319
-2.9571362	百	-0.07053319
-3.0589662	升	-0.07053319
-2.9571362	至	-0.07053322
-3.0589662	千	-0.07053319
-2.6257455	知	-0.14397447
-3.0589662	愁	-0.07053319
-2.9571362	沒	-0.23241428
-3.0589662	意	-0.07053319
-2.2544346	監	-0.7987254
-2.6257455	管	-0.07053319
-2.9571362	工	-0.23241428
-2.7625792	追	-0.07053322
-3.0589662	增	-0.07053319
-2.9571362	長	-0.07053319
-3.0589662	月	-0.07053319
-2.9571362	緊	-0.07053319
-2.5218518	牌	-0.11096839
-3.0589662	照	-0.07053319
-2.9571362	落	-0.07053319
-2.9571362	得	-0.07053319
-3.0589662	另	-0.07053319
-2.5218518	規	-0.20331699
-2.3678777	定	-0.10165184
-2.6257455	訂	-0.07053319
-3.0589662	均	-0.07053319
-3.0589662	確	-0.07053319
-3.0589662	何	-0.07053319
-2.7625792	已	-0.3216042
-2.6257455	受	-0.24399374
-3.0589662	委	-0.07053319
-3.0589662	託	-0.07053319
-3.0589662	置	-0.07053319
-2.9571362	於	-0.07053319
-2.9571362	身	-0.07053319
-3.0589662	往	-0.07053319
-2.6257455	眾	-0.24399374
-2.9571362	道	-0.07053322
-2.7625792	自	-0.1715007
-3.0589662	己	-0.07053319
-3.0589662	簽	-0.07053319
-3.0589662	甚	-0.07053319
-3.0589662	麼	-0.07053319
-3.0589662	文	-0.07053319
-2.9571362	件	-0.07053322
-2.7625792	和	-0.07053322
-2.3074627	想	-0.07053319
-2.9571362	使	-0.07053319
-3.0589662	詐	-0.07053319
-3.0589662	隱	-0.07053319
-3.0589662	瞞	-0.07053319
-3.0589662	違	-0.07053319
-2.6257455	並	-0.17817245
-3.0589662	非	-0.07053319
-2.9571362	難	-0.07053319
-2.6257455	議	-0.11808932
-3.0589662	界	-0.07053319
-2.7625792	直	-0.11808932
-3.0589662	懷	-0.07053319
-2.9571362	措	-0.23241428
-3.0589662	施	-0.07053319
-3.0589662	坊	-0.07053319
-2.7625792	指	-0.3216042
-3.0589662	些	-0.07053322
-2.2071826	金	-0.36633542
-2.9571362	取	-0.07053319
-2.7625792	續	-0.07053322
-3.0589662	逃	-0.07053319
-3.0589662	避	-0.07053319
-2.7625792	警	-0.1715007
-2.9571362	方	-0.07053322
-2.9571362	查	-0.07053319
-2.9571362	再	-0.07053319
-2.9571362	者	-0.07053322
-2.5218518	對	-0.07053322
-3.0589662	濫	-0.07053319
-2.3678777	但	-0.11096839
-3.0589662	申	-0.07053319
-3.0589662	請	-0.07053319
-3.0589662	功	-0.07053319
-2.3678777	而	-0.11096839
-3.0589662	突	-0.07053319
-2.7625792	然	-0.07053319
-3.0589662	失	-0.07053319
-3.0589662	蹤	-0.07053319
-3.0589662	題	-0.07053319
-2.7625792	希	-0.3216042
-3.0589662	望	-0.07053322
-3.0589662	盡	-0.07053319
-3.0589662	快	-0.07053319
-2.9571362	面	-0.07053319
-2.9571362	檢	-0.23241428
-3.0589662	討	-0.07053319
-2.9571362	關	-0.11808932
-3.0589662	黨	-0.07053322
-2.5218518	認	-0.28370363
-2.2544346	處	-0.4585895
-2.9571362	執	-0.23241428
-2.5218518	特	-0.34090376
-3.0589662	構	-0.07053319
-3.0589662	職	-0.07053319
-3.0589662	候	-0.07053319
-3.0589662	具	-0.07053319
-3.0589662	細	-0.07053319
-3.0589662	節	-0.07053319
-3.0589662	優	-0.07053319
-3.0589662	先	-0.07053319
-2.9571362	次	-0.07053322
-2.3678777	提	-0.30704632
-2.7625792	建	-0.3216042
-2.9571362	透	-0.23241428
-3.0589662	香	-0.07053319
-3.0589662	港	-0.07053319
-3.0589662	融	-0.07053319
-2.7625792	局	-0.07053319
-2.9571362	(	-0.07053319
-2.9571362	)	-0.07053319
-2.5218518	此	-0.07053319
-2.6257455	及	-0.07053319
-3.0589662	穩	-0.07053319
-2.9571362	且	-0.07053319
-2.5218518	按	-0.128259
-3.0589662	場	-0.07053319
-3.0589662	佔	-0.07053319
-2.5218518	小	-0.34090376
-3.0589662	份	-0.07053319
-2.9571362	額	-0.07053319
-2.9571362	反	-0.23241428
-2.7625792	前	-0.07053322
-2.9571362	陳	-0.07053319
-2.9571362	強	-0.07053319
-2.9571362	給	-0.07053319
-3.0589662	若	-0.07053319
-3.0589662	答	-0.07053319
-3.0589662	覆	-0.07053319
-3.0589662	展	-0.07053319
-3.0589662	屬	-0.07053319
-2.6257455	新	-0.128259
-3.0589662	盤	-0.07053319
-2.9571362	供	-0.07053319
-3.0589662	宇	-0.07053319
-3.0589662	揭	-0.07053319
-3.0589662	買	-0.07053319
-3.0589662	旗	-0.07053319
-2.6257455	免	-0.07053319
-3.0589662	審	-0.07053319
-3.0589662	壓	-0.07053319
-3.0589662	測	-0.07053319
-3.0589662	試	-0.07053319
-3.0589662	計	-0.07053319
-3.0589662	劃	-0.07053319
-3.0589662	首	-0.07053319
-3.0589662	識	-0.07053319
-2.9571362	像	-0.07053319
-3.0589662	美	-0.07053319
-2.7625792	國	-0.07053322
-3.0589662	危	-0.07053319
-2.7625792	始	-0.07053322
-3.0589662	翻	-0.07053319
-3.0589662	版	-0.07053319
-2.7625792	今	-0.3216042
-3.0589662	仍	-0.07053319
-3.0589662	步	-0.07053319
-3.0589662	苗	-0.07053319
-3.0589662	頭	-0.07053319
-2.9571362	雖	-0.23241428
-3.0589662	調	-0.07053319
-3.0589662	活	-0.07053319
-3.0589662	動	-0.07053319
-3.0589662	影	-0.07053319
-3.0589662	響	-0.07053319
-2.7625792	安	-0.1715007
-3.0589662	開	-0.07053319
-2.9571362	研	-0.23241428
-2.9571362	究	-0.07053322
-2.9571362	好	-0.07053319
-2.9571362	辦	-0.07053319
-3.0589662	支	-0.07053319
-2.6257455	持	-0.24399374
-3.0589662	設	-0.07053319
-2.9571362	立	-0.07053319
-3.0589662	贊	-0.07053319
-3.0589662	別	-0.07053322
-2.7625792	重	-0.1715007
-2.7625792	引	-0.1715007
-2.9571362	入	-0.07053322
-2.7625792	制	-0.07053322
-2.9571362	度	-0.07053322
-3.0589662	點	-0.07053319
-2.7625792	必	-0.3216042
-3.0589662	俗	-0.07053319
-2.9571362	稱	-0.07053319
-3.0589662	paydayloans	-0.07053319
-3.0589662	糧	-0.07053319
-3.0589662	日	-0.07053319
-3.0589662	陸	-0.07053319
-3.0589662	嚴	-0.07053319
-3.0589662	格	-0.07053319
-2.7625792	同	-0.07053319
-3.0589662	區	-0.07053319
-3.0589662	與	-0.07053319
-3.0589662	性	-0.07053319
-3.0589662	質	-0.07053319
-2.9571362	限	-0.07053322
-3.0589662	延	-0.07053319
-3.0589662	遲	-0.07053319
-3.0589662	尺	-0.07053319
-3.0589662	謂	-0.07053319
-3.0589662	排	-0.07053319
-3.0589662	既	-0.07053319
-3.0589662	切	-0.07053319
-3.0589662	際	-0.07053319
-2.7625792	需	-0.3216042
-2.7625792	運	-0.1715007
-3.0589662	針	-0.07053319
-3.0589662	等	-0.07053319
-3.0589662	解	-0.07053319
-2.9571362	決	-0.07053319
-3.0589662	結	-0.07053319
-3.0589662	三	-0.07053319
-2.9571362	適	-0.07053319
-3.0589662	選	-0.07053319
-3.0589662	士	-0.07053319
-3.0589662	背	-0.07053319
-3.0589662	操	-0.07053319
-3.0589662	縱	-0.07053319
-3.0589662	從	-0.07053319
-2.9571362	註	-0.23241428
-3.0589662	冊	-0.07053319
-3.0589662	紀	-0.07053319
-3.0589662	錄	-0.07053319
-3.0589662	棄	-0.07053319
-3.0589662	稍	-0.07053319
-3.0589662	守	-0.07053319
-3.0589662	則	-0.07053319
-3.0589662	服	-0.07053319
-3.0589662	宣	-0.07053319
-3.0589662	傳	-0.07053319
-3.0589662	料	-0.07053319
-3.0589662	吸	-0.07053319
-3.0589662	般	-0.07053319
-3.0589662	叫	-0.07053319
-2.7625792	消	-0.3216042
-3.0589662	隨	-0.07053319
-3.0589662	找	-0.07053319
-3.0589662	忙	-0.07053319
-3.0589662	顯	-0.07053319
-3.0589662	程	-0.07053319
-3.0589662	冷	-0.07053319
-3.0589662	靜	-0.07053319
-3.0589662	期	-0.07053319
-3.0589662	青	-0.07053319
-3.0589662	楚	-0.07053319
-3.0589662	信	-0.07053319
-3.0589662	障	-0.07053319
-3.0589662	之	-0.07053319
-3.0589662	餘	-0.07053319
-3.0589662	急	-0.07053319
-3.0589662	予	-0.07053319
-3.0589662	帶	-0.07053319
-3.0589662	催	-0.07053319
-3.0589662	進	-0.07053319
-3.0589662	通	-0.07053319
-3.0589662	謝	-0.07053319
-3.0589662	謹	-0.07053319
-3.0589662	辭	-0.07053319

\2-grams:
-0.8220354	辭 </s>	0
-0.8214704	<s> 代	-0.046131715
-0.8214704	謝 代	-0.046131715
-0.37993598	代 理	-0.11546096
-1.1045928	較 理	-0.046131715
-1.4792311	合 理	-0.046131715
-1.6924967	須 理	-0.046131715
-2.0287654	不 理	-0.046131715
-1.6924967	管 理	-0.046131715
-0.20738855	處 理	-0.046131715
-1.916825	理 主	-0.11546096
-1.0753701	事 主	-0.046131715
-0.9452696	民 主	-0.22159947
-1.4177237	主 席	-0.046131715
-1.0898205	席 現	-0.046131715
-1.936446	以 現	-0.046131715
-1.8132057	出 現	-0.046131715
-1.7245572	為 現	-0.046131715
-1.9392209	有 現	-0.046131715
-1.7547306	到 現	-0.11546096
-1.5037916	下 現	-0.046131715
-1.439558	告 現	-0.046131715
-1.2492427	至 現	-0.046131715
-1.3581285	然 現	-0.046131715
-1.2492427	制 現	-0.046131715
-1.0898205	決 現	-0.046131715
-0.19889222	現 時	-0.07255066
-1.8630415	例 時	-0.09110062
-1.9854193	款 時	-0.046131715
-1.3690404	項 時	-0.046131715
-1.8404421	多 時	-0.046131715
-1.5736363	費 時	-0.046131715
-1.9788632	不 時	-0.046131715
-1.5270545	議 時	-0.046131715
-1.3690404	題 時	-0.046131715
-0.8091586	隨 時	-0.046131715
-1.2652755	時 放	-0.22159947
-1.5235416	明 放	-0.046131715
-1.8631821	以 放	-0.046131715
-1.8708471	有 放	-0.046131715
-1.8986092	在 放	-0.046131715
-1.9187824	中 放	-0.046131715
-1.5641979	行 放	-0.046131715
-1.3370945	就 放	-0.046131715
-1.5986801	管 放	-0.046131715
-1.3370945	緊 放	-0.046131715
-1.3644774	受 放	-0.046131715
-1.0783541	於 放	-0.046131715
-1.53469	但 放	-0.046131715
-1.4143101	討 放	-0.046131715
-0.80012053	節 放	-0.046131715
-0.80012053	從 放	-0.046131715
-0.17987444	放 債	-0.8906062
-1.7632434	還 債	-0.046131715
-1.092735	債 人	-0.25235227
-1.9549307	貸 人	-0.046131715
-1.4439278	款 人	-0.064836964
-1.7059402	事 人	-0.046131715
-1.6482831	介 人	-0.046131715
-1.3635502	令 人	-0.046131715
-1.617889	當 人	-0.046131715
-1.5732052	牌 人	-0.046131715
-0.8076391	請 人	-0.046131715
-1.5199872	關 人	-0.046131715
-0.8076391	青 人	-0.046131715
-1.8394823	時 條	-0.046131715
-1.9135916	人 條	-0.58957624
-0.37798905	四 條	-0.046131715
-1.7677382	實 條	-0.046131715
-1.477345	在 條	-0.11546096
-1.6002951	行 條	-0.046131715
-1.565224	牌 條	-0.046131715
-0.8061249	照 條	-0.046131715
-1.6462808	定 條	-0.046131715
-1.439558	訂 條	-0.046131715
-1.439558	討 條	-0.046131715
-0.84210914	關 條	-0.11546096
-0.2664389	條 例	-0.08870222
-1.9713023	例 例	-0.046131715
-1.2144105	法 例	-0.046131715
-1.4035239	效 例	-0.046131715
-1.8985771	理 第	-0.046131715
-1.9713023	例 第	-0.046131715
-1.7762966	作 第	-0.046131715
-1.4035239	題 第	-0.046131715
-0.7746741	第 二	-0.046131715
-1.4918824	十 二	-0.046131715
-1.1106453	近 二	-0.046131715
-1.4876149	由 二	-0.046131715
-1.1106453	百 二	-0.046131715
-0.854046	二 十	-0.046131715
-1.1137035	六 十	-0.046131715
-1.769473	年 十	-0.046131715
-1.8089286	數 十	-0.046131715
-1.5114105	第 四	-0.046131715
-1.5114105	十 四	-0.046131715
-1.9477663	條 列	-0.046131715
-1.992293	例 列	-0.046131715
-1.5775262	下 列	-0.046131715
-0.28019774	列 明	-0.046131715
-2.0170915	我 明	-0.046131715
-0.81683666	寫 明	-0.046131715
-1.4876149	訂 明	-0.046131715
-1.1106453	傳 明	-0.046131715
-1.8090578	時 可	-0.046131715
-1.3934095	人 可	-0.22159947
-1.9171304	貸 可	-0.046131715
-1.8359541	司 可	-0.046131715
-1.729884	了 可	-0.046131715
-0.6705973	便 可	-0.11546096
-1.0840495	示 可	-0.046131715
-1.7489055	後 可	-0.046131715
-1.4267507	間 可	-0.046131715
-1.7570503	法 可	-0.046131715
-0.82859814	亦 可	-0.22159947
-1.5396062	府 可	-0.046131715
-1.2409364	前 可	-0.046131715
-0.8031123	錄 可	-0.046131715
-1.9328912	人 以	-0.046131715
-1.8473579	例 以	-0.046131715
-0.1640081	可 以	-0.054216336
-1.9651641	款 以	-0.046131715
-0.39764145	所 以	-0.12506345
-1.5648755	費 以	-0.046131715
-1.7606783	會 以	-0.046131715
-1.582698	全 以	-0.046131715
-1.092735	難 以	-0.046131715
-1.4461062	討 以	-0.046131715
-1.092735	構 以	-0.046131715
-1.8895317	時 最	-0.046131715
-2.0008483	以 最	-0.046131715
-1.9820921	貸 最	-0.11546096
-1.8113681	實 最	-0.046131715
-1.7425134	數 最	-0.046131715
-1.0986234	元 最	-0.046131715
-1.3822424	知 最	-0.046131715
-1.5342387	議 最	-0.046131715
-1.5896214	但 最	-0.046131715
-1.7280362	最 高	-0.046131715
-1.1724584	了 高	-0.046131715
-1.5650933	個 高	-0.046131715
-0.81374913	白 高	-0.046131715
-1.1045928	即 高	-0.046131715
-1.2707311	險 高	-0.046131715
-1.1045928	較 高	-0.046131715
-1.7109108	高 六	-0.046131715
-1.4155009	回 六	-0.046131715
-0.77879953	十 %	-0.11546096
-1.4434865	理 的	-0.046131715
-1.4698044	時 的	-0.046131715
-1.4972423	人 的	-0.046131715
-1.1348757	例 的	-0.046131715
-0.7535172	% 的	-0.046131715
-1.319642	息 的	-0.046131715
-1.4895968	出 的	-0.046131715
-0.8460681	務 的	-0.046131715
-1.4733287	司 的	-0.046131715
-1.1165881	報 的	-0.046131715
-1.3648669	要 的	-0.046131715
-0.99378884	疑 的	-0.046131715
-1.1940652	名 的	-0.046131715
-1.1940652	正 的	-0.046131715
-1.5891204	我 的	-0.046131715
-1.5425282	在 的	-0.046131715
-1.1940652	天 的	-0.046131715
-1.4347357	到 的	-0.046131715
-1.365084	介 的	-0.046131715
-0.7535172	昂 的	-0.046131715
-1.319642	費 的	-0.046131715
-0.72363275	真 的	-0.046131715
-1.2884316	下 的	-0.046131715
-1.2884316	樓 的	-0.046131715
-1.1165881	險 的	-0.046131715
-0.99378884	常 的	-0.046131715
-1.1165881	騙 的	-0.046131715
-1.2743182	機 的	-0.046131715
-1.1940652	任 的	-0.046131715
-0.99378884	改 的	-0.046131715
-0.99378884	易 的	-0.046131715
-0.99378884	目 的	-0.046131715
-1.382183	想 的	-0.046131715
-0.99378884	施 的	-0.046131715
-1.1940652	取 的	-0.046131715
-0.7535172	蹤 的	-0.046131715
-1.1940652	題 的	-0.046131715
-0.99378884	面 的	-0.046131715
-1.5607454	處 的	-0.046131715
-0.7535172	若 的	-0.046131715
-1.1940652	供 的	-0.046131715
-0.7535172	試 的	-0.046131715
-1.1165881	究 的	-0.046131715
-0.99378884	稱 的	-0.046131715
-0.99378884	格 的	-0.046131715
-1.319642	同 的	-0.046131715
-0.7535172	質 的	-0.11546096
-0.7535172	謂 的	-0.046131715
-0.7535172	期 的	-0.046131715
-1.5825773	明 年	-0.046131715
-2.1752887	的 年	-0.046131715
-1.0986234	去 年	-0.046131715
-1.7425134	數 年	-0.046131715
-1.8629159	是 年	-0.046131715
-1.6363493	當 年	-0.046131715
-1.0986234	近 年	-0.046131715
-1.0986234	零 年	-0.046131715
-0.81068337	首 年	-0.046131715
-1.7557985	年 息	-0.046131715
-1.2796333	分 息	-0.046131715
-0.85427475	利 息	-0.046131715
-0.81683666	低 息	-0.046131715
-1.3975831	免 息	-0.046131715
-1.9135916	人 貸	-0.046131715
-2.0904143	的 貸	-0.11546096
-1.556288	息 貸	-0.046131715
-0.45910895	借 貸	-0.07008142
-1.6786474	業 貸	-0.046131715
-1.7293003	他 貸	-0.046131715
-1.9712257	在 貸	-0.046131715
-1.7070498	數 貸	-0.046131715
-1.6378989	管 貸	-0.046131715
-1.0898205	得 貸	-0.046131715
-1.0898205	額 貸	-0.3465382
-1.0898205	揭 貸	-0.046131715
-1.0911958	貸 出	-0.22159947
-0.55346334	付 出	-0.046131715
-1.1015978	即 出	-0.046131715
-0.79431736	作 出	-0.046131715
-0.27944064	指 出	-0.09110062
-1.2663475	些 出	-0.046131715
-0.43240082	提 出	-0.046131715
-0.81221354	頭 出	-0.046131715
-1.2746832	放 款	-0.11546096
-1.215884	條 款	-0.046131715
-0.4800939	貸 款	-0.046131715
-1.8685485	出 款	-0.22159947
-0.5312993	借 款	-0.28885794
-0.3987607	還 款	-0.046131715
-1.2733707	付 款	-0.046131715
-1.6870899	定 款	-0.046131715
-1.5034637	款 項	-0.046131715
-1.9820921	貸 所	-0.11546096
-1.3746008	項 所	-0.046131715
-1.5896214	務 所	-0.046131715
-1.9986445	有 所	-0.046131715
-1.7425134	案 所	-0.046131715
-1.8173252	後 所	-0.046131715
-1.2620077	至 所	-0.046131715
-1.6765225	定 所	-0.046131715
-1.3746008	題 所	-0.046131715
-1.7897394	例 其	-0.046131715
-1.9052275	貸 其	-0.046131715
-1.4207208	款 其	-0.11546096
-1.8200586	司 其	-0.11546096
-1.8869581	有 其	-0.046131715
-1.492815	或 其	-0.046131715
-1.6385403	們 其	-0.046131715
-1.6742648	案 其	-0.046131715
-1.9293754	中 其	-0.046131715
-1.1772611	法 其	-0.11546096
-1.7459216	民 其	-0.046131715
-1.445265	規 其	-0.046131715
-1.5314996	局 其	-0.046131715
-1.3422583	及 其	-0.046131715
-0.80161387	與 其	-0.046131715
-0.24269561	其 實	-0.06630979
-0.79979956	事 實	-0.22159947
-1.1137035	落 實	-0.046131715
-1.2841538	和 實	-0.046131715
-1.9338281	實 變	-0.046131715
-1.1198074	改 變	-0.046131715
-2.0246284	以 相	-0.046131715
-2.2077148	的 相	-0.046131715
-1.1015978	變 相	-0.046131715
-1.5415437	或 相	-0.046131715
-1.333032	我 相	-0.046131715
-1.2663475	曾 相	-0.046131715
-1.4663649	告 相	-0.046131715
-1.4663649	討 相	-0.046131715
-1.6841216	相 為	-0.046131715
-1.9255399	司 為	-0.046131715
-0.8497271	因 為	-0.046131715
-1.6698275	須 為	-0.046131715
-1.7189839	作 為	-0.046131715
-1.5342387	更 為	-0.046131715
-1.4595064	訂 為	-0.046131715
-0.49924612	認 為	-0.046131715
-1.2620077	別 為	-0.046131715
-1.6682564	理 財	-0.046131715
-1.716758	時 財	-0.046131715
-1.4858019	明 財	-0.046131715
-1.4424505	的 財	-0.22159947
-1.5808852	年 財	-0.046131715
-1.8020968	款 財	-0.046131715
-1.624324	為 財	-0.046131715
-1.0644342	產 財	-0.046131715
-0.82906103	向 財	-0.11546096
-1.1279804	到 財	-0.11546096
-1.4407774	下 財	-0.046131715
-1.2130553	營 財	-0.046131715
-0.79272985	押 財	-0.046131715
-1.3280549	知 財	-0.046131715
-1.5541663	管 財	-0.5226295
-1.2130553	件 財	-0.046131715
-1.2130553	和 財	-0.046131715
-0.79272985	瞞 財	-0.046131715
-1.4407774	對 財	-0.046131715
-1.0644342	且 財	-0.046131715
-0.79272985	找 財	-0.046131715
-0.030546213	財 務	-0.9205695
-1.0691459	業 務	-0.046131715
-1.2840401	警 務	-0.046131715
-0.81683666	職 務	-0.046131715
-0.81683666	服 務	-0.046131715
-2.3226738	的 公	-0.046131715
-1.6244417	務 公	-1.1424183
-1.7164145	介 公	-0.44344825
-1.8027114	上 公	-0.046131715
-1.3975831	把 公	-0.046131715
-0.14622241	公 司	-0.14761694
-2.103443	司 創	-0.046131715
-0.8220354	創 造	-0.046131715
-1.8566943	現 了	-0.046131715
-0.7573726	出 了	-0.046131715
-0.81221354	造 了	-0.046131715
-1.7144277	還 了	-0.046131715
-0.27944064	除 了	-0.046131715
-1.2663475	騙 了	-0.046131715
-0.81221354	簽 了	-0.046131715
-1.2663475	入 了	-0.046131715
-1.437646	第 一	-0.046131715
-2.041838	的 一	-0.046131715
-1.729884	了 一	-0.046131715
-1.4994503	向 一	-0.046131715
-1.9402332	中 一	-0.046131715
-1.7489055	後 一	-0.046131715
-1.758009	民 一	-0.046131715
-1.0840495	零 一	-0.046131715
-1.64894	想 一	-0.046131715
-0.8031123	界 一	-0.046131715
-1.2409364	黨 一	-0.046131715
-1.5396062	局 一	-0.046131715
-1.3474842	供 一	-0.046131715
-1.5396062	同 一	-0.046131715
-1.7939163	的 個	-0.11546096
-1.2417586	一 個	-0.046131715
-1.927161	多 個	-0.11546096
-1.1106453	宗 個	-0.046131715
-1.3975831	似 個	-0.046131715
-0.9781992	高 回	-0.11546096
-1.7828447	收 回	-0.046131715
-2.1677647	在 回	-0.046131715
-1.2841538	說 回	-0.046131715
-1.4155009	回 報	-0.046131715
-2.179703	有 報	-0.046131715
-2.5011199	的 環	-0.046131715
-0.8220354	環 境	-0.046131715
-1.8642318	理 因	-0.046131715
-0.8152902	境 因	-0.046131715
-0.8152902	誘 因	-0.046131715
-1.9131373	是 因	-0.046131715
-1.551532	對 因	-0.046131715
-1.1076086	額 因	-0.046131715
-1.8070872	為 只	-0.046131715
-1.3917224	本 只	-0.046131715
-1.8642318	後 只	-0.046131715
-1.6105613	局 只	-0.046131715
-0.8152902	場 只	-0.046131715
-0.8152902	版 只	-0.046131715
-1.8225065	為 要	-0.046131715
-0.85253584	只 要	-0.046131715
-1.5642264	或 要	-0.046131715
-1.2840401	重 要	-0.046131715
-0.28019774	需 要	-0.046131715
-1.5235416	明 借	-0.046131715
-1.4723582	的 借	-0.09110062
-1.5235416	息 借	-0.046131715
-1.3370945	項 借	-0.046131715
-1.8047243	司 借	-0.17065468
-0.95280313	要 借	-0.046131715
-1.4862795	向 借	-0.046131715
-1.0783541	賣 借	-0.046131715
-1.6283838	們 借	-0.046131715
-1.8986092	在 借	-0.046131715
-1.4746513	下 借	-0.046131715
-1.3370945	把 借	-0.046131715
-1.5749046	當 借	-0.046131715
-0.80012053	功 借	-0.046131715
-1.0783541	像 借	-0.046131715
-0.80012053	日 借	-0.046131715
-2.1726346	人 擁	-0.046131715
-1.6936277	時 有	-0.046131715
-1.7588109	以 有	-0.046131715
-1.5632509	年 有	-0.046131715
-1.6896716	出 有	-0.046131715
-1.6116847	所 有	-0.046131715
-1.6048754	為 有	-0.046131715
-0.7898085	擁 有	-0.046131715
-1.3196462	便 有	-0.046131715
-1.6116847	還 有	-0.046131715
-1.3733771	能 有	-0.046131715
-1.3196462	未 有	-0.046131715
-1.6729436	多 有	-0.046131715
-1.6328958	到 有	-0.11546096
-1.5375643	介 有	-0.046131715
-1.1487391	後 有	-0.046131715
-1.6220108	會 有	-0.046131715
-1.0715008	亦 有	-0.046131715
-1.471579	府 有	-0.046131715
-0.37373638	沒 有	-0.046131715
-1.0589887	使 有	-0.046131715
-1.2054073	方 有	-0.046131715
-1.3733771	討 有	-0.046131715
-1.2054073	國 有	-0.046131715
-2.4206867	的 物	-0.046131715
-2.1493857	有 物	-0.046131715
-1.7417268	須 物	-0.046131715
-2.044828	人 業	-0.046131715
-2.2808807	的 業	-0.046131715
-0.2799452	物 業	-0.046131715
-0.5000872	商 業	-0.046131715
-1.2751594	至 業	-0.046131715
-0.8152902	結 業	-0.046131715
-2.0711467	人 或	-0.046131715
-2.0421126	貸 或	-0.046131715
-1.4812431	款 或	-0.046131715
-1.7597538	業 或	-0.046131715
-1.7450569	問 或	-0.046131715
-0.7631795	其 他	-0.046131715
-1.7777996	為 他	-0.046131715
-1.8091433	了 他	-0.046131715
-1.5415437	向 他	-0.046131715
-1.3802334	天 他	-0.046131715
-1.2663475	讓 他	-0.046131715
-1.6458824	當 他	-0.046131715
-1.5980684	而 他	-0.046131715
-1.8425894	他 資	-0.046131715
-1.1198074	傳 資	-0.046131715
-1.1198074	資 產	-0.046131715
-0.8214704	蕩 產	-0.046131715
-1.1167834	變 便	-0.046131715
-2.0651512	司 便	-0.046131715
-1.916825	後 便	-0.046131715
-1.9144905	實 極	-0.046131715
-2.1493857	有 極	-0.046131715
-1.8884183	到 極	-0.046131715
-1.2841538	極 大	-0.046131715
-1.9501655	是 大	-0.046131715
-1.9020249	民 大	-0.046131715
-0.81838876	你 大	-0.046131715
-1.4190378	大 誘	-0.046131715
-1.6105613	息 向	-0.046131715
-1.5673118	因 向	-0.046131715
-1.6105613	費 向	-0.046131715
-1.2751594	險 向	-0.046131715
-1.8691478	民 向	-0.046131715
-1.1076086	得 向	-0.046131715
-1.5342387	向 還	-0.046131715
-1.4595064	能 還	-0.046131715
-0.81068337	償 還	-0.046131715
-1.3822424	清 還	-0.046131715
-1.8233653	法 還	-0.11546096
-1.5270061	樓 還	-0.046131715
-1.4595064	外 還	-0.046131715
-1.6698275	須 還	-0.046131715
-0.81068337	遲 還	-0.046131715
-2.1320038	款 能	-0.046131715
-0.68004143	未 能	-0.046131715
-1.8189685	亦 能	-0.046131715
-0.81838876	既 能	-0.046131715
-1.509767	能 力	-0.046131715
-0.8214704	壓 力	-0.046131715
-2.3226738	的 成	-0.046131715
-1.4876149	能 成	-0.046131715
-1.1106453	力 成	-0.046131715
-1.2796333	說 成	-0.046131715
-0.81683666	贊 成	-0.046131715
-1.509767	成 疑	-0.046131715
-0.8214704	懷 疑	-0.046131715
-2.044828	人 如	-0.046131715
-1.2871096	例 如	-0.046131715
-1.9897594	司 如	-0.046131715
-1.7425414	想 如	-0.046131715
-1.6154715	但 如	-0.046131715
-0.8152902	料 如	-0.046131715
-2.099164	人 未	-0.046131715
-1.9713023	例 未	-0.046131715
-1.6373488	如 未	-0.046131715
-0.81838876	仍 未	-0.046131715
-2.1353998	以 名	-0.046131715
-2.0385396	司 名	-0.046131715
-1.9350996	一 名	-0.046131715
-0.81838876	著 名	-0.046131715
-1.4035239	名 正	-0.046131715
-2.1677647	在 正	-0.046131715
-1.4983492	真 正	-0.046131715
-0.7765566	修 正	-0.22159947
-1.4177237	正 言	-0.046131715
-0.8220354	言 順	-0.046131715
-0.8199464	順 地	-0.046131715
-1.9191723	法 地	-0.046131715
-1.6404731	該 地	-0.046131715
-1.2948985	地 拍	-0.046131715
-0.8214704	拍 賣	-0.046131715
-1.1198074	迫 賣	-0.046131715
-1.9783028	以 收	-0.046131715
-1.7003171	業 收	-0.046131715
-1.7497687	他 收	-0.046131715
-1.693224	們 收	-0.046131715
-2.0126612	在 收	-0.046131715
-1.7303675	案 收	-0.046131715
-1.6195349	行 收	-0.046131715
-0.8091586	月 收	-0.046131715
-1.7529984	金 收	-0.11546096
-0.8091586	濫 收	-0.046131715
-1.1167834	六 分	-0.046131715
-0.8199464	部 分	-0.046131715
-0.8199464	區 分	-0.046131715
-2.4206867	的 保	-0.046131715
-2.2000012	在 保	-0.046131715
-1.8884183	到 保	-0.046131715
-1.296219	保 證	-0.046131715
-0.97648036	高 利	-0.046131715
-1.7939163	的 利	-0.11546096
-1.7557985	年 利	-0.046131715
-0.81683666	證 利	-0.046131715
-1.3975831	及 利	-0.046131715
-1.5936873	利 潤	-0.046131715
-1.0811925	席 我	-0.046131715
-1.0811925	債 我	-0.046131715
-1.8803722	以 我	-0.046131715
-1.7280941	實 我	-0.046131715
-0.80161387	潤 我	-0.046131715
-1.4587374	在 我	-0.046131715
-1.9293754	中 我	-0.046131715
-1.7364261	後 我	-0.046131715
-1.7449211	法 我	-0.046131715
-1.7771237	是 我	-0.046131715
-0.9006983	但 我	-0.046131715
-1.5314996	此 我	-0.046131715
-1.0811925	給 我	-0.046131715
-1.2368422	制 我	-0.046131715
-0.80161387	縱 我	-0.046131715
-0.6301855	他 們	-0.046131715
-0.61775273	我 們	-0.046131715
-1.8826607	放 在	-0.046131715
-1.7568419	人 在	-0.046131715
-1.6995577	出 在	-0.046131715
-1.492572	務 在	-0.046131715
-1.7226024	司 在	-0.046131715
-1.7103375	一 在	-0.046131715
-1.7999498	我 在	-0.046131715
-1.5719786	們 在	-0.046131715
-1.061703	示 在	-0.046131715
-1.6578668	後 在	-0.046131715
-1.668356	法 在	-0.046131715
-1.6320176	會 在	-0.046131715
-1.2267779	存 在	-0.046131715
-1.0698233	上 在	-0.046131715
-1.545786	須 在	-0.046131715
-1.4786322	府 在	-0.046131715
-0.79126674	呢 在	-0.046131715
-1.492572	而 在	-0.046131715
-1.061703	) 在	-0.046131715
-0.79126674	覆 在	-0.046131715
-0.79126674	士 在	-0.046131715
-0.79126674	信 在	-0.046131715
-2.0110664	貸 過	-0.046131715
-1.2551535	在 過	-0.09110062
-1.7316012	問 過	-0.046131715
-2.0287654	不 過	-0.046131715
-1.7040584	這 過	-0.046131715
-0.37993598	透 過	-0.046131715
-0.81374913	通 過	-0.046131715
-2.233917	在 去	-0.046131715
-1.7562268	過 去	-0.11546096
-2.2427588	的 數	-0.046131715
-1.9672811	司 數	-0.046131715
-2.0433195	有 數	-0.046131715
-2.0833251	在 數	-0.046131715
-1.1045928	去 數	-0.11546096
-1.6500938	行 數	-0.046131715
-0.19119233	卡 數	-0.046131715
-1.783592	年 曾	-0.046131715
-1.409547	似 曾	-0.046131715
-1.2887218	前 曾	-0.046131715
-1.9667345	時 接	-0.046131715
-1.2796333	曾 接	-0.046131715
-1.4876149	間 接	-0.046131715
-1.6758051	經 接	-0.046131715
-0.85253584	直 接	-0.046131715
-1.59092	接 獲	-0.046131715
-1.9461095	時 多	-0.046131715
-0.8152902	獲 多	-0.046131715
-0.16167645	很 多	-0.04613169
-0.40402973	眾 多	-0.09110062
-1.2751594	黨 多	-0.046131715
-1.1076086	障 多	-0.046131715
-1.9686658	一 宗	-0.046131715
-1.9883904	多 宗	-0.046131715
-1.6302719	明 類	-0.046131715
-1.1137035	宗 類	-0.046131715
-1.7536874	無 類	-0.046131715
-1.7357923	這 類	-0.046131715
-1.9338281	實 似	-0.046131715
-0.40562928	類 似	-0.046131715
-0.3674057	個 案	-0.068034366
-1.409547	正 案	-0.046131715
-0.8555614	議 案	-0.046131715
-1.7764547	例 中	-0.046131715
-1.9038188	其 中	-0.046131715
-1.53469	務 中	-0.44344825
-0.8362615	或 中	-0.11546096
-1.755078	多 中	-0.046131715
-1.078807	案 中	-0.046131715
-1.7643387	是 中	-0.046131715
-1.6974458	會 中	-0.046131715
-1.5235416	該 中	-0.046131715
-0.95280313	當 中	-0.046131715
-1.5986801	管 中	-0.046131715
-0.80012053	何 中	-0.046131715
-1.0783541	於 中	-0.046131715
-1.232786	些 中	-0.046131715
-1.232786	入 中	-0.046131715
-0.80012053	等 中	-0.046131715
-2.1451163	的 事	-0.046131715
-1.9682992	貸 事	-0.046131715
-1.7303675	案 事	-0.046131715
-1.7157234	事 事	-0.046131715
-1.8027519	後 事	-0.046131715
-1.8092675	法 事	-0.046131715
-1.6270212	當 事	-0.046131715
-1.0956693	難 事	-0.046131715
-1.5736363	此 事	-0.046131715
-1.0956693	辦 事	-0.046131715
-1.4035239	主 原	-0.046131715
-2.368921	的 原	-0.046131715
-1.4949358	成 原	-0.046131715
-1.4108735	持 原	-0.046131715
-1.4121023	原 本	-0.046131715
-0.3814998	根 本	-0.046131715
-1.2887218	和 本	-0.046131715
-1.5879539	只 欠	-0.046131715
-1.1198074	卻 欠	-0.046131715
-1.8642318	理 銀	-0.046131715
-1.9461095	時 銀	-0.046131715
-2.2808807	的 銀	-0.046131715
-1.1076086	欠 銀	-0.046131715
-1.709029	定 銀	-0.046131715
-1.1076086	響 銀	-0.046131715
-0.117969945	銀 行	-0.12506345
-0.81838876	另 行	-0.046131715
-0.38110828	執 行	-0.046131715
-0.81838876	進 行	-0.046131715
-1.5114105	十 萬	-0.046131715
-1.8382417	數 萬	-0.046131715
-0.3820232	萬 元	-0.046131715
-1.8713634	了 卡	-0.046131715
-1.7464933	還 卡	-0.046131715
-1.1137035	元 卡	-0.046131715
-1.4069809	清 卡	-0.046131715
-1.8438138	數 某	-0.046131715
-1.8235236	數 天	-0.046131715
-0.8199464	某 天	-0.046131715
-0.2807032	今 天	-0.09110062
-1.3870786	未 到	-0.046131715
-1.0655054	收 到	-0.046131715
-0.19103803	看 到	-0.10068142
-1.2663475	說 到	-0.046131715
-1.1015978	易 到	-0.046131715
-1.1015978	幫 到	-0.046131715
-0.40322715	受 到	-0.046131715
-0.81221354	帶 到	-0.046131715
-0.31978545	中 介	-0.18167055
-2.5011199	的 電	-0.046131715
-0.8220354	電 話	-0.046131715
-0.8214704	話 表	-0.046131715
-1.6506553	府 表	-0.046131715
-0.3820232	表 示	-0.046131715
-2.2161345	以 低	-0.046131715
-0.8682884	借 錢	-0.046131715
-2.1681492	以 讓	-0.046131715
-1.409547	錢 讓	-0.046131715
-1.6404731	該 讓	-0.046131715
-1.8472937	他 償	-0.046131715
-0.39874303	最 後	-0.046131715
-2.0066657	款 後	-0.046131715
-1.3746008	項 後	-0.046131715
-1.3746008	錢 後	-0.046131715
-1.5896214	牌 後	-0.046131715
-1.4595064	訂 後	-0.046131715
-1.2620077	件 後	-0.046131715
-1.3746008	然 後	-0.046131715
-0.81068337	背 後	-0.046131715
-1.409547	主 付	-0.046131715
-1.1167834	才 付	-0.046131715
-1.7417268	須 付	-0.046131715
-1.7142795	高 昂	-0.046131715
-2.368921	的 顧	-0.046131715
-1.7828447	收 顧	-0.046131715
-1.1137035	被 顧	-0.046131715
-1.2841538	騙 顧	-0.046131715
-2.2077148	的 問	-0.046131715
-1.8091433	了 問	-0.046131715
-2.0204077	有 問	-0.046131715
-1.2663475	曾 問	-0.046131715
-1.8730823	多 問	-0.046131715
-0.19103803	顧 問	-0.17065468
-1.6939756	這 問	-0.046131715
-1.5350285	對 問	-0.046131715
-1.7828447	收 費	-0.046131715
-1.7519443	問 費	-0.046131715
-1.2841538	續 費	-0.046131715
-0.28045037	消 費	-0.09110062
-1.9190445	一 間	-0.046131715
-1.1106453	百 間	-0.046131715
-0.81683666	千 間	-0.046131715
-1.1106453	施 間	-0.046131715
-0.81683666	坊 間	-0.046131715
-1.5125304	間 著	-0.046131715
-1.8985771	後 真	-0.046131715
-1.4035239	否 真	-0.046131715
-0.77728325	認 真	-0.09110062
-1.1137035	響 真	-0.046131715
-1.8206933	的 清	-0.046131715
-2.162081	款 清	-0.046131715
-1.783592	想 清	-0.046131715
-1.8382417	數 卻	-0.046131715
-1.8011967	作 卻	-0.046131715
-1.1106453	欠 下	-0.046131715
-1.2796333	系 下	-0.046131715
-1.2796333	況 下	-0.046131715
-0.81683666	屬 下	-0.046131715
-0.81683666	旗 下	-0.046131715
-1.0332903	最 終	-0.046131715
-1.2932222	始 終	-0.046131715
-1.9742713	人 無	-0.046131715
-1.7948878	了 無	-0.046131715
-1.2620077	極 無	-0.046131715
-1.7050383	們 無	-0.046131715
-1.3746008	本 無	-0.046131715
-1.8173252	後 無	-0.046131715
-1.2620077	終 無	-0.046131715
-1.8240745	民 無	-0.046131715
-1.5424588	並 無	-0.046131715
-0.54133075	無 法	-0.07941438
-1.8379363	法 法	-0.046131715
-0.27944064	做 法	-0.046131715
-0.77099687	合 法	-0.046131715
-1.2663475	手 法	-0.046131715
-1.1015978	辦 法	-0.046131715
-1.1015978	立 法	-0.046131715
-1.5917064	同 法	-0.046131715
-2.1935585	款 被	-0.046131715
-1.9901167	是 被	-0.046131715
-1.1198074	被 迫	-0.046131715
-0.8214704	催 迫	-0.046131715
-2.3226738	的 樓	-0.046131715
-1.1106453	賣 樓	-0.046131715
-2.1377568	在 樓	-0.046131715
-0.7746741	新 樓	-0.11546096
-0.81683666	買 樓	-0.046131715
-1.6544822	明 白	-0.046131715
-0.5815835	利 率	-0.046131715
-1.2932222	率 即	-0.046131715
-0.8214704	paydayloans 即	-0.046131715
-0.9816138	高 風	-0.11546096
-1.90415	會 風	-0.046131715
-0.3820232	風 險	-0.046131715
-1.8794267	可 是	-0.046131715
-1.7409109	實 是	-0.046131715
-1.8359541	司 是	-0.046131715
-1.2409364	報 是	-0.046131715
-1.4994503	只 是	-0.046131715
-1.4267507	成 是	-0.046131715
-1.2409364	終 是	-0.046131715
-1.0840495	才 是	-0.046131715
-1.3474842	就 是	-0.046131715
-1.5396062	府 是	-0.046131715
-0.7637345	也 是	-0.046131715
-1.4994503	更 是	-0.046131715
-1.0840495	己 是	-0.046131715
-1.2409364	別 是	-0.046131715
-2.368921	的 商	-0.046131715
-1.9501655	是 商	-0.046131715
-0.81838876	展 商	-0.046131715
-0.81838876	急 商	-0.046131715
-1.799409	業 社	-0.046131715
-1.5114105	合 社	-0.046131715
-1.8324049	理 會	-0.046131715
-0.3795459	社 會	-0.046131715
-1.3802334	家 會	-0.046131715
-1.1047883	亦 會	-0.046131715
-0.77099687	機 會	-0.046131715
-0.9218473	不 會	-0.07941438
-1.5415437	更 會	-0.046131715
-1.5415437	議 會	-0.046131715
-2.0931225	有 經	-0.046131715
-2.0525293	中 經	-0.046131715
-0.81683666	段 經	-0.046131715
-0.28019774	已 經	-0.046131715
-1.1106453	冊 經	-0.046131715
-1.4155009	正 常	-0.046131715
-1.7076647	經 常	-0.046131715
-1.7417268	介 存	-0.046131715
-1.1167834	常 存	-0.046131715
-1.1167834	述 存	-0.046131715
-1.9713023	例 情	-0.046131715
-1.8070985	的 情	-0.046131715
-1.2841538	種 情	-0.046131715
-1.1137035	適 情	-0.046131715
-1.5174197	情 景	-0.046131715
-1.5775262	樓 除	-0.046131715
-0.8199464	景 除	-0.046131715
-1.2887218	度 除	-0.046131715
-1.5825773	息 上	-0.046131715
-1.8113681	實 上	-0.046131715
-1.7948878	了 上	-0.046131715
-1.4595064	間 上	-0.046131715
-1.0986234	心 上	-0.046131715
-1.9948686	不 上	-0.046131715
-1.0986234	身 上	-0.046131715
-1.7598201	金 上	-0.046131715
-0.81068337	調 上	-0.046131715
-1.119384	上 述	-0.046131715
-2.233917	在 心	-0.046131715
-0.55748254	存 心	-0.11546096
-2.233917	在 欺	-0.046131715
-1.1198074	心 欺	-0.11546096
-0.3820232	欺 騙	-0.046131715
-2.1038752	款 外	-0.046131715
-2.1377568	在 外	-0.046131715
-1.7948081	案 外	-0.046131715
-1.7164145	介 外	-0.046131715
-1.6203047	此 外	-0.046131715
-1.5125304	外 部	-0.046131715
-1.7421296	了 市	-0.046131715
-1.2450697	分 市	-0.046131715
-1.795666	多 市	-0.046131715
-1.9513695	中 市	-0.046131715
-1.2450697	讓 市	-0.046131715
-0.80461603	勵 市	-0.11546096
-1.3527738	令 市	-0.046131715
-1.6366506	定 市	-0.046131715
-1.2450697	望 市	-0.046131715
-1.4433485	按 市	-0.046131715
-1.0869254	揭 市	-0.046131715
-0.80461603	叫 市	-0.046131715
-0.80461603	予 市	-0.046131715
-1.9713023	例 民	-0.046131715
-1.8089286	案 民	-0.046131715
-0.08967106	市 民	-0.06630979
-1.7762966	作 民	-0.046131715
-1.7060509	行 體	-0.22159947
-0.8214704	具 體	-0.046131715
-1.120931	體 系	-0.046131715
-2.2026482	以 才	-0.046131715
-1.7546223	管 才	-0.046131715
-1.9670959	出 較	-0.046131715
-1.9901167	是 較	-0.046131715
-0.68004143	大 家	-0.11546096
-0.81838876	傾 家	-0.046131715
-1.1137035	陳 家	-0.046131715
-1.2841538	國 家	-0.046131715
-2.1353998	以 看	-0.046131715
-1.769473	們 看	-0.046131715
-1.6862557	經 看	-0.046131715
-1.4035239	家 看	-0.11546096
-1.8206933	的 做	-0.11546096
-1.7469074	這 做	-0.046131715
-1.2887218	種 做	-0.046131715
-2.5011199	的 客	-0.046131715
-0.8220354	客 觀	-0.046131715
-1.478831	有 效	-0.046131715
-1.502382	成 效	-0.046131715
-0.8199464	觀 效	-0.046131715
-0.6478903	如 果	-0.09110062
-1.4155009	效 果	-0.046131715
-2.067007	中 就	-0.046131715
-1.2841538	果 就	-0.046131715
-1.4035239	任 就	-0.046131715
-0.81838876	識 就	-0.046131715
-2.2026482	以 完	-0.11546096
-1.1198074	卻 完	-0.046131715
-1.6717305	行 全	-0.046131715
-1.9312569	是 全	-0.046131715
-0.38071716	完 全	-0.046131715
-0.81683666	快 全	-0.046131715
-1.2840401	安 全	-0.046131715
-2.1049478	以 合	-0.046131715
-2.1377568	在 合	-0.046131715
-1.6291077	全 合	-0.046131715
-2.0655336	不 合	-0.046131715
-0.81683666	切 合	-0.046131715
-2.4206867	的 手	-0.046131715
-1.9191723	法 手	-0.046131715
-1.409547	取 手	-0.046131715
-1.2948985	手 段	-0.046131715
-1.7060509	行 營	-0.046131715
-0.9810065	經 營	-0.046131715
-1.8895317	時 亦	-0.046131715
-2.0066657	款 亦	-0.046131715
-1.9255399	司 亦	-0.046131715
-1.6363493	要 亦	-0.046131715
-1.7603766	他 亦	-0.046131715
-1.3296152	我 亦	-0.046131715
-1.4595064	外 亦	-0.046131715
-1.5896214	牌 亦	-0.046131715
-1.2620077	限 亦	-0.046131715
-1.2932222	地 鼓	-0.046131715
-1.4190079	類 鼓	-0.046131715
-0.3820232	鼓 勵	-0.11546096
-0.5429277	無 須	-0.046131715
-1.2841538	率 須	-0.046131715
-0.81838876	均 須	-0.046131715
-0.28045037	必 須	-0.046131715
-1.5758786	個 機	-0.046131715
-2.0931225	有 機	-0.046131715
-1.3975831	似 機	-0.046131715
-1.024692	定 機	-0.11546096
-0.81683666	危 機	-0.046131715
-1.7726836	業 令	-0.046131715
-1.8682631	會 令	-0.046131715
-0.81838876	顯 令	-0.046131715
-1.1137035	程 令	-0.046131715
-1.9438603	民 傾	-0.046131715
-1.4177237	家 蕩	-0.046131715
-2.029005	款 作	-0.046131715
-1.1015978	產 作	-0.046131715
-1.3870786	便 作	-0.046131715
-0.3795459	工 作	-0.046131715
-1.717183	想 作	-0.046131715
-1.473041	新 作	-0.046131715
-0.55346334	運 作	-0.046131715
-0.81221354	稍 作	-0.046131715
-1.8384936	為 負	-0.046131715
-1.5720583	只 負	-0.046131715
-1.7574646	處 負	-0.046131715
-1.1137035	構 負	-0.046131715
-2.4206867	的 責	-0.046131715
-2.1493857	有 責	-0.046131715
-0.19181013	負 責	-0.046131715
-1.7076647	經 任	-0.046131715
-0.5812024	責 任	-0.046131715
-1.9783028	以 政	-0.046131715
-2.1451163	的 政	-0.046131715
-1.750363	為 政	-0.046131715
-1.6589217	介 政	-0.046131715
-1.2577109	果 政	-0.11546096
-1.2577109	營 政	-0.046131715
-1.0956693	長 政	-0.046131715
-1.5813358	而 政	-0.046131715
-1.2577109	望 政	-0.046131715
-1.5736363	此 政	-0.046131715
-0.066986114	政 府	-0.1476169
-2.179703	有 否	-0.046131715
-1.0045896	是 否	-0.046131715
-1.4155009	否 根	-0.046131715
-1.2932222	件 根	-0.046131715
-1.7982262	人 不	-0.046131715
-1.599266	年 不	-0.046131715
-1.6803045	實 不	-0.046131715
-1.7617252	司 不	-0.046131715
-1.8258171	有 不	-0.046131715
-1.2208403	極 不	-0.046131715
-1.3219618	本 不	-0.046131715
-1.396293	間 不	-0.046131715
-1.6689793	亦 不	-0.046131715
-1.6230267	作 不	-0.046131715
-1.4102057	也 不	-0.046131715
-0.79567105	意 不	-0.046131715
-1.5714283	管 不	-0.046131715
-1.2208403	追 不	-0.046131715
-0.5694327	並 不	-0.046131715
-1.4540117	對 不	-0.046131715
-0.8939029	而 不	-0.046131715
-0.79567105	動 不	-0.046131715
-1.0699487	立 不	-0.046131715
-1.9321394	例 應	-0.046131715
-1.3917224	回 應	-0.046131715
-1.8686322	法 應	-0.046131715
-1.7957159	亦 應	-0.046131715
-1.6105613	府 應	-0.11546096
-2.0467606	不 應	-0.046131715
-1.5720583	或 該	-0.046131715
-1.8713634	到 該	-0.046131715
-0.367068	應 該	-0.07255066
-1.2841538	道 該	-0.046131715
-1.8173252	理 這	-0.046131715
-1.0986234	疑 這	-0.046131715
-2.0349622	在 這	-0.046131715
-1.6765225	過 這	-0.046131715
-1.2620077	讓 這	-0.046131715
-1.7189839	作 這	-0.046131715
-0.81068337	託 這	-0.046131715
-1.3746008	供 這	-0.046131715
-0.81068337	忙 這	-0.046131715
-0.7569328	這 種	-0.046131715
-0.28880125	情 況	-0.07941438
-2.2808807	的 發	-0.046131715
-2.0675075	有 發	-0.046131715
-1.9083765	多 發	-0.046131715
-1.2751594	況 發	-0.046131715
-1.3917224	緊 發	-0.046131715
-1.2751594	入 發	-0.046131715
-2.179703	有 生	-0.046131715
-1.5914316	發 生	-0.046131715
-1.120931	生 呢	-0.046131715
-1.7939163	的 修	-0.11546096
-2.1038752	款 修	-0.046131715
-2.0931225	有 修	-0.046131715
-1.8056056	他 修	-0.046131715
-2.1377568	在 修	-0.046131715
-1.8011967	作 改	-0.046131715
-1.5130602	修 改	-0.046131715
-1.7886516	理 很	-0.046131715
-1.855533	時 很	-0.11546096
-1.9581395	有 很	-0.046131715
-1.9745371	中 很	-0.046131715
-1.8323961	是 很	-0.046131715
-1.4461062	外 很	-0.046131715
-1.3635502	令 很	-0.046131715
-1.092735	身 很	-0.046131715
-1.5732052	但 很	-0.046131715
-0.8076391	佔 很	-0.046131715
-0.8076391	劃 很	-0.046131715
-1.7939163	的 廣	-0.11546096
-2.1038752	款 廣	-0.046131715
-1.927161	多 廣	-0.046131715
-1.768246	事 廣	-0.046131715
-1.2796333	種 廣	-0.046131715
-0.14622241	廣 告	-0.068034366
-2.0711467	人 也	-0.046131715
-1.8773284	實 也	-0.046131715
-1.4876149	告 也	-0.046131715
-1.5642264	直 也	-0.046131715
-0.81683666	候 也	-0.046131715
-1.8955121	實 把	-0.046131715
-1.6862557	要 把	-0.046131715
-1.8682631	會 把	-0.046131715
-1.4983492	也 把	-0.046131715
-1.409547	錢 說	-0.046131715
-1.783592	想 說	-0.046131715
-1.2913015	引 說	-0.046131715
-1.8577255	很 容	-0.046131715
-1.4155009	錢 易	-0.046131715
-0.8214704	容 易	-0.046131715
-1.6939756	相 當	-0.046131715
-1.8730823	多 當	-0.046131715
-1.7550087	案 當	-0.046131715
-1.1015978	迫 當	-0.046131715
-1.4663649	告 當	-0.046131715
-1.1015978	像 當	-0.046131715
-1.2663475	限 當	-0.046131715
-1.1015978	適 當	-0.046131715
-1.7938492	他 更	-0.046131715
-1.9083765	多 更	-0.046131715
-2.0385187	中 更	-0.046131715
-1.83914	到 更	-0.046131715
-1.4912713	商 更	-0.046131715
-1.6105613	該 更	-0.046131715
-1.9110345	會 寫	-0.046131715
-1.804471	業 抵	-0.046131715
-0.8220354	抵 押	-0.046131715
-2.2026482	以 幫	-0.046131715
-2.0927677	司 幫	-0.046131715
-1.9122934	到 你	-0.046131715
-1.5879539	接 近	-0.046131715
-1.9057171	到 近	-0.046131715
-1.1189042	數 目	-0.046131715
-1.9667345	時 由	-0.046131715
-1.9312569	是 由	-0.046131715
-1.1106453	目 由	-0.046131715
-1.7557985	想 由	-0.046131715
-1.2796333	究 由	-0.046131715
-1.5879539	二 零	-0.046131715
-1.9686658	一 零	-0.046131715
-2.1347609	不 足	-0.046131715
-0.8220354	足 八	-0.046131715
-1.9686658	一 百	-0.046131715
-0.8214704	八 百	-0.046131715
-1.8463666	上 升	-0.046131715
-1.5154312	以 至	-0.046131715
-0.8214704	升 至	-0.046131715
-1.59092	二 千	-0.046131715
-1.9438298	可 知	-0.046131715
-1.9020249	民 知	-0.046131715
-2.085155	不 知	-0.046131715
-1.2876556	自 知	-0.046131715
-2.1347609	不 愁	-0.046131715
-1.9371326	民 沒	-0.046131715
-0.8214704	愁 沒	-0.046131715
-1.120931	生 意	-0.046131715
-2.0008483	以 監	-0.046131715
-2.1752887	的 監	-0.046131715
-1.6765225	過 監	-0.046131715
-0.84654707	接 監	-0.11546096
-1.3746008	效 監	-0.046131715
-1.5424588	責 監	-0.046131715
-1.3746008	把 監	-0.046131715
-1.5825773	局 監	-0.11546096
-1.0986234	) 監	-0.046131715
-0.07498659	監 管	-0.24224812
-1.5021921	規 管	-0.046131715
-0.33917361	金 管	-0.5226295
-1.1137035	融 管	-0.046131715
-2.4778953	的 工	-0.046131715
-1.7546223	管 工	-0.046131715
-2.1681492	以 追	-0.046131715
-1.6457492	全 追	-0.046131715
-1.2887218	方 追	-0.046131715
-2.5011199	的 增	-0.046131715
-0.8214704	增 長	-0.046131715
-1.6506553	局 長	-0.046131715
-1.59092	二 月	-0.046131715
-2.4778953	的 緊	-0.046131715
-0.8023383	收 緊	-0.046131715
-2.0711467	人 牌	-0.046131715
-0.5795536	發 牌	-0.09110062
-1.3975831	緊 牌	-0.046131715
-1.2796333	續 牌	-0.046131715
-0.40443158	持 牌	-0.09110062
-0.92415357	牌 照	-0.11546096
-1.4155009	效 落	-0.046131715
-1.4190079	眾 落	-0.046131715
-2.1267228	不 得	-0.046131715
-1.4155009	取 得	-0.046131715
-2.1726346	人 另	-0.046131715
-2.3226738	的 規	-0.046131715
-1.3975831	似 規	-0.046131715
-0.81683666	違 規	-0.046131715
-1.1106453	格 規	-0.046131715
-0.81683666	則 規	-0.046131715
-1.888612	一 定	-0.046131715
-1.8530132	法 定	-0.046131715
-0.49953726	規 定	-0.046131715
-0.81374913	確 定	-0.046131715
-1.4957116	特 定	-0.046131715
-0.81374913	穩 定	-0.046131715
-1.1045928	決 定	-0.046131715
-2.1320038	款 訂	-0.046131715
-1.8153449	上 訂	-0.046131715
-0.7765566	修 訂	-0.046131715
-1.1137035	楚 訂	-0.046131715
-2.0436091	時 均	-0.046131715
-1.7594903	須 確	-0.046131715
-1.4177237	任 何	-0.046131715
-1.9144905	實 已	-0.11546096
-2.0651512	司 已	-0.046131715
-1.783592	們 已	-0.046131715
-1.5720583	接 受	-0.046131715
-1.5720583	直 受	-0.046131715
-1.2841538	續 受	-0.046131715
-1.2841538	者 受	-0.046131715
-2.5011199	的 委	-0.046131715
-0.8220354	委 託	-0.046131715
-1.4177237	任 置	-0.046131715
-0.8214704	置 於	-0.046131715
-1.5863205	對 於	-0.046131715
-2.1604483	人 身	-0.046131715
-2.233917	在 身	-0.046131715
-1.7607731	過 往	-0.046131715
-2.368921	的 眾	-0.046131715
-2.1203437	有 眾	-0.046131715
-1.4069809	大 眾	-0.046131715
-0.81838876	往 眾	-0.046131715
-1.2932222	報 道	-0.046131715
-0.6819312	知 道	-0.046131715
-2.1057053	不 自	-0.046131715
-1.2887218	道 自	-0.046131715
-1.1167834	楚 自	-0.046131715
-0.55772626	自 己	-0.046131715
-1.120931	己 簽	-0.046131715
-1.9122934	了 甚	-0.046131715
-0.8220354	甚 麼	-0.046131715
-0.8220354	麼 文	-0.046131715
-1.2249912	條 件	-0.046131715
-0.8214704	文 件	-0.046131715
-1.6404731	息 和	-0.046131715
-1.7417268	介 和	-0.046131715
-1.8860633	會 和	-0.046131715
-1.1992502	理 想	-0.046131715
-1.8741598	一 想	-0.046131715
-1.333032	我 想	-0.046131715
-1.8385853	民 想	-0.046131715
-1.2663475	果 想	-0.046131715
-2.0114865	不 想	-0.046131715
-1.6870899	定 想	-0.046131715
-1.1015978	再 想	-0.046131715
-1.9353863	理 使	-0.046131715
-1.7978141	想 使	-0.046131715
-1.120931	使 詐	-0.046131715
-0.8220354	詐 隱	-0.046131715
-0.8220354	隱 瞞	-0.046131715
-1.4177237	否 違	-0.046131715
-1.9713023	例 並	-0.046131715
-1.8955121	實 並	-0.046131715
-1.2841538	況 並	-0.046131715
-0.81838876	餘 並	-0.046131715
-1.5923775	並 非	-0.046131715
-2.1604483	人 難	-0.046131715
-0.8214704	非 難	-0.046131715
-2.368921	的 議	-0.046131715
-0.68004143	原 議	-0.11546096
-1.8153449	上 議	-0.046131715
-0.28045037	建 議	-0.046131715
-1.804471	業 界	-0.046131715
-2.1681492	以 直	-0.046131715
-0.7632755	一 直	-0.046131715
-1.6404731	該 直	-0.046131715
-1.5138382	也 懷	-0.046131715
-1.758025	這 措	-0.046131715
-1.5114105	新 措	-0.046131715
-0.3820232	措 施	-0.046131715
-1.657228	如 坊	-0.046131715
-1.2887218	道 指	-0.046131715
-1.2887218	次 指	-0.046131715
-1.2887218	別 指	-0.046131715
-1.4874817	有 些	-0.046131715
-1.1496276	現 金	-0.11546096
-1.8399961	出 金	-0.046131715
-1.6662061	過 金	-0.046131715
-1.3690404	本 金	-0.046131715
-1.4527546	由 金	-0.046131715
-1.5813358	但 金	-0.046131715
-1.3690404	然 金	-0.046131715
-0.8091586	港 金	-0.046131715
-1.0956693	( 金	-0.046131715
-1.3690404	及 金	-0.046131715
-1.077887	收 取	-0.046131715
-2.233917	在 取	-0.046131715
-1.2887218	手 續	-0.046131715
-0.8199464	陸 續	-0.046131715
-0.8199464	棄 續	-0.046131715
-2.2161345	以 逃	-0.046131715
-0.8220354	逃 避	-0.046131715
-1.8283571	上 警	-0.046131715
-1.502382	由 警	-0.046131715
-0.8199464	避 警	-0.046131715
-1.758025	這 方	-0.046131715
-0.55748254	警 方	-0.046131715
-1.2932222	追 查	-0.046131715
-0.8214704	審 查	-0.046131715
-2.2026482	以 再	-0.046131715
-1.1198074	查 再	-0.046131715
-1.6506553	費 者	-0.046131715
-1.1198074	再 者	-0.046131715
-1.7164145	須 對	-0.046131715
-1.5758786	應 對	-0.046131715
-1.2796333	者 對	-0.046131715
-0.38071716	反 對	-0.046131715
-0.81683666	針 對	-0.046131715
-1.7594903	介 濫	-0.046131715
-1.9672811	司 但	-0.046131715
-1.7678741	案 但	-0.046131715
-1.6010315	費 但	-0.046131715
-1.2707311	率 但	-0.046131715
-1.6130804	全 但	-0.046131715
-0.81374913	步 但	-0.046131715
-0.81374913	選 但	-0.046131715
-1.2948985	終 申	-0.046131715
-0.8220354	申 請	-0.046131715
-1.5125304	成 功	-0.046131715
-2.0525563	款 而	-0.046131715
-1.9672811	司 而	-0.046131715
-1.746469	事 而	-0.046131715
-1.6010315	費 而	-0.046131715
-1.6979209	定 而	-0.046131715
-1.2707311	度 而	-0.046131715
-1.1045928	程 而	-0.046131715
-1.6557773	而 突	-0.046131715
-2.0651512	司 然	-0.046131715
-0.8199464	突 然	-0.046131715
-0.3814998	雖 然	-0.046131715
-1.4177237	然 失	-0.046131715
-0.8220354	失 蹤	-0.046131715
-0.29405278	問 題	-0.09110062
-2.051569	我 希	-0.046131715
-1.5800343	議 希	-0.046131715
-1.1167834	排 希	-0.046131715
-0.28104106	希 望	-0.046131715
-2.2161345	以 盡	-0.046131715
-0.8220354	盡 快	-0.046131715
-0.6478903	全 面	-0.22159947
-1.2932222	方 面	-0.046131715
-1.5456624	在 檢	-0.11546096
-1.1198074	面 檢	-0.22159947
-0.3820232	檢 討	-0.04613169
-0.7565175	相 關	-0.046131715
-1.2131953	有 關	-0.046131715
-1.4177237	主 黨	-0.046131715
-2.0170915	我 認	-0.046131715
-1.7164145	須 認	-0.046131715
-1.6203047	府 認	-0.046131715
-1.6203047	該 認	-0.11546096
-1.5642264	直 認	-0.046131715
-2.1752887	的 處	-0.046131715
-1.5896214	務 處	-0.046131715
-1.6363493	要 處	-0.046131715
-1.725732	事 處	-0.046131715
-1.4669379	真 處	-0.11546096
-1.5424588	責 處	-0.046131715
-0.81068337	先 處	-0.046131715
-1.2620077	度 處	-0.046131715
-1.5825773	同 處	-0.046131715
-1.589785	責 執	-0.046131715
-1.4155009	把 執	-0.046131715
-2.1038752	款 特	-0.046131715
-1.8511639	會 特	-0.046131715
-1.4876149	由 特	-0.046131715
-1.7557985	想 特	-0.046131715
-1.1106453	( 特	-0.046131715
-1.5138382	機 構	-0.046131715
-1.9964343	多 職	-0.046131715
-2.0436091	時 候	-0.046131715
-1.59092	關 具	-0.046131715
-1.120931	體 細	-0.046131715
-0.8220354	細 節	-0.046131715
-1.71169	要 優	-0.046131715
-0.8220354	優 先	-0.046131715
-1.2781534	多 次	-0.046131715
-1.2932222	國 次	-0.046131715
-1.7222248	所 提	-0.046131715
-1.9672811	司 提	-0.046131715
-1.6130804	如 提	-0.046131715
-1.985151	我 提	-0.046131715
-1.2707311	次 提	-0.046131715
-0.81374913	盤 提	-0.11546096
-1.2707311	始 提	-0.046131715
-2.4206867	的 建	-0.046131715
-1.9494097	出 建	-0.046131715
-1.6404731	此 建	-0.046131715
-1.5863205	對 透	-0.046131715
-1.2932222	望 透	-0.046131715
-1.7607731	過 香	-0.046131715
-0.8220354	香 港	-0.046131715
-1.0795652	金 融	-0.046131715
-1.916825	理 局	-0.046131715
-1.7417268	管 局	-0.068034366
-1.1167834	強 局	-0.046131715
-1.9371326	民 (	-0.046131715
-1.6506553	局 (	-0.046131715
-2.1604483	人 )	-0.046131715
-1.6506553	局 )	-0.046131715
-0.5795536	因 此	-0.046131715
-1.5758786	應 此	-0.046131715
-1.1106453	長 此	-0.046131715
-1.3975831	取 此	-0.046131715
-0.81683666	謹 此	-0.046131715
-2.1353998	以 及	-0.046131715
-1.8089286	案 及	-0.046131715
-1.2841538	系 及	-0.046131715
-1.646227	提 及	-0.046131715
-1.120931	融 穩	-0.046131715
-1.589785	並 且	-0.046131715
-1.6522789	而 且	-0.046131715
-2.1038752	款 按	-0.046131715
-1.9190445	一 按	-0.046131715
-1.5600251	樓 按	-0.046131715
-1.2796333	次 按	-0.046131715
-0.81683666	宇 按	-0.046131715
-1.932393	市 場	-0.046131715
-1.59092	只 佔	-0.046131715
-1.8225065	為 小	-0.046131715
-1.2796333	分 小	-0.046131715
-1.927161	多 小	-0.046131715
-1.3975831	就 小	-0.046131715
-1.83912	很 小	-0.046131715
-1.5174197	小 份	-0.046131715
-0.28871238	小 額	-0.3465382
-0.8214704	份 額	-0.046131715
-1.90415	會 反	-0.046131715
-1.6506553	此 反	-0.046131715
-2.0755503	貸 前	-0.046131715
-2.162081	款 前	-0.046131715
-1.409547	天 前	-0.046131715
-1.7562268	過 陳	-0.046131715
-1.6506553	此 陳	-0.046131715
-1.4155009	家 強	-0.046131715
-1.5879539	直 強	-0.046131715
-2.2026482	以 給	-0.046131715
-1.8432206	亦 給	-0.046131715
-1.7622099	相 若	-0.046131715
-2.5011199	的 答	-0.046131715
-0.8220354	答 覆	-0.046131715
-0.85810363	發 展	-0.11546096
-1.5153029	商 屬	-0.046131715
-1.9319882	出 新	-0.046131715
-1.8384936	為 新	-0.046131715
-1.5686876	下 新	-0.046131715
-0.55614996	重 新	-0.046131715
-1.5896186	樓 盤	-0.11546096
-0.92463493	提 供	-0.046131715
-1.4155009	免 供	-0.046131715
-1.5896186	樓 宇	-0.046131715
-0.77879953	按 揭	-0.046131715
-1.9438603	民 買	-0.11546096
-1.8782972	為 旗	-0.046131715
-1.769473	年 免	-0.046131715
-1.6302719	息 免	-0.046131715
-1.1137035	查 免	-0.046131715
-1.4035239	供 免	-0.046131715
-1.4177237	免 審	-0.046131715
-1.4177237	免 壓	-0.046131715
-1.120931	力 測	-0.046131715
-0.8220354	測 試	-0.046131715
-1.5138382	按 計	-0.046131715
-0.8220354	計 劃	-0.046131715
-1.9978248	是 首	-0.046131715
-1.7622099	相 識	-0.046131715
-1.4155009	就 像	-0.046131715
-1.1198074	好 像	-0.046131715
-1.8031942	年 美	-0.046131715
-1.502382	外 國	-0.046131715
-0.8199464	美 國	-0.046131715
-1.6404731	同 國	-0.046131715
-1.5138382	按 危	-0.046131715
-2.4206867	的 始	-0.046131715
-1.4121023	原 始	-0.046131715
-0.8199464	開 始	-0.046131715
-1.2948985	始 翻	-0.046131715
-0.8220354	翻 版	-0.046131715
-1.409547	回 今	-0.046131715
-2.2000012	在 今	-0.046131715
-1.9699349	是 今	-0.046131715
-1.4177237	天 仍	-0.046131715
-1.2948985	地 步	-0.046131715
-1.2948985	些 苗	-0.046131715
-0.8220354	苗 頭	-0.046131715
-1.9057171	了 雖	-0.046131715
-0.8214704	三 雖	-0.046131715
-1.120931	強 調	-0.046131715
-1.120931	述 活	-0.046131715
-0.8220354	活 動	-0.046131715
-1.9110345	會 影	-0.11546096
-0.8220354	影 響	-0.046131715
-1.916825	理 安	-0.046131715
-1.2887218	系 安	-0.046131715
-1.5800343	關 安	-0.046131715
-1.71169	經 開	-0.046131715
-1.5114105	真 研	-0.046131715
-1.5879539	關 研	-0.046131715
-1.2932222	追 究	-0.046131715
-0.3818818	研 究	-0.046131715
-1.9057171	到 好	-0.046131715
-1.5879539	更 好	-0.046131715
-1.1198074	好 辦	-0.046131715
-1.1198074	冊 辦	-0.046131715
-1.9110345	會 支	-0.046131715
-2.0385396	司 持	-0.046131715
-1.4035239	名 持	-0.046131715
-1.4035239	否 持	-0.046131715
-0.81838876	支 持	-0.046131715
-1.2948985	究 設	-0.046131715
-1.509767	訂 立	-0.046131715
-0.8214704	設 立	-0.046131715
-1.2948985	黨 贊	-0.046131715
-0.28880125	特 別	-0.07941438
-2.1681492	以 重	-0.046131715
-1.7574091	最 重	-0.046131715
-1.2887218	前 重	-0.046131715
-1.5800343	接 引	-0.046131715
-1.1167834	且 引	-0.046131715
-0.8199464	吸 引	-0.046131715
-1.1198074	落 入	-0.046131715
-0.55748254	引 入	-0.046131715
-1.5049134	機 制	-0.046131715
-1.642958	牌 制	-0.11546096
-1.2887218	限 制	-0.046131715
-1.2932222	制 度	-0.046131715
-0.8214704	尺 度	-0.046131715
-1.8438138	數 點	-0.046131715
-2.011178	時 必	-0.046131715
-2.129114	人 必	-0.046131715
-0.8199464	點 必	-0.046131715
-1.8031942	們 俗	-0.046131715
-1.4155009	名 稱	-0.046131715
-0.8214704	俗 稱	-0.046131715
-2.5011199	的 paydayloans	-0.046131715
-1.9738235	出 糧	-0.046131715
-0.8220354	糧 日	-0.046131715
-1.71169	經 陸	-0.046131715
-0.85759366	更 嚴	-0.11546096
-0.8220354	嚴 格	-0.046131715
-1.7469074	相 同	-0.046131715
-0.68042374	不 同	-0.068034366
-1.502382	由 同	-0.046131715
-1.657228	如 區	-0.046131715
-2.2058032	款 與	-0.046131715
-1.6544822	同 性	-0.11546096
-0.8220354	性 質	-0.11546096
-1.7632434	所 限	-0.046131715
-1.1184542	上 限	-0.046131715
-1.71169	要 延	-0.046131715
-0.8220354	延 遲	-0.046131715
-1.6544822	同 尺	-0.046131715
-1.7663726	所 謂	-0.046131715
-0.55772626	安 排	-0.046131715
-1.120931	排 既	-0.046131715
-1.5125304	能 切	-0.046131715
-1.9412037	實 際	-0.046131715
-2.4206867	的 需	-0.046131715
-1.783592	們 需	-0.046131715
-0.8199464	際 需	-0.046131715
-2.4206867	的 運	-0.046131715
-1.7860101	業 運	-0.046131715
-1.2887218	營 運	-0.046131715
-1.59092	二 針	-0.046131715
-1.6544822	該 等	-0.046131715
-2.2161345	以 解	-0.046131715
-1.9670959	出 決	-0.046131715
-0.8214704	解 決	-0.046131715
-1.9424568	後 結	-0.046131715
-1.5138382	第 三	-0.046131715
-1.8719089	為 適	-0.046131715
-1.5114105	合 適	-0.046131715
-2.1726346	人 選	-0.046131715
-2.1726346	人 士	-0.046131715
-2.2471628	在 背	-0.046131715
-1.9424568	後 操	-0.046131715
-0.8220354	操 縱	-0.046131715
-1.8031942	們 從	-0.046131715
-2.1604483	人 註	-0.046131715
-1.5114105	新 註	-0.046131715
-0.3820232	註 冊	-0.046131715
-2.5011199	的 紀	-0.046131715
-0.8220354	紀 錄	-0.046131715
-2.0175533	放 棄	-0.046131715
-1.120931	稱 稍	-0.046131715
-1.296219	運 守	-0.046131715
-0.8220354	守 則	-0.046131715
-1.710401	行 服	-0.046131715
-1.5125304	告 宣	-0.11546096
-0.8220354	宣 傳	-0.046131715
-1.120931	資 料	-0.046131715
-1.71169	當 吸	-0.046131715
-2.2058032	款 般	-0.046131715
-0.8220354	般 叫	-0.046131715
-1.409547	令 消	-0.046131715
-1.783592	想 消	-0.046131715
-1.1167834	障 消	-0.046131715
-1.9603543	可 隨	-0.046131715
-2.0436091	時 找	-0.046131715
-1.120931	幫 忙	-0.046131715
-1.6544822	明 顯	-0.046131715
-1.0325254	過 程	-0.046131715
-1.9122934	了 冷	-0.046131715
-0.8220354	冷 靜	-0.046131715
-0.8220354	靜 期	-0.046131715
-1.8031942	年 青	-0.046131715
-0.6822771	清 楚	-0.046131715
-1.7622099	相 信	-0.046131715
-0.55772626	保 障	-0.046131715
-1.2948985	者 之	-0.046131715
-0.8220354	之 餘	-0.046131715
-1.4177237	緊 急	-0.046131715
-1.120931	給 予	-0.046131715
-2.1726346	人 帶	-0.046131715
-1.9122934	到 催	-0.046131715
-2.0220094	例 進	-0.046131715
-1.4177237	及 通	-0.046131715
-1.9964343	多 謝	-0.046131715
-2.0762167	我 謹	-0.046131715
-1.120931	陳 辭	-0.046131715

\3-grams:
-0.6266429	陳 辭 </s>
-0.6263188	多 謝 代
-0.3226762	<s> 代 理
-0.3226762	謝 代 理
-0.76585805	是 較 理
-0.8840433	不 合 理
-1.3620266	無 須 理
-1.3766714	並 不 理
-0.9243445	融 管 理
-0.18139358	的 處 理
-0.18139358	要 處 理
-0.14938284	真 處 理
-0.18139358	責 處 理
-0.18139358	先 處 理
-0.18139358	度 處 理
-0.18139358	同 處 理
-0.6148656	代 理 主
-0.7535726	案 事 主
-0.7535726	後 事 主
-0.69298595	例 民 主
-0.69298595	案 民 主
-0.69298595	作 民 主
-0.5804589	理 主 席
-0.90829945	主 席 現
-0.95395577	人 以 現
-0.94081503	頭 出 現
-1.2963024	認 為 現
-0.9542148	還 有 現
-0.9692729	看 到 現
-1.1047078	況 下 現
-1.319931	廣 告 現
-0.8197864	升 至 現
-1.0466769	雖 然 現
-0.8197864	限 制 現
-0.75970757	解 決 現
-0.17418663	席 現 時
-0.17418663	為 現 時
-0.14366597	到 現 時
-0.17418663	下 現 時
-0.17418663	告 現 時
-0.17418663	至 現 時
-0.17418663	然 現 時
-0.17418663	制 現 時
-0.17418663	決 現 時
-1.0877638	條 例 時
-1.5834404	還 款 時
-1.1962852	款 項 時
-1.6371021	很 多 時
-1.257809	消 費 時
-0.95775574	間 不 時
-1.2196083	建 議 時
-1.2885445	問 題 時
-0.61921245	可 隨 時
-1.0332544	現 時 放
-0.82508403	款 時 放
-1.2180485	列 明 放
-1.5675082	所 以 放
-0.94737625	所 有 放
-1.4371046	司 在 放
-1.2130427	例 中 放
-1.1254251	執 行 放
-0.8472422	任 就 放
-1.6273657	監 管 放
-1.1251118	收 緊 放
-0.85503626	接 受 放
-0.75484914	置 於 放
-0.89610004	率 但 放
-1.2612712	檢 討 放
-0.6139415	細 節 放
-0.6139415	們 從 放
-0.09886121	時 放 債
-0.15797837	明 放 債
-0.15797837	以 放 債
-0.15797837	中 放 債
-0.15797837	行 放 債
-0.15797837	就 放 債
-0.15797837	管 放 債
-0.15797837	緊 放 債
-0.15797837	於 放 債
-0.15797837	但 放 債
-0.15797837	討 放 債
-0.15797837	從 放 債
-0.9344739	樓 還 債
-0.05465659	放 債 人
-1.7304468	借 貸 人
-0.5833035	放 款 人
-0.3228522	借 款 人
-0.9263794	當 事 人
-1.0470717	中 介 人
-0.85477805	業 令 人
-0.912037	適 當 人
-0.751299	持 牌 人
-0.61832947	申 請 人
-1.2164631	相 關 人
-0.61832947	年 青 人
-1.6512523	現 時 條
-0.42230257	債 人 條
-0.32114103	第 四 條
-0.32114103	十 四 條
-0.93507075	落 實 條
-1.2584347	府 在 條
-0.8836118	呢 在 條
-1.1369166	執 行 條
-1.2544937	發 牌 條
-0.45192915	牌 照 條
-1.2684435	規 定 條
-1.0805573	修 訂 條
-1.2770605	檢 討 條
-0.78797346	相 關 條
-0.78797346	有 關 條
-0.23087126	時 條 例
-0.054521397	人 條 例
-0.26980266	四 條 例
-0.23087126	實 條 例
-0.18808849	在 條 例
-0.23087126	行 條 例
-0.23087126	訂 條 例
-0.23087126	討 條 例
-0.18808849	關 條 例
-1.2218914	法 例 例
-0.80782104	法 法 例
-0.80782104	同 法 例
-0.86555296	成 效 例
-1.6206107	處 理 第
-1.8345331	條 例 第
-1.1841645	運 作 第
-0.9592626	問 題 第
-0.5988568	例 第 二
-0.5988568	作 第 二
-0.8869004	年 十 二
-0.76834285	接 近 二
-0.88594383	目 由 二
-0.76834285	一 百 二
-0.75392354	第 二 十
-0.644709	百 二 十
-0.7695906	高 六 十
-0.93529963	去 年 十
-1.191456	司 數 十
-1.1074258	題 第 四
-1.1074258	二 十 四
-1.2180359	四 條 列
-1.8469003	條 例 列
-1.129744	況 下 列
-0.2422395	條 列 明
-0.2422395	例 列 明
-0.2422395	下 列 明
-0.9609016	債 我 明
-0.62365425	會 寫 明
-0.88594383	楚 訂 明
-0.92050755	宣 傳 明
-0.9403125	費 時 可
-1.2521446	債 人 可
-1.1552873	介 人 可
-1.7108523	借 貸 可
-1.8716223	公 司 可
-1.298082	除 了 可
-0.5334856	變 便 可
-0.6155136	司 便 可
-0.90487355	表 示 可
-0.93253386	款 後 可
-0.8714862	千 間 可
-1.3879898	做 法 可
-0.63039404	司 亦 可
-0.63039404	外 亦 可
-0.63039404	牌 亦 可
-1.5271014	政 府 可
-0.8169902	貸 前 可
-0.61569136	紀 錄 可
-1.3556935	介 人 以
-1.7566116	條 例 以
-0.09088443	人 可 以
-0.14437684	司 可 以
-0.14437684	了 可 以
-0.11981429	便 可 以
-0.14437684	示 可 以
-0.14437684	後 可 以
-0.14437684	法 可 以
-0.09088443	亦 可 以
-0.14437684	府 可 以
-0.14437684	前 可 以
-0.14437684	錄 可 以
-1.7413342	貸 款 以
-0.2673792	貸 所 以
-0.33657002	項 所 以
-0.33657002	務 所 以
-0.33657002	定 所 以
-0.33657002	題 所 以
-0.90216887	續 費 以
-0.93413085	議 會 以
-1.2433846	完 全 以
-0.7609307	人 難 以
-1.2810992	檢 討 以
-0.9100226	機 構 以
-0.94934213	題 時 最
-1.8208036	可 以 最
-1.2897646	借 貸 最
-1.6776736	其 實 最
-1.3823438	卡 數 最
-0.9134895	萬 元 最
-0.8599068	自 知 最
-1.2227764	建 議 最
-0.90689725	費 但 最
-0.9296096	以 最 高
-1.0672945	出 了 高
-0.792562	入 了 高
-1.1257181	一 個 高
-0.62187207	明 白 高
-0.76585805	率 即 高
-1.0872375	風 險 高
-0.76585805	出 較 高
-0.9271183	最 高 六
-0.868642	收 回 六
-0.6988944	二 十 %
-0.6013268	六 十 %
-1.3469349	處 理 的
-1.4115953	現 時 的
-1.0263574	款 人 的
-1.1825038	條 例 的
-0.9344059	法 例 的
-0.43336624	十 % 的
-0.84208924	分 息 的
-1.2026141	作 出 的
-0.74821174	業 務 的
-0.64026076	服 務 的
-1.0430084	公 司 的
-0.92394686	回 報 的
-0.8551446	重 要 的
-0.71671474	成 疑 的
-0.80053806	著 名 的
-0.80053806	真 正 的
-1.1334286	在 我 的
-0.8977084	存 在 的
-0.68299186	今 天 的
-1.0786536	收 到 的
-1.2397525	中 介 的
-0.5860423	高 昂 的
-0.84208924	收 費 的
-0.5675251	後 真 的
-0.5675251	否 真 的
-0.83250606	屬 下 的
-1.0146984	買 樓 的
-0.9899422	風 險 的
-0.71671474	正 常 的
-0.9899422	欺 騙 的
-0.82801443	危 機 的
-1.0404357	責 任 的
-0.71671474	修 改 的
-0.71671474	容 易 的
-0.84892035	數 目 的
-1.0570719	理 想 的
-0.84892035	措 施 的
-1.0404357	收 取 的
-0.5860423	失 蹤 的
-0.8871347	問 題 的
-0.71671474	方 面 的
-0.90135825	事 處 的
-0.5860423	相 若 的
-1.0404357	提 供 的
-0.5860423	測 試 的
-0.77076274	追 究 的
-0.71671474	俗 稱 的
-0.84892035	嚴 格 的
-1.2384297	不 同 的
-0.43336624	性 質 的
-0.5860423	所 謂 的
-0.5860423	靜 期 的
-1.243335	列 明 年
-1.2487708	% 的 年
-0.7633874	在 去 年
-0.6067391	去 數 年
-1.2026128	別 是 年
-0.91524816	像 當 年
-0.7633874	到 近 年
-0.7633874	一 零 年
-0.62009716	是 首 年
-0.93347347	的 年 息
-0.82971764	六 分 息
-0.75408685	高 利 息
-0.46766645	的 利 息
-0.62365425	以 低 息
-0.8639972	年 免 息
-1.6037014	款 人 貸
-0.620373	質 的 貸
-0.9004766	年 息 貸
-0.35918343	的 借 貸
-0.27222124	司 借 貸
-0.440306	要 借 貸
-0.38382927	們 借 貸
-0.38382927	在 借 貸
-0.38382927	下 借 貸
-0.38382927	當 借 貸
-0.38382927	功 借 貸
-1.2803555	商 業 貸
-1.3771112	其 他 貸
-0.9570963	人 在 貸
-1.3680817	卡 數 貸
-0.9155126	規 管 貸
-0.75970757	取 得 貸
-0.23183927	小 額 貸
-0.90829945	按 揭 貸
-0.7602854	人 貸 出
-0.7602854	息 貸 出
-0.7602854	在 貸 出
-0.45321292	主 付 出
-0.45321292	才 付 出
-0.76462096	paydayloans 即 出
-0.6105331	便 作 出
-0.6105331	想 作 出
-0.6105331	新 作 出
-0.24161555	道 指 出
-0.24161555	次 指 出
-0.24161555	別 指 出
-1.0846486	有 些 出
-0.36348495	所 提 出
-0.36348495	我 提 出
-0.36348495	次 提 出
-0.36348495	始 提 出
-0.6209837	苗 頭 出
-0.82813185	有 放 款
-0.82813185	受 放 款
-0.9784501	照 條 款
-0.80833995	定 條 款
-0.31227008	的 貸 款
-0.39960206	業 貸 款
-0.39960206	他 貸 款
-0.39960206	數 貸 款
-0.39960206	管 貸 款
-0.39960206	得 貸 款
-0.15564464	額 貸 款
-0.39960206	揭 貸 款
-0.38957298	貸 出 款
-0.56518674	的 借 款
-0.43727607	項 借 款
-0.6500927	司 借 款
-0.5017241	要 借 款
-0.43727607	向 借 款
-0.43727607	賣 借 款
-0.43727607	日 借 款
-0.33744425	向 還 款
-0.33744425	能 還 款
-0.26801452	法 還 款
-0.33744425	須 還 款
-0.33744425	遲 還 款
-0.8277093	須 付 款
-0.9235109	一 定 款
-0.3783157	出 款 項
-0.88945985	定 款 項
-1.2897646	借 貸 所
-1.1996359	款 項 所
-1.1335864	業 務 所
-1.2261554	亦 有 所
-1.3022434	議 案 所
-0.9413099	訂 後 所
-1.0018464	以 至 所
-1.2795906	規 定 所
-1.2922823	問 題 所
-1.7176518	條 例 其
-1.7045124	借 貸 其
-1.3713168	貸 款 其
-1.4696233	借 款 其
-1.6034286	公 司 其
-0.9490758	為 有 其
-0.88710845	業 或 其
-1.3385357	他 們 其
-1.4572145	個 案 其
-1.2148998	當 中 其
-1.0706788	做 法 其
-0.7943566	手 法 其
-1.6352477	市 民 其
-0.8760483	違 規 其
-1.377354	管 局 其
-0.84873897	案 及 其
-0.61481553	款 與 其
-0.21110846	例 其 實
-0.21110846	貸 其 實
-0.17274374	款 其 實
-0.17274374	司 其 實
-0.21110846	們 其 實
-0.21110846	中 其 實
-0.17274374	法 其 實
-0.21110846	民 其 實
-0.21110846	規 其 實
-0.21110846	局 其 實
-0.61375344	貸 事 實
-0.61375344	事 事 實
-0.61375344	法 事 實
-0.7695906	效 落 實
-0.83115506	會 和 實
-1.750832	其 實 變
-0.7720654	作 改 變
-0.96149236	例 以 相
-1.2521113	例 的 相
-0.76462096	實 變 相
-0.89750767	人 或 相
-0.8460557	給 我 相
-0.8460557	制 我 相
-0.8254336	似 曾 相
-1.3371428	廣 告 相
-1.2934456	檢 討 相
-0.9230495	變 相 為
-1.9391688	公 司 為
-0.6423054	境 因 為
-0.6423054	是 因 為
-1.2771649	必 須 為
-0.9283032	產 作 為
-0.89600676	商 更 為
-0.8794587	上 訂 為
-0.41383022	我 認 為
-0.41383022	府 認 為
-0.41383022	直 認 為
-1.150254	特 別 為
-1.4962184	處 理 財
-1.5796901	現 時 財
-1.2008476	列 明 財
-0.8753642	名 的 財
-0.8753642	下 的 財
-1.0816929	題 的 財
-0.90525275	近 年 財
-1.508933	還 款 財
-0.91316915	相 為 財
-0.74885154	資 產 財
-0.6306577	息 向 財
-0.6306577	民 向 財
-0.9304844	收 到 財
-0.7753469	帶 到 財
-0.8749559	欠 下 財
-0.97697544	經 營 財
-0.60959744	抵 押 財
-0.84459144	可 知 財
-0.4004394	監 管 財
-0.80734265	文 件 財
-0.80734265	介 和 財
-0.60959744	隱 瞞 財
-0.8749559	針 對 財
-0.74885154	而 且 財
-0.60959744	時 找 財
-0.027368726	理 財 務
-0.027368726	時 財 務
-0.027368726	明 財 務
-0.018079378	的 財 務
-0.027368726	年 財 務
-0.027368726	款 財 務
-0.027368726	為 財 務
-0.027368726	產 財 務
-0.023220493	向 財 務
-0.023220493	到 財 務
-0.027368726	下 財 務
-0.027368726	營 財 務
-0.027368726	押 財 務
-0.027368726	知 財 務
-0.008945617	管 財 務
-0.027368726	件 財 務
-0.027368726	和 財 務
-0.027368726	瞞 財 務
-0.027368726	對 財 務
-0.027368726	且 財 務
-0.027368726	找 財 務
-0.7508939	人 業 務
-0.7508939	的 業 務
-0.83111906	由 警 務
-0.62365425	多 職 務
-0.62365425	行 服 務
-1.2622896	題 的 公
-0.11005442	財 務 公
-0.672477	中 介 公
-0.9395355	不 上 公
-0.8639972	要 把 公
-0.12904681	的 公 司
-0.009037425	務 公 司
-0.047194075	介 公 司
-0.12904681	上 公 司
-0.12904681	把 公 司
-2.0623066	公 司 創
-0.6266429	司 創 造
-0.94583607	出 現 了
-0.6827659	付 出 了
-0.7194049	作 出 了
-0.58839583	些 出 了
-0.73895276	提 出 了
-0.6209837	創 造 了
-0.9276368	清 還 了
-0.24161555	樓 除 了
-0.24161555	景 除 了
-0.24161555	度 除 了
-1.0846486	欺 騙 了
-0.6209837	己 簽 了
-0.8254336	落 入 了
-0.87418866	理 第 一
-0.96280634	試 的 一
-0.9298734	造 了 一
-0.8885789	費 向 一
-0.9543089	其 中 一
-0.93253386	然 後 一
-1.2932684	市 民 一
-0.7572715	二 零 一
-0.9173743	再 想 一
-0.61569136	業 界 一
-1.0694317	主 黨 一
-1.3821961	管 局 一
-1.1308154	提 供 一
-0.89711154	由 同 一
-0.93844205	騙 的 個
-0.93844205	蹤 的 個
-0.81726855	了 一 個
-0.99172574	民 一 個
-0.7819288	眾 多 個
-0.76834285	一 宗 個
-1.1574514	類 似 個
-0.7092381	個 高 回
-0.7092381	險 高 回
-0.93703777	業 收 回
-1.5043908	府 在 回
-0.83115506	想 說 回
-0.58021045	高 回 報
-0.9717527	時 有 報
-0.9845922	報 的 環
-0.6266429	的 環 境
-0.94666195	合 理 因
-0.62276226	環 境 因
-0.62276226	大 誘 因
-0.9517197	實 是 因
-1.1212373	反 對 因
-0.76709867	份 額 因
-1.1910558	因 為 只
-0.8624471	原 本 只
-0.94666195	牌 後 只
-1.4230083	管 局 只
-0.62276226	市 場 只
-0.62276226	翻 版 只
-0.94192654	訂 為 要
-0.64386976	為 只 要
-0.64386976	後 只 要
-1.1254344	款 或 要
-0.83111906	最 重 要
-0.2422395	的 需 要
-0.2422395	們 需 要
-0.2422395	際 需 要
-0.8937724	寫 明 借
-0.88246393	出 的 借
-0.88246393	疑 的 借
-0.88246393	險 的 借
-0.8937724	低 息 借
-1.1767071	款 項 借
-1.1090472	公 司 借
-0.8220794	只 要 借
-0.87342286	需 要 借
-0.885643	得 向 借
-0.75484914	拍 賣 借
-1.333929	他 們 借
-0.9502702	) 在 借
-0.88299304	系 下 借
-0.8472422	也 把 借
-0.90411144	限 當 借
-0.6139415	成 功 借
-0.75484914	好 像 借
-0.6139415	糧 日 借
-1.694983	款 人 擁
-0.92451775	不 時 有
-1.6639601	可 以 有
-1.1251148	數 年 有
-1.3608373	提 出 有
-0.91093224	後 所 有
-1.2523779	認 為 有
-0.6078719	人 擁 有
-1.0293636	司 便 有
-0.91093224	外 還 有
-0.85749435	亦 能 有
-0.8420906	例 未 有
-1.5350227	很 多 有
-0.9513673	看 到 有
-1.5953945	中 介 有
-1.093443	最 後 有
-0.78351605	件 後 有
-1.1435198	亦 會 有
-0.8973605	時 亦 有
-0.75191	限 亦 有
-1.4789382	政 府 有
-0.3177826	民 沒 有
-0.3177826	愁 沒 有
-0.74647546	理 使 有
-0.97296524	警 方 有
-1.2349502	檢 討 有
-0.80462515	外 國 有
-1.2692101	人 的 物
-0.97000694	擁 有 物
-1.3820349	無 須 物
-1.9121212	債 人 業
-0.97681004	面 的 業
-0.2420314	的 物 業
-0.2420314	有 物 業
-0.2420314	須 物 業
-0.41445136	的 商 業
-0.41445136	是 商 業
-0.41445136	急 商 業
-1.0082933	以 至 業
-0.62276226	後 結 業
-1.2364144	牌 人 或
-1.7725058	借 貸 或
-1.5034171	借 款 或
-1.3326695	還 款 或
-1.3077937	物 業 或
-1.4278752	顧 問 或
-0.5919252	有 其 他
-0.5919252	或 其 他
-0.5919252	及 其 他
-0.5919252	與 其 他
-1.1845099	因 為 他
-1.4072833	出 了 他
-0.89750767	險 向 他
-0.8593632	某 天 他
-0.8254336	錢 讓 他
-0.91686267	迫 當 他
-0.90846187	事 而 他
-1.4189123	其 他 資
-0.9258017	宣 傳 資
-0.7720654	他 資 產
-0.6263188	家 蕩 產
-0.7708419	改 變 便
-1.6930302	公 司 便
-1.5577359	最 後 便
-1.7398344	其 實 極
-0.97000694	便 有 極
-0.9492271	易 到 極
-0.83115506	有 極 大
-0.95522195	可 是 大
-1.7326336	市 民 大
-0.6245481	到 你 大
-0.8695421	極 大 誘
-1.2546396	利 息 向
-0.90264404	誘 因 向
-1.2546396	問 費 向
-1.0898418	風 險 向
-1.7132249	市 民 向
-0.76709867	不 得 向
-0.89600676	因 向 還
-1.0882967	未 能 還
-0.62009716	他 償 還
-1.0570972	的 清 還
-0.8886192	無 法 還
-0.89450085	賣 樓 還
-0.8794587	款 外 還
-1.3523577	無 須 還
-0.62009716	延 遲 還
-1.6302049	還 款 能
-0.5396556	人 未 能
-0.5396556	如 未 能
-0.94150615	要 亦 能
-0.6245481	排 既 能
-0.89083064	款 能 力
-0.6263188	免 壓 力
-0.9785927	施 的 成
-1.098835	未 能 成
-0.76834285	能 力 成
-0.82971764	錢 說 成
-0.62365425	黨 贊 成
-0.89083064	力 成 疑
-0.6263188	也 懷 疑
-1.6543338	款 人 如
-0.83208954	例 例 如
-0.83208954	效 例 如
-1.9853934	公 司 如
-0.93165493	一 想 如
-0.9116081	司 但 如
-0.62276226	資 料 如
-0.9668508	請 人 未
-1.8345331	條 例 未
-0.9154188	人 如 未
-0.6245481	天 仍 未
-1.8941256	可 以 名
-2.0191913	公 司 名
-0.9538295	同 一 名
-0.6245481	間 著 名
-0.86555296	以 名 正
-0.97107893	法 在 正
-0.88833606	響 真 正
-0.441675	的 修 正
-0.5999851	他 修 正
-0.86920834	名 正 言
-0.6266429	正 言 順
-0.6254438	言 順 地
-1.2131118	合 法 地
-0.9159502	到 該 地
-0.834531	順 地 拍
-0.6263188	地 拍 賣
-0.7720654	被 迫 賣
-1.8075157	可 以 收
-1.2880197	物 業 收
-0.93265224	天 他 收
-1.4556851	我 們 收
-1.2282548	出 在 收
-1.4854095	個 案 收
-0.9123279	另 行 收
-0.61921245	二 月 收
-0.6073204	現 金 收
-0.61921245	介 濫 收
-0.7708419	回 六 分
-0.6254438	外 部 分
-0.6254438	如 區 分
-0.98218006	息 的 保
-0.97285885	信 在 保
-1.3446862	受 到 保
-0.8349419	的 保 證
-0.70840526	白 高 利
-0.70840526	較 高 利
-0.93844205	取 的 利
-0.93844205	同 的 利
-0.93347347	明 年 利
-0.62365425	保 證 利
-0.8639972	提 及 利
-0.90765345	證 利 潤
-0.9031707	主 席 我
-0.7560587	還 債 我
-0.67839456	所 以 我
-1.623306	其 實 我
-0.61481553	利 潤 我
-0.87927675	後 在 我
-1.0880022	上 在 我
-1.3548539	案 中 我
-1.4776304	最 後 我
-0.93198484	辦 法 我
-1.1843548	別 是 我
-0.66999435	案 但 我
-0.66999435	步 但 我
-1.2215719	因 此 我
-0.7560587	亦 給 我
-0.8155988	機 制 我
-0.61481553	操 縱 我
-0.5065642	為 他 們
-0.5065642	了 他 們
-0.5065642	向 他 們
-0.5065642	當 他 們
-0.60133135	以 我 們
-0.498115	潤 我 們
-0.57313806	在 我 們
-0.498115	是 我 們
-0.57313806	但 我 們
-0.498115	縱 我 們
-0.94862795	節 放 在
-1.5305657	款 人 在
-0.7649046	指 出 在
-0.8870543	職 務 在
-1.096269	公 司 在
-0.9270334	第 一 在
-0.9391942	實 我 在
-1.3883957	我 們 在
-0.89143395	表 示 在
-1.436927	最 後 在
-1.3658441	無 法 在
-1.1464857	機 會 在
-0.81214166	常 存 在
-0.95797867	實 上 在
-0.7511865	身 上 在
-0.89837015	率 須 在
-0.65062207	政 府 在
-0.60873383	生 呢 在
-0.8870543	度 而 在
-0.74766195	人 ) 在
-0.60873383	答 覆 在
-0.60873383	人 士 在
-0.60873383	相 信 在
-1.7580287	借 貸 過
-0.82175475	們 在 過
-0.99844706	上 在 過
-0.82175475	覆 在 過
-0.9301177	曾 問 過
-0.9618127	意 不 過
-0.92609775	過 這 過
-0.3226762	對 透 過
-0.3226762	望 透 過
-0.62187207	及 通 過
-0.97460127	示 在 去
-0.7699405	在 過 去
-1.5180484	司 的 數
-1.6610645	公 司 數
-1.2326499	亦 有 數
-0.9657825	我 在 數
-0.5320945	過 去 數
-1.4739474	銀 行 數
-0.16763692	了 卡 數
-0.16763692	還 卡 數
-0.16763692	元 卡 數
-0.16763692	清 卡 數
-1.1858318	數 年 曾
-0.8671143	實 似 曾
-0.8325973	天 前 曾
-1.7164128	現 時 接
-0.82971764	年 曾 接
-0.88594383	施 間 接
-1.3549354	已 經 接
-0.64386976	以 直 接
-0.64386976	該 直 接
-0.90713936	曾 接 獲
-0.9548514	議 時 多
-0.62276226	接 獲 多
-0.14237209	理 很 多
-0.118198596	時 很 多
-0.14237209	有 很 多
-0.14237209	中 很 多
-0.14237209	外 很 多
-0.14237209	令 很 多
-0.14237209	身 很 多
-0.14237209	但 很 多
-0.14237209	劃 很 多
-0.3415529	的 眾 多
-0.3415529	有 眾 多
-0.3415529	往 眾 多
-1.0898418	主 黨 多
-0.9187424	保 障 多
-0.9568728	中 一 宗
-0.9585637	獲 多 宗
-0.9142034	訂 明 類
-0.7695906	多 宗 類
-0.93318707	並 無 類
-0.93071055	供 這 類
-1.750832	其 實 似
-0.34279805	明 類 似
-0.34279805	宗 類 似
-0.34279805	無 類 似
-0.24995069	的 個 案
-0.24995069	多 個 案
-0.31277046	宗 個 案
-0.31277046	似 個 案
-0.37362272	修 正 案
-0.64554983	的 議 案
-0.468071	原 議 案
-1.3860958	條 例 中
-0.950795	案 其 中
-0.9580642	財 務 中
-0.6347434	貸 或 中
-0.6347434	問 或 中
-1.586996	很 多 中
-0.8264382	個 案 中
-0.96420324	正 案 中
-0.9346198	就 是 中
-1.1647197	社 會 中
-0.8937724	或 該 中
-0.6967591	案 當 中
-0.6967591	告 當 中
-1.6273657	監 管 中
-0.6139415	任 何 中
-0.75484914	對 於 中
-1.0644755	有 些 中
-0.9871658	引 入 中
-0.6139415	該 等 中
-0.9697517	易 的 事
-1.7371798	借 貸 事
-1.4854095	個 案 事
-0.9278269	難 事 事
-1.5092328	最 後 事
-1.4073275	做 法 事
-0.9136396	多 當 事
-0.7621573	非 難 事
-0.9038678	長 此 事
-0.7621573	冊 辦 事
-1.0660216	事 主 原
-0.9803827	機 的 原
-0.88758034	贊 成 原
-0.867456	支 持 原
-0.86777186	主 原 本
-0.32390827	否 根 本
-0.32390827	件 根 本
-0.8325973	息 和 本
-0.9065854	本 只 欠
-0.7720654	數 卻 欠
-1.6039875	處 理 銀
-1.7064838	現 時 銀
-0.97681004	常 的 銀
-0.76709867	只 欠 銀
-1.2910316	規 定 銀
-0.9187424	影 響 銀
-0.10452058	理 銀 行
-0.10452058	時 銀 行
-0.10452058	的 銀 行
-0.10452058	欠 銀 行
-0.10452058	定 銀 行
-0.10452058	響 銀 行
-0.6245481	人 另 行
-0.3235999	責 執 行
-0.3235999	把 執 行
-0.6245481	例 進 行
-0.89118546	數 十 萬
-0.9437598	行 數 萬
-0.3243204	十 萬 元
-0.3243204	數 萬 元
-0.94743156	還 了 卡
-0.932202	償 還 卡
-0.9222799	萬 元 卡
-1.0674474	的 清 卡
-1.4193269	卡 數 某
-0.94204676	在 數 天
-0.6254438	數 某 天
-0.2426559	回 今 天
-0.2426559	在 今 天
-0.2426559	是 今 天
-0.8612077	仍 未 到
-0.74931693	他 收 到
-0.74931693	們 收 到
-0.16750547	以 看 到
-0.16750547	們 看 到
-0.16750547	經 看 到
-0.13834876	家 看 到
-0.8254336	引 說 到
-0.76462096	錢 易 到
-0.76462096	以 幫 到
-0.34092778	直 受 到
-0.34092778	續 受 到
-0.34092778	者 受 到
-0.6209837	人 帶 到
-0.090291984	務 中 介
-0.22146776	或 中 介
-0.27459157	多 中 介
-0.27459157	是 中 介
-0.27459157	該 中 介
-0.27459157	管 中 介
-0.27459157	何 中 介
-0.27459157	於 中 介
-0.27459157	些 中 介
-0.27459157	入 中 介
-0.27459157	等 中 介
-1.2738936	介 的 電
-0.6266429	的 電 話
-0.6263188	電 話 表
-1.6007853	政 府 表
-0.3243204	話 表 示
-0.3243204	府 表 示
-1.9331365	可 以 低
-0.6525601	明 借 錢
-0.6525601	息 借 錢
-0.6525601	把 借 錢
-0.6525601	像 借 錢
-1.9104017	可 以 讓
-1.220301	借 錢 讓
-1.4032029	應 該 讓
-0.9447881	讓 他 償
-0.33743045	時 最 後
-0.26800442	貸 最 後
-0.33743045	數 最 後
-0.33743045	知 最 後
-0.33743045	議 最 後
-1.2273638	條 款 後
-1.1996359	款 項 後
-1.1996359	借 錢 後
-0.90689725	續 牌 後
-1.0882967	修 訂 後
-1.0018464	條 件 後
-0.85782945	司 然 後
-0.62009716	在 背 後
-1.0685015	事 主 付
-0.7708419	以 才 付
-1.3820349	無 須 付
-1.1690962	了 高 昂
-0.9803827	昂 的 顧
-0.93703777	濫 收 顧
-0.7695906	是 被 顧
-1.0950979	欺 騙 顧
-0.97326654	究 的 問
-1.4072833	出 了 問
-0.96116275	多 有 問
-0.8254336	前 曾 問
-1.6551768	很 多 問
-0.16750547	的 顧 問
-0.16750547	收 顧 問
-0.16750547	被 顧 問
-0.16750547	騙 顧 問
-0.9245709	理 這 問
-0.89616996	應 對 問
-0.93703777	行 收 費
-0.5062736	顧 問 費
-0.83115506	手 續 費
-0.24244767	令 消 費
-0.24244767	想 消 費
-0.24244767	障 消 費
-0.9522967	向 一 間
-0.76834285	八 百 間
-0.62365425	二 千 間
-0.92050755	措 施 間
-0.62365425	如 坊 間
-0.89142674	一 間 著
-1.5504663	最 後 真
-1.1605144	是 否 真
-0.6004201	須 認 真
-0.4419325	該 認 真
-0.9222799	影 響 真
-1.1939816	真 的 清
-0.9417115	謂 的 清
-1.8359653	貸 款 清
-0.93713355	定 想 清
-1.4174335	卡 數 卻
-1.1897666	工 作 卻
-0.76834285	卻 欠 下
-1.0924618	體 系 下
-0.7945962	情 況 下
-0.62365425	商 屬 下
-0.62365425	為 旗 下
-0.73503506	元 最 終
-0.73503506	但 最 終
-0.8340081	的 始 終
-0.9573605	貸 人 無
-1.3186481	除 了 無
-0.8240149	到 極 無
-1.3672518	他 們 無
-1.0538305	根 本 無
-0.9413099	錢 後 無
-1.0018464	最 終 無
-1.6856474	市 民 無
-1.118187	例 並 無
-0.44451737	人 無 法
-0.44451737	們 無 法
-0.44451737	本 無 法
-0.44451737	終 無 法
-1.4173293	做 法 法
-0.1963648	的 做 法
-0.24161555	這 做 法
-0.24161555	種 做 法
-0.59664726	以 合 法
-0.59664726	全 合 法
-0.8254336	的 手 法
-0.76462096	好 辦 法
-0.76462096	設 立 法
-1.4124401	不 同 法
-1.6467693	還 款 被
-1.2248498	也 是 被
-0.7720654	款 被 迫
-0.6263188	到 催 迫
-1.2622896	% 的 樓
-0.76834285	迫 賣 樓
-1.4983679	司 在 樓
-0.5988568	為 新 樓
-0.5988568	下 新 樓
-0.45553213	民 買 樓
-0.9182941	我 明 白
-0.54356253	高 利 率
-0.4730993	年 利 率
-0.4730993	及 利 率
-1.1003512	利 率 即
-0.6263188	的 paydayloans 即
-0.8410385	了 高 風
-0.7108877	即 高 風
-0.95082814	理 會 風
-0.25844067	高 風 險
-0.3243204	會 風 險
-0.9482883	貸 可 是
-1.6319077	其 實 是
-1.8716223	公 司 是
-0.9913099	回 報 是
-0.8885789	版 只 是
-0.8714862	說 成 是
-0.8169902	始 終 是
-0.7572715	管 才 是
-0.8502408	果 就 是
-1.5271014	政 府 是
-0.59226155	人 也 是
-0.59226155	實 也 是
-0.8885789	多 更 是
-0.90487355	自 己 是
-0.7837004	特 別 是
-0.9803827	供 的 商
-0.95522195	報 是 商
-0.45604926	發 展 商
-0.6245481	緊 急 商
-1.3200011	商 業 社
-0.89118546	切 合 社
-0.9430866	須 理 會
-0.32236874	業 社 會
-0.32236874	合 社 會
-0.8593632	國 家 會
-0.76593864	款 亦 會
-0.91709846	我 亦 會
-0.59664726	個 機 會
-0.59664726	有 機 會
-0.68104625	亦 不 會
-0.68104625	也 不 會
-0.8500317	並 不 會
-0.68104625	動 不 會
-0.89750767	中 更 會
-0.89750767	上 議 會
-1.2392429	沒 有 經
-0.9635987	會 中 經
-0.62365425	手 段 經
-0.196844	實 已 經
-0.2422395	司 已 經
-0.2422395	們 已 經
-0.92050755	註 冊 經
-0.868642	在 正 常
-0.9266366	中 經 常
-1.739275	中 介 存
-0.7708419	經 常 存
-0.92405957	上 述 存
-1.8345331	條 例 情
-0.94007367	在 的 情
-0.94007367	改 的 情
-1.0950979	這 種 情
-0.7695906	合 適 情
-1.1095479	的 情 景
-1.129744	買 樓 除
-0.6254438	情 景 除
-1.0148373	制 度 除
-1.243335	利 息 上
-0.38835686	事 實 上
-1.3186481	除 了 上
-0.8794587	百 間 上
-0.7633874	在 心 上
-0.9591038	追 不 上
-0.7633874	人 身 上
-0.9340157	本 金 上
-0.62009716	強 調 上
-0.77189445	了 上 述
-0.77189445	調 上 述
-0.97460127	放 在 心
-0.4560783	介 存 心
-0.4560783	述 存 心
-1.5165371	司 在 欺
-0.53517234	存 心 欺
-0.3243204	在 欺 騙
-0.25844067	心 欺 騙
-0.9671616	付 款 外
-0.9693063	一 在 外
-1.5155627	個 案 外
-1.7225436	中 介 外
-0.91246367	取 此 外
-0.89142674	案 外 部
-0.93159765	騙 了 市
-0.8183861	部 分 市
-1.6113268	很 多 市
-1.3600214	案 中 市
-0.8183861	以 讓 市
-0.45141688	鼓 勵 市
-0.85174805	會 令 市
-0.91529965	確 定 市
-1.0719311	希 望 市
-0.8755828	樓 按 市
-0.90658313	按 揭 市
-0.6165689	般 叫 市
-0.6165689	給 予 市
-1.8345331	條 例 民
-1.3228178	議 案 民
-0.079748094	了 市 民
-0.079748094	分 市 民
-0.079748094	多 市 民
-0.079748094	中 市 民
-0.079748094	讓 市 民
-0.067020305	勵 市 民
-0.079748094	令 市 民
-0.079748094	定 市 民
-0.079748094	望 市 民
-0.079748094	揭 市 民
-0.079748094	叫 市 民
-0.079748094	予 市 民
-1.1841645	工 作 民
-0.6684089	銀 行 體
-0.6263188	關 具 體
-0.3515436	行 體 系
-1.6676034	所 以 才
-1.7159371	監 管 才
-1.2212151	付 出 較
-0.95870835	才 是 較
-0.5396556	是 大 家
-0.5396556	你 大 家
-0.6245481	民 傾 家
-0.7695906	過 陳 家
-0.83115506	同 國 家
-1.8941256	可 以 看
-1.493692	我 們 看
-1.3593935	已 經 看
-0.5788524	大 家 看
-1.4113653	司 的 做
-0.9417115	想 的 做
-0.9322591	作 這 做
-1.09775	這 種 做
-1.2738936	例 的 客
-0.6266429	的 客 觀
-0.8839519	以 有 效
-0.8839519	能 有 效
-0.8892231	的 成 效
-0.6254438	客 觀 效
-0.5184616	司 如 果
-0.5184616	想 如 果
-0.5184616	但 如 果
-0.868642	觀 效 果
-1.2358675	例 中 就
-0.83115506	效 果 就
-1.1605144	責 任 就
-0.6245481	相 識 就
-1.4594603	可 以 完
-0.7720654	作 卻 完
-0.92109454	進 行 全
-0.9534673	終 是 全
-0.25768703	以 完 全
-0.32329178	卻 完 全
-0.62365425	盡 快 全
-0.83111906	系 安 全
-0.9672319	全 以 合
-0.9693063	須 在 合
-1.2618939	完 全 合
-0.96453846	極 不 合
-0.62365425	能 切 合
-0.98218006	樓 的 手
-1.2131118	合 法 手
-1.163599	收 取 手
-0.834531	法 手 段
-1.5010138	銀 行 營
-0.7105948	段 經 營
-0.7105948	冊 經 營
-0.77965367	例 時 亦
-1.7631298	貸 款 亦
-1.9391688	公 司 亦
-1.2646753	需 要 亦
-0.9340904	而 他 亦
-0.84505177	法 我 亦
-0.84505177	此 我 亦
-0.8794587	介 外 亦
-1.2640022	持 牌 亦
-1.0018464	上 限 亦
-0.8340081	法 地 鼓
-0.86953455	這 類 鼓
-0.3243204	地 鼓 勵
-0.3243204	類 鼓 勵
-0.44566584	了 無 須
-0.44566584	極 無 須
-0.44566584	後 無 須
-0.44566584	民 無 須
-1.0950979	利 率 須
-0.6245481	時 均 須
-0.24244767	時 必 須
-0.24244767	人 必 須
-0.24244767	點 必 須
-1.129215	一 個 機
-1.2392429	後 有 機
-1.1574514	類 似 機
-0.7311233	法 定 機
-0.7311233	特 定 機
-0.62365425	按 危 機
-0.9357212	結 業 令
-1.2036588	機 會 令
-0.6245481	明 顯 令
-0.9222799	過 程 令
-1.756454	市 民 傾
-0.86920834	傾 家 蕩
-1.774452	貸 款 作
-0.76462096	蕩 產 作
-0.8612077	後 便 作
-0.32236874	的 工 作
-0.32236874	管 工 作
-0.9280405	不 想 作
-1.0934242	重 新 作
-0.45321292	的 運 作
-0.45321292	業 運 作
-0.6209837	稱 稍 作
-0.94378865	作 為 負
-0.90356386	局 只 負
-0.93369865	務 處 負
-0.9222799	機 構 負
-1.2692101	介 的 責
-0.97000694	府 有 責
-0.16816309	為 負 責
-0.16816309	只 負 責
-0.16816309	處 負 責
-0.16816309	構 負 責
-0.9266366	有 經 任
-0.47283238	的 責 任
-0.47283238	有 責 任
-0.58325946	負 責 任
-1.6076933	所 以 政
-0.9697517	任 的 政
-1.304789	認 為 政
-1.6833347	中 介 政
-0.6980464	如 果 政
-0.99971855	經 營 政
-0.7621573	增 長 政
-0.9053382	司 而 政
-1.0795169	希 望 政
-1.2396312	因 此 政
-0.05974778	以 政 府
-0.05974778	的 政 府
-0.05974778	為 政 府
-0.05974778	介 政 府
-0.0503984	果 政 府
-0.05974778	營 政 府
-0.05974778	長 政 府
-0.05974778	而 政 府
-0.05974778	望 政 府
-0.05974778	此 政 府
-0.9717527	介 有 否
-0.7218128	司 是 否
-0.7218128	府 是 否
-0.7218128	己 是 否
-1.1666278	是 否 根
-1.0169854	條 件 根
-1.7932045	債 人 不
-0.9086817	零 年 不
-1.5905081	其 實 不
-1.813181	公 司 不
-0.9423171	會 有 不
-0.8100773	實 極 不
-1.0304294	根 本 不
-0.86365736	坊 間 不
-1.1570295	我 亦 不
-0.91294205	款 作 不
-0.8672841	候 也 不
-0.61132985	生 意 不
-1.6104975	監 管 不
-0.8100773	全 追 不
-0.5335276	實 並 不
-0.46455264	況 並 不
-0.46455264	餘 並 不
-0.87815297	須 對 不
-0.66638875	款 而 不
-0.66638875	程 而 不
-0.61132985	活 動 不
-0.7512407	訂 立 不
-1.8108076	條 例 應
-0.8624471	在 回 應
-1.438129	無 法 應
-1.1885549	時 亦 應
-1.2225951	政 府 應
-0.96317345	本 不 應
-1.1279831	款 或 該
-0.94743156	未 到 該
-0.31250265	例 應 該
-0.31250265	亦 應 該
-0.24975316	府 應 該
-0.31250265	不 應 該
-1.012645	知 道 該
-1.580188	處 理 這
-0.7633874	懷 疑 這
-1.4750782	司 在 這
-0.9218562	通 過 這
-0.8240149	該 讓 這
-1.1702969	運 作 這
-0.62009716	委 託 這
-0.85782945	免 供 這
-0.62009716	幫 忙 這
-0.58812773	讓 這 種
-0.58812773	託 這 種
-0.58812773	忙 這 種
-0.24931613	例 情 況
-0.29001814	的 情 況
-0.24931613	種 情 況
-0.24931613	適 情 況
-1.5242789	司 的 發
-0.9646788	年 有 發
-1.6740364	很 多 發
-1.1586769	情 況 發
-1.1544099	收 緊 發
-1.0082933	引 入 發
-1.2492388	沒 有 生
-0.9072346	況 發 生
-0.77251875	發 生 呢
-0.93844205	我 的 修
-1.1881545	天 的 修
-1.240582	條 款 修
-0.96644765	未 有 修
-1.406019	其 他 修
-1.4983679	府 在 修
-0.9393486	稍 作 改
-0.89154065	有 修 改
-1.5650166	處 理 很
-1.2329077	現 時 很
-0.9559414	國 有 很
-1.3652512	案 中 很
-0.9430856	成 是 很
-0.8762521	此 外 很
-0.85477805	顯 令 很
-0.7609307	在 身 很
-0.9037849	選 但 很
-0.61832947	只 佔 很
-0.61832947	計 劃 很
-0.93844205	時 的 廣
-1.1881545	務 的 廣
-1.8103054	貸 款 廣
-1.6837826	很 多 廣
-0.9351378	的 事 廣
-1.0924618	這 種 廣
-0.10742268	的 廣 告
-0.12904681	款 廣 告
-0.12904681	多 廣 告
-0.12904681	事 廣 告
-0.12904681	種 廣 告
-0.9649361	事 人 也
-1.7181104	其 實 也
-1.3505147	廣 告 也
-1.3034632	一 直 也
-0.62365425	時 候 也
-1.7288367	其 實 把
-1.1617405	只 要 把
-1.438015	不 會 把
-0.88833606	告 也 把
-1.220301	借 錢 說
-1.1858318	我 想 說
-0.8334072	吸 引 說
-0.94594985	是 很 容
-1.2237538	借 錢 易
-0.6263188	很 容 易
-0.9245709	告 相 當
-1.6551768	很 多 當
-1.306281	正 案 當
-0.76462096	催 迫 當
-1.3371428	廣 告 當
-0.76462096	就 像 當
-1.0039848	上 限 當
-0.76462096	為 適 當
-1.4017696	其 他 更
-1.6740364	很 多 更
-1.2319791	當 中 更
-1.331472	受 到 更
-1.1001747	展 商 更
-1.3882892	應 該 更
-0.9515126	更 會 寫
-1.3215042	物 業 抵
-0.6266429	業 抵 押
-1.9268802	可 以 幫
-2.0553644	公 司 幫
-0.9516367	幫 到 你
-0.9065854	時 接 近
-1.5227516	看 到 近
-0.77170056	的 數 目
-0.92528194	司 數 目
-1.7164128	現 時 由
-1.2152256	也 是 由
-0.92050755	數 目 由
-1.1793636	理 想 由
-1.0104637	研 究 由
-0.9065854	由 二 零
-0.9568728	零 一 零
-0.9691229	年 不 足
-0.6266429	不 足 八
-0.9568728	供 一 百
-0.6263188	足 八 百
-0.9446837	間 上 升
-0.8920492	款 以 至
-0.8920492	會 以 至
-0.6263188	上 升 至
-0.90713936	近 二 千
-0.95464176	間 可 知
-1.7326336	市 民 知
-0.9659078	實 不 知
-0.8322617	不 自 知
-0.9691229	司 不 愁
-1.7526901	市 民 沒
-0.6263188	不 愁 沒
-0.77251875	有 生 意
-0.9595959	構 以 監
-0.9715056	格 的 監
-0.9218562	不 過 監
-0.64052886	間 接 監
-0.74855554	直 接 監
-1.0538305	有 效 監
-1.292589	負 責 監
-0.85782945	實 把 監
-0.9992484	管 局 監
-0.7633874	局 ) 監
-0.066815525	以 監 管
-0.066815525	的 監 管
-0.066815525	過 監 管
-0.05628703	接 監 管
-0.066815525	效 監 管
-0.066815525	責 監 管
-0.066815525	把 監 管
-0.05628703	局 監 管
-0.066815525	) 監 管
-0.8891814	格 規 管
-0.29023573	出 金 管
-0.29023573	過 金 管
-0.29023573	由 金 管
-0.29023573	但 金 管
-0.29023573	然 金 管
-0.29023573	( 金 管
-0.9222799	金 融 管
-0.98393965	理 的 工
-1.7159371	監 管 工
-0.9711009	難 以 追
-1.2682431	完 全 追
-1.0148373	警 方 追
-0.9845922	目 的 增
-0.6263188	的 增 長
-0.91766006	強 局 長
-0.90713936	十 二 月
-0.98393965	正 的 緊
-0.61523914	在 收 緊
-0.61523914	案 收 緊
-0.61523914	月 收 緊
-1.9227731	債 人 牌
-0.47167647	的 發 牌
-0.47167647	緊 發 牌
-0.47167647	入 發 牌
-1.1574514	收 緊 牌
-0.82971764	棄 續 牌
-0.3418658	司 持 牌
-0.3418658	名 持 牌
-0.3418658	否 持 牌
-0.6822359	人 牌 照
-0.6822359	緊 牌 照
-1.0709329	有 效 落
-0.86953455	大 眾 落
-0.968625	人 不 得
-0.868642	在 取 得
-1.694983	款 人 另
-0.9785927	費 的 規
-1.1574514	類 似 規
-0.62365425	否 違 規
-0.92050755	嚴 格 規
-0.62365425	守 則 規
-1.2075458	民 一 定
-0.94542813	立 法 定
-0.41404527	的 規 定
-0.41404527	似 規 定
-0.41404527	則 規 定
-0.62187207	須 確 定
-0.88775253	由 特 定
-0.62187207	融 穩 定
-0.76585805	出 決 定
-1.8229458	貸 款 訂
-0.9410725	心 上 訂
-0.5999851	款 修 訂
-0.5999851	在 修 訂
-0.9222799	清 楚 訂
-0.96293885	項 時 均
-0.9339714	均 須 確
-0.86920834	經 任 何
-1.3337836	其 實 已
-2.0371306	公 司 已
-1.5003629	我 們 已
-0.90356386	經 接 受
-1.307309	一 直 受
-0.83115506	陸 續 受
-1.012645	費 者 受
-1.2738936	人 的 委
-0.6266429	的 委 託
-1.1677532	責 任 置
-0.6263188	任 置 於
-0.906279	者 對 於
-1.9561007	債 人 身
-0.97460127	務 在 身
-1.3218797	在 過 往
-0.9803827	到 的 眾
-0.96822363	方 有 眾
-0.8664511	民 大 眾
-0.6245481	過 往 眾
-0.8340081	有 報 道
-0.5408846	民 知 道
-0.5408846	不 知 道
-1.2408069	而 不 自
-1.0148373	知 道 自
-0.92405957	清 楚 自
-0.4562518	道 自 己
-0.4562518	楚 自 己
-0.92644775	自 己 簽
-0.9516367	簽 了 甚
-0.6266429	了 甚 麼
-0.6266429	甚 麼 文
-0.81152236	牌 條 件
-0.98316675	照 條 件
-0.6263188	麼 文 件
-1.2662464	利 息 和
-1.739275	中 介 和
-1.207067	社 會 和
-0.8024149	較 理 想
-0.8024149	不 理 想
-0.94773036	想 一 想
-0.8460557	後 我 想
-1.0354817	但 我 想
-1.6946466	市 民 想
-1.1106951	如 果 想
-1.3731542	並 不 想
-0.9235109	決 定 想
-0.76462096	以 再 想
-1.637675	處 理 使
-0.938929	果 想 使
-0.77251875	想 使 詐
-0.6266429	使 詐 隱
-0.6266429	詐 隱 瞞
-0.86920834	有 否 違
-1.4415969	條 例 並
-1.3294326	其 實 並
-1.1643842	情 況 並
-0.6245481	之 餘 並
-1.1344516	實 並 非
-0.9706573	令 人 難
-0.6263188	並 非 難
-1.2657361	天 的 議
-0.5396556	成 原 議
-0.5396556	持 原 議
-1.3246918	實 上 議
-0.24244767	的 建 議
-0.24244767	出 建 議
-0.24244767	此 建 議
-0.9397519	至 業 界
-1.9104017	可 以 直
-0.59198344	後 一 直
-0.59198344	界 一 直
-0.59198344	黨 一 直
-0.59198344	局 一 直
-1.4032029	應 該 直
-0.8917078	直 也 懷
-0.9337742	疑 這 措
-0.89118546	出 新 措
-0.3243204	這 措 施
-0.3243204	新 措 施
-1.1537467	例 如 坊
-0.8325973	報 道 指
-1.0148373	多 次 指
-1.1672662	特 別 指
-0.5877044	到 有 些
-1.0987861	後 有 些
-0.7838604	以 現 金
-0.7838604	有 現 金
-1.3437957	指 出 金
-1.1562606	透 過 金
-0.85630107	和 本 金
-0.87785244	究 由 金
-0.9053382	全 但 金
-1.0514328	雖 然 金
-0.61921245	香 港 金
-0.7621573	局 ( 金
-0.85630107	系 及 金
-0.75464964	以 收 取
-0.5264807	金 收 取
-0.97460127	會 在 取
-0.8325973	取 手 續
-0.6254438	經 陸 續
-0.6254438	放 棄 續
-0.9737038	費 以 逃
-0.6266429	以 逃 避
-1.3284324	實 上 警
-0.8892231	時 由 警
-0.6254438	逃 避 警
-0.9337742	在 這 方
-0.4560783	上 警 方
-0.4560783	避 警 方
-0.8340081	方 追 查
-0.6263188	免 審 查
-1.9268802	可 以 再
-0.7720654	追 查 再
-0.76005363	消 費 者
-0.7720654	查 再 者
-1.2935541	必 須 對
-0.9042982	法 應 對
-0.82971764	再 者 對
-0.32329178	會 反 對
-0.32329178	此 反 對
-0.62365425	二 針 對
-1.7508178	中 介 濫
-1.9694322	公 司 但
-1.3103565	正 案 但
-1.2508386	問 費 但
-1.0872375	利 率 但
-0.91118187	安 全 但
-0.62187207	地 步 但
-0.62187207	人 選 但
-1.0177826	最 終 申
-0.6266429	終 申 請
-0.89142674	能 成 功
-1.7860774	貸 款 而
-1.9694322	公 司 而
-0.9321987	此 事 而
-1.2508386	問 費 而
-0.925172	穩 定 而
-1.0061337	制 度 而
-0.9169844	過 程 而
-0.91850764	費 而 突
-2.0371306	公 司 然
-0.6254438	而 突 然
-0.32390827	了 雖 然
-0.32390827	三 雖 然
-0.86920834	突 然 失
-0.6266429	然 失 蹤
-0.25362328	的 問 題
-0.25362328	了 問 題
-0.25362328	有 問 題
-0.25362328	多 問 題
-0.25362328	這 問 題
-0.25362328	對 問 題
-1.381145	以 我 希
-1.2422861	建 議 希
-0.92405957	安 排 希
-0.24293427	我 希 望
-0.24293427	議 希 望
-0.24293427	排 希 望
-1.9331365	可 以 盡
-0.6266429	以 盡 快
-0.5184616	行 全 面
-0.5184616	是 全 面
-0.5184616	快 全 面
-0.8340081	這 方 面
-1.2942065	府 在 檢
-0.8983451	而 在 檢
-0.35142878	全 面 檢
-0.25844067	在 檢 討
-0.18791756	面 檢 討
-0.58787453	的 相 關
-0.58787453	或 相 關
-0.58787453	討 相 關
-0.8073921	出 有 關
-0.8073921	使 有 關
-0.8073921	討 有 關
-0.37407058	民 主 黨
-1.3743074	以 我 認
-1.2935541	必 須 認
-1.5812799	政 府 認
-0.94437474	應 該 認
-1.3034632	一 直 認
-0.9715056	期 的 處
-0.90689725	警 務 處
-1.2646753	需 要 處
-0.92927927	辦 事 處
-0.73683274	認 真 處
-1.292589	負 責 處
-0.62009716	優 先 處
-0.8240149	尺 度 處
-1.4072509	不 同 處
-1.3158832	負 責 執
-0.868642	會 把 執
-1.8103054	貸 款 特
-0.945222	家 會 特
-0.88594383	想 由 特
-1.1793636	我 想 特
-0.76834285	民 ( 特
-0.59018064	定 機 構
-1.379174	眾 多 職
-0.96293885	多 時 候
-1.2467506	相 關 具
-0.77251875	具 體 細
-0.6266429	體 細 節
-0.92723346	為 要 優
-0.6266429	要 優 先
-0.82924485	時 多 次
-0.82924485	黨 多 次
-0.8340081	美 國 次
-0.9287736	案 所 提
-1.9694322	公 司 提
-0.91118187	料 如 提
-0.9582908	中 我 提
-1.0061337	多 次 提
-0.45449966	樓 盤 提
-0.8268569	開 始 提
-1.2692101	務 的 建
-1.4522624	提 出 建
-0.9159502	應 此 建
-1.132545	反 對 透
-1.1003512	希 望 透
-1.1805447	透 過 香
-0.6266429	過 香 港
-0.7553658	港 金 融
-0.7553658	及 金 融
-0.9520807	管 理 局
-0.15164566	金 管 局
-0.7708419	家 強 局
-1.7526901	市 民 (
-0.91766006	理 局 (
-0.9706573	青 人 )
-1.4448082	管 局 )
-0.47167647	理 因 此
-0.47167647	對 因 此
-0.47167647	額 因 此
-0.9042982	回 應 此
-0.76834285	局 長 此
-1.1574514	收 取 此
-0.62365425	我 謹 此
-0.9691621	討 以 及
-1.3228178	議 案 及
-1.0950979	體 系 及
-0.9169205	如 提 及
-0.92644775	金 融 穩
-1.1336378	例 並 且
-0.91792965	定 而 且
-1.8103054	貸 款 按
-0.9522967	的 一 按
-0.90121627	在 樓 按
-0.82971764	國 次 按
-0.62365425	樓 宇 按
-0.95357466	按 市 場
-0.90713936	場 只 佔
-0.94192654	別 為 小
-0.82971764	區 分 小
-1.6837826	很 多 小
-0.8639972	中 就 小
-0.9438604	佔 很 小
-0.89247406	很 小 份
-0.24924316	為 小 額
-0.24924316	分 小 額
-0.24924316	多 小 額
-0.24924316	就 小 額
-0.6263188	小 份 額
-1.4488003	不 會 反
-1.2700863	因 此 反
-1.787482	借 貸 前
-1.8359653	貸 款 前
-0.8671143	數 天 前
-0.9335314	問 過 陳
-0.91766006	謹 此 陳
-0.868642	陳 家 強
-1.3150059	一 直 強
-1.9268802	可 以 給
-0.9443278	他 亦 給
-1.1808839	我 相 若
-0.9845922	若 的 答
-0.6266429	的 答 覆
-0.6469576	有 發 展
-0.6469576	多 發 展
-1.1088026	展 商 屬
-1.447204	提 出 新
-0.94378865	司 為 新
-0.90291154	旗 下 新
-0.4551291	以 重 新
-0.4551291	前 重 新
-0.5965823	新 樓 盤
-0.6824838	司 提 供
-0.48860666	盤 提 供
-0.868642	息 免 供
-0.9068967	的 樓 宇
-0.6013268	款 按 揭
-0.6013268	宇 按 揭
-1.3402328	市 民 買
-0.9481692	更 為 旗
-0.93529963	首 年 免
-0.9142034	免 息 免
-0.7695906	審 查 免
-1.1605144	提 供 免
-0.86920834	供 免 審
-0.86920834	查 免 壓
-0.77251875	壓 力 測
-0.6266429	力 測 試
-0.8917078	一 按 計
-0.6266429	按 計 劃
-0.9593479	更 是 首
-0.9343359	曾 相 識
-0.868642	識 就 像
-0.7720654	到 好 像
-0.9395949	當 年 美
-0.8892231	在 外 國
-0.6254438	年 美 國
-1.439359	不 同 國
-0.8917078	次 按 危
-0.98218006	要 的 始
-0.86777186	的 原 始
-0.6254438	經 開 始
-0.834531	原 始 翻
-0.6266429	始 翻 版
-0.8671143	說 回 今
-1.2513368	出 在 今
-0.95698375	只 是 今
-1.1899123	今 天 仍
-0.834531	該 地 步
-1.1013173	有 些 苗
-0.6266429	些 苗 頭
-0.95098484	現 了 雖
-0.6263188	第 三 雖
-0.77251875	直 強 調
-0.92644775	上 述 活
-0.6266429	述 活 動
-0.89637196	不 會 影
-0.45725954	會 影 響
-1.6291672	處 理 安
-1.09775	體 系 安
-1.2422861	有 關 安
-1.3699875	已 經 開
-1.2323561	認 真 研
-1.2455407	有 關 研
-0.8340081	以 追 究
-0.3242091	真 研 究
-0.3242091	關 研 究
-0.95098484	說 到 好
-0.9065854	他 更 好
-0.7720654	更 好 辦
-0.9258017	註 冊 辦
-1.2116609	亦 會 支
-2.0191913	公 司 持
-0.86555296	一 名 持
-1.1605144	是 否 持
-0.6245481	會 支 持
-1.0177826	研 究 設
-0.89083064	款 訂 立
-0.6263188	究 設 立
-1.1013173	主 黨 贊
-0.24931613	款 特 別
-0.24931613	會 特 別
-0.24931613	想 特 別
-0.24931613	( 特 別
-1.9104017	可 以 重
-0.93369114	實 最 重
-0.8325973	款 前 重
-1.1305468	直 接 引
-0.7708419	並 且 引
-0.6254438	當 吸 引
-0.7720654	眾 落 入
-0.4560783	接 引 入
-0.4560783	且 引 入
-0.8897765	似 機 制
-0.7592443	發 牌 制
-0.8325973	所 限 制
-0.564673	牌 制 度
-0.6263188	同 尺 度
-0.94439507	有 數 點
-1.3820205	例 時 必
-1.243613	牌 人 必
-0.6254438	數 點 必
-1.509435	我 們 俗
-0.868642	司 名 稱
-0.6263188	們 俗 稱
-0.9845922	稱 的 paydayloans
-0.95732176	即 出 糧
-0.6266429	出 糧 日
-1.3699875	已 經 陸
-0.64667547	到 更 嚴
-0.64667547	該 更 嚴
-0.45725954	更 嚴 格
-0.9322591	以 相 同
-0.5399044	有 不 同
-0.5399044	作 不 同
-0.5399044	管 不 同
-0.5399044	對 不 同
-0.6232788	而 不 同
-0.5399044	立 不 同
-0.8892231	是 由 同
-1.1537467	例 如 區
-1.8539852	貸 款 與
-1.014295	不 同 性
-0.45725954	同 性 質
-0.9344739	有 所 限
-0.7715186	息 上 限
-0.7715186	金 上 限
-0.92723346	或 要 延
-0.6266429	要 延 遲
-0.9182941	相 同 尺
-0.93489	至 所 謂
-0.4562518	理 安 排
-0.4562518	關 安 排
-0.92644775	安 排 既
-0.89142674	既 能 切
-0.954399	和 實 際
-1.2692101	真 的 需
-1.398002	他 們 需
-0.6254438	實 際 需
-1.5435255	司 的 運
-1.3159626	商 業 運
-0.8325973	行 營 運
-1.1339945	第 二 針
-0.9182941	道 該 等
-1.9331365	可 以 解
-1.3635949	作 出 決
-0.6263188	以 解 決
-0.954515	項 後 結
-1.1082853	題 第 三
-0.94749	須 為 適
-0.89118546	在 合 適
-0.97135586	當 人 選
-0.97135586	關 人 士
-0.97524744	士 在 背
-0.954515	背 後 操
-0.6266429	後 操 縱
-1.509435	我 們 從
-1.9561007	債 人 註
-1.1074258	重 新 註
-0.3243204	人 註 冊
-0.3243204	新 註 冊
-0.9845922	處 的 紀
-0.6266429	的 紀 錄
-0.9609381	在 放 棄
-0.77251875	名 稱 稍
-0.8349419	營 運 守
-0.6266429	運 守 則
-1.5030426	銀 行 服
-0.9826076	廣 告 宣
-0.45725954	告 宣 傳
-0.77251875	傳 資 料
-0.92723346	相 當 吸
-1.6498629	還 款 般
-0.6266429	款 般 叫
-0.8671143	程 令 消
-0.93713355	民 想 消
-0.92405957	保 障 消
-0.9561391	時 可 隨
-0.96293885	隨 時 找
-0.77251875	司 幫 忙
-0.9182941	傳 明 顯
-0.7346888	貸 過 程
-0.7346888	這 過 程
-1.4413105	出 了 冷
-0.6266429	了 冷 靜
-0.6266429	冷 靜 期
-0.9395949	是 年 青
-0.5411094	款 清 楚
-0.5411094	想 清 楚
-1.1808839	我 相 信
-0.4562518	在 保 障
-0.4562518	到 保 障
-1.0177826	費 者 之
-0.6266429	者 之 餘
-0.86920834	的 緊 急
-0.77251875	以 給 予
-1.401927	介 人 帶
-1.3507007	受 到 催
-1.8639864	條 例 進
-0.86920834	以 及 通
-0.9592333	障 多 謝
-0.96529114	席 我 謹
-0.77251875	此 陳 辭

\end\
