\data\
ngram 1=332
ngram 2=658
ngram 3=762

\1-grams:
-2.809595	<unk>	0
0	<s>	-0.06652739
-2.674448	</s>	0
-2.560627	代	-0.08823052
-2.239296	理	-0.07507895
-2.560627	主	-0.06652739
-2.674448	席	-0.06652739
-2.5647578	對	-0.08087495
-2.560627	於	-0.06652739
-2.560627	逃	-0.08823052
-2.674448	犯	-0.06652739
-2.674448	條	-0.06652739
-2.560627	例	-0.06652739
-2.674448	暫	-0.06652739
-2.674448	緩	-0.06652739
-2.674448	修	-0.06652739
-2.674448	訂	-0.06652739
-1.5931096	我	-0.34164914
-2.674448	感	-0.06652739
-2.3722272	到	-0.06652739
-2.560627	非	-0.08823052
-2.674448	常	-0.06652739
-2.239296	無	-0.07507895
-2.674448	奈	-0.06652739
-2.560627	可	-0.06652739
-2.674448	惜	-0.06652739
-2.055357	和	-0.3505862
-2.5647578	難	-0.06652739
-2.5647578	過	-0.06652739
-2.1376605	因	-0.6299728
-2.1376605	為	-0.0703936
-2.055357	這	-0.07125746
-2.674448	導	-0.06652739
-2.674448	致	-0.06652739
-2.674448	公	-0.06652739
-2.674448	義	-0.06652739
-2.5647578	未	-0.7378225
-2.3722272	能	-0.06652739
-2.674448	彰	-0.06652739
-2.674448	顯	-0.06652739
-2.5647578	法	-0.06652739
-1.4067318	的	-0.106738836
-2.674448	漏	-0.06652739
-2.674448	洞	-0.06652739
-2.5647578	亦	-0.06652739
-2.674448	堵	-0.06652739
-2.674448	塞	-0.06652739
-2.560627	香	-0.08823052
-2.674448	港	-0.06652739
-2.674448	繼	-0.06652739
-2.674448	續	-0.06652739
-1.6785817	有	-0.13727383
-2.674448	成	-0.06652739
-2.5647578	天	-0.08087495
-2.674448	堂	-0.06652739
-2.3722272	同	-0.06652739
-2.3722272	時	-0.06652739
-2.560627	解	-0.06652739
-2.674448	政	-0.06652739
-2.674448	府	-0.06652739
-2.674448	作	-0.06652739
-2.560627	出	-0.06652739
-2.5647578	個	-0.06652739
-2.674448	艱	-0.06652739
-2.560627	決	-0.08823052
-2.560627	定	-0.06652739
-2.674448	背	-0.06652739
-2.5647578	後	-0.06652739
-2.674448	原	-0.06652739
-2.560627	們	-0.06652739
-2.560627	實	-0.06652739
-2.674448	在	-0.06652739
-1.7851024	不	-0.07309049
-2.560627	想	-0.06652739
-2.560627	再	-0.06652739
-2.674448	見	-0.06652739
-2.674448	斷	-0.06652739
-2.674448	升	-0.06652739
-2.674448	級	-0.06652739
-2.1376605	暴	-0.43950504
-2.560627	力	-0.06652739
-2.055357	衝	-0.50645185
-2.560627	擊	-0.07261843
-2.055357	以	-0.07879606
-2.560627	及	-0.06652739
-2.560627	流	-0.08823052
-2.674448	血	-0.06652739
-2.560627	事	-0.06652739
-2.674448	件	-0.06652739
-2.5647578	社	-0.7378225
-2.239296	會	-0.07078211
-2.560627	進	-0.06652739
-1.9861939	一	-0.07125746
-2.674448	步	-0.06652739
-2.674448	撕	-0.06652739
-2.674448	裂	-0.06652739
-1.9861939	人	-0.070070066
-2.560627	但	-0.06652739
-2.560627	論	-0.06652739
-2.674448	基	-0.06652739
-2.5647578	何	-0.06652739
-2.5647578	種	-0.06652739
-2.560627	由	-0.06652739
-2.674448	平	-0.06652739
-2.674448	上	-0.06652739
-2.674448	街	-0.06652739
-2.560627	集	-0.08823052
-1.8741117	示	-1.2607012
-2.674448	威	-0.06652739
-1.7466186	是	-0.14088947
-2.560627	所	-0.06652739
-2.674448	尊	-0.06652739
-2.5647578	重	-0.08087495
-2.560627	保	-0.08823052
-2.674448	護	-0.06652739
-2.674448	相	-0.06652739
-2.674448	信	-0.06652739
-2.674448	絕	-0.06652739
-1.9861939	大	-0.30314818
-2.239296	多	-0.07507895
-2.560627	數	-0.073641926
-2.674448	均	-0.06652739
-2.674448	希	-0.06652739
-2.674448	望	-0.06652739
-2.674448	任	-0.06652739
-2.560627	或	-0.06652739
-1.926547	警	-0.66303366
-2.560627	民	-0.06652739
-2.674448	突	-0.06652739
-2.674448	情	-0.06652739
-2.674448	況	-0.06652739
-2.674448	現	-0.06652739
-2.674448	唯	-0.06652739
-2.674448	恐	-0.06652739
-2.5647578	下	-0.077243395
-2.674448	亂	-0.06652739
-2.674448	除	-0.06652739
-2.674448	外	-0.06652739
-2.674448	就	-0.06652739
-2.674448	項	-0.06652739
-2.674448	急	-0.06652739
-2.674448	切	-0.06652739
-2.674448	質	-0.06652739
-2.674448	詢	-0.06652739
-2.674448	認	-0.06652739
-2.674448	首	-0.06652739
-2.5647578	先	-0.06652739
-2.239296	要	-0.06652739
-2.560627	清	-0.06652739
-2.674448	楚	-0.06652739
-2.674448	點	-0.06652739
-2.674448	求	-0.06652739
-2.674448	偏	-0.06652739
-2.560627	概	-0.06652739
-2.674448	全	-0.06652739
-2.674448	市	-0.06652739
-2.674448	佔	-0.06652739
-2.560627	小	-0.06652739
-2.674448	撮	-0.06652739
-2.5647578	採	-0.08087495
-2.674448	取	-0.06652739
-2.674448	行	-0.06652739
-2.560627	動	-0.06652739
-2.5647578	違	-0.7378225
-2.674448	將	-0.06652739
-2.1376605	他	-0.6299728
-2.674448	形	-0.06652739
-2.674448	容	-0.06652739
-2.674448	徒	-0.06652739
-2.674448	部	-0.06652739
-2.560627	分	-0.06652739
-2.5647578	而	-0.06652739
-2.674448	視	-0.06652739
-2.5647578	少	-0.077243395
-2.674448	激	-0.06652739
-2.560627	正	-0.06652739
-2.5647578	如	-0.06652739
-2.674448	便	-0.06652739
-2.674448	指	-0.06652739
-2.674448	參	-0.06652739
-2.674448	加	-0.06652739
-2.674448	總	-0.06652739
-2.674448	之	-0.06652739
-2.674448	應	-0.06652739
-2.5647578	開	-0.06652739
-2.674448	討	-0.06652739
-2.560627	很	-0.06652739
-2.560627	反	-0.08823052
-2.674448	派	-0.06652739
-2.674448	議	-0.06652739
-2.674448	員	-0.06652739
-2.560627	口	-0.06652739
-2.674448	埋	-0.06652739
-2.3722272	說	-0.06652739
-2.674448	者	-0.06652739
-2.5647578	手	-0.08087495
-2.674448	寸	-0.06652739
-2.3722272	鐵	-0.06652739
-2.674448	卻	-0.06652739
-2.674448	塗	-0.06652739
-2.674448	脂	-0.06652739
-2.674448	抹	-0.06652739
-2.674448	粉	-0.06652739
-2.239296	方	-0.06652739
-2.674448	式	-0.06652739
-2.674448	睜	-0.06652739
-2.674448	眼	-0.06652739
-2.674448	瞎	-0.06652739
-2.674448	話	-0.06652739
-2.674448	悲	-0.06652739
-2.674448	哀	-0.06652739
-2.560627	看	-0.08087495
-2.674448	六	-0.06652739
-2.674448	月	-0.06652739
-2.560627	十	-0.06652739
-2.560627	二	-0.06652739
-2.674448	日	-0.06652739
-2.674448	整	-0.06652739
-2.560627	立	-0.08823052
-2.674448	樓	-0.06652739
-2.560627	被	-0.06652739
-2.674448	量	-0.06652739
-2.674448	士	-0.06652739
-2.674448	包	-0.06652739
-2.674448	圍	-0.06652739
-2.674448	令	-0.06652739
-2.674448	直	-0.06652739
-2.5647578	至	-0.06652739
-2.674448	午	-0.06652739
-2.560627	三	-0.06652739
-2.239296	用	-0.06652739
-2.560627	磚	-0.08823052
-2.674448	頭	-0.06652739
-2.560627	削	-0.08823052
-2.674448	尖	-0.06652739
-2.674448	通	-0.06652739
-2.674448	各	-0.06652739
-2.674448	傷	-0.06652739
-2.674448	害	-0.06652739
-2.5647578	甚	-0.08087495
-2.674448	殺	-0.06652739
-2.674448	工	-0.06652739
-2.674448	具	-0.06652739
-2.560627	等	-0.06652739
-2.674448	防	-0.06652739
-2.674448	線	-0.06652739
-2.674448	着	-0.06652739
-2.560627	越	-0.06652739
-2.5647578	退	-0.06652739
-2.674448	最	-0.06652739
-2.674448	距	-0.06652739
-2.674448	離	-0.06652739
-2.674448	區	-0.06652739
-2.674448	玻	-0.06652739
-2.674448	璃	-0.06652739
-2.674448	門	-0.06652739
-2.674448	足	-0.06652739
-2.674448	幾	-0.06652739
-2.560627	呎	-0.06652739
-2.674448	地	-0.06652739
-2.560627	名	-0.08823052
-2.674448	察	-0.06652739
-2.674448	迫	-0.06652739
-2.674448	牆	-0.06652739
-2.674448	角	-0.06652739
-2.674448	其	-0.06652739
-2.674448	中	-0.06652739
-2.674448	好	-0.06652739
-2.5647578	學	-0.06652739
-2.674448	跟	-0.06652739
-2.3722272	當	-0.077243395
-2.674448	真	-0.06652739
-2.674448	走	-0.06652739
-2.674448	投	-0.06652739
-2.674448	路	-0.06652739
-2.674448	父	-0.06652739
-2.674448	母	-0.06652739
-2.674448	支	-0.06652739
-2.674448	服	-0.06652739
-2.674448	務	-0.06652739
-2.674448	優	-0.06652739
-2.674448	秀	-0.06652739
-2.674448	團	-0.06652739
-2.674448	隊	-0.06652739
-2.674448	樣	-0.06652739
-2.674448	家	-0.06652739
-2.674448	道	-0.06652739
-2.674448	生	-0.06652739
-2.674448	命	-0.06652739
-2.674448	嗎	-0.06652739
-2.560627	問	-0.06652739
-2.560627	局	-0.06652739
-2.560627	長	-0.06652739
-2.674448	否	-0.06652739
-2.674448	晰	-0.06652739
-2.674448	紀	-0.06652739
-2.674448	錄	-0.06652739
-2.674448	哪	-0.06652739
-2.560627	挑	-0.06652739
-2.674448	起	-0.06652739
-2.674448	眾	-0.06652739
-2.560627	還	-0.06652739
-2.674448	釁	-0.06652739
-2.674448	果	-0.06652739
-2.560627	了	-0.06652739
-2.674448	間	-0.06652739
-2.674448	使	-0.06652739
-2.674448	麼	-0.06652739
-2.3722272	武	-0.08823052
-2.674448	器	-0.06652739
-2.674448	才	-0.06652739
-2.674448	塊	-0.06652739
-2.560627	枝	-0.06652739
-2.560627	確	-0.06652739
-2.674448	此	-0.06652739
-2.674448	米	-0.06652739
-2.674448	關	-0.06652739
-2.674448	些	-0.06652739
-2.674448	沒	-0.06652739
-2.560627	準	-0.06652739
-2.674448	科	-0.06652739
-2.560627	統	-0.08823052
-2.674448	計	-0.06652739
-2.674448	程	-0.06652739
-2.674448	度	-0.06652739
-2.674448	自	-0.06652739
-2.674448	己	-0.06652739
-2.674448	合	-0.06652739
-2.674448	則	-0.06652739
-2.674448	面	-0.06652739
-2.674448	資	-0.06652739
-2.674448	料	-0.06652739

\2-grams:
-0.84210646	料 </s>	0
-0.84046704	<s> 代	-0.0562273
-0.84046704	路 代	-0.0562273
-0.7245619	代 理	-0.024012264
-1.1194173	常 理	-0.0562273
-2.034229	的 理	-0.0562273
-1.281597	種 理	-0.0562273
-0.8327592	合 理	-0.0562273
-1.5125868	理 主	-0.024012264
-1.5119369	察 主	-0.0562273
-1.137689	主 席	-0.0562273
-1.1345893	席 對	-0.0562273
-1.849119	人 對	-0.0562273
-0.73031354	反 對	-0.024012264
-0.9036105	對 於	-0.024012264
-0.84046704	基 於	-0.0562273
-1.134457	於 逃	-0.024012264
-1.8167173	為 逃	-0.0562273
-0.7314734	逃 犯	-0.034487315
-1.137689	犯 條	-0.024012264
-0.84046704	條 例	-0.0562273
-1.4217404	法 例	-0.0562273
-1.3084004	例 暫	-0.0562273
-0.84210646	暫 緩	-0.0562273
-0.84210646	緩 修	-0.0562273
-0.84210646	修 訂	-0.0562273
-0.7853551	訂 我	-0.0562273
-1.1596498	過 我	-0.0562273
-1.4607534	為 我	-0.0562273
-1.6074106	的 我	-0.0562273
-1.2410642	時 我	-0.0562273
-1.3811586	以 我	-0.0562273
-0.74023116	是 我	-0.034487315
-0.7853551	詢 我	-0.0562273
-1.1596498	如 我	-0.0562273
-0.7853551	之 我	-0.0562273
-1.3748341	方 我	-0.0562273
-0.7853551	話 我	-0.0562273
-0.7853551	哀 我	-0.0562273
-0.7853551	令 我	-0.0562273
-1.0319357	線 我	-0.0562273
-0.7853551	跟 我	-0.0562273
-0.7853551	嗎 我	-0.0562273
-1.1596498	器 我	-0.0562273
-2.073718	我 感	-0.0562273
-0.83662933	感 到	-0.0562273
-0.83662933	見 到	-0.0562273
-0.8993187	看 到	-0.0562273
-1.2925643	退 到	-0.0562273
-2.0591075	我 非	-0.0562273
-1.5119369	到 非	-0.0562273
-0.7314734	非 常	-0.0562273
-1.1194173	常 無	-0.0562273
-1.281597	而 無	-0.0562273
-1.2829338	手 無	-0.024012264
-0.8327592	卻 無	-0.0562273
-0.8327592	投 無	-0.0562273
-1.5201942	無 奈	-0.0562273
-0.84046704	奈 可	-0.0562273
-1.984658	有 可	-0.0562273
-1.137689	可 惜	-0.0562273
-0.82512087	惜 和	-0.0562273
-1.7138283	人 和	-0.0562273
-1.1047575	由 和	-0.0562273
-1.262406	重 和	-0.0562273
-1.1047575	全 和	-0.0562273
-0.82512087	加 和	-0.0562273
-1.1047575	母 和	-0.0562273
-1.667459	和 難	-0.0562273
-0.8405342	艱 難	-0.0562273
-1.849119	人 難	-0.0562273
-1.3038158	難 過	-0.0562273
-1.8173482	為 過	-0.0562273
-1.1345893	尖 過	-0.0562273
-1.2708999	過 因	-0.0562273
-1.5955251	因 因	-0.0562273
-1.5761174	能 因	-0.024012264
-0.8289232	原 因	-0.0562273
-0.8289232	此 因	-0.0562273
-1.1120255	計 因	-0.0562273
-0.12866154	因 為	-0.045221306
-0.8289232	成 為	-0.0562273
-1.7674968	不 為	-0.0562273
-0.8289232	認 為	-0.034487315
-1.1120255	行 為	-0.0562273
-0.8289232	容 為	-0.0562273
-1.3881341	為 這	-0.039821133
-1.830555	有 這	-0.0562273
-1.1047575	出 這	-0.0562273
-1.7138283	人 這	-0.0562273
-0.82512087	就 這	-0.0562273
-1.2604599	而 這	-0.0562273
-0.82512087	關 這	-0.0562273
-1.7550565	這 導	-0.0562273
-0.84210646	導 致	-0.0562273
-0.84210646	致 公	-0.0562273
-0.84210646	公 義	-0.0562273
-0.8405342	義 未	-0.0562273
-1.3038158	亦 未	-0.0562273
-1.8167579	們 未	-0.0562273
-1.126937	可 能	-0.0562273
-0.08730435	未 能	-0.056227274
-1.4965994	不 能	-0.034487315
-1.2925643	種 能	-0.0562273
-1.6555002	能 彰	-0.0562273
-0.84210646	彰 顯	-0.0562273
-0.8405342	顯 法	-0.0562273
-0.08745196	違 法	-0.034487315
-0.73031354	立 法	-0.024012264
-1.0916541	例 的	-0.0562273
-1.0916541	過 的	-0.0562273
-0.9802792	港 的	-0.0562273
-1.2073501	同 的	-0.0562273
-1.0916541	後 的	-0.0562273
-1.3321475	們 的	-0.0562273
-0.755327	級 的	-0.0562273
-1.2418259	力 的	-0.0562273
-1.2720317	擊 的	-0.0562273
-1.1544468	會 的	-0.0562273
-1.1938223	人 的	-0.056227274
-1.2418259	威 的	-0.0562273
-0.9802792	護 的	-0.0562273
-0.9802792	突 的	-0.0562273
-0.755327	亂 的	-0.0562273
-1.2418259	要 的	-0.0562273
-1.2418259	鐵 的	-0.0562273
-0.755327	粉 的	-0.0562273
-1.2682426	方 的	-0.024012264
-1.2682426	用 的	-0.0562273
-0.9802792	尖 的	-0.0562273
-0.9802792	呎 的	-0.0562273
-0.755327	好 的	-0.0562273
-1.0916541	學 的	-0.0562273
-0.755327	真 的	-0.0562273
-0.755327	度 的	-0.0562273
-0.755327	面 的	-0.0562273
-2.194543	的 漏	-0.0562273
-0.84210646	漏 洞	-0.0562273
-0.8405342	洞 亦	-0.0562273
-1.1345893	但 亦	-0.0562273
-1.1345893	徒 亦	-0.0562273
-1.6555002	能 堵	-0.0562273
-0.84210646	堵 塞	-0.0562273
-0.84046704	塞 香	-0.0562273
-0.84046704	務 香	-0.0562273
-0.7314734	香 港	-0.0562273
-1.137689	港 繼	-0.0562273
-0.84210646	繼 續	-0.0562273
-1.1849061	例 有	-0.0562273
-1.1849061	亦 有	-0.0562273
-0.79584426	續 有	-0.0562273
-1.2717158	時 有	-0.0562273
-1.0506164	再 有	-0.0562273
-0.79584426	望 有	-0.0562273
-1.0506164	概 有	-0.0562273
-1.2717158	者 有	-0.0562273
-0.8539742	手 有	-0.0562273
-1.3803257	鐵 有	-0.0562273
-1.4170957	方 有	-0.0562273
-0.79584426	樣 有	-0.0562273
-1.1849061	局 有	-0.0562273
-0.79584426	否 有	-0.0562273
-0.79584426	沒 有	-0.0562273
-1.6555002	能 成	-0.0562273
-1.1345893	犯 天	-0.0562273
-0.8405342	恐 天	-0.0562273
-1.4226509	當 天	-0.0562273
-1.3089219	天 堂	-0.0562273
-0.83662933	堂 同	-0.0562273
-1.7811251	們 同	-0.0562273
-1.4965994	不 同	-0.0562273
-1.2925643	學 同	-0.0562273
-1.4942125	同 時	-0.0562273
-1.126937	三 時	-0.0562273
-1.408271	當 時	-0.0562273
-1.126937	長 時	-0.0562273
-1.1200215	理 解	-0.0562273
-1.134457	了 解	-0.0562273
-1.3084004	解 政	-0.0562273
-0.84210646	政 府	-0.0562273
-0.84210646	府 作	-0.0562273
-0.84046704	作 出	-0.0562273
-0.84046704	況 出	-0.0562273
-1.3648406	這 個	-0.034487315
-1.3648406	一 個	-0.0562273
-0.8405342	整 個	-0.0562273
-1.5196851	個 艱	-0.0562273
-1.3036206	難 決	-0.0562273
-1.6462036	以 決	-0.0562273
-0.73026395	決 定	-0.0562273
-1.7419598	一 定	-0.0562273
-1.3084004	定 背	-0.0562273
-0.8405342	背 後	-0.0562273
-1.1345893	越 後	-0.0562273
-0.8405342	最 後	-0.0562273
-2.194543	的 原	-0.0562273
-0.46750444	我 們	-0.15214306
-0.1292827	他 們	-0.045221306
-1.8161222	們 實	-0.0562273
-1.5845069	要 實	-0.0562273
-1.137689	實 在	-0.0562273
-1.3718332	到 不	-0.0562273
-1.2117223	亦 不	-0.0562273
-1.692254	有 不	-0.0562273
-1.5688906	們 不	-0.034487315
-0.80659306	在 不	-0.0562273
-0.80659306	裂 不	-0.0562273
-1.070137	但 不	-0.0562273
-1.6710802	是 不	-0.0562273
-0.80659306	均 不	-0.0562273
-1.3077108	下 不	-0.0562273
-0.80659306	門 不	-0.0562273
-0.80659306	命 不	-0.0562273
-1.6860259	我 想	-0.0562273
-1.8777987	不 想	-0.0562273
-1.3036206	想 再	-0.0562273
-1.3036206	及 再	-0.0562273
-1.137689	再 見	-0.0562273
-1.8957282	不 斷	-0.0562273
-0.84210646	斷 升	-0.0562273
-0.84210646	升 級	-0.0562273
-1.7188447	為 暴	-0.0562273
-1.3792783	法 暴	-0.0562273
-1.7458599	的 暴	-0.024012264
-1.5789752	以 暴	-0.0562273
-1.8316727	是 暴	-0.0562273
-0.8289232	取 暴	-0.0562273
-0.23940869	暴 力	-0.043053176
-1.026087	武 力	-0.0562273
-1.3659242	法 衝	-0.024012264
-1.5055054	力 衝	-0.0562273
-1.1047575	民 衝	-0.0562273
-1.2604599	先 衝	-0.0562273
-1.1047575	等 衝	-0.0562273
-0.82512087	起 衝	-0.0562273
-0.82512087	間 衝	-0.0562273
-0.19602191	衝 擊	-0.056227274
-1.134457	還 擊	-0.0562273
-1.5552874	能 以	-0.0562273
-1.5569313	擊 以	-0.0562273
-1.1047575	所 以	-0.0562273
-1.5072157	數 以	-0.0562273
-0.82512087	應 以	-0.0562273
-1.5552874	用 以	-0.0562273
-0.82512087	通 以	-0.0562273
-1.2610391	以 及	-0.0562273
-1.7814767	會 及	-0.0562273
-1.984658	有 流	-0.0562273
-1.3036206	何 流	-0.0562273
-0.7314734	流 血	-0.0562273
-1.134457	實 事	-0.0562273
-1.134457	血 事	-0.0562273
-1.137689	事 件	-0.0562273
-1.8167579	們 社	-0.0562273
-0.8405342	件 社	-0.0562273
-1.9416467	是 社	-0.0562273
-1.3930562	法 會	-0.0562273
-0.087156795	社 會	-0.056227274
-0.7245619	集 會	-0.056227274
-1.281597	開 會	-0.0562273
-1.281597	局 會	-0.0562273
-1.7814767	會 進	-0.0562273
-0.84046704	激 進	-0.0562273
-1.9145007	我 一	-0.0562273
-0.8189507	有 一	-0.034487315
-1.250265	解 一	-0.0562273
-1.097609	進 一	-0.0562273
-1.7713007	是 一	-0.0562273
-0.8213516	楚 一	-0.0562273
-1.097609	全 一	-0.0562273
-0.8213516	中 一	-0.0562273
-1.7550565	一 步	-0.0562273
-0.84210646	步 撕	-0.0562273
-0.84210646	撕 裂	-0.0562273
-1.0467956	的 人	-0.056227274
-1.4287264	同 人	-0.0562273
-1.4877381	威 人	-0.0562273
-1.1549232	數 人	-0.034487315
-0.8213516	撮 人	-0.0562273
-1.097609	分 人	-0.0562273
-0.8213516	殺 人	-0.0562273
-0.8213516	家 人	-0.0562273
-1.3036206	解 但	-0.0562273
-1.585147	數 但	-0.0562273
-1.8777987	不 論	-0.0562273
-0.84046704	討 論	-0.0562273
-1.137689	論 基	-0.0562273
-1.1345893	於 何	-0.0562273
-0.8405342	任 何	-0.0562273
-1.64537	用 何	-0.0562273
-1.7424898	這 種	-0.0562273
-1.3038158	何 種	-0.0562273
-0.8405342	各 種	-0.0562273
-1.5125868	理 由	-0.0562273
-1.9409326	是 由	-0.0562273
-0.30627888	和 平	-0.039821133
-1.3084004	平 上	-0.0562273
-0.84210646	上 街	-0.0562273
-1.3036206	平 集	-0.024012264
-0.84046704	街 集	-0.0562273
-1.0836558	席 示	-0.0562273
-1.2305661	及 示	-0.0562273
-1.5925108	會 示	-0.0562273
-1.2305661	平 示	-0.0562273
-1.7183058	是 示	-0.0562273
-1.4565544	數 示	-0.0562273
-1.0836558	或 示	-0.0562273
-1.3281618	說 示	-0.0562273
-0.8139096	量 示	-0.0562273
-0.8139096	眾 示	-0.0562273
-0.024453025	示 威	-0.2490531
-1.508767	這 是	-0.0562273
-1.580485	的 是	-0.0562273
-1.5672358	人 是	-0.0562273
-1.4084026	威 是	-0.0562273
-1.0635321	突 是	-0.0562273
-0.8029805	點 是	-0.0562273
-0.8029805	求 是	-0.0562273
-1.0635321	正 是	-0.0562273
-1.0635321	午 是	-0.0562273
-1.3587027	察 是	-0.0562273
-1.0635321	還 是	-0.0562273
-0.8029805	果 是	-0.0562273
-1.0635321	計 是	-0.0562273
-1.7814767	會 所	-0.0562273
-0.84046704	則 所	-0.0562273
-1.137689	所 尊	-0.0562273
-1.8785205	不 重	-0.0562273
-1.9416467	是 重	-0.0562273
-0.8405342	尊 重	-0.0562273
-1.6672245	和 保	-0.0562273
-1.5845069	力 保	-0.0562273
-0.7314734	保 護	-0.0562273
-2.073718	我 相	-0.0562273
-0.84210646	相 信	-0.0562273
-0.84210646	信 絕	-0.0562273
-1.4287264	到 大	-0.0562273
-1.6637391	為 大	-0.0562273
-1.6387749	會 大	-0.0562273
-0.8213516	絕 大	-0.0562273
-0.8213516	佔 大	-0.0562273
-0.8213516	指 大	-0.0562273
-1.3529685	說 大	-0.0562273
-1.097609	被 大	-0.0562273
-0.3622241	大 多	-0.5076326
-1.1194173	很 多	-0.0562273
-1.1194173	頭 多	-0.0562273
-1.1194173	了 多	-0.0562273
-1.281597	器 多	-0.0562273
-1.5125868	多 數	-0.0562273
-1.0258219	少 數	-0.034487315
-1.8652934	人 均	-0.0562273
-1.8957282	不 希	-0.0562273
-0.84210646	希 望	-0.0562273
-2.0044818	有 任	-0.0562273
-1.134457	血 或	-0.0562273
-1.7814767	會 或	-0.0562273
-1.2403039	定 警	-0.0562273
-1.5184271	擊 警	-0.0562273
-1.7439954	是 警	-0.0562273
-1.0905764	或 警	-0.0562273
-1.3427496	下 警	-0.0562273
-0.8176147	着 警	-0.0562273
-0.7132822	名 警	-0.024012264
-0.8176147	秀 警	-0.0562273
-1.2403039	器 警	-0.0562273
-1.785726	警 民	-0.0562273
-0.84046704	市 民	-0.0562273
-1.274185	衝 突	-0.0562273
-2.194543	的 情	-0.0562273
-0.84210646	情 況	-0.0562273
-1.137689	出 現	-0.0562273
-0.84210646	現 唯	-0.0562273
-0.84210646	唯 恐	-0.0562273
-0.90368575	天 下	-0.0562273
-1.7424898	一 下	-0.0562273
-1.3038158	至 下	-0.0562273
-1.8957282	不 亂	-0.0562273
-1.8652934	人 除	-0.0562273
-0.84210646	除 外	-0.0562273
-0.84210646	外 就	-0.0562273
-1.7550565	這 項	-0.0562273
-0.84210646	項 急	-0.0562273
-0.84210646	急 切	-0.0562273
-0.84210646	切 質	-0.0562273
-0.84210646	質 詢	-0.0562273
-0.88611746	我 認	-0.38269386
-1.8323504	為 首	-0.0562273
-0.8405342	首 先	-0.0562273
-1.4219967	者 先	-0.0562273
-1.64537	方 先	-0.0562273
-1.281597	定 要	-0.0562273
-1.7481954	們 要	-0.0562273
-0.8949952	重 要	-0.0562273
-1.281597	先 要	-0.0562273
-1.4768922	察 要	-0.0562273
-1.984658	有 清	-0.0562273
-1.5845069	要 清	-0.0562273
-1.137689	清 楚	-0.0562273
-1.7550565	一 點	-0.0562273
-1.137689	事 求	-0.0562273
-1.2652491	以 偏	-0.024012264
-1.7184653	大 概	-0.0562273
-0.84046704	偏 概	-0.024012264
-1.137689	概 全	-0.0562273
-2.194543	的 市	-0.0562273
-1.137689	民 佔	-0.0562273
-2.162079	的 小	-0.0562273
-1.7419598	一 小	-0.024012264
-1.137689	小 撮	-0.024012264
-1.849119	人 採	-0.0562273
-1.5848796	要 採	-0.0562273
-0.8405342	己 採	-0.0562273
-1.3089219	採 取	-0.0562273
-1.5936793	力 行	-0.0562273
-1.134457	主 動	-0.0562273
-1.134457	行 動	-0.0562273
-1.5848796	力 違	-0.0562273
-1.1345893	進 違	-0.0562273
-1.1345893	動 違	-0.0562273
-1.6559973	擊 將	-0.0562273
-1.7188447	為 他	-0.0562273
-1.2314297	擊 他	-0.024012264
-0.8289232	將 他	-0.0562273
-1.2708999	學 他	-0.0562273
-0.8289232	隊 他	-0.0562273
-0.8289232	道 他	-0.0562273
-1.8318756	們 形	-0.0562273
-0.84210646	形 容	-0.0562273
-1.2072382	暴 徒	-0.0562273
-1.7256906	大 部	-0.0562273
-1.5845069	要 分	-0.0562273
-0.84046704	部 分	-0.0562273
-1.5848796	威 而	-0.0562273
-1.1345893	母 而	-0.0562273
-1.1345893	確 而	-0.0562273
-1.1230862	無 視	-0.024012264
-1.8173482	為 少	-0.0562273
-1.1201469	多 少	-0.0562273
-0.8405342	視 少	-0.024012264
-2.194543	的 激	-0.0562273
-1.8167173	為 正	-0.0562273
-0.84046704	式 正	-0.0562273
-1.1345893	正 如	-0.0562273
-0.8405342	釁 如	-0.0562273
-1.1345893	確 如	-0.0562273
-1.5936793	力 便	-0.0562273
-0.84210646	便 指	-0.0562273
-1.5941823	數 參	-0.0562273
-0.84210646	參 加	-0.0562273
-1.137689	徒 總	-0.0562273
-0.84210646	總 之	-0.0562273
-1.8957282	不 應	-0.0562273
-1.64537	能 開	-0.0562273
-1.1345893	分 開	-0.0562273
-1.1345893	員 開	-0.0562273
-1.3084004	開 討	-0.0562273
-1.5119369	個 很	-0.0562273
-1.134457	論 很	-0.0562273
-1.5125868	多 反	-0.0562273
-1.134457	枝 反	-0.0562273
-1.3089219	對 派	-0.024012264
-0.84210646	派 議	-0.024012264
-0.84210646	議 員	-0.0562273
-1.3036206	開 口	-0.0562273
-0.84046704	埋 口	-0.0562273
-1.137689	口 埋	-0.0562273
-2.0265152	我 說	-0.0562273
-1.126937	員 說	-0.0562273
-1.126937	口 說	-0.0562273
-0.83662933	眼 說	-0.0562273
-1.5936793	威 者	-0.043053176
-1.8167579	們 手	-0.0562273
-1.4219967	者 手	-0.024012264
-1.5848796	鐵 手	-0.0562273
-1.5201942	無 寸	-0.024012264
-1.8075459	的 鐵	-0.0562273
-0.83662933	寸 鐵	-0.0562273
-1.126937	呎 鐵	-0.0562273
-0.83662933	米 鐵	-0.0562273
-1.5936793	鐵 卻	-0.0562273
-1.3084004	種 塗	-0.0562273
-0.84210646	塗 脂	-0.0562273
-0.84210646	脂 抹	-0.0562273
-0.84210646	抹 粉	-0.0562273
-1.684606	這 方	-0.0562273
-2.034229	的 方	-0.0562273
-0.41483825	警 方	-0.039821133
-0.8327592	地 方	-0.0562273
-0.8327592	哪 方	-0.0562273
-1.6555002	方 式	-0.0562273
-1.9586667	是 睜	-0.0562273
-0.84210646	睜 眼	-0.0562273
-1.428025	說 瞎	-0.0562273
-0.84210646	瞎 話	-0.0562273
-2.194543	的 悲	-0.0562273
-0.84210646	悲 哀	-0.0562273
-1.6860259	我 看	-0.0562273
-1.8161222	們 看	-0.0562273
-1.5196851	到 六	-0.0562273
-0.84210646	六 月	-0.0562273
-0.84046704	月 十	-0.0562273
-1.134457	三 十	-0.0562273
-1.984658	有 二	-0.0562273
-1.134457	十 二	-0.0562273
-1.137689	二 日	-0.0562273
-0.84210646	日 整	-0.0562273
-1.5119369	個 立	-0.0562273
-0.84046704	離 立	-0.0562273
-1.7256906	大 樓	-0.0562273
-0.84046704	樓 被	-0.0562273
-1.5119369	察 被	-0.0562273
-1.7256906	大 量	-0.0562273
-1.8652934	人 士	-0.0562273
-0.84210646	士 包	-0.0562273
-0.84210646	包 圍	-0.0562273
-0.84210646	圍 令	-0.0562273
-1.7958579	會 直	-0.0562273
-0.8405342	直 至	-0.0562273
-1.3044803	甚 至	-0.0562273
-1.3038158	退 至	-0.0562273
-1.028275	下 午	-0.0562273
-1.134457	二 三	-0.0562273
-1.134457	午 三	-0.0562273
-1.7481954	們 用	-0.0562273
-1.7762266	人 用	-0.0562273
-1.8653286	是 用	-0.0562273
-0.8949952	採 用	-0.0562273
-0.8327592	使 用	-0.0562273
-1.6449414	用 磚	-0.0562273
-0.84046704	塊 磚	-0.0562273
-0.7314734	磚 頭	-0.0562273
-1.134457	頭 削	-0.0562273
-1.134457	枝 削	-0.0562273
-0.7314734	削 尖	-0.0562273
-1.5936793	鐵 通	-0.0562273
-1.3084004	及 各	-0.0562273
-1.6555002	能 傷	-0.0562273
-0.84210646	傷 害	-0.0562273
-1.9416467	是 甚	-0.0562273
-1.64537	用 甚	-0.0562273
-0.8405342	害 甚	-0.0562273
-1.3084004	至 殺	-0.0562273
-2.194543	的 工	-0.0562273
-0.84210646	工 具	-0.0562273
-1.3036206	何 等	-0.0562273
-0.84046704	具 等	-0.0562273
-2.194543	的 防	-0.024012264
-0.84210646	防 線	-0.0562273
-1.3089219	看 着	-0.0562273
-1.134457	線 越	-0.0562273
-1.3036206	退 越	-0.0562273
-1.3038158	後 退	-0.0562273
-1.1345893	越 退	-0.0562273
-0.8405342	迫 退	-0.0562273
-1.3084004	後 最	-0.0562273
-1.3084004	至 距	-0.0562273
-0.84210646	距 離	-0.0562273
-1.5936793	威 區	-0.0562273
-0.84210646	區 玻	-0.0562273
-0.84210646	玻 璃	-0.0562273
-0.84210646	璃 門	-0.0562273
-1.8957282	不 足	-0.0562273
-0.84210646	足 幾	-0.0562273
-1.984658	有 呎	-0.0562273
-0.84046704	幾 呎	-0.0562273
-2.194543	的 地	-0.0562273
-1.7419598	一 名	-0.0562273
-1.134457	十 名	-0.0562273
-0.4157337	警 察	-0.0562273
-1.137689	被 迫	-0.0562273
-1.5196851	到 牆	-0.0562273
-0.84210646	牆 角	-0.0562273
-0.84210646	角 其	-0.0562273
-0.84210646	其 中	-0.0562273
-1.137689	很 好	-0.0562273
-1.5122523	同 學	-0.0562273
-1.1345893	小 學	-0.0562273
-0.8405342	科 學	-0.0562273
-1.6167663	他 跟	-0.0562273
-2.0940151	的 當	-0.0562273
-1.4072853	說 當	-0.0562273
-1.126937	長 當	-0.0562273
-0.83662933	錄 當	-0.0562273
-1.428025	時 真	-0.0562273
-1.9586667	是 走	-0.0562273
-0.84210646	走 投	-0.0562273
-1.5201942	無 路	-0.0562273
-1.6350325	有 父	-0.024012264
-0.84210646	父 母	-0.0562273
-1.7550565	這 支	-0.0562273
-0.84210646	支 服	-0.0562273
-0.84210646	服 務	-0.0562273
-2.194543	的 優	-0.0562273
-0.84210646	優 秀	-0.0562273
-1.5196851	察 團	-0.0562273
-0.84210646	團 隊	-0.0562273
-1.5196851	同 樣	-0.0562273
-1.6729715	和 家	-0.0562273
-1.3084004	難 道	-0.0562273
-2.194543	的 生	-0.0562273
-0.84210646	生 命	-0.0562273
-1.5936793	要 嗎	-0.0562273
-1.3036206	想 問	-0.0562273
-1.134457	問 問	-0.0562273
-1.0258219	當 局	-0.0562273
-1.134457	問 局	-0.0562273
-1.5125868	多 長	-0.0562273
-1.3036206	局 長	-0.0562273
-1.7958579	會 否	-0.0562273
-1.137689	清 晰	-0.0562273
-0.84210646	晰 紀	-0.0562273
-0.84210646	紀 錄	-0.0562273
-1.137689	由 哪	-0.0562273
-1.3036206	先 挑	-0.0562273
-1.134457	動 挑	-0.0562273
-1.137689	挑 起	-0.0562273
-1.7550565	一 眾	-0.0562273
-1.4217404	者 還	-0.0562273
-0.84046704	才 還	-0.0562273
-1.137689	挑 釁	-0.0562273
-1.3084004	如 果	-0.0562273
-1.3036206	想 了	-0.0562273
-1.6449414	用 了	-0.0562273
-1.428025	時 間	-0.0562273
-1.6559973	擊 使	-0.0562273
-0.90544534	甚 麼	-0.024012264
-1.4951758	理 武	-0.0562273
-2.0940151	的 武	-0.0562273
-0.83662933	麼 武	-0.024012264
-0.83662933	些 武	-0.0562273
-1.0284802	武 器	-0.056227274
-1.6555002	方 才	-0.0562273
-1.4285402	少 塊	-0.0562273
-1.4224005	少 枝	-0.0562273
-1.5845069	鐵 枝	-0.0562273
-2.162079	的 確	-0.0562273
-1.134457	準 確	-0.0562273
-1.3084004	如 此	-0.0562273
-2.0044818	有 米	-0.0562273
-2.0044818	有 關	-0.0562273
-1.7550565	這 些	-0.0562273
-1.6350325	有 沒	-0.024012264
-2.162079	的 準	-0.0562273
-1.5119369	個 準	-0.0562273
-1.3084004	而 科	-0.0562273
-2.162079	的 統	-0.0562273
-1.5119369	個 統	-0.024012264
-0.7314734	統 計	-0.034487315
-1.137689	等 程	-0.0562273
-0.84210646	程 度	-0.0562273
-1.137689	護 自	-0.0562273
-0.84210646	自 己	-0.0562273
-1.6555002	用 合	-0.0562273
-1.137689	準 則	-0.0562273
-1.6555002	方 面	-0.0562273
-2.194543	的 資	-0.0562273
-0.84210646	資 料	-0.0562273

\3-grams:
-0.6058743	資 料 </s>
-0.6050375	無 路 代
-0.54197466	<s> 代 理
-0.54197466	路 代 理
-0.8946466	非 常 理
-0.8875385	同 的 理
-0.77630734	何 種 理
-0.60108244	用 合 理
-1.0816729	代 理 主
-1.28974	警 察 主
-0.9111478	理 主 席
-0.90252453	主 席 對
-0.8733081	同 人 對
-0.54528415	多 反 對
-0.54528415	枝 反 對
-0.63615084	席 對 於
-0.63615084	人 對 於
-0.6050375	論 基 於
-0.90932965	對 於 逃
-0.87019444	成 為 逃
-0.63943416	於 逃 犯
-0.5459492	為 逃 犯
-0.98661476	逃 犯 條
-0.72030663	犯 條 例
-0.8104933	顯 法 例
-0.98335254	條 例 暫
-0.6058743	例 暫 緩
-0.6058743	暫 緩 修
-0.6058743	緩 修 訂
-0.57600796	修 訂 我
-0.7392892	為 過 我
-1.2887812	因 為 我
-0.8442616	護 的 我
-0.76480067	同 時 我
-0.80144066	所 以 我
-0.5509469	威 是 我
-0.5509469	點 是 我
-0.5509469	察 是 我
-0.57600796	質 詢 我
-0.7392892	正 如 我
-0.57600796	總 之 我
-0.79997003	地 方 我
-0.57600796	瞎 話 我
-0.57600796	悲 哀 我
-0.57600796	圍 令 我
-0.84665376	防 線 我
-0.57600796	他 跟 我
-0.57600796	要 嗎 我
-0.9943483	武 器 我
-0.8899107	訂 我 感
-0.6030725	我 感 到
-0.6030725	再 見 到
-0.76574385	我 看 到
-0.63410866	們 看 到
-0.77928996	迫 退 到
-0.88905644	時 我 非
-0.8283707	感 到 非
-0.5459492	我 非 常
-0.5459492	到 非 常
-0.8946466	非 常 無
-0.77630734	威 而 無
-0.98668635	者 手 無
-0.60108244	鐵 卻 無
-0.60108244	走 投 無
-0.82986236	常 無 奈
-0.6050375	無 奈 可
-0.8842598	續 有 可
-0.73183584	奈 可 惜
-0.5971293	可 惜 和
-0.8588084	分 人 和
-0.7201875	理 由 和
-0.7709551	尊 重 和
-0.886909	概 全 和
-0.5971293	參 加 和
-0.886909	父 母 和
-0.85284644	惜 和 難
-0.6050718	個 艱 難
-0.8733081	家 人 難
-0.7822932	和 難 過
-0.87025714	不 為 過
-0.90252453	削 尖 過
-0.773345	難 過 因
-0.842439	原 因 因
-1.2191598	不 能 因
-0.5991014	的 原 因
-0.5991014	如 此 因
-0.95138556	統 計 因
-0.110846736	過 因 為
-0.110846736	因 因 為
-0.12068036	能 因 為
-0.110846736	此 因 為
-0.110846736	計 因 為
-0.5991014	能 成 為
-0.86504614	亦 不 為
-0.18900262	我 認 為
-0.89076054	力 行 為
-0.5991014	形 容 為
-1.2612398	因 為 這
-1.1328281	認 為 這
-1.1325501	沒 有 這
-0.7201875	作 出 這
-1.2406389	的 人 這
-0.5971293	外 就 這
-0.7704028	母 而 這
-0.5971293	有 關 這
-1.3335164	為 這 導
-0.6058743	這 導 致
-0.6058743	導 致 公
-0.6058743	致 公 義
-0.6050718	公 義 未
-0.7822932	洞 亦 未
-1.5863311	我 們 未
-0.7280954	有 可 能
-0.075717494	義 未 能
-0.075717494	亦 未 能
-0.075717494	們 未 能
-1.1850998	們 不 能
-0.82553774	是 不 能
-0.77928996	各 種 能
-1.2225718	未 能 彰
-0.6058743	能 彰 顯
-0.6050718	彰 顯 法
-0.07584377	力 違 法
-0.07584377	進 違 法
-0.07584377	動 違 法
-0.54528415	個 立 法
-0.54528415	離 立 法
-0.7153928	法 例 的
-0.7153928	尖 過 的
-0.816285	香 港 的
-0.93846464	不 同 的
-0.7153928	背 後 的
-1.2063504	他 們 的
-0.5594597	升 級 的
-0.95443213	武 力 的
-1.1726243	衝 擊 的
-0.9912167	社 會 的
-0.9912167	集 會 的
-1.0223966	數 人 的
-0.7503978	殺 人 的
-1.3522485	示 威 的
-0.816285	保 護 的
-0.816285	衝 突 的
-0.5594597	不 亂 的
-0.95443213	重 要 的
-0.95443213	寸 鐵 的
-0.5594597	抹 粉 的
-1.1186638	警 方 的
-0.966208	們 用 的
-0.816285	削 尖 的
-0.67085624	幾 呎 的
-0.5594597	很 好 的
-0.7153928	科 學 的
-0.5594597	時 真 的
-0.5594597	程 度 的
-0.5594597	方 面 的
-0.8960223	例 的 漏
-0.6058743	的 漏 洞
-0.6050718	漏 洞 亦
-0.7307637	數 但 亦
-0.90252453	暴 徒 亦
-1.2225718	未 能 堵
-0.6058743	能 堵 塞
-0.6050375	堵 塞 香
-0.6050375	服 務 香
-0.5459492	塞 香 港
-0.5459492	務 香 港
-0.90411776	香 港 繼
-0.6058743	港 繼 續
-0.9277033	條 例 有
-0.7475561	但 亦 有
-0.5816672	繼 續 有
-0.7735728	三 時 有
-0.6997778	及 再 有
-0.5816672	希 望 有
-0.6997778	大 概 有
-1.1382835	威 者 有
-0.61188596	們 手 有
-0.61188596	鐵 手 有
-0.80124795	米 鐵 有
-1.1852193	警 方 有
-0.5816672	同 樣 有
-0.9277033	當 局 有
-0.5816672	會 否 有
-0.68783176	有 沒 有
-0.85121703	可 能 成
-0.9656469	逃 犯 天
-0.6050718	唯 恐 天
-0.81068885	錄 當 天
-0.78363746	犯 天 堂
-0.6030725	天 堂 同
-1.4540052	他 們 同
-0.82553774	有 不 同
-0.82553774	裂 不 同
-0.77928996	小 學 同
-0.8250895	堂 同 時
-0.7280954	午 三 時
-0.8075613	說 當 時
-0.7280954	多 長 時
-0.7256576	常 理 解
-0.7256576	的 理 解
-0.73071784	想 了 解
-0.98335254	理 解 政
-0.6058743	解 政 府
-0.6058743	政 府 作
-0.6050375	府 作 出
-0.6050375	情 況 出
-1.1786145	為 這 個
-0.7976125	出 這 個
-0.7976125	我 一 個
-1.0950059	有 一 個
-0.6050718	日 整 個
-1.1649852	這 個 艱
-0.7822416	艱 難 決
-0.8499234	用 以 決
-0.54525566	難 決 定
-0.54525566	以 決 定
-0.86216295	全 一 定
-0.98335254	決 定 背
-0.6050718	定 背 後
-0.7307637	退 越 後
-0.6050718	後 最 後
-0.8960223	後 的 原
-0.37587392	過 我 們
-0.37587392	為 我 們
-0.4551379	是 我 們
-0.37587392	如 我 們
-0.37587392	之 我 們
-0.37587392	哀 我 們
-0.37587392	令 我 們
-0.111370474	為 他 們
-0.12125736	擊 他 們
-0.111370474	將 他 們
-0.111370474	隊 他 們
-0.111370474	道 他 們
-1.5860676	我 們 實
-0.84071136	們 要 實
-0.73183584	們 實 在
-0.79926646	見 到 不
-0.7559834	徒 亦 不
-0.8561034	例 有 不
-0.62223864	我 們 不
-0.58740115	實 在 不
-0.58740115	撕 裂 不
-0.7073195	解 但 不
-0.8533322	求 是 不
-0.58740115	人 均 不
-0.9830658	天 下 不
-0.58740115	璃 門 不
-0.58740115	生 命 不
-0.8553004	嗎 我 想
-0.8553004	器 我 想
-0.8758937	在 不 想
-0.7822416	不 想 再
-0.9813594	以 及 再
-0.73183584	想 再 見
-0.8774329	到 不 斷
-0.6058743	不 斷 升
-0.6058743	斷 升 級
-0.85942066	容 為 暴
-1.1021103	違 法 暴
-0.862613	級 的 暴
-1.2498614	人 的 暴
-0.83983	數 以 暴
-0.8716577	人 是 暴
-0.5991014	採 取 暴
-0.20225738	法 暴 力
-0.22255965	的 暴 力
-0.20225738	以 暴 力
-0.20225738	取 暴 力
-0.69000435	理 武 力
-0.69000435	的 武 力
-1.1212902	違 法 衝
-1.2793033	暴 力 衝
-0.7201875	警 民 衝
-0.7704028	者 先 衝
-0.7201875	具 等 衝
-0.5971293	挑 起 衝
-0.5971293	時 間 衝
-0.18289645	法 衝 擊
-0.1669333	力 衝 擊
-0.1669333	先 衝 擊
-0.1669333	等 衝 擊
-0.1669333	間 衝 擊
-0.73071784	才 還 擊
-1.1791654	不 能 以
-1.3505796	衝 擊 以
-0.7201875	則 所 以
-1.1598526	少 數 以
-0.5971293	不 應 以
-0.8359475	是 用 以
-0.5971293	鐵 通 以
-0.77056736	擊 以 及
-0.77056736	通 以 及
-1.2595571	集 會 及
-0.8842598	再 有 流
-0.7822416	任 何 流
-0.5459492	有 流 血
-0.5459492	何 流 血
-0.73071784	要 實 事
-0.90245646	流 血 事
-0.73183584	血 事 件
-1.5863311	我 們 社
-0.6050718	事 件 社
-0.8811188	這 是 社
-1.0359007	立 法 會
-0.07559129	們 社 會
-0.07559129	件 社 會
-0.07559129	是 社 會
-0.6341335	平 集 會
-0.54197466	街 集 會
-0.77630734	能 開 會
-0.97201025	當 局 會
-1.2595571	社 會 進
-0.6050375	的 激 進
-1.2862953	是 我 一
-0.5939115	亦 有 一
-0.5939115	時 有 一
-0.712162	沒 有 一
-0.7674804	了 解 一
-0.7175832	會 進 一
-0.8654629	突 是 一
-0.5951662	清 楚 一
-0.8830913	概 全 一
-0.5951662	其 中 一
-0.8636604	進 一 步
-0.6058743	一 步 撕
-0.6058743	步 撕 裂
-0.69827724	擊 的 人
-0.8551128	會 的 人
-0.69827724	亂 的 人
-1.0293915	不 同 人
-1.5160463	示 威 人
-1.0368937	多 數 人
-0.99777853	少 數 人
-0.70650643	小 撮 人
-0.7175832	部 分 人
-0.5951662	至 殺 人
-0.5951662	和 家 人
-0.9813594	理 解 但
-1.2741238	多 數 但
-0.8758937	但 不 論
-0.6050375	開 討 論
-0.73183584	不 論 基
-0.7307637	基 於 何
-0.6050718	有 任 何
-1.0936753	採 用 何
-0.86222434	人 這 種
-0.7822932	於 何 種
-0.6050718	及 各 種
-0.82848895	種 理 由
-0.8810642	午 是 由
-0.2553617	人 和 平
-0.2553617	由 和 平
-0.2553617	全 和 平
-0.2553617	加 和 平
-1.1237185	和 平 上
-0.6058743	平 上 街
-1.1412054	和 平 集
-0.6050375	上 街 集
-0.8755551	主 席 示
-0.76169384	會 及 示
-1.0800277	法 會 示
-1.0756449	和 平 示
-0.8593552	果 是 示
-1.2142076	多 數 示
-0.712421	會 或 示
-0.7885986	員 說 示
-0.5912663	大 量 示
-0.5912663	一 眾 示
-0.021409025	席 示 威
-0.021409025	及 示 威
-0.021409025	會 示 威
-0.021409025	平 示 威
-0.021409025	是 示 威
-0.021409025	數 示 威
-0.021409025	或 示 威
-0.021409025	說 示 威
-0.021409025	量 示 威
-0.021409025	眾 示 威
-1.2318434	為 這 是
-0.8400715	用 的 是
-0.8400715	真 的 是
-1.1919448	的 人 是
-1.4666104	示 威 是
-0.8644905	衝 突 是
-0.5854814	一 點 是
-0.5854814	事 求 是
-0.704791	式 正 是
-0.8644905	下 午 是
-1.2023665	警 察 是
-0.704791	者 還 是
-0.5854814	如 果 是
-0.9368334	統 計 是
-1.2595571	社 會 所
-0.6050375	準 則 所
-0.73183584	會 所 尊
-0.87595683	命 不 重
-1.1501644	計 是 重
-0.6050718	所 尊 重
-0.8528148	重 和 保
-1.0778525	武 力 保
-0.5459492	和 保 護
-0.5459492	力 保 護
-0.8899107	的 我 相
-0.6058743	我 相 信
-0.6058743	相 信 絕
-1.0293915	看 到 大
-1.4002833	因 為 大
-1.0920392	法 會 大
-0.5951662	信 絕 大
-0.5951662	民 佔 大
-0.5951662	便 指 大
-0.7947576	口 說 大
-0.7175832	樓 被 大
-0.29844508	絕 大 多
-0.29844508	佔 大 多
-0.29844508	指 大 多
-0.29844508	說 大 多
-0.72544336	論 很 多
-0.8946466	磚 頭 多
-0.72544336	用 了 多
-1.0633981	武 器 多
-0.15563072	大 多 數
-0.68989694	為 少 數
-0.84481984	視 少 數
-1.275112	數 人 均
-0.8774329	均 不 希
-0.6058743	不 希 望
-0.8856131	望 有 任
-0.90245646	流 血 或
-1.2595571	集 會 或
-0.95374155	決 定 警
-1.3291235	衝 擊 警
-0.8623983	還 是 警
-0.71499443	血 或 警
-0.7922524	一 下 警
-0.5932119	看 着 警
-0.53543043	一 名 警
-0.53543043	十 名 警
-0.5932119	優 秀 警
-1.0409596	武 器 警
-0.86701405	或 警 民
-0.6050375	的 市 民
-0.77426034	民 衝 突
-0.77426034	起 衝 突
-0.8960223	突 的 情
-0.6058743	的 情 況
-0.73183584	況 出 現
-0.6058743	出 現 唯
-0.6058743	現 唯 恐
-0.63618654	恐 天 下
-0.63618654	當 天 下
-0.86222434	解 一 下
-0.7822932	直 至 下
-0.8774329	下 不 亂
-1.2801737	的 人 除
-0.6058743	人 除 外
-0.6058743	除 外 就
-0.8636604	就 這 項
-0.6058743	這 項 急
-0.6058743	項 急 切
-0.6058743	急 切 質
-0.6058743	切 質 詢
-0.627761	以 我 認
-0.627761	詢 我 認
-0.627761	話 我 認
-1.2670649	認 為 首
-0.6050718	為 首 先
-1.2323965	威 者 先
-0.8498062	哪 方 先
-0.77630734	一 定 要
-1.5565941	我 們 要
-0.6320408	不 重 要
-0.6320408	是 重 要
-0.77630734	首 先 要
-1.2709296	警 察 要
-0.8842598	否 有 清
-0.84071136	先 要 清
-0.73183584	要 清 楚
-0.8636604	楚 一 點
-0.73183584	實 事 求
-0.7717588	能 以 偏
-0.7717588	應 以 偏
-0.8593746	到 大 概
-0.72030663	以 偏 概
-0.9111478	偏 概 全
-0.8960223	威 的 市
-0.73183584	市 民 佔
-0.89453554	好 的 小
-1.2790811	有 一 小
-0.9111478	一 小 撮
-1.1357622	撮 人 採
-0.8407704	察 要 採
-0.6050718	自 己 採
-0.78363746	人 採 取
-1.3506894	暴 力 行
-0.73071784	察 主 動
-0.90245646	力 行 動
-1.3201941	暴 力 違
-0.7307637	激 進 違
-0.7307637	行 動 違
-1.4018838	衝 擊 將
-1.4264828	因 為 他
-1.1438565	衝 擊 他
-0.7619514	還 擊 他
-0.5991014	擊 將 他
-0.773345	同 學 他
-0.5991014	團 隊 他
-0.5991014	難 道 他
-1.4748183	他 們 形
-0.6058743	們 形 容
-0.754599	為 暴 徒
-0.754599	是 暴 徒
-0.8602463	為 大 部
-0.84071136	定 要 分
-0.6050375	大 部 分
-1.5718411	示 威 而
-0.90252453	父 母 而
-0.7307637	準 確 而
-0.7267411	而 無 視
-0.7267411	卻 無 視
-1.469007	因 為 少
-0.72570205	頭 多 少
-0.72570205	器 多 少
-0.72035486	無 視 少
-1.3363689	人 的 激
-0.87019444	行 為 正
-0.6050375	方 式 正
-0.7307637	為 正 如
-0.6050718	挑 釁 如
-0.7307637	的 確 如
-1.3245041	暴 力 便
-0.6058743	力 便 指
-1.2779796	多 數 參
-0.6058743	數 參 加
-0.90411776	暴 徒 總
-0.6058743	徒 總 之
-1.2821441	們 不 應
-1.2192614	未 能 開
-0.7307637	要 分 開
-0.90252453	議 員 開
-0.7835007	分 開 討
-1.0567623	一 個 很
-0.73071784	討 論 很
-0.82848895	很 多 反
-0.73071784	鐵 枝 反
-0.9989237	反 對 派
-0.7214823	對 派 議
-0.7214823	派 議 員
-0.7822416	員 開 口
-0.6050375	口 埋 口
-0.73183584	開 口 埋
-0.887051	跟 我 說
-0.89856774	議 員 說
-0.7280954	埋 口 說
-0.6030725	睜 眼 說
-0.4088505	示 威 者
-1.4687684	他 們 手
-1.253454	威 者 手
-0.8407704	呎 鐵 手
-1.0843265	手 無 寸
-0.8692744	過 的 鐵
-0.8692744	尖 的 鐵
-0.7175496	無 寸 鐵
-0.7280954	有 呎 鐵
-0.6030725	有 米 鐵
-1.0803429	寸 鐵 卻
-0.7835007	這 種 塗
-0.6058743	種 塗 脂
-0.6058743	塗 脂 抹
-0.6058743	脂 抹 粉
-0.85511595	有 這 方
-0.8875385	粉 的 方
-0.33776057	擊 警 方
-0.33776057	下 警 方
-0.33776057	着 警 方
-0.33776057	器 警 方
-0.60108244	的 地 方
-0.60108244	由 哪 方
-0.85121703	的 方 式
-0.88239634	正 是 睜
-0.6058743	是 睜 眼
-0.8118371	眼 說 瞎
-0.6058743	說 瞎 話
-1.1782758	會 的 悲
-0.6058743	的 悲 哀
-0.8553004	方 我 看
-0.8553004	線 我 看
-1.5860676	我 們 看
-1.0591345	看 到 六
-0.6058743	到 六 月
-0.6050375	六 月 十
-0.73071784	二 三 十
-0.8842598	概 有 二
-0.73071784	月 十 二
-0.73183584	十 二 日
-0.6058743	二 日 整
-0.8283707	整 個 立
-0.6050375	距 離 立
-0.8602463	會 大 樓
-0.6050375	大 樓 被
-1.28974	警 察 被
-0.8602463	被 大 量
-0.8747854	威 人 士
-0.6058743	人 士 包
-0.6058743	士 包 圍
-0.6058743	包 圍 令
-0.8680762	開 會 直
-0.6050718	會 直 至
-0.7824688	害 甚 至
-0.7822932	後 退 至
-0.84455085	天 下 午
-0.69088966	至 下 午
-0.73071784	有 二 三
-0.90245646	下 午 三
-1.4682547	他 們 用
-1.1224763	撮 人 用
-1.1384753	計 是 用
-0.6320408	要 採 用
-0.6320408	己 採 用
-0.60108244	擊 使 用
-0.84974587	人 用 磚
-0.6050375	少 塊 磚
-0.5459492	用 磚 頭
-0.5459492	塊 磚 頭
-0.90245646	磚 頭 削
-0.73071784	少 枝 削
-0.5459492	頭 削 尖
-0.5459492	枝 削 尖
-1.0803429	的 鐵 通
-0.98335254	以 及 各
-0.85121703	種 能 傷
-0.6058743	能 傷 害
-1.1501644	的 是 甚
-0.8498062	使 用 甚
-0.6050718	傷 害 甚
-0.7835007	甚 至 殺
-1.3363689	人 的 工
-0.6058743	的 工 具
-0.7822416	用 何 等
-0.6050375	工 具 等
-1.223043	方 的 防
-0.7214823	的 防 線
-0.98356926	我 看 着
-0.90245646	防 線 越
-0.7822416	越 退 越
-0.7822932	最 後 退
-0.7307637	線 越 退
-0.6050718	被 迫 退
-0.7835007	越 後 最
-0.7835007	退 至 距
-0.6058743	至 距 離
-1.5766314	示 威 區
-0.6058743	威 區 玻
-0.6058743	區 玻 璃
-0.6058743	玻 璃 門
-0.8774329	門 不 足
-0.6058743	不 足 幾
-1.1560186	手 有 呎
-0.6050375	足 幾 呎
-0.8960223	呎 的 地
-0.86216295	中 一 名
-0.73071784	三 十 名
-0.33841917	定 警 察
-0.33841917	是 警 察
-0.3797806	名 警 察
-0.33841917	秀 警 察
-0.73183584	察 被 迫
-0.82977104	退 到 牆
-0.6058743	到 牆 角
-0.6058743	牆 角 其
-0.6058743	角 其 中
-0.73183584	個 很 好
-0.8284281	學 同 學
-0.7307637	的 小 學
-0.6050718	而 科 學
-0.84566677	學 他 跟
-0.8910532	要 的 當
-0.8073439	我 說 當
-0.7280954	局 長 當
-0.6030725	紀 錄 當
-0.8118371	當 時 真
-1.1525409	的 是 走
-0.6058743	是 走 投
-0.82986236	投 無 路
-0.84833705	者 有 父
-0.84833705	樣 有 父
-0.7214823	有 父 母
-0.8636604	而 這 支
-0.6058743	這 支 服
-0.6058743	支 服 務
-0.8960223	港 的 優
-0.6058743	的 優 秀
-1.2938039	警 察 團
-0.6058743	察 團 隊
-0.82977104	們 同 樣
-0.8535845	母 和 家
-0.7835007	人 難 道
-0.8960223	們 的 生
-0.6058743	的 生 命
-1.0803429	重 要 嗎
-0.9813594	我 想 問
-0.73071784	想 問 問
-0.68989694	的 當 局
-0.68989694	長 當 局
-0.73071784	問 問 局
-0.82848895	了 多 長
-0.7822416	問 局 長
-0.8680762	局 會 否
-0.73183584	有 清 晰
-0.6058743	清 晰 紀
-0.6058743	晰 紀 錄
-0.73183584	是 由 哪
-0.7822416	方 先 挑
-0.73071784	主 動 挑
-0.73183584	先 挑 起
-0.8636604	是 一 眾
-1.2322465	威 者 還
-0.6050375	方 才 還
-0.73183584	動 挑 釁
-0.7835007	釁 如 果
-0.9813594	我 想 了
-1.0935695	們 用 了
-0.8118371	長 時 間
-1.4018838	衝 擊 使
-0.6370206	是 甚 麼
-0.6370206	用 甚 麼
-0.82527065	合 理 武
-0.8910532	度 的 武
-0.7175496	甚 麼 武
-0.6030725	這 些 武
-0.84647596	麼 武 器
-0.69097257	些 武 器
-1.2964671	警 方 才
-1.0293263	多 少 塊
-1.027165	多 少 枝
-1.0778525	的 鐵 枝
-0.89453554	鐵 的 確
-0.73071784	個 準 確
-0.7835007	確 如 此
-1.158552	手 有 米
-0.8856131	鐵 有 關
-0.8636604	關 這 些
-0.84833705	方 有 沒
-0.84833705	局 有 沒
-0.89453554	力 的 準
-1.0567623	一 個 準
-0.7835007	確 而 科
-0.89453554	學 的 統
-1.1919475	這 個 統
-0.5459492	的 統 計
-0.63943416	個 統 計
-0.73183584	何 等 程
-0.6058743	等 程 度
-0.90411776	保 護 自
-0.6058743	護 自 己
-1.096152	採 用 合
-0.73183584	的 準 則
-0.85121703	這 方 面
-0.8960223	面 的 資
-0.6058743	的 資 料

\end\
