\data\
ngram 1=596
ngram 2=1873
ngram 3=2379

\1-grams:
-3.2406921	<unk>	0
0	<s>	-0.06305886
-3.0833986	</s>	0
-2.7414536	主	-0.15109919
-3.0833986	席	-0.06305886
-2.2995527	我	-0.15661772
-3.022417	先	-0.06305886
-2.2995527	說	-0.12845235
-2.0320656	這	-0.34412944
-2.1142685	項	-0.42245784
-2.2556334	議	-0.16252813
-3.022417	案	-0.06305886
-1.625185	的	-0.122899644
-3.0833986	背	-0.06305886
-3.022417	景	-0.06305886
-2.1792243	在	-0.17510441
-2.4665675	二	-0.111164704
-3.022417	零	-0.06305886
-1.9421867	一	-0.16727743
-3.022417	六	-0.06305886
-2.5403926	年	-0.11684661
-2.62939	十	-0.06305886
-2.4034874	月	-0.10485187
-2.62939	三	-0.13200535
-2.4665675	日	-0.24519707
-2.62939	前	-0.06305886
-2.4665675	行	-0.09616536
-1.8192667	政	-0.75695443
-2.7414536	長	-0.06305886
-3.022417	官	-0.06305886
-3.0833986	梁	-0.06305886
-3.0833986	振	-0.06305886
-3.0833986	英	-0.06305886
-2.3484182	和	-0.06305886
-2.892886	務	-0.06305886
-2.4665675	司	-0.13870582
-2.62939	林	-0.55732834
-3.0833986	鄭	-0.06305886
-3.0833986	娥	-0.06305886
-2.892886	北	-0.33547962
-3.0833986	京	-0.06305886
-2.62939	與	-0.15980296
-1.9033792	故	-1.0279394
-3.0833986	宮	-0.06305886
-2.892886	博	-0.33547962
-3.0833986	物	-0.06305886
-3.0833986	院	-0.06305886
-3.022417	簽	-0.26164612
-3.022417	訂	-0.06305886
-2.2995527	合	-0.276028
-2.4665675	作	-0.111164704
-3.022417	備	-0.06305886
-3.0833986	忘	-0.06305886
-3.022417	錄	-0.06305886
-2.892886	特	-0.18491517
-3.022417	區	-0.06305886
-3.0833986	府	-0.06305889
-2.7414536	選	-0.111164704
-3.0833986	址	-0.06305886
-1.8192667	西	-1.3207563
-2.892886	九	-0.06305886
-2.0851042	文	-0.6431705
-3.022417	化	-0.06305886
-2.2157507	興	-0.9375396
-2.1792243	建	-0.25096434
-2.1792243	香	-0.9723017
-3.0833986	港	-0.06305886
-2.4665675	館	-0.0765479
-2.892886	(	-0.06305886
-2.892886	)	-0.06305886
-2.7414536	期	-0.06305886
-2.892886	展	-0.06305886
-2.2995527	出	-0.12963341
-3.0833986	珍	-0.06305886
-3.0833986	藏	-0.06305886
-3.0833986	佔	-0.06305886
-2.4665675	地	-0.08345282
-3.022417	萬	-0.06305886
-3.0833986	平	-0.06305886
-2.5403926	方	-0.16527061
-3.0833986	米	-0.06305886
-2.5403926	計	-0.1516087
-3.022417	劃	-0.06305886
-2.2157507	於	-0.16673455
-2.62939	落	-0.3044245
-2.62939	成	-0.111164704
-2.1142685	可	-0.25013638
-1.9223496	是	-0.20058206
-2.7414536	卻	-0.13200535
-2.4665675	未	-0.2207915
-2.0577757	有	-0.14151458
-2.2556334	提	-0.38809088
-2.0320656	及	-0.06305886
-2.62939	所	-0.16527061
-3.022417	需	-0.06305886
-3.0833986	築	-0.06305886
-2.7414536	費	-0.13200535
-2.2556334	用	-0.2004045
-3.0833986	僅	-0.06305886
-2.4034874	表	-0.27878344
-3.0833986	示	-0.06305886
-3.022417	賽	-0.06305886
-3.022417	馬	-0.06305886
-2.0577757	會	-0.11593518
-3.0833986	慈	-0.06305886
-3.022417	善	-0.06305886
-2.892886	信	-0.06305886
-2.892886	託	-0.06305886
-3.022417	基	-0.06305886
-3.022417	金	-0.06305886
-2.5403926	已	-0.18491517
-2.62939	同	-0.11972708
-2.4665675	意	-0.06305886
-3.0833986	捐	-0.06305886
-3.0833986	贈	-0.06305886
-2.62939	五	-0.06305886
-3.0833986	億	-0.06305886
-3.022417	元	-0.06305886
-2.1792243	以	-0.09816733
-2.4034874	資	-0.20286474
-3.0833986	助	-0.06305886
-3.0833986	造	-0.06305886
-2.2995527	設	-0.5064982
-3.0833986	籌	-0.06305886
-3.0833986	覽	-0.06305886
-2.62939	等	-0.06305886
-2.2995527	當	-0.23192568
-2.7414536	局	-0.091569185
-2.62939	指	-0.13200535
-2.2995527	由	-0.15661772
-2.4665675	並	-0.15980296
-3.022417	非	-0.06305886
-3.022417	置	-0.06305886
-3.022417	分	-0.06305886
-2.145533	不	-0.08644604
-2.892886	參	-0.33547962
-3.022417	常	-0.06305886
-3.022417	運	-0.06305886
-2.7414536	管	-0.24978817
-2.892886	理	-0.06305886
-2.7414536	全	-0.06305886
-3.0833986	權	-0.06305886
-2.892886	負	-0.18491517
-3.022417	責	-0.06305886
-2.5403926	營	-0.2846495
-2.4034874	亦	-0.06305886
-2.62939	立	-0.17825028
-2.5403926	間	-0.06305886
-2.892886	董	-0.33547962
-2.145533	事	-0.15263793
-3.0833986	擁	-0.06305886
-3.0833986	附	-0.06305886
-3.022417	屬	-0.06305886
-2.0851042	公	-0.34245718
-2.2556334	就	-0.12526509
-3.022417	陳	-0.26164612
-3.0833986	淑	-0.06305886
-3.0833986	莊	-0.06305886
-2.892886	員	-0.06305886
-2.5403926	中	-0.09616536
-2.4665675	多	-0.111164704
-2.5403926	要	-0.17825028
-3.0833986	求	-0.06305886
-2.7414536	也	-0.13200535
-2.5403926	支	-0.17825028
-3.0833986	持	-0.06305886
-2.4034874	自	-0.10485187
-2.892886	拍	-0.33547962
-3.0833986	板	-0.06305886
-2.62939	招	-0.55732834
-3.0833986	標	-0.06305886
-2.7414536	至	-0.15109919
-2.62939	後	-0.06305886
-2.892886	都	-0.06305886
-3.022417	存	-0.26164612
-2.7414536	種	-0.06305886
-3.0833986	謎	-0.06305886
-2.7414536	團	-0.24978817
-3.0833986	今	-0.06305886
-2.892886	曾	-0.06305886
-2.2995527	向	-0.20857804
-2.892886	眾	-0.06305886
-3.022417	清	-0.06305886
-3.0833986	楚	-0.06305886
-2.62939	交	-0.15980296
-3.0833986	代	-0.06305886
-2.7414536	涉	-0.46041834
-3.0833986	途	-0.06305886
-3.022417	工	-0.26164612
-2.5403926	程	-0.21779491
-3.022417	序	-0.06305886
-3.0833986	義	-0.06305886
-2.892886	問	-0.06305886
-3.0833986	題	-0.06305886
-2.7414536	任	-0.06305886
-3.022417	件	-0.06305886
-2.62939	來	-0.06305886
-3.0833986	龍	-0.06305886
-3.0833986	去	-0.06305886
-3.0833986	脈	-0.06305886
-2.892886	開	-0.06305886
-2.7414536	相	-0.13200535
-2.7414536	關	-0.10485187
-2.62939	爭	-0.3044245
-2.892886	例	-0.18491517
-2.4665675	如	-0.06305886
-2.892886	實	-0.06305886
-2.62939	進	-0.34669816
-2.2995527	諮	-0.8583584
-3.022417	詢	-0.06305886
-3.022417	條	-0.06305886
-2.62939	第	-0.13200535
-2.62939	明	-0.06305886
-2.5403926	須	-0.10485187
-2.5403926	發	-0.2846495
-2.62939	或	-0.06305886
-3.0833986	施	-0.06305886
-3.0833986	宜	-0.06305886
-2.892886	該	-0.18491517
-2.7414536	認	-0.13200535
-2.145533	為	-0.12330245
-3.022417	適	-0.06305886
-2.2995527	時	-0.09616536
-3.0833986	藉	-0.06305886
-3.022417	式	-0.06305886
-2.892886	但	-0.06305886
-2.4665675	經	-0.19761662
-2.62939	法	-0.06305886
-3.0833986	情	-0.06305886
-3.0833986	況	-0.06305886
-3.022417	下	-0.06305886
-3.0833986	顯	-0.06305886
-3.0833986	違	-0.06305886
-2.62939	反	-0.20546824
-2.4665675	了	-0.06305886
-3.022417	回	-0.06305886
-3.0833986	應	-0.06305886
-3.0833986	改	-0.06305886
-3.0833986	變	-0.06305886
-3.022417	土	-0.06305886
-3.022417	規	-0.26164612
-3.0833986	城	-0.06305886
-3.022417	市	-0.06305886
-3.0833986	致	-0.06305886
-3.022417	通	-0.26164612
-2.4034874	過	-0.14365573
-2.5403926	決	-0.6365096
-3.022417	定	-0.06305886
-3.0833986	魅	-0.06305886
-3.0833986	力	-0.06305886
-2.5403926	沒	-0.42587942
-2.2157507	人	-0.112464115
-3.022417	能	-0.06305886
-3.0833986	夠	-0.06305886
-3.0833986	抗	-0.06305886
-3.022417	拒	-0.06305886
-3.0833986	加	-0.06305886
-2.892886	上	-0.06305886
-2.892886	目	-0.06305886
-3.0833986	央	-0.06305886
-3.022417	國	-0.06305886
-2.892886	家	-0.06305886
-3.022417	部	-0.06305886
-3.022417	現	-0.06305886
-2.62939	對	-0.06305886
-3.0833986	聲	-0.06305886
-3.022417	音	-0.06305886
-2.62939	便	-0.06305886
-3.0833986	尷	-0.06305886
-3.0833986	尬	-0.06305886
-2.1792243	大	-0.3843108
-3.022417	聽	-0.06305886
-2.62939	到	-0.06305886
-2.7414536	個	-0.0882983
-2.892886	否	-0.06305886
-3.022417	感	-0.06305886
-2.5403926	很	-0.11972708
-3.0833986	荒	-0.06305886
-3.0833986	謬	-0.06305886
-3.0833986	笑	-0.06305886
-2.892886	又	-0.06305886
-3.022417	乎	-0.06305886
-3.022417	邏	-0.26164612
-3.0833986	輯	-0.06305886
-3.022417	擔	-0.06305886
-2.5403926	心	-0.11972708
-2.4665675	直	-0.40958822
-2.7414536	接	-0.111164704
-3.022417	絕	-0.06305886
-3.022417	換	-0.26164612
-2.892886	言	-0.18491517
-2.7414536	之	-0.06305886
-2.5403926	只	-0.17825028
-3.0833986	鴕	-0.06305886
-3.0833986	鳥	-0.06305886
-3.0833986	策	-0.06305886
-3.0833986	難	-0.06305886
-3.0833986	怪	-0.06305886
-2.892886	兩	-0.06305886
-3.0833986	檢	-0.06305886
-3.0833986	歌	-0.06305886
-2.892886	原	-0.06305886
-3.022417	怕	-0.06305886
-2.62939	此	-0.11972708
-2.7414536	見	-0.06305886
-3.022417	把	-0.06305886
-3.022417	視	-0.06305886
-2.892886	民	-0.18491517
-3.0833986	糞	-0.06305886
-2.7414536	面	-0.06305886
-3.022417	社	-0.26164612
-3.0833986	福	-0.06305886
-3.0833986	祉	-0.06305886
-3.022417	際	-0.06305886
-2.7414536	討	-0.15109919
-3.022417	好	-0.06305886
-2.892886	何	-0.06305886
-3.022417	看	-0.06305886
-3.0833986	少	-0.06305886
-2.892886	體	-0.13200535
-3.0833986	希	-0.06305886
-3.0833986	望	-0.06305886
-2.892886	考	-0.33547962
-3.022417	慮	-0.06305886
-2.892886	被	-0.06305886
-3.0833986	戲	-0.06305886
-2.892886	稱	-0.06305886
-3.0833986	沙	-0.06305886
-3.0833986	漠	-0.06305886
-3.0833986	注	-0.06305886
-3.022417	入	-0.06305886
-3.0833986	氣	-0.06305886
-3.022417	息	-0.06305886
-3.022417	位	-0.06305886
-2.5403926	本	-0.15980296
-3.0833986	取	-0.06305886
-3.0833986	學	-0.06305886
-3.0833986	推	-0.06305886
-3.022417	廣	-0.06305886
-3.022417	創	-0.06305886
-3.0833986	歷	-0.06305886
-3.0833986	史	-0.06305886
-3.0833986	教	-0.06305886
-3.022417	育	-0.06305886
-3.0833986	援	-0.06305886
-3.022417	些	-0.06305886
-2.892886	思	-0.06305886
-3.0833986	惜	-0.06305886
-2.4665675	無	-0.15980296
-3.0833986	功	-0.06305886
-2.3484182	而	-0.06305886
-3.022417	還	-0.06305886
-3.0833986	突	-0.06305886
-2.4665675	然	-0.111164704
-3.0833986	極	-0.06305886
-3.0833986	短	-0.06305886
-3.0833986	內	-0.06305886
-3.022417	令	-0.26164612
-2.892886	質	-0.18491517
-2.892886	疑	-0.06305886
-3.0833986	促	-0.06305886
-3.0833986	想	-0.06305886
-3.022417	整	-0.06305886
-3.022417	透	-0.06305886
-2.7414536	究	-0.15980296
-3.022417	竟	-0.06305886
-3.0833986	生	-0.06305886
-2.7414536	甚	-0.46041834
-3.0833986	麼	-0.06305886
-2.5403926	場	-0.17825028
-3.0833986	扮	-0.06305886
-3.022417	演	-0.06305886
-3.0833986	角	-0.06305886
-3.0833986	色	-0.06305886
-3.0833986	影	-0.06305886
-3.022417	響	-0.06305886
-2.892886	深	-0.06305886
-3.0833986	遠	-0.06305886
-2.62939	因	-0.13200535
-2.7414536	點	-0.06305886
-3.0833986	秘	-0.06305886
-3.022417	書	-0.06305886
-2.7414536	商	-0.06305886
-3.0833986	包	-0.06305886
-3.0833986	括	-0.06305886
-3.0833986	料	-0.06305886
-3.0833986	協	-0.06305886
-2.7414536	另	-0.46041834
-2.7414536	重	-0.06305886
-3.022417	正	-0.06305886
-3.022417	委	-0.21400172
-3.022417	師	-0.06305886
-2.5403926	嚴	-0.42587942
-3.0833986	迅	-0.06305886
-3.0833986	奇	-0.06305886
-3.0833986	周	-0.06305886
-2.7414536	知	-0.26164612
-3.022417	聘	-0.06305886
-2.4665675	其	-0.06305886
-3.0833986	付	-0.06305886
-3.022417	四	-0.26164612
-3.0833986	百	-0.06305886
-2.1792243	顧	-0.9723017
-2.7414536	完	-0.15109919
-3.0833986	草	-0.06305886
-3.0833986	圖	-0.06305886
-3.022417	承	-0.26164612
-3.022417	她	-0.06305886
-3.0833986	親	-0.06305886
-3.0833986	觸	-0.06305886
-3.0833986	邀	-0.06305886
-3.022417	請	-0.06305886
-2.7414536	他	-0.06305886
-3.0833986	呼	-0.06305886
-3.0833986	籲	-0.06305886
-2.892886	外	-0.06305886
-3.022417	界	-0.06305886
-3.0833986	別	-0.06305886
-3.0833986	治	-0.06305886
-3.022417	解	-0.06305886
-3.022417	願	-0.06305886
-3.0833986	醉	-0.06305886
-3.0833986	華	-0.06305886
-2.892886	舉	-0.06305886
-3.022417	世	-0.06305886
-3.0833986	名	-0.06305886
-3.0833986	恰	-0.06305886
-3.022417	機	-0.06305886
-3.0833986	構	-0.06305886
-3.022417	欽	-0.26164612
-3.0833986	話	-0.06305886
-2.892886	小	-0.06305886
-3.0833986	樣	-0.06305886
-2.62939	做	-0.34669816
-3.022417	按	-0.26164612
-3.0833986	照	-0.06305886
-3.0833986	再	-0.06305886
-3.0833986	高	-0.06305886
-3.022417	隨	-0.06305886
-3.0833986	消	-0.06305886
-3.0833986	布	-0.06305886
-3.0833986	各	-0.06305886
-3.022417	論	-0.06305886
-3.0833986	私	-0.06305886
-3.0833986	比	-0.06305886
-3.022417	挑	-0.26164612
-3.0833986	劉	-0.06305886
-3.0833986	榮	-0.06305886
-3.022417	批	-0.26164612
-3.0833986	評	-0.06305886
-3.0833986	抹	-0.06305886
-3.0833986	煞	-0.06305886
-3.0833986	般	-0.06305886
-3.0833986	初	-0.06305886
-3.0833986	步	-0.06305886
-3.0833986	詳	-0.06305886
-3.0833986	細	-0.06305886
-3.0833986	每	-0.06305886
-3.0833986	試	-0.06305886
-3.0833986	憑	-0.06305886
-3.0833986	享	-0.06305886
-3.0833986	待	-0.06305886
-3.0833986	遇	-0.06305886
-2.892886	繞	-0.33547962
-3.0833986	簡	-0.06305886
-3.0833986	單	-0.06305886
-3.0833986	必	-0.06305886
-3.0833986	澄	-0.06305886
-3.0833986	許	-0.06305886
-3.0833986	李	-0.06305886
-2.892886	供	-0.06305886
-3.0833986	服	-0.06305886
-3.0833986	約	-0.06305886
-3.022417	紀	-0.26164612
-3.0833986	型	-0.06305886
-3.022417	犧	-0.26164612
-3.0833986	牲	-0.06305886
-3.022417	們	-0.06305886
-3.0833986	早	-0.06305886
-3.0833986	八	-0.06305886
-3.0833986	娛	-0.06305886
-3.022417	樂	-0.06305886
-3.0833986	節	-0.06305886
-3.0833986	流	-0.06305886
-3.022417	放	-0.26164612
-3.0833986	棄	-0.06305886
-3.0833986	安	-0.06305886
-3.0833986	排	-0.06305886
-3.0833986	懷	-0.06305886
-3.0833986	讓	-0.06305886
-2.892886	路	-0.06305886
-3.022417	予	-0.06305886
-3.022417	白	-0.06305886
-3.0833986	固	-0.06305886
-3.0833986	熟	-0.06305886
-3.0833986	業	-0.06305886
-3.0833986	性	-0.06305886
-3.0833986	環	-0.06305886
-3.0833986	境	-0.06305886
-3.0833986	素	-0.06305886
-3.0833986	述	-0.06305886
-3.022417	字	-0.06305886
-3.0833986	眼	-0.06305886
-3.0833986	覺	-0.06305886
-3.0833986	啟	-0.06305886
-3.0833986	德	-0.06305886
-3.0833986	園	-0.06305886
-2.892886	將	-0.18491517
-3.0833986	繼	-0.06305886
-3.022417	才	-0.06305886
-3.022417	更	-0.06305886
-3.022417	鑿	-0.06305886
-3.022417	強	-0.26164612
-3.0833986	調	-0.06305886
-2.62939	研	-0.55732834
-3.0833986	昭	-0.06305886
-3.0833986	皆	-0.06305886
-3.022417	掩	-0.26164612
-3.0833986	飾	-0.06305886
-3.0833986	怎	-0.06305886
-3.0833986	得	-0.06305886
-2.892886	即	-0.06305886
-3.0833986	使	-0.06305886
-3.0833986	釋	-0.06305886
-3.022417	起	-0.06305886
-3.0833986	像	-0.06305886
-3.022417	根	-0.26164612
-3.0833986	從	-0.06305886
-3.0833986	口	-0.06305886
-3.0833986	替	-0.06305886
-3.0833986	擱	-0.06305886
-3.0833986	受	-0.06305886
-3.022417	Waters	-0.26164612
-3.0833986	Economics	-0.06305886
-3.022417	Limited	-0.06305886
-3.0833986	辦	-0.06305886
-3.0833986	兼	-0.06305886
-3.0833986	總	-0.06305886
-3.0833986	傳	-0.06305886
-3.0833986	媒	-0.06305886
-3.0833986	七	-0.06305886
-3.0833986	結	-0.06305886
-2.892886	新	-0.18491517
-3.0833986	似	-0.06305886
-3.0833986	猜	-0.06305886
-3.0833986	尚	-0.06305886
-3.0833986	搶	-0.06305886
-3.0833986	儘	-0.06305886
-3.0833986	耐	-0.06305886
-3.0833986	尋	-0.06305886
-3.0833986	味	-0.06305886
-3.022417	數	-0.06305886
-3.0833986	圓	-0.06305886
-3.0833986	形	-0.06305886
-3.0833986	容	-0.06305886
-3.0833986	耻	-0.06305886
-3.0833986	辯	-0.06305886
-3.0833986	猶	-0.06305886
-3.0833986	電	-0.06305886
-3.022417	牌	-0.06305886
-3.0833986	風	-0.06305886
-3.0833986	波	-0.06305886
-3.0833986	翻	-0.06305886
-3.0833986	版	-0.06305886
-3.0833986	充	-0.06305886
-3.0833986	量	-0.06305886
-3.0833986	擋	-0.06305886
-3.0833986	箭	-0.06305886
-2.892886	報	-0.33547962
-3.0833986	告	-0.06305886
-3.0833986	果	-0.06305886
-3.0833986	擺	-0.06305886
-3.0833986	姿	-0.06305886
-3.0833986	態	-0.06305886
-3.0833986	證	-0.06305886
-3.0833986	真	-0.06305886
-3.0833986	洪	-0.06305886
-3.0833986	爐	-0.06305886
-3.0833986	火	-0.06305886
-3.0833986	查	-0.06305886
-3.0833986	閱	-0.06305886
-3.0833986	Ernst	-0.06305886
-3.0833986	Young	-0.06305886
-3.0833986	Transactions	-0.06305886
-3.022417	核	-0.26164612
-3.0833986	組	-0.06305886
-3.0833986	捲	-0.06305886
-3.0833986	哪	-0.06305886
-3.0833986	剛	-0.06305886
-3.0833986	審	-0.06305886
-3.0833986	雖	-0.06305886
-3.0833986	斥	-0.06305886
-3.0833986	饋	-0.06305886
-3.0833986	撥	-0.06305886
-3.0833986	款	-0.06305886
-3.0833986	器	-0.06305886

\2-grams:
-1.3394806	) </s>	0
-0.86417496	<s> 主	-0.06717996
-2.167831	會 主	-0.06717996
-1.680362	見 主	-0.06717996
-0.86417496	園 主	-0.06717996
-0.6442577	主 席	-0.06717996
-1.1431887	席 我	-0.06717996
-1.7632766	說 我	-0.06717996
-1.8825855	議 我	-0.06717996
-2.0975587	是 我	-0.06717996
-1.1431887	助 我	-0.06717996
-1.4187752	求 我	-0.06717996
-1.8127635	向 我	-0.06717996
-1.5035014	序 我	-0.06717996
-0.8106382	此 我	-0.11117317
-1.3063719	告 我	-0.06717996
-1.8877817	我 先	-0.06717996
-0.86655486	搶 先	-0.06717996
-1.1431887	先 說	-0.06717996
-1.7632766	說 說	-0.06717996
-2.0443606	這 說	-0.06717996
-1.6346791	多 說	-0.06717996
-1.5035014	種 說	-0.06717996
-1.6124916	沒 說	-0.06717996
-1.8456209	人 說	-0.06717996
-1.8389283	個 說	-0.06717996
-1.5708314	面 說	-0.06717996
-1.6262417	其 說	-0.06717996
-1.689838	說 這	-0.06717996
-1.8567036	府 這	-0.06717996
-1.9714528	是 這	-0.06717996
-1.6665952	意 這	-0.06717996
-1.8263062	以 這	-0.06717996
-1.378613	代 這	-0.06717996
-1.2201707	為 這	-0.06717996
-1.117512	過 這	-0.06717996
-1.6033366	定 這	-0.06717996
-1.4551531	家 這	-0.06717996
-1.378613	音 這	-0.13496226
-1.4551531	到 這	-0.06717996
-1.1214345	笑 這	-0.06717996
-1.1214345	照 這	-0.06717996
-1.2750468	布 這	-0.06717996
-1.1214345	評 這	-0.06717996
-1.1214345	棄 這	-0.06717996
-1.1214345	調 這	-0.06717996
-0.6304139	這 項	-0.11117317
-2.090326	的 項	-0.06717996
-1.9732462	一 項	-0.06717996
-1.608584	與 項	-0.06717996
-1.9180899	館 項	-0.13496226
-1.6281681	展 項	-0.06717996
-2.0145667	是 項	-0.06717996
-1.4726591	築 項	-0.13496226
-1.5976057	多 項	-0.06717996
-1.666576	程 項	-0.06717996
-1.2865305	上 項	-0.06717996
-1.1197946	個 項	-0.13496226
-1.1294651	整 項	-0.06717996
-1.3932421	麼 項	-0.06717996
-1.3004131	新 項	-0.06717996
-2.0174215	項 議	-0.06717996
-2.1862216	的 議	-0.06717996
-2.0802605	建 議	-0.06717996
-1.1622479	會 議	-0.11117317
-0.85402703	莊 議	-0.13496226
-1.1404091	持 議	-0.22281168
-0.4872737	爭 議	-0.06717996
-1.413547	商 議	-0.06717996
-0.85402703	協 議	-0.06717996
-1.3023305	供 議	-0.06717996
-0.85402703	審 議	-0.06717996
-0.9356669	議 案	-0.0930377
-1.6999234	方 案	-0.06717996
-1.5065502	說 的	-0.06717996
-1.3230325	案 的	-0.06717996
-1.1834282	官 的	-0.06717996
-1.5811526	司 的	-0.13496226
-1.4471688	與 的	-0.06717996
-1.400039	宮 的	-0.06717996
-1.4980847	區 的	-0.06717996
-1.5787884	府 的	-0.06717996
-1.5933851	館 的	-0.06717996
-1.4272008	展 的	-0.06717996
-1.5751748	出 的	-0.06717996
-1.1184615	地 的	-0.06717996
-1.5667913	計 的	-0.06717996
-1.6474711	有 的	-0.06717996
-1.0551486	需 的	-0.06717996
-1.3923602	同 的	-0.06717996
-1.0490562	當 的	-0.06717996
-1.0551486	置 的	-0.06717996
-1.3662792	理 的	-0.06717996
-1.5902491	事 的	-0.06717996
-1.3230325	員 的	-0.06717996
-1.487978	中 的	-0.06717996
-1.4173806	要 的	-0.06717996
-1.4272008	標 的	-0.06717996
-1.4272008	後 的	-0.06717996
-1.4495674	眾 的	-0.06717996
-1.2653008	途 的	-0.06717996
-1.5051608	程 的	-0.06717996
-1.4683291	件 的	-0.06717996
-1.0551486	施 的	-0.06717996
-1.1834282	宜 的	-0.06717996
-1.5206604	目 的	-0.06717996
-1.0551486	央 的	-0.06717996
-0.8078525	漠 的	-0.06717996
-1.1834282	思 的	-0.06717996
-0.8078525	遠 的	-0.06717996
-1.400039	點 的	-0.06717996
-1.0551486	她 的	-0.06717996
-1.1834282	小 的	-0.06717996
-1.0551486	論 的	-0.06717996
-1.0551486	牲 的	-0.06717996
-1.1834282	們 的	-0.06717996
-1.0551486	性 的	-0.06717996
-1.1834282	Limited 的	-0.06717996
-0.8078525	波 的	-0.06717996
-2.5298786	的 背	-0.06717996
-0.86655486	背 景	-0.06717996
-1.1649693	願 景	-0.06717996
-1.1349027	景 在	-0.06717996
-1.5489953	娥 在	-0.06717996
-1.6015171	宮 在	-0.06717996
-1.9355314	府 在	-0.06717996
-1.4377701	是 在	-0.06717996
-1.4960215	卻 在	-0.06717996
-1.9391638	局 在	-0.06717996
-0.34088123	存 在	-0.06717996
-1.655751	關 在	-0.06717996
-1.2943587	宜 在	-0.06717996
-1.8131073	目 在	-0.06717996
-1.1349027	取 在	-0.06717996
-0.85117066	早 在	-0.06717996
-0.8066817	在 二	-0.34775043
-1.6585441	二 二	-0.06717996
-1.4348482	零 二	-0.06717996
-1.6524594	十 二	-0.06717996
-1.7082669	月 二	-0.06717996
-0.6416354	於 二	-0.5238417
-1.5294423	第 二	-0.06717996
-0.8859503	二 零	-0.45476973
-1.4608152	零 零	-0.06717996
-1.923368	這 一	-0.06717996
-1.359844	零 一	-0.389634
-1.5348108	十 一	-0.06717996
-1.5872514	月 一	-0.06717996
-1.2601926	務 一	-0.06717996
-1.802554	府 一	-0.06717996
-1.9352458	建 一	-0.06717996
-1.7477893	地 一	-0.06717996
-1.7897187	於 一	-0.06717996
-1.8491406	會 一	-0.06717996
-1.6308793	亦 一	-0.06717996
-1.5213897	立 一	-0.06717996
-1.6809404	就 一	-0.06717996
-1.644554	中 一	-0.06717996
-0.72251713	第 一	-0.06717996
-1.7811966	為 一	-0.06717996
-1.7304265	過 一	-0.06717996
-1.7163895	人 一	-0.06717996
-1.6038611	否 一	-0.06717996
-0.18206841	另 一	-0.13496226
-0.8385444	每 一	-0.06717996
-0.8385444	哪 一	-0.06717996
-2.2180953	一 六	-0.5238417
-1.9212494	年 六	-0.13496226
-1.6667997	二 年	-0.06717996
-1.1544887	六 年	-0.08861973
-1.6070913	同 年	-0.06717996
-1.5298562	五 年	-0.06717996
-0.88098407	多 年	-0.06717996
-0.86125124	八 年	-0.06717996
-1.6752152	二 十	-0.06717996
-0.86542106	年 十	-0.06717996
-0.73814857	三 十	-0.13496226
-1.5367026	五 十	-0.13496226
-1.5411797	第 十	-0.06717996
-1.6504425	二 月	-0.06717996
-2.0919027	一 月	-0.06717996
-1.1488019	六 月	-0.13496226
-1.6435431	十 月	-0.06717996
-0.8583471	鄭 月	-0.5238417
-1.5164789	九 月	-0.06717996
-1.5164789	五 月	-0.06717996
-0.8583471	七 月	-0.06717996
-2.3873127	的 三	-0.06717996
-1.6708605	十 三	-0.06717996
-0.8627106	贈 三	-0.06717996
-2.094506	局 三	-0.06717996
-1.5411797	第 三	-0.06717996
-2.309475	的 日	-0.06717996
-2.1118464	一 日	-0.06717996
-1.5294423	三 日	-0.06717996
-1.9676511	於 日	-0.06717996
-1.4413024	至 日	-0.06717996
-1.7833412	件 日	-0.06717996
-1.151636	輯 日	-0.06717996
-1.6852517	日 前	-0.06717996
-1.8084041	和 前	-0.06717996
-2.1860702	建 前	-0.06717996
-1.9721692	事 前	-0.06717996
-1.3271633	供 前	-0.06717996
-1.5231161	前 行	-0.06717996
-1.2329389	可 行	-0.13496226
-0.28032508	進 行	-0.06717996
-1.3187269	思 行	-0.06717996
-1.3187269	舉 行	-0.06717996
-1.151636	照 行	-0.06717996
-0.85979676	流 行	-0.06717996
-1.3964007	前 政	-0.06717996
-0.9886098	行 政	-0.13496226
-1.6130624	區 政	-0.13496226
-1.5080173	成 政	-0.06717996
-1.8422407	是 政	-0.06717996
-1.7324027	及 政	-0.22281168
-1.3288319	示 政	-0.06717996
-1.3288319	非 政	-0.06717996
-1.3288319	求 政	-0.06717996
-1.5227944	標 政	-0.06717996
-1.3734826	團 政	-0.06717996
-1.5508494	眾 政	-0.06717996
-0.8289717	題 政	-0.06717996
-1.3288319	任 政	-0.06717996
-1.5746762	件 政	-0.06717996
-1.5227944	如 政	-0.06717996
-1.71301	為 政	-0.13496226
-1.5906638	時 政	-0.06717996
-1.2353611	但 政	-0.06717996
-1.0931975	央 政	-0.06717996
-1.4480982	之 政	-0.06717996
-0.8289717	鳥 政	-0.06717996
-0.8289717	怪 政	-0.06717996
-1.0931975	際 政	-0.06717996
-0.8289717	望 政	-0.06717996
-1.3288319	疑 政	-0.06717996
-1.3288319	竟 政	-0.06717996
-1.0931975	請 政	-0.06717996
-1.0931975	數 政	-0.06717996
-2.3029704	政 長	-0.13496226
-0.75545	司 長	-0.18551405
-1.3314438	) 長	-0.06717996
-1.1602508	書 長	-0.11117317
-2.5163012	的 官	-0.06717996
-1.6317832	長 官	-0.06717996
-1.3394806	官 梁	-0.06717996
-0.86689866	梁 振	-0.06717996
-0.86689866	振 英	-0.06717996
-0.8569023	英 和	-0.06717996
-2.0273395	館 和	-0.06717996
-1.578361	理 和	-0.06717996
-1.1459863	清 和	-0.06717996
-1.424067	途 和	-0.06717996
-1.7596462	件 和	-0.06717996
-1.424067	適 和	-0.13496226
-0.8569023	檢 和	-0.06717996
-0.8569023	史 和	-0.06717996
-1.5026076	政 務	-0.13496226
-2.0039072	事 務	-0.13496226
-0.86564416	服 務	-0.06717996
-1.3187269	務 司	-0.13496226
-1.9396224	司 司	-0.13496226
-1.9376471	出 司	-0.06717996
-0.98948145	公 司	-0.07991643
-1.8416653	向 司	-0.06717996
-1.7833412	而 司	-0.06717996
-1.3187269	即 司	-0.06717996
-1.6098576	長 林	-0.13496226
-1.1573602	義 林	-0.06717996
-1.8125873	時 林	-0.06717996
-1.6752152	然 林	-0.06717996
-0.8627106	圖 林	-0.06717996
-0.14079785	林 鄭	-0.5238417
-1.7559228	月 娥	-0.06717996
-2.0552685	在 北	-0.06717996
-1.6948036	與 北	-0.06717996
-1.1631608	好 北	-0.13496226
-0.26880583	北 京	-0.06717996
-1.4459038	京 與	-0.06717996
-1.9836373	地 與	-0.06717996
-2.1487	有 與	-0.06717996
-2.094506	局 與	-0.06717996
-0.26823917	參 與	-0.06717996
-1.3507551	京 故	-0.06717996
-0.62110645	與 故	-0.22281168
-1.9133891	建 故	-0.22281168
-1.5880433	港 故	-0.13496226
-1.2529519	( 故	-0.06717996
-1.1573505	出 故	-0.22281168
-0.8357878	藏 故	-0.06717996
-1.7706771	於 故	-0.06717996
-1.5379361	成 故	-0.06717996
-1.7902329	及 故	-0.06717996
-1.7576388	以 故	-0.06717996
-1.1058054	助 故	-0.06717996
-1.3507551	非 故	-0.06717996
-1.2529519	責 故	-0.06717996
-1.6645818	就 故	-0.06717996
-1.1058054	持 故	-0.06717996
-1.5212823	問 故	-0.06717996
-1.1058054	施 故	-0.06717996
-1.2529519	現 故	-0.06717996
-1.1058054	擔 故	-0.06717996
-1.3507551	何 故	-0.06717996
-1.6140656	而 故	-0.06717996
-1.55357	究 故	-0.06717996
-1.1058054	予 故	-0.06717996
-0.045431003	故 宮	-0.54849327
-1.690076	宮 博	-0.22281168
-1.8350023	化 博	-0.13496226
-1.1631608	名 博	-0.06717996
-0.26880583	博 物	-0.2646953
-1.1656531	物 院	-0.06717996
-1.1649693	院 簽	-0.06717996
-1.3384608	Limited 簽	-0.06717996
-0.34384614	簽 訂	-0.06717996
-1.1649693	條 訂	-0.06717996
-2.2139127	的 合	-0.06717996
-1.3063719	訂 合	-0.06717996
-1.6346791	選 合	-0.06717996
-1.4499497	是 合	-0.13496226
-1.4187752	信 合	-0.06717996
-1.8612227	不 合	-0.06717996
-1.7131939	否 合	-0.06717996
-1.5794982	很 合	-0.06717996
-1.1431887	些 合	-0.06717996
-0.85546225	構 合	-0.06717996
-1.8509301	合 作	-0.06717996
-1.9482657	地 作	-0.06717996
-2.10394	有 作	-0.06717996
-1.5231161	運 作	-0.06717996
-1.5231161	曾 作	-0.06717996
-1.151636	創 作	-0.06717996
-0.85979676	色 作	-0.06717996
-1.6980532	作 備	-0.06717996
-0.86655486	籌 備	-0.06717996
-1.1656531	備 忘	-0.06717996
-0.86655486	忘 錄	-0.06717996
-0.34384614	紀 錄	-0.06717996
-1.4572481	錄 特	-0.06717996
-1.4572481	何 特	-0.06717996
-1.1631608	界 特	-0.06717996
-0.5195439	特 區	-0.13496226
-1.8435638	化 區	-0.118111916
-0.10793273	政 府	-0.09554886
-2.1281605	府 選	-0.06717996
-2.145587	館 選	-0.06717996
-0.90106726	人 選	-0.06717996
-0.343393	挑 選	-0.06717996
-0.8862721	選 址	-0.13496226
-1.1981146	在 西	-0.13496226
-1.6411672	年 西	-0.06717996
-1.553966	日 西	-0.06717996
-1.3964007	前 西	-0.06717996
-1.5080173	作 西	-0.06717996
-0.8289717	址 西	-0.13496226
-1.5746762	化 西	-0.06717996
-1.863124	建 西	-0.06717996
-1.2353611	( 西	-0.06717996
-1.6786605	地 西	-0.06717996
-1.7264335	於 西	-0.06717996
-1.7324027	及 西	-0.06717996
-1.7164572	用 西	-0.06717996
-1.6409752	由 西	-0.06717996
-1.0285293	就 西	-0.13496226
-1.5227944	標 西	-0.06717996
-1.5257723	交 西	-0.06717996
-1.5227944	詢 西	-0.22281168
-1.3964007	明 西	-0.06717996
-1.4177408	認 西	-0.06717996
-1.3964007	對 西	-0.06717996
-1.4891975	見 西	-0.06717996
-1.0931975	看 西	-0.06717996
-1.5257723	究 西	-0.13496226
-0.629729	知 西	-0.13496226
-1.0931975	解 西	-0.06717996
-0.8289717	般 西	-0.06717996
-1.0931975	牲 西	-0.06717996
-0.8289717	覺 西	-0.06717996
-1.9122086	年 九	-0.06717996
-1.690076	十 九	-0.06717996
-0.021234693	西 九	-0.9080685
-1.9740397	項 文	-0.06717996
-1.1530294	議 文	-0.13496226
-1.661561	的 文	-0.13496226
-1.5781245	宮 文	-0.13496226
-1.466745	九 文	-0.94981045
-2.008309	建 文	-0.06717996
-1.655096	港 文	-0.06717996
-1.8172954	地 文	-0.06717996
-1.1267718	分 文	-0.06717996
-1.466745	運 文	-0.06717996
-1.6316972	關 文	-0.13496226
-1.8495945	為 文	-0.06717996
-1.466745	家 文	-0.06717996
-1.1267718	入 文	-0.06717996
-0.84692097	料 文	-0.13496226
-0.84692097	華 文	-0.06717996
-0.29503945	文 化	-0.42075905
-0.86655486	治 化	-0.06717996
-2.1601908	的 興	-0.06717996
-1.7818606	區 興	-0.22281168
-1.5561526	劃 興	-0.06717996
-1.8999143	於 興	-0.06717996
-1.9971775	會 興	-0.06717996
-1.1376472	置 興	-0.06717996
-1.1376472	板 興	-0.13496226
-1.4909005	實 興	-0.06717996
-1.501416	因 興	-0.06717996
-1.1376472	棄 興	-0.06717996
-1.1376472	調 興	-0.06717996
-0.85259646	替 興	-0.06717996
-1.3004825	的 建	-0.099750064
-1.7698919	區 建	-0.06717996
-0.05291124	興 建	-0.1031573
-1.6831741	港 建	-0.06717996
-1.8567207	地 建	-0.06717996
-1.9920758	有 建	-0.06717996
-1.953497	及 建	-0.06717996
-1.8593104	用 建	-0.06717996
-1.2943587	元 建	-0.06717996
-1.601931	嚴 建	-0.06717996
-1.1349027	觸 建	-0.06717996
-1.4032758	他 建	-0.06717996
-0.5142561	新 建	-0.13496226
-2.1356325	的 香	-0.06717996
-1.9075427	在 香	-0.06717996
-1.715814	和 香	-0.06717996
-2.050035	建 香	-0.13496226
-1.8220456	計 香	-0.06717996
-2.0458872	是 香	-0.06717996
-1.4032758	示 香	-0.06717996
-1.4032758	信 香	-0.06717996
-1.7720836	由 香	-0.06717996
-1.6455479	如 香	-0.06717996
-1.5227498	進 香	-0.06717996
-1.5489953	面 香	-0.06717996
-1.1349027	廣 香	-0.06717996
-0.04890427	香 港	-0.15191375
-1.6524594	宮 館	-0.14590342
-1.151636	物 館	-0.06717996
-2.1478636	建 館	-0.06717996
-1.151636	分 館	-0.06717996
-1.151636	學 館	-0.06717996
-1.3187269	育 館	-0.06717996
-1.605715	場 館	-0.06717996
-2.173657	館 (	-0.06717996
-1.7552986	表 (	-0.06717996
-2.1439002	局 (	-0.06717996
-2.173657	館 )	-0.06717996
-2.1439002	局 )	-0.06717996
-1.1631608	起 )	-0.06717996
-1.5436587	前 期	-0.06717996
-1.618102	長 期	-0.06717996
-1.680362	問 期	-0.06717996
-1.7337172	詢 期	-0.06717996
-1.1631608	備 展	-0.06717996
-1.550728	期 展	-0.06717996
-0.36011946	發 展	-0.06717996
-0.87555885	作 出	-0.06717996
-1.6729958	展 出	-0.06717996
-2.0975587	是 出	-0.06717996
-0.37515846	提 出	-0.13728453
-0.73349243	指 出	-0.13496226
-1.6729958	間 出	-0.06717996
-1.6424546	交 出	-0.06717996
-1.5794982	心 出	-0.06717996
-1.6346791	然 出	-0.06717996
-0.85546225	擺 出	-0.06717996
-1.6985189	宮 珍	-0.06717996
-0.86689866	珍 藏	-0.06717996
-2.1990674	館 佔	-0.06717996
-2.1118464	一 地	-0.06717996
-0.85979676	佔 地	-0.06717996
-0.93008655	用 地	-0.22281168
-1.151636	土 地	-0.06717996
-0.6326613	本 地	-0.06717996
-0.56650174	場 地	-0.08135493
-0.85979676	各 地	-0.06717996
-2.2180953	一 萬	-0.06717996
-1.6961911	十 萬	-0.13496226
-1.1656531	萬 平	-0.06717996
-2.3466525	的 方	-0.06717996
-1.4183531	一 方	-0.11117317
-1.5352713	三 方	-0.06717996
-0.86125124	平 方	-0.06717996
-1.1544887	賽 方	-0.06717996
-1.6070913	同 方	-0.06717996
-1.7017779	方 米	-0.06717996
-2.3466525	的 計	-0.06717996
-1.3229246	( 計	-0.06717996
-0.86125124	米 計	-0.06717996
-1.9825653	於 計	-0.06717996
-0.17892133	設 計	-0.08135493
-1.7125193	定 計	-0.06717996
-0.69512916	計 劃	-0.06717996
-0.34384614	規 劃	-0.06717996
-1.5561526	娥 於	-0.06717996
-1.5561526	劃 於	-0.06717996
-1.1376472	基 於	-0.06717996
-1.4909005	等 於	-0.06717996
-1.955803	局 於	-0.13496226
-0.82100827	由 於	-0.06717996
-1.1376472	屬 於	-0.06717996
-0.6372049	至 於	-0.06717996
-0.9284339	關 於	-0.06717996
-1.6640744	須 於	-0.06717996
-1.2983263	下 於	-0.06717996
-1.1376472	組 於	-0.06717996
-1.1573602	先 落	-0.06717996
-1.9481461	議 落	-0.06717996
-2.02143	在 落	-0.06717996
-1.8841833	年 落	-0.06717996
-0.8627106	繼 落	-0.06717996
-1.7272849	月 成	-0.06717996
-0.73949957	落 成	-0.06717996
-2.1424568	會 成	-0.06717996
-1.3271633	深 成	-0.13496226
-0.64220464	完 成	-0.06717996
-1.8256363	議 可	-0.06717996
-2.090326	的 可	-0.06717996
-1.9022647	府 可	-0.06717996
-1.9180899	館 可	-0.06717996
-1.5976057	成 可	-0.06717996
-1.91888	及 可	-0.06717996
-1.4854293	也 可	-0.06717996
-1.6281681	後 可	-0.06717996
-0.8049849	很 可	-0.06717996
-1.5587159	只 可	-0.06717996
-1.5473031	此 可	-0.13496226
-1.6954525	而 可	-0.06717996
-1.3932421	麼 可	-0.06717996
-0.8483329	業 可	-0.06717996
-0.8483329	怎 可	-0.06717996
-1.9146559	這 是	-0.13496226
-1.6087948	的 是	-0.06717996
-1.7900095	府 是	-0.06717996
-1.7372141	地 是	-0.06717996
-1.819041	可 是	-0.06717996
-1.3552758	非 是	-0.06717996
-1.0398088	就 是	-0.06717996
-1.4454691	也 是	-0.06717996
-1.564867	後 是	-0.06717996
-1.2565572	都 是	-0.06717996
-1.4274589	來 是	-0.06717996
-1.2565572	但 是	-0.06717996
-1.6223911	法 是	-0.06717996
-1.2565572	能 是	-0.06717996
-1.699074	目 是	-0.06717996
-1.2565572	又 是	-0.06717996
-0.55752504	只 是	-0.06717996
-1.4274589	慮 是	-0.06717996
-1.5593498	本 是	-0.06717996
-1.6223911	而 是	-0.06717996
-1.4832456	奇 是	-0.06717996
-1.3552758	他 是	-0.06717996
-0.8371639	別 是	-0.06717996
-1.89797	年 卻	-0.06717996
-2.1281605	府 卻	-0.06717996
-1.618102	理 卻	-0.06717996
-1.9499285	目 卻	-0.06717996
-1.2555361	在 未	-0.13496226
-1.5231161	前 未	-0.06717996
-2.0540488	府 未	-0.06717996
-0.73628014	卻 未	-0.13496226
-0.85979676	今 未	-0.06717996
-1.8993789	目 未	-0.06717996
-0.85979676	尚 未	-0.06717996
-1.7250655	區 有	-0.06717996
-1.8713659	府 有	-0.06717996
-0.8710775	未 有	-0.06717996
-0.8687661	所 有	-0.099750064
-1.3834348	示 有	-0.06717996
-1.7852997	當 有	-0.06717996
-0.84551364	擁 有	-0.06717996
-1.7247546	就 有	-0.06717996
-1.6876018	中 有	-0.06717996
-1.611457	後 有	-0.06717996
-1.8374203	為 有	-0.06717996
-0.21775568	沒 有	-0.0930377
-1.3982738	討 有	-0.06717996
-1.570599	點 有	-0.06717996
-0.84551364	享 有	-0.06717996
-0.84551364	果 有	-0.06717996
-0.84551364	閱 有	-0.06717996
-1.4971552	案 提	-0.13496226
-1.56343	長 提	-0.06717996
-1.6636524	展 提	-0.06717996
-2.0262594	有 提	-0.06717996
-2.0151854	會 提	-0.22281168
-1.4971552	員 提	-0.13496226
-1.413547	途 提	-0.06717996
-1.6725605	須 提	-0.06717996
-1.5068785	體 提	-0.06717996
-1.6178428	點 提	-0.06717996
-1.3023305	們 提	-0.06717996
-1.5148773	長 及	-0.22281168
-1.378613	錄 及	-0.06717996
-1.7708976	計 及	-0.06717996
-1.7935297	提 及	-0.06717996
-1.9024618	會 及	-0.06717996
-1.0127927	以 及	-0.06717996
-1.8643681	局 及	-0.22281168
-0.1825573	涉 及	-0.06717996
-1.378613	途 及	-0.06717996
-1.6665952	件 及	-0.06717996
-1.7523586	目 及	-0.06717996
-1.1214345	部 及	-0.06717996
-0.8441108	謬 及	-0.06717996
-1.5632014	見 及	-0.13496226
-1.5148773	面 及	-0.06717996
-1.1214345	約 及	-0.06717996
-1.1214345	性 及	-0.06717996
-1.2750468	Limited 及	-0.06717996
-1.3271633	務 所	-0.06717996
-1.4014318	館 所	-0.06717996
-1.768356	眾 所	-0.06717996
-1.679192	交 所	-0.22281168
-1.4459038	開 所	-0.06717996
-2.174094	府 需	-0.06717996
-1.6999234	所 需	-0.06717996
-0.47914237	建 築	-0.3133758
-1.5436587	築 費	-0.06717996
-1.1602508	造 費	-0.06717996
-1.5436587	等 費	-0.06717996
-1.680362	問 費	-0.06717996
-2.0174215	項 用	-0.06717996
-1.7036078	的 用	-0.13496226
-1.7941686	區 用	-0.06717996
-1.8851442	地 用	-0.06717996
-1.56343	劃 用	-0.06717996
-1.9367652	可 用	-0.06717996
-0.73256713	費 用	-0.06717996
-1.1404091	善 用	-0.06717996
-1.8476331	不 用	-0.06717996
-1.7839298	就 用	-0.06717996
-1.3023305	聘 用	-0.06717996
-1.9925188	用 僅	-0.06717996
-2.129951	建 表	-0.06717996
-0.8583471	僅 表	-0.06717996
-1.7713321	意 表	-0.06717996
-1.7713321	亦 表	-0.06717996
-1.5236905	認 表	-0.06717996
-1.1488019	土 表	-0.06717996
-1.1488019	型 表	-0.5238417
-1.1488019	鑿 表	-0.06717996
-0.48514313	表 示	-0.06717996
-1.8003016	港 賽	-0.34775043
-0.86655486	比 賽	-0.06717996
-2.0132284	司 馬	-0.06717996
-1.1649693	賽 馬	-0.34775043
-2.0493028	的 會	-0.06717996
-1.6760029	和 會	-0.06717996
-1.278841	) 會	-0.06717996
-1.124095	馬 會	-0.099750064
-1.7739727	不 會	-0.06717996
-1.6760029	亦 會	-0.06717996
-0.7270565	也 會	-0.06717996
-1.611457	後 會	-0.06717996
-1.6760029	法 會	-0.06717996
-1.4609104	便 會	-0.06717996
-0.33976954	社 會	-0.06717996
-1.5957423	本 會	-0.22281168
-1.3834348	商 會	-0.06717996
-1.124095	機 會	-0.06717996
-1.124095	約 會	-0.06717996
-1.124095	樂 會	-0.06717996
-0.51228064	將 會	-0.06717996
-2.2191143	會 慈	-0.13496226
-0.86655486	慈 善	-0.13496226
-1.555156	慮 善	-0.06717996
-1.1631608	善 信	-0.13496226
-1.5532429	相 信	-0.06717996
-1.1631608	書 信	-0.06717996
-1.4572481	信 託	-0.13496226
-0.74041307	委 託	-0.06717996
-0.86564416	受 託	-0.06717996
-2.2655864	是 基	-0.06717996
-1.4608152	託 基	-0.13496226
-1.1649693	基 金	-0.06717996
-0.86655486	真 金	-0.06717996
-1.7176718	月 已	-0.06717996
-2.0773752	府 已	-0.06717996
-1.5298562	築 已	-0.06717996
-1.3229246	金 已	-0.06717996
-1.7956918	亦 已	-0.06717996
-1.3229246	稱 已	-0.06717996
-1.9980099	於 同	-0.06717996
-1.6187328	已 同	-0.06717996
-1.1767076	不 同	-0.06717996
-1.7229888	定 同	-0.06717996
-1.5367026	對 同	-0.06717996
-1.5170146	的 意	-0.17837249
-0.81406575	同 意	-0.06717996
-1.8849809	人 意	-0.06717996
-1.5938239	之 意	-0.06717996
-0.5172362	民 意	-0.06717996
-1.151636	願 意	-0.06717996
-1.151636	隨 意	-0.06717996
-1.8468356	意 捐	-0.06717996
-0.86689866	捐 贈	-0.06717996
-2.1547112	一 五	-0.13496226
-1.8841833	年 五	-0.06717996
-1.6708605	十 五	-0.13496226
-1.618305	立 五	-0.06717996
-0.8627106	百 五	-0.13496226
-1.5568371	五 億	-0.13496226
-1.1649693	萬 元	-0.13496226
-0.86655486	億 元	-0.06717996
-1.7872835	年 以	-0.06717996
-1.4032758	錄 以	-0.06717996
-1.9515431	館 以	-0.06717996
-1.8567207	地 以	-0.06717996
-0.63899016	可 以	-0.06717996
-0.8734776	所 以	-0.06717996
-1.2943587	元 以	-0.06717996
-1.6455479	標 以	-0.06717996
-1.4847345	明 以	-0.06717996
-1.6831741	否 以	-0.06717996
-1.1349027	輯 以	-0.06717996
-1.2943587	育 以	-0.06717996
-1.5489953	奇 以	-0.06717996
-2.054459	及 資	-0.06717996
-1.4294242	信 資	-0.06717996
-1.3145695	金 資	-0.06717996
-1.972302	以 資	-0.06717996
-2.0295775	局 資	-0.06717996
-1.4294242	全 資	-0.06717996
-1.1488019	位 資	-0.06717996
-0.8583471	斥 資	-0.06717996
-0.94442356	資 助	-0.06717996
-1.4525491	建 造	-0.06717996
-1.7482665	化 設	-0.13496226
-1.7131939	港 設	-0.06717996
-1.1431887	造 設	-0.06717996
-1.3063719	責 設	-0.13496226
-1.5035014	實 設	-0.06717996
-1.4187752	適 設	-0.06717996
-1.6262417	點 設	-0.06717996
-1.6262417	其 設	-0.06717996
-0.85546225	步 設	-0.06717996
-0.85546225	細 設	-0.06717996
-2.2132688	及 籌	-0.06717996
-1.7543046	展 覽	-0.06717996
-1.1573602	院 等	-0.06717996
-0.8627106	覽 等	-0.06717996
-1.8084041	件 等	-0.06717996
-1.8084041	法 等	-0.06717996
-1.7229888	了 等	-0.06717996
-1.5035014	案 當	-0.06717996
-1.5708314	娥 當	-0.06717996
-1.8922437	用 當	-0.06717996
-1.7482665	件 當	-0.06717996
-0.73349243	相 當	-0.06717996
-1.6812156	關 當	-0.06717996
-1.4187752	適 當	-0.13496226
-1.4187752	竟 當	-0.06717996
-0.85546225	恰 當	-0.06717996
-1.3063719	告 當	-0.06717996
-1.1164167	當 局	-0.06717996
-1.618102	理 局	-0.14351833
-1.9877483	事 局	-0.06717996
-0.5187339	該 局	-0.13496226
-2.094506	局 指	-0.06717996
-1.8084041	亦 指	-0.06717996
-0.8627106	應 指	-0.06717996
-1.7229888	定 指	-0.06717996
-1.4459038	疑 指	-0.06717996
-1.4187752	示 由	-0.06717996
-1.5124104	指 由	-0.06717996
-1.6729958	間 由	-0.06717996
-1.5035014	員 由	-0.06717996
-1.4187752	代 由	-0.06717996
-1.9308153	為 由	-0.06717996
-1.8541044	目 由	-0.06717996
-1.1431887	笑 由	-0.06717996
-1.4187752	竟 由	-0.06717996
-1.1431887	數 由	-0.06717996
-1.6585441	選 並	-0.06717996
-2.0708551	館 並	-0.06717996
-1.8926195	計 並	-0.06717996
-1.7221141	程 並	-0.06717996
-0.85979676	脈 並	-0.06717996
-1.7833412	法 並	-0.06717996
-1.6524594	見 並	-0.06717996
-0.63585407	並 非	-0.06717996
-1.6997445	無 非	-0.06717996
-1.8597815	設 置	-0.06717996
-0.86655486	擱 置	-0.06717996
-2.5163012	的 分	-0.06717996
-1.1649693	部 分	-0.06717996
-2.2005272	故 不	-0.06717996
-1.5935788	宮 不	-0.06717996
-1.9344945	館 不	-0.06717996
-1.8441552	出 不	-0.06717996
-1.9759427	有 不	-0.06717996
-1.963258	會 不	-0.06717996
-1.290427	金 不	-0.06717996
-1.6151502	並 不	-0.06717996
-1.5643201	要 不	-0.06717996
-1.4786549	來 不	-0.06717996
-1.7087547	經 不	-0.06717996
-1.4786549	便 不	-0.06717996
-1.6151502	本 不	-0.06717996
-0.84974945	味 不	-0.06717996
-2.1947803	會 參	-0.06717996
-1.550728	師 參	-0.06717996
-1.4572481	他 參	-0.06717996
-1.7023044	日 常	-0.06717996
-2.2056992	及 常	-0.22281168
-1.1649693	常 運	-0.06717996
-0.36029002	營 運	-0.06717996
-1.891741	區 管	-0.13496226
-1.5436587	九 管	-1.024444
-2.2065127	建 管	-0.06717996
-0.86417496	儘 管	-0.06717996
-0.8313837	合 理	-0.06717996
-0.393278	管 理	-0.91873515
-1.8005608	經 理	-0.06717996
-1.5471694	費 全	-0.06717996
-2.167831	會 全	-0.06717996
-2.1185012	局 全	-0.06717996
-1.4550887	完 全	-0.06717996
-1.4621675	全 權	-0.06717996
-1.695042	方 負	-0.06717996
-0.86564416	權 負	-0.06717996
-1.626506	奇 負	-0.13496226
-2.215271	有 責	-0.06717996
-0.5195439	負 責	-0.11117317
-2.3466525	的 營	-0.06717996
-1.7956918	和 營	-0.06717996
-2.0107074	公 營	-0.06717996
-1.7125193	後 營	-0.06717996
-1.5298562	或 營	-0.06717996
-0.86125124	私 營	-0.06717996
-1.8227562	我 亦	-0.06717996
-1.5860237	娥 亦	-0.06717996
-2.0319118	府 亦	-0.06717996
-2.0485525	館 亦	-0.06717996
-2.0741754	會 亦	-0.06717996
-1.1158861	局 亦	-0.06717996
-1.5164789	運 亦	-0.06717996
-1.1488019	廣 亦	-0.06717996
-2.3873127	的 立	-0.06717996
-0.8823509	成 立	-0.06717996
-2.2002485	是 立	-0.06717996
-1.7229888	詢 立	-0.06717996
-1.917844	過 立	-0.13496226
-1.4183531	一 間	-0.06717996
-1.5298562	期 間	-0.06717996
-1.0323738	時 間	-0.06717996
-1.3229246	兩 間	-0.06717996
-1.3285302	民 間	-0.06717996
-1.3229246	排 間	-0.06717996
-1.550728	九 董	-0.06717996
-2.1439002	局 董	-0.34775043
-0.86564416	兼 董	-0.06717996
-1.4107407	主 事	-0.06717996
-2.1123886	的 事	-0.06717996
-1.988338	一 事	-0.06717996
-1.71564	行 事	-0.06717996
-1.9344945	館 事	-0.06717996
-1.4786549	等 事	-0.06717996
-0.26645535	董 事	-0.35446376
-1.3982301	代 事	-0.06717996
-1.4786549	序 事	-0.06717996
-1.290427	乎 事	-0.06717996
-1.1321754	把 事	-0.06717996
-1.1321754	入 事	-0.06717996
-1.3982301	麼 事	-0.06717996
-1.4786549	師 事	-0.13496226
-1.7591774	資 擁	-0.06717996
-2.5298786	的 附	-0.06717996
-1.9177971	區 屬	-0.06717996
-0.86655486	附 屬	-0.06717996
-1.6967483	行 公	-0.06717996
-1.902554	及 公	-0.06717996
-1.6021158	並 公	-0.06717996
-1.1267718	屬 公	-0.06717996
-1.6197321	後 公	-0.06717996
-0.61482835	向 公	-0.34775043
-1.466745	序 公	-0.13496226
-1.5781245	問 公	-0.6487804
-1.6197321	詢 公	-0.13496226
-1.6316972	須 公	-0.06717996
-1.2826688	式 公	-0.06717996
-1.1219006	過 公	-0.13496226
-1.1267718	息 公	-0.06717996
-1.5781245	其 公	-0.06717996
-1.2826688	外 公	-0.06717996
-1.1267718	論 公	-0.06717996
-1.8705826	議 就	-0.06717996
-1.884614	司 就	-0.06717996
-2.0262594	有 就	-0.06717996
-1.5068785	費 就	-0.06717996
-1.413547	求 就	-0.06717996
-1.4971552	曾 就	-0.06717996
-1.6725605	須 就	-0.06717996
-1.7319307	經 就	-0.06717996
-1.702955	否 就	-0.06717996
-1.56343	面 就	-0.06717996
-1.1404091	組 就	-0.06717996
-1.8435638	意 陳	-0.06717996
-1.8861223	就 陳	-0.06717996
-0.34391144	陳 淑	-0.13496226
-0.86689866	淑 莊	-0.13496226
-1.1835697	議 員	-0.11117317
-1.3357668	官 員	-0.06717996
-1.6925519	成 員	-0.06717996
-2.1024842	及 中	-0.06717996
-0.658457	當 中	-0.06717996
-1.9571295	事 中	-0.06717996
-1.7295836	程 中	-0.06717996
-0.8152143	心 中	-0.06717996
-1.6615624	其 中	-0.06717996
-1.927881	用 多	-0.06717996
-1.7890964	中 多	-0.06717996
-1.7454437	眾 多	-0.06717996
-1.7022961	如 多	-0.06717996
-1.7833412	法 多	-0.06717996
-1.600027	很 多	-0.06717996
-1.151636	取 多	-0.06717996
-2.0656228	項 要	-0.06717996
-1.9528112	出 要	-0.13496226
-1.9202807	不 要	-0.06717996
-1.8945782	個 要	-0.06717996
-1.6119645	只 要	-0.06717996
-1.4403408	重 要	-0.06717996
-0.5692606	要 求	-0.06717996
-1.8680341	我 也	-0.06717996
-1.6295507	營 也	-0.06717996
-1.9499285	目 也	-0.06717996
-1.5436587	家 也	-0.06717996
-1.8448054	我 支	-0.13496226
-2.1024842	及 支	-0.06717996
-2.1184835	會 支	-0.06717996
-1.7956918	亦 支	-0.06717996
-1.4403408	開 支	-0.06717996
-1.6615624	其 支	-0.06717996
-0.5692606	支 持	-0.17837249
-2.0319118	府 自	-0.06717996
-2.0485525	館 自	-0.06717996
-2.1357727	是 自	-0.06717996
-1.5164789	員 自	-0.06717996
-1.1488019	把 自	-0.13496226
-0.8583471	親 自	-0.06717996
-1.3145695	外 自	-0.06717996
-1.3145695	排 自	-0.06717996
-1.747174	自 拍	-0.06717996
-1.3357668	下 拍	-0.06717996
-1.550728	便 拍	-0.06717996
-0.26880583	拍 板	-0.11117317
-1.8125873	行 招	-0.06717996
-2.1860702	建 招	-0.06717996
-1.4459038	開 招	-0.34775043
-1.7823601	經 招	-0.06717996
-1.917844	過 招	-0.06717996
-0.14079785	招 標	-0.06717996
-2.1281605	府 至	-0.06717996
-1.5436587	築 至	-0.06717996
-2.0479345	以 至	-0.06717996
-1.9499285	目 至	-0.06717996
-0.42617866	日 後	-0.06717996
-2.0277562	以 後	-0.06717996
-1.8084041	法 後	-0.06717996
-1.1573602	隨 後	-0.06717996
-1.3271633	布 後	-0.06717996
-1.550728	運 都	-0.06717996
-1.9681761	目 都	-0.06717996
-0.86564416	款 都	-0.06717996
-1.9816406	不 存	-0.06717996
-1.3384608	都 存	-0.06717996
-1.3365351	這 種	-0.06717996
-2.0380197	在 種	-0.06717996
-2.1778424	一 種	-0.06717996
-1.5436587	種 種	-0.06717996
-1.5568371	種 謎	-0.06717996
-1.683797	選 團	-0.06717996
-1.7337172	間 團	-0.06717996
-0.86417496	謎 團	-0.06717996
-1.5436587	師 團	-0.06717996
-1.4638191	至 今	-0.06717996
-0.6356431	未 曾	-0.06717996
-1.5532429	體 曾	-0.06717996
-1.1631608	才 曾	-0.06717996
-1.9907597	府 向	-0.06717996
-1.1431887	需 向	-0.06717996
-1.6424546	並 向	-0.06717996
-1.5708314	理 向	-0.06717996
-1.9016943	事 向	-0.06717996
-1.5035014	曾 向	-0.06717996
-1.4187752	任 向	-0.06717996
-0.93153423	須 向	-0.11117317
-1.6346791	然 向	-0.06717996
-1.6262417	點 向	-0.06717996
-1.9469707	計 眾	-0.06717996
-2.1862364	及 眾	-0.06717996
-0.7852068	公 眾	-0.08315976
-1.8003016	眾 清	-0.13496226
-0.86655486	澄 清	-0.06717996
-1.1656531	清 楚	-0.13496226
-1.8084041	和 交	-0.06717996
-1.9685242	出 交	-0.06717996
-0.8305516	提 交	-0.15373974
-0.8627106	楚 交	-0.13496226
-0.8627106	火 交	-0.06717996
-0.63601583	交 代	-0.06717996
-1.618102	劃 涉	-0.06717996
-1.9531226	不 涉	-0.06717996
-1.8248271	中 涉	-0.06717996
-1.9499285	目 涉	-0.06717996
-0.72754985	用 途	-0.0930377
-2.5163012	的 工	-0.06717996
-2.2056992	及 工	-0.06717996
-1.7501659	的 程	-0.13496226
-1.6017667	劃 程	-0.06717996
-0.34283358	工 程	-0.06717996
-1.7125193	了 程	-0.06717996
-1.1445343	過 程	-0.06717996
-0.86125124	單 程	-0.06717996
-0.48495626	程 序	-0.0930377
-1.8453939	時 序	-0.06717996
-2.0544364	公 義	-0.06717996
-1.1631608	義 問	-0.06717996
-0.04888075	顧 問	-0.33717933
-0.86564416	試 問	-0.06717996
-1.6985189	問 題	-0.06717996
-1.1602508	常 任	-0.22281168
-1.3314438	責 任	-0.06717996
-1.8248271	時 任	-0.06717996
-1.5507088	委 任	-0.06717996
-0.67197317	文 件	-0.096008174
-0.9653951	事 件	-0.06717996
-2.3873127	的 來	-0.06717996
-2.0277562	以 來	-0.06717996
-1.5367026	序 來	-0.06717996
-1.3271633	原 來	-0.06717996
-1.1573602	起 來	-0.06717996
-1.5568371	來 龍	-0.06717996
-0.86689866	龍 去	-0.06717996
-0.86689866	去 脈	-0.06717996
-2.173657	館 開	-0.06717996
-1.550728	運 開	-0.06717996
-0.7852068	公 開	-0.27528253
-2.2240586	是 相	-0.06717996
-2.1729379	有 相	-0.13496226
-1.4249073	會 相	-0.06717996
-0.86417496	話 相	-0.06717996
-1.3314438	訂 關	-0.06717996
-0.83598995	有 關	-0.06717996
-1.5471694	相 關	-0.13496226
-1.6869277	無 關	-0.06717996
-2.3873127	的 爭	-0.06717996
-1.6752152	多 爭	-0.06717996
-1.9444288	大 爭	-0.06717996
-1.7493892	直 爭	-0.06717996
-0.8627106	惜 爭	-0.06717996
-1.9774177	議 例	-0.06717996
-1.1631608	條 例	-0.06717996
-1.1631608	息 例	-0.06717996
-2.309475	的 如	-0.06717996
-1.7833412	意 如	-0.06717996
-1.5231161	等 如	-0.06717996
-1.4472243	管 如	-0.06717996
-0.5172362	例 如	-0.06717996
-1.6524594	見 如	-0.06717996
-0.85979676	猶 如	-0.06717996
-0.49010897	落 實	-0.06717996
-2.0039072	事 實	-0.06717996
-0.86564416	祉 實	-0.06717996
-1.7229888	展 進	-0.06717996
-1.5367026	曾 進	-0.06717996
-1.3271633	宜 進	-0.06717996
-0.8627106	促 進	-0.06717996
-0.8627106	再 進	-0.06717996
-1.8211385	年 諮	-0.06717996
-1.7560831	行 諮	-0.06717996
-2.0444162	有 諮	-0.06717996
-2.01122	及 諮	-0.06717996
-1.8612227	不 諮	-0.06717996
-1.7131939	眾 諮	-0.06717996
-1.6729958	如 諮	-0.06717996
-1.3063719	式 諮	-0.06717996
-1.7399395	經 諮	-0.06717996
-1.1431887	絕 諮	-0.06717996
-0.06470925	諮 詢	-0.12232904
-1.3403674	質 詢	-0.06717996
-1.555156	九 條	-0.06717996
-2.160377	局 條	-0.06717996
-1.5367026	案 第	-0.06717996
-2.3873127	的 第	-0.06717996
-1.5367026	等 第	-0.06717996
-1.3317697	例 第	-0.06717996
-1.4459038	重 第	-0.06717996
-1.3271633	訂 明	-0.06717996
-2.1192214	館 明	-0.06717996
-1.1573602	透 明	-0.06717996
-0.8627106	高 明	-0.06717996
-0.8627106	證 明	-0.06717996
-1.6017667	長 須	-0.13496226
-2.0773752	府 須	-0.06717996
-2.0717673	局 須	-0.06717996
-0.6333507	無 須	-0.06717996
-1.6017667	奇 須	-0.06717996
-0.86125124	必 須	-0.06717996
-1.7956918	和 發	-0.06717996
-1.7956918	化 發	-0.06717996
-1.9655914	地 發	-0.22281168
-1.84026	就 發	-0.06717996
-1.800683	中 發	-0.06717996
-1.1544887	視 發	-0.06717996
-1.7229888	展 或	-0.06717996
-1.6244504	營 或	-0.06717996
-1.7229888	標 或	-0.06717996
-1.5411797	體 或	-0.06717996
-1.1573602	還 或	-0.06717996
-1.861002	設 施	-0.06717996
-0.96574634	事 宜	-0.06717996
-2.0552685	在 該	-0.06717996
-0.86564416	藉 該	-0.06717996
-1.3357668	布 該	-0.06717996
-0.82965887	我 認	-0.22281168
-2.1185012	局 認	-0.13496226
-1.7802819	否 認	-0.06717996
-0.343393	承 認	-0.06717996
-1.7250069	說 為	-0.06717996
-1.6047715	作 為	-0.06717996
-1.758244	區 為	-0.06717996
-2.0299447	是 為	-0.06717996
-1.8789699	以 為	-0.06717996
-1.6475841	自 為	-0.06717996
-0.7298031	認 為	-0.120533004
-1.3982301	音 為	-0.06717996
-1.6736116	否 為	-0.06717996
-1.5643201	只 為	-0.06717996
-1.290427	稱 為	-0.06717996
-1.5643201	場 為	-0.06717996
-1.4906931	因 為	-0.06717996
-1.4786549	師 為	-0.06717996
-0.83189887	合 適	-0.099750064
-2.0622356	為 適	-0.13496226
-2.2139127	的 時	-0.06717996
-2.054569	一 時	-0.06717996
-1.8977268	司 時	-0.06717996
-1.8559005	計 時	-0.06717996
-1.5794982	同 時	-0.06717996
-1.8476008	當 時	-0.06717996
-1.6729958	詢 時	-0.06717996
-1.8541044	目 時	-0.06717996
-0.85546225	短 時	-0.06717996
-0.85546225	從 時	-0.06717996
-1.7543046	間 藉	-0.06717996
-0.88623804	方 式	-0.06717996
-1.1649693	正 式	-0.06717996
-1.4296563	會 但	-0.13496226
-1.7925446	眾 但	-0.06717996
-1.1631608	飾 但	-0.06717996
-1.6703737	未 經	-0.06717996
-2.10394	有 經	-0.06717996
-0.81508964	已 經	-0.06717996
-1.3187269	都 經	-0.06717996
-1.7082669	須 經	-0.06717996
-1.7022961	定 經	-0.06717996
-0.85979676	總 經	-0.06717996
-0.78731906	說 法	-0.06717996
-0.567637	立 法	-0.34775043
-0.8627106	歌 法	-0.06717996
-1.1573602	看 法	-0.06717996
-0.28072327	做 法	-0.06717996
-1.7897716	的 情	-0.13496226
-0.86689866	情 況	-0.13496226
-0.86655486	況 下	-0.06717996
-1.3403674	言 下	-0.06717996
-1.5568371	明 顯	-0.06717996
-0.86689866	顯 違	-0.06717996
-2.02143	在 反	-0.06717996
-0.8627106	違 反	-0.06717996
-1.3271633	現 反	-0.13496226
-1.1573602	怕 反	-0.06717996
-1.1573602	還 反	-0.06717996
-1.7943685	說 了	-0.06717996
-1.2532806	為 了	-0.06717996
-1.5352448	反 了	-0.06717996
-1.5231161	慮 了	-0.06717996
-0.85979676	生 了	-0.06717996
-1.5938239	奇 了	-0.06717996
-0.85979676	煞 了	-0.06717996
-1.7572366	資 回	-0.06717996
-1.8453939	時 回	-0.06717996
-1.1656531	回 應	-0.06717996
-2.2132688	及 改	-0.06717996
-0.86689866	改 變	-0.06717996
-0.86655486	變 土	-0.06717996
-0.86655486	糞 土	-0.06717996
-2.034775	地 規	-0.06717996
-1.1649693	市 規	-0.06717996
-2.2132688	及 城	-0.06717996
-2.2056992	及 市	-0.06717996
-0.86655486	城 市	-0.06717996
-2.2242122	一 致	-0.06717996
-1.1649693	板 通	-0.06717996
-0.86655486	致 通	-0.06717996
-1.8897486	不 過	-0.06717996
-1.7713321	件 過	-0.06717996
-0.5331426	經 過	-0.06717996
-0.34227487	通 過	-0.06717996
-1.8658625	個 過	-0.06717996
-1.5164789	慮 過	-0.06717996
-1.1488019	透 過	-0.06717996
-0.26764375	繞 過	-0.11117317
-2.0656228	項 決	-0.13496226
-2.3466525	的 決	-0.06717996
-2.0054507	在 決	-0.06717996
-1.7176718	關 決	-0.06717996
-1.8945782	個 決	-0.06717996
-1.1544887	才 決	-0.06717996
-0.113913305	決 定	-0.06717996
-1.3384608	原 定	-0.06717996
-2.5298786	的 魅	-0.06717996
-0.86689866	魅 力	-0.06717996
-1.9825653	於 沒	-0.06717996
-2.1257436	有 沒	-0.06717996
-1.7956918	亦 沒	-0.06717996
-1.800683	時 沒	-0.06717996
-0.86125124	力 沒	-0.06717996
-1.6715918	本 沒	-0.06717996
-1.7263643	化 人	-0.06717996
-1.8688781	出 人	-0.06717996
-2.0088313	有 人	-0.06717996
-1.4909005	五 人	-0.06717996
-1.6640744	關 人	-0.06717996
-1.4083811	適 人	-0.06717996
-0.3411596	令 人	-0.06717996
-1.6096033	點 人	-0.06717996
-1.2983263	路 人	-0.06717996
-1.1376472	予 人	-0.06717996
-0.85259646	辦 人	-0.06717996
-0.85259646	耐 人	-0.06717996
-1.2433552	可 能	-0.06717996
-1.953539	人 能	-0.06717996
-1.3394806	能 夠	-0.06717996
-0.86689866	夠 抗	-0.06717996
-0.86655486	抗 拒	-0.06717996
-1.6980532	接 拒	-0.06717996
-1.1656531	拒 加	-0.06717996
-0.86564416	加 上	-0.06717996
-1.1631608	際 上	-0.06717996
-1.8350023	而 上	-0.06717996
-0.27195767	項 目	-0.08549136
-2.4822152	的 目	-0.06717996
-0.86564416	節 目	-0.06717996
-1.0401529	中 央	-0.06717996
-1.8435638	和 國	-0.06717996
-2.174094	府 國	-0.06717996
-1.6925519	作 家	-0.06717996
-1.1631608	國 家	-0.06717996
-0.9040921	大 家	-0.06717996
-1.8435638	化 部	-0.06717996
-1.6997445	交 部	-0.06717996
-0.96524936	出 現	-0.11117317
-1.3384608	們 現	-0.06717996
-1.9699812	司 對	-0.06717996
-1.8084041	意 對	-0.06717996
-0.48899913	反 對	-0.34775043
-1.1573602	絕 對	-0.06717996
-1.6098576	面 對	-0.06717996
-1.5568371	對 聲	-0.34775043
-1.8453939	行 音	-0.06717996
-0.86655486	聲 音	-0.099750064
-1.8982993	當 便	-0.06717996
-1.7229888	標 便	-0.06717996
-1.7229888	詢 便	-0.06717996
-1.4459038	音 便	-0.06717996
-0.8627106	內 便	-0.06717996
-1.9301007	當 尷	-0.06717996
-0.86689866	尷 尬	-0.06717996
-1.7254032	行 大	-0.06717996
-1.7698919	區 大	-0.06717996
-2.050035	建 大	-0.06717996
-1.6120576	多 大	-0.06717996
-1.655751	關 大	-0.06717996
-1.8195654	過 大	-0.06717996
-1.4847345	對 大	-0.06717996
-0.85117066	尬 大	-0.06717996
-1.8818014	大 大	-0.06717996
-1.8014215	個 大	-0.06717996
-1.2943587	乎 大	-0.06717996
-1.4032758	疑 大	-0.06717996
-1.4032758	重 大	-0.06717996
-1.555156	家 聽	-0.06717996
-0.86655486	釋 聽	-0.06717996
-1.9699812	司 到	-0.06717996
-1.1573602	聽 到	-0.06717996
-1.1573602	感 到	-0.06717996
-0.8627106	得 到	-0.06717996
-0.8627106	猜 到	-0.06717996
-0.63537294	這 個	-0.06717996
-0.9754758	一 個	-0.06717996
-1.3314438	兩 個	-0.06717996
-1.1602508	整 個	-0.06717996
-0.69611263	是 否	-0.08315976
-2.1947803	會 否	-0.06717996
-1.6925519	然 否	-0.06717996
-2.5163012	的 感	-0.06717996
-1.8003016	否 感	-0.06717996
-1.7567488	港 很	-0.06717996
-2.0717673	局 很	-0.06717996
-1.7956918	法 很	-0.06717996
-1.5298562	到 很	-0.06717996
-1.7567488	否 很	-0.06717996
-0.86125124	像 很	-0.06717996
-1.6354244	很 荒	-0.06717996
-0.86689866	荒 謬	-0.06717996
-1.2438874	可 笑	-0.06717996
-2.1559691	府 又	-0.06717996
-2.1439002	局 又	-0.06717996
-1.8350023	法 又	-0.06717996
-1.0820607	合 乎	-0.06717996
-0.86655486	似 乎	-0.06717996
-1.9519053	個 邏	-0.06717996
-1.3384608	乎 邏	-0.06717996
-0.34391144	邏 輯	-0.06717996
-2.0827124	以 擔	-0.06717996
-1.3403674	負 擔	-0.06717996
-2.1257436	有 心	-0.06717996
-1.5298562	家 心	-0.06717996
-1.1544887	擔 心	-0.06717996
-1.6017667	之 心	-0.06717996
-0.86125124	醉 心	-0.06717996
-0.34283358	核 心	-0.13496226
-1.4142392	一 直	-0.06717996
-0.9362266	月 直	-0.22281168
-1.9900115	以 直	-0.06717996
-1.8336408	由 直	-0.06717996
-1.5231161	便 直	-0.06717996
-1.600027	此 直	-0.06717996
-1.7833412	而 直	-0.06717996
-1.7337172	間 接	-0.06717996
-1.7371156	自 接	-0.06717996
-1.9499285	目 接	-0.06717996
-0.23844443	直 接	-0.15612522
-1.8877817	我 絕	-0.06717996
-1.1649693	拒 絕	-0.06717996
-1.7516587	詢 換	-0.06717996
-1.555156	到 換	-0.06717996
-0.343673	換 言	-0.13496226
-1.6948036	究 言	-0.06717996
-1.1631608	更 言	-0.06717996
-1.3314438	下 之	-0.06717996
-0.5187339	言 之	-0.06717996
-0.86417496	昭 之	-0.06717996
-0.86417496	結 之	-0.06717996
-2.0773752	府 只	-0.06717996
-1.5298562	或 只	-0.06717996
-1.7956918	法 只	-0.06717996
-1.3229246	上 只	-0.06717996
-1.6017667	之 只	-0.06717996
-0.86125124	量 只	-0.06717996
-1.5568371	種 鴕	-0.06717996
-0.86689866	鴕 鳥	-0.06717996
-2.3183293	政 策	-0.06717996
-0.86689866	策 難	-0.06717996
-0.86689866	難 怪	-0.06717996
-2.0221472	地 兩	-0.06717996
-1.9804593	用 兩	-0.06717996
-1.3357668	聘 兩	-0.06717996
-1.3394806	兩 檢	-0.06717996
-1.1656531	國 歌	-0.06717996
-1.9076582	區 原	-0.06717996
-1.7447172	詢 原	-0.06717996
-1.1631608	些 原	-0.06717996
-2.2655864	是 怕	-0.06717996
-1.9816406	不 怕	-0.06717996
-1.6752152	選 此	-0.06717996
-2.1286473	及 此	-0.13496226
-1.0761529	由 此	-0.13496226
-0.73814857	因 此	-0.06717996
-1.1573602	評 此	-0.06717996
-2.145587	館 見	-0.06717996
-2.0238159	可 見	-0.06717996
-1.425826	有 見	-0.13496226
-1.8214996	意 見	-0.06717996
-1.6353576	要 把	-0.06717996
-0.9435505	自 把	-0.13496226
-2.0622356	為 視	-0.06717996
-0.86655486	電 視	-0.06717996
-1.4572481	京 民	-0.06717996
-1.1631608	視 民	-0.06717996
-0.86564416	少 民	-0.06717996
-1.7543046	如 糞	-0.06717996
-0.884269	方 面	-0.06717996
-1.7484071	表 面	-0.06717996
-1.680362	見 面	-0.06717996
-0.86417496	耻 面	-0.06717996
-1.7516587	了 社	-0.06717996
-0.86655486	饋 社	-0.06717996
-2.2191143	會 福	-0.06717996
-0.86689866	福 祉	-0.06717996
-1.555156	實 際	-0.06717996
-1.6317832	之 際	-0.06717996
-2.0308027	為 討	-0.06717996
-1.1602508	想 討	-0.06717996
-1.4515389	商 討	-0.06717996
-1.1602508	正 討	-0.06717996
-1.555156	來 好	-0.06717996
-0.6440895	討 好	-0.13496226
-2.1986089	有 何	-0.06717996
-1.7447172	如 何	-0.06717996
-1.2659751	為 何	-0.06717996
-1.555156	來 看	-0.06717996
-1.4608152	何 看	-0.06717996
-1.9859061	不 少	-0.06717996
-1.7925446	港 體	-0.06717996
-0.393278	團 體	-0.06717996
-0.86564416	德 體	-0.06717996
-1.5568371	案 希	-0.06717996
-0.86689866	希 望	-0.06717996
-2.1986089	有 考	-0.13496226
-2.0690963	以 考	-0.06717996
-1.7447172	定 考	-0.06717996
-0.2687595	考 慮	-0.06717996
-0.86655486	熟 慮	-0.06717996
-1.8350023	亦 被	-0.06717996
-2.049958	為 被	-0.06717996
-1.8350023	而 被	-0.06717996
-1.4621675	被 戲	-0.06717996
-1.3357668	又 稱	-0.06717996
-0.86564416	戲 稱	-0.06717996
-0.86564416	辯 稱	-0.06717996
-1.8468356	化 沙	-0.06717996
-0.86689866	沙 漠	-0.06717996
-1.8032621	港 注	-0.06717996
-0.86655486	注 入	-0.06717996
-0.86655486	捲 入	-0.06717996
-1.8468356	化 氣	-0.06717996
-0.86655486	氣 息	-0.06717996
-0.86655486	消 息	-0.06717996
-1.5570402	三 位	-0.06717996
-1.6980532	多 位	-0.06717996
-1.4403408	託 本	-0.06717996
-1.0753994	向 本	-0.22281168
-1.3229246	原 本	-0.06717996
-1.1544887	位 本	-0.06717996
-0.86125124	援 本	-0.06717996
-0.34283358	根 本	-0.06717996
-0.7413037	爭 取	-0.06717996
-1.2722354	文 學	-0.06717996
-2.087958	以 推	-0.06717996
-0.86655486	推 廣	-0.06717996
-0.86655486	榮 廣	-0.06717996
-2.5163012	的 創	-0.06717996
-1.1649693	學 創	-0.06717996
-1.7001452	作 歷	-0.06717996
-0.86689866	歷 史	-0.06717996
-1.8468356	和 教	-0.06717996
-0.7406068	體 育	-0.06717996
-0.86655486	教 育	-0.06717996
-1.6369083	支 援	-0.06717996
-2.1434252	這 些	-0.06717996
-2.2180953	一 些	-0.06717996
-1.8350023	意 思	-0.06717996
-1.6290013	心 思	-0.06717996
-1.3357668	深 思	-0.06717996
-2.0500846	可 惜	-0.06717996
-1.5294423	卻 無	-0.06717996
-1.4348482	全 無	-0.06717996
-1.9425933	事 無	-0.06717996
-1.7833412	法 無	-0.06717996
-1.5231161	便 無	-0.06717996
-1.7454437	否 無	-0.06717996
-0.85979676	容 無	-0.06717996
-1.7016217	無 功	-0.06717996
-2.0273395	館 而	-0.13496226
-2.053609	會 而	-0.06717996
-1.6825446	標 而	-0.06717996
-1.5099417	序 而	-0.06717996
-1.5254467	反 而	-0.06717996
-1.6825446	定 而	-0.06717996
-0.8569023	功 而	-0.06717996
-0.8769088	然 而	-0.06717996
-1.3104514	路 而	-0.06717996
-1.7516587	展 還	-0.06717996
-1.8435638	而 還	-0.06717996
-1.8468356	而 突	-0.06717996
-1.7082669	自 然	-0.06717996
-1.9779378	為 然	-0.06717996
-0.85979676	突 然	-0.06717996
-1.4348482	竟 然	-0.06717996
-0.85979676	固 然	-0.06717996
-0.85979676	素 然	-0.06717996
-0.85979676	雖 然	-0.06717996
-2.0705097	在 極	-0.06717996
-0.86689866	極 短	-0.06717996
-1.7543046	間 內	-0.06717996
-1.9555259	過 令	-0.06717996
-1.6980532	然 令	-0.06717996
-2.001766	出 質	-0.06717996
-1.9437106	人 質	-0.06717996
-1.550728	對 質	-0.06717996
-0.5192343	質 疑	-0.06717996
-1.3357668	供 疑	-0.06717996
-0.86564416	懷 疑	-0.06717996
-2.2719076	是 促	-0.06717996
-1.4835416	是 想	-0.06717996
-1.4608152	京 整	-0.06717996
-1.4608152	何 整	-0.06717996
-2.2123156	會 透	-0.06717996
-1.9816406	不 透	-0.06717996
-1.6247394	支 究	-0.06717996
-1.5436587	明 究	-0.06717996
-0.14063339	研 究	-0.0930377
-1.1602508	牌 究	-0.06717996
-2.174094	府 竟	-0.06717996
-0.63585407	究 竟	-0.06717996
-1.6391532	發 生	-0.06717996
-2.2065127	建 甚	-0.06717996
-1.7337172	了 甚	-0.06717996
-1.1602508	演 甚	-0.06717996
-0.86417496	憑 甚	-0.06717996
-0.18450004	甚 麼	-0.06717996
-1.4458494	主 場	-0.06717996
-1.8615569	區 場	-0.06717996
-1.6119645	立 場	-0.06717996
-1.3285302	該 場	-0.06717996
-1.1544887	市 場	-0.06717996
-1.1544887	演 場	-0.5907885
-1.3394806	又 扮	-0.06717996
-0.94449043	表 演	-0.5907885
-0.86655486	扮 演	-0.06717996
-1.4621675	麼 角	-0.06717996
-0.86689866	角 色	-0.06717996
-1.9558702	個 影	-0.06717996
-0.86655486	影 響	-0.06717996
-0.86655486	器 響	-0.06717996
-0.9433365	資 深	-0.13496226
-1.9463301	過 深	-0.06717996
-1.1631608	響 深	-0.06717996
-1.3394806	深 遠	-0.06717996
-1.9836373	地 因	-0.06717996
-1.4459038	代 因	-0.06717996
-1.7229888	如 因	-0.06717996
-1.1573602	名 因	-0.06717996
-0.8627106	境 因	-0.06717996
-1.683797	二 點	-0.06717996
-1.4266999	一 點	-0.06717996
-1.4515389	疑 點	-0.06717996
-0.343393	欽 點	-0.06717996
-1.4621675	任 秘	-0.22281168
-0.86655486	秘 書	-0.22281168
-0.86655486	括 書	-0.13496226
-2.014024	於 商	-0.06717996
-2.156488	及 商	-0.06717996
-1.6872594	所 商	-0.06717996
-1.8680341	由 商	-0.06717996
-1.8468356	件 包	-0.13496226
-0.86689866	包 括	-0.13496226
-0.94442356	資 料	-0.13496226
-1.8468356	和 協	-0.06717996
-2.4321768	的 另	-0.06717996
-1.4515389	錄 另	-0.06717996
-1.618102	劃 另	-0.06717996
-1.8248271	中 另	-0.06717996
-1.9253279	個 重	-0.06717996
-1.680362	點 重	-0.06717996
-1.4515389	重 重	-0.06717996
-1.1602508	更 重	-0.06717996
-1.555156	曾 正	-0.06717996
-1.3384608	現 正	-0.06717996
-0.8196836	已 委	-0.06717996
-1.6980532	接 委	-0.06717996
-1.9560115	計 師	-0.06717996
-1.555156	築 師	-0.14829141
-1.5352713	費 嚴	-0.06717996
-1.5352713	指 嚴	-0.06717996
-1.3229246	稱 嚴	-0.06717996
-1.5298562	師 嚴	-0.22281168
-1.1544887	觸 嚴	-0.06717996
-0.86125124	李 嚴	-0.06717996
-0.21989341	嚴 迅	-0.5907885
-0.86689866	迅 奇	-0.08549136
-1.7017779	所 周	-0.06717996
-2.4321768	的 知	-0.06717996
-0.86417496	周 知	-0.06717996
-1.1602508	世 知	-0.06717996
-0.86417496	皆 知	-0.06717996
-1.6980532	接 聘	-0.13496226
-0.74089503	委 聘	-0.06717996
-1.7833412	化 其	-0.06717996
-1.8416653	向 其	-0.06717996
-1.7022961	了 其	-0.06717996
-1.5938239	面 其	-0.06717996
-1.3187269	聘 其	-0.06717996
-0.85979676	圓 其	-0.06717996
-0.85979676	充 其	-0.06717996
-1.6369083	支 付	-0.06717996
-2.0827124	以 四	-0.06717996
-0.86655486	付 四	-0.06717996
-0.34391144	四 百	-0.13496226
-2.1356325	的 顧	-0.06717996
-1.9075427	在 顧	-0.06717996
-1.6120576	選 顧	-0.06717996
-1.4847345	期 顧	-0.06717996
-1.953497	及 顧	-0.06717996
-1.4032758	託 顧	-0.06717996
-1.2943587	元 顧	-0.13496226
-1.6455479	間 顧	-0.06717996
-1.6455479	了 顧	-0.06717996
-1.8195654	過 顧	-0.06717996
-1.6015171	見 顧	-0.06717996
-1.4847345	慮 顧	-0.06717996
-0.85117066	版 顧	-0.06717996
-1.7371156	月 完	-0.06717996
-2.145587	館 完	-0.06717996
-1.6904153	未 完	-0.06717996
-1.3350335	將 完	-0.06717996
-2.1990674	館 草	-0.06717996
-0.86689866	草 圖	-0.06717996
-1.6317832	娥 承	-0.06717996
-0.86655486	媒 承	-0.06717996
-2.2655864	是 她	-0.06717996
-1.5570402	認 她	-0.06717996
-1.1656531	她 親	-0.06717996
-0.8862721	接 觸	-0.06717996
-1.6337895	奇 邀	-0.06717996
-2.215271	有 請	-0.06717996
-0.86655486	邀 請	-0.06717996
-1.4515389	任 他	-0.06717996
-1.680362	其 他	-0.06717996
-1.1602508	請 他	-0.06717996
-0.86417496	使 他	-0.06717996
-1.7016217	並 呼	-0.06717996
-0.86689866	呼 籲	-0.06717996
-1.8834602	向 外	-0.06717996
-1.6290013	此 外	-0.06717996
-0.86564416	籲 外	-0.06717996
-1.3384608	外 界	-0.06717996
-1.1649693	世 界	-0.06717996
-1.341141	特 別	-0.06717996
-2.3183293	政 治	-0.06717996
-2.5163012	的 解	-0.06717996
-1.7516587	了 解	-0.06717996
-2.5163012	的 願	-0.06717996
-2.2123156	會 願	-0.06717996
-1.1656531	景 醉	-0.06717996
-1.8484374	中 華	-0.06717996
-1.9469707	計 舉	-0.06717996
-2.0690963	以 舉	-0.06717996
-1.6290013	此 舉	-0.06717996
-1.5570402	指 世	-0.06717996
-1.3384608	舉 世	-0.06717996
-0.6445085	知 名	-0.06717996
-1.8468356	和 恰	-0.13496226
-2.5163012	的 機	-0.06717996
-1.555156	或 機	-0.06717996
-1.1656531	機 構	-0.06717996
-1.8435638	意 欽	-0.06717996
-1.6980532	接 欽	-0.13496226
-2.5298786	的 話	-0.06717996
-1.9616061	大 小	-0.06717996
-1.6290013	心 小	-0.13496226
-1.3357668	小 小	-0.06717996
-2.1468422	這 樣	-0.06717996
-2.1067746	這 做	-0.06717996
-2.3873127	的 做	-0.06717996
-1.5367026	種 做	-0.06717996
-1.909681	個 做	-0.06717996
-0.8627106	樣 做	-0.06717996
-2.046689	可 按	-0.06717996
-1.561342	做 按	-0.06717996
-0.34391144	按 照	-0.06717996
-1.7559228	須 再	-0.06717996
-1.6354244	很 高	-0.06717996
-2.0827124	以 隨	-0.06717996
-1.8435638	亦 隨	-0.06717996
-1.7559228	自 消	-0.06717996
-0.9945005	公 布	-0.06717996
-1.1656531	界 各	-0.06717996
-1.9816406	不 論	-0.06717996
-1.4627105	討 論	-0.06717996
-1.5568371	或 私	-0.06717996
-1.5568371	或 比	-0.06717996
-1.8877817	由 挑	-0.06717996
-1.3384608	式 挑	-0.06717996
-1.1656531	席 劉	-0.06717996
-0.86689866	劉 榮	-0.06717996
-2.0125766	出 批	-0.06717996
-1.8435638	亦 批	-0.06717996
-0.34391144	批 評	-0.06717996
-1.3394806	舉 抹	-0.06717996
-0.86689866	抹 煞	-0.06717996
-2.2242122	一 般	-0.06717996
-1.5568371	到 初	-0.06717996
-0.86689866	初 步	-0.06717996
-2.2132688	及 詳	-0.06717996
-0.86689866	詳 細	-0.06717996
-1.9594691	計 每	-0.06717996
-1.7543046	標 試	-0.06717996
-2.1990674	館 憑	-0.06717996
-2.087958	以 享	-0.06717996
-2.5298786	的 待	-0.06717996
-0.86689866	待 遇	-0.06717996
-1.4572481	非 繞	-0.06717996
-1.6925519	接 繞	-0.06717996
-0.86564416	遇 繞	-0.06717996
-1.9558702	個 簡	-0.06717996
-0.86689866	簡 單	-0.06717996
-2.1811278	府 必	-0.06717996
-1.8032621	眾 澄	-0.06717996
-1.9925188	用 許	-0.06717996
-0.86689866	許 李	-0.06717996
-1.8924533	提 供	-0.06717996
-0.86564416	口 供	-0.06717996
-1.3357668	告 供	-0.06717996
-1.6985189	問 服	-0.06717996
-1.0824065	合 約	-0.06717996
-1.9868789	議 紀	-0.13496226
-2.2056992	及 紀	-0.06717996
-0.36429852	大 型	-0.42141056
-1.4608152	被 犧	-0.06717996
-1.1649693	白 犧	-0.06717996
-0.34391144	犧 牲	-0.06717996
-1.0812265	我 們	-0.06717996
-1.4608152	他 們	-0.06717996
-1.8468356	件 早	-0.06717996
-1.4621675	零 八	-0.06717996
-1.1656531	型 娛	-0.06717996
-1.4608152	音 樂	-0.06717996
-0.86655486	娛 樂	-0.06717996
-1.1656531	樂 節	-0.06717996
-2.2132688	及 流	-0.06717996
-2.160377	局 放	-0.06717996
-1.7516587	定 放	-0.06717996
-0.34391144	放 棄	-0.06717996
-1.295901	項 安	-0.22281168
-0.86689866	安 排	-0.06717996
-1.9573026	人 懷	-0.06717996
-2.0669556	為 讓	-0.06717996
-1.4572481	開 路	-0.06717996
-1.6290013	心 路	-0.06717996
-0.86564416	讓 路	-0.06717996
-1.3384608	路 予	-0.06717996
-0.86655486	眼 予	-0.06717996
-1.4608152	被 白	-0.06717996
-1.1649693	白 白	-0.06717996
-2.1667545	局 固	-0.06717996
-1.3394806	思 熟	-0.06717996
-1.4621675	商 業	-0.06717996
-1.8484374	行 性	-0.06717996
-1.6369083	場 環	-0.06717996
-0.86689866	環 境	-0.06717996
-1.5584804	因 素	-0.06717996
-1.3394806	上 述	-0.06717996
-1.9519053	個 字	-0.06717996
-0.86655486	述 字	-0.06717996
-1.1656531	字 眼	-0.06717996
-1.1656531	感 覺	-0.06717996
-1.7543046	後 啟	-0.06717996
-0.86689866	啟 德	-0.06717996
-1.3394806	育 園	-0.06717996
-2.173657	館 將	-0.06717996
-2.0221472	地 將	-0.06717996
-1.3357668	即 將	-0.06717996
-1.5584804	相 繼	-0.06717996
-1.6980532	成 才	-0.06717996
-0.86655486	剛 才	-0.06717996
-2.160377	局 更	-0.06717996
-1.6317832	理 更	-0.06717996
-1.6317832	之 鑿	-0.06717996
-1.1649693	鑿 鑿	-0.06717996
-1.6317832	娥 強	-0.06717996
-1.7628715	直 強	-0.06717996
-0.34391144	強 調	-0.06717996
-1.8125873	行 研	-0.06717996
-1.9699812	司 研	-0.06717996
-1.9980099	於 研	-0.06717996
-1.4459038	託 研	-0.06717996
-1.8524591	就 研	-0.06717996
-1.1656531	馬 昭	-0.06717996
-1.9573026	人 皆	-0.06717996
-1.3384608	能 掩	-0.06717996
-1.1649693	想 掩	-0.06717996
-0.34391144	掩 飾	-0.06717996
-1.3394806	但 怎	-0.06717996
-1.1656531	飾 得	-0.06717996
-1.550728	期 即	-0.06717996
-1.4572481	求 即	-0.06717996
-1.550728	到 即	-0.06717996
-1.3394806	即 使	-0.06717996
-1.1656531	解 釋	-0.06717996
-1.1649693	聽 起	-0.06717996
-1.1649693	響 起	-0.06717996
-1.1656531	好 像	-0.06717996
-1.5570402	卻 根	-0.06717996
-1.8453939	時 根	-0.06717996
-1.5568371	實 從	-0.06717996
-2.5298786	的 口	-0.06717996
-1.7543046	了 替	-0.06717996
-1.8468356	而 擱	-0.06717996
-1.7543046	間 受	-0.06717996
-2.0132284	司 Waters	-0.06717996
-1.6997445	與 Waters	-0.06717996
-0.34391144	Waters Economics	-0.13496226
-0.86655486	Economics Limited	-0.06717996
-0.86655486	Transactions Limited	-0.06717996
-1.1656531	創 辦	-0.06717996
-1.9573026	人 兼	-0.06717996
-2.018151	事 總	-0.06717996
-1.8928975	向 傳	-0.06717996
-0.86689866	傳 媒	-0.06717996
-1.924707	年 七	-0.06717996
-1.4638191	完 結	-0.06717996
-2.227965	建 新	-0.06717996
-2.0306513	於 新	-0.06717996
-1.550728	實 新	-0.06717996
-1.9843358	目 似	-0.06717996
-1.5584804	也 猜	-0.06717996
-1.5568371	期 尚	-0.06717996
-1.6370653	已 搶	-0.06717996
-1.8498915	說 儘	-0.06717996
-1.3394806	排 耐	-0.06717996
-1.9573026	人 尋	-0.06717996
-0.86689866	尋 味	-0.06717996
-2.215271	有 數	-0.06717996
-1.4608152	全 數	-0.06717996
-1.7559228	自 圓	-0.06717996
-1.1656531	字 形	-0.06717996
-0.86689866	形 容	-0.06717996
-1.7016217	無 耻	-0.06717996
-2.1811278	府 辯	-0.06717996
-1.7016217	究 猶	-0.06717996
-1.8032621	港 電	-0.06717996
-1.6379328	發 牌	-0.06717996
-0.86655486	箭 牌	-0.06717996
-1.1656531	牌 風	-0.06717996
-0.86689866	風 波	-0.06717996
-2.5298786	的 翻	-0.06717996
-0.86689866	翻 版	-0.06717996
-2.0172946	司 充	-0.06717996
-1.6985189	其 量	-0.06717996
-2.2719076	是 擋	-0.06717996
-0.86689866	擋 箭	-0.06717996
-2.0026226	司 報	-0.06717996
-2.001766	出 報	-0.06717996
-1.690076	問 報	-0.06717996
-0.26880583	報 告	-0.06717996
-1.7543046	如 果	-0.06717996
-1.8032621	眾 擺	-0.06717996
-2.016723	出 姿	-0.06717996
-0.86689866	姿 態	-0.06717996
-0.86689866	態 證	-0.06717996
-1.5568371	明 真	-0.06717996
-1.1656531	怕 洪	-0.06717996
-0.86689866	洪 爐	-0.06717996
-0.86689866	爐 火	-0.06717996
-1.5568371	員 查	-0.06717996
-0.86689866	查 閱	-0.06717996
-2.2132688	及 Ernst	-0.06717996
-0.86689866	Ernst Young	-0.06717996
-0.86689866	Young Transactions	-0.06717996
-2.2056992	及 核	-0.06717996
-1.953539	人 核	-0.06717996
-1.3394806	小 組	-0.06717996
-1.4621675	被 捲	-0.06717996
-1.890701	由 哪	-0.06717996
-1.890701	我 剛	-0.06717996
-2.2191143	會 審	-0.06717996
-1.9904997	議 雖	-0.06717996
-1.8468356	意 斥	-0.06717996
-1.1656531	回 饋	-0.06717996
-2.5298786	的 撥	-0.06717996
-0.86689866	撥 款	-0.06717996
-1.8484374	時 器	-0.06717996

\3-grams:
-0.7386847	起 ) </s>
-0.82641137	商 會 主
-1.0479716	可 見 主
-0.5842906	育 園 主
-0.47152388	<s> 主 席
-0.47152388	會 主 席
-0.87528133	主 席 我
-0.801088	其 說 我
-1.2291579	爭 議 我
-1.1051202	就 是 我
-0.87528133	資 助 我
-1.1643636	要 求 我
-0.8054815	需 向 我
-1.2677407	程 序 我
-0.4196955	及 此 我
-0.69005436	因 此 我
-1.0453577	報 告 我
-0.8113247	席 我 先
-0.58535933	已 搶 先
-0.68840635	我 先 說
-0.801088	先 說 說
-0.8208729	笑 這 說
-0.7873208	用 多 說
-1.0064237	這 種 說
-0.7845581	於 沒 說
-0.8081556	予 人 說
-1.4400978	這 個 說
-0.7790267	表 面 說
-0.78628474	圓 其 說
-0.7936735	說 說 這
-1.7883294	政 府 這
-1.0925485	但 是 這
-0.7910834	之 意 這
-1.3825494	可 以 這
-1.1447474	交 代 這
-0.7101499	以 為 這
-1.1290214	認 為 這
-0.8632223	通 過 這
-0.9712851	繞 過 這
-1.3785319	決 定 這
-0.7610638	作 家 這
-0.77781945	聲 音 這
-0.7610638	聽 到 這
-0.865089	可 笑 這
-0.865089	按 照 這
-1.030363	公 布 這
-0.865089	批 評 這
-0.865089	放 棄 這
-0.865089	強 調 這
-0.4635022	說 這 項
-0.564963	過 這 項
-0.4635022	定 這 項
-0.4635022	布 這 項
-0.4635022	評 這 項
-0.4635022	棄 這 項
-0.8231122	遠 的 項
-0.8169341	於 一 項
-1.161969	參 與 項
-1.4676389	宮 館 項
-1.3560176	發 展 項
-1.0972203	就 是 項
-1.2154863	建 築 項
-0.7826343	中 多 項
-1.045183	工 程 項
-0.72675425	加 上 項
-1.0510837	這 個 項
-1.0283521	一 個 項
-0.6842348	何 整 項
-1.152	甚 麼 項
-0.7299918	於 新 項
-1.504132	這 項 議
-1.2728497	出 的 議
-1.3722647	的 建 議
-0.69404876	的 會 議
-0.69404876	和 會 議
-0.69404876	約 會 議
-0.43217462	淑 莊 議
-0.45718187	支 持 議
-0.37439942	的 爭 議
-0.37439942	多 爭 議
-0.37439942	大 爭 議
-0.7535631	由 商 議
-0.5796976	和 協 議
-0.7304326	告 供 議
-0.5796976	會 審 議
-0.61499494	項 議 案
-0.61499494	的 議 案
-0.32720527	持 議 案
-0.79475963	同 方 案
-0.76954496	沒 說 的
-1.173744	議 案 的
-0.8934214	長 官 的
-1.1235155	公 司 的
-1.1058643	參 與 的
-1.79492	故 宮 的
-1.2396656	化 區 的
-1.1926904	政 府 的
-0.7675181	宮 館 的
-1.2524266	發 展 的
-0.76984066	提 出 的
-0.91193277	場 地 的
-0.6808234	各 地 的
-1.4155884	設 計 的
-0.7888582	擁 有 的
-0.66001356	所 需 的
-0.9731848	不 同 的
-0.47811347	適 當 的
-0.8292202	恰 當 的
-0.66001356	設 置 的
-1.0724696	合 理 的
-0.78166217	主 事 的
-0.94932365	成 員 的
-1.1959944	當 中 的
-0.754279	重 要 的
-1.301471	招 標 的
-1.1683612	日 後 的
-1.3256717	公 眾 的
-1.1397676	用 途 的
-1.0068758	工 程 的
-1.1140031	事 件 的
-0.8323556	設 施 的
-0.983268	事 宜 的
-0.77172977	的 目 的
-0.8323556	中 央 的
-0.5580547	沙 漠 的
-0.70011663	心 思 的
-0.5580547	深 遠 的
-1.0868514	欽 點 的
-0.66001356	是 她 的
-0.70011663	小 小 的
-0.66001356	討 論 的
-0.8323556	犧 牲 的
-0.70011663	他 們 的
-0.8323556	行 性 的
-0.8934214	Economics Limited 的
-0.5580547	風 波 的
-0.836105	案 的 背
-0.58535933	的 背 景
-0.69484025	的 願 景
-0.6858986	背 景 在
-1.3179747	月 娥 在
-1.9260424	故 宮 在
-1.5468534	政 府 在
-0.98748755	的 是 在
-0.98748755	但 是 在
-1.0043709	府 卻 在
-1.4722974	理 局 在
-0.27237496	不 存 在
-0.27237496	都 存 在
-1.3224853	有 關 在
-1.0396738	事 宜 在
-1.640793	項 目 在
-0.8714311	爭 取 在
-0.57839423	件 早 在
-0.5574899	景 在 二
-0.6874826	是 在 二
-0.6874826	局 在 二
-0.5574899	早 在 二
-0.79015714	零 二 二
-1.5650232	二 零 二
-1.1749451	年 十 二
-0.7956412	二 月 二
-0.47001266	娥 於 二
-0.47001266	劃 於 二
-0.3621345	局 於 二
-0.47001266	下 於 二
-0.47001266	組 於 二
-0.7730595	的 第 二
-0.21511082	在 二 零
-0.13101038	於 二 零
-1.5771277	二 零 零
-0.81378627	代 這 一
-0.196732	二 零 一
-1.1380094	年 十 一
-0.7812619	九 月 一
-0.7203911	服 務 一
-1.7504876	政 府 一
-1.7279682	興 建 一
-0.79961693	佔 地 一
-0.80349225	屬 於 一
-0.80843115	機 會 一
-1.1686782	局 亦 一
-1.01123	成 立 一
-0.79269654	有 就 一
-0.78851116	其 中 一
-0.51483047	案 第 一
-0.51483047	重 第 一
-0.8027319	作 為 一
-1.2859569	經 過 一
-0.79648507	化 人 一
-1.4148488	是 否 一
-0.15080632	的 另 一
-0.15080632	錄 另 一
-0.15080632	劃 另 一
-0.15080632	中 另 一
-0.57257676	計 每 一
-0.57257676	由 哪 一
-0.27739412	零 一 六
-1.0051877	六 年 六
-0.7911067	二 二 年
-0.14168066	一 六 年
-0.7838668	於 同 年
-0.53948104	一 五 年
-0.5917696	法 多 年
-0.5917696	取 多 年
-0.58297336	零 八 年
-0.7920584	月 二 十
-0.86950886	六 年 十
-0.5848506	同 年 十
-0.7248112	五 年 十
-0.5230614	的 三 十
-0.5230614	贈 三 十
-0.5399903	百 五 十
-0.7748014	例 第 十
-0.7892096	十 二 月
-0.823185	十 一 月
-0.49601924	年 六 月
-1.1723826	年 十 月
-0.12951308	林 鄭 月
-0.77108854	年 九 月
-0.77108854	年 五 月
-0.58166015	年 七 月
-1.4924805	館 的 三
-0.791568	二 十 三
-0.5836315	捐 贈 三
-1.4490999	事 局 三
-0.7748014	等 第 三
-1.4832747	館 的 日
-0.8240855	月 一 日
-0.7730595	十 三 日
-1.2441121	由 於 日
-0.75863194	以 至 日
-1.2084438	事 件 日
-0.879166	邏 輯 日
-0.7931722	三 日 前
-0.80511254	英 和 前
-1.8329124	興 建 前
-0.81686974	序 事 前
-0.73600936	提 供 前
-0.7721039	日 前 行
-0.71349365	的 可 行
-0.71349365	業 可 行
-0.22725716	展 進 行
-0.22725716	曾 進 行
-0.22725716	宜 進 行
-0.22725716	再 進 行
-0.73414254	意 思 行
-0.73414254	以 舉 行
-0.879166	按 照 行
-0.5823163	及 流 行
-0.75029737	和 前 政
-0.6358956	前 行 政
-0.6358956	照 行 政
-0.54519224	特 區 政
-1.0076507	完 成 政
-0.807889	可 是 政
-0.38466537	局 及 政
-1.1191447	表 示 政
-1.0557622	並 非 政
-1.1191447	要 求 政
-1.360313	招 標 政
-0.745767	謎 團 政
-1.3857195	公 眾 政
-0.56810534	問 題 政
-0.7363753	時 任 政
-1.1512976	事 件 政
-1.0116012	例 如 政
-0.9153679	認 為 政
-0.78171736	詢 時 政
-0.7141198	眾 但 政
-0.8514541	中 央 政
-1.1062268	言 之 政
-0.56810534	鴕 鳥 政
-0.56810534	難 怪 政
-0.6727632	之 際 政
-0.56810534	希 望 政
-0.9514161	質 疑 政
-1.0557622	究 竟 政
-0.6727632	有 請 政
-0.6727632	有 數 政
-0.5674157	行 政 長
-0.4025083	司 司 長
-0.53200805	出 司 長
-0.53200805	向 司 長
-0.53200805	即 司 長
-0.7369458	館 ) 長
-0.353868	秘 書 長
-0.83586586	事 的 官
-0.5463424	政 長 官
-0.9552117	長 官 梁
-0.5855134	官 梁 振
-0.5855134	梁 振 英
-0.581005	振 英 和
-0.8199849	場 館 和
-2.0133219	管 理 和
-0.68924546	澄 清 和
-1.2286701	用 途 和
-1.134891	文 件 和
-0.78650576	合 適 和
-0.581005	兩 檢 和
-0.581005	歷 史 和
-0.76892376	前 政 務
-0.76892376	任 政 務
-0.56165546	師 事 務
-0.5849508	問 服 務
-0.5195719	政 務 司
-0.5598252	務 司 司
-1.5795503	提 出 司
-0.6362269	屬 公 司
-0.0977257	問 公 司
-0.6362269	其 公 司
-0.80784345	點 向 司
-1.0666796	然 而 司
-0.73414254	求 即 司
-0.9105773	司 長 林
-0.8817752	公 義 林
-0.80546665	同 時 林
-0.7920584	雖 然 林
-0.5836315	草 圖 林
-0.09850469	長 林 鄭
-0.11759504	義 林 鄭
-0.11759504	時 林 鄭
-0.11759504	然 林 鄭
-0.11759504	圖 林 鄭
-0.15124735	鄭 月 娥
-0.8214249	娥 在 北
-0.7942111	有 與 北
-0.49832797	討 好 北
-0.21849601	在 北 京
-0.21849601	與 北 京
-0.17928652	好 北 京
-1.1770895	北 京 與
-1.6102276	場 地 與
-1.3822365	所 有 與
-1.8994479	理 局 與
-0.21806358	會 參 與
-0.21806358	師 參 與
-0.21806358	他 參 與
-1.1305954	北 京 故
-0.45804876	京 與 故
-0.45804876	地 與 故
-0.59730303	參 與 故
-1.0462792	興 建 故
-1.2490473	香 港 故
-0.71859	館 ( 故
-0.6926155	展 出 故
-0.4974015	指 出 故
-0.57129455	珍 藏 故
-1.2055237	由 於 故
-1.0155478	完 成 故
-0.80353767	部 及 故
-1.0623456	所 以 故
-0.8575987	資 助 故
-1.0656402	並 非 故
-1.0409045	負 責 故
-0.7908532	經 就 故
-1.0564678	支 持 故
-0.77182466	試 問 故
-0.8575987	設 施 故
-1.0409045	出 現 故
-0.6768255	負 擔 故
-0.95916533	為 何 故
-0.7847582	定 而 故
-1.2905078	研 究 故
-0.6768255	路 予 故
-0.03862088	京 故 宮
-0.026623577	與 故 宮
-0.026623577	建 故 宮
-0.03282319	港 故 宮
-0.03862088	( 故 宮
-0.026623577	出 故 宮
-0.03862088	藏 故 宮
-0.03862088	於 故 宮
-0.03862088	成 故 宮
-0.03862088	及 故 宮
-0.03862088	以 故 宮
-0.03862088	助 故 宮
-0.03862088	非 故 宮
-0.03862088	責 故 宮
-0.03862088	就 故 宮
-0.03862088	持 故 宮
-0.03862088	問 故 宮
-0.03862088	現 故 宮
-0.03862088	擔 故 宮
-0.03862088	何 故 宮
-0.03862088	而 故 宮
-0.03862088	究 故 宮
-0.03862088	予 故 宮
-1.338128	故 宮 博
-1.5834199	文 化 博
-0.8844001	知 名 博
-0.14042968	宮 博 物
-0.17928652	化 博 物
-0.21849601	名 博 物
-0.8990749	博 物 院
-0.8852147	物 院 簽
-0.7384654	Transactions Limited 簽
-0.2745423	院 簽 訂
-0.2745423	Limited 簽 訂
-0.69484025	九 條 訂
-0.8281212	途 的 合
-0.94321287	簽 訂 合
-1.0384555	挑 選 合
-0.7601577	奇 是 合
-0.7601577	他 是 合
-0.98162925	書 信 合
-0.8093616	本 不 合
-1.0821769	是 否 合
-0.7802156	像 很 合
-0.68840635	一 些 合
-0.58035076	機 構 合
-0.8085705	訂 合 作
-1.240914	本 地 作
-1.4557201	沒 有 作
-0.7721039	常 運 作
-0.7721039	才 曾 作
-0.69092864	學 創 作
-0.5823163	角 色 作
-0.7945599	合 作 備
-0.58535933	及 籌 備
-0.69503856	作 備 忘
-0.58535933	備 忘 錄
-0.22246249	議 紀 錄
-0.2745423	及 紀 錄
-0.7614261	忘 錄 特
-0.9933125	為 何 特
-0.6943146	外 界 特
-0.3954466	錄 特 區
-0.3954466	何 特 區
-0.25825906	文 化 區
-0.07637855	區 政 府
-0.090718046	成 政 府
-0.090718046	是 政 府
-0.061348703	及 政 府
-0.090718046	示 政 府
-0.090718046	非 政 府
-0.090718046	求 政 府
-0.090718046	標 政 府
-0.090718046	團 政 府
-0.090718046	眾 政 府
-0.090718046	題 政 府
-0.090718046	如 政 府
-0.07637855	為 政 府
-0.090718046	時 政 府
-0.090718046	但 政 府
-0.090718046	央 政 府
-0.090718046	之 政 府
-0.090718046	怪 政 府
-0.090718046	際 政 府
-0.090718046	望 政 府
-0.090718046	疑 政 府
-0.090718046	竟 政 府
-0.090718046	請 政 府
-0.090718046	數 政 府
-1.954958	政 府 選
-1.923153	宮 館 選
-0.6004951	關 人 選
-0.6004951	適 人 選
-0.6004951	點 人 選
-0.2742113	由 挑 選
-0.2742113	式 挑 選
-0.59408915	府 選 址
-0.59408915	館 選 址
-0.70420116	關 在 西
-0.70420116	取 在 西
-0.78810555	八 年 西
-0.77665377	一 日 西
-0.75029737	事 前 西
-0.769775	運 作 西
-0.4250769	選 址 西
-0.77955663	治 化 西
-1.6911834	興 建 西
-0.7141198	局 ( 西
-1.477536	場 地 西
-1.0567908	關 於 西
-1.2865642	涉 及 西
-0.7964921	善 用 西
-0.7880825	間 由 西
-0.6506472	求 就 西
-0.6506472	曾 就 西
-1.360313	招 標 西
-1.3046944	提 交 西
-0.84454656	諮 詢 西
-0.75029737	訂 明 西
-0.9813051	承 認 西
-0.75029737	意 對 西
-1.0024756	可 見 西
-0.6727632	來 看 西
-0.88306415	研 究 西
-0.46310252	周 知 西
-0.46310252	皆 知 西
-0.6727632	了 解 西
-0.56810534	一 般 西
-0.8514541	犧 牲 西
-0.56810534	感 覺 西
-1.4702213	六 年 九
-0.79369944	第 十 九
-0.015460253	在 西 九
-0.018126901	年 西 九
-0.018126901	日 西 九
-0.018126901	前 西 九
-0.018126901	作 西 九
-0.015460253	址 西 九
-0.018126901	化 西 九
-0.018126901	建 西 九
-0.018126901	( 西 九
-0.018126901	地 西 九
-0.018126901	於 西 九
-0.018126901	及 西 九
-0.018126901	用 西 九
-0.018126901	由 西 九
-0.015460253	就 西 九
-0.018126901	標 西 九
-0.018126901	交 西 九
-0.012587448	詢 西 九
-0.018126901	明 西 九
-0.018126901	認 西 九
-0.018126901	對 西 九
-0.018126901	見 西 九
-0.018126901	看 西 九
-0.015460253	究 西 九
-0.015460253	知 西 九
-0.018126901	解 西 九
-0.018126901	般 西 九
-0.018126901	牲 西 九
-0.018126901	覺 西 九
-0.81698155	一 項 文
-0.9905607	會 議 文
-0.6913414	協 議 文
-0.790506	宜 的 文
-0.790506	性 的 文
-1.5972486	故 宮 文
-0.39927316	西 九 文
-1.7621852	興 建 文
-1.2695892	香 港 文
-1.2159548	本 地 文
-0.6834053	部 分 文
-1.18658	營 運 文
-0.5463372	相 關 文
-0.80846655	稱 為 文
-0.7630503	國 家 文
-0.6834053	注 入 文
-0.43019134	資 料 文
-0.5764464	中 華 文
-0.2383668	項 文 化
-0.19474013	宮 文 化
-0.024727156	九 文 化
-0.29589292	港 文 化
-0.2383668	地 文 化
-0.2383668	運 文 化
-0.2383668	為 文 化
-0.2383668	家 文 化
-0.2383668	入 文 化
-0.2383668	華 文 化
-0.58535933	政 治 化
-1.4610791	館 的 興
-1.0563116	化 區 興
-1.2245041	計 劃 興
-1.0838318	至 於 興
-1.0953857	將 會 興
-0.6867329	擱 置 興
-0.6299283	拍 板 興
-1.1224173	落 實 興
-0.76873505	地 因 興
-0.8727107	放 棄 興
-0.8727107	強 調 興
-0.5790454	了 替 興
-1.1453805	館 的 建
-0.73000777	需 的 建
-0.73000777	思 的 建
-0.73000777	論 的 建
-1.6595722	化 區 建
-0.04492084	的 興 建
-0.030896256	區 興 建
-0.04492084	劃 興 建
-0.04492084	於 興 建
-0.04492084	會 興 建
-0.04492084	置 興 建
-0.03813527	板 興 建
-0.04492084	實 興 建
-0.04492084	因 興 建
-0.04492084	棄 興 建
-0.04492084	調 興 建
-0.04492084	替 興 建
-1.604573	香 港 建
-1.2241162	本 地 建
-0.81803703	後 有 建
-0.8157281	提 及 建
-1.0782983	聘 用 建
-0.93871415	億 元 建
-0.7831992	李 嚴 建
-0.8714311	接 觸 建
-0.7516194	其 他 建
-0.39203513	建 新 建
-0.39203513	實 新 建
-0.8251089	漠 的 香
-0.81271476	宮 在 香
-0.79642576	館 和 香
-1.3701572	興 建 香
-1.5464493	設 計 香
-0.820951	而 是 香
-1.1569033	表 示 香
-0.7516194	相 信 香
-0.8019036	數 由 香
-0.7886296	猶 如 香
-0.77204823	促 進 香
-1.1428308	方 面 香
-0.6858986	推 廣 香
-0.04154823	的 香 港
-0.04154823	在 香 港
-0.04154823	和 香 港
-0.035293035	建 香 港
-0.04154823	計 香 港
-0.04154823	是 香 港
-0.04154823	示 香 港
-0.04154823	信 香 港
-0.04154823	由 香 港
-0.04154823	如 香 港
-0.04154823	進 香 港
-0.04154823	面 香 港
-0.04154823	廣 香 港
-0.18947941	故 宮 館
-0.39182433	博 物 館
-0.8256146	及 建 館
-0.69092864	的 分 館
-0.879166	文 學 館
-0.9477587	體 育 館
-0.78368944	主 場 館
-1.3811926	物 館 (
-0.8003361	意 表 (
-1.9214047	理 局 (
-1.9349518	宮 館 )
-1.9214047	理 局 )
-0.6943146	響 起 )
-0.7751642	供 前 期
-0.78526837	) 長 期
-1.3209087	顧 問 期
-1.5488	諮 詢 期
-0.6943146	籌 備 展
-0.7761891	長 期 展
-0.2863667	和 發 展
-0.2863667	化 發 展
-0.17875744	地 發 展
-0.2863667	就 發 展
-0.58937323	有 作 出
-0.58937323	曾 作 出
-0.791809	期 展 出
-0.8234444	都 是 出
-0.23953576	案 提 出
-0.29718572	長 提 出
-0.23953576	員 提 出
-0.29718572	途 提 出
-0.29718572	體 提 出
-0.29718572	點 提 出
-0.52062434	亦 指 出
-0.52062434	應 指 出
-0.791809	期 間 出
-0.78826004	火 交 出
-0.7802156	擔 心 出
-0.7873208	突 然 出
-0.58035076	眾 擺 出
-1.9813213	故 宮 珍
-0.5855134	宮 珍 藏
-1.9452531	宮 館 佔
-0.8240855	就 一 地
-0.5823163	館 佔 地
-0.61270165	項 用 地
-0.76373994	區 用 地
-0.61270165	就 用 地
-0.69092864	變 土 地
-0.4648118	託 本 地
-0.4648118	位 本 地
-0.4648118	援 本 地
-0.42508805	區 場 地
-0.42508805	該 場 地
-0.08988658	演 場 地
-0.5823163	界 各 地
-0.82826793	地 一 萬
-0.549961	五 十 萬
-0.69503856	一 萬 平
-1.287109	當 的 方
-0.79175925	另 一 方
-0.75445986	哪 一 方
-0.77392954	第 三 方
-0.58297336	萬 平 方
-0.6917727	比 賽 方
-1.0323163	不 同 方
-0.79495686	平 方 米
-1.287109	地 的 計
-0.73507494	表 ( 計
-0.58297336	方 米 計
-1.2464924	由 於 計
-0.14829567	造 設 計
-0.12347599	責 設 計
-0.14829567	實 設 計
-0.14829567	適 設 計
-0.14829567	點 設 計
-0.14829567	其 設 計
-0.14829567	步 設 計
-0.14829567	細 設 計
-0.79608476	原 定 計
-0.5000714	的 計 劃
-0.5000714	米 計 劃
-0.5000714	於 計 劃
-0.5000714	定 計 劃
-0.2745423	地 規 劃
-0.2745423	市 規 劃
-1.3215622	月 娥 於
-1.2245041	計 劃 於
-0.6867329	是 基 於
-0.76705086	了 等 於
-1.4763196	理 局 於
-0.5643456	示 由 於
-0.5643456	指 由 於
-0.5643456	代 由 於
-0.6867329	區 屬 於
-0.46745062	築 至 於
-0.46745062	目 至 於
-0.6120191	訂 關 於
-0.88713205	有 關 於
-0.79079497	奇 須 於
-0.9402085	況 下 於
-0.8727107	小 組 於
-0.69261837	搶 先 落
-0.8153924	商 議 落
-1.0979265	府 在 落
-0.8110652	二 年 落
-0.5836315	相 繼 落
-0.79759496	十 月 成
-0.5237662	年 落 成
-0.5237662	繼 落 成
-0.8253927	亦 會 成
-0.52054536	資 深 成
-0.47034106	月 完 成
-0.47034106	未 完 成
-0.80655134	建 議 可
-1.4482865	館 的 可
-1.8190447	政 府 可
-1.8109437	宮 館 可
-1.0301348	落 成 可
-0.81348604	謬 及 可
-1.0014198	目 也 可
-0.78652287	以 後 可
-0.55667007	局 很 可
-0.55667007	否 很 可
-0.7773301	法 只 可
-0.54076433	由 此 可
-0.7942809	標 而 可
-1.152	甚 麼 可
-0.5770947	商 業 可
-0.5770947	但 怎 可
-0.5590404	音 這 是
-0.7840857	要 的 是
-0.7840857	目 的 是
-1.7415209	政 府 是
-1.5071042	場 地 是
-0.80600685	成 可 是
-0.7420293	無 非 是
-0.6546615	議 就 是
-0.6546615	否 就 是
-0.98981184	目 也 是
-1.2279619	日 後 是
-0.71948963	款 都 是
-0.7561369	原 來 是
-0.5118619	會 但 是
-1.2497473	做 法 是
-0.9240462	可 能 是
-1.5741518	項 目 是
-0.71948963	法 又 是
-0.41951323	府 只 是
-0.41951323	或 只 是
-0.41951323	量 只 是
-0.7561369	熟 慮 是
-0.7774199	原 本 是
-0.78580606	會 而 是
-1.3236024	迅 奇 是
-0.7420293	任 他 是
-0.5719352	特 別 是
-1.0835769	多 年 卻
-1.601127	政 府 卻
-1.1648626	合 理 卻
-1.7109967	項 目 卻
-0.7192354	卻 在 未
-0.9236391	局 在 未
-0.7721039	建 前 未
-1.9134803	政 府 未
-0.64037275	府 卻 未
-0.52208495	目 卻 未
-0.5823163	至 今 未
-1.6863129	項 目 未
-0.5823163	期 尚 未
-1.6325256	化 區 有
-1.5247502	政 府 有
-0.58738124	府 未 有
-0.43683857	卻 未 有
-0.31666726	交 所 有
-0.58634937	開 所 有
-1.1471515	表 示 有
-1.0670011	相 當 有
-0.57579905	資 擁 有
-0.79733944	面 就 有
-1.049408	心 中 有
-0.7844263	布 後 有
-0.8075055	因 為 有
-0.17901464	有 沒 有
-0.17901464	亦 沒 有
-0.17901464	時 沒 有
-0.17901464	力 沒 有
-0.17901464	本 沒 有
-0.7506592	商 討 有
-1.0237199	一 點 有
-0.57579905	以 享 有
-0.57579905	如 果 有
-0.57579905	查 閱 有
-0.87766206	議 案 提
-1.161613	書 長 提
-1.3719032	發 展 提
-1.2530811	未 有 提
-0.39028835	本 會 提
-0.69311136	議 員 提
-1.2232234	用 途 提
-0.79175997	府 須 提
-1.1282088	團 體 提
-1.034745	一 點 提
-0.9417081	我 們 提
-0.58380574	司 長 及
-1.0777982	紀 錄 及
-1.1342419	設 計 及
-0.8038279	有 提 及
-1.3320491	法 會 及
-0.644934	錄 以 及
-0.644934	育 以 及
-0.644934	奇 以 及
-1.1729362	理 局 及
-0.151196	劃 涉 及
-0.151196	不 涉 及
-0.151196	中 涉 及
-0.151196	目 涉 及
-0.85201293	用 途 及
-1.4788845	文 件 及
-0.80005586	節 目 及
-0.68175095	化 部 及
-0.5751527	荒 謬 及
-0.54189277	有 見 及
-0.7708416	見 面 及
-0.865089	合 約 及
-0.865089	行 性 及
-0.9313182	Economics Limited 及
-0.52054536	事 務 所
-0.7512665	建 館 所
-0.7512665	分 館 所
-0.8015602	計 眾 所
-0.592628	提 交 所
-1.3217906	公 開 所
-1.9790916	政 府 需
-1.0518086	館 所 需
-0.40093133	的 建 築
-0.36901075	區 建 築
-0.36901075	港 建 築
-0.36901075	地 建 築
-0.36901075	有 建 築
-0.36901075	用 建 築
-0.36901075	嚴 建 築
-0.36901075	觸 建 築
-0.36901075	他 建 築
-0.29219693	新 建 築
-1.5876819	建 築 費
-0.88308567	建 造 費
-0.7751642	覽 等 費
-1.3209087	顧 問 費
-1.504132	這 項 用
-1.0525159	區 的 用
-1.1889342	地 的 用
-1.340776	化 區 用
-1.5730652	場 地 用
-1.0219656	規 劃 用
-0.8146653	只 可 用
-0.52013856	築 費 用
-0.52013856	等 費 用
-0.6875688	慮 善 用
-0.8083134	經 不 用
-0.8029772	費 就 用
-0.51763153	接 聘 用
-1.0948828	費 用 僅
-1.8124532	興 建 表
-0.58166015	用 僅 表
-0.8018346	人 意 表
-1.2056764	局 亦 表
-0.7721911	否 認 表
-0.69008625	糞 土 表
-0.20240584	大 型 表
-0.69008625	鑿 鑿 表
-0.3729908	僅 表 示
-0.3729908	亦 表 示
-0.3729908	認 表 示
-0.3729908	鑿 表 示
-0.7731663	香 港 賽
-0.58535933	或 比 賽
-0.81922334	而 司 馬
-0.23529595	港 賽 馬
-0.8211247	員 的 會
-1.0470974	件 和 會
-0.7249267	局 ) 會
-0.23303911	賽 馬 會
-0.8020766	宮 不 會
-0.7921466	運 亦 會
-0.51723516	我 也 會
-0.51723516	營 也 會
-0.7844263	法 後 會
-0.25145197	立 法 會
-0.7620559	音 便 會
-0.2715613	了 社 會
-0.2715613	饋 社 會
-0.38036937	向 本 會
-0.7477579	所 商 會
-0.6825773	的 機 會
-0.86635005	合 約 會
-0.6825773	音 樂 會
-0.3907569	館 將 會
-0.3907569	地 將 會
-0.85900605	馬 會 慈
-0.4356144	會 慈 善
-1.2241061	考 慮 善
-0.49832797	慈 善 信
-0.77655023	話 相 信
-0.49832797	括 書 信
-0.53359914	善 信 託
-0.64320755	已 委 託
-0.6914039	接 委 託
-0.5849508	間 受 託
-0.8298414	慮 是 基
-0.5339097	信 託 基
-0.49861425	託 基 金
-0.58535933	明 真 金
-0.796617	五 月 已
-1.9268708	政 府 已
-1.580204	建 築 已
-0.9492846	基 金 已
-1.2112288	局 亦 已
-0.73507494	辯 稱 已
-0.81837535	須 於 同
-0.78534776	金 已 同
-0.6982141	出 不 同
-0.6982141	有 不 同
-1.4355034	決 定 同
-0.77414167	絕 對 同
-0.771171	官 的 意
-0.5385055	司 的 意
-0.771171	中 的 意
-0.56103814	已 同 意
-0.56103814	對 同 意
-0.8111229	出 人 意
-0.7821363	下 之 意
-0.39395958	京 民 意
-0.39395958	視 民 意
-0.69092864	會 願 意
-0.69092864	以 隨 意
-1.0765069	同 意 捐
-0.5855134	意 捐 贈
-1.1571833	零 一 五
-1.4617724	六 年 五
-0.54859793	三 十 五
-1.0348483	成 立 五
-0.43456656	四 百 五
-0.5414456	十 五 億
-0.49861425	十 萬 元
-0.4356144	五 億 元
-1.0673256	多 年 以
-1.0881966	紀 錄 以
-0.81560594	學 館 以
-1.5613523	場 地 以
-0.46848434	府 可 以
-0.46848434	也 可 以
-0.46848434	後 可 以
-0.46848434	而 可 以
-0.46848434	麼 可 以
-0.7297865	務 所 以
-0.7297865	館 所 以
-0.93871415	億 元 以
-1.4283959	招 標 以
-0.76604724	高 明 以
-1.4554229	是 否 以
-0.8714311	邏 輯 以
-0.7285896	教 育 以
-1.3597646	迅 奇 以
-0.82138443	錄 及 資
-0.98493534	書 信 資
-0.9462381	基 金 資
-0.81687766	元 以 資
-1.4357334	事 局 資
-0.75649506	局 全 資
-0.69008625	三 位 資
-0.58166015	意 斥 資
-0.6185586	金 資 助
-0.6185586	以 資 助
-1.1947417	的 建 造
-0.7606115	元 建 造
-1.5634704	文 化 設
-1.6219767	香 港 設
-0.87528133	建 造 設
-0.66492546	負 責 設
-1.126996	落 實 設
-1.1795913	合 適 設
-1.1673024	欽 點 設
-0.78628474	化 其 設
-0.58035076	初 步 設
-0.58035076	詳 細 設
-1.1140665	計 及 籌
-0.8002416	備 展 覽
-0.8817752	物 院 等
-0.5836315	展 覽 等
-1.5468937	文 件 等
-0.80511254	歌 法 等
-0.7971603	說 了 等
-1.2677407	議 案 當
-1.328827	月 娥 當
-1.0828204	費 用 當
-1.5194619	文 件 當
-0.52062434	是 相 當
-0.63845587	會 相 當
-0.792727	無 關 當
-0.5300983	為 適 當
-1.0945573	究 竟 當
-0.43257236	和 恰 當
-1.0453577	報 告 當
-0.6801828	用 當 局
-0.6801828	關 當 局
-0.057588283	管 理 局
-0.26877767	董 事 局
-0.39492497	在 該 局
-0.39492497	藉 該 局
-1.1048532	當 局 指
-0.80511254	娥 亦 指
-0.5836315	回 應 指
-1.4355034	決 定 指
-0.9899422	質 疑 指
-1.1643636	表 示 由
-0.77045965	局 指 由
-1.0464903	一 間 由
-1.0064237	成 員 由
-1.1643636	交 代 由
-0.814278	音 為 由
-1.3040715	項 目 由
-0.87528133	可 笑 由
-1.0945573	究 竟 由
-0.68840635	全 數 由
-1.1766725	人 選 並
-1.8895663	宮 館 並
-1.576071	設 計 並
-1.0559958	過 程 並
-0.5823163	去 脈 並
-1.3015711	做 法 並
-1.1749451	意 見 並
-0.4666673	館 並 非
-0.4666673	法 並 非
-0.4666673	見 並 非
-0.7947405	法 無 非
-0.8092519	港 設 置
-0.58535933	而 擱 置
-0.83586586	置 的 分
-0.69484025	交 部 分
-0.8276424	施 故 不
-1.9212852	故 宮 不
-1.3392215	物 館 不
-1.5474273	提 出 不
-0.81709486	享 有 不
-1.3453188	法 會 不
-0.72767097	真 金 不
-0.7848957	程 並 不
-0.7781199	只 要 不
-0.76504594	以 來 不
-1.0534959	已 經 不
-0.76504594	詢 便 不
-1.0341411	根 本 不
-0.57774395	尋 味 不
-0.8274324	不 會 參
-1.3928494	築 師 參
-0.7614261	請 他 參
-0.7950127	的 日 常
-0.39248383	長 及 常
-0.69484025	日 常 運
-0.28648996	的 營 運
-0.28648996	和 營 運
-0.28648996	後 營 運
-0.28648996	或 營 運
-1.3648717	化 區 管
-0.31747356	西 九 管
-1.8399521	興 建 管
-0.5842906	說 儘 管
-0.70340455	否 合 理
-0.569237	很 合 理
-0.569237	些 合 理
-0.24915934	區 管 理
-0.025169797	九 管 理
-0.31007996	建 管 理
-0.80444014	總 經 理
-0.77567494	造 費 全
-0.82641137	) 會 全
-1.4536484	事 局 全
-0.7610526	館 完 全
-0.7622711	會 全 權
-1.1979373	一 方 負
-0.5849508	全 權 負
-1.0189673	迅 奇 負
-1.1142027	府 有 責
-0.3954466	權 負 責
-0.31098163	奇 負 責
-0.8321704	後 的 營
-0.8040171	理 和 營
-0.81908476	論 公 營
-1.2803649	日 後 營
-0.7731216	展 或 營
-0.58297336	或 私 營
-0.80631447	告 我 亦
-1.3362155	月 娥 亦
-1.9004904	政 府 亦
-1.8789241	宮 館 亦
-1.3713118	馬 會 亦
-0.86244595	當 局 亦
-1.2086313	理 局 亦
-1.0256357	事 局 亦
-1.2082299	營 運 亦
-0.69008625	榮 廣 亦
-0.8331886	央 的 立
-0.5923706	月 成 立
-0.5923706	會 成 立
-0.8276323	別 是 立
-1.5434791	諮 詢 立
-0.72716504	繞 過 立
-0.75445986	立 一 間
-0.75445986	中 一 間
-0.7731216	詢 期 間
-0.652023	的 時 間
-0.652023	短 時 間
-0.73507494	聘 兩 間
-0.7363092	少 民 間
-1.0530537	安 排 間
-2.127376	西 九 董
-0.9581695	理 局 董
-0.5849508	人 兼 董
-0.7530357	見 主 事
-0.8241094	施 的 事
-0.8178217	務 一 事
-0.79640776	思 行 事
-1.3392215	物 館 事
-0.76504594	法 等 事
-0.21670152	九 董 事
-0.1001238	局 董 事
-0.21670152	兼 董 事
-1.1544447	交 代 事
-1.2559097	程 序 事
-0.9372248	合 乎 事
-0.6850659	要 把 事
-0.6850659	捲 入 事
-1.1544447	甚 麼 事
-1.0003242	築 師 事
-0.8007033	全 資 擁
-0.836105	有 的 附
-1.7407944	化 區 屬
-0.58535933	的 附 屬
-1.2753078	進 行 公
-0.81236935	會 及 公
-0.7832232	脈 並 公
-0.6834053	附 屬 公
-0.7854733	隨 後 公
-0.45434296	府 向 公
-0.45434296	曾 向 公
-0.45434296	任 向 公
-0.6276341	須 向 公
-0.87159824	程 序 公
-0.34170687	顧 問 公
-1.1454923	諮 詢 公
-1.1689197	無 須 公
-0.7258395	正 式 公
-0.9976975	經 過 公
-0.681896	透 過 公
-0.6834053	消 息 公
-0.7800285	聘 其 公
-0.7258395	向 外 公
-0.6834053	不 論 公
-1.2268484	爭 議 就
-1.5988975	公 司 就
-1.2530811	未 有 就
-1.0073422	問 費 就
-1.1618626	要 求 就
-0.76805675	體 曾 就
-0.79175997	局 須 就
-1.0577933	已 經 就
-1.4649782	是 否 就
-1.147631	方 面 就
-0.8739941	小 組 就
-1.0760298	同 意 陳
-0.8112053	司 就 陳
-0.27459	意 陳 淑
-0.27459	就 陳 淑
-0.4357078	陳 淑 莊
-0.50150084	莊 議 員
-0.70015645	供 議 員
-0.7378843	的 官 員
-0.54976976	深 成 員
-1.3706377	涉 及 中
-0.47963953	案 當 中
-0.47963953	件 當 中
-0.47963953	竟 當 中
-0.47963953	告 當 中
-0.8159538	麼 事 中
-1.0573666	過 程 中
-0.5615872	家 心 中
-0.5615872	醉 心 中
-0.7905062	面 其 中
-0.8140852	不 用 多
-1.3031894	當 中 多
-0.79938996	及 眾 多
-1.0522647	例 如 多
-0.8029245	看 法 多
-0.7829511	港 很 多
-0.879166	爭 取 多
-0.8219368	多 項 要
-1.1254923	提 出 要
-0.8135801	會 不 要
-1.4024811	一 個 要
-0.78449094	之 只 要
-0.75846076	更 重 要
-0.42679262	項 要 求
-0.3328205	出 要 求
-0.42679262	個 要 求
-0.8098757	求 我 也
-0.78669316	私 營 也
-1.324445	項 目 也
-1.1410291	大 家 也
-0.7232136	此 我 支
-1.2632971	以 及 支
-1.1069046	也 會 支
-0.8040171	我 亦 支
-0.75846076	運 開 支
-0.7905062	向 其 支
-0.3328205	我 支 持
-0.42679262	會 支 持
-0.42679262	亦 支 持
-1.9004904	政 府 自
-1.8789241	宮 館 自
-1.2672908	只 是 自
-0.77108854	官 員 自
-0.49601924	自 把 自
-0.58166015	她 親 自
-0.7332121	此 外 自
-1.0491886	安 排 自
-0.79955745	館 自 拍
-0.95389473	況 下 拍
-0.7761891	內 便 拍
-0.21849601	自 拍 板
-0.21849601	下 拍 板
-0.21849601	便 拍 板
-1.3096361	進 行 招
-1.8329124	興 建 招
-0.33743107	公 開 招
-1.066518	未 經 招
-1.3355446	經 過 招
-0.11759504	行 招 標
-0.11759504	建 招 標
-0.057657655	開 招 標
-0.11759504	經 招 標
-0.11759504	過 招 標
-1.954958	政 府 至
-1.5876819	建 築 至
-0.82105523	標 以 至
-1.7109967	項 目 至
-0.33309093	於 日 後
-0.33309093	至 日 後
-0.33309093	件 日 後
-0.33309093	輯 日 後
-0.8200071	明 以 後
-1.2140319	說 法 後
-0.69261837	亦 隨 後
-1.0549991	公 布 後
-1.2223306	營 運 都
-1.7195467	項 目 都
-0.5849508	撥 款 都
-0.8174314	便 不 存
-0.7384654	運 都 存
-0.7380503	府 這 種
-0.9541678	為 這 種
-1.0995927	存 在 種
-0.82679784	否 一 種
-0.7751642	在 種 種
-0.77706337	種 種 謎
-1.1836576	人 選 團
-0.7982385	民 間 團
-0.5842906	種 謎 團
-1.3893421	築 師 團
-0.76255304	府 至 今
-0.4665449	前 未 曾
-0.4665449	今 未 曾
-0.4665449	目 未 曾
-1.1442544	團 體 曾
-0.6943146	剛 才 曾
-1.875621	政 府 向
-0.68840635	府 需 向
-0.78826004	計 並 向
-0.7790267	經 理 向
-0.81230944	一 事 向
-1.126996	未 曾 向
-0.75453824	責 任 向
-0.4523299	長 須 向
-0.61329824	必 須 向
-0.7873208	竟 然 向
-0.78628474	二 點 向
-1.5970043	設 計 眾
-1.3829088	涉 及 眾
-0.5469925	行 公 眾
-0.5469925	及 公 眾
-0.20438091	向 公 眾
-0.41196212	詢 公 眾
-1.0976932	公 眾 清
-0.58535933	眾 澄 清
-0.49872223	眾 清 楚
-0.80511254	清 和 交
-1.0922159	作 出 交
-0.31001097	會 提 交
-0.56884694	須 提 交
-0.56884694	們 提 交
-0.43456656	清 楚 交
-0.5836315	爐 火 交
-0.46676117	和 交 代
-0.46676117	出 交 代
-0.35996193	楚 交 代
-1.2481846	計 劃 涉
-0.81570476	故 不 涉
-1.3128957	當 中 涉
-1.7109967	項 目 涉
-0.39323822	的 用 途
-0.6343568	區 用 途
-0.5174958	地 用 途
-0.5174958	劃 用 途
-0.83586586	小 的 工
-1.1135463	途 及 工
-0.79984576	理 的 程
-0.79984576	程 的 程
-1.0310962	規 劃 程
-0.27380255	的 工 程
-0.27380255	及 工 程
-0.79608476	反 了 程
-0.68881047	件 過 程
-0.68881047	個 過 程
-0.58297336	簡 單 程
-0.29495773	的 程 序
-0.3728671	劃 程 序
-0.3728671	了 程 序
-0.3728671	單 程 序
-0.8081378	從 時 序
-0.56292	序 公 義
-0.8844001	公 義 問
-0.041528434	的 顧 問
-0.041528434	在 顧 問
-0.041528434	選 顧 問
-0.041528434	期 顧 問
-0.041528434	及 顧 問
-0.041528434	託 顧 問
-0.035276297	元 顧 問
-0.041528434	間 顧 問
-0.041528434	了 顧 問
-0.041528434	過 顧 問
-0.041528434	見 顧 問
-0.041528434	慮 顧 問
-0.041528434	版 顧 問
-0.5849508	標 試 問
-0.7946097	義 問 題
-0.353868	及 常 任
-0.7369458	有 責 任
-0.80648494	一 時 任
-1.1434062	接 委 任
-0.37356701	議 文 件
-0.37356701	的 文 件
-0.48725897	分 文 件
-0.37356701	關 文 件
-0.37356701	料 文 件
-0.6269207	代 事 件
-0.6269207	把 事 件
-0.6269207	入 事 件
-0.8331886	件 的 來
-0.8200071	年 以 來
-0.77414167	時 序 來
-0.73600936	詢 原 來
-0.69261837	聽 起 來
-0.77706337	的 來 龍
-0.5855134	來 龍 去
-0.5855134	龍 去 脈
-1.9349518	宮 館 開
-1.2223306	營 運 開
-0.5469925	並 公 開
-0.5469925	須 公 開
-0.5469925	式 公 開
-0.41196212	過 公 開
-0.82847476	本 是 相
-0.8573195	所 有 相
-0.75566983	便 會 相
-0.9835399	將 會 相
-0.5842906	的 話 相
-0.9523526	簽 訂 關
-0.8187957	所 有 關
-0.5713887	示 有 關
-0.5713887	就 有 關
-0.5713887	為 有 關
-0.5713887	討 有 關
-0.5407547	有 相 關
-0.79335594	全 無 關
-0.8331886	牲 的 爭
-0.7920584	眾 多 爭
-0.8151568	重 大 爭
-1.0609089	一 直 爭
-0.5836315	可 惜 爭
-1.2456787	爭 議 例
-0.6943146	局 條 例
-0.6943146	氣 息 例
-1.2842194	當 的 如
-1.0666796	民 意 如
-0.7721039	院 等 如
-0.75967956	儘 管 如
-0.39395958	議 例 如
-0.39395958	息 例 如
-1.1749451	意 見 如
-0.5823163	究 猶 如
-0.37627035	先 落 實
-0.37627035	議 落 實
-0.37627035	在 落 實
-0.8187073	乎 事 實
-0.5849508	福 祉 實
-1.3968773	發 展 進
-1.1386585	未 曾 進
-1.0549991	事 宜 進
-0.5836315	是 促 進
-0.5836315	須 再 進
-1.4413425	六 年 諮
-1.2936952	進 行 諮
-1.255657	未 有 諮
-1.2508765	以 及 諮
-0.8093616	要 不 諮
-1.469836	公 眾 諮
-0.791809	等 如 諮
-0.94321287	方 式 諮
-1.0592353	未 經 諮
-0.68840635	拒 絕 諮
-0.054822173	年 諮 詢
-0.054822173	行 諮 詢
-0.054822173	有 諮 詢
-0.054822173	及 諮 詢
-0.054822173	不 諮 詢
-0.054822173	眾 諮 詢
-0.054822173	如 諮 詢
-0.054822173	式 諮 詢
-0.054822173	經 諮 詢
-0.054822173	絕 諮 詢
-0.73887503	對 質 詢
-0.7768238	十 九 條
-1.9284217	理 局 條
-1.2829976	議 案 第
-1.2900178	出 的 第
-0.77414167	件 等 第
-0.73701686	條 例 第
-0.7594469	重 重 第
-0.73600936	條 訂 明
-1.9116664	宮 館 明
-0.69261837	不 透 明
-0.5836315	很 高 明
-0.5836315	態 證 明
-0.7045617	書 長 須
-1.9268708	政 府 須
-1.8888723	理 局 須
-0.46521288	事 無 須
-0.46521288	便 無 須
-0.46521288	否 無 須
-1.3869982	迅 奇 須
-0.58297336	府 必 須
-0.8040171	途 和 發
-1.93602	文 化 發
-0.38954294	用 地 發
-0.8077319	須 就 發
-1.3064008	當 中 發
-0.6917727	電 視 發
-1.3968773	發 展 或
-0.7860625	公 營 或
-1.4669089	招 標 或
-1.140187	團 體 或
-0.69261837	展 還 或
-0.55719876	化 設 施
-0.6270587	的 事 宜
-0.6270587	館 事 宜
-0.6270587	等 事 宜
-0.8214249	宜 在 該
-0.5849508	間 藉 該
-1.0589166	公 布 該
-0.56842804	說 我 認
-0.56842804	議 我 認
-0.56842804	序 我 認
-0.56433	該 局 認
-0.80264944	然 否 認
-0.2742113	娥 承 認
-0.2742113	媒 承 認
-0.79736495	面 說 為
-0.78356755	色 作 為
-1.6526511	化 區 為
-0.82012296	能 是 為
-0.8106857	否 以 為
-0.54727745	把 自 為
-0.29000354	我 認 為
-0.39400166	局 認 為
-1.1700565	聲 音 為
-1.4507228	是 否 為
-0.7781199	上 只 為
-0.72767097	戲 稱 為
-0.7781199	立 場 為
-0.76701725	如 因 為
-0.76504594	計 師 為
-0.56947815	選 合 適
-0.42592132	是 合 適
-0.56947815	構 合 適
-0.94534993	認 為 適
-1.2756643	當 的 時
-1.1011986	第 一 時
-1.6044991	公 司 時
-0.8089547	( 計 時
-0.7802156	定 同 時
-0.80831087	娥 當 時
-0.791809	質 詢 時
-1.6629567	項 目 時
-0.58035076	極 短 時
-0.58035076	實 從 時
-1.0617677	時 間 藉
-0.5940743	的 方 式
-0.5940743	賽 方 式
-0.69484025	曾 正 式
-0.9850068	社 會 但
-0.75653726	樂 會 但
-1.5054523	公 眾 但
-0.8844001	掩 飾 但
-0.548571	在 未 經
-1.4557201	沒 有 經
-0.5615276	月 已 經
-0.5615276	築 已 經
-0.73414254	目 都 經
-1.1901495	無 須 經
-1.4262372	決 定 經
-0.5823163	事 總 經
-0.5480368	這 說 法
-0.5480368	種 說 法
-0.5480368	個 說 法
-0.42578998	是 立 法
-0.42578998	詢 立 法
-0.3321294	過 立 法
-0.5836315	國 歌 法
-0.69261837	何 看 法
-0.22755903	這 做 法
-0.22755903	的 做 法
-0.22755903	種 做 法
-0.22755903	個 做 法
-0.8034969	標 的 情
-0.8034969	眾 的 情
-0.4357078	的 情 況
-0.4356144	情 況 下
-0.73887503	究 言 下
-0.77706337	館 明 顯
-0.5855134	明 顯 違
-1.0979265	存 在 反
-0.5836315	顯 違 反
-0.6685288	出 現 反
-0.69261837	是 怕 反
-0.69261837	而 還 反
-0.80390143	人 說 了
-0.7186723	說 為 了
-0.7186723	是 為 了
-0.7739256	違 反 了
-1.2110137	考 慮 了
-0.5823163	發 生 了
-1.3830016	迅 奇 了
-0.5823163	抹 煞 了
-0.80051994	斥 資 回
-0.8081378	當 時 回
-0.69503856	時 回 應
-1.3864546	涉 及 改
-0.5855134	及 改 變
-0.58535933	改 變 土
-0.58535933	如 糞 土
-0.82037693	土 地 規
-0.69484025	城 市 規
-1.1140665	途 及 城
-0.82782906	性 及 市
-0.58535933	及 城 市
-0.82848	亦 一 致
-0.9968784	拍 板 通
-0.58535933	一 致 通
-0.81146574	味 不 過
-1.5302275	文 件 過
-0.40415195	有 經 過
-0.40415195	都 經 過
-0.40415195	須 經 過
-0.40415195	定 經 過
-0.2733942	板 通 過
-0.2733942	致 通 過
-0.80971265	整 個 過
-1.2082299	考 慮 過
-0.69008625	會 透 過
-0.21760911	非 繞 過
-0.21760911	接 繞 過
-0.21760911	遇 繞 過
-1.0191193	這 項 決
-0.8321704	她 的 決
-1.0962666	府 在 決
-1.3460648	有 關 決
-1.4583373	這 個 決
-0.6917727	成 才 決
-0.080445506	項 決 定
-0.095636375	的 決 定
-0.095636375	在 決 定
-0.095636375	關 決 定
-0.095636375	個 決 定
-0.095636375	才 決 定
-0.7384654	區 原 定
-0.836105	宮 的 魅
-0.5855134	的 魅 力
-0.81748563	等 於 沒
-1.1075057	府 有 沒
-0.8040171	府 亦 沒
-0.80445075	司 時 沒
-0.58297336	魅 力 沒
-1.0462058	根 本 沒
-1.8982973	文 化 人
-0.80993897	是 出 人
-1.436844	沒 有 人
-0.76705086	立 五 人
-1.3257765	有 關 人
-1.1747978	合 適 人
-0.2725786	過 令 人
-0.2725786	然 令 人
-1.1622809	欽 點 人
-0.7295102	心 路 人
-0.6867329	眼 予 人
-0.5790454	創 辦 人
-0.5790454	排 耐 人
-0.9187385	很 可 能
-0.71616805	怎 可 能
-0.8157307	有 人 能
-0.7386847	人 能 夠
-0.5855134	能 夠 抗
-0.58535933	夠 抗 拒
-1.4961443	直 接 拒
-0.69503856	抗 拒 加
-0.5849508	拒 加 上
-0.6943146	實 際 上
-1.0747665	然 而 上
-0.22089872	的 項 目
-0.22089872	與 項 目
-0.18116343	館 項 目
-0.22089872	展 項 目
-0.22089872	是 項 目
-0.18116343	築 項 目
-0.22089872	程 項 目
-0.22089872	上 項 目
-0.18116343	個 項 目
-0.22089872	麼 項 目
-0.22089872	新 項 目
-1.2958947	府 的 目
-0.5849508	樂 節 目
-0.6547829	及 中 央
-0.6547829	事 中 央
-0.8079936	檢 和 國
-1.9790916	政 府 國
-0.79396796	地 作 家
-0.6943146	府 國 家
-0.60178953	過 大 家
-0.60178953	尬 大 家
-0.60178953	乎 大 家
-1.9604597	文 化 部
-1.3698168	提 交 部
-0.6268634	間 出 現
-0.6268634	心 出 現
-0.6268634	然 出 現
-0.9548508	我 們 現
-1.6336455	公 司 對
-1.0707042	民 意 對
-0.37553853	在 反 對
-0.2968661	現 反 對
-0.37553853	怕 反 對
-0.69261837	我 絕 對
-0.7842219	耻 面 對
-0.24914184	反 對 聲
-0.8081378	流 行 音
-0.21321459	對 聲 音
-1.0836201	恰 當 便
-1.4669089	招 標 便
-1.5434791	諮 詢 便
-1.191812	聲 音 便
-0.5836315	間 內 便
-1.0876641	相 當 尷
-0.5855134	當 尷 尬
-0.797405	舉 行 大
-1.6595722	化 區 大
-1.7803607	興 建 大
-0.78450286	很 多 大
-1.3224853	有 關 大
-0.8060504	不 過 大
-0.76604724	司 對 大
-0.57839423	尷 尬 大
-0.81089234	多 大 大
-1.3747227	一 個 大
-0.7285896	似 乎 大
-0.7516194	懷 疑 大
-0.7516194	個 重 大
-1.1448926	大 家 聽
-0.58535933	解 釋 聽
-1.6336455	公 司 到
-0.69261837	家 聽 到
-0.69261837	否 感 到
-0.5836315	飾 得 到
-0.5836315	也 猜 到
-0.46638805	是 這 個
-0.46638805	意 這 個
-0.5686115	為 這 個
-0.5686115	過 這 個
-0.46638805	到 這 個
-0.46638805	照 這 個
-0.6308541	建 一 個
-0.6308541	為 一 個
-0.67550695	另 一 個
-0.6308541	每 一 個
-0.7369458	用 兩 個
-0.69346565	京 整 個
-0.38231102	這 是 否
-0.5006088	府 是 否
-0.5006088	地 是 否
-0.5006088	後 是 否
-0.5006088	法 是 否
-0.5006088	目 是 否
-0.5006088	又 是 否
-0.8274324	後 會 否
-0.79396796	固 然 否
-0.83586586	說 的 感
-0.8044177	會 否 感
-1.6463226	香 港 很
-1.4445986	事 局 很
-1.305025	做 法 很
-0.7731216	感 到 很
-1.4898292	是 否 很
-0.58297336	好 像 很
-0.78741145	到 很 荒
-0.5855134	很 荒 謬
-0.71630335	及 可 笑
-0.9189543	很 可 笑
-1.9697134	政 府 又
-1.9214047	理 局 又
-1.2196931	說 法 又
-0.66910815	不 合 乎
-0.8459503	否 合 乎
-0.58535933	目 似 乎
-1.4755225	這 個 邏
-0.9548508	合 乎 邏
-0.27459	個 邏 輯
-0.27459	乎 邏 輯
-0.8227567	輯 以 擔
-0.73887503	方 負 擔
-0.82468987	當 有 心
-1.1363008	大 家 心
-0.6917727	以 擔 心
-0.78317785	昭 之 心
-0.58297336	景 醉 心
-0.27380255	及 核 心
-0.27380255	人 核 心
-0.75369275	府 一 直
-0.75369275	人 一 直
-0.45346612	六 月 直
-0.615224	七 月 直
-1.426785	可 以 直
-0.8072021	為 由 直
-0.7721039	標 便 直
-1.0306952	因 此 直
-0.8029245	序 而 直
-0.7982385	排 間 接
-0.7985751	親 自 接
-1.7109967	項 目 接
-0.12664199	月 直 接
-0.19514151	以 直 接
-0.19514151	由 直 接
-0.19514151	便 直 接
-0.19514151	此 直 接
-0.19514151	而 直 接
-1.2380985	此 我 絕
-0.69484025	接 拒 絕
-1.5575507	諮 詢 換
-0.7768238	猜 到 換
-0.27441582	詢 換 言
-0.27441582	到 換 言
-1.3471509	研 究 言
-0.6943146	局 更 言
-0.7369458	言 下 之
-0.3106142	換 言 之
-0.39492497	更 言 之
-0.5842906	馬 昭 之
-0.5842906	完 結 之
-1.9268708	政 府 只
-0.7731216	還 或 只
-1.305025	做 法 只
-0.73507494	際 上 只
-1.1598692	言 之 只
-0.58297336	其 量 只
-0.77706337	一 種 鴕
-0.5855134	種 鴕 鳥
-0.8314042	鳥 政 策
-0.5855134	政 策 難
-0.5855134	策 難 怪
-0.8197074	一 地 兩
-0.81736195	可 用 兩
-0.95389473	委 聘 兩
-0.7386847	地 兩 檢
-0.69503856	和 國 歌
-1.7356259	化 區 原
-1.554187	諮 詢 原
-0.6943146	這 些 原
-0.8298414	來 是 怕
-0.8174314	金 不 怕
-1.1813167	人 選 此
-0.5645352	見 及 此
-0.66714364	員 由 此
-0.66714364	笑 由 此
-0.5230614	代 因 此
-0.5230614	名 因 此
-0.8817752	批 評 此
-1.3772049	物 館 見
-0.56217086	此 可 見
-0.7558382	點 有 見
-0.7558382	閱 有 見
-0.5072402	的 意 見
-0.78740335	不 要 把
-0.6182052	府 自 把
-0.6182052	員 自 把
-1.101924	自 為 視
-0.58535933	港 電 視
-1.1822861	北 京 民
-0.6943146	為 視 民
-0.5849508	不 少 民
-0.8002416	意 如 糞
-0.5541943	一 方 面
-0.59321237	三 方 面
-0.79967654	土 表 面
-0.7926324	館 見 面
-0.5842906	無 耻 面
-1.0613065	為 了 社
-0.58535933	回 饋 社
-1.1144625	社 會 福
-0.5855134	會 福 祉
-0.7768238	祉 實 際
-0.78696716	結 之 際
-0.8201683	只 為 討
-0.88308567	是 想 討
-0.76043534	及 商 討
-0.69346565	現 正 討
-0.7768238	起 來 好
-0.47142708	為 討 好
-0.47142708	想 討 好
-0.8275726	區 有 何
-0.7993194	管 如 何
-0.72181326	場 為 何
-0.72181326	師 為 何
-0.7768238	序 來 看
-0.7620396	有 何 看
-0.8176806	來 不 少
-1.6655217	香 港 體
-0.31007996	選 團 體
-0.31007996	間 團 體
-0.31007996	師 團 體
-0.5849508	啟 德 體
-0.77706337	方 案 希
-0.5855134	案 希 望
-0.9509607	沒 有 考
-1.4440573	可 以 考
-1.4449716	決 定 考
-0.17925887	有 考 慮
-0.21846065	以 考 慮
-0.21846065	定 考 慮
-0.58535933	思 熟 慮
-0.80731165	會 亦 被
-0.8211578	區 為 被
-0.5562242	館 而 被
-0.7622711	為 被 戲
-0.7378843	局 又 稱
-0.5849508	被 戲 稱
-0.5849508	府 辯 稱
-1.9620819	文 化 沙
-0.5855134	化 沙 漠
-1.6711272	香 港 注
-0.58535933	港 注 入
-0.58535933	被 捲 入
-1.9620819	文 化 氣
-0.58535933	化 氣 息
-0.58535933	自 消 息
-0.7770922	局 三 位
-0.7945599	如 多 位
-0.9882668	委 託 本
-0.6668918	事 向 本
-0.61412305	須 向 本
-0.73507494	些 原 本
-0.6917727	多 位 本
-0.58297336	支 援 本
-0.27380255	卻 根 本
-0.27380255	時 根 本
-0.52470577	直 爭 取
-0.52470577	惜 爭 取
-0.72333694	建 文 學
-0.93022466	港 文 學
-0.8230022	館 以 推
-0.58535933	以 推 廣
-0.58535933	劉 榮 廣
-0.83586586	Limited 的 創
-0.8852147	文 學 創
-0.79478323	創 作 歷
-0.5855134	作 歷 史
-0.80825096	史 和 教
-0.5243431	港 體 育
-0.5243431	德 體 育
-0.58535933	和 教 育
-0.7875916	及 支 援
-0.82543266	家 這 些
-0.82826793	過 一 些
-1.3417401	的 意 思
-0.7866255	有 心 思
-0.7378843	過 深 思
-0.82116425	議 可 惜
-0.7730595	年 卻 無
-0.7574768	完 全 無
-0.8150399	行 事 無
-1.2084438	說 法 無
-0.7721039	當 便 無
-1.484744	是 否 無
-0.5823163	形 容 無
-0.7949403	卻 無 功
-1.4928224	宮 館 而
-1.3624971	法 會 而
-1.4472256	招 標 而
-1.2707496	程 序 而
-0.7724573	還 反 而
-1.4171647	決 定 而
-0.581005	無 功 而
-0.58997107	為 然 而
-0.58997107	素 然 而
-0.73228365	開 路 而
-1.4082417	發 展 還
-0.8079936	功 而 還
-0.80825096	反 而 突
-0.7956412	排 自 然
-1.0932778	自 為 然
-0.5823163	而 突 然
-0.7574768	府 竟 然
-0.5823163	局 固 然
-0.5823163	因 素 然
-0.5823163	議 雖 然
-0.8221744	目 在 極
-0.5855134	在 極 短
-1.0617677	時 間 內
-1.0907156	通 過 令
-0.7945599	自 然 令
-1.5990328	提 出 質
-1.0893171	令 人 質
-0.7761891	面 對 質
-0.39524728	出 質 疑
-0.39524728	人 質 疑
-0.7378843	口 供 疑
-0.5849508	人 懷 疑
-1.1178222	的 是 促
-0.76585174	非 是 想
-1.1197041	只 是 想
-1.1839049	北 京 整
-0.7620396	如 何 整
-1.1140015	也 會 透
-0.8174314	並 不 透
-0.7860984	開 支 究
-0.7751642	透 明 究
-0.11746148	行 研 究
-0.11746148	司 研 究
-0.11746148	於 研 究
-0.11746148	託 研 究
-0.11746148	就 研 究
-0.69346565	箭 牌 究
-1.9790916	政 府 竟
-0.4666673	支 究 竟
