\data\
ngram 1=479
ngram 2=1396
ngram 3=1743

\1-grams:
-3.1094596	<unk>	0
0	<s>	-0.0707946
-2.9614253	</s>	0
-2.5255623	代	-0.2884388
-2.809989	理	-0.0707946
-2.8266747	主	-0.0707946
-2.9614253	席	-0.0707946
-1.9937545	我	-0.12788217
-2.1828854	會	-0.0707946
-2.9614253	返	-0.0707946
-2.9614253	回	-0.0707946
-1.9103123	這	-0.2704207
-2.9614253	項	-0.0707946
-2.8266747	辯	-0.2142374
-2.8266747	論	-0.0707946
-1.4712913	的	-0.11680495
-2.809989	議	-0.0707946
-2.9614253	題	-0.0707946
-2.9614253	剛	-0.0707946
-2.6448956	才	-0.0707946
-2.9614253	述	-0.0707946
-2.5255623	對	-0.0707946
-2.6448956	條	-0.2142374
-2.4320505	例	-0.0707946
-2.9614253	草	-0.0707946
-2.8266747	案	-0.0707946
-2.233078	二	-0.13028927
-2.9614253	讀	-0.0707946
-1.8857169	是	-0.1054583
-2.8266747	重	-0.0707946
-1.8403474	要	-0.12818336
-2.8266747	請	-0.0707946
-2.4320505	你	-0.0707946
-2.9614253	聆	-0.0707946
-2.8266747	聽	-0.0707946
-2.9614253	發	-0.0707946
-2.9614253	言	-0.0707946
-2.4320505	現	-0.36762005
-2.4320505	時	-0.0707946
-2.9614253	提	-0.0707946
-2.5255623	出	-0.0707946
-2.1378975	自	-0.6985936
-2.8266747	願	-0.0707946
-2.0255568	醫	-0.3106754
-1.8193245	保	-0.41730362
-2.6448956	計	-0.13662054
-2.9614253	劃	-0.07079463
-1.8193245	可	-0.3467501
-2.8266747	謂	-0.0707946
-1.9103123	不	-0.10718002
-2.1378975	三	-0.2015205
-2.3551495	四	-0.102461606
-2.4320505	由	-0.24372864
-2.8266747	於	-0.0707946
-2.809989	獲	-0.16098344
-2.809989	稅	-0.16098344
-2.8266747	務	-0.0707946
-2.8266747	扣	-0.0707946
-2.9614253	除	-0.0707946
-2.8266747	款	-0.16098344
-2.809989	額	-0.0707946
-2.3551495	上	-0.2539141
-2.809989	限	-0.0707946
-1.964123	為	-0.21607846
-2.6448956	每	-0.12263294
-2.6448956	名	-0.0707946
-2.6448956	受	-0.2592609
-2.0971355	人	-0.10718002
-2.233078	八	-0.22388963
-2.809989	千	-0.0707946
-2.2898388	元	-0.08067907
-2.3551495	如	-0.10718002
-2.9614253	果	-0.0707946
-2.9614253	按	-0.0707946
-2.809989	標	-0.16098344
-2.9614253	準	-0.0707946
-2.8266747	供	-0.2142374
-2.6448956	百	-0.102461606
-2.809989	算	-0.0707946
-2.5255623	大	-0.18696728
-2.9614253	概	-0.0707946
-2.1378975	十	-0.25389895
-2.809989	真	-0.16098344
-2.9614253	落	-0.0707946
-2.8266747	實	-0.0707946
-2.4320505	以	-0.07079463
-2.3551495	幫	-0.50229895
-2.8266747	助	-0.0707946
-2.6448956	甚	-0.47097877
-2.8266747	麼	-0.0707946
-2.8266747	舉	-0.0707946
-2.6448956	數	-0.0707946
-2.2898388	個	-0.15810226
-2.9614253	子	-0.0707946
-2.9614253	頗	-0.0707946
-1.8403474	有	-0.13160567
-2.9614253	趣	-0.0707946
-2.8266747	全	-0.2142374
-2.9614253	世	-0.0707946
-2.4320505	界	-0.07079463
-2.6448956	療	-0.11355205
-2.809989	服	-0.16098344
-2.8266747	均	-0.0707946
-2.8266747	鼓	-0.2142374
-2.9614253	勵	-0.0707946
-2.0971355	病	-0.28284082
-2.9614253	向	-0.0707946
-2.9614253	淺	-0.0707946
-2.809989	中	-0.0707946
-2.9614253	希	-0.0707946
-2.9614253	望	-0.0707946
-2.3551495	市	-0.7140168
-2.9614253	民	-0.0707946
-2.3551495	無	-0.27238697
-2.809989	須	-0.0707946
-2.2898388	入	-0.3235395
-2.809989	院	-0.09594079
-2.8266747	及	-0.2142374
-2.809989	早	-0.0707946
-2.8266747	找	-0.0707946
-2.809989	疾	-0.34604004
-2.809989	來	-0.0707946
-2.9614253	源	-0.0707946
-2.9614253	盡	-0.0707946
-2.6448956	治	-0.16834463
-2.1828854	但	-0.09594079
-2.8266747	們	-0.07079463
-2.4320505	在	-0.0707946
-2.809989	卻	-0.0707946
-2.4320505	因	-0.43535215
-2.809989	即	-0.0707946
-2.6448956	使	-0.2592609
-2.5255623	付	-0.10718002
-2.4320505	了	-0.16098344
-2.059873	很	-0.31225118
-2.4320505	多	-0.0707946
-2.2898388	費	-0.18632628
-2.9614253	話	-0.0707946
-2.8266747	法	-0.0707946
-2.9614253	惠	-0.0707946
-2.4320505	其	-0.18696728
-2.9614253	思	-0.0707946
-2.9614253	維	-0.0707946
-2.809989	基	-0.16098344
-2.9614253	本	-0.0707946
-1.8857169	政	-0.9359545
-2.9614253	府	-0.0707946
-2.9614253	毒	-0.0707946
-2.9614253	而	-0.0707946
-2.8266747	險	-0.0707946
-2.809989	當	-0.0707946
-2.6448956	然	-0.0707946
-2.809989	建	-0.34604004
-2.8266747	表	-0.0707946
-2.9614253	示	-0.0707946
-2.809989	支	-0.16098344
-2.9614253	持	-0.0707946
-2.8266747	曾	-0.0707946
-2.8266747	求	-0.0707946
-2.8266747	修	-0.0707946
-2.9614253	改	-0.0707946
-2.8266747	前	-0.0707946
-2.9614253	訂	-0.0707946
-2.809989	把	-0.16098344
-2.8266747	專	-0.2142374
-2.4320505	科	-0.102461606
-2.9614253	門	-0.0707946
-2.8266747	診	-0.0707946
-2.9614253	撇	-0.0707946
-2.8266747	開	-0.0707946
-2.9614253	普	-0.0707946
-2.8266747	通	-0.0707946
-2.9614253	談	-0.0707946
-2.9614253	納	-0.0707946
-2.9614253	障	-0.0707946
-2.9614253	範	-0.0707946
-2.9614253	圍	-0.0707946
-2.8266747	輪	-0.2142374
-2.8266747	候	-0.0707946
-2.809989	間	-0.0707946
-2.6448956	長	-0.12263294
-2.8266747	新	-0.2142374
-2.8266747	東	-0.2142374
-2.9614253	骨	-0.0707946
-2.809989	達	-0.16098344
-1.8403474	一	-0.24824204
-2.809989	七	-0.0707946
-2.9614253	星	-0.0707946
-2.8266747	期	-0.0707946
-2.809989	接	-0.16098344
-2.9614253	近	-0.0707946
-2.4320505	年	-0.18696728
-2.9614253	西	-0.0707946
-2.9614253	婦	-0.0707946
-2.9614253	九	-0.0707946
-2.9614253	龍	-0.0707946
-2.8266747	眼	-0.0707946
-2.5255623	五	-0.21439505
-2.5255623	難	-0.0707946
-2.8266747	道	-0.0707946
-2.9614253	盲	-0.0707946
-2.4320505	後	-0.0707946
-2.9614253	嗎	-0.0707946
-2.809989	何	-0.0707946
-2.0971355	他	-0.28284082
-2.9614253	既	-0.0707946
-2.9614253	推	-0.0707946
-2.809989	包	-0.34604004
-2.9614253	括	-0.0707946
-2.8266747	內	-0.0707946
-2.5255623	第	-0.2884388
-2.1378975	說	-0.11765619
-2.233078	用	-0.08739589
-2.6448956	最	-0.0707946
-2.8266747	想	-0.0707946
-2.3551495	癌	-0.3106754
-2.9614253	症	-0.0707946
-2.233078	萬	-0.6114434
-2.5255623	些	-0.0707946
-2.809989	局	-0.16098344
-2.6448956	知	-0.2592609
-2.9614253	跟	-0.0707946
-2.8266747	她	-0.0707946
-2.9614253	較	-0.0707946
-2.9614253	身	-0.0707946
-2.8266747	化	-0.2142374
-2.809989	和	-0.0707946
-2.8266747	電	-0.0707946
-2.9614253	月	-0.0707946
-2.8266747	平	-0.0707946
-2.4320505	至	-0.102461606
-2.9614253	乳	-0.0707946
-2.9614253	腸	-0.0707946
-2.6448956	六	-0.2592609
-2.9614253	鼻	-0.0707946
-2.9614253	咽	-0.0707946
-2.9614253	靶	-0.0707946
-2.5255623	得	-0.0707946
-2.4320505	已	-0.0707946
-2.8266747	經	-0.0707946
-2.809989	花	-0.34604004
-2.9614253	光	-0.0707946
-2.8266747	到	-0.0707946
-2.8266747	那	-0.0707946
-2.4320505	能	-0.09882685
-2.9614253	排	-0.0707946
-2.9614253	隊	-0.0707946
-2.6448956	患	-0.12263294
-2.5255623	需	-0.56788886
-2.9614253	極	-0.0707946
-2.6448956	昂	-0.2592609
-2.8266747	貴	-0.0707946
-2.809989	藥	-0.34604004
-2.9614253	物	-0.0707946
-2.9614253	申	-0.0707946
-2.9614253	撒	-0.0707946
-2.9614253	瑪	-0.0707946
-2.809989	利	-0.0707946
-2.9614253	亞	-0.0707946
-2.9614253	金	-0.0707946
-2.8266747	關	-0.0707946
-2.9614253	愛	-0.0707946
-2.9614253	吧	-0.0707946
-2.809989	資	-0.0707946
-2.9614253	產	-0.0707946
-2.8266747	太	-0.0707946
-2.9614253	工	-0.0707946
-2.3551495	高	-0.0707946
-2.8266747	所	-0.0707946
-2.4320505	錢	-0.0707946
-2.6448956	便	-0.0707946
-2.809989	過	-0.0707946
-2.5255623	還	-0.12263294
-2.809989	整	-0.0707946
-2.9614253	色	-0.0707946
-2.8266747	水	-0.0707946
-2.6448956	精	-0.47097877
-2.9614253	神	-0.0707946
-2.8266747	致	-0.0707946
-2.8266747	私	-0.2142374
-2.6448956	家	-0.11355205
-2.8266747	詢	-0.0707946
-2.8266747	問	-0.0707946
-2.8266747	否	-0.0707946
-2.809989	收	-0.0707946
-2.5255623	行	-0.0707946
-2.809989	點	-0.0707946
-2.8266747	困	-0.2142374
-2.9614253	符	-0.0707946
-2.9614253	合	-0.0707946
-2.809989	兩	-0.16098344
-2.8266747	件	-0.0707946
-2.9614253	該	-0.0707946
-2.809989	住	-0.13662054
-2.8266747	單	-0.2142374
-2.9614253	房	-0.0707946
-2.9614253	護	-0.0707946
-2.8266747	士	-0.0707946
-2.809989	或	-0.0707946
-2.8266747	小	-0.0707946
-2.9614253	照	-0.0707946
-2.9614253	顧	-0.0707946
-2.9614253	宜	-0.0707946
-2.809989	天	-0.0707946
-2.809989	價	-0.16098344
-2.809989	看	-0.0707946
-2.9614253	養	-0.0707946
-2.9614253	列	-0.0707946
-2.8266747	下	-0.0707946
-2.9614253	貽	-0.0707946
-2.9614253	笑	-0.0707946
-2.3551495	方	-0.2539141
-2.9614253	國	-0.0707946
-2.9614253	際	-0.0707946
-2.9614253	社	-0.0707946
-2.9614253	生	-0.0707946
-2.9614253	竟	-0.0707946
-2.9614253	怪	-0.0707946
-2.9614253	亦	-0.0707946
-2.809989	反	-0.34604004
-2.8266747	它	-0.0707946
-2.8266747	樣	-0.13662054
-2.9614253	做	-0.0707946
-2.809989	派	-0.34604004
-2.9614253	員	-0.0707946
-2.809989	都	-0.0707946
-2.9614253	質	-0.0707946
-2.9614253	疑	-0.0707946
-2.9614253	弄	-0.0707946
-2.9614253	地	-0.0707946
-2.9614253	步	-0.0707946
-2.8266747	立	-0.0707946
-2.9614253	功	-0.0707946
-2.9614253	別	-0.0707946
-2.9614253	必	-0.0707946
-2.8266747	取	-0.0707946
-2.809989	業	-0.0707946
-2.8266747	同	-0.0707946
-2.9614253	意	-0.0707946
-2.9614253	研	-0.0707946
-2.9614253	究	-0.0707946
-2.9614253	認	-0.0707946
-2.9614253	圖	-0.0707946
-2.8266747	賺	-0.0707946
-2.809989	筆	-0.16098344
-2.8266747	今	-0.0707946
-2.9614253	潤	-0.0707946
-2.8266747	管	-0.2142374
-2.9614253	讓	-0.0707946
-2.9614253	薪	-0.0707946
-2.9614253	厚	-0.0707946
-2.9614253	職	-0.0707946
-2.9614253	佔	-0.0707946
-2.6448956	%	-0.12263294
-2.8266747	成	-0.0707946
-2.9614253	去	-0.0707946
-2.2898388	沒	-0.56029093
-2.9614253	熟	-0.0707946
-2.9614253	導	-0.0707946
-2.9614253	容	-0.0707946
-2.9614253	許	-0.0707946
-2.8266747	作	-0.0707946
-2.9614253	種	-0.0707946
-2.9614253	途	-0.0707946
-2.9614253	常	-0.0707946
-2.8266747	引	-0.0707946
-2.9614253	歐	-0.0707946
-2.9614253	洲	-0.0707946
-2.9614253	低	-0.0707946
-2.9614253	被	-0.0707946
-2.8266747	吃	-0.0707946
-2.9614253	掉	-0.0707946
-2.809989	此	-0.0707946
-2.4320505	設	-0.2539141
-2.9614253	置	-0.0707946
-2.9614253	覺	-0.0707946
-2.9614253	卑	-0.0707946
-2.9614253	微	-0.0707946
-2.9614253	給	-0.0707946
-2.9614253	(	-0.0707946
-2.6448956	少	-0.0707946
-2.9614253	)	-0.0707946
-2.9614253	丁	-0.0707946
-2.809989	也	-0.0707946
-2.9614253	討	-0.0707946
-2.9614253	力	-0.0707946
-2.9614253	風	-0.0707946
-2.9614253	池	-0.0707946
-2.9614253	份	-0.0707946
-2.9614253	諮	-0.0707946
-2.8266747	文	-0.2142374
-2.9614253	怎	-0.0707946
-2.8266747	呢	-0.0707946
-2.9614253	仍	-0.0707946
-2.809989	定	-0.0707946
-2.9614253	根	-0.0707946
-2.9614253	據	-0.0707946
-2.9614253	舊	-0.0707946
-2.8266747	附	-0.2142374
-2.6448956	加	-0.16098344
-2.9614253	率	-0.0707946
-2.8266747	倍	-0.0707946
-2.9614253	歲	-0.0707946
-2.9614253	若	-0.0707946
-2.9614253	糖	-0.0707946
-2.9614253	尿	-0.0707946
-2.9614253	血	-0.0707946
-2.9614253	壓	-0.0707946
-2.8266747	等	-0.0707946
-2.8266747	增	-0.2142374
-2.6448956	香	-0.47097877
-2.9614253	港	-0.0707946
-2.9614253	者	-0.0707946
-2.9614253	起	-0.0707946
-2.8266747	只	-0.0707946
-2.9614253	繳	-0.0707946
-2.9614253	賠	-0.0707946
-2.9614253	償	-0.0707946
-2.9614253	肉	-0.0707946
-2.8266747	公	-0.2142374
-2.9614253	司	-0.0707946
-2.8266747	負	-0.0707946
-2.9614253	責	-0.0707946
-2.9614253	補	-0.0707946
-2.9614253	貼	-0.0707946
-2.9614253	部	-0.0707946
-2.8266747	分	-0.0707946
-2.9614253	進	-0.0707946
-2.9614253	好	-0.0707946
-2.9614253	強	-0.0707946
-2.9614253	制	-0.0707946
-2.9614253	規	-0.0707946
-2.9614253	任	-0.0707946
-2.4320505	購	-0.64707005
-2.9614253	買	-0.0707946
-2.9614253	尚	-0.0707946
-2.9614253	寶	-0.0707946
-2.9614253	劍	-0.0707946
-2.9614253	就	-0.0707946
-2.9614253	禁	-0.0707946
-2.9614253	止	-0.0707946
-2.9614253	直	-0.0707946
-2.8266747	續	-0.0707946
-2.9614253	誰	-0.0707946
-2.9614253	透	-0.0707946
-2.8266747	並	-0.0707946
-2.9614253	寧	-0.0707946
-2.9614253	億	-0.0707946
-2.9614253	正	-0.0707946
-2.9614253	命	-0.0707946
-2.9614253	考	-0.0707946
-2.9614253	慮	-0.0707946
-2.9614253	嚴	-0.0707946
-2.9614253	情	-0.0707946
-2.9614253	況	-0.0707946
-2.9614253	危	-0.0707946
-2.9614253	急	-0.0707946
-2.9614253	日	-0.0707946
-2.9614253	享	-0.0707946
-2.9614253	心	-0.0707946
-2.9614253	替	-0.0707946
-2.9614253	促	-0.0707946
-2.9614253	銷	-0.0707946
-2.9614253	吸	-0.0707946
-2.9614253	更	-0.0707946
-2.9614253	輕	-0.0707946
-2.9614253	比	-0.0707946
-2.9614253	假	-0.0707946
-2.9614253	擔	-0.0707946
-2.9614253	哄	-0.0707946
-2.9614253	邏	-0.0707946
-2.9614253	輯	-0.0707946
-2.9614253	動	-0.0707946
-2.9614253	夠	-0.0707946
-2.9614253	夜	-0.0707946
-2.9614253	譚	-0.0707946
-2.9614253	謹	-0.0707946
-2.9614253	陳	-0.0707946
-2.9614253	辭	-0.0707946

\2-grams:
-0.8200282	辭 </s>	0
-0.8154481	<s> 代	-0.060650256
-2.3041291	的 代	-0.060650256
-1.4865612	麼 代	-0.060650256
-1.7902868	界 代	-0.060650256
-0.8154481	輯 代	-0.060650256
-0.48104918	代 理	-0.34888235
-2.1860182	有 理	-0.060650256
-0.40855962	管 理	-0.060650256
-1.4103773	理 主	-0.34888235
-2.037015	府 主	-0.11362448
-1.118402	主 席	-0.09523898
-1.076612	席 我	-0.060650256
-0.7985027	題 我	-0.060650256
-1.8298889	是 我	-0.060650256
-1.076612	聽 我	-0.060650256
-1.4122616	務 我	-0.060650256
-1.4725182	限 我	-0.060650256
-1.4122616	麼 我	-0.060650256
-1.6349654	院 我	-0.060650256
-0.7985027	持 我	-0.060650256
-0.7985027	改 我	-0.060650256
-1.5213305	何 我	-0.060650256
-1.3646274	知 我	-0.060650256
-0.7985027	途 我	-0.060650256
-1.2309319	此 我	-0.060650256
-0.7985027	譚 我	-0.060650256
-1.3647132	理 會	-0.060650256
-1.8449601	我 會	-0.060650256
-1.9104271	不 會	-0.060650256
-1.9788146	人 會	-0.060650256
-1.8820115	費 會	-0.060650256
-1.4478245	法 會	-0.060650256
-1.5136319	後 會	-0.060650256
-1.6587532	能 會	-0.060650256
-1.6519084	錢 會	-0.060650256
-0.80689275	社 會	-0.060650256
-1.7966876	會 返	-0.060650256
-0.8200282	返 回	-0.060650256
-1.0672548	席 這	-0.060650256
-1.7314404	我 這	-0.060650256
-0.79354537	回 這	-0.060650256
-1.4957618	對 這	-0.060650256
-1.7830282	是 這	-0.060650256
-1.3183149	實 這	-0.060650256
-1.4742342	了 這	-0.060650256
-1.231915	把 這	-0.060650256
-1.4957618	何 這	-0.060650256
-1.637317	說 這	-0.060650256
-1.6972197	用 這	-0.060650256
-1.0672548	想 這	-0.060650256
-1.4495971	得 這	-0.060650256
-1.0672548	致 這	-0.060650256
-1.0672548	它 這	-0.060650256
-1.2176428	作 這	-0.060650256
-1.4495971	買 這	-0.060650256
-0.79354537	慮 這	-0.060650256
-2.048522	這 項	-0.060650256
-0.81905997	項 辯	-0.060650256
-0.81905997	讀 辯	-0.060650256
-0.4085993	辯 論	-0.060650256
-2.4173658	的 論	-0.060650256
-1.4613279	我 的	-0.060650256
-1.3590825	會 的	-0.060650256
-1.1032457	論 的	-0.060650256
-1.1784434	才 的	-0.060650256
-1.2993795	案 的	-0.060650256
-1.2395881	要 的	-0.060650256
-1.2694457	你 的	-0.060650256
-1.3590825	時 的	-0.060650256
-1.2307284	出 的	-0.060650256
-1.742056	保 的	-0.060650256
-1.3728752	劃 的	-0.11362448
-1.2307284	務 的	-0.060650256
-0.98333836	除 的	-0.060650256
-1.4675901	元 的	-0.060650256
-0.548345	真 的	-0.060650256
-0.98333836	趣 的	-0.060650256
-1.3728752	界 的	-0.060650256
-1.0413902	療 的	-0.060650256
-0.97895217	院 的	-0.060650256
-1.3524591	治 的	-0.060650256
-1.2694457	在 的	-0.11362448
-1.5108002	費 的	-0.11362448
-0.7468561	惠 的	-0.060650256
-1.4362953	府 的	-0.060650256
-1.1784434	診 的	-0.060650256
-0.38719442	東 的	-0.060650256
-0.7468561	西 的	-0.060650256
-1.4241945	用 的	-0.060650256
-1.2552667	患 的	-0.060650256
-1.1784434	貴 的	-0.060650256
-1.1032457	物 的	-0.060650256
-1.3427986	錢 的	-0.11362448
-0.98333836	水 的	-0.060650256
-1.1784434	士 的	-0.060650256
-0.7468561	宜 的	-0.060650256
-1.1032457	天 的	-0.060650256
-0.548345	價 的	-0.060650256
-0.7468561	別 的	-0.060650256
-1.2307284	業 的	-0.060650256
-0.7468561	職 的	-0.060650256
-1.2552667	% 的	-0.060650256
-0.7468561	熟 的	-0.060650256
-0.7468561	導 的	-0.11362448
-0.7468561	微 的	-0.060650256
-1.2307284	少 的	-0.060650256
-0.7468561	舊 的	-0.060650256
-1.1032457	港 的	-0.060650256
-0.7468561	擔 的	-0.060650256
-2.41233	的 議	-0.060650256
-1.9186523	多 議	-0.060650256
-0.2596981	建 議	-0.06065023
-1.5084695	議 題	-0.060650256
-1.9907514	我 剛	-0.060650256
-0.81717956	剛 才	-0.060650256
-1.5687312	後 才	-0.060650256
-1.4030851	件 才	-0.060650256
-1.4030851	士 才	-0.060650256
-1.2918532	論 述	-0.060650256
-0.8154481	述 對	-0.060650256
-1.4865612	麼 對	-0.060650256
-1.3964497	然 對	-0.060650256
-0.25918832	反 對	-0.06065023
-1.4865612	少 對	-0.060650256
-2.3548684	的 條	-0.060650256
-1.6305481	對 條	-0.060650256
-1.9820449	個 條	-0.060650256
-0.81717956	訂 條	-0.060650256
-0.7056355	條 例	-0.11362448
-2.0263577	為 例	-0.060650256
-1.1059581	舉 例	-0.060650256
-1.3153315	個 例	-0.11362448
-1.8971502	病 例	-0.060650256
-0.8137235	比 例	-0.060650256
-1.5850579	例 草	-0.11362448
-0.81905997	草 案	-0.060650256
-0.42128074	方 案	-0.060650256
-2.1454468	的 二	-0.060650256
-1.9738793	要 二	-0.060650256
-1.969895	為 二	-0.060650256
-2.0026035	人 二	-0.11362448
-1.8975782	十 二	-0.060650256
-0.47815046	第 二	-0.06065023
-1.3708776	月 二	-0.060650256
-1.6304077	至 二	-0.060650256
-1.0959541	賺 二	-0.060650256
-1.8391123	二 讀	-0.060650256
-1.0064862	這 是	-0.06065023
-1.2133019	論 是	-0.060650256
-1.8986609	的 是	-0.060650256
-1.9067539	可 是	-0.060650256
-1.7612603	不 是	-0.060650256
-1.3857697	務 是	-0.060650256
-1.8086338	人 是	-0.060650256
-0.7919054	概 是	-0.060650256
-1.2282674	真 是	-0.060650256
-1.0641799	均 是	-0.060650256
-1.0539913	但 是	-0.060650256
-1.7614638	費 是	-0.060650256
-0.7919054	話 是	-0.060650256
-1.3991019	長 是	-0.060650256
-1.3128488	貴 是	-0.060650256
-1.3991019	還 是	-0.060650256
-1.3128488	定 是	-0.060650256
-1.4422181	買 是	-0.060650256
-0.7919054	就 是	-0.060650256
-2.0965674	是 重	-0.060650256
-0.81905997	嚴 重	-0.060650256
-1.8625526	的 要	-0.060650256
-1.6130761	二 要	-0.060650256
-1.0580947	重 要	-0.060650256
-1.7444628	元 要	-0.060650256
-1.4844904	如 要	-0.060650256
-1.5747615	但 要	-0.060650256
-1.585951	們 要	-0.060650256
-1.6949259	府 要	-0.060650256
-1.3021185	然 要	-0.060650256
-1.2047483	曾 要	-0.060650256
-1.4278255	難 要	-0.060650256
-1.3021185	道 要	-0.060650256
-1.7381563	他 要	-0.060650256
-0.9269506	癌 要	-0.060650256
-1.3021185	月 要	-0.060650256
-1.4278255	已 要	-0.060650256
-0.13463469	需 要	-0.21002118
-1.3874985	還 要	-0.060650256
-1.4414171	家 要	-0.060650256
-1.2047483	天 要	-0.060650256
-1.0580947	它 要	-0.060650256
-2.4173658	的 請	-0.060650256
-0.81905997	申 請	-0.060650256
-2.0115392	是 你	-0.060650256
-1.1059581	請 你	-0.060650256
-1.3899142	診 你	-0.060650256
-1.7826574	說 你	-0.060650256
-1.2734284	物 你	-0.060650256
-1.6085376	高 你	-0.060650256
-1.5850579	你 聆	-0.060650256
-0.81905997	聆 聽	-0.060650256
-1.5794516	難 聽	-0.060650256
-2.4533103	的 發	-0.060650256
-0.8200282	發 言	-0.060650256
-0.8137235	言 現	-0.060650256
-2.0263577	為 現	-0.060650256
-1.7742779	們 現	-0.060650256
-1.5495775	在 現	-0.060650256
-1.7826574	說 現	-0.060650256
-1.2734284	小 現	-0.060650256
-2.2587023	的 時	-0.060650256
-0.35372844	現 時	-0.060650256
-1.7742779	劃 時	-0.060650256
-1.8843343	用 時	-0.060650256
-1.2734284	小 時	-0.11362448
-1.1059581	同 時	-0.060650256
-1.7966876	時 提	-0.060650256
-0.8154481	提 出	-0.060650256
-1.7902868	界 出	-0.060650256
-1.1093446	找 出	-0.060650256
-1.6230996	付 出	-0.060650256
-0.8154481	推 出	-0.060650256
-1.7106407	的 自	-0.34888235
-1.5579468	對 自	-0.060650256
-1.4404751	出 自	-0.060650256
-1.9359585	為 自	-0.060650256
-1.358635	實 自	-0.060650256
-1.6953155	入 自	-0.060650256
-0.87023896	了 自	-0.11362448
-1.1171882	說 自	-0.11362448
-1.7964109	用 自	-0.060650256
-1.249308	或 自	-0.060650256
-1.5050919	買 自	-0.11362448
-0.10432854	自 願	-1.0478524
-0.81905997	寧 願	-0.060650256
-1.4361888	的 醫	-0.4738211
-1.8467045	是 醫	-0.060650256
-1.0797765	願 醫	-1.0478524
-1.2354536	中 醫	-0.060650256
-1.5716623	民 醫	-0.060650256
-1.6458639	院 醫	-0.060650256
-1.3408947	早 醫	-0.060650256
-1.5808834	科 醫	-0.060650256
-1.2354536	括 醫	-0.060650256
-1.0797765	想 醫	-0.060650256
-1.2354536	和 醫	-0.060650256
-1.4904094	家 醫	-0.11362448
-1.0797765	下 醫	-0.060650256
-1.4804354	買 醫	-0.11362448
-1.5936102	的 保	-0.09523898
-1.603722	二 保	-0.060650256
-1.3252286	是 保	-0.11362448
-1.2003803	醫 保	-0.41344798
-1.472135	由 保	-0.060650256
-1.0550839	除 保	-0.060650256
-1.4208043	限 保	-0.060650256
-0.37647843	受 保	-0.34888235
-1.0550839	準 保	-0.060650256
-1.6160729	療 保	-0.11362448
-1.6266632	多 保	-0.060650256
-0.7870224	而 保	-0.060650256
-1.2005339	括 保	-0.060650256
-1.4208043	得 保	-0.060650256
-0.7870224	意 保	-0.060650256
-1.217505	筆 保	-0.060650256
-0.7870224	讓 保	-0.060650256
-1.2005339	成 保	-0.060650256
-0.7870224	被 保	-0.060650256
-1.2968513	定 保	-0.060650256
-0.8530626	加 保	-0.34888235
-1.0550839	續 保	-0.060650256
-2.2180016	保 計	-0.91315377
-2.10249	元 計	-0.060650256
-1.4947411	險 計	-0.11362448
-1.1127577	她 計	-0.060650256
-0.70886695	計 劃	-0.07627276
-1.2968513	才 可	-0.060650256
-1.4638555	案 可	-0.060650256
-1.7275053	是 可	-0.060650256
-1.4208043	你 可	-0.060650256
-1.5758814	劃 可	-0.060650256
-1.7210939	不 可	-0.060650256
-1.2005339	於 可	-0.060650256
-1.4991986	民 可	-0.060650256
-1.2542888	費 可	-0.11362448
-1.6820267	府 可	-0.060650256
-1.4208043	後 可	-0.060650256
-1.7293699	他 可	-0.060650256
-1.1916888	用 可	-0.11362448
-1.381811	患 可	-0.060650256
-1.2005339	利 可	-0.060650256
-0.7870224	吧 可	-0.060650256
-1.2968513	便 可	-0.060650256
-0.7767984	還 可	-0.11362448
-1.4348484	家 可	-0.060650256
-1.0550839	問 可	-0.060650256
-1.2005339	都 可	-0.060650256
-1.2005339	司 可	-0.060650256
-2.142024	可 謂	-0.060650256
-1.1164794	所 謂	-0.060650256
-1.7314404	我 不	-0.060650256
-1.7830282	是 不	-0.060650256
-1.8119392	要 不	-0.060650256
-1.4495971	你 不	-0.060650256
-1.0672548	謂 不	-0.060650256
-1.7144341	三 不	-0.060650256
-1.2176428	於 不	-0.060650256
-1.8245667	人 不	-0.060650256
-1.3183149	數 不	-0.060650256
-1.5339208	民 不	-0.060650256
-1.6176412	們 不	-0.060650256
-1.7733201	費 不	-0.060650256
-1.5449666	科 不	-0.060650256
-1.4957618	何 不	-0.06065023
-1.095962	說 不	-0.060650256
-1.4495971	已 不	-0.060650256
-1.2176428	也 不	-0.060650256
-1.0672548	並 不	-0.060650256
-2.0836048	的 三	-0.060650256
-1.932319	要 三	-0.060650256
-1.8910879	不 三	-0.060650256
-1.6099155	百 三	-0.060650256
-1.358635	即 三	-0.060650256
-1.5658181	付 三	-0.060650256
-0.8052017	近 三	-0.060650256
-0.98675144	至 三	-0.060650256
-1.0894105	下 三	-0.060650256
-0.8052017	許 三	-0.060650256
-1.0894105	起 三	-0.060650256
-1.4104774	是 四	-0.060650256
-1.9742203	不 四	-0.060650256
-0.88766444	三 四	-0.34888235
-1.3834755	額 四	-0.060650256
-1.9258711	十 四	-0.11362448
-2.063875	有 四	-0.060650256
-1.6519148	至 四	-0.060650256
-2.2587023	的 由	-0.060650256
-1.6630815	四 由	-0.060650256
-1.8574303	多 由	-0.060650256
-1.9486189	費 由	-0.060650256
-1.8843343	用 由	-0.11362448
-0.8137235	肉 由	-0.060650256
-1.6429319	對 於	-0.060650256
-0.8838985	由 於	-0.060650256
-1.6419864	案 獲	-0.060650256
-2.1404445	可 獲	-0.060650256
-1.945244	以 獲	-0.060650256
-1.290659	獲 稅	-0.060650256
-1.116198	扣 稅	-0.060650256
-2.1860182	有 稅	-0.060650256
-0.58398664	稅 務	-0.11362448
-0.58398664	服 務	-0.060650256
-1.5037646	務 扣	-0.11362448
-1.28899	算 扣	-0.060650256
-1.118402	扣 除	-0.060650256
-2.4173658	的 款	-0.060650256
-0.4085993	供 款	-0.060650256
-1.290659	稅 額	-0.060650256
-0.5839195	款 額	-0.060650256
-1.5786344	限 額	-0.060650256
-1.3834755	額 上	-0.060650256
-2.014011	元 上	-0.060650256
-1.8608117	以 上	-0.11362448
-1.9238932	個 上	-0.060650256
-0.8120057	本 上	-0.060650256
-1.6207259	設 上	-0.060650256
-1.3834755	池 上	-0.060650256
-0.4212435	上 限	-0.060650256
-2.1860182	有 限	-0.11362448
-1.116198	障 限	-0.060650256
-1.6401302	劃 為	-0.060650256
-1.3294581	額 為	-0.060650256
-1.4647427	限 為	-0.060650256
-1.7154493	以 為	-0.060650256
-0.21329711	因 為	-0.060650256
-1.5232533	付 為	-0.060650256
-1.7658831	府 為	-0.060650256
-1.5625538	科 為	-0.060650256
-1.0734705	圍 為	-0.060650256
-0.79684395	嗎 為	-0.060650256
-1.5126393	高 為	-0.060650256
-1.0734705	問 為	-0.060650256
-0.79684395	列 為	-0.060650256
-0.79684395	疑 為	-0.060650256
-0.79684395	認 為	-0.060650256
-0.5733397	筆 為	-0.060650256
-2.3548684	的 每	-0.060650256
-1.4149655	為 每	-0.060650256
-1.8453071	療 每	-0.060650256
-1.9251784	用 每	-0.060650256
-1.497689	每 名	-0.060650256
-0.9149671	一 名	-0.060650256
-1.762776	萬 名	-0.060650256
-0.81717956	該 名	-0.060650256
-1.6305481	名 受	-0.060650256
-1.4105935	使 受	-0.060650256
-1.4947411	法 受	-0.060650256
-1.2834647	關 受	-0.060650256
-1.6985986	的 人	-0.060650256
-1.5241331	保 人	-0.060650256
-1.5859579	上 人	-0.11362448
-1.9477836	有 人	-0.060650256
-0.38979325	病 人	-0.060650256
-1.7560383	多 人	-0.060650256
-1.5484992	何 人	-0.060650256
-1.433248	些 人	-0.060650256
-0.8666097	家 人	-0.11362448
-0.4042017	單 人	-0.11362448
-0.8035172	誰 人	-0.060650256
-0.8035172	輕 人	-0.09523898
-2.1454468	的 八	-0.060650256
-1.6987711	時 八	-0.060650256
-1.969895	為 八	-0.060650256
-1.489698	人 八	-0.060650256
-1.258796	千 八	-0.060650256
-1.6304077	百 八	-0.060650256
-1.5395362	年 八	-0.060650256
-1.4553003	些 八	-0.060650256
-1.0959541	那 八	-0.060650256
-1.9015485	三 千	-0.060650256
-1.698415	四 千	-0.060650256
-1.7967838	八 千	-0.060650256
-1.7575799	二 元	-0.060650256
-1.7421856	八 元	-0.060650256
-1.263619	千 元	-0.060650256
-0.993961	百 元	-0.060650256
-0.9753544	十 元	-0.060650256
-1.820939	多 元	-0.060650256
-0.13083534	萬 元	-0.13080019
-0.8102947	億 元	-0.060650256
-1.5403084	例 如	-0.060650256
-1.9742203	不 如	-0.060650256
-1.4582065	元 如	-0.11362448
-1.6031544	付 如	-0.060650256
-1.8388015	多 如	-0.060650256
-1.933043	府 如	-0.060650256
-1.268496	光 如	-0.060650256
-0.9503607	如 果	-0.06065023
-1.2918532	果 按	-0.060650256
-2.41233	的 標	-0.060650256
-2.1365	元 標	-0.060650256
-0.818918	按 標	-0.060650256
-0.58444417	標 準	-0.060650256
-1.1164794	準 供	-0.060650256
-1.7452254	錢 供	-0.060650256
-1.8138227	二 百	-0.060650256
-1.0037638	四 百	-0.060650256
-1.7853012	八 百	-0.060650256
-1.4355916	一 百	-0.08107127
-1.4118935	計 算	-0.060650256
-2.077125	不 算	-0.060650256
-1.4098234	便 算	-0.060650256
-2.3041291	的 大	-0.060650256
-1.3964497	額 大	-0.060650256
-1.9009793	以 大	-0.060650256
-0.8154481	笑 大	-0.060650256
-0.8154481	步 大	-0.060650256
-1.5887136	大 概	-0.060650256
-0.80916035	二 十	-0.11362448
-1.932319	要 十	-0.060650256
-1.1905518	三 十	-0.060650256
-1.6099155	四 十	-0.060650256
-1.0849929	八 十	-0.060650256
-1.249308	七 十	-0.060650256
-0.62010485	五 十	-0.08633016
-1.6099155	至 十	-0.11362448
-0.38098413	六 十	-0.34888235
-1.0894105	取 十	-0.060650256
-1.249308	也 十	-0.060650256
-1.2885711	果 真	-0.060650256
-1.4098234	件 真	-0.060650256
-1.116198	歲 真	-0.060650256
-2.4533103	的 落	-0.060650256
-0.81905997	落 實	-0.060650256
-0.55974996	其 實	-0.06065023
-0.37558556	可 以	-0.08429998
-2.0829563	人 以	-0.060650256
-2.0415485	元 以	-0.11362448
-1.4831777	長 以	-0.060650256
-1.5495775	難 以	-0.060650256
-1.1059581	歲 以	-0.11362448
-1.8608117	以 幫	-0.11362448
-1.6468065	民 幫	-0.060650256
-1.3834755	早 幫	-0.060650256
-1.268496	來 幫	-0.060650256
-1.4706495	法 幫	-0.060650256
-1.5979369	何 幫	-0.060650256
-0.8120057	夠 幫	-0.060650256
-0.17755578	幫 助	-0.09012588
-1.28899	資 助	-0.060650256
-2.064795	是 甚	-0.060650256
-2.0685399	為 甚	-0.060650256
-1.5687312	助 甚	-0.060650256
-1.8069086	們 甚	-0.060650256
-2.0382845	這 麼	-0.060650256
-0.1788649	甚 麼	-0.060650256
-1.9783386	我 舉	-0.060650256
-2.4173658	的 舉	-0.060650256
-2.0685399	為 數	-0.060650256
-2.1461883	人 數	-0.060650256
-1.1127577	舉 數	-0.060650256
-1.1127577	倍 數	-0.060650256
-0.82435596	這 個	-0.060650256
-1.7575799	二 個	-0.060650256
-0.7968988	每 個	-0.11362448
-1.3771309	數 個	-0.060650256
-0.6692723	一 個	-0.06065023
-1.263619	七 個	-0.11362448
-1.3933104	六 個	-0.060650256
-0.5798198	兩 個	-0.060650256
-1.5850579	例 子	-0.060650256
-1.118402	子 頗	-0.060650256
-1.7690682	要 有	-0.060650256
-1.7973928	為 有	-0.060650256
-1.7444628	元 有	-0.060650256
-1.3731061	麼 有	-0.060650256
-0.788644	頗 有	-0.060650256
-1.2047483	中 有	-0.060650256
-1.5747615	但 有	-0.060650256
-1.7500352	很 有	-0.060650256
-1.4278255	後 有	-0.060650256
-1.0580947	內 有	-0.060650256
-1.3021185	最 有	-0.060650256
-0.7782037	患 有	-0.060650256
-1.0580947	所 有	-0.060650256
-1.4278255	行 有	-0.060650256
-0.1487817	沒 有	-0.08633016
-1.0580947	力 有	-0.060650256
-1.2047483	港 有	-0.060650256
-1.0580947	只 有	-0.060650256
-1.0580947	分 有	-0.060650256
-0.788644	享 有	-0.060650256
-0.788644	心 有	-0.060650256
-1.5433171	有 趣	-0.060650256
-2.4173658	的 全	-0.060650256
-1.5037646	業 全	-0.060650256
-0.4088695	全 世	-0.11362448
-0.8137235	世 界	-0.060650256
-1.8129905	療 界	-0.060650256
-1.4785326	險 界	-0.060650256
-0.4071021	新 界	-0.060650256
-1.7064531	能 界	-0.060650256
-1.4785326	業 界	-0.060650256
-1.246148	醫 療	-0.10250009
-0.6253994	治 療	-0.060650256
-0.40807325	化 療	-0.09523898
-1.1127577	電 療	-0.060650256
-2.1295724	要 服	-0.060650256
-1.8624142	療 服	-0.11362448
-1.698415	科 服	-0.11362448
-1.5037646	務 均	-0.060650256
-1.1164794	平 均	-0.060650256
-1.1164794	均 鼓	-0.060650256
-1.28899	卻 鼓	-0.060650256
-0.4088695	鼓 勵	-0.060650256
-1.4493679	的 病	-0.34888235
-1.912941	要 病	-0.060650256
-1.5484992	名 病	-0.060650256
-1.2893175	個 病	-0.11362448
-1.0861754	勵 病	-0.060650256
-1.668517	院 病	-0.060650256
-0.25740904	疾 病	-0.06065023
-1.6000209	科 病	-0.11362448
-1.3526406	期 病	-0.11362448
-1.433248	些 病	-0.060650256
-0.8035172	給 病	-0.060650256
-0.8035172	尿 病	-0.060650256
-1.946386	病 向	-0.060650256
-0.8200282	向 淺	-0.060650256
-0.818918	淺 中	-0.060650256
-1.5837479	其 中	-0.060650256
-2.0346756	府 中	-0.060650256
-1.947746	醫 希	-0.060650256
-0.8200282	希 望	-0.060650256
-2.0067098	為 市	-0.060650256
-1.5979369	名 市	-0.060650256
-2.014011	元 市	-0.060650256
-1.5403084	助 市	-0.11362448
-0.8120057	望 市	-0.060650256
-1.3834755	道 市	-0.060650256
-0.8120057	止 市	-0.060650256
-0.09311473	市 民	-0.060650256
-1.4104774	是 無	-0.060650256
-1.7260271	時 無	-0.060650256
-1.7588382	劃 無	-0.060650256
-1.6468065	民 無	-0.060650256
-1.4760998	長 無	-0.060650256
-1.8845352	他 無	-0.060650256
-1.8652679	用 無	-0.060650256
-1.0079982	無 須	-0.060650256
-0.818918	必 須	-0.060650256
-1.116198	只 須	-0.060650256
-1.3771309	才 入	-0.060650256
-1.9962528	要 入	-0.060650256
-1.9518983	不 入	-0.060650256
-1.4972699	人 入	-0.060650256
-1.0992632	勵 入	-0.060650256
-1.3771309	須 入	-0.060650256
-0.8102947	納 入	-0.060650256
-0.8102947	進 入	-0.060650256
-0.7215276	醫 院	-0.08107127
-0.39143923	入 院	-0.08107127
-0.708128	住 院	-0.060650256
-2.0794973	不 及	-0.060650256
-1.7894988	院 及	-0.060650256
-1.9765456	我 早	-0.060650256
-0.40855962	及 早	-0.060650256
-0.818918	盡 早	-0.060650256
-2.1321235	要 找	-0.060650256
-1.4103773	早 找	-0.060650256
-2.41233	的 疾	-0.060650256
-1.116198	重 疾	-0.060650256
-1.5030781	出 疾	-0.060650256
-2.1816294	人 來	-0.060650256
-2.1365	元 來	-0.060650256
-1.9373548	病 來	-0.060650256
-1.2918532	來 源	-0.060650256
-0.8200282	源 盡	-0.060650256
-0.7207271	醫 治	-0.060650256
-1.1762477	療 治	-0.11362448
-1.2834647	症 治	-0.11362448
-0.81717956	靶 治	-0.060650256
-2.113644	保 但	-0.060650256
-1.5859889	治 但	-0.060650256
-0.80689275	較 但	-0.060650256
-1.6519084	錢 但	-0.060650256
-1.5136319	行 但	-0.060650256
-1.4555331	% 但	-0.060650256
-1.254026	作 但	-0.060650256
-0.80689275	) 但	-0.060650256
-1.3647132	池 但	-0.060650256
-0.80689275	命 但	-0.060650256
-0.98259115	我 們	-0.06065023
-0.39342254	他 們	-0.060650256
-2.0115392	是 在	-0.060650256
-0.8814596	現 在	-0.11362448
-2.1803598	保 在	-0.060650256
-1.2734284	括 在	-0.060650256
-1.8843343	用 在	-0.060650256
-0.8137235	正 在	-0.060650256
-1.7862788	時 卻	-0.060650256
-1.8241918	劃 卻	-0.060650256
-1.8241918	界 卻	-0.060650256
-2.0115392	是 因	-0.060650256
-1.7742779	劃 因	-0.060650256
-1.7445664	院 因	-0.060650256
-1.1059581	做 因	-0.060650256
-0.8137235	掉 因	-0.060650256
-1.1059581	呢 因	-0.060650256
-2.091274	為 即	-0.060650256
-2.1816294	人 即	-0.060650256
-0.80430907	% 即	-0.060650256
-2.0994332	要 使	-0.34888235
-1.4030851	須 使	-0.060650256
-1.4030851	即 使	-0.060650256
-1.4947411	法 使	-0.060650256
-1.520811	人 付	-0.060650256
-1.9808931	府 付	-0.060650256
-0.582275	支 付	-0.060650256
-0.8154481	者 付	-0.060650256
-0.8154481	繳 付	-0.060650256
-1.4785326	出 了	-0.060650256
-1.2734284	算 了	-0.060650256
-1.5495775	助 了	-0.060650256
-1.2734284	中 了	-0.060650256
-0.8137235	去 了	-0.060650256
-1.5495775	買 了	-0.060650256
-1.7988458	我 很	-0.060650256
-1.5392529	對 很	-0.060650256
-1.4884996	例 很	-0.060650256
-1.5392529	案 很	-0.060650256
-1.6762106	劃 很	-0.060650256
-1.877723	元 很	-0.060650256
-1.8267596	個 很	-0.060650256
-1.185219	有 很	-0.09523898
-1.6570427	但 很	-0.060650256
-1.6762106	們 很	-0.060650256
-0.8670651	了 很	-0.11362448
-1.2400228	間 很	-0.060650256
-0.8018393	洲 很	-0.060650256
-1.2734284	千 多	-0.060650256
-2.0913432	有 多	-0.060650256
-0.39232296	很 多	-0.060650256
-1.1059581	電 多	-0.060650256
-1.1059581	太 多	-0.060650256
-0.8137235	更 多	-0.060650256
-1.3771309	理 費	-0.060650256
-2.1800177	的 費	-0.060650256
-0.63602555	保 費	-0.06981366
-1.7177095	院 費	-0.060650256
-2.070004	政 費	-0.060650256
-1.8722763	他 費	-0.060650256
-1.3933104	昂 費	-0.060650256
-1.3771309	收 費	-0.060650256
-2.4533103	的 話	-0.060650256
-0.47918206	無 法	-0.060650256
-1.1164794	立 法	-0.060650256
-1.4178678	受 惠	-0.060650256
-2.2587023	的 其	-0.060650256
-2.044786	要 其	-0.060650256
-2.0415485	元 其	-0.060650256
-1.7335653	入 其	-0.060650256
-1.3946493	樣 其	-0.060650256
-0.8137235	( 其	-0.060650256
-2.017389	個 思	-0.060650256
-0.8200282	思 維	-0.060650256
-0.818918	維 基	-0.060650256
-0.818918	亞 基	-0.060650256
-0.818918	愛 基	-0.060650256
-1.2933364	基 本	-0.060650256
-1.4875628	對 政	-0.060650256
-1.6324111	二 政	-0.060650256
-1.0641799	願 政	-0.060650256
-0.54969704	由 政	-0.4738211
-1.5415317	上 政	-0.060650256
-1.8086338	人 政	-0.060650256
-1.7474294	個 政	-0.060650256
-1.8244578	有 政	-0.060650256
-1.5939169	但 政	-0.060650256
-1.3128488	然 政	-0.060650256
-1.2133019	表 政	-0.060650256
-1.3857697	求 政	-0.060650256
-1.6847327	用 政	-0.060650256
-1.4422181	行 政	-0.060650256
-1.2133019	點 政	-0.060650256
-0.7919054	怪 政	-0.060650256
-1.0641799	吃 政	-0.060650256
-1.0641799	呢 政	-0.060650256
-0.7919054	好 政	-0.060650256
-0.057337247	政 府	-0.0702549
-1.9328314	多 毒	-0.060650256
-0.8200282	毒 而	-0.060650256
-0.52466905	保 險	-0.28050372
-0.81905997	風 險	-0.4738211
-2.2381213	保 當	-0.060650256
-2.1365	元 當	-0.060650256
-1.8241918	界 當	-0.060650256
-2.0490243	不 然	-0.060650256
-1.2834647	當 然	-0.060650256
-0.81717956	既 然	-0.060650256
-0.81717956	竟 然	-0.060650256
-2.41233	的 建	-0.060650256
-1.2885711	曾 建	-0.060650256
-1.5786344	已 建	-0.060650256
-0.8054193	代 表	-0.060650256
-1.5037646	議 表	-0.060650256
-1.2918532	表 示	-0.060650256
-2.0346756	府 支	-0.060650256
-0.818918	示 支	-0.060650256
-1.116198	力 支	-0.060650256
-1.2933364	支 持	-0.060650256
-1.3029077	我 曾	-0.060650256
-1.1164794	前 曾	-0.060650256
-0.95300055	要 求	-0.060650256
-1.28899	候 求	-0.060650256
-1.5037646	議 修	-0.060650256
-2.037015	府 修	-0.060650256
-1.118402	修 改	-0.060650256
-1.4103773	早 前	-0.060650256
-1.5843805	年 前	-0.060650256
-1.118402	修 訂	-0.060650256
-1.6419864	案 把	-0.060650256
-2.077125	不 把	-0.060650256
-1.9373548	他 把	-0.060650256
-0.58398664	把 專	-0.11362448
-1.28899	候 專	-0.060650256
-0.4071021	專 科	-0.34888235
-1.1059581	通 科	-0.060650256
-0.8137235	骨 科	-0.060650256
-0.8137235	婦 科	-0.060650256
-1.1059581	眼 科	-0.060650256
-0.8137235	神 科	-0.10250009
-1.7062966	科 門	-0.34888235
-1.5037646	求 診	-0.060650256
-0.81905997	門 診	-0.06065023
-1.4141678	診 撇	-0.060650256
-0.81905997	撇 開	-0.060650256
-1.1164794	分 開	-0.060650256
-1.118402	開 普	-0.060650256
-0.81905997	普 通	-0.060650256
-1.5794516	得 通	-0.060650256
-2.0960083	不 談	-0.060650256
-0.8200282	談 納	-0.060650256
-1.5642718	保 障	-0.09523898
-1.118402	障 範	-0.11362448
-0.8200282	範 圍	-0.060650256
-1.7875977	時 輪	-0.060650256
-0.81905997	隊 輪	-0.060650256
-0.4085993	輪 候	-0.060650256
-1.1164794	等 候	-0.060650256
-1.7862788	時 間	-0.060650256
-1.9186523	多 間	-0.060650256
-2.1128504	一 間	-0.060650256
-1.926361	很 長	-0.060650256
-0.58309644	局 長	-0.060650256
-1.4947411	少 長	-0.060650256
-1.1127577	等 長	-0.060650256
-1.9471469	以 新	-0.060650256
-1.5843805	年 新	-0.060650256
-1.8256311	界 東	-0.060650256
-0.81905997	龍 東	-0.060650256
-2.4533103	的 骨	-0.060650256
-1.5786344	例 達	-0.060650256
-1.0062494	科 達	-0.11362448
-1.6419864	高 達	-0.060650256
-1.7930312	這 一	-0.060650256
-1.7407348	是 一	-0.060650256
-1.7690682	要 一	-0.060650256
-1.2047483	於 一	-0.060650256
-1.5296308	上 一	-0.060650256
-1.4278255	限 一	-0.060650256
-1.6517296	以 一	-0.060650256
-1.4147557	有 一	-0.060650256
-1.0580947	找 一	-0.060650256
-1.73868	費 一	-0.060650256
-0.5693382	達 一	-0.34888235
-1.7381563	他 一	-0.060650256
-0.7873049	第 一	-0.11362448
-1.6607864	用 一	-0.060650256
-1.0580947	否 一	-0.060650256
-1.3021185	收 一	-0.060650256
-1.0580947	賺 一	-0.060650256
-1.5296308	設 一	-0.060650256
-0.788644	置 一	-0.060650256
-1.3731061	少 一	-0.060650256
-0.8545964	加 一	-0.11362448
-1.698415	百 七	-0.060650256
-1.3050687	十 七	-0.11362448
-1.698415	至 七	-0.060650256
-1.3318918	個 星	-0.34888235
-0.80443084	長 期	-0.11362448
-0.81905997	星 期	-0.06065023
-2.1404445	可 接	-0.060650256
-1.4098234	期 接	-0.060650256
-1.116198	否 接	-0.060650256
-1.2933364	接 近	-0.060650256
-1.8571217	三 年	-0.060650256
-1.4831777	每 年	-0.060650256
-1.6085376	名 年	-0.060650256
-1.3899142	數 年	-0.060650256
-1.8574303	多 年	-0.060650256
-1.2734284	港 年	-0.060650256
-1.8355626	界 西	-0.060650256
-2.4533103	的 婦	-0.060650256
-1.4141678	期 九	-0.060650256
-0.8200282	九 龍	-0.060650256
-2.4173658	的 眼	-0.060650256
-0.81905997	盲 眼	-0.060650256
-2.0712507	要 五	-0.060650256
-1.6745429	百 五	-0.11362448
-0.7769162	十 五	-0.29405472
-1.2823519	達 五	-0.060650256
-1.5665874	加 五	-0.060650256
-1.9137518	很 難	-0.060650256
-1.3964497	期 難	-0.060650256
-1.5590488	得 難	-0.060650256
-0.4075874	困 難	-0.060650256
-0.8154481	亦 難	-0.060650256
-1.5794516	難 道	-0.060650256
-0.38432437	知 道	-0.06065023
-2.205795	人 盲	-0.060650256
-1.1059581	眼 後	-0.060650256
-1.1059581	到 後	-0.060650256
-1.7021363	錢 後	-0.060650256
-0.8137235	究 後	-0.060650256
-1.3899142	池 後	-0.060650256
-0.8137235	日 後	-0.060650256
-1.6530613	治 嗎	-0.060650256
-0.56883156	為 何	-0.1618577
-1.6440051	如 何	-0.060650256
-0.818918	任 何	-0.060650256
-1.9348218	人 他	-0.060650256
-1.4967166	助 他	-0.11362448
-1.6889358	們 他	-0.060650256
-1.519011	其 他	-0.060650256
-1.2446406	當 他	-0.060650256
-1.9449351	一 他	-0.060650256
-1.7039354	說 他	-0.060650256
-1.6000209	至 他	-0.060650256
-1.0861754	到 他	-0.060650256
-0.8035172	顧 他	-0.060650256
-0.8035172	替 他	-0.060650256
-0.8035172	哄 他	-0.060650256
-1.8355626	們 既	-0.060650256
-2.149907	要 推	-0.060650256
-1.2885711	表 包	-0.060650256
-1.4098234	診 包	-0.060650256
-1.116198	圍 包	-0.060650256
-0.25986043	包 括	-0.06065023
-1.7875977	會 內	-0.060650256
-1.5794516	在 內	-0.060650256
-1.755109	時 第	-0.060650256
-1.2823519	款 第	-0.060650256
-2.1134224	人 第	-0.060650256
-1.1093446	內 第	-0.060650256
-1.1093446	房 第	-0.060650256
-1.6731251	會 說	-0.060650256
-1.5050919	例 說	-0.060650256
-1.9562614	人 說	-0.060650256
-1.9185774	元 說	-0.060650256
-1.249308	來 說	-0.060650256
-1.6803027	但 說	-0.060650256
-1.702045	們 說	-0.060650256
-1.249308	卻 說	-0.060650256
-1.8507417	府 說	-0.060650256
-1.2583437	局 說	-0.060650256
-1.3673486	樣 說	-0.060650256
-1.5774817	案 用	-0.060650256
-1.930668	不 用	-0.060650256
-2.0136583	有 用	-0.060650256
-1.2661998	服 用	-0.060650256
-0.38180834	使 用	-0.08107127
-0.6607947	費 用	-0.08107127
-1.8899457	府 用	-0.060650256
-1.0959541	種 用	-0.060650256
-1.0959541	引 用	-0.060650256
-1.7704144	會 最	-0.060650256
-2.10249	元 最	-0.060650256
-1.6377897	治 最	-0.060650256
-0.81717956	率 最	-0.060650256
-1.7875977	會 想	-0.060650256
-1.4103773	最 想	-0.060650256
-1.9871757	是 癌	-0.060650256
-1.6031544	如 癌	-0.060650256
-1.7976913	療 癌	-0.060650256
-1.268496	症 癌	-0.060650256
-0.8120057	乳 癌	-0.060650256
-0.8120057	腸 癌	-0.060650256
-0.8120057	咽 癌	-0.060650256
-0.42162025	癌 症	-0.08633016
-1.7445878	二 萬	-0.060650256
-0.8846544	三 萬	-0.34888235
-1.6304077	四 萬	-0.060650256
-0.57144547	八 萬	-0.4738211
-1.6304077	百 萬	-0.060650256
-1.2845606	十 萬	-0.34888235
-1.9940292	一 萬	-0.060650256
-1.258796	七 萬	-0.060650256
-0.93996865	五 萬	-0.4738211
-2.0019078	這 些	-0.060650256
-1.1093446	聽 些	-0.060650256
-1.5226504	有 些	-0.11362448
-2.0695295	一 些	-0.060650256
-1.1093446	那 些	-0.060650256
-1.2885711	果 局	-0.060650256
-1.7882488	但 局	-0.060650256
-1.2885711	當 局	-0.060650256
-2.0994332	要 知	-0.060650256
-1.6987088	無 知	-0.060650256
-1.1127577	她 知	-0.060650256
-1.2834647	都 知	-0.060650256
-1.7966876	會 跟	-0.060650256
-0.81905997	跟 她	-0.060650256
-0.81905997	身 她	-0.060650256
-1.415642	計 較	-0.060650256
-1.5084695	出 身	-0.060650256
-1.9471469	以 化	-0.11362448
-1.4103773	道 化	-0.060650256
-1.8624142	療 和	-0.11362448
-1.116198	金 和	-0.060650256
-0.818918	養 和	-0.060650256
-1.28899	和 電	-0.11362448
-1.1164794	致 電	-0.060650256
-1.010188	個 月	-0.060650256
-1.4103773	月 平	-0.060650256
-1.1164794	水 平	-0.060650256
-2.0415485	元 至	-0.08633016
-1.9563094	府 至	-0.060650256
-1.3899142	貴 至	-0.060650256
-1.4831777	% 至	-0.060650256
-0.8137235	低 至	-0.060650256
-1.1059581	倍 至	-0.060650256
-1.8736655	療 乳	-0.060650256
-2.1596231	元 腸	-0.060650256
-2.064795	是 六	-0.060650256
-1.1127577	前 六	-0.060650256
-1.9235356	他 六	-0.060650256
-1.6459689	癌 六	-0.060650256
-1.8736655	療 鼻	-0.060650256
-0.8200282	鼻 咽	-0.060650256
-1.2933364	標 靶	-0.060650256
-0.582275	獲 得	-0.060650256
-0.94468176	付 得	-0.11362448
-1.7972857	說 得	-0.060650256
-1.1093446	取 得	-0.060650256
-0.8154481	覺 得	-0.060650256
-1.3899142	實 已	-0.060650256
-1.8574303	多 已	-0.060650256
-1.9486189	費 已	-0.060650256
-1.3899142	月 已	-0.060650256
-1.7021363	錢 已	-0.060650256
-1.3899142	件 已	-0.060650256
-1.9783386	我 經	-0.060650256
-1.5794516	已 經	-0.060650256
-1.5786344	你 花	-0.060650256
-1.5030781	些 花	-0.060650256
-1.116198	經 花	-0.060650256
-0.25986043	花 光	-0.06065023
-1.658425	幫 到	-0.060650256
-1.28899	看 到	-0.060650256
-1.5794516	助 那	-0.060650256
-1.28899	光 那	-0.060650256
-2.2587023	的 能	-0.060650256
-1.3899142	才 能	-0.060650256
-1.134883	可 能	-0.060650256
-2.0913432	有 能	-0.060650256
-0.8137235	功 能	-0.060650256
-1.2734284	作 能	-0.060650256
-1.9603341	以 排	-0.060650256
-0.8200282	排 隊	-0.060650256
-1.5687312	你 患	-0.060650256
-1.7704144	時 患	-0.060650256
-1.9235356	病 患	-0.060650256
-1.4030851	即 患	-0.060650256
-2.3041291	的 需	-0.060650256
-2.1206667	有 需	-0.060650256
-1.2784176	症 需	-0.060650256
-1.1093446	平 需	-0.060650256
-1.1093446	並 需	-0.060650256
-1.9617167	用 極	-0.060650256
-1.9251784	用 昂	-0.060650256
-1.7324233	能 昂	-0.060650256
-0.81717956	極 昂	-0.060650256
-1.6305481	高 昂	-0.060650256
-1.4103773	最 貴	-0.060650256
-0.38432437	昂 貴	-0.06065023
-2.41233	的 藥	-0.060650256
-1.2885711	候 藥	-0.060650256
-1.4098234	貴 藥	-0.060650256
-0.25986043	藥 物	-0.06065023
-1.6508753	如 申	-0.060650256
-1.118402	請 撒	-0.060650256
-0.8200282	撒 瑪	-0.060650256
-1.116198	謂 利	-0.060650256
-2.1860182	有 利	-0.060650256
-0.818918	瑪 利	-0.060650256
-1.2918532	利 亞	-0.060650256
-0.58444417	基 金	-0.060650256
-1.5388838	有 關	-0.060650256
-1.28899	和 關	-0.060650256
-1.2918532	關 愛	-0.060650256
-1.118402	金 吧	-0.060650256
-2.41233	的 資	-0.060650256
-1.5786344	得 資	-0.060650256
-0.818918	工 資	-0.060650256
-1.2918532	資 產	-0.060650256
-1.28899	資 太	-0.060650256
-0.81905997	產 太	-0.060650256
-1.9328314	多 工	-0.060650256
-1.7588382	界 高	-0.060650256
-1.3834755	最 高	-0.060650256
-1.694028	能 高	-0.060650256
-1.1025977	太 高	-0.060650256
-1.1025977	立 高	-0.4738211
-1.268496	此 高	-0.060650256
-0.8120057	壓 高	-0.060650256
-1.5794516	在 所	-0.060650256
-1.28899	光 所	-0.060650256
-2.2587023	的 錢	-0.060650256
-2.0913432	有 錢	-0.060650256
-1.6130126	付 錢	-0.060650256
-0.25893372	派 錢	-0.08633016
-1.2734284	成 錢	-0.060650256
-1.702896	沒 錢	-0.060650256
-2.10249	元 便	-0.060650256
-1.4030851	然 便	-0.060650256
-1.5687312	後 便	-0.060650256
-1.1127577	房 便	-0.060650256
-2.077125	不 過	-0.060650256
-1.116198	通 過	-0.060650256
-0.818918	透 過	-0.060650256
-2.1987731	保 還	-0.060650256
-2.0709512	元 還	-0.060650256
-1.2784176	過 還	-0.060650256
-1.2823519	價 還	-0.060650256
-0.8154481	圖 還	-0.060650256
-1.945244	以 整	-0.060650256
-0.818918	色 整	-0.060650256
-0.818918	佔 整	-0.060650256
-1.2918532	整 色	-0.060650256
-2.4173658	的 水	-0.060650256
-1.28899	整 水	-0.060650256
-1.8058227	的 精	-0.11362448
-1.6305481	名 精	-0.060650256
-1.7731946	院 精	-0.060650256
-1.4947411	求 精	-0.060650256
-0.17895304	精 神	-0.5707311
-1.28899	曾 致	-0.060650256
-0.81905997	弄 致	-0.060650256
-1.28899	間 私	-0.060650256
-1.4123716	住 私	-0.060650256
-1.6305481	名 家	-0.060650256
-0.55895686	大 家	-0.06065023
-0.40807325	私 家	-0.11362448
-1.2834647	或 家	-0.060650256
-1.7894988	院 詢	-0.060650256
-0.81905997	諮 詢	-0.060650256
-2.1846495	人 問	-0.060650256
-1.1164794	詢 問	-0.060650256
-2.0965674	是 否	-0.060650256
-2.142024	可 否	-0.060650256
-2.41233	的 收	-0.060650256
-1.5030781	求 收	-0.060650256
-0.5839195	接 收	-0.060650256
-1.8455405	自 行	-0.060650256
-1.7902868	劃 行	-0.060650256
-2.1033797	可 行	-0.060650256
-1.404345	不 行	-0.060650256
-1.9617834	個 行	-0.060650256
-2.1860182	有 點	-0.060650256
-2.1128504	一 點	-0.060650256
-0.818918	丁 點	-0.060650256
-1.28899	點 困	-0.060650256
-1.4103773	池 困	-0.060650256
-2.149907	要 符	-0.060650256
-0.8200282	符 合	-0.060650256
-2.1365	元 兩	-0.060650256
-0.818918	合 兩	-0.060650256
-1.582715	加 兩	-0.060650256
-0.7086178	條 件	-0.060650256
-0.4085993	文 件	-0.060650256
-1.4141678	收 該	-0.060650256
-2.41233	的 住	-0.060650256
-1.0591508	入 住	-0.060650256
-0.818918	貼 住	-0.060650256
-1.28899	間 單	-0.060650256
-1.4123716	住 單	-0.060650256
-2.205795	人 房	-0.060650256
-1.6494273	名 護	-0.060650256
-1.5379283	人 士	-0.06065023
-0.81905997	護 士	-0.060650256
-1.4098234	理 或	-0.060650256
-1.4098234	士 或	-0.060650256
-1.2885711	司 或	-0.060650256
-1.6994162	四 小	-0.11362448
-1.249078	很 小	-0.060650256
-1.7966876	時 照	-0.11362448
-0.8200282	照 顧	-0.11362448
-1.4141678	便 宜	-0.060650256
-2.0940905	是 天	-0.060650256
-1.5051308	每 天	-0.060650256
-1.116198	今 天	-0.060650256
-1.7070918	無 價	-0.060650256
-1.5051308	還 價	-0.060650256
-0.818918	討 價	-0.060650256
-1.945244	以 看	-0.060650256
-1.2885711	看 看	-0.060650256
-0.818918	生 看	-0.060650256
-1.2918532	看 養	-0.060650256
-1.5084695	些 列	-0.060650256
-1.6429319	案 下	-0.060650256
-1.8256311	劃 下	-0.060650256
-2.113823	是 貽	-0.060650256
-0.8200282	貽 笑	-0.060650256
-1.7624543	的 方	-0.11362448
-2.162696	保 方	-0.060650256
-1.5537791	大 方	-0.060650256
-1.5537791	其 方	-0.060650256
-1.268496	關 方	-0.060650256
-1.268496	天 方	-0.060650256
-0.8120057	尚 方	-0.060650256
-1.6556604	方 國	-0.060650256
-0.8200282	國 際	-0.060650256
-0.8200282	際 社	-0.060650256
-1.947746	醫 生	-0.060650256
-1.118402	趣 竟	-0.060650256
-2.0960083	不 怪	-0.060650256
-2.0532913	府 亦	-0.060650256
-1.7862788	會 反	-0.060650256
-1.945244	以 反	-0.060650256
-1.5786344	難 反	-0.060650256
-1.6429319	對 它	-0.060650256
-2.0931802	為 它	-0.060650256
-1.0346236	這 樣	-0.06065023
-0.81905997	怎 樣	-0.060650256
-0.70886695	樣 做	-0.060650256
-2.1295724	要 派	-0.060650256
-1.6419864	何 派	-0.060650256
-1.116198	種 派	-0.11362448
-1.5084695	議 員	-0.060650256
-2.1816294	人 都	-0.060650256
-1.58067	家 都	-0.060650256
-0.818918	員 都	-0.060650256
-1.2918532	都 質	-0.060650256
-0.8200282	質 疑	-0.060650256
-1.7966876	會 弄	-0.060650256
-2.017389	個 地	-0.060650256
-0.8200282	地 步	-0.060650256
-1.4103773	道 立	-0.060650256
-0.42128074	設 立	-0.4738211
-1.9328314	多 功	-0.060650256
-1.8355626	界 別	-0.060650256
-1.2918532	過 必	-0.060650256
-1.4103773	須 取	-0.060650256
-1.4103773	收 取	-0.060650256
-1.7882488	但 業	-0.060650256
-1.5030781	險 業	-0.06065023
-1.5786344	行 業	-0.060650256
-2.4173658	的 同	-0.060650256
-0.81905997	若 同	-0.060650256
-1.118402	同 意	-0.060650256
-1.5084695	業 研	-0.060650256
-0.8200282	研 究	-0.060650256
-1.5850579	後 認	-0.060650256
-2.152937	可 圖	-0.060650256
-2.1393926	元 賺	-0.060650256
-1.5843805	大 賺	-0.060650256
-2.0368013	這 筆	-0.060650256
-2.1128504	一 筆	-0.060650256
-1.2885711	整 筆	-0.060650256
-1.8294125	說 今	-0.060650256
-1.6994162	至 今	-0.060650256
-1.2918532	利 潤	-0.060650256
-0.81905997	潤 管	-0.060650256
-1.4103773	定 管	-0.060650256
-1.2918532	或 讓	-0.060650256
-1.6494273	高 薪	-0.060650256
-0.8200282	薪 厚	-0.060650256
-0.8200282	厚 職	-0.060650256
-1.7534624	錢 佔	-0.060650256
-1.886229	三 %	-0.060650256
-1.686315	百 %	-0.060650256
-1.3015828	十 %	-0.060650256
-1.6407168	五 %	-0.060650256
-1.6994162	四 成	-0.09523898
-2.005077	個 成	-0.060650256
-1.7534624	錢 去	-0.060650256
-2.0277712	人 沒	-0.060650256
-1.7439286	界 沒	-0.060650256
-1.6352422	民 沒	-0.060650256
-1.91096	府 沒	-0.11362448
-1.6819487	能 沒	-0.060650256
-1.263619	也 沒	-0.060650256
-0.8102947	仍 沒	-0.060650256
-1.531233	買 沒	-0.060650256
-1.2918532	成 熟	-0.060650256
-1.118402	主 導	-0.11362448
-1.8355626	劃 容	-0.060650256
-0.8200282	容 許	-0.060650256
-1.7452254	錢 作	-0.060650256
-0.81905997	動 作	-0.060650256
-1.0356281	這 種	-0.09523898
-1.9617167	用 途	-0.060650256
-1.118402	經 常	-0.060650256
-0.81905997	常 引	-0.060650256
-0.81905997	吸 引	-0.060650256
-1.118402	子 歐	-0.060650256
-0.8200282	歐 洲	-0.060650256
-1.9603341	以 低	-0.060650256
-1.7966876	會 被	-0.060650256
-1.5037646	業 吃	-0.060650256
-1.28899	司 吃	-0.060650256
-1.118402	吃 掉	-0.060650256
-1.6440051	如 此	-0.060650256
-1.5911152	因 此	-0.060650256
-0.818918	謹 此	-0.060650256
-1.4785326	議 設	-0.060650256
-1.3982215	不 設	-0.060650256
-1.4785326	求 設	-0.060650256
-1.6085376	何 設	-0.060650256
-1.7826574	說 設	-0.060650256
-0.8137235	假 設	-0.060650256
-1.6556604	設 置	-0.060650256
-1.9907514	我 覺	-0.060650256
-1.9478205	很 卑	-0.060650256
-0.8200282	卑 微	-0.060650256
-2.1596231	元 給	-0.060650256
-1.5879762	了 (	-0.060650256
-1.4105561	不 少	-0.060650256
-1.2834647	算 少	-0.060650256
-1.8972716	多 少	-0.060650256
-1.5687312	行 少	-0.060650256
-1.5084695	少 )	-0.060650256
-2.1275966	一 丁	-0.060650256
-1.8241918	界 也	-0.060650256
-2.0062716	費 也	-0.060650256
-1.2885711	點 也	-0.060650256
-2.2090647	有 討	-0.060650256
-1.0584787	能 力	-0.060650256
-1.6494273	高 風	-0.4738211
-1.5084695	險 池	-0.060650256
-2.1275966	一 份	-0.060650256
-0.8200282	份 諮	-0.060650256
-2.4173658	的 文	-0.060650256
-1.1164794	詢 文	-0.060650256
-2.149907	要 怎	-0.060650256
-1.5794516	難 呢	-0.060650256
-1.1164794	做 呢	-0.060650256
-1.118402	今 仍	-0.060650256
-1.5786344	限 定	-0.060650256
-2.1128504	一 定	-0.060650256
-0.818918	規 定	-0.060650256
-2.0195546	費 根	-0.060650256
-0.8200282	根 據	-0.060650256
-0.8200282	據 舊	-0.060650256
-1.4103773	即 附	-0.060650256
-1.4103773	件 附	-0.060650256
-1.9235356	病 加	-0.060650256
-1.4030851	便 加	-0.060650256
-0.40807325	附 加	-0.11362448
-0.40807325	增 加	-0.060650256
-2.0195546	費 率	-0.060650256
-1.9028211	三 倍	-0.060650256
-1.2910007	兩 倍	-0.060650256
-1.6545216	五 歲	-0.09523898
-2.1596231	元 若	-0.060650256
-2.2090647	有 糖	-0.060650256
-0.8200282	糖 尿	-0.060650256
-1.946386	病 血	-0.060650256
-0.8200282	血 壓	-0.060650256
-1.5794516	在 等	-0.060650256
-1.6429319	高 等	-0.060650256
-2.142024	可 增	-0.060650256
-1.9471469	以 增	-0.060650256
-2.10249	元 香	-0.060650256
-1.5687312	助 香	-0.060650256
-1.5687312	在 香	-0.060650256
-1.1127577	起 香	-0.060650256
-0.17895304	香 港	-0.08633016
-1.5099349	患 者	-0.060650256
-1.5850579	得 起	-0.060650256
-2.0931802	為 只	-0.060650256
-2.1846495	人 只	-0.060650256
-1.4141678	須 繳	-0.060650256
-2.0532913	府 賠	-0.060650256
-0.8200282	賠 償	-0.060650256
-0.8200282	償 肉	-0.060650256
-1.5037646	險 公	-0.11362448
-1.28899	過 公	-0.060650256
-0.4088695	公 司	-0.06065023
-1.5037646	法 負	-0.060650256
-2.037015	府 負	-0.060650256
-1.118402	負 責	-0.060650256
-0.8200282	責 補	-0.060650256
-0.8200282	補 貼	-0.060650256
-1.2918532	小 部	-0.060650256
-1.9900489	十 分	-0.060650256
-0.81905997	部 分	-0.060650256
-1.7548934	能 進	-0.060650256
-1.9478205	很 好	-0.060650256
-2.0532913	府 強	-0.060650256
-0.8200282	強 制	-0.060650256
-0.8200282	制 規	-0.060650256
-1.4141678	定 任	-0.060650256
-2.0829563	人 購	-0.11362448
-1.8804312	以 購	-0.11362448
-1.6586871	民 購	-0.060650256
-1.7742779	們 購	-0.060650256
-1.5495775	已 購	-0.060650256
-1.5495775	行 購	-0.060650256
-0.11077745	購 買	-0.08633016
-1.4141678	實 尚	-0.060650256
-1.6556604	方 寶	-0.060650256
-0.8200282	寶 劍	-0.060650256
-0.8200282	劍 就	-0.060650256
-2.205795	人 禁	-0.060650256
-0.8200282	禁 止	-0.060650256
-2.1275966	一 直	-0.060650256
-1.28899	物 續	-0.060650256
-0.81905997	直 續	-0.060650256
-1.7981104	但 誰	-0.060650256
-1.5850579	已 透	-0.060650256
-1.4103773	數 並	-0.060650256
-0.81905997	急 並	-0.060650256
-1.8355626	們 寧	-0.060650256
-1.8042543	八 億	-0.060650256
-1.9328314	多 正	-0.060650256
-1.118402	續 命	-0.060650256
-2.2090647	有 考	-0.060650256
-0.8200282	考 慮	-0.060650256
-2.2090647	有 嚴	-0.060650256
-1.946386	病 情	-0.060650256
-0.8200282	情 況	-0.060650256
-0.8200282	況 危	-0.060650256
-0.8200282	危 急	-0.060650256
-1.7048571	民 日	-0.060650256
-2.152937	可 享	-0.060650256
-1.118402	開 心	-0.060650256
-2.0532913	府 替	-0.060650256
-1.8355626	們 促	-0.060650256
-0.8200282	促 銷	-0.060650256
-0.8200282	銷 吸	-0.060650256
-1.118402	引 更	-0.060650256
-0.56015754	年 輕	-0.34888235
-2.4533103	的 比	-0.060650256
-1.4141678	士 假	-0.060650256
-1.118402	負 擔	-0.060650256
-1.2918532	卻 哄	-0.060650256
-1.5084695	麼 邏	-0.060650256
-0.8200282	邏 輯	-0.060650256
-2.4533103	的 動	-0.11362448
-1.7548934	能 夠	-0.060650256
-1.6556604	方 夜	-0.060650256
-0.8200282	夜 譚	-0.060650256
-1.9907514	我 謹	-0.060650256
-1.2918532	此 陳	-0.060650256
-0.8200282	陳 辭	-0.060650256

\3-grams:
-0.581766	陳 辭 </s>
-0.8707714	別 的 代
-1.2150245	甚 麼 代
-1.330871	險 界 代
-0.5794587	邏 輯 代
-0.37922254	<s> 代 理
-0.37922254	麼 代 理
-0.37922254	輯 代 理
-1.6648673	沒 有 理
-0.32808635	潤 管 理
-0.32808635	定 管 理
-0.24445057	代 理 主
-1.5267228	政 府 主
-0.231908	理 主 席
-0.65602016	主 席 我
-0.57081735	議 題 我
-1.1077036	但 是 我
-0.6919882	聆 聽 我
-1.1788609	服 務 我
-1.2084326	上 限 我
-1.1788609	甚 麼 我
-1.3439287	醫 院 我
-0.57081735	支 持 我
-0.57081735	修 改 我
-1.4049441	為 何 我
-0.7749513	無 知 我
-0.57081735	用 途 我
-0.741269	因 此 我
-0.57081735	夜 譚 我
-0.77497053	有 理 會
-1.1101527	席 我 會
-0.8506942	我 不 會
-1.1290047	有 人 會
-1.6378536	保 費 會
-0.79222786	立 法 會
-0.8041259	到 後 會
-1.2867979	可 能 會
-1.2936592	派 錢 會
-0.5751166	際 社 會
-0.8409498	我 會 返
-0.581766	會 返 回
-0.9498775	主 席 這
-0.8342225	何 我 這
-0.56825805	返 回 這
-1.1474147	反 對 這
-0.8396156	定 是 這
-1.0693928	其 實 這
-0.79718065	去 了 這
-0.7415457	他 把 這
-1.3912836	為 何 這
-0.82279336	但 說 這
-0.8303169	府 用 這
-0.6886086	會 想 這
-0.79256797	覺 得 這
-0.6886086	弄 致 這
-0.6886086	對 它 這
-0.73748505	錢 作 這
-1.3429013	購 買 這
-0.56825805	考 慮 這
-0.8597536	回 這 項
-0.5812793	這 項 辯
-0.5812793	二 讀 辯
-0.32811502	項 辯 論
-0.32811502	讀 辯 論
-0.8739791	才 的 論
-0.7947908	聽 我 的
-0.7737047	社 會 的
-0.8737549	辯 論 的
-0.7258336	剛 才 的
-0.96329784	草 案 的
-0.74368954	重 要 的
-1.2105521	需 要 的
-0.75177485	是 你 的
-1.1510278	現 時 的
-0.7412117	提 出 的
-1.833945	醫 保 的
-1.1489433	計 劃 的
-1.0772306	服 務 的
-0.8081661	扣 除 的
-1.4887421	萬 元 的
-0.42437467	果 真 的
-0.42437467	歲 真 的
-0.8081661	有 趣 的
-0.9913023	世 界 的
-0.97827995	治 療 的
-0.8409437	電 療 的
-0.7467266	醫 院 的
-0.7467266	入 院 的
-1.1474478	醫 治 的
-0.56607425	現 在 的
-1.16672	保 費 的
-0.5434624	受 惠 的
-1.427639	政 府 的
-0.99520284	門 診 的
-0.31254405	界 東 的
-0.31254405	龍 東 的
-0.5434624	界 西 的
-1.2417728	費 用 的
-0.7479857	你 患 的
-0.99520284	昂 貴 的
-0.9507364	藥 物 的
-0.81721383	派 錢 的
-0.65618426	整 水 的
-0.99520284	人 士 的
-0.5434624	便 宜 的
-0.70135486	今 天 的
-0.42437467	無 價 的
-0.42437467	還 價 的
-0.5434624	界 別 的
-1.0242462	險 業 的
-0.5434624	厚 職 的
-0.94506204	十 % 的
-0.5434624	成 熟 的
-0.43404603	主 導 的
-0.5434624	卑 微 的
-0.93444514	不 少 的
-0.5434624	據 舊 的
-1.0122739	香 港 的
-0.5434624	負 擔 的
-0.8738531	論 的 議
-1.6025765	很 多 議
-0.21567817	的 建 議
-0.21567817	曾 建 議
-0.21567817	已 建 議
-0.8032452	的 議 題
-0.8562881	題 我 剛
-0.58033246	我 剛 才
-0.8130007	眼 後 才
-1.0019741	條 件 才
-1.1088908	人 士 才
-0.75758004	的 論 述
-0.5794587	論 述 對
-1.2150245	甚 麼 對
-0.78187037	當 然 對
-0.21527751	會 反 對
-0.21527751	以 反 對
-0.21527751	難 反 對
-1.0290253	不 少 對
-0.87230957	務 的 條
-0.82188493	述 對 條
-1.1294005	兩 個 條
-0.58033246	修 訂 條
-0.52053624	對 條 例
-0.52053624	訂 條 例
-0.85847497	科 為 例
-0.7022879	的 舉 例
-0.7634276	數 個 例
-1.1951951	一 個 例
-1.2638669	疾 病 例
-0.5785868	的 比 例
-0.6016824	條 例 草
-0.4597081	例 草 案
-0.2823207	的 方 案
-0.33724067	保 方 案
-0.33724067	其 方 案
-0.33724067	關 方 案
-0.86467296	案 的 二
-0.8551917	月 要 二
-0.8549269	高 為 二
-0.62368554	家 人 二
-1.1181628	三 十 二
-0.37722647	款 第 二
-0.37722647	內 第 二
-0.37722647	房 第 二
-1.1573415	個 月 二
-1.2858115	元 至 二
-0.6988275	元 賺 二
-0.8448595	的 二 讀
-0.6655134	席 這 是
-0.6655134	得 這 是
-0.6655134	買 這 是
-0.9266981	辯 論 是
-0.84979117	患 的 是
-0.85041475	吧 可 是
-1.0956149	說 不 是
-1.1651986	服 務 是
-1.5760037	病 人 是
-0.5674083	大 概 是
-0.74051696	件 真 是
-0.68748784	平 均 是
-0.6837381	治 但 是
-0.6837381	% 但 是
-1.5751724	保 費 是
-0.5674083	的 話 是
-1.0005944	局 長 是
-0.7628205	最 貴 是
-0.7824292	過 還 是
-0.7628205	一 定 是
-1.3381555	購 買 是
-0.5674083	劍 就 是
-0.8623223	論 是 重
-0.5812793	有 嚴 重
-0.8468751	微 的 要
-1.1894754	第 二 要
-0.685255	是 重 要
-1.0924103	百 元 要
-0.7990389	府 如 要
-0.81391567	池 但 要
-1.1803929	我 們 要
-1.631182	政 府 要
-0.76016605	竟 然 要
-0.9228322	我 曾 要
-1.0103594	困 難 要
-0.76016605	難 道 要
-1.0911812	一 他 要
-0.63220507	乳 癌 要
-0.63220507	咽 癌 要
-1.1194205	個 月 要
-0.7883119	費 已 要
-0.11453454	的 需 要
-0.11453454	有 需 要
-0.11453454	症 需 要
-0.11453454	平 需 要
-0.11453454	並 需 要
-0.7799641	元 還 要
-1.1254075	大 家 要
-0.7337337	每 天 要
-0.685255	為 它 要
-1.1643333	要 的 請
-0.5812793	如 申 請
-0.8575852	可 是 你
-0.7022879	的 請 你
-0.7804816	求 診 你
-0.83957875	會 說 你
-1.0468069	藥 物 你
-0.81884515	太 高 你
-0.81545323	請 你 聆
-0.5812793	你 聆 聽
-0.8146199	得 難 聽
-0.8748385	我 的 發
-0.581766	的 發 言
-0.5785868	發 言 現
-1.465309	因 為 現
-1.236043	我 們 現
-0.81002223	是 在 現
-0.83957875	人 說 現
-0.95270157	很 小 現
-0.8692388	診 的 時
-0.28778663	言 現 時
-0.28778663	為 現 時
-0.28778663	在 現 時
-0.28778663	小 現 時
-1.617378	計 劃 時
-0.9875389	使 用 時
-0.5666789	四 小 時
-0.7022879	若 同 時
-1.3327937	現 時 提
-0.5794587	時 提 出
-0.8403293	療 界 出
-0.7034476	早 找 出
-1.0660923	人 付 出
-0.5794587	要 推 出
-0.83188117	出 的 自
-0.61049384	在 的 自
-1.1706161	反 對 自
-0.7908056	推 出 自
-0.85257757	列 為 自
-0.7736036	落 實 自
-0.8300915	納 入 自
-0.60626876	助 了 自
-0.60626876	買 了 自
-0.70611066	例 說 自
-0.70611066	府 說 自
-1.4053079	使 用 自
-0.7463662	司 或 自
-1.0800282	購 買 自
-0.04365617	的 自 願
-0.0892238	對 自 願
-0.0892238	出 自 願
-0.0892238	為 自 願
-0.0892238	實 自 願
-0.0892238	入 自 願
-0.077996075	了 自 願
-0.077996075	說 自 願
-0.0892238	用 自 願
-0.077996075	買 自 願
-0.5812793	們 寧 願
-0.7899671	界 的 醫
-0.5877072	導 的 醫
-0.7899671	港 的 醫
-0.84552324	長 是 醫
-0.037210908	自 願 醫
-0.74253774	淺 中 醫
-1.4021926	市 民 醫
-1.3485218	入 院 醫
-0.76952845	盡 早 醫
-1.329766	神 科 醫
-1.0267942	包 括 醫
-0.69312066	最 想 醫
-0.74253774	養 和 醫
-0.5933051	私 家 醫
-0.69312066	劃 下 醫
-1.0722827	購 買 醫
-0.60236025	劃 的 保
-0.8167069	士 的 保
-1.1863859	第 二 保
-0.7658221	費 是 保
-0.7658221	就 是 保
-0.038066883	願 醫 保
-0.5548123	買 醫 保
-0.7967959	肉 由 保
-0.8483964	扣 除 保
-1.1831805	上 限 保
-0.30467072	名 受 保
-0.30467072	使 受 保
-0.30467072	關 受 保
-0.8483964	標 準 保
-0.9538991	醫 療 保
-1.4556065	很 多 保
-0.56486905	毒 而 保
-1.0076631	包 括 保
-0.7869024	取 得 保
-0.56486905	同 意 保
-0.7374453	整 筆 保
-0.56486905	或 讓 保
-1.0266161	四 成 保
-0.56486905	會 被 保
-0.96228206	限 定 保
-0.47085637	附 加 保
-0.7278117	增 加 保
-0.6841429	直 續 保
-0.24384668	醫 保 計
-1.142437	百 元 計
-1.2318512	保 險 計
-0.7046103	跟 她 計
-0.044918545	保 計 劃
-0.4194233	險 計 劃
-0.75884485	件 才 可
-1.2521555	方 案 可
-0.8337872	還 是 可
-0.7869024	說 你 可
-1.2388809	計 劃 可
-0.8330703	也 不 可
-0.9209121	由 於 可
-1.3580867	市 民 可
-1.2272233	保 費 可
-0.7477211	收 費 可
-1.6216701	政 府 可
-0.7869024	日 後 可
-1.0894444	一 他 可
-0.7298534	有 用 可
-1.1000106	費 用 可
-0.994509	病 患 可
-0.7324904	有 利 可
-0.56486905	金 吧 可
-0.75884485	後 便 可
-0.5595079	保 還 可
-0.5595079	圖 還 可
-1.1226358	大 家 可
-0.6841429	詢 問 可
-0.7324904	人 都 可
-1.0076631	公 司 可
-1.146055	劃 可 謂
-0.7058713	在 所 謂
-0.8342225	知 我 不
-0.8396156	不 是 不
-0.84239537	元 要 不
-0.79256797	物 你 不
-0.6886086	可 謂 不
-0.8323157	不 三 不
-0.928644	由 於 不
-1.5840404	病 人 不
-0.7641538	為 數 不
-1.37958	市 民 不
-1.1909671	我 們 不
-1.5817066	保 費 不
-0.80928856	通 科 不
-0.58730406	為 何 不
-0.69883025	們 說 不
-0.69883025	卻 說 不
-0.79256797	實 已 不
-0.73748505	點 也 不
-0.6886086	數 並 不
-0.62606937	費 的 三
-0.8523153	天 要 三
-0.8491979	謂 不 三
-1.3331176	一 百 三
-0.9861044	% 即 三
-0.8125549	繳 付 三
-0.5742533	接 近 三
-0.65757847	低 至 三
-0.65757847	倍 至 三
-0.69653577	案 下 三
-0.5742533	容 許 三
-0.8666067	得 起 三
-0.784796	概 是 四
-0.784796	均 是 四
-0.85521424	三 不 四
-0.61443377	即 三 四
-0.61443377	下 三 四
-0.61443377	許 三 四
-0.99510163	款 額 四
-0.9057636	二 十 四
-1.1386037	港 有 四
-0.8247111	% 至 四
-0.8692388	熟 的 由
-0.82614076	不 四 由
-1.5758036	很 多 由
-1.6689068	保 費 由
-0.9875389	費 用 由
-0.5785868	償 肉 由
-0.82353765	麼 對 於
-0.6126839	四 由 於
-0.6126839	費 由 於
-1.3381896	方 案 獲
-0.8644438	於 可 獲
-1.7129048	可 以 獲
-0.75727624	可 獲 稅
-0.70577615	算 扣 稅
-0.86644125	享 有 稅
-0.44733983	獲 稅 務
-0.44733983	有 稅 務
-0.36569303	療 服 務
-0.36569303	科 服 務
-0.5945902	稅 務 扣
-0.7568506	計 算 扣
-0.539381	務 扣 除
-0.8739791	除 的 款
-0.32811502	準 供 款
-0.32811502	錢 供 款
-0.75727624	扣 稅 額
-0.44729722	的 款 額
-0.5348274	供 款 額
-0.81449765	障 限 額
-0.99510163	款 額 上
-1.8414676	萬 元 上
-0.6183245	歲 以 上
-1.4936904	一 個 上
-0.57771665	基 本 上
-1.0655186	不 設 上
-1.1639965	險 池 上
-0.33721396	額 上 限
-0.33721396	元 上 限
-0.33721396	個 上 限
-0.33721396	設 上 限
-1.2014017	沒 有 限
-0.9792149	保 障 限
-1.5340345	計 劃 為
-0.7668328	限 額 為
-1.204734	上 限 為
-0.8324313	人 以 為
-0.17880608	是 因 為
-0.17880608	劃 因 為
-0.17880608	院 因 為
-0.17880608	做 因 為
-0.17880608	呢 因 為
-1.0398287	支 付 為
-1.6821424	政 府 為
-0.81205225	骨 科 為
-0.8582345	範 圍 為
-0.5699626	治 嗎 為
-0.8039572	最 高 為
-0.6908587	人 問 為
-0.5699626	些 列 為
-0.5699626	質 疑 為
-0.5699626	後 認 為
-0.44054997	這 筆 為
-0.44054997	一 筆 為
-0.87230957	宜 的 每
-0.78571635	額 為 每
-0.78571635	限 為 每
-1.4147012	治 療 每
-1.444603	費 用 每
-1.0323699	為 每 名
-0.76714444	有 一 名
-0.6268775	找 一 名
-0.6268775	收 一 名
-0.6268775	設 一 名
-0.8375665	百 萬 名
-0.58033246	收 該 名
-0.82188493	每 名 受
-0.7848199	即 使 受
-1.2188121	無 法 受
-0.95684403	有 關 受
-0.8304796	保 的 人
-0.8304796	用 的 人
-1.7164117	醫 保 人
-0.24752006	受 保 人
-0.6017543	以 上 人
-1.1752521	沒 有 人
-0.13389513	的 病 人
-0.31444567	要 病 人
-0.31444567	名 病 人
-0.31444567	院 病 人
-0.26443848	科 病 人
-0.31444567	些 病 人
-0.31444567	給 病 人
-1.5267521	很 多 人
-0.8098513	任 何 人
-0.58738536	有 些 人
-0.6045463	名 家 人
-0.6045463	或 家 人
-0.32493305	間 單 人
-0.32493305	住 單 人
-0.5733918	但 誰 人
-0.20581187	年 輕 人
-0.86467296	少 的 八
-1.3011512	現 時 八
-0.8549269	以 為 八
-1.2164816	保 人 八
-1.3851535	病 人 八
-0.74893737	四 千 八
-1.0678437	四 百 八
-0.808416	每 年 八
-0.7936548	聽 些 八
-0.6988275	光 那 八
-0.8500149	要 三 千
-0.8304579	額 四 千
-1.1020685	人 八 千
-0.83702683	賺 二 元
-1.0919682	人 八 元
-0.7502287	八 千 元
-0.66050225	八 百 元
-0.9578138	一 百 元
-0.8035096	八 十 元
-0.69494694	五 十 元
-0.6528975	取 十 元
-0.843227	千 多 元
-0.111377485	二 萬 元
-0.053787626	三 萬 元
-0.111377485	四 萬 元
-0.039703432	八 萬 元
-0.053787626	十 萬 元
-0.111377485	一 萬 元
-0.111377485	七 萬 元
-0.039703432	五 萬 元
-0.57684827	八 億 元
-0.80854064	病 例 如
-0.85521424	你 不 如
-0.7942041	千 元 如
-1.201598	十 元 如
-1.0611975	支 付 如
-1.5672339	很 多 如
-1.792339	政 府 如
-1.0442543	花 光 如
-0.49961942	元 如 果
-0.6423777	多 如 果
-1.0562181	如 果 按
-1.1640874	療 的 標
-1.8980849	萬 元 標
-0.5812079	果 按 標
-0.44763032	的 標 準
-0.44763032	按 標 準
-0.8804894	標 準 供
-0.8357202	沒 錢 供
-0.84257066	為 二 百
-0.8199161	是 四 百
-0.6644316	有 四 百
-0.83984023	千 八 百
-0.2451999	達 一 百
-0.587642	加 一 百
-0.7850872	元 計 算
-0.86131513	已 不 算
-0.7846613	元 便 算
-1.1580956	價 的 大
-0.78187037	稅 額 大
-1.3395064	可 以 大
-0.5794587	貽 笑 大
-0.5794587	地 步 大
-0.8159917	額 大 概
-0.45635128	人 二 十
-0.5762716	月 二 十
-0.5762716	至 二 十
-1.123015	癌 要 十
-0.9163238	的 三 十
-0.7295117	百 三 十
-0.81903934	至 四 十
-0.69497585	時 八 十
-0.69497585	百 八 十
-0.7463662	百 七 十
-0.46992052	要 五 十
-0.38213947	百 五 十
-0.46992052	加 五 十
-0.8689335	元 至 十
-0.30798742	是 六 十
-0.30798742	前 六 十
-0.30798742	他 六 十
-0.69653577	收 取 十
-0.7463662	界 也 十
-1.054556	如 果 真
-1.0042893	條 件 真
-0.9792149	五 歲 真
-1.166012	真 的 落
-0.5812793	的 落 實
-0.4317961	的 其 實
-0.4317961	樣 其 實
-0.4317961	( 其 實
-0.3040124	是 可 以
-0.3040124	你 可 以
-0.3651114	劃 可 以
-0.3040124	不 可 以
-0.3040124	民 可 以
-0.256187	用 可 以
-0.3040124	便 可 以
-0.256187	還 可 以
-0.3040124	家 可 以
-0.3040124	都 可 以
-0.3040124	司 可 以
-1.1405363	些 人 以
-1.4907624	萬 元 以
-0.79880303	很 長 以
-0.81002223	亦 難 以
-0.6647597	五 歲 以
-1.3300955	可 以 幫
-1.4448402	市 民 幫
-0.99510163	及 早 幫
-0.7515239	元 來 幫
-1.2075468	無 法 幫
-0.81733316	如 何 幫
-0.57771665	能 夠 幫
-0.12978712	以 幫 助
-0.14986777	早 幫 助
-0.14986777	來 幫 助
-0.14986777	法 幫 助
-0.14986777	何 幫 助
-0.14986777	夠 幫 助
-0.7568506	得 資 助
-1.2929602	這 是 甚
-0.86085653	圍 為 甚
-1.3919535	幫 助 甚
-1.5249377	他 們 甚
-0.8591706	何 這 麼
-0.15093566	是 甚 麼
-0.15093566	為 甚 麼
-0.15093566	助 甚 麼
-0.15093566	們 甚 麼
-0.8554853	麼 我 舉
-0.8739791	水 的 舉
-1.1390831	筆 為 數
-1.4112145	保 人 數
-0.7046103	我 舉 數
-0.7046103	三 倍 數
-0.5839351	實 這 個
-0.5839351	了 這 個
-0.5839351	想 這 個
-0.5839351	致 這 個
-0.83702683	十 二 個
-0.5699909	療 每 個
-0.5699909	用 每 個
-0.7777173	舉 數 個
-0.49951458	是 一 個
-0.49951458	限 一 個
-0.59961456	有 一 個
-0.49951458	費 一 個
-0.49951458	用 一 個
-0.49951458	置 一 個
-0.56518114	十 七 個
-0.7812053	癌 六 個
-0.4446897	元 兩 個
-0.4446897	合 兩 個
-0.6016824	個 例 子
-0.88145936	例 子 頗
-0.8382123	二 要 有
-0.8410176	認 為 有
-1.6868032	萬 元 有
-0.7768337	這 麼 有
-0.5657138	子 頗 有
-0.7337337	其 中 有
-0.81391567	行 但 有
-0.83623284	劃 很 有
-0.7883119	池 後 有
-0.685255	會 內 有
-0.76016605	會 最 有
-0.5602484	時 患 有
-0.5602484	即 患 有
-0.685255	光 所 有
-0.7883119	可 行 有
-0.12624851	人 沒 有
-0.12624851	界 沒 有
-0.12624851	民 沒 有
-0.109741755	府 沒 有
-0.12624851	也 沒 有
-0.12624851	仍 沒 有
-0.12624851	買 沒 有
-0.85002065	能 力 有
-0.7792095	香 港 有
-0.685255	為 只 有
-0.685255	部 分 有
-0.5657138	可 享 有
-0.5657138	開 心 有
-0.80902445	麼 有 趣
-0.80902445	頗 有 趣
-0.8739791	趣 的 全
-0.8024349	行 業 全
-0.32831022	的 全 世
-0.32831022	業 全 世
-0.45790488	全 世 界
-1.4177544	醫 療 界
-0.5868407	保 險 界
-0.32703272	以 新 界
-0.32703272	年 新 界
-0.83139765	功 能 界
-0.79796386	但 業 界
-0.16546488	的 醫 療
-0.74550074	是 醫 療
-0.38448787	療 治 療
-0.38448787	症 治 療
-0.4731712	靶 治 療
-0.2748882	以 化 療
-0.32773486	道 化 療
-0.5382297	和 電 療
-1.5136678	需 要 服
-0.98748714	醫 療 服
-0.9669896	神 科 服
-1.222946	服 務 均
-0.7058713	月 平 均
-0.7058713	務 均 鼓
-0.7568506	劃 卻 鼓
-0.32831022	均 鼓 勵
-0.32831022	卻 鼓 勵
-1.0174059	要 的 病
-0.79252404	元 的 病
-0.79252404	物 的 病
-0.8508842	道 要 病
-0.8098513	該 名 病
-1.177865	一 個 病
-0.9592338	兩 個 病
-0.8649193	鼓 勵 病
-1.0766194	住 院 病
-0.21387833	的 疾 病
-0.21387833	重 疾 病
-0.21387833	出 疾 病
-0.9510969	神 科 病
-0.5777693	長 期 病
-0.789388	那 些 病
-0.5733918	元 給 病
-0.5733918	糖 尿 病
-0.8533177	勵 病 向
-0.581766	病 向 淺
-0.5812079	向 淺 中
-0.81525934	入 其 中
-1.8520068	政 府 中
-0.853413	中 醫 希
-0.581766	醫 希 望
-1.4605328	因 為 市
-0.81733316	萬 名 市
-1.387159	十 元 市
-1.0496765	幫 助 市
-0.57771665	希 望 市
-1.1001192	知 道 市
-0.57771665	禁 止 市
-0.07978561	為 市 民
-0.07978561	名 市 民
-0.07978561	元 市 民
-0.069842786	助 市 民
-0.07978561	望 市 民
-0.07978561	道 市 民
-0.07978561	止 市 民
-0.784796	話 是 無
-0.784796	貴 是 無
-1.0887764	用 時 無
-1.6082861	計 劃 無
-1.4448402	市 民 無
-1.0258261	局 長 無
-0.8486768	至 他 無
-1.4273251	使 用 無
-0.6661124	民 無 須
-0.6661124	用 無 須
-0.5812079	過 必 須
-0.70577615	人 只 須
-0.7777173	後 才 入
-0.85663706	他 要 入
-0.85370237	費 不 入
-1.3903153	病 人 入
-1.1611358	輕 人 入
-0.87170863	鼓 勵 入
-0.9928348	無 須 入
-0.57684827	談 納 入
-0.57684827	能 進 入
-0.5294895	括 醫 院
-0.5294895	和 醫 院
-0.42438412	家 醫 院
-0.5294895	下 醫 院
-0.31564853	才 入 院
-0.31564853	不 入 院
-0.37853274	人 入 院
-0.31564853	勵 入 院
-0.31564853	須 入 院
-0.52194995	的 住 院
-0.52194995	貼 住 院
-1.2950914	何 不 及
-1.4029652	入 院 及
-0.8553676	改 我 早
-0.32808635	不 及 早
-0.32808635	院 及 早
-0.5812079	源 盡 早
-0.86405694	還 要 找
-1.0044785	及 早 找
-0.8738531	治 的 疾
-0.70577615	嚴 重 疾
-0.80231607	找 出 疾
-1.1493903	的 人 來
-0.86426127	億 元 來
-1.2717068	疾 病 來
-0.75758004	病 來 源
-0.581766	來 源 盡
-0.5290419	民 醫 治
-0.5290419	院 醫 治
-0.5290419	早 醫 治
-0.5290419	想 醫 治
-1.0133798	化 療 治
-0.9096494	電 療 治
-0.8019475	癌 症 治
-0.58033246	標 靶 治
-0.8631723	續 保 但
-1.2584859	醫 治 但
-0.5751166	計 較 但
-1.2936592	派 錢 但
-1.0370579	不 行 但
-0.7936989	三 % 但
-0.9445334	動 作 但
-0.5751166	少 ) 但
-1.1540518	險 池 但
-0.5751166	續 命 但
-0.6558781	是 我 們
-0.6558781	院 我 們
-0.6558781	此 我 們
-0.31709623	人 他 們
-0.2665282	助 他 們
-0.31709623	們 他 們
-0.31709623	說 他 們
-0.31709623	到 他 們
-0.31709623	替 他 們
-0.31709623	哄 他 們
-1.1328961	但 是 在
-0.61154634	們 現 在
-0.61154634	說 現 在
-1.9907622	醫 保 在
-1.0468069	包 括 在
-0.84866077	案 用 在
-0.5785868	多 正 在
-1.100205	用 時 卻
-1.6458548	計 劃 卻
-0.84352386	業 界 卻
-1.2847065	這 是 因
-1.617378	計 劃 因
-1.3871282	入 院 因
-0.8751434	樣 做 因
-0.5785868	吃 掉 因
-0.7022879	難 呢 因
-1.4799614	因 為 即
-1.7268083	病 人 即
-0.5737969	百 % 即
-0.69542146	十 % 即
-0.47339818	需 要 使
-1.0019741	無 須 使
-0.78326356	為 即 使
-1.2188121	無 法 使
-1.2306285	保 人 付
-0.8053363	誰 人 付
-1.821149	政 府 付
-0.44625235	府 支 付
-0.44625235	力 支 付
-0.5794587	患 者 付
-0.5794587	須 繳 付
-0.79796386	付 出 了
-0.75282294	便 算 了
-0.81002223	資 助 了
-0.75282294	府 中 了
-0.5785868	錢 去 了
-1.4043053	購 買 了
-1.10243	席 我 很
-0.80837023	少 對 很
-0.7997556	比 例 很
-1.2907947	方 案 很
-1.5574025	計 劃 很
-1.7683586	萬 元 很
-1.4598858	一 個 很
-0.72790056	內 有 很
-0.72790056	力 有 很
-0.72790056	只 有 很
-0.8253716	錢 但 很
-1.4606547	他 們 很
-0.6047628	出 了 很
-0.6047628	中 了 很
-0.7438102	時 間 很
-0.57253194	歐 洲 很
-0.75282294	三 千 多
-1.1413618	港 有 多
-0.3162938	對 很 多
-0.3162938	元 很 多
-0.31976888	有 很 多
-0.3162938	但 很 多
-0.3162938	們 很 多
-0.2658958	了 很 多
-0.3162938	洲 很 多
-0.7022879	致 電 多
-0.7022879	產 太 多
-0.5785868	引 更 多
-0.9928348	管 理 費
-1.14926	療 的 費
-0.6399487	的 保 費
-0.47964907	二 保 費
-0.38915303	是 保 費
-0.47964907	多 保 費
-0.47964907	筆 保 費
-0.47964907	成 保 費
-0.47964907	定 保 費
-0.18329377	加 保 費
-1.0870959	住 院 費
-0.86093533	行 政 費
-0.8476824	其 他 費
-0.7812053	高 昂 費
-0.7777173	的 收 費
-1.4479756	院 的 話
-0.45138422	是 無 法
-0.37793726	時 無 法
-0.37793726	劃 無 法
-0.37793726	他 無 法
-0.7058713	道 立 法
-0.7863075	法 受 惠
-0.8692388	惠 的 其
-0.8595423	如 要 其
-1.8549451	萬 元 其
-0.83445615	進 入 其
-1.1051441	這 樣 其
-0.5785868	了 ( 其
-1.3878506	這 個 思
-0.581766	個 思 維
-0.5812079	思 維 基
-0.5812079	利 亞 基
-0.5812079	關 愛 基
-0.7579565	維 基 本
-0.79958856	然 對 政
-1.1957211	第 二 政
-0.68748784	寧 願 政
-0.425258	的 由 政
-0.425258	多 由 政
-0.3493879	用 由 政
-0.80873775	本 上 政
-1.5760037	病 人 政
-1.3174788	這 個 政
-0.843548	心 有 政
-0.8167515	命 但 政
-0.7628205	既 然 政
-0.9266981	代 表 政
-1.1651986	要 求 政
-0.8288227	不 用 政
-0.79114467	劃 行 政
-0.73623097	一 點 政
-0.5674083	不 怪 政
-0.68748784	司 吃 政
-0.68748784	做 呢 政
-0.5674083	很 好 政
-0.04942076	對 政 府
-0.04942076	二 政 府
-0.04942076	願 政 府
-0.018426532	由 政 府
-0.04942076	上 政 府
-0.04942076	人 政 府
-0.04942076	個 政 府
-0.04942076	有 政 府
-0.04942076	但 政 府
-0.04942076	然 政 府
-0.04942076	表 政 府
-0.04942076	求 政 府
-0.04942076	用 政 府
-0.04942076	點 政 府
-0.04942076	怪 政 府
-0.04942076	吃 政 府
-0.04942076	呢 政 府
-0.04942076	好 政 府
-1.6084758	很 多 毒
-0.581766	多 毒 而
-0.4087524	由 保 險
-0.4087524	除 保 險
-0.4087524	限 保 險
-0.33706006	療 保 險
-0.4087524	而 保 險
-0.4087524	括 保 險
-0.4087524	得 保 險
-0.4087524	意 保 險
-0.4087524	讓 保 險
-0.4087524	被 保 險
-0.14565079	高 風 險
-2.0044668	醫 保 當
-1.8980849	萬 元 當
-1.3408325	險 界 當
-0.85978186	要 不 然
-0.7554328	界 當 然
-0.58033246	們 既 然
-0.58033246	趣 竟 然
-0.8738531	府 的 建
-0.75674355	前 曾 建
-0.81449765	件 已 建
-0.57436454	的 代 表
-0.57436454	界 代 表
-1.1505178	建 議 表
-0.75758004	議 表 示
-1.8520068	政 府 支
-0.5812079	表 示 支
-0.88034713	能 力 支
-0.7579565	示 支 持
-0.7603629	務 我 曾
-0.7603629	持 我 曾
-0.7058713	早 前 曾
-0.64350533	的 要 求
-0.64350533	們 要 求
-0.64350533	然 要 求
-0.64350533	曾 要 求
-0.9591006	輪 候 求
-1.1505178	建 議 修
-1.8533119	政 府 修
-0.7065199	府 修 改
-0.7847754	我 早 前
-0.81535304	數 年 前
-0.7065199	議 修 訂
-1.0705729	草 案 把
-1.2947518	何 不 把
-1.123691	顧 他 把
-0.44733983	案 把 專
-0.44733983	不 把 專
-0.9591006	輪 候 專
-0.27433783	把 專 科
-0.32703272	候 專 科
-0.7022879	普 通 科
-0.5785868	的 骨 科
-0.5785868	的 婦 科
-0.7022879	的 眼 科
-0.11206735	精 神 科
-0.2510586	專 科 門
-0.8024349	候 求 診
-0.20754193	科 門 診
-1.1137514	門 診 撇
-0.5812793	診 撇 開
-0.7058713	十 分 開
-0.7065199	撇 開 普
-0.5812793	開 普 通
-1.055157	獲 得 通
-0.8622939	科 不 談
-0.581766	不 談 納
-0.75604033	的 保 障
-0.8123172	準 保 障
-0.6683415	保 障 範
-0.46003368	障 範 圍
-1.3300571	現 時 輪
-0.5812793	排 隊 輪
-0.32811502	時 輪 候
-0.32811502	隊 輪 候
-0.7058713	在 等 候
-0.8399365	的 時 間
-0.8513122	電 多 間
-0.86313343	他 一 間
-0.8518816	間 很 長
-0.44677448	果 局 長
-0.44677448	但 局 長
-0.80086046	多 少 長
-0.7046103	高 等 長
-0.853371	長 以 新
-0.81535304	三 年 新
-1.1069987	新 界 東
-0.5812793	九 龍 東
-1.166012	東 的 骨
-0.81449765	為 例 達
-0.66541946	婦 科 達
-0.66541946	眼 科 達
-0.8234129	能 高 達
-0.8405963	慮 這 一
-1.2273486	這 是 一
-0.8382123	已 要 一
-0.7337337	對 於 一
-0.8068007	池 上 一
-1.1866993	上 限 一
-1.5468308	可 以 一
-0.7856735	要 有 一
-1.3202429	沒 有 一
-0.685255	要 找 一
-1.5623916	保 費 一
-0.43798253	例 達 一
-0.35881013	科 達 一
-1.0911812	顧 他 一
-0.5650164	時 第 一
-0.5650164	人 第 一
-0.82584953	引 用 一
-0.685255	是 否 一
-0.9643945	接 收 一
-0.685255	大 賺 一
-0.8068007	假 設 一
-0.5657138	設 置 一
-0.7768337	行 少 一
-0.7288108	病 加 一
-0.59879076	便 加 一
-1.3697408	一 百 七
-0.76090074	七 十 七
-1.135537	五 十 七
-1.3098004	元 至 七
-0.767411	二 個 星
-0.57503057	七 個 星
-0.5738592	少 長 期
-0.5738592	等 長 期
-0.20754193	個 星 期
-0.8644438	才 可 接
-1.1118543	星 期 接
-0.70577615	可 否 接
-0.7579565	期 接 近
-0.84641683	近 三 年
-1.0279963	為 每 年
-1.2675699	一 名 年
-0.7804816	倍 數 年
-0.84644306	更 多 年
-1.117699	香 港 年
-1.1086339	新 界 西
-0.8748385	西 的 婦
-1.1137514	星 期 九
-0.581766	期 九 龍
-1.1643333	東 的 眼
-0.5812793	人 盲 眼
-1.1393597	癌 要 五
-0.96004647	一 百 五
-0.6130255	二 十 五
-0.5595701	要 十 五
-0.6766944	三 十 五
-0.20272067	六 十 五
-0.75514555	高 達 五
-1.0517747	病 加 五
-0.8509453	我 很 難
-1.1059471	星 期 難
-0.8115089	說 得 難
-0.32738367	點 困 難
-0.32738367	池 困 難
-0.5794587	府 亦 難
-0.8146199	期 難 道
-0.3104404	要 知 道
-0.3104404	她 知 道
-0.3104404	都 知 道
-1.7340412	病 人 盲
-0.7022879	盲 眼 後
-0.7022879	看 到 後
-0.8308949	有 錢 後
-0.5785868	研 究 後
-1.1673625	險 池 後
-0.5785868	民 日 後
-1.284687	醫 治 嗎
-0.43765685	劃 為 何
-0.43765685	付 為 何
-0.43765685	府 為 何
-0.43765685	嗎 為 何
-0.43765685	問 為 何
-0.43765685	疑 為 何
-0.52306336	筆 為 何
-0.823679	光 如 何
-0.5812079	定 任 何
-1.63566	病 人 他
-1.0378004	幫 助 他
-1.4673451	他 們 他
-0.8050344	元 其 他
-0.7450863	保 當 他
-0.62170607	第 一 他
-0.831105	來 說 他
-0.8176329	貴 至 他
-0.6953944	幫 到 他
-0.45441514	照 顧 他
-0.5733918	府 替 他
-0.5733918	卻 哄 他
-1.5377226	他 們 既
-0.8648752	府 要 推
-0.95893013	代 表 包
-1.1118543	門 診 包
-0.88034713	範 圍 包
-0.21580574	表 包 括
-0.21580574	診 包 括
-0.21580574	圍 包 括
-0.8400661	法 會 內
-0.8146199	括 在 內
-0.83676815	劃 時 第
-0.95638746	供 款 第
-1.704836	病 人 第
-0.7034476	在 內 第
-0.8768711	人 房 第
-0.82739943	能 會 說
-0.8026642	舉 例 說
-1.1261691	些 人 說
-1.7913874	萬 元 說
-0.7463662	人 來 說
-0.8282834	作 但 說
-1.4741402	他 們 說
-0.7463662	界 卻 說
-1.7398874	政 府 說
-0.7488157	當 局 說
-1.0927411	這 樣 說
-1.3091367	方 案 用
-0.8521957	民 不 用
-0.8577143	很 有 用
-0.75091547	要 服 用
-0.13189764	要 使 用
-0.30859318	須 使 用
-0.30859318	法 使 用
-0.49450725	的 費 用
-0.49450725	院 費 用
-0.49450725	政 費 用
-0.49450725	他 費 用
-0.49450725	昂 費 用
-1.7653217	政 府 用
-0.9672411	這 種 用
-0.6988275	常 引 用
-0.8383494	理 會 最
-0.8626207	多 元 最
-1.2789375	醫 治 最
-0.58033246	費 率 最
-0.8400661	後 會 想
-0.7847754	治 最 想
-0.8560591	的 是 癌
-0.81808126	例 如 癌
-1.39876	治 療 癌
-1.1148673	癌 症 癌
-0.57771665	療 乳 癌
-0.57771665	元 腸 癌
-0.57771665	鼻 咽 癌
-0.3374839	是 癌 症
-0.3374839	如 癌 症
-0.3374839	療 癌 症
-0.3374839	症 癌 症
-0.8356518	要 二 萬
-0.6130358	付 三 萬
-0.74813986	至 三 萬
-0.6130358	起 三 萬
-1.0678437	是 四 萬
-0.43933567	為 八 萬
-0.43933567	年 八 萬
-0.43933567	些 八 萬
-0.43933567	那 八 萬
-1.0678437	四 百 萬
-1.1240396	五 十 萬
-0.5683441	至 十 萬
-0.85649645	要 一 萬
-0.74893737	至 七 萬
-0.53020203	十 五 萬
-0.6379002	達 五 萬
-0.85699147	把 這 些
-0.7034476	難 聽 些
-0.80564374	元 有 些
-0.80564374	中 有 些
-0.8609098	於 一 些
-0.7034476	助 那 些
-1.054556	如 果 局
-0.84013	較 但 局
-0.75674355	元 當 局
-0.8624671	家 要 知
-0.83049256	長 無 知
-0.7046103	身 她 知
-0.7554328	家 都 知
-0.8409498	不 會 跟
-0.5812793	會 跟 她
-0.5812793	出 身 她
-0.78585446	她 計 較
-0.8032452	界 出 身
-0.6217868	元 以 化
-1.1120968	知 道 化
-0.7838508	化 療 和
-0.88034713	基 金 和
-0.5812079	看 養 和
-0.5689968	療 和 電
-0.7058713	曾 致 電
-0.5151324	每 個 月
-0.97194576	一 個 月
-0.66697776	六 個 月
-1.1779025	個 月 平
-0.7058713	的 水 平
-0.8116131	萬 元 至
-1.8065051	政 府 至
-1.1030234	昂 貴 至
-0.79880303	五 % 至
-0.5785868	以 低 至
-0.7022879	兩 倍 至
-1.4236506	治 療 乳
-1.9078164	萬 元 腸
-0.8606538	人 是 六
-0.7046103	年 前 六
-0.85167396	當 他 六
-0.8239367	腸 癌 六
-1.4236506	治 療 鼻
-0.581766	療 鼻 咽
-0.7579565	元 標 靶
-0.44625235	案 獲 得
-0.44625235	以 獲 得
-0.7852899	人 付 得
-0.63993835	者 付 得
-0.8410073	元 說 得
-0.7034476	須 取 得
-0.5794587	我 覺 得
-1.1030234	其 實 已
-1.5758036	很 多 已
-1.6689068	保 費 已
-1.1673625	個 月 已
-0.8308949	付 錢 已
-0.9973804	文 件 已
-0.8554853	途 我 經
-0.8146199	月 已 經
-0.81449765	高 你 花
-0.80231607	一 些 花
-0.70577615	已 經 花
-0.21580574	你 花 光
-0.21580574	些 花 光
-0.21580574	經 花 光
-0.82554847	民 幫 到
-0.7568506	生 看 到
-1.397719	幫 助 那
-1.0547684	花 光 那
-1.1551304	價 的 能
-0.7804816	士 才 能
-0.5426754	費 可 能
-0.71200234	府 可 能
-0.71200234	他 可 能
-0.8620558	分 有 能
-0.5785868	多 功 能
-0.95270157	動 作 能
-1.720118	可 以 排
-0.581766	以 排 隊
-0.8130007	診 你 患
-0.8383494	同 時 患
-0.62090456	期 病 患
-0.78326356	人 即 患
-1.1580956	真 的 需
-0.86351275	最 有 需
-1.1205494	癌 症 需
-0.7034476	水 平 需
-0.7034476	急 並 需
-1.4543262	使 用 極
-0.85179484	服 用 昂
-1.3125727	可 能 昂
-0.58033246	用 極 昂
-0.82188493	此 高 昂
-0.7847754	元 最 貴
-0.3104404	用 昂 貴
-0.3104404	能 昂 貴
-0.3104404	極 昂 貴
-0.8738531	貴 的 藥
-0.75674355	等 候 藥
-1.1118543	昂 貴 藥
-0.21580574	的 藥 物
-0.21580574	候 藥 物
-0.21580574	貴 藥 物
-0.8245764	不 如 申
-0.7065199	申 請 撒
-0.581766	請 撒 瑪
-0.70577615	所 謂 利
-0.86644125	行 有 利
-0.5812079	撒 瑪 利
-0.75758004	瑪 利 亞
-0.44763032	亞 基 金
-0.44763032	愛 基 金
-0.80831057	為 有 關
-0.80831057	後 有 關
-0.7568506	金 和 關
-0.75758004	和 關 愛
-0.88145936	基 金 吧
-0.8738531	你 的 資
-1.0549443	獲 得 資
-0.5812079	多 工 資
-0.75758004	的 資 產
-0.7568506	工 資 太
-0.5812793	資 產 太
-0.8523524	太 多 工
-1.3211328	險 界 高
-0.77909726	率 最 高
-1.299494	可 能 高
-0.7011314	資 太 高
-0.16074544	設 立 高
-0.7515239	如 此 高
-0.57771665	血 壓 高
-0.8146199	用 在 所
-1.0547684	花 光 所
-0.8692388	職 的 錢
-0.8620558	所 有 錢
-0.819474	府 付 錢
-0.2150774	要 派 錢
-0.2150774	何 派 錢
-0.18423742	種 派 錢
-0.70717144	四 成 錢
-0.83098376	能 沒 錢
-0.8626207	二 元 便
-0.78326356	不 然 便
-0.8130007	錢 後 便
-0.8786056	人 房 便
-0.86131513	人 不 過
-0.70577615	得 通 過
-0.5812079	已 透 過
-1.9952825	醫 保 還
-1.8688543	萬 元 還
-0.7541259	不 過 還
-0.75514555	討 價 還
-0.5794587	可 圖 還
-1.7129048	可 以 整
-0.5812079	整 色 整
-0.5812079	錢 佔 整
-0.75758004	以 整 色
-0.8739791	擔 的 水
-0.7568506	色 整 水
-0.84182113	會 的 精
-1.3355037	院 的 精
-1.2761669	一 名 精
-1.3973409	醫 院 精
-1.2188121	要 求 精
-0.1307502	的 精 神
-0.15100752	名 精 神
-0.15100752	院 精 神
-0.15100752	求 精 神
-0.9591006	我 曾 致
-0.5812793	會 弄 致
-0.7568506	多 間 私
-1.0051587	入 住 私
-1.2761669	一 名 家
-0.43128228	的 大 家
-0.51531565	以 大 家
-0.43128228	步 大 家
-0.32773486	間 私 家
-0.32773486	住 私 家
-0.7554328	士 或 家
-1.4029652	醫 院 詢
-0.5812793	份 諮 詢
-0.86638415	多 人 問
-0.7058713	院 詢 問
-0.8623223	買 是 否
-0.86451644	問 可 否
-1.4442993	院 的 收
-1.2226331	要 求 收
-0.44729722	可 接 收
-0.44729722	否 接 收
-0.84542215	或 自 行
-1.6266644	計 劃 行
-0.8626652	案 可 行
-0.78352624	是 不 行
-1.0024087	說 不 行
-1.3759094	這 個 行
-0.86644125	但 有 點
-0.86313343	這 一 點
-0.5812079	一 丁 點
-0.7568506	有 點 困
-1.1779025	險 池 困
-0.8648752	難 要 符
-0.581766	要 符 合
-1.4096488	十 元 兩
-0.5812079	符 合 兩
-1.0560032	增 加 兩
-0.52222735	的 條 件
-0.52222735	個 條 件
-0.32811502	的 文 件
-0.32811502	詢 文 件
-1.0057694	接 收 該
-0.8738531	% 的 住
-0.6856439	要 入 住
-0.85058916	人 入 住
-0.5812079	補 貼 住
-0.7568506	一 間 單
-1.0051587	入 住 單
-0.62893784	單 人 房
-1.2833303	一 名 護
-1.0439711	的 人 士
-0.59771883	上 人 士
-0.5812793	名 護 士
-1.0042893	管 理 或
-0.7846613	護 士 或
-1.054556	公 司 或
-0.6097994	十 四 小
-0.7463034	例 很 小
-1.0520607	有 很 小
-0.6152917	小 時 照
-0.46003368	時 照 顧
-0.78555334	房 便 宜
-0.8621963	務 是 天
-0.8026709	的 每 天
-0.70577615	說 今 天
-1.0849131	是 無 價
-0.8026709	價 還 價
-0.5812079	有 討 價
-1.7129048	可 以 看
-0.75674355	以 看 看
-0.5812079	醫 生 看
-0.75758004	看 看 養
-0.8032452	這 些 列
-1.3385979	方 案 下
-1.6466551	計 劃 下
-0.863181	真 是 貽
-0.581766	是 貽 笑
-0.83753324	時 的 方
-0.83753324	天 的 方
-1.9862884	醫 保 方
-0.81068516	笑 大 方
-0.81068516	要 其 方
-0.9506451	有 關 方
-0.7515239	是 天 方
-0.57771665	實 尚 方
-0.82519424	大 方 國
-0.581766	方 國 際
-0.581766	國 際 社
-0.853413	科 醫 生
-0.88145936	有 趣 竟
-0.8622939	們 不 怪
-1.8623064	政 府 亦
-0.8399365	人 會 反
-0.85323745	難 以 反
-0.81449765	很 難 反
-1.1990409	反 對 它
-1.4803663	因 為 它
-0.67645615	我 這 樣
-0.67645615	是 這 樣
-0.67645615	它 這 樣
-0.5812793	要 怎 樣
-0.670684	這 樣 做
-0.5223684	怎 樣 做
-0.86393696	它 要 派
-1.4643364	為 何 派
-0.66771245	這 種 派
-0.8032452	多 議 員
-0.8662575	何 人 都
-1.1785805	大 家 都
-0.5812079	議 員 都
-0.75758004	員 都 質
-0.581766	都 質 疑
-0.8409498	錢 會 弄
-1.3878506	這 個 地
-0.581766	個 地 步
-1.1120968	知 道 立
-0.33724067	議 設 立
-0.40358782	不 設 立
-0.33724067	何 設 立
-0.33724067	說 設 立
-1.6084758	很 多 功
-0.8445455	能 界 別
-0.75758004	通 過 必
-0.7847754	必 須 取
-0.7847754	求 收 取
-0.84013	) 但 業
-0.77715325	保 險 業
-0.81449765	個 行 業
-0.8739791	業 的 同
-0.5812793	元 若 同
-0.7065199	的 同 意
-1.1523257	險 業 研
-0.581766	業 研 究
-0.81545323	究 後 認
-0.8650114	利 可 圖
-0.86439526	八 元 賺
-1.0564333	以 大 賺
-0.8590851	用 這 筆
-0.86313343	賺 一 筆
-0.75674355	佔 整 筆
-0.8439959	樣 說 今
-0.8305758	府 至 今
-0.75758004	謂 利 潤
-0.5812793	利 潤 管
-1.0044785	限 定 管
-0.75758004	理 或 讓
-0.82438827	界 高 薪
-0.581766	高 薪 厚
-0.581766	薪 厚 職
-0.83659506	的 錢 佔
-1.1165041	至 三 %
-0.82901406	二 百 %
-0.7600322	四 十 %
-0.9641803	八 十 %
-1.5194106	十 五 %
-0.25094977	三 四 成
-1.5182883	一 個 成
-1.0941397	成 錢 去
-1.6738311	病 人 沒
-1.0923067	世 界 沒
-1.4384853	市 民 沒
-1.4899077	政 府 沒
-1.2952206	可 能 沒
-0.7502287	費 也 沒
-0.57684827	今 仍 沒
-1.3934494	購 買 沒
-0.75758004	個 成 熟
-0.539381	府 主 導
-1.6521448	計 劃 容
-0.581766	劃 容 許
-1.092558	成 錢 作
-0.4597081	的 動 作
-0.67683876	對 這 種
-0.67683876	說 這 種
-0.67683876	作 這 種
-0.8543763	種 用 途
-0.7065199	我 經 常
-0.5812793	經 常 引
-0.5812793	銷 吸 引
-0.88145936	例 子 歐
-0.581766	子 歐 洲
-1.720118	可 以 低
-0.8409498	費 會 被
-1.1505178	險 業 吃
-1.0547684	公 司 吃
-0.7065199	業 吃 掉
-0.823679	付 如 此
-0.8163433	掉 因 此
-0.5812079	我 謹 此
-1.1406146	建 議 設
-0.782244	於 不 設
-1.1067356	何 不 設
-1.2112696	要 求 設
-1.4487097	為 何 設
-0.83957875	局 說 設
-0.5785868	士 假 設
-0.82519424	求 設 置
-0.8562881	限 我 覺
-0.85341823	個 很 卑
-0.581766	很 卑 微
-1.4133376	十 元 給
-0.8158834	算 了 (
-0.7848122	數 不 少
-0.7848122	並 不 少
-0.7554328	不 算 少
-0.84968305	有 多 少
-1.0523436	不 行 少
-0.8032452	算 少 )
-0.86384356	少 一 丁
-1.3408325	險 界 也
-1.6937467	保 費 也
-0.75674355	丁 點 也
-1.6704447	沒 有 討
-0.6853965	的 能 力
-0.6853965	有 能 力
-0.17285487	立 高 風
-0.17099215	風 險 池
-0.86384356	上 一 份
-0.581766	一 份 諮
-0.8739791	舊 的 文
-0.7058713	諮 詢 文
-0.8648752	但 要 怎
-1.055157	困 難 呢
-0.8804894	樣 做 呢
-0.7065199	至 今 仍
-0.6011652	有 限 定
-0.86313343	否 一 定
-0.5812079	制 規 定
-0.85807	理 費 根
-0.581766	費 根 據
-0.581766	根 據 舊
-1.0044785	% 即 附
-1.0044785	文 件 附
-0.62090456	個 病 加
-0.78326356	然 便 加
-0.32773486	即 附 加
-0.32773486	件 附 加
-0.32773486	可 增 加
-0.32773486	以 增 加
-1.6992049	保 費 率
-1.1189165	的 三 倍
-0.75736326	加 兩 倍
-0.60572463	十 五 歲
-1.9078164	萬 元 若
-1.1515424	患 有 糖
-0.581766	有 糖 尿
-0.8533177	尿 病 血
-0.581766	病 血 壓
-0.8146199	正 在 等
-0.82353765	壓 高 等
-0.86451644	患 可 增
-1.7138216	可 以 增
-1.8832237	萬 元 香
-1.3919535	幫 助 香
-0.8130007	保 在 香
-0.8786056	得 起 香
-0.15100752	元 香 港
-0.15100752	助 香 港
-0.15100752	在 香 港
-0.15100752	起 香 港
-1.0359815	病 患 者
-0.6016824	付 得 起
-1.4803663	因 為 只
-1.4171474	保 人 只
-0.78555334	只 須 繳
-1.8623064	政 府 賠
-0.581766	府 賠 償
-0.581766	賠 償 肉
-1.2344143	保 險 公
-0.7568506	透 過 公
-0.27533907	險 公 司
-0.32831022	過 公 司
-1.222946	無 法 負
-1.8533119	政 府 負
-0.7065199	府 負 責
-0.581766	負 責 補
-0.581766	責 補 貼
-0.9602633	很 小 部
-0.85624325	也 十 分
-0.5812793	小 部 分
-0.8367455	才 能 進
-0.85341823	案 很 好
-1.8623064	政 府 強
-0.581766	府 強 制
-0.581766	強 制 規
-0.78555334	規 定 任
-0.79559803	輕 人 購
-1.3347754	可 以 購
-1.4512895	市 民 購
-1.509808	他 們 購
-0.81002223	多 已 購
-0.81002223	自 行 購
-0.082658775	人 購 買
-0.082658775	以 購 買
-0.094634004	民 購 買
-0.094634004	們 購 買
-0.094634004	已 購 買
-0.094634004	行 購 買
-1.1137514	其 實 尚
-0.82519424	尚 方 寶
-0.581766	方 寶 劍
-0.581766	寶 劍 就
-1.1512924	有 人 禁
-0.581766	人 禁 止
-0.86384356	以 一 直
-1.0547684	藥 物 續
-0.5812793	一 直 續
-0.84108657	保 但 誰
-0.81545323	錢 已 透
-0.7847754	人 數 並
-0.5812793	危 急 並
-1.5377226	他 們 寧
-0.84167266	的 八 億
-1.6084758	很 多 正
-0.7065199	物 續 命
-1.6704447	沒 有 考
-0.581766	有 考 慮
-1.1515424	患 有 嚴
-1.2733886	疾 病 情
-0.581766	病 情 況
-0.581766	情 況 危
-0.581766	況 危 急
-1.4755847	市 民 日
-0.8650114	後 可 享
-0.7065199	分 開 心
-1.8623064	政 府 替
-1.5377226	他 們 促
-0.581766	們 促 銷
-0.581766	促 銷 吸
-0.7065199	吸 引 更
-0.43206006	名 年 輕
-0.43206006	多 年 輕
-0.43206006	港 年 輕
-1.4479756	院 的 比
-1.1137514	人 士 假
-0.7065199	法 負 擔
-0.75758004	時 卻 哄
-1.225083	甚 麼 邏
-0.581766	麼 邏 輯
-0.6328029	錢 的 動
-0.8367455	作 能 夠
-0.82519424	天 方 夜
-0.581766	方 夜 譚
-0.8562881	譚 我 謹
-0.75758004	謹 此 陳
-0.581766	此 陳 辭

\end\
