\data\
ngram 1=553
ngram 2=1706
ngram 3=2155

\1-grams:
-3.26827	<unk>	0
0	<s>	-0.068687454
-3.1027727	</s>	0
-2.0679917	主	-1.0226082
-3.1027727	席	-0.068687454
-2.0679917	公	-0.38269696
-2.5703828	民	-0.068687454
-2.8190632	黨	-0.16044529
-1.4495945	的	-0.13560663
-2.207177	立	-0.26319212
-3.1027727	場	-0.068687454
-2.4132445	當	-0.20650975
-2.6771615	然	-0.068687454
-1.962753	是	-0.13099243
-2.484745	支	-0.17188305
-2.952027	持	-0.068687454
-3.1027727	友	-0.068687454
-2.5703828	陳	-0.20323972
-3.1027727	淑	-0.068687454
-3.1027727	莊	-0.068687454
-2.484745	議	-0.108645625
-3.1027727	員	-0.068687454
-3.1027727	案	-0.068687454
-2.484745	但	-0.068687454
-1.9399953	這	-0.16148959
-1.918371	不	-0.14369595
-2.4132445	因	-0.24466372
-2.2981017	為	-0.12369482
-2.6771615	關	-0.068687454
-3.1027727	係	-0.068687454
-2.8190632	而	-0.068687454
-2.952027	道	-0.068687454
-2.6771615	理	-0.1121475
-2.484745	問	-0.0918524
-3.1027727	題	-0.068687454
-2.8190632	眾	-0.10566629
-2.3518682	所	-0.09717238
-3.1027727	周	-0.068687454
-2.5703828	知	-0.068687454
-1.9867697	香	-1.1017894
-3.1027727	港	-0.068687454
-1.962753	故	-1.1252705
-3.1027727	宮	-0.068687454
-2.1320322	文	-0.36951625
-3.1027727	化	-0.068687454
-2.5703828	博	-0.5454868
-2.952027	物	-0.068687454
-2.8190632	館	-0.09953399
-2.2502642	(	-0.16040106
-2.2981017	)	-0.2004712
-1.9867697	在	-0.13219269
-2.6771615	未	-0.068687454
-2.3518682	經	-0.13825339
-2.3518682	諮	-0.74960685
-3.1027727	詢	-0.068687454
-2.8190632	情	-0.068687454
-3.1027727	況	-0.068687454
-2.5703828	下	-0.068687454
-2.484745	上	-0.17771696
-2.952027	馬	-0.068687454
-2.2502642	中	-0.14225498
-2.8190632	間	-0.068687454
-1.918371	有	-0.104337335
-2.952027	很	-0.21479417
-2.5703828	多	-0.068687454
-2.5703828	疑	-0.068687454
-3.1027727	團	-0.068687454
-2.484745	和	-0.068687454
-1.9399953	我	-0.32391396
-3.1027727	們	-0.06868748
-2.6771615	希	-0.44857684
-3.1027727	望	-0.068687454
-1.8977724	政	-0.74198836
-3.1027727	府	-0.06868748
-2.1320322	能	-0.26950762
-2.952027	夠	-0.068687454
-3.1027727	解	-0.068687454
-3.1027727	畫	-0.068687454
-2.4132445	今	-0.4876156
-3.1027727	次	-0.068687454
-1.8781068	一	-0.16593747
-2.8190632	個	-0.11632291
-2.484745	最	-0.2344211
-2.952027	好	-0.068687454
-2.952027	機	-0.068687454
-2.0988326	會	-0.122532465
-2.6771615	讓	-0.068687454
-3.1027727	澄	-0.068687454
-2.8190632	清	-0.068687454
-2.5703828	究	-0.5454868
-3.1027727	竟	-0.068687454
-2.484745	簽	-0.33470774
-2.6771615	訂	-0.1121475
-2.6771615	協	-0.44857684
-2.5703828	期	-0.068687454
-2.484745	發	-0.2344211
-3.1027727	生	-0.068687454
-2.3518682	了	-0.10086803
-2.484745	甚	-0.2344211
-2.8190632	麼	-0.068687454
-2.1320322	事	-0.11211081
-3.1027727	容	-0.068687454
-2.952027	許	-0.068687454
-3.1027727	簡	-0.068687454
-2.6771615	單	-0.13562538
-3.1027727	複	-0.068687454
-2.8190632	述	-0.13562538
-2.5703828	才	-0.20323972
-2.484745	出	-0.068687454
-3.1027727	現	-0.068687454
-2.952027	天	-0.068687454
-3.1027727	討	-0.068687454
-3.1027727	論	-0.068687454
-3.1027727	緣	-0.068687454
-2.6771615	二	-0.13562538
-2.952027	零	-0.068687454
-2.6771615	六	-0.068687454
-2.952027	年	-0.068687454
-2.5703828	十	-0.10086803
-2.8190632	月	-0.16044529
-2.8190632	三	-0.068687454
-2.484745	日	-0.068687454
-3.1027727	突	-0.068687454
-2.8190632	向	-0.068687454
-2.3518682	人	-0.068687454
-2.952027	送	-0.068687454
-2.952027	份	-0.068687454
-2.952027	完	-0.21479417
-2.952027	全	-0.068687454
-2.484745	沒	-0.62466806
-2.8190632	預	-0.068687454
-2.8190632	計	-0.068687454
-2.3518682	過	-0.14225498
-3.1027727	謂	-0.068687454
-3.1027727	聖	-0.068687454
-3.1027727	誕	-0.068687454
-2.2502642	大	-0.11632291
-3.1027727	禮	-0.068687454
-3.1027727	宣	-0.068687454
-2.8190632	布	-0.068687454
-2.8190632	跟	-0.16044529
-2.8190632	北	-0.16044529
-3.1027727	京	-0.068687454
-3.1027727	院	-0.068687454
-2.484745	合	-0.42066878
-2.484745	作	-0.068687454
-2.8190632	備	-0.068687454
-2.952027	忘	-0.068687454
-2.952027	錄	-0.068687454
-2.1320322	西	-0.9604602
-2.952027	九	-0.068687454
-2.952027	區	-0.068687454
-2.6771615	興	-0.44857684
-2.484745	建	-0.10086803
-2.952027	整	-0.21479417
-2.5703828	程	-0.09423833
-2.4132445	任	-0.18401086
-2.952027	何	-0.068687454
-3.1027727	至	-0.068687454
-3.1027727	連	-0.068687454
-2.952027	法	-0.068687454
-2.6771615	也	-0.068687454
-3.1027727	毫	-0.068687454
-2.5703828	根	-0.34148756
-3.1027727	據	-0.068687454
-2.6771615	說	-0.068687454
-2.4132445	保	-0.16036317
-2.952027	密	-0.068687454
-2.484745	此	-0.068687454
-2.5703828	到	-0.068687454
-2.3518682	後	-0.068687454
-3.1027727	頭	-0.068687454
-2.2981017	開	-0.1321542
-3.1027727	再	-0.068687454
-2.952027	者	-0.068687454
-2.5703828	由	-0.1121475
-3.1027727	賽	-0.068687454
-2.8190632	捐	-0.16044529
-3.1027727	錢	-0.068687454
-2.952027	資	-0.068687454
-2.6771615	涉	-0.44857684
-2.207177	及	-0.10566629
-3.1027727	共	-0.068687454
-3.1027727	財	-0.068687454
-2.3518682	以	-0.119789675
-2.952027	無	-0.068687454
-2.5703828	須	-0.068687454
-3.1027727	結	-0.068687454
-2.952027	果	-0.068687454
-2.952027	除	-0.068687454
-2.952027	少	-0.068687454
-2.8190632	數	-0.068687454
-2.5703828	獲	-0.068687454
-2.952027	委	-0.16044529
-2.8190632	進	-0.16044529
-3.1027727	入	-0.068687454
-2.484745	五	-0.16044529
-3.1027727	核	-0.068687454
-2.952027	心	-0.068687454
-2.6771615	小	-0.13562538
-3.1027727	組	-0.068687454
-2.952027	高	-0.068687454
-3.1027727	層	-0.068687454
-3.1027727	士	-0.068687454
-2.6771615	外	-0.068687454
-2.6771615	件	-0.068687454
-2.3518682	可	-0.2645017
-3.1027727	黑	-0.068687454
-3.1027727	箱	-0.068687454
-3.1027727	業	-0.068687454
-2.3518682	管	-0.74960685
-2.3518682	局	-0.09562567
-2.1679814	條	-0.28315982
-2.8190632	例	-0.068687454
-2.2981017	第	-0.13825339
-2.8190632	明	-0.12138691
-2.8190632	引	-0.16044529
-3.1027727	損	-0.068687454
-3.1027727	害	-0.068687454
-3.1027727	a	-0.068687454
-3.1027727	原	-0.068687454
-2.8190632	則	-0.068687454
-2.952027	就	-0.068687454
-2.6771615	於	-0.068687454
-2.5703828	展	-0.068687454
-2.484745	或	-0.068687454
-2.484745	營	-0.62466806
-3.1027727	運	-0.068687454
-3.1027727	藝	-0.068687454
-3.1027727	術	-0.068687454
-2.4132445	設	-0.31614107
-2.952027	施	-0.1121475
-2.2981017	相	-0.38586026
-3.1027727	附	-0.068687454
-2.8190632	屬	-0.068687454
-3.1027727	宜	-0.068687454
-2.4132445	其	-0.20650975
-2.952027	他	-0.068687454
-2.4132445	認	-0.3905849
-2.952027	適	-0.068687454
-2.6771615	該	-0.12138691
-2.6771615	時	-0.068687454
-3.1027727	藉	-0.068687454
-2.3518682	方	-0.09717238
-2.952027	式	-0.068687454
-2.8190632	又	-0.068687454
-2.6771615	呢	-0.068687454
-2.6771615	項	-0.13562538
-3.1027727	擬	-0.068687454
-3.1027727	圖	-0.068687454
-3.1027727	b	-0.068687454
-2.952027	務	-0.068687454
-2.8190632	長	-0.068687454
-2.8190632	另	-0.16044529
-2.484745	顧	-0.42066878
-2.6771615	款	-0.068687454
-2.8190632	行	-0.068687454
-2.952027	接	-0.068687454
-2.6771615	意	-0.13562538
-2.8190632	見	-0.068687454
-2.6771615	寫	-0.24457753
-2.5703828	要	-0.10086803
-2.6771615	並	-0.068687454
-2.952027	且	-0.068687454
-2.952027	尊	-0.21479417
-2.952027	重	-0.068687454
-2.952027	收	-0.068687454
-3.1027727	集	-0.068687454
-2.6771615	得	-0.068687454
-2.484745	來	-0.068687454
-2.484745	便	-0.068687454
-2.6771615	工	-0.24457753
-2.8190632	違	-0.32363808
-3.1027727	反	-0.068687454
-2.952027	精	-0.21479417
-3.1027727	神	-0.068687454
-3.1027727	初	-0.068687454
-2.6771615	目	-0.068687454
-3.1027727	障	-0.068687454
-2.8190632	規	-0.16044529
-2.952027	劃	-0.068687454
-3.1027727	誠	-0.068687454
-3.1027727	終	-0.068687454
-3.1027727	秘	-0.068687454
-3.1027727	統	-0.068687454
-3.1027727	籌	-0.068687454
-2.5703828	同	-0.068687454
-2.952027	樣	-0.068687454
-2.2502642	特	-0.20323972
-3.1027727	禁	-0.068687454
-2.952027	令	-0.21479417
-3.1027727	懷	-0.068687454
-2.6771615	否	-0.068687454
-3.1027727	仍	-0.068687454
-2.8190632	信	-0.068687454
-3.1027727	署	-0.068687454
-2.5703828	之	-0.12138691
-2.952027	已	-0.068687454
-2.952027	八	-0.068687454
-3.1027727	星	-0.068687454
-2.484745	本	-0.085553266
-2.8190632	先	-0.068687454
-3.1027727	斬	-0.068687454
-3.1027727	奏	-0.068687454
-2.4132445	絕	-0.4876156
-2.4132445	對	-0.15120372
-3.1027727	做	-0.068687454
-2.952027	壞	-0.068687454
-3.1027727	矩	-0.068687454
-2.3518682	如	-0.35935983
-2.6771615	國	-0.068687454
-3.1027727	陸	-0.068687454
-3.1027727	型	-0.068687454
-2.952027	基	-0.068687454
-2.6771615	採	-0.13562538
-2.952027	用	-0.068687454
-3.1027727	種	-0.068687454
-3.1027727	模	-0.068687454
-3.1027727	繞	-0.068687454
-2.952027	那	-0.16044529
-3.1027727	市	-0.068687454
-3.1027727	還	-0.068687454
-2.8190632	價	-0.068687454
-3.1027727	值	-0.068687454
-3.1027727	使	-0.068687454
-3.1027727	監	-0.068687454
-3.1027727	察	-0.068687454
-3.1027727	權	-0.068687454
-2.6771615	應	-0.13562538
-2.952027	通	-0.21479417
-3.1027727	求	-0.068687454
-2.952027	與	-0.068687454
-2.952027	包	-0.068687454
-3.1027727	括	-0.068687454
-3.1027727	紀	-0.068687454
-2.952027	爭	-0.21479417
-2.6771615	招	-0.44857684
-2.6771615	標	-0.068687454
-2.8190632	司	-0.16044529
-2.952027	林	-0.21479417
-3.1027727	鄭	-0.068687454
-3.1027727	娥	-0.068687454
-3.1027727	久	-0.068687454
-3.1027727	傳	-0.068687454
-3.1027727	欽	-0.068687454
-2.952027	點	-0.068687454
-2.6771615	嚴	-0.24457753
-3.1027727	迅	-0.068687454
-3.1027727	奇	-0.068687454
-2.6771615	直	-0.44857684
-2.2502642	成	-0.22540352
-3.1027727	消	-0.068687454
-3.1027727	息	-0.068687454
-3.1027727	尋	-0.068687454
-2.8190632	常	-0.068687454
-2.952027	都	-0.21479417
-2.3518682	更	-0.068687454
-2.8190632	被	-0.068687454
-2.952027	聘	-0.068687454
-3.1027727	前	-0.068687454
-3.1027727	築	-0.068687454
-3.1027727	師	-0.068687454
-2.952027	付	-0.068687454
-2.6771615	四	-0.13562538
-2.8190632	百	-0.16044529
-3.1027727	萬	-0.068687454
-3.1027727	元	-0.068687454
-2.952027	費	-0.068687454
-2.952027	比	-0.068687454
-2.8190632	平	-0.16044529
-3.1027727	撥	-0.068687454
-3.1027727	申	-0.068687454
-3.1027727	請	-0.068687454
-3.1027727	金	-0.068687454
-3.1027727	額	-0.068687454
-2.952027	代	-0.068687454
-2.952027	破	-0.21479417
-2.952027	效	-0.068687454
-3.1027727	購	-0.068687454
-3.1027727	序	-0.068687454
-3.1027727	限	-0.068687454
-2.8190632	性	-0.13562538
-3.1027727	批	-0.068687454
-3.1027727	准	-0.068687454
-2.952027	邀	-0.21479417
-2.952027	告	-0.068687454
-2.952027	投	-0.21479417
-3.1027727	質	-0.068687454
-2.3518682	亦	-0.10086803
-3.1027727	按	-0.068687454
-3.1027727	照	-0.068687454
-3.1027727	貫	-0.068687454
-3.1027727	選	-0.068687454
-3.1027727	擇	-0.068687454
-3.1027727	呈	-0.068687454
-2.8190632	交	-0.16044529
-3.1027727	換	-0.068687454
-3.1027727	言	-0.068687454
-2.952027	剛	-0.21479417
-2.952027	提	-0.068687454
-3.1027727	缺	-0.068687454
-3.1027727	乏	-0.068687454
-2.952027	透	-0.068687454
-2.8190632	度	-0.068687454
-2.952027	每	-0.068687454
-3.1027727	殊	-0.068687454
-2.8190632	將	-0.068687454
-3.1027727	辦	-0.068687454
-3.1027727	驗	-0.068687454
-3.1027727	針	-0.068687454
-2.8190632	需	-0.32363808
-3.1027727	動	-0.068687454
-2.952027	自	-0.068687454
-3.1027727	己	-0.068687454
-3.1027727	利	-0.068687454
-2.8190632	益	-0.068687454
-3.1027727	輸	-0.068687454
-3.1027727	差	-0.068687454
-2.952027	別	-0.068687454
-2.952027	造	-0.068687454
-3.1027727	貪	-0.068687454
-3.1027727	污	-0.068687454
-3.1027727	誘	-0.068687454
-3.1027727	正	-0.068687454
-3.1027727	雖	-0.068687454
-2.952027	承	-0.068687454
-2.8190632	擔	-0.068687454
-2.952027	面	-0.068687454
-3.1027727	卻	-0.068687454
-2.5703828	看	-0.1121475
-2.6771615	負	-0.24457753
-3.1027727	責	-0.068687454
-3.1027727	策	-0.068687454
-3.1027727	諾	-0.068687454
-3.1027727	供	-0.068687454
-3.1027727	足	-0.068687454
-2.952027	遠	-0.068687454
-2.952027	維	-0.068687454
-3.1027727	修	-0.068687454
-3.1027727	養	-0.068687454
-2.8190632	七	-0.068687454
-3.1027727	張	-0.068687454
-3.1027727	宗	-0.068687454
-3.1027727	董	-0.068687454
-2.8190632	身	-0.32363808
-3.1027727	異	-0.068687454
-3.1027727	甲	-0.068687454
-3.1027727	即	-0.068687454
-3.1027727	落	-0.068687454
-3.1027727	菲	-0.068687454
-2.952027	家	-0.068687454
-2.952027	級	-0.068687454
-3.1027727	驚	-0.068687454
-2.8190632	定	-0.16044529
-3.1027727	儲	-0.068687454
-2.952027	存	-0.068687454
-2.952027	濕	-0.068687454
-3.1027727	溫	-0.068687454
-3.1027727	證	-0.068687454
-3.1027727	潮	-0.068687454
-3.1027727	氣	-0.068687454
-3.1027727	取	-0.068687454
-3.1027727	防	-0.068687454
-3.1027727	火	-0.068687454
-3.1027727	措	-0.068687454
-3.1027727	護	-0.068687454
-2.952027	力	-0.068687454
-2.952027	些	-0.068687454
-2.952027	非	-0.068687454
-2.952027	門	-0.068687454
-3.1027727	券	-0.068687454
-3.1027727	覆	-0.068687454
-3.1027727	蓋	-0.068687454
-3.1027727	票	-0.068687454
-3.1027727	售	-0.068687454
-2.952027	太	-0.068687454
-2.8190632	願	-0.068687454
-3.1027727	參	-0.068687454
-3.1027727	觀	-0.068687454
-2.952027	算	-0.068687454
-3.1027727	網	-0.068687454
-3.1027727	站	-0.068687454
-3.1027727	料	-0.068687454
-3.1027727	米	-0.068687454
-3.1027727	廳	-0.068687454
-3.1027727	位	-0.068687454
-3.1027727	沙	-0.068687454
-3.1027727	田	-0.068687454
-3.1027727	裏	-0.068687454
-3.1027727	列	-0.068687454
-3.1027727	積	-0.068687454
-3.1027727	歷	-0.068687454
-3.1027727	史	-0.068687454
-3.1027727	稱	-0.068687454
-3.1027727	旗	-0.068687454
-3.1027727	艦	-0.068687454
-2.952027	打	-0.068687454
-3.1027727	號	-0.068687454
-3.1027727	記	-0.068687454
-3.1027727	距	-0.068687454
-3.1027727	離	-0.068687454
-3.1027727	飛	-0.068687454
-3.1027727	航	-0.068687454
-3.1027727	臺	-0.068687454
-3.1027727	寶	-0.068687454
-3.1027727	品	-0.068687454
-3.1027727	遊	-0.068687454
-3.1027727	客	-0.068687454
-3.1027727	吸	-0.068687454
-2.8190632	贊	-0.16044529
-3.1027727	報	-0.068687454
-3.1027727	楚	-0.068687454
-3.1027727	考	-0.068687454
-2.952027	慮	-0.068687454
-3.1027727	寧	-0.068687454
-3.1027727	測	-0.068687454
-3.1027727	筆	-0.068687454
-3.1027727	充	-0.068687454
-3.1027727	分	-0.068687454
-3.1027727	準	-0.068687454
-3.1027727	界	-0.068687454
-2.8190632	憂	-0.32363808
-3.1027727	納	-0.068687454
-3.1027727	稅	-0.068687454
-3.1027727	埋	-0.068687454
-3.1027727	似	-0.068687454
-3.1027727	乎	-0.068687454
-2.952027	增	-0.21479417
-3.1027727	加	-0.068687454
-3.1027727	族	-0.068687454
-3.1027727	感	-0.068687454
-3.1027727	毋	-0.068687454
-3.1027727	庸	-0.068687454
-3.1027727	置	-0.068687454
-3.1027727	把	-0.068687454
-3.1027727	帶	-0.068687454
-3.1027727	達	-0.068687454
-3.1027727	極	-0.068687454
-3.1027727	袱	-0.068687454
-2.952027	釐	-0.21479417
-3.1027727	鼓	-0.068687454
-3.1027727	勵	-0.068687454
-3.1027727	爛	-0.068687454
-3.1027727	砂	-0.068687454
-3.1027727	盆	-0.068687454
-3.1027727	篤	-0.068687454
-3.1027727	去	-0.068687454
-3.1027727	熱	-0.068687454
-3.1027727	烈	-0.068687454
-3.1027727	歡	-0.068687454
-3.1027727	迎	-0.068687454
-3.1027727	謹	-0.068687454
-3.1027727	辭	-0.068687454

\2-grams:
-0.8328023	辭 </s>	0
-0.8136493	<s> 主	-0.06717235
-1.5889549	因 主	-0.06717235
-1.6589904	詢 主	-0.06717235
-1.8554472	府 主	-0.06717235
-1.4992023	錄 主	-0.06717235
-1.7101784	後 主	-0.06717235
-1.7286211	以 主	-0.06717235
-1.2513324	數 主	-0.06717235
-1.5920031	件 主	-0.06717235
-0.8136493	業 主	-0.06717235
-1.8368336	局 主	-0.06717235
-1.4370282	見 主	-0.06717235
-1.3578186	序 主	-0.06717235
-1.3578186	養 主	-0.06717235
-0.8136493	迎 主	-0.06717235
-0.043280676	主 席	-0.20854327
-1.6589904	席 公	-0.06717235
-2.0884523	的 公	-0.06717235
-1.9226059	是 公	-0.06717235
-1.9123154	不 公	-0.06717235
-1.8770349	在 公	-0.06717235
-1.6483301	經 公	-0.06717235
-1.6589904	詢 公	-0.536094
-1.9292604	有 公	-0.06717235
-1.8554472	府 公	-0.11433806
-1.8953675	能 公	-0.06717235
-1.1129276	過 公	-0.06717235
-1.2513324	布 公	-0.06717235
-1.4992023	何 公	-0.06717235
-1.0945127	用 公	-0.06717235
-0.8136493	貫 公	-0.06717235
-1.9889818	公 民	-0.06717235
-2.4125419	的 民	-0.06717235
-1.7714881	詢 民	-0.06717235
-1.5009605	國 民	-0.06717235
-0.8280353	市 民	-0.06717235
-1.5149592	民 黨	-0.06717235
-1.4217464	持 黨	-0.06717235
-1.9878489	為 黨	-0.06717235
-1.3472916	席 的	-0.06717235
-1.224926	民 的	-0.06717235
-1.1348561	黨 的	-0.06717235
-1.500805	立 的	-0.06717235
-1.3668073	當 的	-0.11433806
-1.3961973	支 的	-0.06717235
-0.9852188	友 的	-0.06717235
-1.1019272	員 的	-0.536094
-1.2905843	關 的	-0.11433806
-1.2855614	理 的	-0.06717235
-1.3763053	問 的	-0.06717235
-1.2258161	館 的	-0.06717235
-1.479377	在 的	-0.06717235
-1.3472916	詢 的	-0.06717235
-1.224926	疑 的	-0.06717235
-1.4321673	府 的	-0.06717235
-1.1019272	次 的	-0.09011521
-0.9852188	好 的	-0.06717235
-1.224926	期 的	-0.06717235
-1.3460004	甚 的	-0.06717235
-0.6554594	述 的	-0.06717235
-0.9852188	天 的	-0.06717235
-1.3715119	人 的	-0.06717235
-1.015313	過 的	-0.06717235
-1.0082853	大 的	-0.06717235
-1.3133197	作 的	-0.06717235
-1.2620113	錄 的	-0.06717235
-1.3643607	程 的	-0.06717235
-1.224926	到 的	-0.06717235
-1.0778787	及 的	-0.06717235
-0.9852188	少 的	-0.06717235
-1.224926	獲 的	-0.06717235
-0.9852188	組 的	-0.06717235
-1.4413517	局 的	-0.06717235
-1.5583676	條 的	-0.06717235
-1.2905843	例 的	-0.06717235
-1.2855614	施 的	-0.06717235
-0.9852188	適 的	-0.06717235
-1.1746346	行 的	-0.06717235
-1.2037042	意 的	-0.06717235
-1.2457006	寫 的	-0.06717235
-1.1019272	重 的	-0.06717235
-1.2905843	來 的	-0.06717235
-1.224926	目 的	-0.06717235
-0.9852188	署 的	-0.06717235
-0.75299716	奏 的	-0.06717235
-1.3472916	標 的	-0.06717235
-0.9852188	效 的	-0.06717235
-1.2037042	性 的	-0.06717235
-1.1019272	度 的	-0.06717235
-0.75299716	污 的	-0.06717235
-0.5456721	定 的	-0.06717235
-0.9852188	濕 的	-0.06717235
-0.75299716	站 的	-0.06717235
-0.75299716	米 的	-0.098040365
-0.75299716	田 的	-0.06717235
-0.75299716	記 的	-0.06717235
-0.75299716	客 的	-0.06717235
-1.224926	慮 的	-0.06717235
-0.75299716	界 的	-0.06717235
-0.75299716	去 的	-0.06717235
-2.1910133	的 立	-0.06717235
-1.9840474	這 立	-0.06717235
-1.1225513	中 立	-0.11433806
-1.5275472	和 立	-0.06717235
-1.5349935	訂 立	-0.06717235
-1.7502787	過 立	-0.06717235
-0.81934667	連 立	-0.06717235
-0.99765897	設 立	-0.06717235
-0.81934667	值 立	-0.06717235
-1.3780999	比 立	-0.06717235
-0.81934667	勵 立	-0.06717235
-1.8989049	立 場	-0.06717235
-0.82511973	場 當	-0.06717235
-1.8458931	議 當	-0.06717235
-1.7800145	們 當	-0.06717235
-1.557872	果 當	-0.06717235
-1.6162821	例 當	-0.06717235
-1.1166823	適 當	-0.66103274
-1.1166823	費 當	-0.06717235
-0.64500356	當 然	-0.06717235
-0.8295005	突 然	-0.06717235
-1.6441021	同 然	-0.06717235
-0.8295005	雖 然	-0.06717235
-1.1713204	的 是	-0.06717235
-1.4725945	然 是	-0.06717235
-1.7047242	議 是	-0.06717235
-1.4725945	案 是	-0.06717235
-1.4725945	但 是	-0.06717235
-1.866229	這 是	-0.06717235
-1.1337332	不 是	-0.06717235
-1.2360965	而 是	-0.06717235
-1.4138767	疑 是	-0.06717235
-1.3384422	也 是	-0.06717235
-1.3384422	說 是	-0.06717235
-1.4725945	果 是	-0.06717235
-1.4138767	款 是	-0.06717235
-1.5199989	來 是	-0.06717235
-1.4725945	便 是	-0.06717235
-1.2360965	樣 是	-0.06717235
-1.728165	本 是	-0.06717235
-1.6779716	對 是	-0.06717235
-0.8080257	驗 是	-0.06717235
-2.0942652	是 支	-0.06717235
-1.7241671	所 支	-0.06717235
-1.7201012	夠 支	-0.06717235
-0.9393258	開 支	-0.06717235
-1.5700722	由 支	-0.06717235
-1.1195349	費 支	-0.06717235
-0.75480163	支 持	-0.06717235
-1.1302036	維 持	-0.06717235
-0.583923	黨 友	-0.06717235
-2.4125419	的 陳	-0.06717235
-1.4104167	持 陳	-0.06717235
-1.1224062	友 陳	-0.06717235
-1.6346292	此 陳	-0.06717235
-1.6346292	同 陳	-0.11433806
-0.50070906	陳 淑	-0.66103274
-0.8328023	淑 莊	-0.66103274
-1.9020045	的 議	-0.7579428
-0.82657504	莊 議	-0.66103274
-0.8818195	會 議	-0.06717235
-0.19031377	協 議	-0.06717235
-1.4092895	項 議	-0.06717235
-0.40652394	爭 議	-0.06717235
-1.2172309	議 員	-0.28627068
-1.2172309	議 案	-0.06717235
-1.9788195	公 但	-0.06717235
-1.733797	支 但	-0.06717235
-1.5657961	案 但	-0.06717235
-2.0732515	不 但	-0.06717235
-1.4941268	目 但	-0.06717235
-1.287703	擔 但	-0.06717235
-1.6120653	席 這	-0.06717235
-1.850214	是 這	-0.06717235
-1.4661896	但 這	-0.06717235
-1.2410297	為 這	-0.06717235
-1.0812103	道 這	-0.06717235
-1.3407681	在 這	-0.06717235
-1.5128614	下 這	-0.06717235
-1.3470447	單 這	-0.06717235
-1.6577247	人 這	-0.06717235
-1.0812103	者 這	-0.06717235
-1.3337302	呢 這	-0.06717235
-1.4082767	見 這	-0.06717235
-1.2323695	神 這	-0.06717235
-1.4082767	信 這	-0.06717235
-1.0812103	用 這	-0.06717235
-0.80663115	息 這	-0.06717235
-1.2323695	代 這	-0.06717235
-1.3337302	序 這	-0.06717235
-1.2323695	擔 這	-0.06717235
-1.4082767	慮 這	-0.06717235
-1.3889693	這 不	-0.06717235
-1.5058393	物 不	-0.06717235
-1.8111408	館 不	-0.06717235
-1.799507	在 不	-0.06717235
-1.2286743	次 不	-0.06717235
-1.5551375	建 不	-0.06717235
-1.6136365	程 不	-0.06717235
-1.3290689	也 不	-0.06717235
-0.80524105	毫 不	-0.06717235
-1.6479535	後 不	-0.06717235
-1.0785979	者 不	-0.06717235
-1.6046895	可 不	-0.06717235
-1.4027479	並 不	-0.06717235
-1.2286743	神 不	-0.06717235
-1.7063628	本 不	-0.06717235
-1.605119	絕 不	-0.06717235
-1.0998489	對 不	-0.06717235
-1.2286743	奇 不	-0.06717235
-1.5551375	亦 不	-0.06717235
-1.2286743	別 不	-0.06717235
-0.80524105	筆 不	-0.06717235
-2.071481	是 因	-0.06717235
-1.8458931	議 因	-0.06717235
-1.7465364	詢 因	-0.06717235
-1.2835082	常 因	-0.06717235
-0.82511973	誘 因	-0.06717235
-0.82511973	正 因	-0.536094
-0.82511973	蓋 因	-0.06717235
-0.43076855	因 為	-0.06717235
-1.5571394	上 為	-0.06717235
-1.7465695	任 為	-0.06717235
-1.848871	開 為	-0.06717235
-0.4317273	認 為	-0.26964
-1.6462152	否 為	-0.06717235
-1.7879622	成 為	-0.06717235
-1.111033	聘 為	-0.06717235
-0.82222354	殊 為	-0.06717235
-2.4635942	的 關	-0.06717235
-1.8543116	後 關	-0.06717235
-1.1252966	就 關	-0.06717235
-0.39989	相 關	-0.08542868
-1.6661142	關 係	-0.06717235
-1.5904745	然 而	-0.06717235
-0.8309706	係 而	-0.06717235
-1.8418832	過 而	-0.06717235
-2.1902804	是 道	-0.06717235
-1.5962898	知 道	-0.06717235
-1.9696177	為 理	-0.06717235
-1.1252966	道 理	-0.06717235
-2.1740415	有 理	-0.06717235
-0.08492465	管 理	-0.7411516
-1.6408181	的 問	-0.536094
-1.4941268	疑 問	-0.06717235
-1.5657961	和 問	-0.06717235
-1.8012215	個 問	-0.06717235
-0.22383799	顧 問	-0.06717235
-0.82657504	盆 問	-0.06717235
-1.145211	問 題	-0.06717235
-1.7979612	席 眾	-0.06717235
-0.79146755	公 眾	-0.08233216
-1.4217464	題 眾	-0.06717235
-2.2878032	的 所	-0.06717235
-1.7156156	支 所	-0.06717235
-0.9394327	眾 所	-0.11433806
-1.981034	府 所	-0.06717235
-1.862337	開 所	-0.11433806
-1.2793534	務 所	-0.06717235
-0.8236692	權 所	-0.06717235
-1.7345783	標 所	-0.06717235
-1.7724988	所 周	-0.11433806
-2.0954547	不 知	-0.06717235
-0.8280353	周 知	-0.06717235
-1.4104167	未 知	-0.06717235
-1.839044	人 知	-0.06717235
-1.1224062	告 知	-0.06717235
-2.0248349	的 香	-0.06717235
-1.4790952	知 香	-0.06717235
-1.3490772	在 香	-0.11433806
-1.3432058	清 香	-0.06717235
-1.2398556	向 香	-0.06717235
-1.6700479	任 香	-0.06717235
-1.6779525	後 香	-0.06717235
-0.8600544	由 香	-0.11433806
-1.5272555	來 香	-0.06717235
-1.41955	信 香	-0.06717235
-1.2398556	被 香	-0.06717235
-1.2398556	付 香	-0.06717235
-1.3432058	比 香	-0.06717235
-1.2398556	造 香	-0.06717235
-1.4902054	看 香	-0.06717235
-1.2398556	責 香	-0.06717235
-0.8094248	離 香	-0.06717235
-0.8094248	加 香	-0.11433806
-0.035761	香 港	-0.25500843
-1.7415029	立 故	-0.06717235
-1.863759	是 故	-0.06717235
-1.4725945	案 故	-0.06717235
-1.6677209	港 故	-0.7579428
-1.5199989	物 故	-0.06717235
-1.7262205	( 故	-0.06717235
-1.8660483	有 故	-0.06717235
-1.3384422	望 故	-0.06717235
-1.1008577	個 故	-0.11433806
-1.3384422	讓 故	-0.06717235
-1.6677209	人 故	-0.06717235
-1.0838383	京 故	-0.11433806
-1.2360965	備 故	-0.06717235
-1.5698761	建 故	-0.11433806
-1.4138767	到 故	-0.06717235
-1.5199989	來 故	-0.06717235
-1.2360965	將 故	-0.06717235
-1.0838383	非 故	-0.06717235
-0.8080257	料 故	-0.06717235
-0.033803638	故 宮	-0.99682486
-1.808717	的 文	-0.098040365
-1.7695978	議 文	-0.06717235
-1.5654776	關 文	-0.06717235
-1.7330724	港 文	-0.06717235
-1.2591556	宮 文	-0.7579428
-1.4490838	九 文	-0.66103274
-1.6093326	須 文	-0.06717235
-0.98991334	條 文	-0.06717235
-0.8164886	術 文	-0.06717235
-1.3678409	養 文	-0.06717235
-1.09995	級 文	-0.06717235
-0.8164886	護 文	-0.06717235
-0.8164886	把 文	-0.06717235
-0.6500573	文 化	-0.56289494
-1.2919389	宮 博	-0.536094
-1.2919389	化 博	-0.837124
-1.4104167	他 博	-0.06717235
-0.8280353	史 博	-0.06717235
-0.8280353	艦 博	-0.06717235
-0.64978606	文 物	-0.067172326
-0.14536873	博 物	-0.837124
-1.3005365	宮 館	-0.06717235
-1.653786	物 館	-0.18806162
-1.2452081	開 館	-0.11433806
-2.2209423	的 (	-0.06717235
-1.986306	館 (	-0.06717235
-1.8541478	) (	-0.11433806
-1.498874	一 (	-0.08542868
-1.8281205	及 (	-0.06717235
-1.6366968	須 (	-0.06717235
-1.9133356	局 (	-0.06717235
-1.5901374	例 (	-0.06717235
-1.6916127	第 (	-0.06717235
-0.79501426	明 (	-0.66103274
-2.0063772	館 )	-0.06717235
-2.062494	一 )	-0.06717235
-1.3951797	述 )	-0.28627068
-1.275238	三 )	-0.098040365
-1.5550199	五 )	-0.06717235
-1.930397	局 )	-0.06717235
-1.5986786	例 )	-0.06717235
-0.82222354	a )	-0.09011521
-0.82222354	b )	-0.06717235
-1.8777401	是 在	-0.06717235
-1.7148856	議 在	-0.06717235
-1.4790952	但 在	-0.06717235
-1.2398556	而 在	-0.06717235
-1.8523481	館 在	-0.06717235
-0.92417794	) 在	-0.08542868
-1.8110555	府 在	-0.06717235
-1.8213327	會 在	-0.06717235
-1.41955	竟 在	-0.06717235
-1.4790952	錄 在	-0.06717235
-1.3432058	說 在	-0.06717235
-1.7320819	及 在	-0.06717235
-1.5672401	須 在	-0.06717235
-1.8382114	條 在	-0.06717235
-1.0864824	宜 在	-0.06717235
-1.5272555	來 在	-0.06717235
-0.8094248	娥 在	-0.06717235
-1.0864824	存 在	-0.06717235
-2.1437674	是 未	-0.06717235
-2.0697079	在 未	-0.06717235
-1.5820916	或 未	-0.06717235
-0.8295005	卻 未	-0.06717235
-2.2878032	的 經	-0.06717235
-1.162001	不 經	-0.098040365
-1.3939579	未 經	-0.06717235
-2.0684338	有 經	-0.06717235
-1.6978639	夠 經	-0.06717235
-1.655947	須 經	-0.06717235
-1.1138484	已 經	-0.06717235
-0.8236692	辦 經	-0.06717235
-1.8732454	的 諮	-0.11433806
-2.0498326	是 諮	-0.06717235
-1.612876	眾 諮	-0.11433806
-1.8777113	) 諮	-0.06717235
-1.7102104	經 諮	-0.11433806
-1.5500901	何 諮	-0.06717235
-1.1138484	式 諮	-0.11433806
-1.6613132	要 諮	-0.06717235
-0.085048154	諮 詢	-0.14552665
-1.9490633	的 情	-0.11433806
-1.5904745	知 情	-0.06717235
-1.9347675	事 情	-0.06717235
-1.4289292	情 況	-0.11433806
-1.8646301	立 下	-0.06717235
-0.8280353	況 下	-0.06717235
-1.5271739	一 下	-0.06717235
-1.2919389	則 下	-0.06717235
-0.8280353	准 下	-0.06717235
-1.6253588	下 上	-0.06717235
-1.1195349	送 上	-0.06717235
-1.7628334	程 上	-0.06717235
-1.4048609	得 上	-0.06717235
-1.5657961	便 上	-0.06717235
-1.287703	反 上	-0.06717235
-0.5793462	上 馬	-0.06717235
-0.8319768	賽 馬	-0.11433806
-0.9394096	當 中	-0.06717235
-1.748426	問 中	-0.06717235
-1.9376849	文 中	-0.06717235
-1.7116067	詢 中	-0.06717235
-1.3833219	馬 中	-0.06717235
-1.2786345	跟 中	-0.06717235
-1.7177788	程 中	-0.06717235
-1.6366968	件 中	-0.06717235
-1.5901374	來 中	-0.06717235
-1.5901374	同 中	-0.06717235
-1.142463	中 間	-0.06717235
-1.5149592	期 間	-0.06717235
-1.4217464	時 間	-0.11433806
-1.58666	所 有	-0.06717235
-1.8111408	館 有	-0.06717235
-1.3290689	未 有	-0.06717235
-1.3290689	間 有	-0.06717235
-1.8965318	我 有	-0.06717235
-1.7707835	府 有	-0.06717235
-1.7847474	會 有	-0.06717235
-1.4027479	竟 有	-0.06717235
-1.6221584	簽 有	-0.06717235
-1.0785979	許 有	-0.06717235
-1.0785979	送 有	-0.06717235
-0.11602913	沒 有	-0.09011521
-1.7598977	局 有	-0.06717235
-1.4158686	之 有	-0.06717235
-1.6611767	對 有	-0.06717235
-0.80524105	還 有	-0.06717235
-0.40062636	都 有	-0.06717235
-1.2286743	益 有	-0.06717235
-1.0785979	力 有	-0.06717235
-1.2286743	願 有	-0.06717235
-0.80524105	裏 有	-0.11433806
-2.2274861	有 很	-0.06717235
-0.8319768	取 很	-0.06717235
-1.5372515	有 多	-0.11433806
-0.40691996	很 多	-0.06717235
-1.5738674	麼 多	-0.06717235
-1.6865232	更 多	-0.06717235
-1.1224062	太 多	-0.06717235
-2.4125419	的 疑	-0.06717235
-1.5738674	多 疑	-0.06717235
-1.1224062	無 疑	-0.06717235
-0.8280353	懷 疑	-0.06717235
-0.8280353	置 疑	-0.06717235
-1.5238794	疑 團	-0.06717235
-1.758833	詢 和	-0.06717235
-0.82657504	團 和	-0.06717235
-1.4048609	計 和	-0.06717235
-1.67609	件 和	-0.06717235
-1.287703	運 和	-0.11433806
-1.287703	度 和	-0.06717235
-1.6120653	席 我	-0.06717235
-1.3337302	持 我	-0.06717235
-1.3337302	題 我	-0.06717235
-1.1677287	( 我	-0.7579428
-1.8115048	在 我	-0.06717235
-1.3337302	讓 我	-0.06717235
-1.4082767	竟 我	-0.06717235
-1.0812103	許 我	-0.06717235
-1.5128614	日 我	-0.06717235
-1.4082767	份 我	-0.06717235
-1.5128614	此 我	-0.098040365
-1.7110589	及 我	-0.06717235
-1.3337302	呢 我	-0.06717235
-1.2323695	點 我	-0.06717235
-1.696123	成 我	-0.06717235
-1.3337302	比 我	-0.06717235
-1.2323695	代 我	-0.06717235
-1.0812103	算 我	-0.06717235
-1.0812103	廳 我	-0.06717235
-1.4082767	慮 我	-0.06717235
-0.34067476	我 們	-0.074686095
-1.5820916	然 希	-0.06717235
-1.8211939	們 希	-0.06717235
-2.0734153	府 希	-0.06717235
-1.699995	亦 希	-0.06717235
-0.19090988	希 望	-0.06717235
-1.5946286	席 政	-0.06717235
-1.3972887	民 政	-0.06717235
-1.6493986	中 政	-0.06717235
-1.3244569	間 政	-0.06717235
-1.3244569	望 政	-0.06717235
-1.3244569	讓 政	-0.06717235
-0.8038553	緣 政	-0.06717235
-1.3244569	區 政	-0.66103274
-1.6399345	任 政	-0.06717235
-1.0760013	法 政	-0.06717235
-1.3244569	據 政	-0.06717235
-1.4665442	由 政	-0.06717235
-0.8038553	財 政	-0.11433806
-1.4536567	果 政	-0.11433806
-1.0760013	心 政	-0.06717235
-1.3972887	見 政	-0.06717235
-1.536277	否 政	-0.06717235
-1.6958588	本 政	-0.06717235
-1.6231033	如 政	-0.06717235
-0.8038553	求 政	-0.11433806
-1.2250103	面 政	-0.06717235
-0.8038553	楚 政	-0.06717235
-0.097422756	政 府	-0.074686095
-1.4223421	不 能	-0.06717235
-1.9311217	館 能	-0.06717235
-1.707792	們 能	-0.06717235
-1.8877814	府 能	-0.06717235
-1.4490838	竟 能	-0.06717235
-1.7918613	事 能	-0.06717235
-0.49506927	才 能	-0.098040365
-0.48675048	可 能	-0.06717235
-1.6545635	方 能	-0.06717235
-1.2591556	又 能	-0.06717235
-1.6093326	否 能	-0.06717235
-1.09995	家 能	-0.06717235
-0.8164886	袱 能	-0.06717235
-0.50810194	能 夠	-0.06717235
-0.8319768	足 夠	-0.06717235
-1.7714	夠 解	-0.06717235
-0.8328023	解 畫	-0.06717235
-1.557872	然 今	-0.06717235
-1.2835082	員 今	-0.06717235
-1.9191108	為 今	-0.06717235
-2.0023532	府 今	-0.06717235
-0.82511973	畫 今	-0.06717235
-0.82511973	現 今	-0.06717235
-1.7936702	過 今	-0.06717235
-0.18443307	今 次	-0.3654519
-1.9359546	的 一	-0.06717235
-1.7119029	立 一	-0.06717235
-0.9630799	是 一	-0.09011521
-1.3198936	持 一	-0.06717235
-1.3804569	這 一	-0.11433806
-1.6902795	( 一	-0.06717235
-1.4791924	上 一	-0.06717235
-0.96641713	了 一	-0.06717235
-0.6887213	單 一	-0.11433806
-1.3347927	述 一	-0.06717235
-1.07342	零 一	-0.06717235
-0.96641713	十 一	-0.66103274
-1.492127	此 一	-0.06717235
-1.6813173	及 一	-0.06717235
-1.492127	例 一	-0.06717235
-1.5869641	第 一	-0.06717235
-0.5698174	另 一	-0.06717235
-1.2213769	樣 一	-0.06717235
-1.5288693	否 一	-0.06717235
-1.3198936	比 一	-0.06717235
-0.802474	照 一	-0.06717235
-1.07342	家 一	-0.06717235
-1.07342	打 一	-0.06717235
-0.9650397	這 個	-0.06717235
-0.8902441	一 個	-0.06717235
-0.40771312	整 個	-0.11433806
-2.3668644	的 最	-0.06717235
-1.5657961	但 最	-0.06717235
-2.0728397	館 最	-0.06717235
-1.8012215	個 最	-0.06717235
-1.4048609	呢 最	-0.06717235
-1.4941268	款 最	-0.06717235
-1.601506	最 好	-0.06717235
-1.7158144	件 好	-0.06717235
-2.5658965	的 機	-0.06717235
-0.8319768	飛 機	-0.11433806
-1.927521	不 會	-0.06717235
-1.3628008	馬 會	-0.06717235
-1.506117	和 會	-0.06717235
-1.9688376	我 會	-0.06717235
-1.6968418	們 會	-0.06717235
-1.9062593	能 會	-0.06717235
-1.0972228	機 會	-0.06717235
-1.4430141	期 會	-0.06717235
-1.4654009	才 會	-0.06717235
-1.7214745	人 會	-0.06717235
-1.0972228	法 會	-0.06717235
-1.8510936	局 會	-0.06717235
-0.81506664	括 會	-0.06717235
-1.2552265	將 會	-0.06717235
-2.0505955	會 讓	-0.06717235
-1.6972132	件 讓	-0.06717235
-1.5820916	便 讓	-0.06717235
-1.1252966	告 讓	-0.06717235
-2.135301	府 澄	-0.06717235
-0.8309706	澄 清	-0.06717235
-1.5925653	看 清	-0.06717235
-0.40771312	釐 清	-0.06717235
-1.6346292	下 究	-0.06717235
-1.5009605	疑 究	-0.06717235
-2.0484135	府 究	-0.06717235
-1.4104167	清 究	-0.06717235
-1.7714881	標 究	-0.06717235
-0.14542535	究 竟	-0.067172326
-1.4025763	在 簽	-0.06717235
-1.6802236	了 簽	-0.06717235
-1.287703	布 簽	-0.06717235
-1.1195349	院 簽	-0.06717235
-1.1195349	鄭 簽	-0.06717235
-1.6802236	亦 簽	-0.06717235
-1.9982251	文 訂	-0.06717235
-2.0734153	府 訂	-0.06717235
-0.49081895	簽 訂	-0.09011521
-1.3021829	條 訂	-0.11433806
-1.5849373	訂 協	-0.06717235
-1.6972132	作 協	-0.06717235
-1.1252966	密 協	-0.06717235
-1.9400826	本 協	-0.06717235
-1.8746253	議 期	-0.06717235
-1.9521213	為 期	-0.06717235
-1.6346292	日 期	-0.06717235
-0.8280353	星 期	-0.06717235
-0.8280353	前 期	-0.06717235
-1.4048609	間 發	-0.06717235
-1.4941268	竟 發	-0.06717235
-1.287703	備 發	-0.11433806
-1.4941268	九 發	-0.06717235
-1.4048609	於 發	-0.06717235
-1.7241671	方 發	-0.06717235
-0.8843292	發 生	-0.11433806
-1.555699	訂 了	-0.06717235
-0.8236692	生 了	-0.11433806
-1.5500901	出 了	-0.06717235
-1.4807737	到 了	-0.06717235
-1.1138484	除 了	-0.06717235
-1.2793534	反 了	-0.06717235
-1.2793534	壞 了	-0.06717235
-1.2793534	付 了	-0.06717235
-1.758833	詢 甚	-0.06717235
-2.1180356	有 甚	-0.06717235
-1.6802236	了 甚	-0.11433806
-1.8867549	事 甚	-0.06717235
-1.4048609	說 甚	-0.06717235
-1.67609	更 甚	-0.06717235
-2.1462388	這 麼	-0.06717235
-0.5791116	甚 麼	-0.09011521
-0.583086	那 麼	-0.06717235
-1.5872326	的 事	-0.098040365
-2.097677	政 事	-0.06717235
-1.09995	好 事	-0.06717235
-1.5131435	麼 事	-0.11433806
-0.8164886	論 事	-0.06717235
-1.7498156	以 事	-0.06717235
-1.6093326	件 事	-0.06717235
-1.5937288	其 事	-0.06717235
-1.6545635	方 事	-0.06717235
-1.5654776	同 事	-0.06717235
-1.7155808	特 事	-0.06717235
-0.8164886	師 事	-0.06717235
-0.8164886	董 事	-0.06717235
-1.4289292	情 容	-0.06717235
-0.8319768	容 許	-0.06717235
-1.5962898	或 許	-0.06717235
-2.134282	我 簡	-0.06717235
-1.9290597	) 單	-0.06717235
-0.8295005	簡 單	-0.06717235
-1.2962165	屬 單	-0.06717235
-0.8295005	埋 單	-0.06717235
-1.430053	單 複	-0.06717235
-1.5953648	上 述	-0.06717235
-0.8309706	複 述	-0.06717235
-0.583086	引 述	-0.5401745
-1.4104167	情 才	-0.06717235
-1.8070291	們 才	-0.06717235
-0.8280353	頭 才	-0.06717235
-0.40691996	剛 才	-0.11433806
-1.2919389	度 才	-0.06717235
-2.0094645	會 出	-0.06717235
-1.5802082	發 出	-0.06717235
-1.8867549	事 出	-0.06717235
-1.67609	作 出	-0.06717235
-0.82657504	傳 出	-0.06717235
-1.287703	付 出	-0.06717235
-1.6011096	出 現	-0.06717235
-2.5658965	的 天	-0.06717235
-1.6724095	今 天	-0.06717235
-2.6060028	的 討	-0.06717235
-0.8328023	討 論	-0.06717235
-1.9562967	事 緣	-0.06717235
-1.4121705	在 二	-0.11433806
-1.699995	十 二	-0.06717235
-0.58241284	月 二	-0.11433806
-0.7528851	第 二	-0.536094
-1.42726	二 零	-0.11433806
-1.5198412	七 零	-0.06717235
-2.1765485	一 六	-0.06717235
-1.1252966	年 六	-0.06717235
-1.699995	十 六	-0.06717235
-1.5079035	七 六	-0.06717235
-1.425681	六 年	-0.06717235
-1.5198412	七 年	-0.06717235
-0.7054127	二 十	-0.28627068
-1.1224062	年 十	-0.06717235
-1.2919389	三 十	-0.06717235
-0.87970066	五 十	-0.098040365
-1.7396914	第 十	-0.06717235
-1.423873	二 月	-0.06717235
-1.4217464	六 月	-0.06717235
-1.1282065	鄭 月	-0.06717235
-1.214135	( 三	-0.536094
-1.7102289	十 三	-0.06717235
-1.7605193	第 三	-0.06717235
-1.8600217	議 日	-0.06717235
-1.5657961	麼 日	-0.06717235
-1.4048609	六 日	-0.06717235
-1.287703	三 日	-0.06717235
-1.6395239	其 日	-0.06717235
-1.4984777	之 日	-0.06717235
-1.6661142	日 突	-0.06717235
-1.5904745	然 向	-0.06717235
-2.099945	府 向	-0.06717235
-1.7081728	須 向	-0.06717235
-1.7962192	港 人	-0.3640832
-1.5170356	有 人	-0.06717235
-0.8757178	五 人	-0.11433806
-0.8236692	層 人	-0.06717235
-0.40573293	令 人	-0.06717235
-1.4807737	國 人	-0.06717235
-0.8236692	驚 人	-0.06717235
-0.8236692	稅 人	-0.06717235
-1.8812758	人 送	-0.06717235
-0.8319768	輸 送	-0.06717235
-1.5431526	一 份	-0.06717235
-0.27910283	身 份	-0.06717235
-1.8461204	們 完	-0.06717235
-1.425681	外 完	-0.06717235
-0.4079841	完 全	-0.11433806
-0.8319768	錢 全	-0.06717235
-2.024773	府 沒	-0.11433806
-1.6253588	日 沒	-0.06717235
-1.1195349	全 沒	-0.11433806
-1.7628334	程 沒	-0.06717235
-1.5657961	果 沒	-0.06717235
-1.4941268	信 沒	-0.06717235
-2.2050087	有 預	-0.06717235
-1.5904745	出 預	-0.06717235
-1.5149592	見 預	-0.06717235
-1.4217464	預 計	-0.06717235
-1.653786	展 計	-0.06717235
-1.0075524	設 計	-0.098040365
-2.2878032	的 過	-0.06717235
-0.7487125	經 過	-0.06717235
-1.128758	個 過	-0.536094
-1.3939579	清 過	-0.06717235
-1.3939579	計 過	-0.06717235
-0.8236692	繞 過	-0.06717235
-0.40573293	通 過	-0.06717235
-1.1138484	透 過	-0.06717235
-1.7724988	所 謂	-0.06717235
-0.8328023	謂 聖	-0.06717235
-0.8328023	聖 誕	-0.06717235
-1.5349323	多 大	-0.06717235
-1.7545329	個 大	-0.06717235
-1.3833219	讓 大	-0.06717235
-0.8207827	誕 大	-0.06717235
-1.5349323	或 大	-0.06717235
-1.467819	國 大	-0.06717235
-1.6366968	更 大	-0.06717235
-1.6431919	亦 大	-0.06717235
-1.2711613	別 大	-0.11433806
-0.8207827	極 大	-0.06717235
-1.8569065	大 禮	-0.06717235
-0.8328023	禮 宣	-0.06717235
-2.0100493	公 布	-0.06717235
-0.8309706	宣 布	-0.06717235
-0.8309706	誠 布	-0.06717235
-2.099945	府 跟	-0.06717235
-1.3005365	布 跟	-0.06717235
-1.8701357	後 跟	-0.06717235
-2.5214577	的 北	-0.06717235
-0.583086	跟 北	-0.11433806
-0.8309706	臺 北	-0.06717235
-0.583923	北 京	-0.098040365
-1.6661142	物 院	-0.098040365
-2.3668644	的 合	-0.06717235
-1.9353025	為 合	-0.06717235
-1.5700722	訂 合	-0.11433806
-1.4941268	份 合	-0.06717235
-1.1195349	署 合	-0.11433806
-0.82657504	陸 合	-0.06717235
-0.22383799	合 作	-0.43239874
-1.6253588	此 作	-0.06717235
-0.82657504	箱 作	-0.06717235
-1.6802236	要 作	-0.06717235
-1.4152571	工 作	-0.06717235
-1.9051075	本 作	-0.06717235
-1.7081728	作 備	-0.7579428
-0.8309706	擬 備	-0.11433806
-0.8309706	準 備	-0.06717235
-2.0591142	能 忘	-0.06717235
-1.3035097	備 忘	-0.7579428
-1.1302036	忘 錄	-0.067172326
-0.8319768	紀 錄	-0.06717235
-1.6792786	席 西	-0.11433806
-1.8329014	為 西	-0.06717235
-1.7864103	( 西	-0.06717235
-1.821039	) 西	-0.06717235
-1.9062915	在 西	-0.06717235
-1.3678409	望 西	-0.06717235
-1.6173534	了 西	-0.06717235
-1.5131435	出 西	-0.06717235
-1.3678409	據 西	-0.06717235
-1.7330724	後 西	-0.11433806
-1.7498156	以 西	-0.06717235
-0.8164886	障 西	-0.06717235
-0.8164886	即 西	-0.06717235
-1.7173543	十 九	-0.06717235
-0.05032189	西 九	-0.6370845
-1.3035097	化 區	-0.09011521
-0.8004966	特 區	-0.66103274
-2.4635942	的 興	-0.06717235
-1.4160446	區 興	-0.06717235
-1.1252966	資 興	-0.06717235
-0.8295005	籌 興	-0.06717235
-1.6253588	關 建	-0.06717235
-1.5657961	和 建	-0.06717235
-0.19031377	興 建	-0.09011521
-1.287703	劃 建	-0.06717235
-1.1195349	基 建	-0.06717235
-0.82657504	張 建	-0.06717235
-2.1713736	館 整	-0.06717235
-1.9464728	事 整	-0.06717235
-2.4125419	的 程	-0.06717235
-1.1373988	過 程	-0.06717235
-0.4027951	工 程	-0.06717235
-0.8280353	購 程	-0.536094
-0.8280353	航 程	-0.11433806
-2.092527	有 任	-0.06717235
-1.7936702	過 任	-0.06717235
-1.6659017	作 任	-0.06717235
-1.2308687	及 任	-0.11433806
-0.58039963	委 任	-0.06717235
-1.3993751	時 任	-0.06717235
-1.4873989	信 任	-0.06717235
-2.2274861	有 何	-0.06717235
-0.5878086	任 何	-0.067172326
-0.8843292	甚 至	-0.06717235
-1.1318455	至 連	-0.06717235
-0.41799363	立 法	-0.837124
-1.425681	說 法	-0.06717235
-1.7462902	所 也	-0.06717235
-2.0505955	會 也	-0.06717235
-1.8265936	大 也	-0.06717235
-1.699995	建 也	-0.06717235
-1.4289292	也 毫	-0.06717235
-2.0996704	這 根	-0.06717235
-2.0482037	在 根	-0.06717235
-1.4104167	情 根	-0.06717235
-1.5009605	並 根	-0.06717235
-1.2919389	型 根	-0.06717235
-0.28770638	根 據	-0.06717235
-2.4635942	的 說	-0.06717235
-2.0505955	會 說	-0.06717235
-1.7115388	可 說	-0.06717235
-1.2962165	又 說	-0.06717235
-2.071481	是 保	-0.06717235
-1.557872	知 保	-0.06717235
-1.6162821	物 保	-0.06717235
-2.092527	有 保	-0.06717235
-1.7088403	夠 保	-0.06717235
-1.8204155	以 保	-0.06717235
-0.82511973	修 保	-0.11433806
-1.6641421	保 密	-0.06717235
-0.8319768	秘 密	-0.06717235
-1.6427785	因 此	-0.06717235
-1.1195349	就 此	-0.06717235
-1.287703	壞 此	-0.06717235
-1.0044729	如 此	-0.3640832
-1.287703	別 此	-0.06717235
-0.82657504	謹 此	-0.06717235
-1.8103628	問 到	-0.06717235
-1.6346292	此 到	-0.06717235
-1.2919389	提 到	-0.06717235
-1.5774412	看 到	-0.06717235
-0.8280353	測 到	-0.06717235
-1.7156156	支 後	-0.06717235
-0.5763057	最 後	-0.06717235
-1.6073911	日 後	-0.06717235
-1.5500901	錄 後	-0.06717235
-0.8705802	以 後	-0.06717235
-0.79742235	之 後	-0.11433806
-0.8236692	斬 後	-0.06717235
-1.7973607	成 後	-0.06717235
-1.6661142	關 頭	-0.06717235
-0.4551993	公 開	-0.09011521
-2.2530873	的 開	-0.06717235
-2.0063772	館 開	-0.06717235
-1.9714767	在 開	-0.06717235
-2.1214108	政 開	-0.11433806
-2.062494	一 開	-0.06717235
-1.5986786	展 開	-0.06717235
-1.275238	劃 開	-0.06717235
-1.3886073	養 開	-0.06717235
-1.957378	開 再	-0.06717235
-0.8319768	再 者	-0.06717235
-1.807377	標 者	-0.06717235
-0.8789815	理 由	-0.06717235
-2.097464	館 由	-0.06717235
-1.6899968	要 由	-0.06717235
-0.8280353	初 由	-0.06717235
-1.922243	本 由	-0.06717235
-1.8906142	港 賽	-0.11433806
-2.5214577	的 捐	-0.06717235
-2.2050087	有 捐	-0.06717235
-2.0727205	會 捐	-0.06717235
-1.307088	捐 錢	-0.06717235
-2.5658965	的 資	-0.06717235
-1.1302036	全 資	-0.06717235
-2.1223307	這 涉	-0.06717235
-2.1188543	不 涉	-0.06717235
-1.8293189	中 涉	-0.06717235
-0.8295005	請 涉	-0.06717235
-1.5349935	理 及	-0.06717235
-1.5889903	眾 及	-0.06717235
-1.1054561	京 及	-0.06717235
-1.8231304	開 及	-0.06717235
-0.18961206	涉 及	-0.06717235
-1.5349935	施 及	-0.06717235
-1.1054561	宜 及	-0.06717235
-1.5728899	顧 及	-0.06717235
-1.2671224	提 及	-0.06717235
-1.4614837	七 及	-0.06717235
-1.4614837	慮 及	-0.06717235
-1.3089296	公 共	-0.11433806
-0.8328023	共 財	-0.11433806
-1.0444982	所 以	-0.06717235
-1.981034	府 以	-0.06717235
-1.5500901	果 以	-0.06717235
-1.0001628	可 以	-0.06717235
-0.87453985	施 以	-0.06717235
-1.3939579	長 以	-0.06717235
-1.7973607	成 以	-0.06717235
-1.1138484	每 以	-0.06717235
-1.425681	馬 無	-0.06717235
-1.884787	以 無	-0.06717235
-1.7350878	所 須	-0.06717235
-1.1224062	無 須	-0.06717235
-2.0062575	局 須	-0.06717235
-1.7714881	標 須	-0.06717235
-1.0014123	亦 須	-0.06717235
-2.1018493	會 結	-0.06717235
-0.8319768	結 果	-0.06717235
-0.34920773	如 果	-0.08233216
-2.1902804	是 除	-0.06717235
-1.1302036	院 除	-0.06717235
-2.1613128	不 少	-0.06717235
-1.7173543	了 少	-0.06717235
-1.5904745	知 數	-0.06717235
-1.8398582	大 數	-0.06717235
-1.1282065	少 數	-0.06717235
-1.2919389	數 獲	-0.06717235
-1.5045865	該 獲	-0.06717235
-1.4104167	行 獲	-0.06717235
-1.1224062	接 獲	-0.06717235
-1.5738674	便 獲	-0.06717235
-1.5198412	獲 委	-0.06717235
-1.1302036	接 委	-0.3640832
-2.0485413	能 進	-0.06717235
-1.8062768	任 進	-0.06717235
-1.5149592	款 進	-0.06717235
-1.307088	進 入	-0.06717235
-1.8691316	( 五	-0.06717235
-0.82657504	入 五	-0.06717235
-1.7296404	第 五	-0.06717235
-1.1195349	與 五	-0.06717235
-1.2922122	百 五	-0.11433806
-1.4941268	七 五	-0.06717235
-1.8906142	人 核	-0.11433806
-0.8319768	核 心	-0.11433806
-1.3035097	擔 心	-0.06717235
-2.1765485	一 小	-0.06717235
-1.1252966	心 小	-0.11433806
-1.6441021	同 小	-0.06717235
-1.4189572	四 小	-0.06717235
-1.430053	小 組	-0.06717235
-2.5658965	的 高	-0.06717235
-1.1302036	太 高	-0.06717235
-1.1318455	高 層	-0.06717235
-1.8906142	人 士	-0.06717235
-1.6441021	此 外	-0.06717235
-0.8295005	士 外	-0.06717235
-1.2991637	另 外	-0.06717235
-1.1252966	自 外	-0.06717235
-2.1223307	這 件	-0.06717235
-1.0025979	文 件	-0.06717235
-1.5330621	一 件	-0.06717235
-1.5079035	信 件	-0.06717235
-2.0684338	有 可	-0.06717235
-1.7671123	們 可	-0.11433806
-1.739722	程 可	-0.06717235
-1.7962192	後 可	-0.06717235
-1.862337	開 可	-0.06717235
-1.5500901	便 可	-0.06717235
-1.1138484	終 可	-0.06717235
-1.2793534	益 可	-0.06717235
-2.206899	是 黑	-0.06717235
-0.8328023	黑 箱	-0.06717235
-1.7221725	作 業	-0.06717235
-1.6073911	下 管	-0.06717235
-1.4807737	九 管	-1.0132153
-1.3939579	區 管	-0.11433806
-1.3939579	他 管	-0.06717235
-1.3939579	時 管	-0.11433806
-1.2793534	常 管	-0.06717235
-1.2793534	造 管	-0.06717235
-1.1138484	遠 管	-0.06717235
-1.555699	理 局	-0.13560489
-1.9894253	在 局	-0.06717235
-1.8574628	事 局	-0.06717235
-1.655947	件 局	-0.06717235
-1.9481564	局 局	-0.06717235
-1.5500901	或 局	-0.11433806
-0.79742235	該 局	-0.66103274
-1.2793534	務 局	-0.06717235
-1.9674501	這 條	-0.06717235
-1.5813117	眾 條	-0.06717235
-1.797306	( 條	-0.06717235
-0.72517896	) 條	-0.067172326
-1.5202856	多 條	-0.06717235
-1.6257967	了 條	-0.06717235
-1.4552395	九 條	-0.06717235
-1.8811005	局 條	-0.06717235
-1.3815142	項 條	-0.06717235
-1.2631208	重 條	-0.06717235
-1.2631208	反 條	-0.06717235
-1.1026943	八 條	-0.06717235
-1.653786	此 例	-0.06717235
-0.5424273	條 例	-0.08233216
-1.3005365	先 例	-0.06717235
-2.2530873	的 第	-0.06717235
-1.8189445	議 第	-0.06717235
-1.8657697	) 第	-0.06717235
-1.7714328	中 第	-0.06717235
-1.5424451	錄 第	-0.06717235
-1.3886073	據 第	-0.06717235
-1.3886073	外 第	-0.06717235
-1.9293897	條 第	-0.06717235
-0.82222354	害 第	-0.06717235
-0.8819679	訂 明	-0.536094
-0.4035286	寫 明	-0.06717235
-1.1282065	透 明	-0.06717235
-1.8418832	中 引	-0.06717235
-2.1143293	我 引	-0.7579428
-0.8309706	吸 引	-0.06717235
-2.1763842	不 損	-0.06717235
-0.8328023	損 害	-0.06717235
-0.9144131	( a	-0.66103274
-2.6060028	的 原	-0.06717235
-0.8309706	原 則	-0.06717235
-0.8309706	圖 則	-0.11433806
-1.7081728	否 則	-0.06717235
-1.425681	未 就	-0.06717235
-1.7158144	須 就	-0.06717235
-1.6441021	關 於	-0.06717235
-2.0697079	在 於	-0.06717235
-1.8302261	對 於	-0.06717235
-0.8295005	位 於	-0.06717235
-2.4125419	的 展	-0.11433806
-0.577987	發 展	-0.09011521
-1.1224062	已 展	-0.06717235
-0.8280353	策 展	-0.06717235
-1.1224062	級 展	-0.06717235
-2.1272788	一 或	-0.11433806
-1.6253588	展 或	-0.06717235
-1.5700722	施 或	-0.06717235
-1.287703	又 或	-0.06717235
-1.287703	神 或	-0.06717235
-1.287703	點 或	-0.06717235
-1.5657961	但 營	-0.06717235
-1.9353025	為 營	-0.06717235
-1.5700722	理 營	-0.11433806
-1.4941268	到 營	-0.06717235
-1.5657961	或 營	-0.06717235
-1.1195349	些 營	-0.11433806
-0.11755025	營 運	-0.38896906
-1.3059592	運 藝	-0.06717235
-0.8328023	藝 術	-0.06717235
-0.99391955	為 設	-0.098040365
-1.6162821	關 設	-0.06717235
-1.8100302	港 設	-0.06717235
-1.2835082	化 設	-0.11433806
-1.2835082	屬 設	-0.06717235
-1.2835082	責 設	-0.06717235
-1.1166823	存 設	-0.06717235
-0.49140257	設 施	-0.067172326
-0.8319768	措 施	-0.06717235
-1.5424451	然 相	-0.06717235
-2.029016	我 相	-0.06717235
-1.275238	向 相	-0.06717235
-1.848871	開 相	-0.06717235
-1.111033	組 相	-0.06717235
-1.111033	高 相	-0.06717235
-1.5486869	施 相	-0.06717235
-0.82222354	證 相	-0.06717235
-1.275238	願 相	-0.06717235
-1.9559389	及 附	-0.06717235
-0.8309706	附 屬	-0.06717235
-1.7979612	標 屬	-0.06717235
-0.8309706	己 屬	-0.06717235
-1.9562967	事 宜	-0.06717235
-1.7845188	問 其	-0.06717235
-1.8100302	港 其	-0.06717235
-1.557872	麼 其	-0.06717235
-1.3993751	區 其	-0.06717235
-1.557872	何 其	-0.06717235
-1.3993751	於 其	-0.06717235
-1.2835082	責 其	-0.06717235
-1.8136188	任 他	-0.06717235
-0.6461807	其 他	-0.06717235
-1.7800145	們 認	-0.06717235
-1.4873989	份 認	-0.06717235
-1.3548794	局 認	-0.7579428
-1.7952056	對 認	-0.06717235
-1.6659017	更 認	-0.06717235
-0.82511973	乎 認	-0.06717235
-0.82511973	族 認	-0.06717235
-2.0007453	為 適	-0.66103274
-1.6054627	合 適	-0.06717235
-1.4121705	在 該	-0.11433806
-0.8295005	藉 該	-0.11433806
-1.4160446	呢 該	-0.06717235
-0.7063591	應 該	-0.06717235
-2.4635942	的 時	-0.11433806
-1.4160446	題 時	-0.06717235
-0.7063591	小 時	-0.11433806
-1.2962165	則 時	-0.11433806
-1.4289292	間 藉	-0.11433806
-2.2878032	的 方	-0.11433806
-2.0380223	這 方	-0.06717235
-1.6073911	下 方	-0.06717235
-1.3502793	局 方	-0.06717235
-1.8727403	本 方	-0.06717235
-1.7841327	對 方	-0.06717235
-0.57973063	平 方	-0.536094
-0.8236692	甲 方	-0.06717235
-1.7658153	方 式	-0.11433806
-0.8319768	模 式	-0.06717235
-2.0727205	會 又	-0.06717235
-2.002914	條 又	-0.06717235
-0.8309706	積 又	-0.06717235
-1.8238854	問 呢	-0.06717235
-1.5820916	麼 呢	-0.06717235
-1.9181665	事 呢	-0.06717235
-1.8265936	大 呢	-0.06717235
-2.1223307	這 項	-0.06717235
-1.787244	程 項	-0.06717235
-1.4160446	他 項	-0.06717235
-1.5107822	該 項	-0.06717235
-2.1221602	在 擬	-0.11433806
-1.6661142	展 圖	-0.11433806
-1.928181	( b	-0.06717235
-2.164205	政 務	-0.06717235
-0.9452322	事 務	-0.098040365
-2.5214577	的 長	-0.06717235
-2.0498152	局 長	-0.06717235
-0.583086	司 長	-0.06717235
-1.7979612	席 另	-0.06717235
-2.151344	館 另	-0.06717235
-1.4217464	長 另	-0.06717235
-2.3668644	的 顧	-0.06717235
-2.1180356	有 顧	-0.06717235
-1.4941268	期 顧	-0.06717235
-1.4048609	計 顧	-0.11433806
-1.67609	須 顧	-0.06717235
-1.1195349	元 顧	-0.06717235
-1.9290597	) 款	-0.06717235
-0.58241284	捐 款	-0.06717235
-1.4189572	四 款	-0.06717235
-0.8295005	撥 款	-0.06717235
-0.583086	進 行	-0.06717235
-1.3005365	劃 行	-0.06717235
-1.7081728	否 行	-0.06717235
-1.8506713	中 接	-0.06717235
-0.1908313	直 接	-0.66103274
-1.9328038	的 意	-0.11433806
-1.6469156	眾 意	-0.06717235
-1.2962165	屬 意	-0.06717235
-1.2962165	願 意	-0.06717235
-1.4217464	預 見	-0.06717235
-0.7073075	意 見	-0.06717235
-1.1282065	遠 見	-0.06717235
-1.9982251	文 寫	-0.06717235
-1.2962165	樣 寫	-0.06717235
-1.4160446	序 寫	-0.06717235
-0.8295005	異 寫	-0.06717235
-2.0189614	能 要	-0.06717235
-1.5045865	明 要	-0.06717235
-1.1224062	且 要	-0.06717235
-1.8268416	成 要	-0.06717235
-0.27848694	需 要	-0.06717235
-1.6469156	眾 並	-0.06717235
-1.4829863	館 並	-0.06717235
-1.6972132	作 並	-0.06717235
-1.9400826	本 並	-0.06717235
-1.3035097	而 且	-0.06717235
-1.5198412	並 且	-0.06717235
-2.1190279	府 尊	-0.06717235
-1.1302036	且 尊	-0.06717235
-0.4079841	尊 重	-0.06717235
-1.4293714	嚴 重	-0.06717235
-1.3035097	重 收	-0.06717235
-0.8319768	券 收	-0.06717235
-1.1318455	收 集	-0.06717235
-1.5079035	獲 得	-0.06717235
-0.8295005	集 得	-0.06717235
-1.2991637	定 得	-0.06717235
-0.8295005	稱 得	-0.06717235
-2.1272788	一 來	-0.06717235
-1.8242948	後 來	-0.06717235
-1.6802236	要 來	-0.06717235
-1.4048609	得 來	-0.06717235
-1.2619102	本 來	-0.06717235
-0.82657504	帶 來	-0.06717235
-1.758833	詢 便	-0.06717235
-2.0094645	會 便	-0.06717235
-1.7628334	程 便	-0.06717235
-1.287703	價 便	-0.06717235
-1.758833	標 便	-0.06717235
-0.82657504	久 便	-0.06717235
-2.4635942	的 工	-0.06717235
-2.123569	館 工	-0.06717235
-1.6441021	展 工	-0.06717235
-1.9400826	本 工	-0.06717235
-2.170809	是 違	-0.06717235
-1.7605193	經 違	-0.06717235
-1.1282065	終 違	-0.06717235
-0.27923122	違 反	-0.06717235
-2.5658965	的 精	-0.06717235
-1.6605211	例 精	-0.11433806
-0.4082061	精 神	-0.06717235
-1.6698188	當 初	-0.06717235
-2.4635942	的 目	-0.06717235
-1.8749192	立 目	-0.06717235
-1.2962165	數 目	-0.06717235
-0.7063591	項 目	-0.06717235
-1.6687034	保 障	-0.06717235
-2.5214577	的 規	-0.06717235
-1.5149592	九 規	-0.06717235
-1.3005365	壞 規	-0.06717235
-1.425681	計 劃	-0.06717235
-0.58354604	規 劃	-0.06717235
-1.957378	開 誠	-0.06717235
-0.8843292	最 終	-0.06717235
-1.8152409	詢 秘	-0.06717235
-1.1318455	密 統	-0.06717235
-0.8328023	統 籌	-0.06717235
-2.4125419	的 同	-0.06717235
-1.4104167	望 同	-0.06717235
-1.8137223	大 同	-0.06717235
-0.64541245	認 同	-0.06717235
-0.58174074	贊 同	-0.11433806
-1.4777579	這 樣	-0.06717235
-1.6605211	同 樣	-0.06717235
-2.009527	是 特	-0.06717235
-1.9943022	不 特	-0.06717235
-1.3833219	題 特	-0.06717235
-1.769849	港 特	-0.11433806
-1.986306	館 特	-0.06717235
-1.8300221	事 特	-0.06717235
-1.5349323	出 特	-0.06717235
-1.6431919	要 特	-0.06717235
-1.1082356	算 特	-0.06717235
-0.8207827	號 特	-0.06717235
-2.1763842	不 禁	-0.06717235
-0.8319768	禁 令	-0.06717235
-1.7158144	更 令	-0.06717235
-1.8906142	人 懷	-0.06717235
-1.5007417	是 否	-0.06717235
-1.5442048	有 否	-0.06717235
-1.05212	能 否	-0.06717235
-0.8295005	品 否	-0.06717235
-1.7221725	否 仍	-0.06717235
-0.75511765	相 信	-0.06717235
-0.8309706	仍 信	-0.06717235
-1.7979612	標 信	-0.06717235
-0.70470524	簽 署	-0.098040365
-2.097464	館 之	-0.11433806
-1.5738674	錄 之	-0.06717235
-1.4104167	行 之	-0.06717235
-1.8268416	成 之	-0.06717235
-0.8280353	言 之	-0.06717235
-1.9526136	) 已	-0.06717235
-1.3035097	奇 已	-0.06717235
-1.5198412	期 八	-0.06717235
-1.9459779	及 八	-0.06717235
-1.1318455	八 星	-0.06717235
-1.8242948	港 本	-0.06717235
-1.8012215	個 本	-0.06717235
-1.5121671	根 本	-0.06717235
-1.4048609	據 本	-0.06717235
-1.1195349	基 本	-0.06717235
-0.4853884	成 本	-0.067172326
-2.5214577	的 先	-0.06717235
-1.653786	下 先	-0.06717235
-1.9347675	事 先	-0.06717235
-1.3059592	先 斬	-0.06717235
-1.8906142	後 奏	-0.06717235
-2.0576153	這 絕	-0.06717235
-2.0556343	我 絕	-0.06717235
-1.7088403	夠 絕	-0.06717235
-1.2835082	次 絕	-0.06717235
-1.6162821	例 絕	-0.06717235
-1.8886224	本 絕	-0.06717235
-1.1166823	元 絕	-0.06717235
-2.049537	館 對	-0.06717235
-2.104593	一 對	-0.06717235
-1.2835082	向 對	-0.06717235
-1.8204155	以 對	-0.06717235
-1.2835082	則 對	-0.06717235
-0.18376979	絕 對	-0.08233216
-0.82511973	針 對	-0.06717235
-2.206899	是 做	-0.06717235
-0.8319768	做 壞	-0.06717235
-0.4079841	破 壞	-0.06717235
-1.307088	規 矩	-0.06717235
-1.4775171	是 如	-0.11433806
-1.630228	因 如	-0.536094
-1.9035012	為 如	-0.06717235
-1.7721516	問 如	-0.06717235
-1.1138484	至 如	-0.06717235
-0.8236692	矩 如	-0.06717235
-0.8236692	菲 如	-0.06717235
-1.1138484	廳 如	-0.06717235
-2.4635942	的 國	-0.06717235
-1.1399236	中 國	-0.06717235
-1.5820916	多 國	-0.06717235
-1.9172938	及 國	-0.06717235
-1.8569065	大 陸	-0.06717235
-1.1454233	大 型	-0.06717235
-2.5658965	的 基	-0.06717235
-1.3035097	型 基	-0.06717235
-1.9328038	的 採	-0.11433806
-1.4160446	也 採	-0.06717235
-1.6972132	須 採	-0.06717235
-1.5079035	目 採	-0.06717235
-1.42726	採 用	-0.06717235
-0.8319768	動 用	-0.06717235
-2.1778705	這 種	-0.06717235
-0.8328023	種 模	-0.06717235
-1.1318455	式 繞	-0.06717235
-2.1713736	館 那	-0.098040365
-1.425681	馬 那	-0.06717235
-1.8906142	港 市	-0.06717235
-1.5238794	見 還	-0.06717235
-1.5904745	何 價	-0.06717235
-1.3005365	代 價	-0.06717235
-0.8309706	售 價	-0.06717235
-1.3059592	價 值	-0.06717235
-1.4289292	行 使	-0.06717235
-0.8328023	使 監	-0.06717235
-0.8328023	監 察	-0.06717235
-0.8328023	察 權	-0.06717235
-1.5820916	案 應	-0.06717235
-2.1188543	不 應	-0.06717235
-1.6972132	更 應	-0.06717235
-1.699995	亦 應	-0.06717235
-1.425681	得 通	-0.06717235
-1.3035097	常 通	-0.06717235
-1.0080246	要 求	-0.11433806
-2.1633453	這 與	-0.06717235
-2.2274861	有 與	-0.06717235
-1.5962898	多 包	-0.06717235
-1.7158144	件 包	-0.06717235
-1.1318455	包 括	-0.06717235
-1.9256469	議 紀	-0.06717235
-2.2228174	一 爭	-0.06717235
-1.8491491	個 爭	-0.06717235
-1.7499804	經 招	-0.06717235
-1.5820916	何 招	-0.06717235
-1.9208101	開 招	-0.11433806
-0.7063591	性 招	-0.11433806
-1.5079035	目 標	-0.06717235
-0.19059476	招 標	-0.08233216
-0.4073164	邀 標	-0.06717235
-0.4073164	投 標	-0.06717235
-1.3005365	務 司	-0.06717235
-1.3026816	司 司	-0.06717235
-0.8309706	宗 司	-0.06717235
-1.425681	長 林	-0.06717235
-1.597849	看 林	-0.06717235
-0.4082061	林 鄭	-0.06717235
-1.307088	月 娥	-0.06717235
-2.1763842	不 久	-0.06717235
-1.6011096	便 傳	-0.06717235
-2.0792227	局 欽	-0.06717235
-2.2228174	一 點	-0.06717235
-0.8319768	欽 點	-0.06717235
-2.1437674	是 嚴	-0.06717235
-1.2962165	點 嚴	-0.06717235
-1.6972132	更 嚴	-0.06717235
-1.1252966	聘 嚴	-0.06717235
-0.4039845	嚴 迅	-0.536094
-0.8328023	迅 奇	-0.06717235
-1.5107822	之 直	-0.06717235
-1.784523	標 直	-0.06717235
-1.2962165	奇 直	-0.06717235
-1.2962165	被 直	-0.06717235
-1.5901374	物 成	-0.06717235
-1.6431919	建 成	-0.06717235
-1.2711613	運 成	-0.7579428
-0.9394096	其 成	-0.11433806
-1.3833219	他 成	-0.06717235
-1.2711613	造 成	-0.06717235
-1.3833219	養 成	-0.06717235
-0.8207827	落 成	-0.06717235
-1.2786345	贊 成	-0.06717235
-0.8207827	達 成	-0.06717235
-2.6060028	的 消	-0.06717235
-0.8328023	消 息	-0.06717235
-2.1763842	不 尋	-0.06717235
-1.653786	日 常	-0.06717235
-0.8309706	尋 常	-0.06717235
-1.3026816	平 常	-0.06717235
-1.3050989	北 都	-0.06717235
-1.5198412	目 都	-0.06717235
-2.0684338	有 更	-0.06717235
-1.981034	府 更	-0.06717235
-1.7772502	個 更	-0.06717235
-1.4807737	款 更	-0.06717235
-1.8727403	本 更	-0.06717235
-1.7345783	標 更	-0.06717235
-0.8236692	觀 更	-0.06717235
-0.8236692	感 更	-0.06717235
-1.5904745	但 被	-0.06717235
-2.0727205	會 被	-0.06717235
-1.423873	應 被	-0.06717235
-1.5198412	獲 聘	-0.06717235
-1.3050989	委 聘	-0.06717235
-2.0115967	為 前	-0.06717235
-1.7232763	建 築	-0.06717235
-0.8328023	築 師	-0.06717235
-1.0582047	支 付	-0.06717235
-2.1190279	府 付	-0.06717235
-1.8543116	港 四	-0.06717235
-1.699995	了 四	-0.06717235
-1.7499804	第 四	-0.06717235
-0.8295005	額 四	-0.06717235
-1.4217464	六 百	-0.06717235
-1.5946661	五 百	-0.06717235
-0.7073075	四 百	-0.11433806
-1.7232763	十 萬	-0.11433806
-0.8328023	萬 元	-0.06717235
-1.847632	問 費	-0.06717235
-1.7678614	經 費	-0.06717235
-1.7769382	相 比	-0.06717235
-0.841429	對 比	-0.06717235
-2.0727205	會 平	-0.06717235
-1.1282065	零 平	-0.06717235
-0.583086	百 平	-0.11433806
-2.6060028	的 撥	-0.06717235
-1.5238794	款 申	-0.06717235
-0.8328023	申 請	-0.06717235
-2.6060028	的 金	-0.06717235
-0.8328023	金 額	-0.06717235
-2.5658965	的 代	-0.06717235
-0.58354604	交 代	-0.06717235
-2.1902804	是 破	-0.06717235
-0.8319768	氣 破	-0.06717235
-2.2274861	有 效	-0.06717235
-1.9718565	本 效	-0.06717235
-0.70848763	採 購	-0.536094
-1.10419	程 序	-0.06717235
-2.0792227	局 限	-0.11433806
-2.5214577	的 性	-0.06717235
-0.8309706	限 性	-0.06717235
-0.8309706	擇 性	-0.06717235
-1.3059592	先 批	-0.06717235
-0.8328023	批 准	-0.06717235
-1.5962898	出 邀	-0.06717235
-1.5198412	獲 邀	-0.06717235
-1.3035097	被 告	-0.06717235
-0.8319768	報 告	-0.06717235
-1.5962898	知 投	-0.06717235
-1.3050989	交 投	-0.06717235
-1.430053	性 質	-0.06717235
-1.5500901	案 亦	-0.06717235
-2.0421212	我 亦	-0.06717235
-1.4807737	份 亦	-0.06717235
-1.3939579	外 亦	-0.06717235
-1.9408115	條 亦	-0.06717235
-1.7031167	方 亦	-0.06717235
-1.2793534	型 亦	-0.06717235
-0.8236692	質 亦	-0.06717235
-1.430053	應 按	-0.06717235
-0.8328023	按 照	-0.06717235
-2.2393425	一 貫	-0.06717235
-1.9559389	及 選	-0.06717235
-0.8328023	選 擇	-0.06717235
-1.4289292	序 呈	-0.06717235
-2.2050087	有 交	-0.06717235
-1.5904745	何 交	-0.06717235
-0.8309706	呈 交	-0.06717235
-1.8152409	席 換	-0.06717235
-0.8328023	換 言	-0.06717235
-2.1251864	我 剛	-0.06717235
-1.8461204	們 剛	-0.06717235
-1.5235082	才 提	-0.06717235
-0.8319768	諾 提	-0.06717235
-1.957378	開 缺	-0.06717235
-0.8328023	缺 乏	-0.06717235
-1.5962898	案 透	-0.06717235
-0.8319768	乏 透	-0.06717235
-1.5170678	明 度	-0.06717235
-1.1282065	濕 度	-0.06717235
-0.8309706	溫 度	-0.06717235
-2.1190279	府 每	-0.06717235
-1.1302036	每 每	-0.06717235
-1.8203658	特 殊	-0.06717235
-2.151344	館 將	-0.06717235
-1.5925653	由 將	-0.06717235
-2.0498152	局 將	-0.06717235
-1.8203658	特 辦	-0.06717235
-1.7739662	經 驗	-0.06717235
-1.8906142	後 針	-0.06717235
-1.4736084	不 需	-0.11433806
-2.151344	館 需	-0.06717235
-2.0485413	能 需	-0.06717235
-1.7232763	要 動	-0.06717235
-1.8136188	任 自	-0.06717235
-1.6605211	來 自	-0.06717235
-1.1318455	自 己	-0.06717235
-1.1318455	與 利	-0.06717235
-1.1282065	收 益	-0.06717235
-1.1282065	效 益	-0.06717235
-0.8309706	利 益	-0.06717235
-1.3059592	益 輸	-0.06717235
-1.6011096	麼 差	-0.06717235
-0.8004966	特 別	-0.098040365
-0.8319768	差 別	-0.06717235
-2.0884943	會 造	-0.06717235
-1.0068775	建 造	-0.06717235
-1.8906142	後 貪	-0.06717235
-0.8328023	貪 污	-0.06717235
-2.6060028	的 誘	-0.06717235
-1.8152409	席 正	-0.536094
-1.9829446	本 雖	-0.06717235
-2.0884943	會 承	-0.06717235
-1.5198412	並 承	-0.06717235
-1.9341134	及 擔	-0.06717235
-1.1282065	承 擔	-0.06717235
-1.4267207	負 擔	-0.06717235
-1.0575045	方 面	-0.06717235
-0.8319768	列 面	-0.06717235
-2.135301	府 卻	-0.06717235
-1.8070291	們 看	-0.06717235
-2.0295432	會 看	-0.06717235
-1.8467523	以 看	-0.06717235
-1.5738674	或 看	-0.06717235
-0.8789815	看 看	-0.06717235
-2.0505955	會 負	-0.06717235
-1.8543116	後 負	-0.06717235
-1.2962165	將 負	-0.06717235
-1.1252966	力 負	-0.06717235
-0.4039845	負 責	-0.06717235
-1.9559389	及 策	-0.06717235
-1.1318455	承 諾	-0.06717235
-1.3059592	提 供	-0.06717235
-0.8328023	供 足	-0.06717235
-2.2274861	有 遠	-0.06717235
-1.425681	長 遠	-0.06717235
-1.5962898	和 維	-0.11433806
-1.884787	以 維	-0.06717235
-1.1318455	維 修	-0.11433806
-0.6464665	保 養	-0.06717235
-1.5512713	有 七	-0.06717235
-2.2034514	一 七	-0.06717235
-1.7102289	十 七	-0.06717235
-1.6661142	日 張	-0.06717235
-1.7232763	建 宗	-0.06717235
-2.0792227	局 董	-0.06717235
-1.5149592	民 身	-0.06717235
-2.5214577	的 身	-0.06717235
-1.8398582	個 身	-0.06717235
-1.430053	小 異	-0.06717235
-1.5249981	明 甲	-0.06717235
-1.7724988	方 即	-0.06717235
-1.4970058	館 落	-0.11433806
-2.1763842	不 菲	-0.06717235
-1.8491491	大 家	-0.06717235
-1.5198412	國 家	-0.06717235
-2.2228174	一 級	-0.06717235
-0.8319768	寶 級	-0.06717235
-1.7221725	更 驚	-0.06717235
-2.2034514	一 定	-0.06717235
-1.807474	特 定	-0.06717235
-1.3005365	價 定	-0.06717235
-2.6060028	的 儲	-0.06717235
-0.8319768	儲 存	-0.06717235
-1.5198412	慮 存	-0.06717235
-2.5658965	的 濕	-0.06717235
-0.8319768	潮 濕	-0.06717235
-1.6011096	和 溫	-0.06717235
-1.6687034	保 證	-0.06717235
-1.8906142	港 潮	-0.06717235
-1.1318455	天 氣	-0.06717235
-1.430053	採 取	-0.06717235
-1.6011096	多 防	-0.06717235
-0.8328023	防 火	-0.06717235
-0.8328023	火 措	-0.06717235
-1.6687034	保 護	-0.06717235
-2.0591142	能 力	-0.06717235
-1.3050989	引 力	-0.06717235
-1.4777579	這 些	-0.11433806
-2.2228174	一 些	-0.06717235
-1.1302036	除 非	-0.06717235
-1.5198412	並 非	-0.06717235
-1.5962898	果 門	-0.06717235
-1.1302036	非 門	-0.06717235
-1.1318455	門 券	-0.06717235
-1.8931468	以 覆	-0.06717235
-0.8328023	覆 蓋	-0.06717235
-1.1318455	門 票	-0.06717235
-0.8328023	票 售	-0.06717235
-2.2274861	有 太	-0.06717235
-1.425681	得 太	-0.06717235
-1.7577891	所 願	-0.06717235
-1.8701357	人 願	-0.06717235
-0.8309706	寧 願	-0.06717235
-1.430053	意 參	-0.06717235
-0.8328023	參 觀	-0.06717235
-2.1613128	不 算	-0.06717235
-1.425681	預 算	-0.06717235
-2.0792227	局 網	-0.06717235
-0.8328023	網 站	-0.06717235
-1.1318455	資 料	-0.06717235
-1.7724988	方 米	-0.536094
-1.6661142	展 廳	-0.06717235
-1.6661142	下 位	-0.06717235
-1.4289292	於 沙	-0.06717235
-0.8328023	沙 田	-0.06717235
-1.307088	那 裏	-0.11433806
-1.526492	陳 列	-0.06717235
-1.3059592	面 積	-0.06717235
-1.8906142	港 歷	-0.06717235
-0.8328023	歷 史	-0.06717235
-1.7714	夠 稱	-0.06717235
-2.0115967	為 旗	-0.06717235
-0.8328023	旗 艦	-0.06717235
-1.764285	夠 打	-0.06717235
-1.3035097	面 打	-0.06717235
-1.8558146	問 號	-0.06717235
-1.1318455	忘 記	-0.06717235
-2.206899	是 距	-0.06717235
-0.8328023	距 離	-0.06717235
-1.4289292	時 飛	-0.11433806
-1.1318455	機 航	-0.11433806
-2.6060028	的 臺	-0.06717235
-1.5238794	國 寶	-0.06717235
-1.6661142	展 品	-0.06717235
-1.4289292	於 遊	-0.06717235
-0.8328023	遊 客	-0.06717235
-2.6060028	的 吸	-0.06717235
-1.3005365	員 贊	-0.06717235
-2.1143293	我 贊	-0.06717235
-1.8358364	們 贊	-0.06717235
-1.8558146	問 報	-0.06717235
-1.4289292	清 楚	-0.06717235
-2.2467966	有 考	-0.06717235
-0.8319768	考 慮	-0.06717235
-0.27910283	憂 慮	-0.06717235
-1.7232763	亦 寧	-0.06717235
-1.4289292	預 測	-0.06717235
-2.2393425	一 筆	-0.06717235
-1.7221725	作 充	-0.06717235
-0.8328023	充 分	-0.06717235
-0.8328023	分 準	-0.06717235
-1.4289292	外 界	-0.06717235
-1.9490633	的 憂	-0.11433806
-1.8701357	人 憂	-0.06717235
-1.1282065	些 憂	-0.06717235
-1.6022233	由 納	-0.06717235
-0.8328023	納 稅	-0.06717235
-1.8906142	人 埋	-0.06717235
-2.135301	府 似	-0.06717235
-0.8328023	似 乎	-0.06717235
-2.0591142	能 增	-0.06717235
-1.764285	夠 增	-0.06717235
-0.4082061	增 加	-0.11433806
-1.5238794	民 族	-0.06717235
-1.6661142	同 感	-0.06717235
-1.5238794	份 毋	-0.06717235
-0.8328023	毋 庸	-0.06717235
-0.8328023	庸 置	-0.06717235
-2.1884892	館 把	-0.06717235
-1.6661142	物 帶	-0.06717235
-1.7221725	否 達	-0.06717235
-2.2467966	有 極	-0.06717235
-1.1318455	包 袱	-0.06717235
-1.764285	夠 釐	-0.06717235
-0.8319768	篤 釐	-0.06717235
-1.5249981	該 鼓	-0.06717235
-0.8328023	鼓 勵	-0.06717235
-1.1318455	打 爛	-0.06717235
-0.8328023	爛 砂	-0.06717235
-0.8328023	砂 盆	-0.06717235
-1.5238794	到 篤	-0.06717235
-1.8580012	過 去	-0.06717235
-1.8583647	對 熱	-0.06717235
-0.8328023	熱 烈	-0.06717235
-0.8328023	烈 歡	-0.06717235
-0.8328023	歡 迎	-0.06717235
-2.134282	我 謹	-0.06717235
-1.526492	陳 辭	-0.06717235

\3-grams:
-0.56992155	陳 辭 </s>
-0.7815281	誘 因 主
-1.5586696	諮 詢 主
-1.7516271	政 府 主
-0.7684204	紀 錄 主
-1.1906773	最 後 主
-1.0572268	所 以 主
-0.7182163	知 數 主
-0.7819337	信 件 主
-0.56085896	作 業 主
-0.80749977	事 局 主
-1.1019015	意 見 主
-1.1342443	程 序 主
-1.1342443	保 養 主
-0.56085896	歡 迎 主
-0.03680736	<s> 主 席
-0.03680736	因 主 席
-0.03680736	詢 主 席
-0.03680736	府 主 席
-0.03680736	錄 主 席
-0.03680736	後 主 席
-0.03680736	以 主 席
-0.03680736	數 主 席
-0.03680736	件 主 席
-0.03680736	業 主 席
-0.03680736	局 主 席
-0.03680736	見 主 席
-0.03680736	序 主 席
-0.03680736	養 主 席
-0.03680736	迎 主 席
-1.6360134	主 席 公
-0.82306826	來 的 公
-0.81377745	議 是 公
-0.81308365	程 不 公
-0.8105854	娥 在 公
-0.78899926	未 經 公
-0.714594	諮 詢 公
-1.0875995	都 有 公
-1.508157	政 府 公
-1.2371688	才 能 公
-0.67911386	繞 過 公
-0.67911386	透 過 公
-0.7182163	誠 布 公
-1.2533548	任 何 公
-0.673219	動 用 公
-0.56085896	一 貫 公
-0.8179013	席 公 民
-1.2917415	人 的 民
-1.6189314	諮 詢 民
-0.7686999	的 國 民
-0.56768566	港 市 民
-0.77089155	公 民 黨
-1.0957854	支 持 黨
-1.3503186	因 為 黨
-1.4275794	主 席 的
-0.7114352	市 民 的
-0.68591374	民 黨 的
-0.59222496	中 立 的
-0.10175624	適 當 的
-1.1534697	開 支 的
-0.7951021	黨 友 的
-0.33133253	議 員 的
-0.8707658	相 關 的
-0.7265582	道 理 的
-1.2225592	顧 問 的
-1.2299167	宮 館 的
-1.0457767	物 館 的
-0.7652022	存 在 的
-1.3556411	諮 詢 的
-0.7114352	置 疑 的
-1.4306426	政 府 的
-0.25551	今 次 的
-0.6346282	最 好 的
-0.7114352	星 期 的
-0.7401111	更 甚 的
-0.477951	上 述 的
-1.0574118	引 述 的
-0.6346282	今 天 的
-0.25953788	港 人 的
-0.645884	計 過 的
-0.8114854	通 過 的
-0.6432991	更 大 的
-0.6432991	極 大 的
-1.4153215	合 作 的
-1.1219268	忘 錄 的
-0.577278	航 程 的
-0.7114352	提 到 的
-0.96886843	涉 及 的
-0.66774714	提 及 的
-0.6346282	不 少 的
-0.7114352	接 獲 的
-0.7951021	小 組 的
-1.4432015	理 局 的
-1.2811271	) 條 的
-1.1787739	條 例 的
-1.1363887	設 施 的
-0.6346282	合 適 的
-0.8895579	進 行 的
-0.70576066	屬 意 的
-0.7167957	樣 寫 的
-0.6756129	嚴 重 的
-0.7277409	得 來 的
-0.7114352	立 目 的
-0.8849825	簽 署 的
-0.53076833	後 奏 的
-0.94179523	招 標 的
-0.6346282	有 效 的
-0.9022361	限 性 的
-0.6756129	明 度 的
-0.53076833	貪 污 的
-0.41209763	一 定 的
-0.41209763	特 定 的
-0.6346282	潮 濕 的
-0.53076833	網 站 的
-0.11896654	方 米 的
-0.53076833	沙 田 的
-0.53076833	忘 記 的
-0.53076833	遊 客 的
-1.0611577	憂 慮 的
-0.53076833	外 界 的
-0.53076833	過 去 的
-0.8273369	黨 的 立
-1.0939958	為 這 立
-0.6821273	件 中 立
-0.6821273	來 中 立
-0.77281195	詢 和 立
-0.77392596	府 訂 立
-1.2007139	經 過 立
-0.5635767	至 連 立
-0.89282155	為 設 立
-0.6393403	港 設 立
-0.5635767	價 值 立
-0.7467301	相 比 立
-0.5635767	鼓 勵 立
-0.8121562	的 立 場
-0.56631166	立 場 當
-1.3183815	協 議 當
-1.586446	我 們 當
-1.3299248	如 果 當
-1.3575345	條 例 當
-0.09776486	為 適 當
-0.68029505	問 費 當
-0.47196794	場 當 然
-0.47196794	們 當 然
-0.47196794	費 當 然
-0.5683743	日 突 然
-1.1725744	認 同 然
-0.5683743	本 雖 然
-0.69670403	疑 的 是
-0.69670403	甚 的 是
-0.69670403	重 的 是
-0.69670403	目 的 是
-0.69670403	記 的 是
-0.69670403	慮 的 是
-1.1156397	當 然 是
-1.0527647	爭 議 是
-1.277864	議 案 是
-0.7640728	支 但 是
-0.8097818	單 這 是
-0.87090516	這 不 是
-0.68557125	本 不 是
-0.95572793	對 不 是
-0.71434116	係 而 是
-0.75366044	無 疑 是
-0.7384955	大 也 是
-0.7384955	可 說 是
-0.7640728	結 果 是
-0.75366044	四 款 是
-1.0108927	本 來 是
-0.7640728	價 便 是
-0.71434116	同 樣 是
-1.517838	成 本 是
-1.3845807	絕 對 是
-0.558158	經 驗 是
-0.82333684	然 是 支
-1.0564102	務 所 支
-1.465555	能 夠 支
-0.616513	的 開 支
-0.49506125	政 開 支
-0.616513	養 開 支
-1.0236244	理 由 支
-0.6811877	經 費 支
-0.5316942	是 支 持
-0.5316942	夠 支 持
-0.5316942	由 支 持
-0.6844908	以 維 持
-0.4357952	持 黨 友
-0.4357952	為 黨 友
-1.2936786	米 的 陳
-1.0911674	支 持 陳
-0.8655704	黨 友 陳
-0.78735375	謹 此 陳
-0.60328966	贊 同 陳
-0.38323903	持 陳 淑
-0.38323903	友 陳 淑
-0.32412755	同 陳 淑
-0.08947253	陳 淑 莊
-0.14713103	員 的 議
-0.8999152	次 的 議
-0.08922539	淑 莊 議
-0.5921592	和 會 議
-0.5921592	期 會 議
-0.8653566	法 會 議
-0.5921592	括 會 議
-0.15737002	訂 協 議
-0.15737002	作 協 議
-0.15737002	密 協 議
-0.15737002	本 協 議
-0.7527974	這 項 議
-0.3194155	一 爭 議
-0.3194155	個 爭 議
-0.09964443	莊 議 員
-1.0566199	會 議 員
-0.07780251	的 議 案
-0.7094011	項 議 案
-0.81730765	布 公 但
-1.2870209	開 支 但
-1.3263682	議 案 但
-0.82234955	奇 不 但
-0.76760817	數 目 但
-0.7270638	承 擔 但
-0.804342	主 席 這
-0.8085562	款 是 這
-0.7629927	案 但 這
-1.0705473	因 為 這
-1.311864	認 為 這
-0.66885436	知 道 這
-0.7389951	但 在 這
-0.7389951	會 在 這
-1.0089879	況 下 這
-0.7403326	埋 單 這
-0.7901014	國 人 這
-0.66885436	再 者 這
-0.7374771	問 呢 這
-0.75260586	預 見 這
-1.0090443	精 神 這
-1.0902871	相 信 這
-0.66885436	採 用 這
-0.55748534	消 息 這
-0.9142717	交 代 這
-1.1217448	程 序 這
-0.71337783	負 擔 這
-0.75260586	考 慮 這
-1.0822294	席 這 不
-0.74888444	但 這 不
-1.2565703	文 物 不
-1.5860158	物 館 不
-1.379926	) 在 不
-1.3067603	今 次 不
-1.23315	興 建 不
-1.246573	過 程 不
-0.73646104	所 也 不
-0.55681384	也 毫 不
-0.7889546	錄 後 不
-0.6679867	標 者 不
-0.7835956	便 可 不
-0.9765758	館 並 不
-1.0071474	精 神 不
-0.79548126	根 本 不
-0.7836511	這 絕 不
-0.8449848	絕 對 不
-0.67494476	針 對 不
-1.0071474	迅 奇 不
-0.7768591	型 亦 不
-1.0227517	特 別 不
-0.55681384	一 筆 不
-1.2593669	不 是 因
-1.3183815	協 議 因
-1.6061915	諮 詢 因
-0.7260718	尋 常 因
-0.56631166	的 誘 因
-0.123481356	席 正 因
-0.56631166	覆 蓋 因
-0.33626813	是 因 為
-0.33626813	詢 因 為
-0.33626813	常 因 為
-0.33626813	蓋 因 為
-0.7771443	得 上 為
-1.2908926	委 任 為
-0.80845153	展 開 為
-0.33692864	們 認 為
-0.050605465	局 認 為
-0.33692864	對 認 為
-0.33692864	乎 認 為
-1.040968	有 否 為
-0.8033774	他 成 為
-0.6785152	獲 聘 為
-0.56494206	特 殊 為
-0.83490944	友 的 關
-1.2236692	最 後 關
-0.6829785	須 就 關
-0.31475452	向 相 關
-0.31475452	開 相 關
-0.31475452	組 相 關
-0.31475452	施 相 關
-0.31475452	證 相 關
-0.79106796	的 關 係
-0.7817306	同 然 而
-0.569064	關 係 而
-1.0758212	通 過 而
-0.8273097	而 是 道
-0.7825	人 知 道
-0.81675875	殊 為 理
-0.6829785	是 道 理
-0.8266956	對 有 理
-0.07168719	下 管 理
-0.007547703	九 管 理
-0.06373895	區 管 理
-0.07168719	他 管 理
-0.06373895	時 管 理
-0.07168719	常 管 理
-0.07168719	造 管 理
-0.07168719	遠 管 理
-0.7881027	理 的 問
-1.0398148	標 的 問
-0.7881027	度 的 問
-0.76760817	的 疑 問
-0.7783646	團 和 問
-1.4268577	一 個 問
-0.18377738	的 顧 問
-0.18377738	有 顧 問
-0.18377738	期 顧 問
-0.16084898	計 顧 問
-0.18377738	元 顧 問
-0.5669981	砂 盆 問
-0.13678332	的 問 題
-0.68904287	和 問 題
-1.7120903	主 席 眾
-0.5500997	的 公 眾
-0.5500997	經 公 眾
-0.121462025	詢 公 眾
-0.6775274	過 公 眾
-1.1657982	問 題 眾
-1.1188034	過 的 所
-1.281372	開 支 所
-0.6165566	席 眾 所
-0.6165566	題 眾 所
-1.8307132	政 府 所
-1.1609998	公 開 所
-0.70719063	事 務 所
-0.5656264	察 權 所
-1.0583084	投 標 所
-0.6118194	眾 所 周
-0.8233914	毫 不 知
-0.46135384	所 周 知
-0.75301015	是 未 知
-1.2205641	有 人 知
-0.6820822	被 告 知
-0.81989413	田 的 香
-0.99966055	周 知 香
-0.7407625	是 在 香
-0.7407625	條 在 香
-0.95655227	釐 清 香
-0.71530676	然 向 香
-0.79151547	信 任 香
-0.79240406	日 後 香
-0.5824542	館 由 香
-0.5824542	本 由 香
-0.772768	帶 來 香
-1.0948957	相 信 香
-0.71530676	會 被 香
-0.9173392	支 付 香
-1.0622914	對 比 香
-0.9173392	建 造 香
-1.0027876	看 看 香
-1.012863	負 責 香
-0.5588317	距 離 香
-0.45511714	增 加 香
-0.03045205	的 香 港
-0.03045205	知 香 港
-0.0272177	在 香 港
-0.03045205	清 香 港
-0.03045205	向 香 港
-0.03045205	任 香 港
-0.03045205	後 香 港
-0.0272177	由 香 港
-0.03045205	來 香 港
-0.03045205	信 香 港
-0.03045205	被 香 港
-0.03045205	付 香 港
-0.03045205	比 香 港
-0.03045205	造 香 港
-0.03045205	看 香 港
-0.03045205	責 香 港
-0.03045205	離 香 港
-0.0272177	加 香 港
-1.0595503	設 立 故
-1.4484584	的 是 故
-1.277864	議 案 故
-0.68095666	香 港 故
-1.2633456	文 物 故
-0.7975278	館 ( 故
-1.0792859	都 有 故
-1.1242161	希 望 故
-0.98404866	這 個 故
-1.0371604	一 個 故
-0.7384955	便 讓 故
-0.7912512	驚 人 故
-0.6573875	北 京 故
-0.71434116	準 備 故
-0.8613435	興 建 故
-0.75366044	看 到 故
-0.77166605	一 來 故
-0.71434116	由 將 故
-0.6697238	除 非 故
-0.558158	資 料 故
-0.028794989	立 故 宮
-0.028794989	是 故 宮
-0.028794989	案 故 宮
-0.0057158736	港 故 宮
-0.028794989	物 故 宮
-0.028794989	( 故 宮
-0.028794989	有 故 宮
-0.028794989	望 故 宮
-0.025741907	個 故 宮
-0.028794989	讓 故 宮
-0.028794989	人 故 宮
-0.025741907	京 故 宮
-0.028794989	備 故 宮
-0.025741907	建 故 宮
-0.028794989	到 故 宮
-0.028794989	來 故 宮
-0.028794989	將 故 宮
-0.028794989	非 故 宮
-0.028794989	料 故 宮
-0.613668	關 的 文
-0.80518013	作 的 文
-1.2976742	會 議 文
-1.2924215	相 關 文
-1.7669489	香 港 文
-0.78442514	故 宮 文
-0.66421074	西 九 文
-0.78419334	所 須 文
-0.63641626	眾 條 文
-0.63641626	多 條 文
-0.63641626	項 條 文
-0.5622157	藝 術 文
-1.1393466	保 養 文
-0.67497724	一 級 文
-0.5622157	保 護 文
-0.5622157	館 把 文
-0.6451697	的 文 化
-0.47486752	港 文 化
-0.06324561	宮 文 化
-0.08060881	九 文 化
-0.47486752	術 文 化
-1.0607308	故 宮 博
-0.35534787	文 化 博
-1.0911674	其 他 博
-0.56768566	歷 史 博
-0.56768566	旗 艦 博
-0.47471225	關 文 物
-0.47471225	養 文 物
-0.47471225	級 文 物
-0.47471225	護 文 物
-0.47471225	把 文 物
-0.03752725	宮 博 物
-0.018358396	化 博 物
-0.12130588	他 博 物
-0.12130588	史 博 物
-0.12130588	艦 博 物
-0.17798091	故 宮 館
-0.16718657	博 物 館
-0.7166708	館 開 館
-0.7166708	在 開 館
-0.8284106	寫 的 (
-1.645591	物 館 (
-0.7812655	三 ) (
-0.10310839	十 一 (
-0.7683681	第 一 (
-0.80679566	眾 及 (
-1.1704193	局 須 (
-1.7331158	理 局 (
-1.3454183	條 例 (
-0.79390603	據 第 (
-0.12168186	訂 明 (
-0.7325641	寫 明 (
-1.7850679	宮 館 )
-0.8218262	( 一 )
-0.15525323	引 述 )
-0.14000234	( 三 )
-0.7768423	( 五 )
-1.7412771	理 局 )
-1.3494196	條 例 )
-0.08905068	( a )
-0.56494206	( b )
-1.4530122	的 是 在
-1.0546864	爭 議 在
-0.7651556	目 但 在
-0.71530676	然 而 在
-1.6990317	宮 館 在
-0.61027795	館 ) 在
-0.31247944	述 ) 在
-0.87749577	a ) 在
-1.7216955	政 府 在
-0.806238	我 會 在
-1.2127879	究 竟 在
-1.2434586	忘 錄 在
-0.7395164	會 說 在
-0.7981159	顧 及 在
-0.7785662	標 須 在
-0.80761	八 條 在
-0.84816325	事 宜 在
-0.772768	後 來 在
-0.5588317	月 娥 在
-0.670595	慮 存 在
-0.82549006	也 是 未
-1.4478593	) 在 未
-0.7806057	點 或 未
-0.5683743	府 卻 未
-1.3977851	次 的 經
-0.6940068	次 不 經
-0.6940068	也 不 經
-0.6940068	神 不 經
-0.7498588	在 未 經
-1.6045995	沒 有 經
-0.7945795	足 夠 經
-0.7898944	無 須 經
-0.6794042	奇 已 經
-0.5656264	特 辦 經
-0.81030566	期 的 諮
-0.81030566	行 的 諮
-1.2564458	不 是 諮
-1.0117533	公 眾 諮
-0.81063503	b ) 諮
-0.769902	不 經 諮
-1.2773622	任 何 諮
-0.5367062	方 式 諮
-0.79051685	明 要 諮
-0.06382935	的 諮 詢
-0.07178979	是 諮 詢
-0.06382935	眾 諮 詢
-0.07178979	) 諮 詢
-0.06382935	經 諮 詢
-0.07178979	何 諮 詢
-0.06382935	式 諮 詢
-0.07178979	要 諮 詢
-0.8154924	在 的 情
-0.8154924	詢 的 情
-0.7817306	不 知 情
-0.61906755	麼 事 情
-0.5848727	的 情 況
-0.80966127	這 立 下
-0.46135384	情 況 下
-0.7727557	述 一 下
-0.7727557	比 一 下
-0.7280581	原 則 下
-0.56768566	批 准 下
-1.0364491	況 下 上
-0.6811877	人 送 上
-1.2037151	工 程 上
-0.7519572	稱 得 上
-0.7783646	會 便 上
-1.0365092	違 反 上
-0.43300167	下 上 馬
-0.43300167	程 上 馬
-0.43300167	便 上 馬
-0.46265197	港 賽 馬
-0.61654717	議 當 中
-0.61654717	果 當 中
-1.4070077	顧 問 中
-1.2391541	條 文 中
-1.587756	諮 詢 中
-1.0798329	上 馬 中
-0.7249101	後 跟 中
-1.2820526	過 程 中
-1.0389267	一 件 中
-1.0284243	本 來 中
-1.1562631	認 同 中
-0.6882175	問 中 間
-0.6882175	馬 中 間
-0.77089155	議 期 間
-0.58407634	的 時 間
-0.5996782	開 所 有
-1.6737645	宮 館 有
-0.73646104	卻 未 有
-0.95152766	中 間 有
-0.81198925	成 我 有
-1.6936946	政 府 有
-0.8030911	將 會 有
-1.2037652	究 竟 有
-1.0357405	院 簽 有
-0.6679867	或 許 有
-0.6679867	輸 送 有
-0.08628466	府 沒 有
-0.09737543	日 沒 有
-0.08628466	全 沒 有
-0.09737543	程 沒 有
-0.09737543	果 沒 有
-0.09737543	信 沒 有
-1.3606858	理 局 有
-0.75403285	行 之 有
-1.3774308	絕 對 有
-0.55681384	見 還 有
-0.3152729	北 都 有
-0.3152729	目 都 有
-0.7124165	效 益 有
-0.6679867	引 力 有
-0.7124165	所 願 有
-0.45369053	那 裏 有
-0.82863605	間 有 很
-0.56953526	採 取 很
-0.7742605	益 有 多
-0.7742605	力 有 多
-0.3196931	有 很 多
-0.3196931	取 很 多
-0.77948374	這 麼 多
-0.79335135	有 更 多
-0.6820822	有 太 多
-1.1251439	大 的 疑
-1.0245452	很 多 疑
-0.6820822	馬 無 疑
-0.56768566	人 懷 疑
-0.56768566	庸 置 疑
-0.77225727	多 疑 團
-1.6125147	諮 詢 和
-0.5669981	疑 團 和
-1.1013865	設 計 和
-1.2685211	文 件 和
-1.1028092	營 運 和
-0.7270638	濕 度 和
-1.6078678	主 席 我
-1.0580145	支 持 我
-1.1217448	問 題 我
-0.69566935	的 ( 我
-0.09877235	明 ( 我
-0.80541635	而 在 我
-0.7374771	告 讓 我
-1.206752	究 竟 我
-0.66885436	容 許 我
-1.0089879	之 日 我
-0.9783434	一 份 我
-0.26358828	如 此 我
-1.2799305	涉 及 我
-0.7374771	大 呢 我
-0.9142717	一 點 我
-0.7943928	達 成 我
-1.0580145	對 比 我
-0.9142717	交 代 我
-0.66885436	預 算 我
-0.8455461	展 廳 我
-1.1593453	憂 慮 我
-0.2722305	題 我 們
-0.2722305	讓 我 們
-0.2722305	竟 我 們
-0.2722305	日 我 們
-0.2722305	份 我 們
-0.28527984	此 我 們
-0.2722305	及 我 們
-0.2722305	比 我 們
-0.2722305	代 我 們
-0.2722305	算 我 們
-0.2722305	廳 我 們
-1.1537087	當 然 希
-1.6081636	我 們 希
-1.8833458	政 府 希
-0.7948071	案 亦 希
-0.1578433	然 希 望
-0.1578433	們 希 望
-0.1578433	府 希 望
-0.1578433	亦 希 望
-1.5971013	主 席 政
-0.7505044	詢 民 政
-0.7891256	程 中 政
-0.9498656	中 間 政
-1.1168439	希 望 政
-0.7354474	會 讓 政
-0.5561433	事 緣 政
-0.1012292	特 區 政
-0.78799635	時 任 政
-0.66712075	說 法 政
-1.1168439	根 據 政
-0.76305276	初 由 政
-0.45321602	共 財 政
-0.97361416	如 果 政
-0.66712075	擔 心 政
-1.085727	意 見 政
-1.0151521	是 否 政
-1.5004866	成 本 政
-0.78593373	至 如 政
-0.45321602	要 求 政
-0.91122574	方 面 政
-0.5561433	清 楚 政
-0.08204742	席 政 府
-0.08204742	中 政 府
-0.08204742	間 政 府
-0.08204742	望 政 府
-0.08204742	讓 政 府
-0.08204742	緣 政 府
-0.019477304	區 政 府
-0.08204742	法 政 府
-0.08204742	據 政 府
-0.08204742	由 政 府
-0.07285137	果 政 府
-0.08204742	心 政 府
-0.08204742	見 政 府
-0.08204742	否 政 府
-0.08204742	本 政 府
-0.08204742	如 政 府
-0.07285137	求 政 府
-0.08204742	面 政 府
-0.08204742	楚 政 府
-0.75523376	亦 不 能
-0.75523376	別 不 能
-1.7447132	宮 館 能
-1.5460202	我 們 能
-1.7727926	政 府 能
-1.2282552	究 竟 能
-0.80372214	同 事 能
-0.3795442	們 才 能
-0.3795442	頭 才 能
-0.3795442	度 才 能
-0.3740641	有 可 能
-0.3740641	後 可 能
-0.3740641	開 可 能
-0.3740641	終 可 能
-0.7897329	下 方 能
-0.72016686	會 又 能
-1.0328599	有 否 能
-0.67497724	大 家 能
-0.5622157	包 袱 能
-0.47165465	不 能 夠
-0.38805723	館 能 夠
-0.38805723	府 能 夠
-0.38805723	事 能 夠
-0.3958031	才 能 夠
-0.38805723	家 能 夠
-0.38805723	袱 能 夠
-0.56953526	供 足 夠
-1.4892571	能 夠 解
-0.56992155	夠 解 畫
-0.7772484	雖 然 今
-1.2550073	議 員 今
-1.6128253	認 為 今
-1.8432854	政 府 今
-0.56631166	解 畫 今
-0.56631166	出 現 今
-1.2108108	經 過 今
-0.15269354	然 今 次
-0.15269354	員 今 次
-0.15269354	為 今 次
-0.15269354	府 今 次
-0.15269354	畫 今 次
-0.15269354	過 今 次
-0.8146549	去 的 一
-1.0541261	設 立 一
-0.626034	案 是 一
-0.85066193	不 是 一
-0.626034	來 是 一
-0.626034	本 是 一
-0.73443604	維 持 一
-0.74720097	見 這 一
-0.74720097	慮 這 一
-1.3427421	一 ( 一
-0.7651717	送 上 一
-0.6273467	訂 了 一
-0.6273467	出 了 一
-0.49657267	) 單 一
-0.49657267	屬 單 一
-0.7377075	複 述 一
-0.5281693	二 零 一
-0.31760043	二 十 一
-0.6273467	三 十 一
-1.3032036	如 此 一
-0.7927779	京 及 一
-0.767286	此 例 一
-0.7812618	錄 第 一
-0.42714888	席 另 一
-0.42714888	館 另 一
-0.90971076	這 樣 一
-1.0132284	是 否 一
-1.0516771	對 比 一
-0.5554738	按 照 一
-0.6662565	國 家 一
-0.6662565	面 打 一
-0.7838278	在 這 個
-0.6268056	下 這 個
-0.6268056	人 這 個
-0.6268056	者 這 個
-0.59584355	立 一 個
-0.6568667	是 一 個
-0.7400405	了 一 個
-0.7400405	另 一 個
-0.59584355	打 一 個
-0.32024878	館 整 個
-0.32024878	事 整 個
-0.8327324	錄 的 最
-0.7783646	公 但 最
-1.8180025	宮 館 最
-1.4268577	一 個 最
-0.7519572	事 呢 最
-1.0038776	捐 款 最
-0.7831825	個 最 好
-1.0548604	一 件 好
-0.8367494	好 的 機
-0.46265197	時 飛 機
-0.8141035	物 不 會
-0.57708204	賽 馬 會
-0.7695141	件 和 會
-0.81671166	呢 我 會
-1.5396338	我 們 會
-1.3329544	可 能 會
-0.67409724	的 機 會
-0.75897205	日 期 會
-0.7628587	情 才 會
-1.1935751	有 人 會
-0.062418085	立 法 會
-1.7019224	理 局 會
-0.5615368	包 括 會
-0.7191905	館 將 會
-0.82123286	機 會 讓
-1.275487	文 件 讓
-0.7806057	詢 便 讓
-0.6829785	報 告 讓
-1.9158866	政 府 澄
-0.569064	府 澄 清
-0.7820083	們 看 清
-0.32024878	夠 釐 清
-0.32024878	篤 釐 清
-1.0384786	一 下 究
-0.7686999	懷 疑 究
-1.8695776	政 府 究
-0.75301015	澄 清 究
-0.80188954	目 標 究
-0.12135179	下 究 竟
-0.12135179	疑 究 竟
-0.12135179	府 究 竟
-0.12135179	清 究 竟
-0.12135179	標 究 竟
-0.751521	竟 在 簽
-0.751521	說 在 簽
-0.79265666	到 了 簽
-0.7270638	公 布 簽
-0.66775274	物 院 簽
-0.8642063	林 鄭 簽
-0.79265666	份 亦 簽
-1.2489561	條 文 訂
-1.8833458	政 府 訂
-0.45798317	在 簽 訂
-0.3767487	了 簽 訂
-0.45798317	院 簽 訂
-0.3767487	亦 簽 訂
-1.1464127	) 條 訂
-0.7304321	九 條 訂
-1.2444462	簽 訂 協
-1.5545286	合 作 協
-0.6829785	保 密 協
-0.8149212	據 本 協
-1.3255094	協 議 期
-0.8156843	開 為 期
-0.78735375	議 日 期
-0.56768566	八 星 期
-0.56768566	為 前 期
-0.7519572	期 間 發
-1.2508787	究 竟 發
-0.5668832	擬 備 發
-1.7709345	西 九 發
-0.7519572	關 於 發
-0.79732	對 方 發
-0.593261	間 發 生
-0.593261	竟 發 生
-1.2333672	簽 訂 了
-0.45990664	發 生 了
-0.776135	付 出 了
-0.765433	此 到 了
-0.6794042	是 除 了
-1.0324776	違 反 了
-0.9330102	破 壞 了
-0.9330102	支 付 了
-1.6125147	諮 詢 甚
-0.8244001	送 有 甚
-0.60639554	生 了 甚
-1.2356467	的 事 甚
-0.7519572	又 說 甚
-0.7921959	觀 更 甚
-1.2685312	席 這 麼
-0.43285817	有 甚 麼
-0.36248377	了 甚 麼
-0.43285817	說 甚 麼
-0.59149575	館 那 麼
-0.4352852	馬 那 麼
-1.0277398	立 的 事
-0.7812978	施 的 事
-0.7812978	適 的 事
-0.82349294	民 政 事
-0.67497724	件 好 事
-0.8518137	甚 麼 事
-0.5622157	討 論 事
-0.7998525	每 以 事
-0.78419334	這 件 事
-0.78216225	問 其 事
-1.0427295	局 方 事
-0.7783201	望 同 事
-0.79644173	館 特 事
-0.5622157	築 師 事
-0.5622157	局 董 事
-0.9848121	事 情 容
-0.56953526	情 容 許
-0.7825	神 或 許
-0.8250955	許 我 簡
-1.4590305	述 ) 單
-0.5683743	我 簡 單
-0.72905463	標 屬 單
-0.5683743	人 埋 單
-0.75664526	簡 單 複
-0.7823782	反 上 述
-0.569064	單 複 述
-0.4352852	中 引 述
-0.059984107	我 引 述
-0.9790236	事 情 才
-1.6008031	我 們 才
-0.56768566	關 頭 才
-0.3196931	我 剛 才
-0.3196931	們 剛 才
-0.7280581	溫 度 才
-0.8190588	才 會 出
-0.7803504	方 發 出
-0.8112925	以 事 出
-0.7921959	本 作 出
-0.5669981	便 傳 出
-0.7270638	府 付 出
-0.7831309	會 出 現
-0.8367494	濕 的 天
-0.7917825	現 今 天
-0.8373622	天 的 討
-0.56992155	的 討 論
-0.81594443	論 事 緣
-0.7533403	府 在 二
-0.7533403	來 在 二
-0.7948071	年 十 二
-0.43487474	二 月 二
-0.43487474	六 月 二
-0.5307108	的 第 二
-0.5307108	外 第 二
-0.5307108	害 第 二
-0.5846887	在 二 零
-1.1328348	有 七 零
-1.1115037	零 一 六
-0.6829785	七 年 六
-1.4091388	二 十 六
-1.1286021	有 七 六
-0.75584745	一 六 年
-0.77164197	一 七 年
-0.41690212	月 二 十
-0.1155808	第 二 十
-0.6820822	六 年 十
-0.7280581	第 三 十
-0.5912263	第 五 十
-0.47775128	百 五 十
-0.79886895	) 第 十
-0.7555156	十 二 月
-0.75512385	年 六 月
-0.8683114	林 鄭 月
-0.8454047	一 ( 三
-0.7085752	第 ( 三
-1.4118251	二 十 三
-0.80087006	中 第 三
-1.3219309	會 議 日
-1.0225796	那 麼 日
-0.7519572	十 六 日
-0.7270638	十 三 日
-0.7879468	責 其 日
-0.5920036	館 之 日
-0.79106796	三 日 突
-0.7817306	突 然 向
-1.8975648	政 府 向
-1.053421	亦 須 向
-0.80191815	香 港 人
-0.77121156	許 有 人
-1.0831479	沒 有 人
-0.5894657	入 五 人
-0.5894657	與 五 人
-0.5656264	高 層 人
-0.31886086	禁 令 人
-0.31886086	更 令 人
-1.0001366	中 國 人
-0.5656264	更 驚 人
-0.5656264	納 稅 人
-1.3818538	港 人 送
-0.56953526	益 輸 送
-0.77512795	上 一 份
-1.016916	了 一 份
-0.22633545	民 身 份
-0.22633545	的 身 份
-0.22633545	個 身 份
-1.6208361	我 們 完
-0.75584745	士 外 完
-0.32043856	們 完 全
-0.32043856	外 完 全
-0.56953526	捐 錢 全
-1.5647581	政 府 沒
-1.0364491	之 日 沒
-0.53785723	完 全 沒
-1.2957084	過 程 沒
-1.3337853	如 果 沒
-1.1236238	相 信 沒
-1.2011046	沒 有 預
-0.7817306	作 出 預
-0.77089155	遠 見 預
-0.98258626	有 預 計
-1.268735	發 展 計
-0.6331505	為 設 計
-0.6430281	責 設 計
-0.8305661	到 的 過
-0.5285626	有 經 過
-0.5285626	須 經 過
-0.5285626	辦 經 過
-1.00211	這 個 過
-0.5396988	整 個 過
-0.9737337	釐 清 過
-0.7498588	預 計 過
-0.5656264	式 繞 過
-0.31886086	得 通 過
-0.31886086	常 通 過
-0.6794042	案 透 過
-0.80198234	的 所 謂
-0.56992155	所 謂 聖
-0.56992155	謂 聖 誕
-0.59534955	有 多 大
-1.409381	一 個 大
-0.74777055	件 讓 大
-0.5642589	聖 誕 大
-0.77391684	施 或 大
-0.99642766	中 國 大
-0.787605	個 更 大
-0.78838754	條 亦 大
-0.705427	特 別 大
-0.5642589	有 極 大
-0.80907345	誕 大 禮
-0.56992155	大 禮 宣
-0.8190911	在 公 布
-0.569064	禮 宣 布
-0.569064	開 誠 布
-1.8975648	政 府 跟
-0.7300534	宣 布 跟
-1.2267965	以 後 跟
-1.1294228	程 的 北
-0.4352852	府 跟 北
-0.4352852	布 跟 北
-0.569064	的 臺 北
-0.4357952	的 北 京
-0.36472264	跟 北 京
-0.74379575	博 物 院
-0.8327324	署 的 合
-1.6170658	認 為 合
-0.8613746	簽 訂 合
-1.0038776	一 份 合
-0.66775274	簽 署 合
-0.5669981	大 陸 合
-0.18377738	的 合 作
-0.16084898	訂 合 作
-0.18377738	份 合 作
-0.16084898	署 合 作
-0.18377738	陸 合 作
-0.78621423	就 此 作
-0.5669981	黑 箱 作
-1.2699021	需 要 作
-0.7539187	展 工 作
-1.6022457	成 本 作
-0.22416933	合 作 備
-0.4623213	在 擬 備
-0.569064	分 準 備
-1.1016706	不 能 忘
-0.078794695	作 備 忘
-0.07658374	備 忘 錄
-0.56953526	議 紀 錄
-1.35843	主 席 西
-1.315041	因 為 西
-0.80323946	局 ( 西
-1.4380505	述 ) 西
-0.81267035	錄 在 西
-1.1393466	希 望 西
-0.78521293	壞 了 西
-0.77061063	傳 出 西
-1.1393466	根 據 西
-0.609634	之 後 西
-0.7998525	長 以 西
-0.5622157	保 障 西
-0.5622157	方 即 西
-0.7966244	第 十 九
-0.038144656	席 西 九
-0.04274278	為 西 九
-0.04274278	( 西 九
-0.04274278	) 西 九
-0.04274278	在 西 九
-0.04274278	望 西 九
-0.04274278	了 西 九
-0.04274278	出 西 九
-0.04274278	據 西 九
-0.038144656	後 西 九
-0.04274278	以 西 九
-0.04274278	障 西 九
-0.04274278	即 西 九
-0.5619596	文 化 區
-0.55451334	是 特 區
-0.55451334	題 特 區
-0.45206177	港 特 區
-1.4131882	次 的 興
-1.173906	化 區 興
-0.6829785	全 資 興
-0.5683743	統 籌 興
-1.3176422	相 關 建
-0.7783646	計 和 建
-0.15737002	的 興 建
-0.15737002	區 興 建
-0.15737002	資 興 建
-0.15737002	籌 興 建
-0.9362134	規 劃 建
-0.6811877	型 基 建
-0.5669981	日 張 建
-1.8621734	宮 館 整
-0.8153287	件 事 整
-1.1251439	標 的 程
-0.68668693	的 過 程
-0.13655838	個 過 程
-0.31679824	的 工 程
-0.31679824	館 工 程
-0.31679824	本 工 程
-0.12364947	採 購 程
-0.46135384	機 航 程
-1.611195	沒 有 任
-1.2108108	經 過 任
-0.79104364	要 作 任
-1.0646396	涉 及 任
-0.7129881	宜 及 任
-0.43364573	獲 委 任
-0.19018465	接 委 任
-0.7509067	題 時 任
-0.76651925	仍 信 任
-0.82863605	還 有 何
-0.43815786	有 任 何
-0.43815786	過 任 何
-0.43815786	作 任 何
-0.36652094	及 任 何
-0.593261	詢 甚 至
-0.593261	事 甚 至
-0.8700212	甚 至 連
-0.32742393	和 立 法
-0.32742393	過 立 法
-0.32742393	連 立 法
-0.32742393	值 立 法
-0.32742393	比 立 法
-0.32742393	勵 立 法
-0.75584745	的 說 法
-1.0603995	務 所 也
-1.5015714	法 會 也
-1.0735425	多 大 也
-0.7948071	基 建 也
-0.7564408	會 也 毫
-1.262986	席 這 根
-0.82111174	及 在 根
-0.75301015	知 情 根
-1.0057602	館 並 根
-1.038539	大 型 根
-0.23284711	在 根 據
-0.23284711	情 根 據
-0.23284711	並 根 據
-0.23284711	型 根 據
-0.83490944	府 的 說
-0.82123286	人 會 說
-0.79602283	程 可 說
-0.72905463	條 又 說
-1.5065341	的 是 保
-1.0206227	周 知 保
-1.3063797	文 物 保
-0.8232569	簽 有 保
-1.4601499	能 夠 保
-1.0726022	施 以 保
-0.46038848	維 修 保
-0.79084224	有 保 密
-0.56953526	詢 秘 密
-0.78833795	議 因 此
-0.6811877	未 就 此
-0.9362134	破 壞 此
-0.1320649	因 如 此
-0.64188576	廳 如 此
-0.7270638	差 別 此
-0.5669981	我 謹 此
-0.8053198	盆 問 到
-0.78735375	因 此 到
-0.9378239	才 提 到
-0.7799735	會 看 到
-0.56768566	預 測 到
-1.281372	開 支 後
-0.43113953	的 最 後
-0.43113953	呢 最 後
-0.43113953	款 最 後
-0.7839441	麼 日 後
-1.2773622	忘 錄 後
-0.5871813	府 以 後
-0.5871813	果 以 後
-0.5871813	成 以 後
-0.5530159	錄 之 後
-0.5530159	成 之 後
-0.5656264	先 斬 後
-1.0689919	落 成 後
-0.79106796	後 關 頭
-0.3529569	是 公 開
-0.3529569	不 公 開
-0.3529569	有 公 開
-0.30024174	府 公 開
-0.3529569	能 公 開
-0.42945522	過 公 開
-0.3529569	貫 公 開
-0.8294871	少 的 開
-1.7850679	宮 館 開
-0.8168705	館 在 開
-0.62474066	財 政 開
-0.8218262	例 一 開
-0.78281343	已 展 開
-0.9314174	規 劃 開
-1.1497347	保 養 開
-1.5706211	公 開 再
-0.56953526	開 再 者
-1.0705802	邀 標 者
-0.590909	為 理 由
-0.590909	有 理 由
-1.82956	宮 館 由
-0.79373056	能 要 由
-0.56768566	當 初 由
-1.6094723	成 本 由
-1.5346804	香 港 賽
-0.8360021	界 的 捐
-1.6386266	沒 有 捐
-1.1029382	馬 會 捐
-0.73155373	會 捐 錢
-0.8367494	站 的 資
-0.6844908	錢 全 資
-0.8245864	序 這 涉
-0.8244357	建 不 涉
-1.0739536	當 中 涉
-0.5683743	申 請 涉
-1.8775843	管 理 及
-1.3448777	公 眾 及
-0.95719934	北 京 及
-1.5210893	公 開 及
-0.15681267	這 涉 及
-0.15681267	不 涉 及
-0.15681267	中 涉 及
-0.15681267	請 涉 及
-1.270395	設 施 及
-0.85744953	事 宜 及
-0.77934915	須 顧 及
-0.92824924	才 提 及
-0.7621905	十 七 及
-1.184229	憂 慮 及
-0.7319723	何 公 共
-0.7319723	用 公 共
-0.4629228	公 共 財
-0.6563376	支 所 以
-0.6563376	權 所 以
-1.8307132	政 府 以
-1.3260984	如 果 以
-0.51103723	們 可 以
-0.6402786	益 可 以
-0.84459096	設 施 以
-0.58894324	措 施 以
-0.9737337	司 長 以
-0.8042035	造 成 以
-0.6794042	每 每 以
-1.0973725	上 馬 無
-1.0818607	所 以 無
-0.7984148	標 所 須
-0.6820822	以 無 須
-0.8267799	理 局 須
-1.4215285	招 標 須
-0.6407455	外 亦 須
-0.6407455	方 亦 須
-1.5134311	法 會 結
-0.56953526	會 結 果
-0.24004114	是 如 果
-0.2784583	為 如 果
-0.2784583	問 如 果
-0.2784583	矩 如 果
-0.2784583	菲 如 果
-0.8273097	果 是 除
-0.9710615	物 院 除
-0.8261986	筆 不 少
-0.7966244	除 了 少
-0.7817306	未 知 數
-0.8077412	個 大 數
-0.68387675	了 少 數
-0.7280581	少 數 獲
-1.0067505	應 該 獲
-0.9790236	進 行 獲
-0.6820822	中 接 獲
-0.77948374	標 便 獲
-0.77164197	數 獲 委
-0.09804312	直 接 委
-0.82112885	方 能 進
-1.3079602	委 任 進
-0.77089155	) 款 進
-0.73155373	任 進 入
-1.4005163	一 ( 五
-0.5669981	進 入 五
-0.7978718	議 第 五
-0.6811877	有 與 五
-0.5675394	四 百 五
-1.1236238	有 七 五
-0.6173443	五 人 核
-0.46265197	人 核 心
-0.7307365	及 擔 心
-0.8267918	及 一 小
-0.53901136	核 心 小
-0.7884963	大 同 小
-0.7546077	港 四 小
-0.5849962	心 小 組
-0.8367494	組 的 高
-0.6844908	得 太 高
-0.68499416	的 高 層
-0.81156933	層 人 士
-0.7884963	壞 此 外
-0.5683743	人 士 外
-0.7297369	長 另 外
-0.6829785	來 自 外
-0.8245864	道 這 件
-0.6314748	的 文 件
-0.64118785	議 文 件
-0.64118785	須 文 件
-1.2244695	是 一 件
-0.77363855	否 一 件
-0.76979434	標 信 件
-0.82211673	願 有 可
-1.2759482	我 們 可
-1.2888268	過 程 可
-1.2113801	最 後 可
-0.8094877	一 開 可
-0.776135	程 便 可
-0.86149096	最 終 可
-0.72508204	收 益 可
-0.8279157	說 是 黑
-0.56992155	是 黑 箱
-0.79711735	箱 作 業
-0.7839441	則 下 管
-0.2600943	西 九 管
-0.8281624	化 區 管
-1.0843313	其 他 管
-0.58088315	則 時 管
-0.72508204	日 常 管
-0.9330102	建 造 管
-0.6794042	長 遠 管
-0.10243876	管 理 局
-0.8179269	須 在 局
-0.80911607	董 事 局
-1.2616651	文 件 局
-0.8154352	務 局 局
-0.59666723	一 或 局
-0.45100015	在 該 局
-0.45100015	藉 該 局
-1.0471821	事 務 局
-0.8166278	神 這 條
-1.3412397	公 眾 條
-0.80419874	例 ( 條
-0.51625943	一 ) 條
-0.7033223	三 ) 條
-0.51625943	五 ) 條
-0.5706692	a ) 條
-0.77170986	麼 多 條
-0.78626853	反 了 條
-0.7611151	十 九 條
-1.7172391	理 局 條
-0.7474115	該 項 條
-0.92667377	尊 重 條
-1.0245252	違 反 條
-0.67585903	及 八 條
-0.78964186	別 此 例
-0.41005093	這 條 例
-0.41005093	( 條 例
-0.41005093	了 條 例
-0.41005093	局 條 例
-0.41005093	重 條 例
-0.41005093	反 條 例
-0.7300534	的 先 例
-1.1167104	述 的 第
-1.3113688	協 議 第
-0.8097472	例 ) 第
-1.0647346	當 中 第
-1.2738503	忘 錄 第
-1.1497347	根 據 第
-0.7488134	另 外 第
-1.4118414	) 條 第
-0.56494206	損 害 第
-0.5922245	文 訂 明
-0.47844058	條 訂 明
-0.3173136	文 寫 明
-0.3173136	序 寫 明
-0.3173136	異 寫 明
-0.68387675	乏 透 明
-0.807902	文 中 引
-0.082632765	( 我 引
-0.569064	的 吸 引
-0.82678556	在 不 損
-0.56992155	不 損 害
-0.4880335	) ( a
-0.890432	一 ( a
-0.6061906	須 ( a
-0.8373622	條 的 原
-0.569064	的 原 則
-0.4623213	展 圖 則
-0.79567134	品 否 則
-0.75584745	或 未 就
-1.1921301	局 須 就
-0.7884963	就 關 於
-0.8221785	議 在 於
-0.806967	則 對 於
-0.5683743	下 位 於
-0.80300033	米 的 展
-0.3619586	備 發 展
-0.43216985	九 發 展
-0.43216985	於 發 展
-0.6820822	) 已 展
-0.56768566	及 策 展
-0.6820822	寶 級 展
-0.6248834	單 一 或
-1.2590078	發 展 或
-1.2863841	設 施 或
-0.7270638	積 又 或
-1.0365092	精 神 或
-0.9362134	一 點 或
-0.7783646	擔 但 營
-0.8146126	否 為 營
-1.5142406	管 理 營
-0.76760817	測 到 營
-0.7783646	展 或 營
-0.53785723	這 些 營
-0.09862338	但 營 運
-0.09862338	為 營 運
-0.08737576	理 營 運
-0.09862338	到 營 運
-0.09862338	或 營 運
-0.08737576	些 營 運
-1.4190776	營 運 藝
-0.56992155	運 藝 術
-0.63793266	任 為 設
-1.1401517	認 為 設
-0.63793266	成 為 設
-1.3139483	相 關 設
-1.8115473	香 港 設
-1.2771946	文 化 設
-0.7260718	附 屬 設
-1.0344887	負 責 設
-0.68029505	儲 存 設
-0.37713313	關 設 施
-0.31933978	化 設 施
-0.37713313	屬 設 施
-0.37713313	存 設 施
-0.56953526	火 措 施
-1.1406448	當 然 相
-0.8201166	慮 我 相
-0.72409457	府 向 相
-1.5313405	公 開 相
-0.8601396	小 組 相
-0.6785152	太 高 相
-1.2767202	設 施 相
-0.56494206	保 證 相
-0.72409457	寧 願 相
-0.81592226	施 及 附
-0.569064	及 附 屬
-1.069088	投 標 屬
-0.569064	自 己 屬
-0.7874503	的 事 宜
-1.4207404	顧 問 其
-1.8115473	香 港 其
-1.0206227	那 麼 其
-1.1660697	化 區 其
-1.2809029	任 何 其
-0.7509067	在 於 其
-1.0344887	負 責 其
-1.3099446	委 任 他
-0.47264463	港 其 他
-0.47264463	區 其 他
-0.47264463	何 其 他
-1.586446	我 們 認
-1.1211559	身 份 認
-1.3780267	理 局 認
-0.10161291	該 局 認
-1.4301438	絕 對 認
-0.79104364	感 更 認
-0.56631166	似 乎 認
-0.56631166	民 族 認
-0.40204465	認 為 適
-0.7836955	為 合 適
-1.2185425	) 在 該
-0.7533403	宜 在 該
-0.46183732	間 藉 該
-0.7540657	麼 呢 該
-0.5061918	案 應 該
-0.5061918	更 應 該
-0.9267333	當 的 時
-1.1630794	問 題 時
-0.5061918	一 小 時
-0.5061918	四 小 時
-0.5681172	圖 則 時
-0.5848727	時 間 藉
-0.9219222	當 的 方
-1.0996332	在 這 方
-0.7839441	准 下 方
-0.74101603	在 局 方
-0.74101603	件 局 方
-1.5881436	成 本 方
-0.8030361	向 對 方
-0.43323678	零 平 方
-0.36277258	百 平 方
-0.5656264	明 甲 方
-0.611462	的 方 式
-0.56953526	種 模 式
-1.5068231	法 會 又
-1.4298059	) 條 又
-0.569064	面 積 又
-1.4349216	顧 問 呢
-1.2433882	甚 麼 呢
-0.81348	好 事 呢
-1.0735425	多 大 呢
-1.1072654	為 這 項
-1.2093639	工 程 項
-1.0934702	其 他 項
-0.7702438	呢 該 項
-1.005298	) 在 擬
-0.8752886	發 展 圖
-0.814147	及 ( b
-0.8263127	任 政 務
-0.61890954	政 事 務
-0.61890954	其 事 務
-0.61890954	師 事 務
-1.2980357	館 的 長
-0.8211934	局 局 長
-0.4352852	司 司 長
-0.4352852	宗 司 長
-1.7120903	主 席 另
-1.8536409	宮 館 另
-0.75512385	局 長 另
-0.8327324	意 的 顧
-1.1069083	所 有 顧
-0.76760817	前 期 顧
-0.7311314	設 計 顧
-1.1815879	局 須 顧
-0.8642063	萬 元 顧
-1.3430051	a ) 款
-0.43487474	的 捐 款
-0.43487474	有 捐 款
-0.7546077	第 四 款
-0.5683743	的 撥 款
-0.4352852	能 進 行
-0.4352852	款 進 行
-0.7300534	計 劃 行
-1.1901569	能 否 行
-0.8085918	詢 中 接
-0.15778092	之 直 接
-0.15778092	標 直 接
-0.15778092	奇 直 接
-0.15778092	被 直 接
-0.81445	民 的 意
-0.81445	獲 的 意
-1.3712347	公 眾 意
-0.72905463	己 屬 意
-0.72905463	人 願 意
-0.98258626	有 預 見
-0.41765052	的 意 見
-0.50670403	眾 意 見
-0.68387675	有 遠 見
-1.2489561	條 文 寫
-0.9394404	這 樣 寫
-1.1630794	程 序 寫
-0.5683743	小 異 寫
-1.3562855	可 能 要
-1.1274128	寫 明 要
-0.6820822	而 且 要
-0.80669117	贊 成 要
-0.19640157	不 需 要
-0.22586808	館 需 要
-0.22586808	能 需 要
-1.3712347	公 眾 並
-1.4420748	宮 館 並
-1.4288672	物 館 並
-0.79450977	工 作 並
-1.6168212	成 本 並
-0.7307365	過 而 且
-0.77164197	眾 並 且
-1.9075431	政 府 尊
-0.6844908	並 且 尊
-0.32043856	府 尊 重
-0.32043856	且 尊 重
-0.75652134	更 嚴 重
-0.9421738	尊 重 收
-0.56953526	門 券 收
-0.68499416	重 收 集
-0.76979434	該 獲 得
-0.5683743	收 集 得
-0.7297369	價 定 得
-0.5683743	夠 稱 得
-0.8247988	樣 一 來
-0.8064823	支 後 來
-1.2699021	需 要 來
-0.7519572	集 得 來
-0.7208474	港 本 來
-0.7208474	個 本 來
-0.5669981	物 帶 來
-1.6125147	諮 詢 便
-1.4912548	法 會 便
-1.2037151	工 程 便
-0.7270638	代 價 便
-1.4168084	招 標 便
-0.5669981	不 久 便
-0.83490944	支 的 工
-1.8414336	宮 館 工
-0.7884963	策 展 工
-0.8149212	基 本 工
-0.8265707	疑 是 違
-0.80087006	已 經 違
-0.8683114	最 終 違
-0.22643283	是 違 反
-0.22643283	經 違 反
-0.22643283	終 違 反
-0.8367494	例 的 精
-1.0212086	條 例 精
-0.320594	的 精 神
-0.27433395	例 精 神
-0.7914895	例 當 初
-1.1272781	立 的 目
-0.81042945	訂 立 目
-0.72905463	大 數 目
-0.5061918	程 項 目
-0.5061918	他 項 目
-0.7913629	是 保 障
-1.2980357	館 的 規
-1.7798997	西 九 規
-0.7300534	做 壞 規
-0.75584745	展 計 劃
-0.43556553	的 規 劃
-0.43556553	九 規 劃
-0.8160114	劃 開 誠
-0.593261	但 最 終
-0.593261	館 最 終
-1.640406	諮 詢 秘
-0.68499416	秘 密 統
-0.56992155	密 統 籌
-1.2917415	館 的 同
-1.1603774	希 望 同
-0.8056032	亦 大 同
-0.47220308	份 認 同
-0.47220308	更 認 同
-0.47220308	族 認 同
-0.4344647	員 贊 同
-0.4344647	我 贊 同
-0.76493394	是 這 樣
-0.76493394	信 這 樣
-0.7904254	的 同 樣
-0.81906223	樣 是 特
-0.8182069	並 不 特
-1.1471144	問 題 特
-1.501851	香 港 特
-1.7746223	宮 館 特
-0.80695045	特 事 特
-0.77391684	事 出 特
-1.2572148	需 要 特
-0.677628	不 算 特
-0.5642589	問 號 特
-1.1114916	這 不 禁
-0.56953526	不 禁 令
-0.7964658	款 更 令
-1.0826421	令 人 懷
-0.7686652	這 是 否
-0.7686652	驗 是 否
-0.7752816	竟 有 否
-1.0171841	局 有 否
-0.6589937	們 能 否
-0.6589937	竟 能 否
-0.6589937	又 能 否
-0.5683743	展 品 否
-1.1937523	能 否 仍
-0.53185606	我 相 信
-0.53185606	高 相 信
-0.53185606	願 相 信
-0.569064	否 仍 信
-1.069088	邀 標 信
-0.6184466	在 簽 署
-0.50529736	布 簽 署
-0.50529736	鄭 簽 署
-0.6241382	開 館 之
-1.2880719	忘 錄 之
-0.75301015	劃 行 之
-1.07358	落 成 之
-0.56768566	換 言 之
-0.81571513	局 ) 已
-1.0440314	迅 奇 已
-0.77164197	為 期 八
-0.81529737	七 及 八
-0.68499416	期 八 星
-1.8194467	香 港 本
-1.3065795	這 個 本
-0.7704592	這 根 本
-1.1576922	根 據 本
-0.6811877	的 基 本
-0.37316343	物 成 本
-0.37316343	建 成 本
-0.05428573	運 成 本
-0.3162193	其 成 本
-0.37316343	養 成 本
-0.8360021	奏 的 先
-0.78964186	立 下 先
-0.8145779	方 事 先
-0.7312964	下 先 斬
-0.81156933	斬 後 奏
-0.8215848	息 這 絕
-0.821486	席 我 絕
-1.4601499	能 夠 絕
-1.3341885	今 次 絕
-0.7850777	先 例 絕
-1.5951374	成 本 絕
-0.86284655	萬 元 絕
-1.8067445	宮 館 對
-0.8238057	此 一 對
-0.7260718	須 向 對
-1.2166564	可 以 對
-0.7260718	否 則 對
-0.1521653	我 絕 對
-0.1521653	夠 絕 對
-0.1521653	次 絕 對
-0.1521653	例 絕 對
-0.1521653	本 絕 對
-0.1521653	元 絕 對
-0.56631166	後 針 對
-0.8279157	對 是 做
-0.56953526	是 做 壞
-0.32043856	是 破 壞
-0.32043856	氣 破 壞
-0.73155373	壞 規 矩
-1.2805504	的 是 如
-0.76489395	但 是 如
-0.14520246	正 因 如
-1.3323216	因 為 如
-0.8019505	疑 問 如
-0.86149096	甚 至 如
-0.5656264	規 矩 如
-0.5656264	不 菲 如
-0.86149096	展 廳 如
-1.2948773	人 的 國
-0.6874516	跟 中 國
-0.6874516	同 中 國
-0.7806057	更 多 國
-1.3354548	涉 及 國
-0.80907345	國 大 陸
-0.6891065	或 大 型
-0.54294765	別 大 型
-0.8367494	局 的 基
-1.0440314	大 型 基
-1.088035	述 的 採
-0.81445	效 的 採
-0.7540657	建 也 採
-1.0513206	亦 須 採
-1.0076511	項 目 採
-0.75613636	也 採 用
-0.56953526	要 動 用
-0.8268424	用 這 種
-0.56992155	這 種 模
-0.68499416	模 式 繞
-0.61852163	物 館 那
-1.0973725	上 馬 那
-1.8546454	香 港 市
-1.1342496	意 見 還
-0.7817306	有 何 價
-0.7300534	的 代 價
-0.569064	票 售 價
-0.7312964	何 價 值
-0.7564408	否 行 使
-0.56992155	行 使 監
-0.56992155	使 監 察
-0.56992155	監 察 權
-1.3343357	議 案 應
-0.8244357	者 不 應
-0.79450977	府 更 應
-0.7948071	質 亦 應
-0.75584745	獲 得 通
-0.7307365	平 常 通
-0.6432027	且 要 求
-0.6432027	成 要 求
-0.8262788	呢 這 與
-1.1150631	所 有 與
-0.7825	太 多 包
-1.2814345	文 件 包
-0.68499416	件 包 括
-1.3373152	會 議 紀
-1.1147528	另 一 爭
-1.4435936	一 個 爭
-1.2079076	不 經 招
-1.2917013	任 何 招
-1.169934	公 開 招
-0.61960757	限 性 招
-0.5061918	擇 性 招
-0.76979434	的 目 標
-0.15759312	經 招 標
-0.15759312	何 招 標
-0.13846865	開 招 標
-0.13846865	性 招 標
-0.31997085	出 邀 標
-0.31997085	獲 邀 標
-0.31997085	知 投 標
-0.31997085	交 投 標
-0.7300534	政 務 司
-0.7305466	務 司 司
-0.569064	建 宗 司
-0.9838087	司 長 林
-1.0302244	看 看 林
-0.320594	長 林 鄭
-0.320594	看 林 鄭
-0.73155373	鄭 月 娥
-0.82678556	後 不 久
-0.7831309	久 便 傳
-1.8054506	理 局 欽
-0.6269612	這 一 點
-0.56953526	局 欽 點
-1.5223533	的 是 嚴
-0.72905463	欽 點 嚴
-0.79450977	標 更 嚴
-0.6829785	委 聘 嚴
-0.31763378	是 嚴 迅
-0.31763378	點 嚴 迅
-0.31763378	聘 嚴 迅
-0.12392206	嚴 迅 奇
-0.7702438	言 之 直
-1.4263004	招 標 直
-1.0405784	迅 奇 直
-0.72905463	但 被 直
-1.2952148	文 物 成
-1.2651589	興 建 成
-0.26942542	營 運 成
-0.61654717	麼 其 成
-0.61654717	於 其 成
-0.74777055	任 他 成
-0.7231093	會 造 成
-1.1471144	保 養 成
-0.4589445	館 落 成
-0.7249101	們 贊 成
-0.5642589	否 達 成
-0.8373622	問 的 消
-0.56992155	的 消 息
-0.82678556	絕 不 尋
-0.78964186	其 日 常
-0.569064	不 尋 常
-0.7305466	會 平 常
-0.7311	臺 北 都
-1.0108509	項 目 都
-0.82211673	館 有 更
-1.8307132	政 府 更
-1.4180316	一 個 更
-1.0001366	捐 款 更
-1.5881436	成 本 更
-1.4075193	招 標 更
-0.5656264	參 觀 更
-0.5656264	同 感 更
-0.7817306	不 但 被
-0.822324	不 會 被
-0.7555156	不 應 被
-0.77164197	便 獲 聘
-1.2422588	接 委 聘
-0.8191763	聘 為 前
-0.7972296	關 建 築
-0.56992155	建 築 師
-0.6610924	所 支 付
-0.6610924	費 支 付
-1.9075431	政 府 付
-1.8356904	香 港 四
-0.7948071	付 了 四
-0.79986835	條 第 四
-0.5683743	金 額 四
-0.75512385	七 六 百
-0.78228605	七 五 百
-0.50670403	了 四 百
-0.50670403	額 四 百
-0.7710819	五 十 萬
-0.4629228	十 萬 元
-1.4430822	顧 問 費
-0.8015551	夠 經 費
-0.8023875	然 相 比
-0.5739348	館 對 比
-0.5739348	一 對 比
-0.5739348	以 對 比
-1.5068231	法 會 平
-0.68387675	七 零 平
-0.4352852	六 百 平
-0.4352852	五 百 平
-1.1320996	過 的 撥
-0.77225727	撥 款 申
-0.56992155	款 申 請
-1.1320996	及 的 金
-0.56992155	的 金 額
-1.1308925	大 的 代
-0.43556553	有 交 代
-0.43556553	何 交 代
-0.8273097	便 是 破
-0.56953526	天 氣 破
-0.82863605	之 有 效
-1.6294731	成 本 效
-0.41811568	的 採 購
-0.5073406	目 採 購
-0.676338	的 程 序
-0.13555714	購 程 序
-0.623657	或 局 限
-0.8360021	性 的 性
-0.4623213	局 限 性
-0.569064	選 擇 性
-0.7312964	事 先 批
-0.56992155	先 批 准
-0.7825	發 出 邀
-0.77164197	行 獲 邀
-0.7307365	應 被 告
-0.56953526	問 報 告
-0.7825	告 知 投
-0.7311	呈 交 投
-0.75664526	的 性 質
-1.3185443	議 案 亦
-0.8208008	點 我 亦
-1.1187019	身 份 亦
-0.7498588	此 外 亦
-1.4147843	) 條 亦
-1.0524573	局 方 亦
-1.0324776	大 型 亦
-0.5656264	性 質 亦
-0.75664526	亦 應 按
-0.56992155	應 按 照
-0.82903624	照 一 貫
-0.81592226	開 及 選
-0.56992155	及 選 擇
-1.1691967	程 序 呈
-0.82784796	未 有 交
-1.2953612	任 何 交
-0.569064	序 呈 交
-1.7207768	主 席 換
-0.56992155	席 換 言
-0.82470924	在 我 剛
-1.6208361	我 們 剛
-0.5943283	剛 才 提
-0.56953526	承 諾 提
-1.5706211	公 開 缺
-0.56992155	開 缺 乏
-1.3411533	議 案 透
-0.56953526	缺 乏 透
-0.7712165	透 明 度
-0.68387675	的 濕 度
-0.569064	和 溫 度
-1.9075431	政 府 每
-0.6844908	府 每 每
-0.80615795	出 特 殊
-1.8536409	宮 館 將
-1.0289936	理 由 將
-1.7937553	理 局 將
-0.80615795	事 特 辦
-0.80211663	的 經 驗
-1.2307098	以 後 針
-0.7642426	可 不 需
-1.1160213	對 不 需
-1.8536409	宮 館 需
-1.3616449	可 能 需
-1.283772	需 要 動
-1.3099446	委 任 自
-0.7904254	要 來 自
-0.68499416	任 自 己
-0.68499416	這 與 利
-0.68387675	券 收 益
-0.68387675	本 效 益
-0.569064	與 利 益
-0.7312964	利 益 輸
-1.2503763	甚 麼 差
-0.55451334	不 特 別
-0.55451334	算 特 別
-0.55451334	號 特 別
-0.56953526	麼 差 別
-0.8230702	能 會 造
-0.64277816	和 建 造
-0.64277816	劃 建 造
-1.2307098	以 後 貪
-0.56992155	後 貪 污
-0.8373622	污 的 誘
-0.8202606	主 席 正
-1.6337577	成 本 雖
-1.1043632	馬 會 承
-0.77164197	作 並 承
-0.8145354	慮 及 擔
-0.68387675	會 承 擔
-0.75603783	力 負 擔
-0.6608519	這 方 面
-0.6608519	本 方 面
-0.56953526	陳 列 面
-1.9158866	政 府 卻
-1.6008031	我 們 看
-0.8201445	們 會 看
-1.2221427	可 以 看
-0.77948374	又 或 看
-0.590909	以 看 看
-0.590909	或 看 看
-0.82123286	局 會 負
-0.8088738	成 後 負
-0.72905463	局 將 負
-0.6829785	能 力 負
-0.31763378	會 負 責
-0.31763378	後 負 責
-0.31763378	將 負 責
-0.81592226	理 及 策
-0.68499416	並 承 諾
-0.7312964	諾 提 供
-0.56992155	提 供 足
-0.82863605	府 有 遠
-0.75584745	的 長 遠
-0.6004331	運 和 維
-1.0818607	施 以 維
-0.5403083	和 維 修
-0.47280875	知 保 養
-0.47280875	物 保 養
-0.39262384	修 保 養
-0.77630514	會 有 七
-0.59676814	裏 有 七
-1.1134319	零 一 七
-1.1984768	五 十 七
-0.79106796	六 日 張
-0.7972296	張 建 宗
-1.8054506	理 局 董
-0.77089155	國 民 身
-0.8360021	席 的 身
-1.316839	這 個 身
-0.75664526	同 小 異
-1.1346401	寫 明 甲
-0.80198234	甲 方 即
-1.4529663	宮 館 落
-1.4368387	物 館 落
-1.2718503	對 不 菲
-0.8084732	讓 大 家
-0.77164197	及 國 家
-0.8284756	家 一 級
-0.56953526	國 寶 級
-0.79711735	本 更 驚
-0.8277918	持 一 定
-0.8050744	要 特 定
-0.7300534	售 價 定
-1.1320996	定 的 儲
-0.56953526	的 儲 存
-1.2096664	憂 慮 存
-1.1308925	定 的 濕
-0.56953526	港 潮 濕
-0.7831309	度 和 溫
-0.7913629	夠 保 證
-1.8546454	香 港 潮
-0.68499416	的 天 氣
-0.75664526	須 採 取
-1.0309782	很 多 防
-0.56992155	多 防 火
-0.56992155	防 火 措
-0.7913629	以 保 護
-0.82165927	否 能 力
-0.7311	吸 引 力
-0.76493394	代 這 些
-0.76493394	擔 這 些
-0.8284756	的 一 些
-0.6844908	院 除 非
-0.77164197	本 並 非
-1.3483047	如 果 門
-0.6844908	並 非 門
-0.68499416	非 門 券
-1.2311834	可 以 覆
-0.56992155	以 覆 蓋
-0.68499416	果 門 票
-0.56992155	門 票 售
-1.643485	沒 有 太
-0.75584745	定 得 太
-0.8006127	府 所 願
-1.2267965	有 人 願
-0.569064	亦 寧 願
-0.75664526	願 意 參
-0.56992155	意 參 觀
-0.8261986	館 不 算
-0.75584745	出 預 算
-1.8054506	理 局 網
-0.56992155	局 網 站
-0.68499416	的 資 料
-0.1463596	平 方 米
-0.60546666	的 展 廳
-1.045123	一 下 位
-0.7564408	位 於 沙
-0.56992155	於 沙 田
-0.71297044	館 那 裏
-0.7726528	的 陳 列
-0.7312964	列 面 積
-1.8546454	香 港 歷
-0.56992155	港 歷 史
-1.4892571	能 夠 稱
-0.8191763	上 為 旗
-0.56992155	為 旗 艦
-1.4860595	能 夠 打
-0.9421738	方 面 打
-0.8089895	個 問 號
-0.68499416	能 忘 記
-1.534559	的 是 距
-0.56992155	是 距 離
-0.5848727	小 時 飛
-0.5403083	飛 機 航
-1.1320996	程 的 臺
-0.77225727	多 國 寶
-0.79106796	級 展 品
-0.7564408	對 於 遊
-0.56992155	於 遊 客
-0.8373622	客 的 吸
-1.263173	議 員 贊
-1.2684128	此 我 贊
-1.6156511	我 們 贊
-1.4458266	顧 問 報
-0.7564408	看 清 楚
-1.1163139	局 有 考
-0.56953526	有 考 慮
-0.19679329	的 憂 慮
-0.22633545	人 憂 慮
-0.22633545	些 憂 慮
-0.7972296	我 亦 寧
-0.7564408	見 預 測
-1.3924512	是 一 筆
-0.79711735	此 作 充
-0.56992155	作 充 分
-0.56992155	充 分 準
-0.7564408	自 外 界
-1.2410846	人 的 憂
-1.0899941	及 的 憂
-1.0798557	令 人 憂
-0.68387675	一 些 憂
-0.78327584	要 由 納
-0.56992155	由 納 稅
-0.81156933	稅 人 埋
-1.9158866	政 府 似
-0.56992155	府 似 乎
-1.3634889	可 能 增
-1.4860595	能 夠 增
-0.320594	能 增 加
-0.320594	夠 增 加
-0.77225727	的 民 族
-1.178828	認 同 感
-1.1342496	身 份 毋
-0.56992155	份 毋 庸
-0.56992155	毋 庸 置
-1.8692863	宮 館 把
-1.3266019	文 物 帶
-1.1937523	能 否 達
-0.8292824	我 有 極
-0.68499416	多 包 袱
-1.4860595	能 夠 釐
-0.56953526	到 篤 釐
-1.0122135	應 該 鼓
-0.56992155	該 鼓 勵
-0.68499416	夠 打 爛
-0.56992155	打 爛 砂
-0.56992155	爛 砂 盆
-0.77225727	問 到 篤
-0.8091573	清 過 去
-1.4516495	絕 對 熱
-0.56992155	對 熱 烈
-0.56992155	熱 烈 歡
-0.56992155	烈 歡 迎
-0.8250955	持 我 謹
-0.7726528	此 陳 辭

\end\
