\data\
ngram 1=286
ngram 2=663
ngram 3=807

\1-grams:
-2.9688625	<unk>	0
0	<s>	-0.057991948
-2.7642841	</s>	0
-2.7029893	好	-0.30103
-1.5853148	的	-0.097394995
-2.195526	剛	-0.588696
-2.7029893	才	-0.057991948
-1.9625815	有	-0.10720997
-1.8564734	同	-0.43696412
-2.195526	事	-0.057991948
-2.103297	說	-0.057991948
-2.103297	設	-0.13966198
-2.0272648	立	-0.2820622
-2.195526	故	-0.588696
-2.7642841	宮	-0.057991948
-2.7029893	館	-0.057991948
-1.7712666	政	-0.44963267
-2.7642841	治	-0.057991948
-2.7029893	目	-0.057991948
-2.312773	或	-0.057991948
-1.8117837	是	-0.057991948
-2.7029893	獻	-0.30103
-2.7642841	媚	-0.057991948
-1.6389115	我	-0.27739856
-2.312773	絕	-0.057991948
-1.7000664	不	-0.11940627
-2.195526	意	-0.057991948
-2.7642841	老	-0.057991948
-2.195526	實	-0.057991948
-2.103297	這	-0.13966198
-2.312773	本	-0.057991948
-2.7642841	質	-0.057991948
-2.0272648	上	-0.10145763
-2.7029893	對	-0.057991948
-2.7642841	杞	-0.057991948
-2.103297	人	-0.057991948
-2.7642841	憂	-0.057991948
-2.7642841	天	-0.057991948
-2.7642841	違	-0.057991948
-2.7029893	反	-0.057991948
-2.312773	市	-0.46375728
-2.7029893	民	-0.057991948
-2.312773	願	-0.20412
-2.7642841	基	-0.057991948
-2.7642841	們	-0.057991948
-2.7642841	收	-0.057991948
-2.7029893	取	-0.057991948
-2.7642841	國	-0.057991948
-2.7029893	家	-0.057991948
-2.7642841	送	-0.057991948
-1.8564734	一	-0.09691001
-2.7642841	份	-0.057991948
-1.7712666	大	-0.46018285
-2.7642841	禮	-0.057991948
-2.7642841	怎	-0.057991948
-2.7642841	得	-0.057991948
-2.195526	此	-0.057991948
-2.7642841	外	-0.057991948
-1.906295	聯	-0.88972604
-2.103297	合	-0.21511538
-2.7642841	小	-0.057991948
-2.7642841	組	-0.057991948
-2.195526	委	-0.32188013
-2.195526	員	-0.057991948
-1.8117837	會	-0.15296747
-2.7029893	主	-0.30103
-2.7029893	席	-0.057991948
-2.7029893	務	-0.057991948
-2.312773	司	-0.20412
-2.7029893	長	-0.057991948
-2.195526	及	-0.057991948
-2.7029893	局	-0.057991948
-2.7642841	常	-0.057991948
-2.7029893	任	-0.057991948
-2.7642841	秘	-0.057991948
-2.7642841	書	-0.057991948
-2.103297	多	-0.10720997
-2.7029893	次	-0.057991948
-2.195526	出	-0.11471957
-2.0272648	議	-0.09691001
-2.312773	就	-0.057991948
-2.103297	和	-0.057991948
-2.7642841	溝	-0.057991948
-2.7029893	通	-0.057991948
-2.195526	很	-0.32188013
-1.6684134	在	-0.18888004
-2.195526	提	-0.25473
-2.103297	問	-0.25473
-2.7642841	官	-0.057991948
-2.0272648	西	-0.7647873
-2.7642841	九	-0.057991948
-2.7642841	管	-0.057991948
-2.7029893	理	-0.057991948
-2.195526	也	-0.1627273
-2.103297	解	-0.25473
-2.7642841	答	-0.057991948
-2.7642841	未	-0.057991948
-2.7642841	來	-0.057991948
-2.0272648	可	-0.33391124
-2.195526	以	-0.11471957
-2.7029893	繼	-0.30103
-2.7642841	續	-0.057991948
-2.103297	討	-0.68560606
-2.7642841	論	-0.057991948
-2.7642841	看	-0.057991948
-2.312773	到	-0.057991948
-2.7642841	釋	-0.057991948
-2.0272648	所	-0.33391124
-2.7642841	知	-0.057991948
-2.7029893	將	-0.057991948
-2.7642841	下	-0.057991948
-2.7029893	文	-0.30103
-2.7642841	化	-0.057991948
-2.7642841	區	-0.057991948
-2.7029893	計	-0.057991948
-2.7029893	劃	-0.30103
-2.7029893	題	-0.057991948
-2.7029893	該	-0.057991948
-2.195526	場	-0.30103
-2.312773	清	-0.46375728
-2.7642841	楚	-0.057991948
-2.312773	再	-0.057991948
-2.7642841	者	-0.057991948
-2.103297	如	-0.41879016
-2.312773	果	-0.057991948
-2.7029893	想	-0.057991948
-2.7029893	了	-0.057991948
-2.7029893	更	-0.30103
-2.7642841	確	-0.057991948
-2.7642841	還	-0.057991948
-2.7029893	跟	-0.30103
-2.195526	進	-0.25473
-2.312773	過	-0.20412
-2.7029893	去	-0.057991948
-1.9625815	希	-0.83173406
-2.7642841	望	-0.057991948
-2.7029893	些	-0.057991948
-2.7029893	向	-0.057991948
-2.7642841	府	-0.057991948
-2.312773	表	-0.20412
-2.312773	達	-0.057991948
-2.195526	而	-0.1627273
-2.312773	相	-0.46375728
-2.7029893	關	-0.057991948
-2.7029893	認	-0.30103
-2.7029893	為	-0.057991948
-2.7642841	宜	-0.057991948
-2.7642841	完	-0.057991948
-2.7029893	全	-0.057991948
-2.7029893	交	-0.057991948
-2.7029893	由	-0.057991948
-2.7642841	處	-0.057991948
-2.312773	支	-0.46375728
-2.7642841	持	-0.057991948
-2.7029893	項	-0.057991948
-2.7642841	案	-0.057991948
-2.7642841	另	-0.057991948
-2.7029893	方	-0.057991948
-2.7642841	面	-0.057991948
-2.7642841	談	-0.057991948
-2.312773	否	-0.057991948
-2.7642841	行	-0.057991948
-2.195526	諮	-0.588696
-2.7642841	詢	-0.057991948
-2.7642841	師	-0.057991948
-2.195526	內	-0.057991948
-2.103297	地	-0.090176634
-2.7642841	與	-0.057991948
-2.7029893	香	-0.30103
-2.7642841	港	-0.057991948
-2.7642841	最	-0.057991948
-2.7642841	初	-0.057991948
-2.312773	成	-0.057991948
-1.9625815	作	-0.10145763
-2.7642841	林	-0.057991948
-2.7642841	鄭	-0.057991948
-2.7642841	月	-0.057991948
-2.7642841	娥	-0.057991948
-2.7642841	女	-0.057991948
-2.7029893	士	-0.057991948
-2.7642841	宣	-0.057991948
-2.7029893	布	-0.057991948
-2.195526	已	-0.057991948
-2.7029893	簽	-0.30103
-2.7642841	署	-0.057991948
-2.7642841	備	-0.057991948
-2.7029893	忘	-0.057991948
-2.7642841	錄	-0.057991948
-2.7029893	公	-0.057991948
-2.7029893	後	-0.057991948
-2.7642841	段	-0.057991948
-2.7642841	時	-0.057991948
-2.7642841	間	-0.057991948
-2.7642841	眾	-0.057991948
-2.7642841	結	-0.057991948
-2.7642841	映	-0.057991948
-2.103297	興	-0.41879016
-2.7029893	建	-0.057991948
-2.7642841	非	-0.057991948
-2.7642841	沒	-0.057991948
-2.7642841	根	-0.057991948
-2.7642841	據	-0.057991948
-2.7642841	協	-0.057991948
-2.195526	個	-0.057991948
-2.7029893	應	-0.057991948
-2.7642841	贊	-0.057991948
-2.7642841	位	-0.057991948
-2.7642841	發	-0.057991948
-2.7642841	言	-0.057991948
-2.7642841	中	-0.057991948
-2.7029893	指	-0.30103
-2.7642841	控	-0.057991948
-2.7029893	都	-0.057991948
-2.7642841	盡	-0.057991948
-2.7029893	明	-0.30103
-2.7642841	白	-0.057991948
-2.7029893	甚	-0.057991948
-2.7642841	至	-0.057991948
-2.312773	其	-0.20412
-2.7642841	他	-0.057991948
-2.7029893	能	-0.057991948
-2.7642841	當	-0.057991948
-2.7642841	博	-0.057991948
-2.7642841	物	-0.057991948
-2.7642841	選	-0.057991948
-2.7642841	址	-0.057991948
-2.7029893	原	-0.30103
-2.7642841	用	-0.057991948
-2.7642841	型	-0.057991948
-2.7642841	演	-0.057991948
-2.312773	要	-0.057991948
-2.7642841	麼	-0.057991948
-2.7642841	包	-0.057991948
-2.7642841	括	-0.057991948
-2.7642841	部	-0.057991948
-2.7642841	法	-0.057991948
-2.7642841	年	-0.057991948
-2.195526	啟	-0.588696
-2.7642841	德	-0.057991948
-2.7642841	體	-0.057991948
-2.7642841	育	-0.057991948
-2.7642841	園	-0.057991948
-2.7642841	撥	-0.057991948
-2.7642841	款	-0.057991948
-2.7642841	申	-0.057991948
-2.7642841	請	-0.057991948
-2.7642841	容	-0.057991948
-2.7642841	納	-0.057991948
-2.7642841	數	-0.057991948
-2.7642841	萬	-0.057991948
-2.7642841	兩	-0.057991948
-2.7642841	重	-0.057991948
-2.7642841	疊	-0.057991948
-2.7642841	規	-0.057991948
-2.7642841	效	-0.057991948
-2.7642841	受	-0.057991948
-2.7642841	影	-0.057991948
-2.7642841	響	-0.057991948
-2.7642841	充	-0.057991948
-2.7642841	分	-0.057991948
-2.7642841	評	-0.057991948
-2.7642841	估	-0.057991948
-2.7642841	單	-0.057991948
-2.7029893	樣	-0.057991948
-2.7642841	偏	-0.057991948
-2.7642841	概	-0.057991948
-2.7642841	記	-0.057991948
-2.7642841	代	-0.057991948
-2.7642841	經	-0.057991948
-2.7642841	弄	-0.057991948
-2.7642841	仍	-0.057991948
-2.7642841	索	-0.057991948
-2.7642841	資	-0.057991948
-2.7642841	料	-0.057991948
-2.7642841	求	-0.057991948
-2.7642841	功	-0.057991948
-2.7642841	聚	-0.057991948
-2.7642841	焦	-0.057991948
-2.7642841	因	-0.057991948
-2.7642841	感	-0.057991948
-2.7642841	趣	-0.057991948
-2.7642841	加	-0.057991948
-2.7642841	入	-0.057991948
-2.7642841	謹	-0.057991948
-2.7642841	陳	-0.057991948
-2.7642841	辭	-0.057991948

\2-grams:
-0.8978901	辭 </s>	0
-0.89710724	<s> 好	-0.30103
-1.4922204	很 好	-0.30103
-0.28988996	好 的	-0.30103
-1.36083	館 的	-0.30103
-1.0693824	目 的	-0.30103
-1.2677276	民 的	-0.30103
-1.36083	們 的	-0.30103
-1.444615	多 的	-0.30103
-1.4224142	出 的	-0.30103
-1.36083	區 的	-0.30103
-0.28988996	劃 的	-0.30103
-1.1911035	楚 的	-0.30103
-1.0693824	全 的	-0.30103
-1.1911035	方 的	-0.30103
-0.8305169	師 的	-0.30103
-1.5013083	地 的	-0.30103
-1.1911035	園 的	-0.30103
-0.8305169	分 的	-0.30103
-0.8305169	趣 的	-0.30103
-1.9567707	的 剛	-0.30103
-1.7428485	事 剛	-0.30103
-1.5782089	館 剛	-0.30103
-1.4481506	而 剛	-0.30103
-0.12918752	剛 才	-0.30103
-1.572938	詢 才	-0.30103
-1.3894747	才 有	-0.30103
-1.4827731	設 有	-0.30103
-1.5175458	館 有	-0.30103
-1.3894747	及 有	-0.30103
-0.8711572	面 有	-0.30103
-0.8711572	沒 有	-0.30103
-0.8711572	據 有	-0.30103
-1.7676885	的 同	-0.30103
-0.86686945	有 同	-0.30103
-1.0580208	不 同	-0.30103
-1.7765194	會 同	-0.30103
-1.5184767	如 同	-0.30103
-1.4813521	果 同	-0.30103
-1.126814	些 同	-0.30103
-1.6630656	地 同	-0.30103
-0.8627192	位 同	-0.30103
-0.22242394	同 事	-0.30103
-1.8655852	政 事	-0.30103
-1.5283884	這 事	-0.30103
-0.8841299	答 事	-0.30103
-1.7122474	事 說	-0.30103
-1.5570322	實 說	-0.30103
-0.8797624	怎 說	-0.30103
-1.611055	所 說	-0.30103
-0.8797624	單 說	-0.30103
-1.5570322	說 設	-0.30103
-1.1586542	任 設	-0.30103
-1.4185305	內 設	-0.30103
-1.3136812	建 設	-0.30103
-1.3136812	園 設	-0.30103
-0.6844309	設 立	-0.30103
-1.6711348	上 立	-0.30103
-1.4786322	和 立	-0.30103
-1.8236803	在 立	-0.30103
-1.3020366	成 立	-0.30103
-0.8754385	求 立	-0.30103
-1.6739327	立 故	-0.30103
-1.3256468	就 故	-0.30103
-1.3256468	建 故	-0.30103
-1.1669929	白 故	-0.30103
-0.12922685	故 宮	-0.47712123
-1.192236	宮 館	-0.30103
-0.89710724	物 館	-0.30103
-1.5397956	有 政	-0.30103
-1.5635772	是 政	-0.30103
-1.4479442	實 政	-0.30103
-1.5639302	上 政	-0.30103
-1.3366162	民 政	-0.30103
-1.3999385	席 政	-0.30103
-1.248082	到 政	-0.30103
-1.1117287	向 政	-0.30103
-0.5822935	而 政	-0.30103
-1.6166387	地 政	-0.30103
-0.854442	間 政	-0.30103
-1.0384833	政 治	-0.30103
-1.192236	治 目	-0.30103
-1.192236	項 目	-0.30103
-2.0069463	的 或	-0.30103
-1.6004713	實 或	-0.30103
-1.7853339	議 或	-0.30103
-1.464327	館 是	-0.30103
-1.25835	或 是	-0.30103
-1.8320163	我 是	-0.30103
-1.34924	本 是	-0.30103
-1.5833578	上 是	-0.30103
-1.1192058	對 是	-0.30103
-1.3782581	也 是	-0.30103
-1.639232	地 是	-0.30103
-1.1192058	都 是	-0.30103
-1.1192058	樣 是	-0.30103
-1.192236	治 獻	-0.30103
-1.8466767	是 獻	-0.30103
-0.3002833	獻 媚	-0.30103
-1.0830442	媚 我	-0.30103
-1.3879718	實 我	-0.30103
-0.8884262	上 我	-0.30103
-0.83834636	送 我	-0.30103
-1.2894986	此 我	-0.30103
-0.83834636	外 我	-0.30103
-1.3458679	席 我	-0.30103
-1.4740834	多 我	-0.30103
-1.5104221	議 我	-0.30103
-1.3458679	和 我	-0.30103
-0.79454696	以 我	-0.30103
-1.3458679	論 我	-0.30103
-1.3879718	題 我	-0.30103
-0.83834636	響 我	-0.30103
-0.83834636	代 我	-0.30103
-2.0386581	我 絕	-0.30103
-1.7510066	上 絕	-0.30103
-1.6656667	以 絕	-0.30103
-1.523518	是 不	-0.30103
-1.1995293	我 不	-0.30103
-1.2282469	絕 不	-0.30103
-1.3720622	家 不	-0.30103
-1.3124187	長 不	-0.30103
-1.6607006	在 不	-0.30103
-0.8463196	看 不	-0.30103
-1.0971496	了 不	-0.30103
-1.3471222	而 不	-0.30103
-1.2282469	為 不	-0.30103
-0.8463196	盡 不	-0.30103
-1.0971496	白 不	-0.30103
-0.8463196	麼 不	-0.30103
-1.9567707	的 意	-0.30103
-1.8288347	同 意	-0.30103
-0.4719609	願 意	-0.30103
-1.7227188	作 意	-0.30103
-1.5766616	意 老	-0.30103
-1.7428485	事 實	-0.30103
-1.8398958	不 實	-0.30103
-0.8841299	老 實	-0.30103
-0.4719609	其 實	-0.30103
-1.5570322	說 這	-0.30103
-1.3136812	到 這	-0.30103
-1.3136812	為 這	-0.30103
-1.3136812	持 這	-0.30103
-1.3136812	成 這	-0.30103
-1.5447241	這 本	-0.30103
-0.8885416	基 本	-0.30103
-0.29892159	原 本	-0.30103
-1.4847138	本 質	-0.30103
-1.5368404	實 上	-0.30103
-1.4037597	本 上	-0.30103
-0.8754385	質 上	-0.30103
-0.8754385	得 上	-0.30103
-1.2064962	會 上	-0.30103
-1.6986834	議 上	-0.30103
-1.3625048	絕 對	-0.30103
-1.646522	望 對	-0.30103
-1.8536967	是 杞	-0.30103
-1.9117962	的 人	-0.30103
-0.8797624	杞 人	-0.30103
-1.3136812	局 人	-0.30103
-1.4185305	個 人	-0.30103
-0.8797624	萬 人	-0.30103
-1.5766616	人 憂	-0.30103
-0.8978901	憂 天	-0.30103
-0.8978901	天 違	-0.30103
-0.89710724	違 反	-0.30103
-1.646522	果 反	-0.30103
-1.1754948	反 市	-0.30103
-1.1754948	港 市	-0.30103
-0.8885416	映 市	-0.30103
-0.18248014	市 民	-0.30103
-1.4816983	及 民	-0.30103
-1.8757521	不 願	-0.30103
-1.5337511	意 願	-0.30103
-0.5962863	也 願	-0.30103
-1.3691438	願 基	-0.30103
-0.50161606	我 們	-0.30103
-1.6509366	們 收	-0.30103
-0.89710724	收 取	-0.30103
-0.89710724	索 取	-0.30103
-1.1937817	取 國	-0.30103
-0.89710724	國 家	-0.30103
-0.74553883	大 家	-0.30103
-1.5766616	家 送	-0.30103
-1.7676885	的 一	-0.30103
-1.5768003	有 一	-0.30103
-1.4297276	意 一	-0.30103
-1.4297276	家 一	-0.30103
-0.9541565	一 一	-0.30103
-1.3891535	也 一	-0.30103
-1.4297276	論 一	-0.30103
-0.8627192	另 一	-0.30103
-1.126814	後 一	-0.30103
-1.8577172	一 份	-0.30103
-1.7103298	的 大	-0.30103
-1.4285659	設 大	-0.30103
-1.5734627	立 大	-0.30103
-0.854442	份 大	-0.30103
-1.4858043	員 大	-0.30103
-1.3999385	和 大	-0.30103
-1.4479442	果 大	-0.30103
-1.4479442	望 大	-0.30103
-1.5639302	作 大	-0.30103
-1.248082	建 大	-0.30103
-1.3366162	個 大	-0.30103
-1.9222677	大 禮	-0.30103
-0.8978901	禮 怎	-0.30103
-1.6509366	說 得	-0.30103
-1.1669929	媚 此	-0.30103
-1.3256468	就 此	-0.30103
-0.8841299	因 此	-0.30103
-0.8841299	謹 此	-0.30103
-1.4847138	此 外	-0.30103
-1.6137123	立 聯	-0.30103
-1.2796443	或 聯	-0.30103
-1.6315814	是 聯	-0.30103
-1.445425	席 聯	-0.30103
-1.2796443	次 聯	-0.30103
-0.8278146	在 聯	-0.42596874
-1.134558	由 聯	-0.30103
-0.8669177	入 聯	-0.30103
-0.059428763	聯 合	-0.86530143
-1.8528947	在 合	-0.30103
-0.5952662	場 合	-0.30103
-1.3136812	成 合	-0.30103
-0.8797624	署 合	-0.30103
-1.6599147	合 小	-0.86530143
-0.8978901	小 組	-0.86530143
-0.8841299	組 委	-0.86530143
-1.4338213	及 委	-0.30103
-1.5782089	果 委	-0.30103
-1.3256468	去 委	-0.30103
-1.5145903	人 員	-0.30103
-0.30519697	委 員	-0.71600336
-0.97839755	議 員	-0.30103
-0.8841299	官 員	-0.30103
-1.6709641	不 會	-0.30103
-1.5037106	員 會	-0.34242266
-1.1778252	會 會	-0.60206
-1.4145776	席 會	-0.30103
-1.7232327	在 會	-0.30103
-1.1192058	將 會	-0.30103
-1.464327	果 會	-0.30103
-1.34924	關 會	-0.30103
-1.25835	否 會	-0.30103
-0.85856086	法 會	-0.30103
-2.0789516	會 主	-0.30103
-1.583322	進 主	-0.30103
-0.30017024	主 席	-0.30103
-0.8404968	出 席	-0.30103
-1.8466767	事 務	-0.30103
-1.038044	政 務	-0.30103
-1.1754948	務 司	-0.30103
-1.3496118	司 司	-0.30103
-0.8885416	知 司	-0.30103
-0.4755106	司 長	-0.30103
-0.89710724	書 長	-0.30103
-1.4338213	長 及	-0.30103
-1.5444541	提 及	-0.30103
-0.8841299	談 及	-0.30103
-1.5145903	詢 及	-0.30103
-1.192236	務 局	-0.30103
-1.192236	理 局	-0.30103
-1.3647946	局 常	-0.30103
-1.4922204	委 任	-0.30103
-0.89710724	常 任	-0.30103
-1.1937817	任 秘	-0.30103
-0.8978901	秘 書	-0.30103
-1.4185305	才 多	-0.30103
-1.4185305	長 多	-0.30103
-0.30456704	很 多	-0.30103
-0.29761982	更 多	-0.30103
-1.4962392	已 多	-0.30103
-0.8977443	多 次	-0.30103
-0.89710724	下 次	-0.30103
-1.5145903	意 出	-0.30103
-1.3256468	次 出	-0.30103
-0.40088573	提 出	-0.30103
-0.9349512	作 出	-0.30103
-0.9356229	會 議	-0.35902193
-1.6389881	多 議	-0.30103
-1.5368404	題 議	-0.30103
-1.1504726	些 議	-0.30103
-1.1504726	項 議	-0.30103
-0.8754385	協 議	-0.30103
-1.7853339	議 就	-0.30103
-1.6553046	府 就	-0.30103
-1.5337511	已 就	-0.30103
-1.5570322	館 和	-0.30103
-1.9689565	我 和	-0.30103
-1.6063379	員 和	-0.30103
-0.8797624	部 和	-0.30103
-0.8797624	估 和	-0.30103
-1.6509366	們 溝	-0.30103
-0.89710724	溝 通	-0.30103
-0.89710724	年 通	-0.30103
-1.9567707	的 很	-0.30103
-1.3256468	就 很	-0.30103
-1.1669929	通 很	-0.30103
-1.4338213	個 很	-0.30103
-1.5047939	事 在	-0.30103
-1.4361302	員 在	-0.30103
-1.656946	會 在	-0.30103
-1.218659	次 在	-0.30103
-1.5117321	可 在	-0.30103
-1.4642792	以 在	-0.30103
-1.0900396	續 在	-0.30103
-1.218659	再 在	-0.30103
-1.218659	去 在	-0.30103
-1.218659	持 在	-0.30103
-1.0900396	錄 在	-0.30103
-1.218659	能 在	-0.30103
-0.84231466	括 在	-0.30103
-0.84231466	焦 在	-0.30103
-1.8398958	不 提	-0.30103
-1.7227188	上 提	-0.30103
-1.6301315	員 提	-0.30103
-0.8841299	中 提	-0.30103
-0.99978495	的 問	-0.30103
-1.59113	合 問	-0.30103
-1.6618673	多 問	-0.30103
-1.5318738	提 問	-0.30103
-1.4185305	關 問	-0.30103
-1.5857427	問 官	-0.30103
-1.5368404	說 西	-0.30103
-1.4786322	和 西	-0.30103
-0.8335571	在 西	-0.30103
-1.4786322	論 西	-0.30103
-1.1504726	將 西	-0.30103
-0.8754385	疊 西	-0.30103
-0.08174903	西 九	-0.50514996
-1.1937817	九 管	-0.30103
-0.89710724	管 理	-0.30103
-0.89710724	處 理	-0.30103
-1.5782089	實 也	-0.30103
-1.5782089	們 也	-0.30103
-1.6301315	員 也	-0.30103
-1.6301315	府 也	-0.30103
-1.7256905	一 解	-0.30103
-1.7256905	議 解	-0.30103
-1.3136812	楚 解	-0.30103
-1.1586542	了 解	-0.30103
-1.3136812	要 解	-0.30103
-1.5857427	解 答	-0.30103
-1.6509366	們 未	-0.30103
-0.8978901	未 來	-0.30103
-1.8350928	大 可	-0.30103
-0.8754385	來 可	-0.30103
-0.8754385	還 可	-0.30103
-1.1504726	全 可	-0.30103
-1.7435887	地 可	-0.30103
-0.8754385	料 可	-0.30103
-1.3256468	或 以	-0.30103
-0.3029916	可 以	-0.30103
-1.3256468	釋 以	-0.30103
-0.3029916	所 以	-0.30103
-1.8108569	上 繼	-0.30103
-1.7126751	以 繼	-0.30103
-0.3002833	繼 續	-0.30103
-1.6961614	上 討	-0.30103
-1.6214145	出 討	-0.30103
-1.4962392	和 討	-0.30103
-1.5570322	望 討	-0.30103
-1.4185305	內 討	-0.30103
-0.10012214	討 論	-0.30103
-2.125667	我 看	-0.30103
-1.8757521	不 到	-0.30103
-1.3379512	達 到	-0.30103
-0.8885416	受 到	-0.30103
-0.40372497	解 釋	-0.30103
-1.6836612	事 所	-0.30103
-1.5368404	館 所	-0.30103
-1.9378961	我 所	-0.30103
-1.6986834	議 所	-0.30103
-1.1504726	理 所	-0.30103
-1.1504726	控 所	-0.30103
-1.664924	所 知	-0.30103
-1.4816983	長 將	-0.30103
-1.646522	望 將	-0.30103
-1.9981606	在 下	-0.30103
-1.192236	宮 文	-0.30103
-1.192236	九 文	-0.60206
-0.3002833	文 化	-0.54406804
-1.1937817	化 區	-0.30103
-1.5777937	設 計	-0.30103
-1.646522	區 計	-0.30103
-1.192236	計 劃	-0.30103
-0.89710724	規 劃	-0.30103
-1.8512352	議 題	-0.30103
-0.40356538	問 題	-0.30103
-1.9909195	在 該	-0.30103
-1.192236	應 該	-0.30103
-1.8288347	同 場	-0.30103
-1.1669929	該 場	-0.30103
-1.4338213	個 場	-0.30103
-0.8841299	演 場	-0.66900676
-1.8757521	不 清	-0.30103
-1.6234426	合 清	-0.30103
-1.5574096	問 清	-0.30103
-0.18253942	清 楚	-0.30103
-1.3379512	楚 再	-0.30103
-1.6004713	果 再	-0.30103
-1.1754948	想 再	-0.30103
-1.3647946	再 者	-0.30103
-1.4962392	論 如	-0.30103
-0.8797624	者 如	-0.30103
-1.3136812	方 如	-0.30103
-1.1586542	後 如	-0.30103
-0.8797624	非 如	-0.30103
-0.2250414	如 果	-0.30103
-0.8885416	結 果	-0.30103
-0.8885416	效 果	-0.30103
-1.707943	員 想	-0.30103
-0.89710724	仍 想	-0.30103
-1.3625048	再 了	-0.30103
-1.8108569	作 了	-0.30103
-1.192236	取 更	-0.30103
-1.583322	解 更	-0.30103
-2.135048	的 確	-0.30103
-0.8978901	確 還	-0.30103
-1.192236	續 跟	-0.30103
-1.4816983	關 跟	-0.30103
-1.686019	有 進	-0.30103
-0.29827017	跟 進	-0.30103
-1.6301315	府 進	-0.30103
-1.3256468	否 進	-0.30103
-1.1754948	通 過	-0.30103
-1.5574096	進 過	-0.30103
-0.8885416	記 過	-0.30103
-2.0789516	會 去	-0.30103
-0.4755106	過 去	-0.30103
-1.6568412	是 希	-0.30103
-1.2336894	我 希	-0.30103
-1.5812575	出 希	-0.30103
-1.2906961	案 希	-0.30103
-1.1424425	都 希	-0.30103
-1.2906961	能 希	-0.30103
-1.1424425	樣 希	-0.30103
-0.069085546	希 望	-0.30103
-1.7651511	有 些	-0.30103
-1.8512352	一 些	-0.30103
-1.572938	意 向	-0.30103
-1.8512352	一 向	-0.30103
-0.34455845	政 府	-0.30103
-2.0069463	的 表	-0.30103
-1.6553046	府 表	-0.30103
-0.8885416	型 表	-0.60206
-1.3496118	表 達	-0.30103
-0.8885416	初 達	-0.30103
-1.3379512	能 達	-0.30103
-1.5782089	區 而	-0.30103
-1.3256468	達 而	-0.30103
-1.3256468	案 而	-0.30103
-1.5145903	詢 而	-0.30103
-1.1754948	對 相	-0.30103
-1.5337511	席 相	-0.30103
-1.6656667	出 相	-0.30103
-1.7651511	有 關	-0.30103
-0.18248014	相 關	-0.30103
-2.117752	我 認	-0.30103
-1.572938	人 認	-0.30103
-1.3625048	釋 為	-0.30103
-0.30017024	認 為	-0.30103
-1.8536967	事 宜	-0.30103
-0.8978901	宜 完	-0.30103
-0.89710724	完 全	-0.30103
-0.89710724	概 全	-0.30103
-1.7126751	以 交	-0.30103
-1.8108569	作 交	-0.30103
-1.192236	向 由	-0.30103
-1.192236	交 由	-0.30103
-2.0886111	會 處	-0.30103
-1.7757703	事 支	-0.30103
-1.8757521	不 支	-0.30103
-1.4496702	民 支	-0.30103
-0.18253942	支 持	-0.30103
-2.1228664	的 項	-0.30103
-0.6958615	這 項	-0.30103
-1.8577172	議 案	-0.30103
-1.3647946	案 另	-0.30103
-1.8512352	一 方	-0.30103
-1.0708705	地 方	-0.30103
-1.3647946	方 面	-0.30103
-1.8536967	事 談	-0.30103
-1.7115933	有 否	-0.30103
-1.7757703	是 否	-0.30103
-1.9843769	會 否	-0.30103
-0.40372497	進 行	-0.30103
-1.4338213	關 諮	-0.30103
-1.1669929	行 諮	-0.30103
-1.5145903	詢 諮	-0.30103
-0.8841299	眾 諮	-0.30103
-0.12922685	諮 詢	-0.30103
-1.1937817	計 師	-0.30103
-1.9420753	會 內	-0.30103
-1.3256468	局 內	-0.30103
-1.5782089	題 內	-0.30103
-1.3256468	園 內	-0.30103
-1.9117962	的 地	-0.30103
-0.5952662	場 地	-0.30103
-1.4185305	內 地	-0.30103
-0.8797624	他 地	-0.30103
-0.8797624	當 地	-0.30103
-1.9275748	地 與	-0.30103
-1.192236	目 香	-0.30103
-0.89710724	與 香	-0.30103
-0.3002833	香 港	-0.30103
-1.1937817	港 最	-0.30103
-0.8978901	最 初	-0.30103
-1.3379512	達 成	-0.30103
-1.3379512	持 成	-0.30103
-0.8885416	贊 成	-0.30103
-1.6568412	是 作	-0.30103
-0.47525728	合 作	-0.30103
-1.8353984	會 作	-0.30103
-1.5175458	題 作	-0.30103
-1.4617114	已 作	-0.30103
-0.8711572	用 作	-0.30103
-0.8711572	經 作	-0.30103
-1.1937817	由 林	-0.30103
-0.8978901	林 鄭	-0.30103
-0.8978901	鄭 月	-0.30103
-0.8978901	月 娥	-0.30103
-0.8978901	娥 女	-0.30103
-1.572938	人 士	-0.30103
-0.89710724	女 士	-0.30103
-1.1937817	士 宣	-0.30103
-0.89710724	宣 布	-0.30103
-1.192236	公 布	-0.30103
-1.5782089	們 已	-0.30103
-1.4338213	此 已	-0.30103
-1.6301315	府 已	-0.30103
-1.1669929	布 已	-0.30103
-1.4816983	才 簽	-0.30103
-1.572938	已 簽	-0.30103
-0.3002833	簽 署	-0.30103
-1.8166976	作 備	-0.30103
-0.89710724	備 忘	-0.30103
-1.3625048	要 忘	-0.30103
-1.1937817	忘 錄	-0.30103
-1.192236	行 公	-0.30103
-1.192236	錄 公	-0.30103
-1.9198536	地 後	-0.30103
-1.192236	布 後	-0.30103
-1.8577172	一 段	-0.30103
-0.8978901	段 時	-0.30103
-0.8978901	時 間	-0.30103
-1.1937817	公 眾	-0.30103
-1.5766616	詢 結	-0.30103
-1.1937817	反 映	-0.30103
-1.5570322	說 興	-0.30103
-1.9035306	會 興	-0.30103
-1.5570322	區 興	-0.30103
-1.7741282	地 興	-0.30103
-0.8797624	感 興	-0.30103
-1.646522	區 建	-0.30103
-0.22584413	興 建	-0.30103
-1.3647946	絕 非	-0.30103
-1.6509366	說 沒	-0.30103
-1.713032	府 根	-0.30103
-0.8978901	根 據	-0.30103
-1.8166976	作 協	-0.30103
-1.7428485	是 個	-0.30103
-2.0024104	我 個	-0.30103
-1.7544891	一 個	-0.30103
-0.8841299	兩 個	-0.30103
-1.953871	不 應	-0.30103
-1.707943	府 應	-0.30103
-1.1937817	應 贊	-0.30103
-1.7703353	多 位	-0.30103
-1.9981606	在 發	-0.30103
-0.8978901	發 言	-0.30103
-0.8978901	言 中	-0.30103
-2.1228664	的 指	-0.30103
-1.7651511	多 指	-0.30103
-0.3002833	指 控	-0.30103
-1.192236	士 都	-0.30103
-1.192236	控 都	-0.30103
-1.1066257	不 盡	-0.30103
-1.572938	家 明	-0.30103
-0.89710724	弄 明	-0.30103
-0.3002833	明 白	-0.30103
-1.4816983	民 甚	-0.30103
-1.3625048	為 甚	-0.30103
-1.1937817	甚 至	-0.30103
-1.9843769	會 其	-0.30103
-1.8425193	地 其	-0.30103
-0.8885416	至 其	-0.30103
-1.3691438	其 他	-0.30103
-1.646522	望 能	-0.30103
-0.89710724	功 能	-0.30103
-1.9981606	在 當	-0.30103
-1.1937817	化 博	-0.30103
-0.8978901	博 物	-0.30103
-2.135048	的 選	-0.30103
-0.8978901	選 址	-0.30103
-1.646522	區 原	-0.30103
-0.89710724	址 原	-0.30103
-1.8536967	是 用	-0.30103
-0.3445725	大 型	-0.60206
-0.47572228	表 演	-0.66900676
-1.8757521	不 要	-0.30103
-1.6656667	出 要	-0.30103
-1.1754948	該 要	-0.30103
-1.1937817	甚 麼	-0.30103
-1.3647946	釋 包	-0.30103
-0.8978901	包 括	-0.30103
-1.4847138	內 部	-0.30103
-0.37160504	立 法	-0.42596874
-1.3647946	去 年	-0.30103
-1.5145903	人 啟	-0.30103
-1.4338213	及 啟	-0.30103
-1.3405498	過 啟	-0.30103
-0.8841299	請 啟	-0.30103
-0.12922685	啟 德	-0.42596874
-0.8978901	德 體	-0.42596874
-0.8978901	體 育	-0.42596874
-0.8978901	育 園	-0.30103
-2.135048	的 撥	-0.30103
-0.8978901	撥 款	-0.30103
-0.8978901	款 申	-0.30103
-0.8978901	申 請	-0.30103
-1.664924	可 容	-0.30103
-0.8978901	容 納	-0.30103
-0.8978901	納 數	-0.30103
-0.8978901	數 萬	-0.30103
-1.9275748	地 兩	-0.30103
-2.0886111	會 重	-0.30103
-0.8978901	重 疊	-0.30103
-1.4847138	本 規	-0.30103
-2.135048	的 效	-0.30103
-1.3647946	否 受	-0.30103
-1.3647946	到 影	-0.30103
-0.8978901	影 響	-0.30103
-1.8166976	作 充	-0.30103
-0.8978901	充 分	-0.30103
-2.135048	的 評	-0.30103
-0.8978901	評 估	-0.30103
-1.4847138	才 單	-0.30103
-1.8786203	同 樣	-0.30103
-1.8512352	一 樣	-0.30103
-1.7171869	以 偏	-0.30103
-0.8978901	偏 概	-0.30103
-1.1937817	忘 記	-0.30103
-1.1937817	交 代	-0.30103
-1.5766616	已 經	-0.30103
-1.6509366	望 弄	-0.30103
-1.5766616	家 仍	-0.30103
-1.1937817	想 索	-0.30103
-2.135048	的 資	-0.30103
-0.8978901	資 料	-0.30103
-1.3647946	要 求	-0.30103
-1.5809114	這 功	-0.30103
-1.6509366	題 聚	-0.30103
-0.8978901	聚 焦	-0.30103
-1.5766616	論 因	-0.30103
-1.6509366	題 感	-0.30103
-1.5908105	興 趣	-0.30103
-1.8536967	事 加	-0.30103
-0.8978901	加 入	-0.30103
-2.125667	我 謹	-0.30103
-1.4847138	此 陳	-0.30103
-0.8978901	陳 辭	-0.30103

\3-grams:
-0.24929664	陳 辭 </s>
-0.28726852	個 很 好
-0.12119353	<s> 好 的
-0.12119353	很 好 的
-0.91440934	宮 館 的
-0.26550624	治 目 的
-0.71296203	市 民 的
-0.8333209	我 們 的
-0.57192683	更 多 的
-0.7314905	提 出 的
-0.9783251	化 區 的
-0.12119353	計 劃 的
-0.12119353	規 劃 的
-0.7014363	清 楚 的
-0.26550624	概 全 的
-0.5494418	地 方 的
-0.24118842	計 師 的
-1.1064389	場 地 的
-0.5494418	育 園 的
-0.24118842	充 分 的
-0.24118842	興 趣 的
-0.5925695	好 的 剛
-1.145457	同 事 剛
-0.28970852	物 館 剛
-0.2858242	案 而 剛
-0.05980776	的 剛 才
-0.05980776	事 剛 才
-0.05980776	館 剛 才
-0.05980776	而 剛 才
-0.9455136	諮 詢 才
-0.56800354	剛 才 有
-0.28697073	內 設 有
-0.9386028	宮 館 有
-0.283668	談 及 有
-0.24621122	方 面 有
-0.24621122	說 沒 有
-0.24621122	根 據 有
-0.29367787	趣 的 同
-0.49766016	才 有 同
-0.24570055	面 有 同
-0.26460308	絕 不 同
-0.26460308	在 不 同
-0.8749591	法 會 同
-0.28806394	非 如 同
-0.84922796	如 果 同
-0.2697521	有 些 同
-1.1345296	場 地 同
-0.24520199	多 位 同
-0.09712563	的 同 事
-0.09712563	有 同 事
-0.09712563	會 同 事
-0.09712563	如 同 事
-0.09712563	果 同 事
-0.09712563	些 同 事
-0.09712563	位 同 事
-0.29515165	民 政 事
-0.28835225	為 這 事
-0.24772945	解 答 事
-0.870636	同 事 說
-0.28915048	老 實 說
-0.24722278	禮 怎 說
-0.29052332	事 所 說
-0.24722278	才 單 說
-0.57861733	事 說 設
-0.2718907	委 任 設
-0.28477082	園 內 設
-0.28043488	區 建 設
-0.82599187	育 園 設
-0.21939154	說 設 立
-0.21939154	園 設 立
-0.867542	議 上 立
-0.28683823	部 和 立
-0.2945606	去 在 立
-0.2798886	持 成 立
-0.24671668	要 求 立
-0.5840366	設 立 故
-0.28098184	議 就 故
-0.39943835	興 建 故
-0.546622	明 白 故
-0.05982451	立 故 宮
-0.05982451	就 故 宮
-0.05982451	建 故 宮
-0.05982451	白 故 宮
-0.21842799	故 宮 館
-0.24920864	博 物 館
-0.2886763	館 有 政
-0.2893258	或 是 政
-0.57214916	其 實 政
-0.85808927	議 上 政
-0.28147075	及 民 政
-0.568784	主 席 政
-0.2771675	不 到 政
-0.26868674	一 向 政
-0.20009407	達 而 政
-0.20009407	詢 而 政
-1.1273348	場 地 政
-0.2441951	時 間 政
-0.26299822	有 政 治
-0.26299822	是 政 治
-0.5495708	政 治 目
-0.27399293	的 項 目
-0.29677686	目 的 或
-0.58079493	不 實 或
-1.1569414	會 議 或
-0.93120223	宮 館 是
-0.27771035	的 或 是
-0.29468268	外 我 是
-0.5648355	原 本 是
-0.28984025	得 上 是
-0.2692191	絕 對 是
-0.28322294	實 也 是
-1.1309173	場 地 是
-0.2692191	控 都 是
-0.2692191	同 樣 是
-0.5495708	政 治 獻
-0.29489192	上 是 獻
-0.12468968	治 獻 媚
-0.12468968	是 獻 媚
-0.53566295	獻 媚 我
-0.5678899	不 實 我
-0.24822351	實 上 我
-0.24822351	本 上 我
-0.24218835	家 送 我
-0.2792846	因 此 我
-0.24218835	此 外 我
-0.56455755	主 席 我
-0.57384086	更 多 我
-1.119147	會 議 我
-0.28187406	館 和 我
-0.23638788	釋 以 我
-0.34175393	所 以 我
-0.7230459	討 論 我
-0.283609	議 題 我
-0.24218835	影 響 我
-0.24218835	交 代 我
-0.297075	媚 我 絕
-0.29339245	質 上 絕
-0.8671098	所 以 絕
-0.28821138	都 是 不
-0.27442968	此 我 不
-0.8052579	以 我 不
-0.27608377	我 絕 不
-0.83496964	大 家 不
-0.5616904	書 長 不
-0.2916461	次 在 不
-0.2431906	我 看 不
-0.267624	作 了 不
-0.2819281	區 而 不
-0.553523	認 為 不
-0.2431906	不 盡 不
-0.5376351	明 白 不
-0.2431906	甚 麼 不
-0.2962588	民 的 意
-0.5893655	不 同 意
-0.1747954	不 願 意
-0.1747954	也 願 意
-0.8713816	合 作 意
-0.28966862	同 意 老
-0.29324892	答 事 實
-0.29479602	盡 不 實
-0.24772945	意 老 實
-0.1747954	會 其 實
-0.1747954	地 其 實
-0.28915048	實 說 這
-0.28043488	達 到 這
-0.56180227	認 為 這
-0.56180227	支 持 這
-0.28043488	贊 成 這
-0.28881374	說 這 本
-0.24823672	願 基 本
-0.12423479	區 原 本
-0.12423479	址 原 本
-0.28703243	這 本 質
-0.2885931	事 實 上
-0.28421906	基 本 上
-0.24671668	本 質 上
-0.24671668	說 得 上
-0.9238579	員 會 上
-0.2748405	在 會 上
-0.49314904	會 議 上
-0.28257895	上 絕 對
-1.1320401	希 望 對
-0.29498962	對 是 杞
-0.2957414	方 的 人
-0.24722278	是 杞 人
-0.56180227	理 局 人
-0.28477082	我 個 人
-0.24722278	數 萬 人
-0.28966862	杞 人 憂
-0.24929664	人 憂 天
-0.24929664	憂 天 違
-0.24920864	天 違 反
-0.29133812	結 果 反
-0.27296397	違 反 市
-0.5476321	香 港 市
-0.24823672	反 映 市
-0.08172553	反 市 民
-0.08172553	港 市 民
-0.08172553	映 市 民
-0.28693643	長 及 民
-0.29528677	長 不 願
-0.28850564	的 意 願
-0.20295912	員 也 願
-0.20295912	府 也 願
-0.2828531	意 願 基
-0.18208666	上 我 們
-0.18208666	送 我 們
-0.18208666	多 我 們
-0.18208666	和 我 們
-0.18208666	題 我 們
-0.18208666	響 我 們
-0.18208666	代 我 們
-1.1327124	我 們 收
-0.24920864	們 收 取
-0.24920864	想 索 取
-0.2740861	收 取 國
-0.24920864	取 國 家
-0.22927167	和 大 家
-0.22927167	果 大 家
-0.22927167	望 大 家
-0.28966862	國 家 送
-0.58747804	們 的 一
-0.2896723	設 有 一
-0.7322298	願 意 一
-0.8428806	大 家 一
-0.25526392	意 一 一
-0.25526392	也 一 一
-0.2836554	們 也 一
-0.99173313	討 論 一
-0.24520199	案 另 一
-0.2697521	布 後 一
-0.2950449	的 一 份
-0.58545816	劃 的 大
-0.2851355	建 設 大
-0.5794653	設 立 大
-0.2441951	一 份 大
-0.5745689	議 員 大
-0.28407335	我 和 大
-0.84519625	如 果 大
-0.84519625	希 望 大
-0.2893352	用 作 大
-0.8146236	興 建 大
-0.28147075	一 個 大
-0.29586664	份 大 禮
-0.24929664	大 禮 怎
-0.2914351	怎 說 得
-0.546622	獻 媚 此
-0.28098184	府 就 此
-0.24772945	論 因 此
-0.24772945	我 謹 此
-0.28703243	媚 此 外
-0.29058668	成 立 聯
-0.2787981	議 或 聯
-0.2910028	我 是 聯
-0.73377955	出 席 聯
-0.2787981	下 次 聯
-0.24083962	以 在 聯
-0.24083962	續 在 聯
-0.24083962	焦 在 聯
-0.27028576	交 由 聯
-0.2457063	加 入 聯
-0.028698657	立 聯 合
-0.028698657	或 聯 合
-0.028698657	是 聯 合
-0.028698657	席 聯 合
-0.028698657	次 聯 合
-0.021344226	在 聯 合
-0.028698657	由 聯 合
-0.028698657	入 聯 合
-0.29497853	錄 在 合
-0.20275271	同 場 合
-0.20275271	該 場 合
-0.28043488	達 成 合
-0.24722278	簽 署 合
-0.062171172	聯 合 小
-0.055079725	合 小 組
-0.05480602	小 組 委
-0.2853233	詢 及 委
-0.85947406	如 果 委
-0.56284845	過 去 委
-0.28794912	局 人 員
-0.030972365	組 委 員
-0.1263233	果 委 員
-0.1263233	去 委 員
-0.25762844	多 議 員
-0.25762844	題 議 員
-0.24772945	問 官 員
-0.29186296	麼 不 會
-0.13265112	委 員 會
-0.5892986	員 會 會
-0.547906	法 會 會
-0.73068565	出 席 會
-0.29289278	員 在 會
-0.2692191	長 將 會
-0.28637093	效 果 會
-0.72344637	相 關 會
-0.27771035	是 否 會
-0.16945226	立 法 會
-1.3076429	員 會 主
-0.57995987	跟 進 主
-0.12465194	會 主 席
-0.12465194	進 主 席
-0.24246025	意 出 席
-0.24246025	次 出 席
-0.29489192	政 事 務
-0.2629614	席 政 務
-0.2629614	到 政 務
-0.27296397	政 務 司
-0.282035	務 司 司
-0.24823672	所 知 司
-0.17568804	司 司 長
-0.17568804	知 司 長
-0.24920864	秘 書 長
-0.45376915	司 長 及
-0.28880623	不 提 及
-0.24772945	事 談 及
-0.93821204	諮 詢 及
-0.27399293	事 務 局
-0.27399293	管 理 局
-0.28267393	務 局 常
-0.28726852	及 委 任
-0.24920864	局 常 任
-0.2740861	常 任 秘
-0.24929664	任 秘 書
-0.8414147	剛 才 多
-0.57012844	書 長 多
-0.12611455	的 很 多
-0.12611455	就 很 多
-0.12611455	通 很 多
-0.12379904	取 更 多
-0.12379904	解 更 多
-0.28739333	此 已 多
-0.24928027	長 多 次
-0.24928027	已 多 次
-0.24920864	在 下 次
-0.45764476	願 意 出
-0.56284845	多 次 出
-0.34809422	上 提 出
-0.15574156	員 提 出
-0.15574156	中 提 出
-0.2533044	會 作 出
-0.2533044	經 作 出
-0.108465545	會 會 議
-0.25337422	席 會 議
-0.25337422	關 會 議
-0.7492197	很 多 議
-0.941098	問 題 議
-0.2713551	一 些 議
-0.2713551	這 項 議
-0.24671668	作 協 議
-1.1569414	會 議 就
-1.0836183	政 府 就
-0.28850564	府 已 就
-0.94360757	宮 館 和
-0.59282935	論 我 和
-0.29040995	官 員 和
-0.24722278	內 部 和
-0.24722278	評 估 和
-1.1327124	我 們 溝
-0.24920864	們 溝 通
-0.24920864	去 年 通
-0.2962588	出 的 很
-0.28098184	已 就 很
-0.27242702	溝 通 很
-0.2853233	是 個 很
-1.1071388	同 事 在
-0.57135284	議 員 在
-0.2915655	將 會 在
-0.55249906	多 次 在
-0.28786403	大 可 在
-0.57321745	可 以 在
-0.53664786	繼 續 在
-0.27554294	果 再 在
-0.55249906	過 去 在
-0.8090491	支 持 在
-0.53664786	忘 錄 在
-0.55249906	望 能 在
-0.24268913	包 括 在
-0.24268913	聚 焦 在
-0.29479602	而 不 提
-0.46495768	會 上 提
-1.3668518	委 員 提
-0.24772945	言 中 提
-0.25961778	區 的 問
-0.52284294	劃 的 問
-0.25961778	師 的 問
-0.58034396	場 合 問
-0.7506584	很 多 問
-0.57725835	上 提 問
-0.7310932	相 關 問
-0.2899008	提 問 官
-0.2885931	單 說 西
-0.28683823	員 和 西
-0.24157855	再 在 西
-0.24157855	持 在 西
-0.24157855	括 在 西
-1.0002514	討 論 西
-0.2713551	望 將 西
-0.24671668	重 疊 西
-0.038953852	說 西 九
-0.038953852	和 西 九
-0.038953852	在 西 九
-0.038953852	論 西 九
-0.038953852	將 西 九
-0.038953852	疊 西 九
-0.83862674	西 九 管
-0.24920864	九 管 理
-0.24920864	會 處 理
-0.57970476	其 實 也
-1.1208714	我 們 也
-0.29096964	人 員 也
-1.0801578	政 府 也
-0.5860245	一 一 解
-1.1504095	會 議 解
-0.71908283	清 楚 解
-0.2718907	再 了 解
-0.28043488	該 要 解
-0.2899008	一 解 答
-1.1327124	我 們 未
-0.24929664	們 未 來
-0.29472715	員 大 可
-0.24671668	未 來 可
-0.24671668	確 還 可
-0.2713551	完 全 可
-1.1455505	場 地 可
-0.24671668	資 料 可
-0.28098184	實 或 以
-0.12559164	來 可 以
-0.12559164	還 可 以
-0.12559164	全 可 以
-0.12559164	料 可 以
-0.72058624	解 釋 以
-0.12559164	館 所 以
-0.12559164	議 所 以
-0.12559164	理 所 以
-0.12559164	控 所 以
-0.75846475	會 上 繼
-0.87066674	可 以 繼
-0.12468968	上 繼 續
-0.12468968	以 繼 續
-0.5849183	議 上 討
-0.58177304	作 出 討
-0.28739333	估 和 討
-1.1171024	希 望 討
-0.28477082	會 內 討
-0.047182184	上 討 論
-0.047182184	出 討 論
-0.047182184	和 討 論
-0.047182184	望 討 論
-0.047182184	內 討 論
-0.5956047	論 我 看
-0.29528677	看 不 到
-0.28152952	能 達 到
-0.24823672	否 受 到
-0.15654695	議 解 釋
-0.15654695	楚 解 釋
-0.15654695	要 解 釋
-1.1375182	同 事 所
-0.941098	宮 館 所
-0.8834964	以 我 所
-0.2924242	協 議 所
-0.2713551	處 理 所
-0.5446088	指 控 所
-0.29173592	我 所 知
-0.73717266	司 長 將
-1.1320401	希 望 將
-0.29669037	會 在 下
-0.97986823	故 宮 文
-0.2346496	西 九 文
-0.12468968	宮 文 化
-0.057885192	九 文 化
-0.17970365	文 化 區
-0.28969783	任 設 計
-1.024031	化 區 計
-0.27399293	區 計 劃
-0.24920864	本 規 劃
-0.29495552	些 議 題
-0.15650178	的 問 題
-0.15650178	多 問 題
-0.15650178	關 問 題
-0.2966178	可 在 該
-0.27399293	府 應 該
-0.5893655	不 同 場
-0.27242702	在 該 場
-0.2853233	兩 個 場
-0.089538224	表 演 場
-0.29528677	白 不 清
-0.58186543	場 合 清
-0.28916064	合 問 清
-0.08174903	不 清 楚
-0.08174903	合 清 楚
-0.08174903	問 清 楚
-0.7220949	清 楚 再
-0.86155266	如 果 再
-0.27296397	員 想 再
-0.28267393	楚 再 者
-1.0031284	討 論 如
-0.24722278	再 者 如
-0.56180227	地 方 如
-0.2718907	地 後 如
-0.24722278	絕 非 如
-0.09810451	論 如 果
-0.09810451	者 如 果
-0.09810451	方 如 果
-0.09810451	後 如 果
-0.24823672	詢 結 果
-0.24823672	的 效 果
-1.3743887	委 員 想
-0.24920864	家 仍 想
-0.28257895	想 再 了
-0.2943682	是 作 了
-0.27399293	索 取 更
-0.28983936	了 解 更
-0.5957416	們 的 確
-0.24929664	的 確 還
-0.5495708	繼 續 跟
-0.73717266	相 關 跟
-0.2921721	沒 有 進
-0.124016866	續 跟 進
-0.124016866	關 跟 進
-1.0801578	政 府 進
-0.28098184	有 否 進
-0.27296397	年 通 過
-0.5786371	跟 進 過
-0.24823672	忘 記 過
-0.8888421	法 會 去
-0.17568804	進 過 去
-0.17568804	記 過 去
-0.29156327	也 是 希
-0.27638584	實 我 希
-0.811935	以 我 希
-0.7452586	提 出 希
-0.7160915	議 案 希
-0.27082008	士 都 希
-0.279343	功 能 希
-0.27082008	一 樣 希
-0.03317049	是 希 望
-0.03317049	我 希 望
-0.03317049	出 希 望
-0.03317049	案 希 望
-0.03317049	都 希 望
-0.03317049	能 希 望
-0.03317049	樣 希 望
-0.5873941	才 有 些
-0.29495552	論 一 些
-0.28957212	作 意 向
-0.5899949	一 一 向
-0.138969	實 政 府
-0.138969	上 政 府
-0.138969	向 政 府
-0.138969	而 政 府
-0.138969	地 政 府
-0.138969	間 政 府
-0.593595	園 的 表
-1.0836183	政 府 表
-0.10661857	大 型 表
-0.282035	府 表 達
-0.24823672	最 初 達
-0.563897	望 能 達
-1.015297	化 區 而
-0.28098184	表 達 而
-0.72058624	議 案 而
-0.93821204	諮 詢 而
-0.27296397	望 對 相
-0.7416122	出 席 相
-0.58369744	作 出 相
-0.29363516	據 有 關
-0.08172553	對 相 關
-0.08172553	席 相 關
-0.08172553	出 相 關
-0.297731	議 我 認
-0.28957212	個 人 認
-0.7249953	解 釋 為
-0.12465194	我 認 為
-0.12465194	人 認 為
-0.29498962	這 事 宜
-0.24929664	事 宜 完
-0.24920864	宜 完 全
-0.24920864	偏 概 全
-0.87066674	可 以 交
-0.2943682	題 作 交
-0.27399293	意 向 由
-0.27399293	以 交 由
-1.3083787	員 會 處
-1.1494815	同 事 支
-0.29528677	我 不 支
-0.73419005	市 民 支
-0.08174903	事 支 持
-0.08174903	不 支 持
-0.08174903	民 支 持
-0.5955633	好 的 項
-0.22132912	持 這 項
-0.22132912	成 這 項
-0.2950449	項 議 案
-0.72525847	議 案 另
-0.29495552	另 一 方
-0.2656229	的 地 方
-0.2656229	他 地 方
-0.28267393	一 方 面
-1.1579976	同 事 談
-0.29267386	及 有 否
-0.29381227	地 是 否
-0.29655114	果 會 否
-0.15654695	有 進 行
-0.15654695	府 進 行
-0.15654695	否 進 行
-0.2853233	有 關 諮
-0.4348935	進 行 諮
-0.93821204	諮 詢 諮
-0.24772945	公 眾 諮
-0.05982451	關 諮 詢
-0.05982451	行 諮 詢
-0.05982451	詢 諮 詢
-0.05982451	眾 諮 詢
-0.2740861	設 計 師
-1.295433	員 會 內
-0.56284845	理 局 內
-0.9461317	問 題 內
-0.82791585	育 園 內
-0.2957414	楚 的 地
-0.20275271	個 場 地
-0.07565334	演 場 地
-0.28477082	題 內 地
-0.24722278	其 他 地
-0.24722278	在 當 地
-0.295929	內 地 與
-0.27399293	項 目 香
-0.24920864	地 與 香
-0.12468968	目 香 港
-0.12468968	與 香 港
-0.5497465	香 港 最
-0.24929664	港 最 初
-0.28152952	初 達 成
-0.8298484	支 持 成
-0.24823672	應 贊 成
-0.29156327	樣 是 作
-0.1756245	在 合 作
-0.1756245	成 合 作
-0.1756245	署 合 作
-1.2832063	員 會 作
-0.9386028	問 題 作
-0.573052	們 已 作
-0.24621122	是 用 作
-0.24621122	已 經 作
-0.2740861	向 由 林
-0.24929664	由 林 鄭
-0.24929664	林 鄭 月
-0.24929664	鄭 月 娥
-0.24929664	月 娥 女
-0.28957212	的 人 士
-0.24920864	娥 女 士
-0.2740861	女 士 宣
-0.24920864	士 宣 布
-0.27399293	錄 公 布
-0.85947406	我 們 已
-0.2853233	就 此 已
-1.0801578	政 府 已
-0.27242702	宣 布 已
-0.28693643	詢 才 簽
-0.28957212	布 已 簽
-0.12468968	才 簽 署
-0.12468968	已 簽 署
-0.5890111	合 作 備
-0.24920864	作 備 忘
-0.28257895	不 要 忘
-0.2740861	備 忘 錄
-0.70161945	進 行 公
-0.5495708	忘 錄 公
-1.1642249	場 地 後
-0.27399293	公 布 後
-0.2950449	後 一 段
-0.24929664	一 段 時
-0.24929664	段 時 間
-0.2740861	行 公 眾
-0.9459509	諮 詢 結
-0.2740861	果 反 映
-0.57861733	事 說 興
-0.2956404	不 會 興
-1.0123386	化 區 興
-0.29378515	當 地 興
-0.24722278	題 感 興
-1.024031	化 區 建
-0.09840396	說 興 建
-0.09840396	會 興 建
-0.09840396	區 興 建
-0.09840396	地 興 建
-0.28267393	以 絕 非
-0.2914351	所 說 沒
-1.0909257	政 府 根
-0.24929664	府 根 據
-0.87737274	合 作 協
-0.29324892	館 是 個
-0.88614917	以 我 個
-0.29345292	有 一 個
-0.24772945	地 兩 個
-0.296227	為 不 應
-1.0903152	政 府 應
-0.2740861	不 應 贊
-0.29372215	才 多 位
-0.29669037	事 在 發
-0.24929664	在 發 言
-0.24929664	發 言 中
-0.29776952	全 的 指
-0.75633395	很 多 指
-0.12468968	的 指 控
-0.12468968	多 指 控
-0.27399293	人 士 都
-0.5495708	指 控 都
-0.26831853	是 不 盡
-0.26831853	了 不 盡
-0.85896766	大 家 明
-0.24920864	望 弄 明
-0.12468968	家 明 白
-0.12468968	弄 明 白
-0.73717266	市 民 甚
-0.28257895	釋 為 甚
-0.2740861	民 甚 至
-1.2995863	員 會 其
-1.1568582	場 地 其
-0.24823672	甚 至 其
-0.2828531	至 其 他
-0.86555636	希 望 能
-0.24920864	這 功 能
-0.29669037	能 在 當
-1.0471306	文 化 博
-0.24929664	化 博 物
-0.29785934	館 的 選
-0.24929664	的 選 址
-1.024031	化 區 原
-0.24920864	選 址 原
-0.29498962	本 是 用
-0.1389734	的 大 型
-0.1389734	設 大 型
-0.1389734	立 大 型
-0.1389734	作 大 型
-0.1389734	建 大 型
-0.1389734	個 大 型
-0.1757411	的 表 演
-0.07904115	型 表 演
-0.29528677	家 不 要
-0.7508905	提 出 要
-0.27296397	應 該 要
-0.2740861	為 甚 麼
-0.72525847	解 釋 包
-0.24929664	釋 包 括
-0.28703243	局 內 部
-0.14721332	上 立 法
-0.14721332	和 立 法
-0.14721332	在 立 法
-0.14721332	求 立 法
-0.28267393	會 去 年
-0.28794912	萬 人 啟
-0.2853233	提 及 啟
-0.28164324	通 過 啟
-0.24772945	申 請 啟
-0.05982451	人 啟 德
-0.05982451	及 啟 德
-0.05982451	過 啟 德
-0.05982451	請 啟 德
-0.1723467	啟 德 體
-0.1723467	德 體 育
-0.1723467	體 育 園
-0.5957416	園 的 撥
-0.24929664	的 撥 款
-0.24929664	撥 款 申
-0.24929664	款 申 請
-0.29173592	地 可 容
-0.24929664	可 容 納
-0.24929664	容 納 數
-0.24929664	納 數 萬
-1.164897	場 地 兩
-0.29750296	否 會 重
-0.24929664	會 重 疊
-0.57450193	原 本 規
-0.29785934	地 的 效
-0.28267393	會 否 受
-0.28267393	受 到 影
-0.24929664	到 影 響
-0.2944565	已 作 充
-0.24929664	作 充 分
-0.29785934	分 的 評
-0.24929664	的 評 估
-0.84961873	剛 才 單
-0.29532433	地 同 樣
-0.29495552	家 一 樣
-0.29277977	或 以 偏
-0.24929664	以 偏 概
-0.2740861	要 忘 記
-0.2740861	作 交 代
-0.579627	們 已 經
-1.1327124	希 望 弄
-0.859326	大 家 仍
-0.2740861	仍 想 索
-0.29785934	多 的 資
-0.24929664	的 資 料
-0.28267393	出 要 求
-0.2897779	到 這 功
-0.95401436	問 題 聚
-0.24929664	題 聚 焦
-1.0150851	討 論 因
-0.95401436	問 題 感
-0.29002827	感 興 趣
-1.1579976	同 事 加
-0.24929664	事 加 入
-0.29779038	席 我 謹
-0.28703243	謹 此 陳
-0.24929664	此 陳 辭

\end\
