\data\
ngram 1=443
ngram 2=1177
ngram 3=1474

\1-grams:
-3.0179877	<unk>	0
0	<s>	-0.06724524
-2.8845277	</s>	0
-2.7940762	主	-0.12189448
-2.8845277	席	-0.06724524
-2.3813753	國	-0.50202477
-2.8845277	家	-0.06724524
-2.2324917	十	-0.09920314
-2.2324917	四	-0.12189448
-2.480711	五	-0.06724524
-2.7940762	規	-0.12189448
-2.701638	劃	-0.06724524
-2.8845277	綱	-0.06724524
-2.7940762	要	-0.06724524
-2.7940762	明	-0.06724524
-2.8845277	確	-0.06724524
-2.8845277	支	-0.06724524
-2.7940762	持	-0.06724524
-2.1736424	香	-0.979146
-2.3813753	港	-0.08377172
-2.701638	建	-0.06724524
-2.7940762	設	-0.06724524
-2.8845277	際	-0.06724524
-1.6747334	創	-0.7822039
-2.7940762	新	-0.06724524
-1.9604886	科	-0.30502117
-2.8845277	技	-0.06724524
-2.701638	(	-0.06724524
-2.701638	)	-0.06724524
-2.1736424	中	-0.14948168
-2.8845277	心	-0.06724524
-2.8845277	充	-0.06724524
-2.480711	分	-0.06724524
-2.8845277	反	-0.06724524
-2.8845277	映	-0.06724524
-2.701638	了	-0.06724524
-2.8845277	央	-0.06724524
-2.6097226	對	-0.10757407
-1.5536989	的	-0.12309014
-2.701638	重	-0.12189448
-2.7940762	視	-0.06724524
-2.8845277	自	-0.06724524
-2.3005846	行	-0.11365367
-1.7945206	政	-0.6730594
-2.6097226	長	-0.06724524
-2.8845277	官	-0.06724524
-2.1736424	在	-0.09619872
-2.1736424	二	-0.3014432
-2.3005846	零	-0.23809022
-2.1736424	一	-0.08027647
-2.6097226	七	-0.13370082
-1.9955567	年	-0.09227695
-2.701638	施	-0.06724524
-2.7940762	報	-0.50202477
-2.8845277	告	-0.06724524
-2.1736424	提	-0.44772425
-2.7940762	出	-0.06724524
-2.8845277	循	-0.06724524
-2.7940762	八	-0.12189448
-1.9280417	大	-0.2809544
-2.3813753	方	-0.40642896
-2.7940762	向	-0.06724524
-2.0755346	推	-0.4228877
-2.7940762	動	-0.06724524
-2.1736424	發	-0.4008629
-2.701638	展	-0.06724524
-2.121824	本	-0.5614426
-2.8845277	屆	-0.06724524
-2.8845277	府	-0.06724524
-2.8845277	史	-0.06724524
-2.8845277	無	-0.06724524
-2.8845277	前	-0.06724524
-2.6097226	例	-0.34658855
-2.701638	投	-0.06724524
-2.8845277	放	-0.06724524
-2.701638	超	-0.15203482
-2.480711	過	-0.20456824
-2.7940762	千	-0.06724524
-2.480711	三	-0.06724524
-2.3813753	百	-0.19233273
-2.8845277	億	-0.06724524
-2.701638	元	-0.06724524
-2.7940762	措	-0.50202477
-2.480711	已	-0.06724524
-2.8845277	漸	-0.06724524
-2.701638	見	-0.06724524
-2.7940762	成	-0.06724524
-2.701638	效	-0.06724524
-1.6925414	人	-0.43451965
-2.7940762	才	-0.07698182
-2.701638	面	-0.06724524
-2.7940762	於	-0.12189448
-2.701638	世	-0.15203482
-2.7940762	界	-0.06724524
-2.8845277	競	-0.06724524
-2.8845277	爭	-0.06724524
-2.480711	力	-0.08470856
-2.8845277	準	-0.06724524
-2.8845277	備	-0.06724524
-2.7940762	度	-0.06724524
-2.701638	表	-0.06724524
-2.7940762	現	-0.06724524
-2.701638	排	-0.06724524
-2.7940762	名	-0.06724524
-2.701638	全	-0.06724524
-2.8845277	球	-0.06724524
-2.8845277	第	-0.06724524
-2.6097226	生	-0.06724524
-2.8845277	態	-0.06724524
-2.3813753	亦	-0.086941704
-2.8845277	越	-0.06724524
-2.701638	趨	-0.06724524
-2.701638	蓬	-0.15203482
-2.8845277	勃	-0.06724524
-2.701638	如	-0.06724524
-2.8845277	初	-0.06724524
-2.6097226	企	-0.6269635
-2.0755346	業	-0.07542989
-2.3813753	由	-0.271633
-2.1736424	約	-0.17362347
-2.7940762	間	-0.06724524
-2.3005846	上	-0.2625602
-2.7940762	升	-0.06724524
-2.480711	至	-0.09371083
-2.6097226	同	-0.09371083
-2.6097226	期	-0.06724524
-2.8845277	它	-0.06724524
-2.701638	們	-0.06724524
-2.6097226	所	-0.06724524
-2.8845277	僱	-0.06724524
-2.701638	用	-0.06724524
-2.7940762	數	-0.06724524
-2.701638	幅	-0.06724524
-2.2324917	就	-0.18483411
-2.8845277	近	-0.06724524
-2.480711	有	-0.06724524
-2.7940762	理	-0.06724524
-2.8845277	想	-0.06724524
-2.480711	增	-0.27451658
-2.3813753	加	-0.06724524
-2.7940762	九	-0.06724524
-2.1736424	研	-0.39774108
-2.7940762	員	-0.06724524
-2.8845277	目	-0.06724524
-2.7940762	則	-0.06724524
-2.701638	六	-0.06724524
-2.7940762	當	-0.12189448
-2.701638	然	-0.06724524
-2.701638	因	-0.15203482
-2.8845277	應	-0.06724524
-2.701638	時	-0.06724524
-2.8845277	代	-0.06724524
-2.3005846	和	-0.06724524
-2.8845277	這	-0.06724524
-2.8845277	些	-0.06724524
-2.8845277	統	-0.06724524
-2.121824	計	-0.5755466
-2.6097226	涵	-0.6269635
-2.8845277	蓋	-0.06724524
-2.8845277	類	-0.06724524
-2.701638	別	-0.06724524
-2.8845277	或	-0.06724524
-2.0755346	會	-0.07698182
-2.8845277	改	-0.06724524
-2.8845277	變	-0.06724524
-2.8845277	認	-0.06724524
-2.480711	是	-0.06724524
-2.701638	引	-0.06724524
-2.8845277	擎	-0.06724524
-2.1736424	資	-0.40844905
-2.8845277	源	-0.06724524
-2.7940762	經	-0.12189448
-2.7940762	諮	-0.50202477
-2.8845277	詢	-0.06724524
-2.1736424	相	-0.69877106
-2.8845277	關	-0.06724524
-2.8845277	策	-0.06724524
-2.6097226	局	-0.06724524
-2.701638	部	-0.06724524
-2.8845277	門	-0.06724524
-2.8845277	綜	-0.06724524
-2.7940762	合	-0.06724524
-2.8845277	答	-0.06724524
-2.8845277	覆	-0.06724524
-2.701638	下	-0.06724524
-2.8845277	底	-0.06724524
-2.701638	公	-0.06724524
-2.8845277	布	-0.06724524
-2.8845277	算	-0.06724524
-2.8845277	示	-0.06724524
-2.6097226	需	-0.10757407
-2.701638	求	-0.06724524
-2.7940762	非	-0.12189448
-2.701638	常	-0.06724524
-2.8845277	殷	-0.06724524
-2.701638	切	-0.06724524
-2.8845277	屬	-0.06724524
-2.8845277	眾	-0.06724524
-2.2324917	多	-0.08470856
-2.8845277	之	-0.06724524
-2.8845277	冠	-0.06724524
-2.7940762	而	-0.06724524
-2.8845277	我	-0.06724524
-2.8845277	白	-0.06724524
-2.8845277	只	-0.06724524
-2.480711	從	-0.06724524
-2.8845277	宏	-0.06724524
-2.8845277	觀	-0.06724524
-2.7940762	層	-0.12189448
-2.701638	評	-0.15203482
-2.8845277	估	-0.06724524
-2.7940762	供	-0.089829855
-2.701638	致	-0.06724524
-2.7940762	勢	-0.10757407
-2.6097226	更	-0.06724524
-2.8845277	日	-0.06724524
-2.8845277	里	-0.06724524
-2.701638	社	-0.15203482
-1.8978515	及	-0.09531903
-2.701638	形	-0.06724524
-2.480711	不	-0.44349858
-2.8845277	斷	-0.06724524
-2.7940762	事	-0.06724524
-2.480711	實	-0.27451658
-2.8845277	隨	-0.06724524
-2.8845277	着	-0.06724524
-2.8845277	普	-0.06724524
-2.3813753	各	-0.06724524
-2.701638	聘	-0.15203482
-2.701638	請	-0.06724524
-2.701638	量	-0.06724524
-2.701638	今	-0.06724524
-2.7940762	地	-0.06724524
-2.8845277	基	-0.06724524
-2.8845277	信	-0.06724524
-2.8845277	遠	-0.06724524
-2.7940762	進	-0.12189448
-2.8845277	步	-0.06724524
-2.8845277	直	-0.06724524
-2.3813753	培	-0.33857977
-2.701638	育	-0.06724524
-2.8845277	挽	-0.06724524
-2.7940762	留	-0.06724524
-2.480711	吸	-0.7238735
-2.8845277	管	-0.06724524
-2.8845277	齊	-0.06724524
-2.8845277	壯	-0.06724524
-2.8845277	庫	-0.06724524
-2.480711	為	-0.06724524
-2.701638	小	-0.06724524
-2.8845277	養	-0.06724524
-2.0337071	學	-0.12204393
-2.8845277	興	-0.06724524
-2.701638	趣	-0.06724524
-2.3005846	個	-0.06724524
-2.7940762	STEM	-0.10757407
-2.7940762	教	-0.06724524
-2.480711	課	-0.44349858
-2.8845277	程	-0.06724524
-2.7940762	以	-0.06724524
-2.6097226	外	-0.06724524
-2.701638	IT	-0.06724524
-2.701638	驗	-0.06724524
-2.8845277	室	-0.06724524
-2.8845277	奇	-0.06724524
-2.8845277	識	-0.06724524
-2.8845277	啲	-0.06724524
-2.701638	助	-0.06724524
-2.701638	舉	-0.15203482
-2.8845277	辦	-0.06724524
-2.3005846	與	-0.06724524
-2.8845277	訊	-0.06724524
-2.8845277	活	-0.06724524
-2.7940762	此	-0.50202477
-2.701638	適	-0.15203482
-2.701638	將	-0.06724524
-2.121824	工	-0.45420656
-2.8845277	智	-0.06724524
-2.8845277	能	-0.06724524
-2.701638	區	-0.06724524
-2.8845277	塊	-0.06724524
-2.8845277	鏈	-0.06724524
-2.3813753	等	-0.06724524
-2.701638	融	-0.15203482
-2.6097226	入	-0.06724524
-2.8845277	去	-0.06724524
-2.8845277	每	-0.06724524
-2.701638	平	-0.06724524
-2.8845277	均	-0.06724524
-2.701638	修	-0.15203482
-2.8845277	讀	-0.06724524
-2.6097226	畢	-0.6269635
-2.8845277	究	-0.06724524
-2.701638	習	-0.12189448
-2.8845277	讓	-0.06724524
-2.8845277	體	-0.06724524
-2.701638	作	-0.06724524
-2.8845277	開	-0.06724524
-2.8845277	始	-0.06724524
-2.8845277	惠	-0.06724524
-2.8845277	園	-0.06724524
-2.7940762	司	-0.06724524
-2.8845277	碼	-0.06724524
-2.701638	透	-0.15203482
-2.701638	青	-0.15203482
-2.701638	訓	-0.06724524
-2.6097226	機	-0.10757407
-2.8845277	獎	-0.06724524
-2.8845277	金	-0.06724524
-2.7940762	參	-0.12189448
-2.701638	海	-0.15203482
-2.8845277	交	-0.06724524
-2.8845277	流	-0.06724524
-2.8845277	師	-0.06724524
-2.8845277	友	-0.06724524
-2.8845277	協	-0.06724524
-2.8845277	後	-0.06724524
-2.8845277	身	-0.06724524
-2.8845277	列	-0.06724524
-2.8845277	構	-0.06724524
-2.8845277	崗	-0.06724524
-2.8845277	位	-0.06724524
-2.8845277	再	-0.06724524
-2.701638	化	-0.06724524
-2.7940762	配	-0.06724524
-2.8845277	式	-0.06724524
-2.8845277	接	-0.06724524
-2.8845277	受	-0.06724524
-2.7940762	高	-0.06724524
-2.8845277	端	-0.06724524
-2.701638	職	-0.06724524
-2.8845277	練	-0.06724524
-2.480711	並	-0.06724524
-2.8845277	緊	-0.06724524
-2.701638	密	-0.06724524
-2.8845277	場	-0.06724524
-2.8845277	共	-0.06724524
-2.8845277	網	-0.06724524
-2.8845277	絡	-0.06724524
-2.701638	安	-0.06724524
-2.8845277	強	-0.06724524
-2.8845277	匯	-0.06724524
-2.8845277	聚	-0.06724524
-2.8845277	良	-0.06724524
-2.8845277	最	-0.06724524
-2.8845277	途	-0.06724524
-2.8845277	徑	-0.06724524
-2.8845277	便	-0.06724524
-2.8845277	利	-0.06724524
-2.7940762	來	-0.12189448
-2.701638	境	-0.06724524
-2.8845277	快	-0.06724524
-2.8845277	速	-0.06724524
-2.8845277	處	-0.06724524
-2.701638	涉	-0.15203482
-2.8845277	輸	-0.06724524
-2.8845277	申	-0.06724524
-2.701638	範	-0.15203482
-2.8845277	疇	-0.06724524
-2.8845277	傑	-0.06724524
-2.8845277	知	-0.06724524
-2.701638	者	-0.06724524
-2.7940762	其	-0.06724524
-2.8845277	團	-0.06724524
-2.8845277	隊	-0.06724524
-2.8845277	剛	-0.06724524
-2.8845277	完	-0.06724524
-2.701638	檢	-0.06724524
-2.701638	討	-0.06724524
-2.701638	清	-0.06724524
-2.8845277	單	-0.06724524
-2.8845277	晰	-0.06724524
-2.8845277	闡	-0.06724524
-2.701638	專	-0.06724524
-2.8845277	領	-0.06724524
-2.8845277	域	-0.06724524
-2.8845277	醫	-0.06724524
-2.8845277	療	-0.06724524
-2.8845277	健	-0.06724524
-2.8845277	康	-0.06724524
-2.8845277	護	-0.06724524
-2.8845277	微	-0.06724524
-2.701638	電	-0.06724524
-2.8845277	子	-0.06724524
-2.8845277	集	-0.06724524
-2.8845277	路	-0.06724524
-2.8845277	藝	-0.06724524
-2.8845277	術	-0.06724524
-2.480711	優	-0.13370082
-2.8845277	額	-0.06724524
-2.8845277	倍	-0.06724524
-2.8845277	探	-0.06724524
-2.8845277	擴	-0.06724524
-2.8845277	回	-0.06724524
-2.8845277	灣	-0.06724524
-2.8845277	校	-0.06724524
-2.8845277	定	-0.06724524
-2.8845277	廣	-0.06724524
-2.8845277	營	-0.06724524
-2.8845277	商	-0.06724524
-2.8845277	環	-0.06724524
-2.480711	委	-0.7238735
-2.8845277	務	-0.06724524
-2.8845277	擔	-0.06724524
-2.8845277	任	-0.06724524
-2.8845277	次	-0.06724524
-2.8845277	台	-0.06724524
-2.7940762	意	-0.12189448
-2.8845277	值	-0.06724524
-2.8845277	濟	-0.06724524
-2.8845277	月	-0.06724524
-2.8845277	議	-0.06724524
-2.8845277	審	-0.06724524
-2.8845277	結	-0.06724524
-2.8845277	果	-0.06724524
-2.8845277	未	-0.06724524
-2.8845277	勞	-0.06724524
-2.8845277	質	-0.06724524
-2.8845277	宜	-0.06724524
-2.8845277	包	-0.06724524
-2.701638	括	-0.06724524
-2.8845277	他	-0.06724524
-2.8845277	項	-0.06724524
-2.8845277	積	-0.06724524
-2.8845277	極	-0.06724524
-2.8845277	很	-0.06724524
-2.8845277	寶	-0.06724524
-2.8845277	貴	-0.06724524
-2.8845277	調	-0.06724524
-2.8845277	制	-0.06724524
-2.8845277	訂	-0.06724524
-2.701638	續	-0.06724524
-2.8845277	情	-0.06724524
-2.8845277	況	-0.06724524
-2.8845277	份	-0.06724524
-2.8845277	總	-0.06724524
-2.8845277	言	-0.06724524
-2.8845277	繼	-0.06724524
-2.8845277	攜	-0.06724524
-2.8845277	手	-0.06724524
-2.8845277	揮	-0.06724524
-2.8845277	獨	-0.06724524
-2.8845277	好	-0.06724524

\2-grams:
-1.4320456	局 </s>	0
-0.839165	<s> 主	-0.044582147
-2.3703685	的 主	-0.044582147
-0.839165	任 主	-0.044582147
-0.7035668	主 席	-0.044582147
-1.1233065	席 國	-0.044582147
-1.2892504	設 國	-0.044582147
-1.9049743	會 國	-0.044582147
-1.5611875	引 國	-0.044582147
-1.9290534	及 國	-0.044582147
-1.4914889	入 國	-0.044582147
-0.4646651	國 家	-0.044582173
-1.2771175	家 十	-0.044582147
-1.691214	四 十	-0.044582147
-1.373594	二 十	-0.044582147
-1.6787466	府 十	-0.044582147
-1.5387632	三 十	-0.044582147
-1.7991704	約 十	-0.044582147
-1.1149901	六 十	-0.044582147
-1.3885274	蓋 十	-0.044582147
-1.1956437	十 四	-0.044582147
-1.4723172	五 四	-0.044582147
-1.9035192	二 四	-0.044582147
-1.7741611	一 四	-0.11793381
-1.6171238	過 四	-0.044582147
-1.7991704	約 四	-0.044582147
-1.5432379	至 四	-0.044582147
-1.2771175	去 四	-0.044582147
-1.2096903	十 五	-0.11793381
-1.7343497	四 五	-0.044582147
-1.9904273	年 五	-0.044582147
-1.8486203	約 五	-0.044582147
-1.2954463	去 五	-0.044582147
-1.5219332	五 規	-0.044582147
-1.3081099	源 規	-0.11793381
-1.1360875	常 規	-0.044582147
-0.70243585	規 劃	-0.044582173
-0.15113308	計 劃	-0.044582147
-1.8836819	劃 綱	-0.044582147
-1.3095487	主 要	-0.044582147
-0.839165	綱 要	-0.044582147
-0.70306635	重 要	-0.044582147
-1.4290174	要 明	-0.044582147
-1.1360875	們 明	-0.044582147
-0.839165	闡 明	-0.044582147
-1.3104002	明 確	-0.044582147
-0.8399416	確 支	-0.044582147
-0.839165	支 持	-0.044582147
-1.986697	會 持	-0.044582147
-1.5219332	關 持	-0.044582147
-1.2711759	持 香	-0.044582147
-1.3862122	對 香	-0.044582147
-1.5279708	動 香	-0.044582147
-1.58112	面 香	-0.044582147
-1.4630396	升 香	-0.044582147
-0.82626426	信 香	-0.044582147
-0.82626426	廣 香	-0.044582147
-1.2767171	意 香	-0.044582147
-0.82626426	揮 香	-0.044582147
-0.04792617	香 港	-0.044582147
-0.6846308	本 港	-0.044582173
-1.2892504	留 港	-0.044582147
-0.83266675	碼 港	-0.044582147
-0.69886684	來 港	-0.044582147
-0.83266675	回 港	-0.044582147
-2.0367398	港 建	-0.044582147
-0.8381872	基 建	-0.044582147
-1.1360875	建 設	-0.044582147
-1.4290174	所 設	-0.044582147
-0.839165	路 設	-0.044582147
-0.4646651	國 際	-0.044582173
-1.3140004	港 創	-0.11793381
-1.1809195	際 創	-0.044582147
-1.0465434	( 創	-0.044582147
-0.78465426	對 創	-1.1283016
-0.99046123	的 創	-0.647546
-1.1508973	在 創	-0.11793381
-1.3297218	出 創	-0.044582147
-1.3765237	動 創	-0.11793381
-1.5064746	展 創	-0.044582147
-1.267801	見 創	-0.044582147
-1.906469	人 創	-0.044582147
-0.79166543	初 創	-0.044582147
-1.498279	就 創	-0.044582147
-1.4431546	加 創	-0.044582147
-1.5738455	會 創	-0.044582147
-1.3765237	引 創	-0.044582147
-0.79166543	里 創	-0.044582147
-0.79166543	着 創	-0.044582147
-1.0465434	量 創	-0.044582147
-1.4431546	地 創	-0.11793381
-1.0465434	IT 創	-0.044582147
-1.4431546	與 創	-0.044582147
-0.79166543	身 創	-0.044582147
-0.79166543	共 創	-0.044582147
-0.79166543	強 創	-0.044582147
-1.0465434	括 創	-0.044582147
-0.94523203	創 新	-0.07971118
-1.5219332	更 新	-0.044582147
-1.1360875	最 新	-0.044582147
-1.7803928	港 科	-0.044582147
-0.15022677	創 科	-0.52115893
-1.4194107	新 科	-0.11793381
-1.5965396	生 科	-0.044582147
-1.242629	理 科	-0.044582147
-1.6247761	和 科	-0.044582147
-1.4194107	是 科	-0.044582147
-1.3610841	及 科	-0.11793381
-1.4049431	學 科	-0.09208203
-1.5636446	個 科	-0.044582147
-0.81579894	訊 科	-0.044582147
-1.0909559	將 科	-0.044582147
-0.81579894	端 科	-0.044582147
-0.81579894	術 科	-0.044582147
-0.41183466	科 技	-0.06586175
-1.8314095	技 (	-0.044582147
-1.9734569	會 (	-0.044582147
-2.1869574	科 )	-0.044582147
-1.9734569	會 )	-0.044582147
-2.1924765	創 中	-0.044582147
-1.1108909	) 中	-0.044582147
-1.1108909	了 中	-0.044582147
-1.2711759	告 中	-0.044582147
-1.1108909	全 中	-0.044582147
-0.6947076	當 中	-0.044582147
-1.2711759	程 中	-0.044582147
-1.58112	外 中	-0.044582147
-1.4630396	助 中	-0.044582147
-0.7262832	中 心	-0.044582173
-1.3104002	心 充	-0.044582147
-1.7701803	十 分	-0.044582147
-1.8301637	劃 分	-0.044582147
-1.2954463	設 分	-0.044582147
-0.834822	充 分	-0.044582147
-1.1275252	部 分	-0.044582147
-1.525687	分 反	-0.044582147
-0.8399416	反 映	-0.044582147
-0.8381872	映 了	-0.044582147
-1.3052374	視 了	-0.044582147
-1.8549522	中 央	-0.044582147
-1.4799587	港 對	-0.11793381
-0.8369881	央 對	-0.044582147
-1.7437063	生 對	-0.044582147
-1.3017318	配 對	-0.044582147
-1.0192732	席 的	-0.044582147
-1.4450257	劃 的	-0.044582147
-1.2233154	要 的	-0.044582147
-1.5143882	港 的	-0.044582147
-1.4369363	科 的	-0.044582147
-1.2701349	年 的	-0.11793381
-1.2788043	出 的	-0.044582147
-1.4320709	展 的	-0.044582147
-1.4898446	才 的	-0.044582147
-1.3523382	面 的	-0.044582147
-1.2788043	界 的	-0.044582147
-1.0524234	力 的	-0.044582147
-1.1441686	度 的	-0.044582147
-1.2788043	名 的	-0.044582147
-1.0192732	勃 的	-0.044582147
-1.5080901	業 的	-0.044582147
-1.3332125	同 的	-0.044582147
-1.0192732	用 的	-0.044582147
-0.7762907	想 的	-0.044582147
-1.2233154	蓋 的	-0.044582147
-1.1441686	源 的	-0.044582147
-1.2788043	關 的	-0.044582147
-0.7762907	布 的	-0.044582147
-1.2233154	算 的	-0.044582147
-1.1441686	求 的	-0.044582147
-1.3643597	供 的	-0.044582147
-1.0192732	量 的	-0.044582147
-1.3781283	地 的	-0.044582147
-1.3993027	作 的	-0.044582147
-0.7762907	後 的	-0.044582147
-1.0192732	疇 的	-0.044582147
-0.7762907	次 的	-0.044582147
-0.7762907	月 的	-0.044582147
-0.7762907	貴 的	-0.044582147
-1.8518347	的 重	-0.044582147
-1.5172434	更 重	-0.044582147
-1.3095487	重 視	-0.044582147
-1.1360875	檢 視	-0.044582147
-0.839165	審 視	-0.044582147
-1.3104002	視 自	-0.044582147
-2.0970824	科 行	-0.044582147
-2.1660945	的 行	-0.044582147
-0.83052206	自 行	-0.044582147
-1.2831415	現 行	-0.044582147
-1.697742	多 行	-0.044582147
-1.5498306	各 行	-0.044582147
-1.2873875	進 行	-0.044582147
-1.6080488	的 政	-0.11793381
-1.0143757	行 政	-0.044582147
-1.3722551	施 政	-0.11793381
-1.3044367	向 政	-0.044582147
-0.8035646	屆 政	-0.044582147
-1.6495888	才 政	-0.044582147
-1.4881866	由 政	-0.044582147
-1.3722551	升 政	-0.044582147
-1.4336482	同 政	-0.044582147
-1.5514107	和 政	-0.044582147
-0.8035646	變 政	-0.044582147
-1.3722551	關 政	-0.11793381
-1.2106792	合 政	-0.044582147
-1.0681821	下 政	-0.044582147
-1.0681821	趣 政	-0.044582147
-1.4992343	個 政	-0.044582147
-1.4241717	等 政	-0.044582147
-1.5274444	作 政	-0.044582147
-0.8035646	他 政	-0.044582147
-0.8035646	言 政	-0.044582147
-2.309617	的 長	-0.044582147
-2.1335816	政 長	-0.044582147
-1.7457069	力 長	-0.044582147
-1.3017318	司 長	-0.044582147
-1.4320456	長 官	-0.044582147
-1.8834581	港 在	-0.044582147
-0.82626426	官 在	-0.044582147
-1.1108909	效 在	-0.044582147
-1.6684763	力 在	-0.044582147
-1.6639189	生 在	-0.044582147
-1.8362213	會 在	-0.044582147
-1.2711759	育 在	-0.044582147
-1.8992267	學 在	-0.044582147
-1.6639189	作 在	-0.044582147
-1.1108909	了 二	-0.044582147
-2.0914204	的 二	-0.044582147
-1.2285984	在 二	-0.11793381
-1.2010205	零 二	-0.0724544
-0.6947076	於 二	-0.044582147
-0.82626426	第 二	-0.044582147
-0.46066225	由 二	-1.1283016
-1.2698455	約 二	-0.044582173
-0.98356164	至 二	-0.11793381
-1.1585369	四 零	-0.044582147
-1.4817973	五 零	-0.11793381
-0.39124355	二 零	-0.9113911
-1.7927895	一 零	-0.044582147
-1.2831415	千 零	-0.044582147
-1.2831415	九 零	-0.044582147
-1.1191285	六 零	-0.044582147
-1.6777376	四 一	-0.044582147
-1.8890045	二 一	-0.044582147
-1.7394621	零 一	-0.35489
-1.7262306	展 一	-0.044582147
-1.6639189	府 一	-0.044582147
-1.6076868	過 一	-0.044582147
-1.2698455	約 一	-0.044582147
-1.4630396	是 一	-0.044582147
-0.6947076	進 一	-1.1283016
-1.9669771	二 七	-0.11793381
-1.2901453	一 七	-0.044582147
-1.515777	七 七	-0.044582147
-1.8664393	約 七	-0.044582147
-1.1350931	四 年	-0.044582173
-1.972182	的 年	-0.044582147
-1.6949972	零 年	-0.044582147
-1.6914003	一 年	-0.044582147
-0.9011101	七 年	-0.09208203
-1.8035823	年 年	-0.044582147
-1.4872985	三 年	-0.044582147
-0.8178719	近 年	-0.044582147
-1.2481903	九 年	-0.044582173
-1.0948703	今 年	-0.044582147
-1.8187972	學 年	-0.044582147
-0.8178719	每 年	-0.044582147
-0.5193001	青 年	-0.044582147
-1.485477	年 施	-0.11793381
-0.16375896	措 施	-0.044582147
-2.144369	政 報	-0.11793381
-1.7629493	力 報	-0.044582147
-1.4290174	算 報	-0.044582147
-0.16389515	報 告	-0.07971118
-1.8870331	年 提	-0.044582147
-1.2711759	告 提	-0.11793381
-1.3808634	向 提	-0.044582147
-1.6639189	府 提	-0.044582147
-1.4630396	已 提	-0.044582147
-1.4630396	界 提	-0.044582147
-1.3808634	所 提	-0.044582147
-1.6514763	就 提	-0.044582147
-0.82626426	極 提	-0.044582147
-1.7822134	提 出	-0.044582147
-1.2651263	推 出	-0.044582147
-0.839165	傑 出	-0.044582147
-1.525687	出 循	-0.044582147
-0.839165	循 八	-0.044582147
-1.5971568	三 八	-0.044582147
-1.3081099	九 八	-0.044582147
-1.7624202	港 大	-0.044582147
-1.6684115	的 大	-0.044582147
-1.6478623	在 大	-0.044582147
-1.4111872	出 大	-0.044582147
-1.2461938	八 大	-0.044582147
-1.6354555	展 大	-0.044582147
-1.584233	府 大	-0.044582147
-2.0473635	人 大	-0.044582147
-1.4111872	名 大	-0.044582147
-1.5522242	加 大	-0.044582147
-1.4683069	引 大	-0.044582147
-1.4683069	各 大	-0.044582147
-1.0870763	請 大	-0.044582147
-0.81373584	壯 大	-0.044582147
-1.4111872	助 大	-1.1283016
-2.1205657	科 方	-0.044582147
-2.208873	的 方	-0.044582147
-1.9741187	大 方	-0.044582147
-1.5611875	三 方	-0.044582147
-1.9049743	才 方	-0.11793381
-1.5611875	等 方	-0.044582147
-1.5219332	施 向	-0.044582147
-1.0039934	方 向	-0.044582147
-1.5219332	期 向	-0.044582147
-2.027722	的 推	-0.044582147
-1.3659297	向 推	-0.044582147
-1.7957734	才 推	-0.044582147
-1.5576705	面 推	-0.044582147
-1.641059	力 推	-0.044582147
-1.6053782	亦 推	-0.044582147
-1.4450588	是 推	-0.044582147
-1.259531	源 推	-0.11793381
-1.4450588	關 推	-0.044582147
-1.259531	以 推	-0.044582147
-1.1028067	構 推	-0.044582147
-0.43260956	推 動	-0.0724544
-0.839165	活 動	-0.044582147
-0.839165	勞 動	-0.044582147
-1.2711759	家 發	-0.044582147
-1.2711759	際 發	-0.044582147
-2.0536132	科 發	-1.2532403
-1.7262306	技 發	-0.11793381
-1.58112	面 發	-0.044582147
-0.46570924	研 發	-0.07971118
-1.2711759	而 發	-0.044582147
-1.2711759	步 發	-0.044582147
-1.1108909	濟 發	-0.044582147
-0.25860366	發 展	-0.05703006
-0.8381872	擴 展	-0.044582147
-1.8749592	二 本	-0.044582147
-1.9067996	大 本	-0.044582147
-1.51744	動 本	-0.044582147
-1.7097218	展 本	-0.044582147
-1.3733324	蓋 本	-0.044582147
-0.824151	示 本	-0.044582147
-0.69332993	非 本	-0.11793381
-1.4539562	助 本	-0.044582147
-0.824151	流 本	-0.044582147
-1.10683	化 本	-0.044582147
-1.8326024	本 屆	-0.044582147
-0.31955463	政 府	-0.16965769
-1.7681258	府 史	-0.044582147
-0.8399416	史 無	-0.044582147
-0.8399416	無 前	-0.044582147
-1.8197458	技 例	-0.044582147
-0.8369881	前 例	-0.044582147
-1.1317853	勃 例	-0.044582147
-0.8369881	列 例	-0.044582147
-2.0382447	年 投	-0.044582147
-1.4346671	例 投	-0.044582147
-1.1376275	投 放	-0.044582147
-0.8381872	放 超	-0.044582147
-1.9985243	及 超	-0.044582147
-1.8129383	中 過	-0.044582147
-0.5262315	超 過	-0.044582147
-1.726533	作 過	-0.044582147
-0.5262315	透 過	-0.044582147
-1.5728493	訓 過	-0.044582147
-1.9844043	二 千	-0.044582147
-1.8764966	一 千	-0.044582147
-0.839165	日 千	-0.044582147
-1.7701803	十 三	-0.044582147
-1.2954463	千 三	-0.044582147
-1.9305438	才 三	-0.044582147
-0.7606323	約 三	-0.09208203
-1.2954463	去 三	-0.044582147
-1.1625702	四 百	-0.044582147
-1.9340901	二 百	-0.044582147
-1.8122528	一 百	-0.044582147
-0.91649824	七 百	-0.044582147
-0.69886684	八 百	-0.044582147
-1.5611875	三 百	-0.044582147
-1.7753054	百 億	-0.044582147
-0.8381872	億 元	-0.044582147
-1.7551305	多 元	-0.044582147
-2.3703685	的 措	-0.044582147
-1.1360875	元 措	-0.044582147
-2.0119746	及 措	-0.11793381
-1.9904273	年 已	-0.044582147
-1.5014018	施 已	-0.044582147
-1.2954463	告 已	-0.044582147
-1.4123657	局 已	-0.044582147
-1.1275252	今 已	-0.044582147
-1.525687	已 漸	-0.044582147
-0.8381872	漸 見	-0.044582147
-0.70243585	意 見	-0.044582173
-1.4290174	見 成	-0.044582147
-0.839165	完 成	-0.044582147
-0.839165	集 成	-0.044582147
-1.3052374	成 效	-0.044582147
-1.5172434	有 效	-0.044582147
-1.8076156	科 人	-1.3501505
-1.5167396	技 人	-0.044582147
-1.5618097	中 人	-0.044582147
-1.7365849	的 人	-0.044582147
-1.533047	在 人	-0.044582147
-0.49852332	零 人	-0.044582147
-1.620467	年 人	-0.11793381
-1.6756067	發 人	-0.044582147
-1.1041812	百 人	-0.044582147
-1.3365277	界 人	-0.044582147
-1.2736964	如 人	-0.044582147
-1.6088576	業 人	-0.044582147
-1.395058	同 人	-0.044582147
-1.3841108	引 人	-0.11793381
-1.0500758	估 人	-0.044582147
-1.2864573	勢 人	-0.044582147
-1.4520125	地 人	-0.044582147
-1.6406335	學 人	-0.044582147
-1.4216034	外 人	-0.044582147
-1.4520125	與 人	-0.044582147
-1.18574	究 人	-0.044582147
-0.7936261	聚 人	-0.044582147
-0.7936261	利 人	-0.044582147
-1.0500758	討 人	-0.044582147
-0.7936261	項 人	-0.044582147
-0.37495184	人 才	-0.16940048
-1.1360875	專 才	-0.044582147
-0.92326385	優 才	-0.044582147
-0.292372	方 面	-0.044582147
-0.70243585	層 面	-0.044582147
-2.0518515	港 於	-0.044582147
-1.7615868	府 於	-0.044582147
-2.050596	業 於	-0.044582147
-1.7978817	十 世	-0.044582147
-1.5915858	引 世	-0.044582147
-0.5279819	世 界	-0.044582147
-1.4889007	業 界	-0.044582147
-1.5971568	各 界	-0.044582147
-1.9974864	才 競	-0.044582147
-0.8399416	競 爭	-0.044582147
-1.4379476	大 力	-0.044582147
-1.5728493	動 力	-0.044582147
-1.000924	人 力	-0.43613622
-0.834822	爭 力	-0.044582147
-1.1275252	致 力	-0.044582147
-1.9974864	才 準	-0.044582147
-0.8399416	準 備	-0.044582147
-2.0531106	年 度	-0.044582147
-1.7629493	力 度	-0.044582147
-0.839165	備 度	-0.044582147
-2.3420637	的 表	-0.044582147
-1.5172434	已 表	-0.044582147
-1.3081099	視 現	-0.044582147
-1.1360875	表 現	-0.044582147
-1.4290174	門 現	-0.044582147
-1.3052374	現 排	-0.044582147
-1.1341525	安 排	-0.044582147
-0.6393192	百 名	-0.044582173
-1.1360875	排 名	-0.044582147
-0.839165	知 名	-0.044582147
-1.5172434	名 全	-0.044582147
-1.1341525	安 全	-0.044582147
-1.1376275	全 球	-0.044582147
-0.8399416	球 第	-0.044582147
-2.1717234	科 生	-1.1283016
-2.0170758	業 生	-0.044582147
-0.95840675	學 生	-0.067683026
-1.3017318	究 生	-0.044582147
-1.7681258	生 態	-0.044582173
-1.9595438	港 亦	-0.044582147
-1.9621811	年 亦	-0.044582147
-1.710013	府 亦	-0.044582173
-1.2892504	態 亦	-0.044582147
-1.9569225	業 亦	-0.044582147
-1.4042733	門 亦	-0.044582147
-1.7212774	亦 越	-0.044582147
-0.8381872	越 趨	-0.044582147
-1.1341525	致 趨	-0.044582147
-1.6537468	面 蓬	-0.044582147
-1.1341525	趨 蓬	-0.044582147
-0.5282937	蓬 勃	-0.044582147
-0.28833848	例 如	-0.044582173
-0.8381872	覆 如	-0.044582147
-1.4320456	如 初	-0.044582147
-2.242726	創 企	-0.044582147
-1.6570668	過 企	-0.044582147
-1.6982176	地 企	-0.044582147
-1.5115461	助 企	-0.044582147
-2.173899	創 業	-0.044582147
-2.0141015	科 業	-0.044582147
-1.041636	行 業	-0.044582147
-0.11581877	企 業	-0.044582147
-0.580942	就 業	-0.044582173
-1.5071586	各 業	-0.044582147
-1.5998268	與 業	-0.044582147
-1.762015	工 業	-0.044582147
-0.11581877	畢 業	-0.07971118
-1.1028067	職 業	-0.044582147
-1.1028067	專 業	-0.044582147
-1.9569225	業 由	-0.044582147
-1.4914889	數 由	-0.044582147
-1.2892504	幅 由	-0.044582147
-1.2892504	則 由	-0.044582147
-1.6677601	個 由	-0.044582147
-1.710013	作 由	-0.044582147
-1.749762	中 約	-0.044582147
-2.0914204	的 約	-0.044582147
-1.4375656	年 約	-0.044582147
-0.9912235	由 約	-0.11793381
-1.5329722	至 約	-0.044582147
-1.4630396	數 約	-0.044582147
-1.5859642	供 約	-0.044582147
-1.1108909	辦 約	-0.044582147
-0.82626426	均 約	-0.044582147
-1.8160697	零 間	-0.044582147
-1.7703123	百 間	-0.044582147
-1.5219332	期 間	-0.044582147
-2.1892555	人 上	-0.044582147
-1.2831415	間 上	-0.044582147
-1.2831415	幅 上	-0.044582147
-1.6532968	加 上	-0.044582147
-1.5037721	實 上	-0.044582147
-1.2831415	步 上	-0.044582147
-0.83052206	議 上	-0.044582147
-2.3703685	的 升	-0.044582147
-1.1790805	提 升	-0.044582147
-0.41697827	上 升	-0.550636
-1.1275252	排 至	-0.044582147
-1.5014018	升 至	-0.09208203
-1.516467	增 至	-0.044582147
-1.682722	加 至	-0.044582147
-0.834822	始 至	-0.044582147
-2.2572408	人 同	-0.044582147
-1.3017318	間 同	-0.044582147
-0.8369881	認 同	-0.044582147
-0.21322693	不 同	-0.07971118
-1.4206117	長 期	-0.044582147
-0.9981191	同 期	-0.044582147
-2.0266728	學 期	-0.044582147
-0.8369881	定 期	-0.044582147
-1.525687	期 它	-0.044582147
-0.8381872	它 們	-0.044582147
-0.8381872	我 們	-0.044582147
-1.3017318	態 所	-0.044582147
-1.1317853	們 所	-0.044582147
-1.5115461	有 所	-0.044582147
-1.1317853	區 所	-0.044582147
-1.4320456	所 僱	-0.044582147
-2.1869574	科 用	-0.044582147
-0.8381872	僱 用	-0.044582147
-1.1745441	人 數	-0.044582173
-1.3081099	員 數	-0.044582147
-2.0119746	及 數	-0.044582147
-1.4462439	大 幅	-0.044582147
-1.5172434	升 幅	-0.044582147
-1.9073689	港 就	-0.044582147
-2.1271544	的 就	-0.044582147
-1.9040962	業 就	-0.044582147
-1.6751158	上 就	-0.044582147
-1.2771175	時 就	-0.044582147
-0.828388	擎 就	-0.044582147
-1.4723172	並 就	-0.044582147
-0.828388	台 就	-0.044582147
-1.525687	數 近	-0.044582147
-1.6853563	亦 有	-0.044582147
-1.8486203	約 有	-0.044582147
-1.9305438	會 有	-0.044582147
-1.1275252	最 有	-0.044582147
-0.834822	獨 有	-0.044582147
-1.5219332	有 理	-0.044582147
-0.839165	處 理	-0.044582147
-0.839165	護 理	-0.044582147
-1.3104002	理 想	-0.044582147
-2.2333767	人 增	-0.044582147
-1.2954463	幅 增	-0.044582147
-1.6970038	就 增	-0.044582147
-1.2954463	高 增	-0.044582147
-0.834822	倍 增	-0.044582147
-1.796262	中 加	-0.044582147
-1.9049743	才 加	-0.044582147
-0.38367742	增 加	-0.044582173
-1.2892504	則 加	-0.044582147
-1.5611875	等 加	-0.044582147
-1.2928227	參 加	-0.044582147
-1.8062313	十 九	-0.044582147
-1.8764966	一 九	-1.1283016
-1.5219332	有 九	-0.044582147
-1.5908631	行 研	-0.044582147
-1.3808634	如 研	-0.044582147
-1.4630396	期 研	-0.044582147
-1.6970795	和 研	-0.044582147
-1.2711759	事 研	-0.044582147
-1.4630396	為 研	-0.044582147
-1.6257395	個 研	-0.044582147
-1.2711759	教 研	-0.044582147
-0.82626426	調 研	-0.044582147
-2.2824926	人 員	-0.044582147
-2.050596	業 員	-0.044582147
-0.09073859	委 員	-1.3501505
-1.525687	數 目	-0.044582147
-1.8751692	劃 則	-0.044582147
-0.839165	目 則	-0.044582147
-0.839165	金 則	-0.044582147
-1.7978817	十 六	-0.044582147
-1.7640939	百 六	-0.044582147
-2.2824926	人 當	-0.044582147
-1.1360875	請 當	-0.044582147
-2.0573552	學 當	-0.044582147
-1.3070067	當 然	-0.044582147
-0.8381872	冠 然	-0.044582147
-1.1341525	然 因	-0.044582147
-1.4269761	需 因	-0.044582147
-0.5282937	因 應	-0.044582147
-1.1341525	應 時	-0.044582147
-0.52758867	適 時	-0.044582147
-1.3104002	時 代	-0.044582147
-1.9297067	業 和	-0.044582147
-1.7461435	研 和	-0.044582147
-0.83052206	代 和	-0.044582147
-1.3963289	局 和	-0.647546
-1.6532968	地 和	-0.044582147
-0.69747597	習 和	-0.044582173
-1.1191285	者 和	-0.044582147
-1.8489984	展 這	-0.044582147
-0.8399416	這 些	-0.044582147
-0.8399416	些 統	-0.044582147
-1.2653145	設 計	-0.044582147
-2.1304865	人 計	-0.044582147
-1.8155266	才 計	-0.044582147
-1.5229435	同 計	-0.11793381
-0.824151	統 計	-0.044582147
-0.824151	啲 計	-0.044582147
-1.2714785	習 計	-0.044582147
-1.51744	訓 計	-0.044582147
-0.824151	友 計	-0.044582147
-1.10683	境 計	-0.044582147
-1.8302807	中 涵	-0.044582147
-1.5869148	至 涵	-0.044582147
-1.8239863	計 涵	-0.044582147
-0.8369881	域 涵	-0.044582147
-0.11677005	涵 蓋	-0.044582147
-2.0631661	業 類	-0.044582147
-1.5172434	分 別	-0.044582147
-0.8381872	類 別	-0.044582147
-1.1376275	別 或	-0.044582147
-1.7235787	的 會	-0.11793381
-1.6357008	府 會	-0.044582147
-1.0930197	亦 會	-0.044582147
-1.259531	員 會	-0.0724544
-0.8220478	或 會	-0.044582147
-1.7162576	資 會	-0.044582147
-1.3659297	門 會	-0.044582147
-1.259531	求 會	-0.044582147
-0.5210226	社 會	-0.044582147
-1.8571527	學 會	-0.044582147
-1.372416	機 會	-0.044582147
-1.4320456	所 改	-0.044582147
-0.8399416	改 變	-0.044582147
-1.525687	分 認	-0.044582147
-1.1275252	) 是	-0.044582147
-2.2563303	的 是	-0.044582147
-1.9305438	才 是	-0.044582147
-0.834822	只 是	-0.044582147
-1.4151933	機 是	-0.044582147
-1.4252269	要 引	-0.044582147
-0.09070009	吸 引	-0.067683026
-1.601624	引 擎	-0.044582147
-1.6684763	力 資	-1.3501505
-1.2711759	度 資	-0.044582147
-1.2711759	則 資	-0.044582147
-1.1108909	別 資	-0.044582147
-1.8362213	會 資	-0.044582147
-1.1108909	庫 資	-0.044582147
-1.2711759	教 資	-0.044582147
-1.6257395	與 資	-0.044582147
-0.82626426	式 資	-0.044582147
-1.7838922	資 源	-0.102238834
-1.8751692	劃 經	-0.044582147
-2.0518515	港 經	-0.044582147
-1.1360875	元 經	-0.044582147
-1.3095487	經 諮	-0.044582147
-1.4290174	策 諮	-0.044582147
-1.7615868	作 諮	-0.044582147
-0.16389515	諮 詢	-0.044582173
-1.1108909	建 相	-0.044582147
-1.5843294	科 相	-0.11793381
-1.7262306	技 相	-0.044582147
-1.6514763	就 相	-0.044582147
-1.2711759	詢 相	-0.044582147
-1.3808634	門 相	-0.044582147
-0.82626426	白 相	-0.044582147
-1.859455	及 相	-0.044582147
-1.3862122	STEM 相	-0.044582147
-0.105556026	相 關	-0.3053976
-0.5396359	政 策	-0.4037044
-1.8197458	技 局	-0.044582147
-2.0121443	大 局	-0.044582147
-1.4206117	策 局	-1.3501505
-0.8369881	練 局	-0.044582147
-1.3052374	明 部	-0.044582147
-1.7946004	和 部	-1.2532403
-1.1376275	部 門	-0.044582147
-1.3104002	現 綜	-0.044582147
-0.839165	綜 合	-0.044582147
-1.3081099	配 合	-0.044582147
-1.1360875	密 合	-0.044582147
-1.3104002	合 答	-0.044582147
-0.8399416	答 覆	-0.044582147
-1.4252269	如 下	-0.044582147
-0.8381872	齊 下	-0.044582147
-2.0652668	年 底	-0.044582147
-0.8381872	底 公	-0.044582147
-0.8381872	園 公	-0.044582147
-1.1376275	公 布	-0.044582147
-0.72728324	推 算	-0.044582147
-1.1376275	表 示	-0.044582147
-2.309617	的 需	-0.044582147
-1.7002445	亦 需	-0.044582147
-1.4206117	算 需	-0.044582147
-0.8369881	遠 需	-0.044582147
-0.82613415	需 求	-0.044582147
-1.0654718	供 求	-0.11793381
-1.8411331	展 非	-0.044582147
-1.3081099	求 非	-0.044582147
-1.5219332	入 非	-0.044582147
-1.3070067	非 常	-0.044582147
-1.3052374	育 常	-0.044582147
-1.1376275	常 殷	-0.044582147
-0.8381872	殷 切	-0.044582147
-1.1341525	密 切	-0.044582147
-1.1376275	切 屬	-0.044582147
-0.8399416	屬 眾	-0.044582147
-1.7512418	在 多	-0.044582147
-1.9106665	年 多	-0.044582147
-1.5933374	面 多	-0.044582147
-0.828388	眾 多	-0.044582147
-1.4723172	更 多	-0.044582147
-1.4039571	及 多	-0.044582147
-0.828388	識 多	-0.044582147
-0.828388	很 多	-0.044582147
-2.0631661	業 之	-0.044582147
-0.8399416	之 冠	-0.044582147
-1.1360875	然 而	-0.044582147
-1.5219332	從 而	-0.044582147
-1.1360875	括 而	-0.044582147
-1.3104002	而 我	-0.044582147
-1.3104002	明 白	-0.044582147
-1.4320456	算 只	-0.044582147
-1.9881871	港 從	-0.044582147
-1.2954463	態 從	-0.044582147
-1.5014018	是 從	-0.044582147
-0.834822	直 從	-0.044582147
-1.5014018	為 從	-0.044582147
-1.525687	從 宏	-0.044582147
-0.8399416	宏 觀	-0.044582147
-0.839165	觀 層	-0.044582147
-1.7142866	個 層	-0.044582147
-1.3081099	高 層	-0.044582147
-1.6537468	面 評	-0.044582147
-1.7946004	和 評	-0.044582147
-0.5282937	評 估	-0.044582147
-0.25001588	提 供	-0.067683026
-1.7629493	力 供	-0.044582147
-1.5219332	期 供	-0.044582147
-2.0232422	大 致	-0.044582147
-1.7534754	府 致	-0.044582147
-1.1360875	趨 勢	-0.044582147
-1.1360875	形 勢	-0.044582147
-0.92326385	優 勢	-0.044582147
-0.8250711	勢 更	-0.044582147
-0.8369881	斷 更	-0.044582147
-0.8369881	讓 更	-0.044582147
-0.8369881	單 更	-0.044582147
-1.8847809	一 日	-0.044582147
-1.3104002	千 里	-0.044582147
-1.1341525	應 社	-0.044582147
-1.7070053	與 社	-0.044582147
-1.2317159	家 及	-0.044582147
-1.4031166	新 及	-0.044582147
-1.5410963	加 及	-0.044582147
-1.7085873	會 及	-0.044582147
-1.3306985	策 及	-0.11793381
-1.3306985	局 及	-0.044582147
-0.8116824	普 及	-0.044582147
-1.2317159	留 及	-0.044582147
-0.8116824	室 及	-0.044582147
-0.8116824	惠 及	-0.044582147
-1.2317159	司 及	-0.044582147
-1.4591137	訓 及	-0.044582147
-1.0832312	化 及	-0.044582147
-0.5167291	涉 及	-0.044582147
-0.8116824	療 及	-0.044582147
-0.8116824	值 及	-0.044582147
-1.4269761	對 形	-0.044582147
-1.8314095	展 形	-0.044582147
-1.8043883	在 不	-0.044582147
-1.5014018	出 不	-0.044582147
-1.6467315	過 不	-0.044582147
-1.4151933	勢 不	-0.044582147
-0.834822	校 不	-0.044582147
-1.5352265	不 斷	-0.044582147
-1.5219332	新 事	-0.044582147
-2.3703685	的 事	-0.044582147
-1.5219332	從 事	-0.044582147
-1.5014018	新 實	-0.044582147
-2.1453917	科 實	-0.044582147
-1.6348778	供 實	-0.044582147
-1.2954463	事 實	-0.044582147
-1.682722	地 實	-0.044582147
-1.7294736	上 隨	-0.044582147
-0.8399416	隨 着	-0.044582147
-2.3941936	的 普	-0.044582147
-2.208873	的 各	-0.044582147
-1.6254172	行 各	-0.044582147
-1.4914889	界 各	-0.044582147
-1.9049743	會 各	-0.044582147
-1.9290534	及 各	-0.044582147
-1.6188542	外 各	-0.044582147
-1.4269761	需 聘	-0.044582147
-1.1341525	構 聘	-0.044582147
-0.52758867	聘 請	-0.11793381
-0.8381872	申 請	-0.044582147
-2.0232422	大 量	-0.044582147
-1.7070053	與 量	-0.044582147
-1.7208654	上 今	-0.044582147
-1.593296	至 今	-0.044582147
-0.29583755	本 地	-0.06430669
-1.1360875	用 地	-0.044582147
-1.5971568	各 地	-0.044582147
-1.8107331	和 基	-0.044582147
-1.790499	相 信	-0.044582147
-1.4320456	長 遠	-0.044582147
-2.0518515	港 進	-0.044582147
-1.7615868	生 進	-0.044582147
-1.4171857	會 進	-0.11793381
-1.8847809	一 步	-0.044582173
-1.8847809	一 直	-0.044582147
-1.7798929	技 培	-0.11793381
-2.208873	的 培	-0.044582147
-1.9049743	才 培	-0.044582147
-1.7470495	和 培	-0.044582147
-1.4914889	從 培	-0.044582147
-1.1233065	小 培	-0.044582147
-1.0690453	培 育	-0.044582147
-1.3052374	教 育	-0.044582147
-1.3104002	育 挽	-0.044582147
-1.7615868	生 留	-0.044582147
-1.1360875	切 留	-0.044582147
-0.839165	挽 留	-0.044582147
-1.5014018	是 吸	-0.044582147
-1.4270928	及 吸	-0.11793381
-1.5014018	為 吸	-0.044582147
-1.9980159	學 吸	-0.044582147
-1.682722	個 吸	-0.044582147
-1.7692486	多 管	-0.044582147
-0.8399416	管 齊	-0.044582147
-1.1376275	下 壯	-0.044582147
-1.9974864	才 庫	-0.044582147
-1.8301637	劃 為	-0.044582147
-1.5014018	名 為	-0.044582147
-1.726533	生 為	-0.044582147
-1.1275252	庫 為	-0.044582147
-0.834822	徑 為	-0.044582147
-1.8401489	中 小	-0.044582147
-1.5172434	從 小	-0.044582147
-1.6759121	培 養	-0.044582147
-1.563765	科 學	-0.044582173
-1.707763	中 學	-0.044582147
-1.9990647	的 學	-0.044582147
-1.6891952	在 學	-0.044582147
-0.44241476	大 學	-0.27888042
-1.4363401	關 學	-0.044582147
-1.0988204	小 學	-0.044582147
-0.8199549	養 學	-0.044582147
-1.5874281	個 學	-0.044582147
-0.80993533	STEM 學	-0.11793381
-0.8199549	獎 學	-0.044582147
-0.8199549	場 學	-0.044582147
-2.3941936	的 興	-0.044582147
-0.8381872	興 趣	-0.044582147
-0.8381872	奇 趣	-0.044582147
-1.736894	十 個	-0.044582147
-1.4817973	五 個	-0.044582147
-1.7635272	零 個	-0.044582147
-1.7927895	一 個	-0.044582147
-1.5498306	三 個	-0.044582147
-1.7177697	百 個	-0.044582147
-1.1564277	多 個	-0.044582147
-1.5971568	動 STEM	-0.044582147
-1.7142866	與 STEM	-0.044582147
-0.839165	讀 STEM	-0.044582147
-1.3095487	於 教	-0.044582147
-1.430443	STEM 教	-0.044582147
-1.7142866	與 教	-0.044582147
-1.2983268	規 課	-0.044582147
-2.2563303	的 課	-0.044582147
-1.8043883	在 課	-0.044582147
-1.5014018	入 課	-0.044582147
-1.5728493	訓 課	-0.044582147
-0.21352138	課 程	-0.07971118
-1.8751692	劃 以	-0.044582147
-1.4290174	見 以	-0.044582147
-1.3081099	程 以	-0.044582147
-1.529092	課 外	-0.044582147
-1.3017318	以 外	-0.044582147
-0.1636656	此 外	-0.044582173
-0.5271058	海 外	-0.044582147
-2.043324	學 IT	-0.044582147
-1.1341525	趣 IT	-0.044582147
-1.5265768	實 驗	-0.044582147
-0.8381872	體 驗	-0.044582147
-1.1376275	驗 室	-0.044582147
-2.02294	及 奇	-0.044582147
-1.1376275	IT 識	-0.044582147
-1.7692486	多 啲	-0.044582147
-0.24985908	資 助	-0.31119746
-0.8381872	協 助	-0.044582147
-1.5172434	已 舉	-0.044582147
-2.043324	學 舉	-0.044582147
-0.5282937	舉 辦	-0.044582147
-1.6532968	個 與	-0.044582147
-1.1191285	驗 與	-0.044582147
-1.1191285	辦 與	-0.044582147
-0.69747597	參 與	-0.044582147
-1.4817973	並 與	-0.044582147
-0.83052206	質 與	-0.044582147
-0.83052206	手 與	-0.044582147
-1.7838922	資 訊	-0.044582147
-1.6653507	外 活	-0.044582147
-1.5971568	動 此	-0.044582147
-1.4290174	見 此	-0.044582147
-0.839165	位 此	-0.044582147
-1.9734569	會 適	-0.044582147
-1.5172434	並 適	-0.044582147
-1.3052374	時 將	-0.044582147
-1.3052374	步 將	-0.044582147
-1.8607954	港 工	-0.044582147
-2.0584042	的 工	-0.044582147
-1.7947451	發 工	-0.11793381
-2.1304865	人 工	-0.044582147
-1.7221292	研 工	-0.044582147
-1.2653145	員 工	-0.044582147
-1.2653145	究 工	-0.044582147
-0.824151	再 工	-0.044582147
-1.2653145	其 工	-0.044582147
-0.824151	訂 工	-0.044582147
-1.8296497	工 智	-0.044582147
-0.8399416	智 能	-0.044582147
-0.8381872	能 區	-0.044582147
-0.8381872	灣 區	-0.044582147
-1.1376275	區 塊	-0.044582147
-0.8399416	塊 鏈	-0.044582147
-1.8092971	劃 等	-0.044582147
-1.7798929	技 等	-0.044582147
-1.2892504	心 等	-0.044582147
-1.4914889	施 等	-0.044582147
-0.83266675	鏈 等	-0.044582147
-1.1233065	境 等	-0.044582147
-1.5915858	等 融	-0.044582147
-0.8381872	好 融	-0.044582147
-1.9577135	才 入	-0.044582147
-1.6982176	加 入	-0.044582147
-0.5271058	融 入	-0.044582147
-0.8369881	輸 入	-0.044582147
-0.5309292	過 去	-0.044582173
-2.0652668	年 每	-0.044582147
-2.0382447	年 平	-0.044582147
-1.3052374	詢 平	-0.044582147
-1.1376275	平 均	-0.044582147
-1.5172434	名 修	-0.044582147
-1.7551305	多 修	-0.044582147
-0.5282937	修 讀	-0.11793381
-1.7437063	生 畢	-0.044582147
-1.6982176	地 畢	-0.044582147
-2.0266728	學 畢	-0.044582147
-1.5115461	助 畢	-0.044582147
-0.6402851	研 究	-0.044582173
-0.3848896	實 習	-0.09208203
-2.043324	學 習	-0.044582147
-1.8836819	劃 讓	-0.044582147
-1.3104002	間 體	-0.044582147
-1.3052374	合 作	-0.044582147
-0.2173329	工 作	-0.044582147
-2.0652668	年 開	-0.044582147
-0.8399416	開 始	-0.044582147
-1.525687	已 惠	-0.044582147
-1.8489984	技 園	-0.044582147
-1.1360875	公 司	-0.044582147
-1.3081099	司 司	-0.044582147
-0.839165	務 司	-0.044582147
-1.525687	數 碼	-0.044582147
-1.7086785	亦 透	-0.044582147
-1.5172434	並 透	-0.044582147
-2.3420637	的 青	-0.044582147
-1.5172434	為 青	-0.044582147
-2.03524	業 訓	-0.044582147
-0.35907722	培 訓	-0.044582147
-1.8533616	發 機	-0.044582147
-1.7838728	和 機	-0.044582147
-1.584833	訓 機	-0.044582147
-0.8369881	良 機	-0.044582147
-1.8489984	技 獎	-0.044582147
-2.068808	學 金	-0.044582147
-2.0518515	港 參	-0.044582147
-1.7615868	生 參	-0.044582147
-1.3081099	程 參	-0.044582147
-1.4252269	向 海	-0.044582147
-1.7070053	加 海	-0.044582147
-1.6653507	外 交	-0.044582147
-0.8399416	交 流	-0.044582147
-1.8107331	和 師	-0.044582147
-0.8399416	師 友	-0.044582147
-1.8836819	劃 協	-0.044582147
-2.0631661	業 後	-0.044582147
-1.1376275	投 身	-0.044582147
-1.6676327	行 列	-0.044582147
-0.8276889	機 構	-0.044582147
-1.7681258	作 崗	-0.044582147
-0.8399416	崗 位	-0.044582147
-1.6653507	外 再	-0.044582147
-2.03524	業 化	-0.044582147
-1.5207094	優 化	-0.044582147
-1.3081099	度 配	-0.044582147
-1.3081099	以 配	-0.044582147
-1.6601815	外 配	-0.044582147
-1.1376275	形 式	-0.044582147
-1.8296497	工 接	-0.044582147
-0.8399416	接 受	-0.044582147
-2.3703685	的 高	-0.044582147
-1.8411331	展 高	-0.044582147
-0.839165	受 高	-0.044582147
-1.3104002	高 端	-0.044582147
-1.7551305	多 職	-0.044582147
-1.5172434	入 職	-0.044582147
-1.601624	訓 練	-0.044582147
-2.2333767	人 並	-0.044582147
-1.1275252	估 並	-0.044582147
-1.726533	作 並	-0.044582147
-0.834822	果 並	-0.044582147
-0.834822	況 並	-0.044582147
-1.525687	界 緊	-0.044582147
-1.5172434	施 密	-0.044582147
-0.8381872	緊 密	-0.044582147
-1.1376275	職 場	-0.044582147
-2.0631661	業 共	-0.044582147
-1.3104002	心 網	-0.044582147
-0.8399416	網 絡	-0.044582147
-2.03524	業 安	-0.044582147
-0.8381872	絡 安	-0.044582147
-1.7201462	加 強	-0.044582147
-1.8512148	在 匯	-0.044582147
-0.8399416	匯 聚	-0.044582147
-2.0631661	業 良	-0.044582147
-1.86802	的 最	-0.044582147
-1.1376275	效 途	-0.044582147
-0.8399416	途 徑	-0.044582147
-1.525687	為 便	-0.044582147
-0.8399416	便 利	-0.044582147
-1.4171857	才 來	-1.1283016
-0.839165	隊 來	-0.044582147
-0.839165	未 來	-0.044582147
-1.5172434	入 境	-0.044582147
-0.8381872	環 境	-0.044582147
-1.8836819	劃 快	-0.044582147
-0.8399416	快 速	-0.044582147
-0.8399416	速 處	-0.044582147
-1.3052374	理 涉	-0.044582147
-1.7534754	作 涉	-0.044582147
-2.02294	及 輸	-0.044582147
-2.3941936	的 申	-0.044582147
-1.8314095	技 範	-0.044582147
-1.5915858	等 範	-0.044582147
-0.5282937	範 疇	-0.044582147
-1.1376275	疇 傑	-0.044582147
-1.3104002	際 知	-0.044582147
-2.043324	學 者	-0.044582147
-0.8381872	份 者	-0.044582147
-1.7216922	就 其	-0.044582147
-1.8035257	和 其	-0.044582147
-2.0119746	及 其	-0.044582147
-1.3104002	其 團	-0.044582147
-0.8399416	團 隊	-0.044582147
-1.7212774	亦 剛	-0.044582147
-0.8399416	剛 完	-0.044582147
-1.3052374	成 檢	-0.044582147
-1.1341525	續 檢	-0.044582147
-1.1341525	檢 討	-0.044582147
-0.8381872	探 討	-0.044582147
-1.9734569	才 清	-0.044582147
-1.5172434	更 清	-0.044582147
-1.1376275	清 單	-0.044582147
-1.1376275	清 晰	-0.044582147
-0.8399416	晰 闡	-0.044582147
-1.5172434	分 專	-0.044582147
-2.3420637	的 專	-0.044582147
-2.3941936	的 領	-0.044582147
-0.8399416	領 域	-0.044582147
-1.4320456	蓋 醫	-0.044582147
-0.8399416	醫 療	-0.044582147
-2.02294	及 健	-0.044582147
-0.8399416	健 康	-0.044582147
-0.8399416	康 護	-0.044582147
-2.068808	學 微	-0.044582147
-1.3052374	成 電	-0.044582147
-0.8381872	微 電	-0.044582147
-1.1376275	電 子	-0.044582147
-0.8399416	子 集	-0.044582147
-1.1376275	電 路	-0.044582147
-1.8329406	計 藝	-0.044582147
-0.8399416	藝 術	-0.044582147
-2.2563303	的 優	-0.044582147
-1.5014018	有 優	-0.044582147
-1.9549737	及 優	-0.044582147
-1.682722	地 優	-0.044582147
-1.1275252	將 優	-0.044582147
-1.3104002	配 額	-0.044582147
-0.8399416	額 倍	-0.044582147
-1.525687	並 探	-0.044582147
-1.1376275	討 擴	-0.044582147
-2.0642152	港 回	-0.044582147
-2.0399504	大 灣	-0.044582147
-1.525687	分 校	-0.044582147
-1.9974864	會 定	-0.044582147
-1.8685981	推 廣	-0.044582147
-1.8489984	展 營	-0.044582147
-0.8399416	營 商	-0.044582147
-0.8399416	商 環	-0.044582147
-1.8301637	劃 委	-0.044582147
-1.1275252	( 委	-0.044582147
-1.7993623	展 委	-0.044582147
-1.2954463	詢 委	-0.044582147
-1.1275252	濟 委	-0.044582147
-2.14827	政 務	-0.044582147
-1.4320456	長 擔	-0.044582147
-0.8399416	擔 任	-0.044582147
-1.3115745	層 次	-0.044582147
-1.1376275	平 台	-0.044582147
-2.3703685	的 意	-0.044582147
-1.6615686	供 意	-0.11793381
-1.3081099	留 意	-0.044582147
-1.5319105	增 值	-0.044582147
-0.7035668	經 濟	-0.044582147
-1.525687	五 月	-0.044582147
-1.9974864	會 議	-0.11793381
-1.7294736	上 審	-0.044582147
-1.4320456	要 結	-0.044582147
-0.8399416	結 果	-0.044582147
-1.525687	升 未	-0.044582147
-1.3115745	來 勞	-0.044582147
-2.3941936	的 質	-0.044582147
-1.3104002	事 宜	-0.044582147
-0.8399416	宜 包	-0.044582147
-0.8381872	包 括	-0.044582147
-0.8381872	總 括	-0.044582147
-1.3104002	其 他	-0.044582147
-1.601624	各 項	-0.044582147
-1.601624	等 積	-0.044582147
-0.8399416	積 極	-0.044582147
-1.6664902	供 很	-0.044582147
-1.7692486	多 寶	-0.044582147
-0.8399416	寶 貴	-0.044582147
-2.3941936	的 調	-0.044582147
-1.4320456	策 制	-0.044582147
-0.8399416	制 訂	-0.044582147
-1.3052374	持 續	-0.044582147
-0.8381872	繼 續	-0.044582147
-1.525687	新 情	-0.044582147
-0.8399416	情 況	-0.044582147
-1.3104002	持 份	-0.044582147
-1.1376275	者 總	-0.044582147
-1.3104002	而 言	-0.044582147
-1.9974864	會 繼	-0.044582147
-1.1376275	續 攜	-0.044582147
-0.8399416	攜 手	-0.044582147
-1.8677763	發 揮	-0.044582147
-2.0642152	港 獨	-0.044582147
-1.525687	更 好	-0.044582147

\3-grams:
-0.8829534	大 局 </s>
-0.9939305	算 的 主
-0.6415813	擔 任 主
-0.5588573	<s> 主 席
-0.5588573	任 主 席
-0.93286115	主 席 國
-0.84186804	建 設 國
-1.2217609	社 會 國
-1.4005153	吸 引 國
-0.96582544	家 及 國
-1.1085578	融 入 國
-0.39027053	席 國 家
-0.39027053	會 國 家
-0.39027053	入 國 家
-1.0958451	國 家 十
-0.9357854	約 四 十
-1.2571348	零 二 十
-1.1505852	約 二 十
-1.637394	政 府 十
-0.74008787	約 三 十
-1.1998981	至 約 十
-0.777772	百 六 十
-1.2126904	涵 蓋 十
-0.809458	家 十 四
-0.809458	約 十 四
-0.8928684	約 五 四
-1.3586283	約 二 四
-1.061993	零 一 四
-1.1513654	超 過 四
-1.1998981	年 約 四
-0.9087049	增 至 四
-1.0958451	過 去 四
-0.8146148	四 十 五
-0.98103285	三 十 五
-1.1843078	十 四 五
-1.3793867	九 年 五
-0.9572322	供 約 五
-1.106648	過 去 五
-0.9041573	四 五 規
-0.8729106	資 源 規
-0.7864064	育 常 規
-0.5581256	五 規 劃
-0.41001445	源 規 劃
-0.13384607	人 計 劃
-0.13384607	才 計 劃
-0.11014291	同 計 劃
-0.13384607	啲 計 劃
-0.13384607	習 計 劃
-0.13384607	訓 計 劃
-0.13384607	友 計 劃
-0.13384607	境 計 劃
-1.3534359	規 劃 綱
-0.84830385	的 主 要
-0.6415813	劃 綱 要
-0.6428775	的 重 要
-0.55853367	更 重 要
-0.8821796	綱 要 明
-0.7864064	我 們 明
-0.6415813	晰 闡 明
-0.84856933	要 明 確
-0.64202577	明 確 支
-0.6415813	確 支 持
-0.97116005	門 會 持
-1.5896888	相 關 持
-0.83596313	支 持 香
-0.87080455	央 對 香
-1.3506019	推 動 香
-1.3646407	方 面 香
-1.097708	提 升 香
-0.6341478	相 信 香
-0.6341478	推 廣 香
-0.837791	留 意 香
-0.6341478	發 揮 香
-0.04301062	持 香 港
-0.04301062	對 香 港
-0.04301062	動 香 港
-0.04301062	面 香 港
-0.04301062	升 香 港
-0.04301062	信 香 港
-0.04301062	廣 香 港
-0.04301062	意 香 港
-0.04301062	揮 香 港
-0.5465174	二 本 港
-0.5465174	蓋 本 港
-0.5465174	示 本 港
-0.84186804	生 留 港
-0.6378487	數 碼 港
-0.026656741	才 來 港
-0.555812	隊 來 港
-0.6378487	港 回 港
-1.7182289	香 港 建
-0.64102113	和 基 建
-0.7864064	港 建 設
-0.8821796	區 所 設
-0.6415813	電 路 設
-0.39027053	設 國 際
-0.39027053	引 國 際
-0.39027053	及 國 際
-1.2625338	香 港 創
-1.1173922	本 港 創
-1.0361283	國 際 創
-0.7480367	技 ( 創
-0.44015396	港 對 創
-0.6095381	生 對 創
-0.7216834	港 的 創
-0.7216834	名 的 創
-0.7216834	勃 的 創
-0.7216834	供 的 創
-0.7216834	地 的 創
-0.79232	港 在 創
-0.94870687	生 在 創
-0.85449815	傑 出 創
-0.8837681	推 動 創
-1.4414102	發 展 創
-1.0902826	意 見 創
-1.5127872	零 人 創
-0.61375207	如 初 創
-0.89889956	擎 就 創
-1.1867609	增 加 創
-0.91493666	機 會 創
-1.28218	吸 引 創
-0.61375207	千 里 創
-0.61375207	隨 着 創
-0.7480367	大 量 創
-1.0042404	本 地 創
-0.7480367	學 IT 創
-0.8857579	驗 與 創
-0.61375207	投 身 創
-0.61375207	業 共 創
-0.61375207	加 強 創
-0.7480367	包 括 創
-0.69911313	際 創 新
-0.69911313	會 創 新
-0.69911313	IT 創 新
-0.69911313	括 創 新
-0.9041573	斷 更 新
-0.9402547	的 最 新
-1.4050169	來 港 科
-0.109514154	港 創 科
-0.13306001	( 創 科
-0.009555741	對 創 科
-0.03874443	的 創 科
-0.109514154	在 創 科
-0.13306001	出 創 科
-0.109514154	動 創 科
-0.13306001	展 創 科
-0.13306001	見 創 科
-0.13306001	人 創 科
-0.13306001	就 創 科
-0.13306001	加 創 科
-0.13306001	引 創 科
-0.13306001	里 創 科
-0.13306001	着 創 科
-0.13306001	量 創 科
-0.109514154	地 創 科
-0.13306001	與 創 科
-0.13306001	身 創 科
-0.13306001	強 創 科
-0.8222062	創 新 科
-1.4210618	學 生 科
-0.8262966	護 理 科
-0.9245544	代 和 科
-0.87969804	的 是 科
-0.8637371	新 及 科
-0.8637371	化 及 科
-0.87588346	關 學 科
-0.57218146	STEM 學 科
-0.91289854	三 個 科
-0.628049	資 訊 科
-0.76763237	時 將 科
-0.628049	高 端 科
-0.628049	藝 術 科
-0.34952685	港 科 技
-0.27320507	新 科 技
-0.34952685	生 科 技
-0.34952685	和 科 技
-0.34952685	是 科 技
-0.27320507	及 科 技
-0.34952685	個 科 技
-0.34952685	訊 科 技
-0.34952685	將 科 技
-0.34952685	端 科 技
-0.34952685	術 科 技
-1.6952231	科 技 (
-1.5450178	員 會 (
-2.2738848	創 科 )
-1.5450178	員 會 )
-0.98567057	共 創 中
-0.7760655	科 ) 中
-0.7760655	映 了 中
-1.1613557	報 告 中
-0.7760655	安 全 中
-0.5531074	請 當 中
-0.5531074	學 當 中
-0.78653634	課 程 中
-0.9163669	以 外 中
-1.4804643	資 助 中
-0.5734118	創 中 心
-0.5734118	) 中 心
-0.5734118	全 中 心
-1.1153226	中 心 充
-0.94738203	府 十 分
-1.6164875	計 劃 分
-0.84385437	所 設 分
-0.6390893	心 充 分
-0.78293204	明 部 分
-0.90497136	充 分 反
-0.64202577	分 反 映
-0.64102113	反 映 了
-0.8469541	審 視 了
-0.95796126	了 中 央
-1.3901334	香 港 對
-1.2047755	本 港 對
-0.64033353	中 央 對
-1.4989563	學 生 對
-0.84584975	以 配 對
-0.8693218	主 席 的
-1.3642278	計 劃 的
-0.98824227	重 要 的
-1.4151288	香 港 的
-0.97158134	創 科 的
-0.72557557	學 科 的
-1.0916805	四 年 的
-0.835618	一 年 的
-1.0165012	推 出 的
-1.1211126	發 展 的
-0.67622733	人 才 的
-1.2247083	方 面 的
-1.0165012	業 界 的
-0.75069547	動 力 的
-1.3500619	人 力 的
-0.78964823	備 度 的
-0.8384756	知 名 的
-0.8693218	蓬 勃 的
-0.90110743	專 業 的
-1.200427	不 同 的
-0.7354475	僱 用 的
-0.60447574	理 想 的
-1.1059386	涵 蓋 的
-1.1179684	資 源 的
-0.3509703	相 關 的
-0.60447574	公 布 的
-1.1059386	推 算 的
-0.53388375	供 求 的
-1.2737672	提 供 的
-0.7354475	與 量 的
-1.3006645	本 地 的
-1.3171369	工 作 的
-0.60447574	業 後 的
-0.8693218	範 疇 的
-0.60447574	層 次 的
-0.60447574	五 月 的
-0.60447574	寶 貴 的
-1.4920665	科 的 重
-1.2113081	展 的 重
-1.1180036	勢 更 重
-1.0313957	的 重 視
-0.7864064	續 檢 視
-0.6415813	上 審 視
-0.84856933	重 視 自
-2.2386181	創 科 行
-0.9841486	蓋 的 行
-0.6366115	視 自 行
-0.83989084	視 現 行
-0.9368135	眾 多 行
-0.91007686	及 各 行
-0.8412671	生 進 行
-1.3312205	關 的 政
-0.92149603	次 的 政
-0.7331415	自 行 政
-0.7331415	現 行 政
-0.56839484	年 施 政
-0.84670234	施 向 政
-0.62084174	本 屆 政
-0.9289165	專 才 政
-0.8965879	個 由 政
-1.4396973	上 升 政
-1.2592026	不 同 政
-0.91040325	研 和 政
-0.62084174	改 變 政
-1.1316395	相 關 政
-0.8149738	配 合 政
-0.757724	如 下 政
-0.757724	興 趣 政
-1.1114359	多 個 政
-0.880933	劃 等 政
-1.4091005	工 作 政
-0.62084174	其 他 政
-0.62084174	而 言 政
-1.2740529	力 的 長
-1.2563694	行 政 長
-1.7264413	人 力 長
-0.84584975	司 司 長
-0.8829534	政 長 官
-1.6450809	香 港 在
-0.6341478	長 官 在
-0.7760655	成 效 在
-0.9321015	致 力 在
-1.0095696	學 生 在
-0.9687443	員 會 在
-1.0127213	培 育 在
-1.7575603	大 學 在
-0.9313435	合 作 在
-0.7760655	視 了 二
-0.979339	布 的 二
-0.8213904	官 在 二
-0.991009	會 在 二
-0.4546198	二 零 二
-0.8114444	千 零 二
-0.5531074	港 於 二
-0.5531074	府 於 二
-0.6341478	球 第 二
-0.3872235	業 由 二
-0.3872235	幅 由 二
-0.3872235	作 由 二
-0.5547825	由 約 二
-0.835522	辦 約 二
-0.9335427	升 至 二
-0.71831644	加 至 二
-0.9530184	十 四 零
-0.7953234	至 四 零
-0.58014464	十 五 零
-0.3333457	了 二 零
-0.3333457	的 二 零
-0.26167914	在 二 零
-0.43972364	零 二 零
-0.38156992	於 二 零
-0.019628562	由 二 零
-0.26167914	至 二 零
-1.198441	約 一 零
-0.83989084	二 千 零
-0.83989084	十 九 零
-0.7794852	十 六 零
-0.9336215	過 四 一
-1.5165523	零 二 一
-0.2778664	二 零 一
-1.5961777	發 展 一
-1.6282128	政 府 一
-1.1484294	超 過 一
-0.835522	中 約 一
-1.0120586	的 約 一
-0.8906454	) 是 一
-0.5531074	港 進 一
-0.40699393	會 進 一
-0.9819073	零 二 七
-1.4099971	零 一 七
-1.0220587	約 一 七
-0.90281034	約 七 七
-0.9592601	數 約 七
-0.5321724	一 四 年
-0.78600496	去 四 年
-0.96987677	劃 的 年
-1.9452188	二 零 年
-0.9358149	二 一 年
-0.4768852	二 七 年
-0.7902148	一 七 年
-1.3306316	九 年 年
-0.8963824	去 三 年
-0.629262	數 近 年
-0.031619325	一 九 年
-0.76930594	上 今 年
-0.9536693	個 學 年
-0.629262	年 每 年
-0.43117335	的 青 年
-0.43117335	為 青 年
-1.2293595	七 年 施
-0.8959601	今 年 施
-0.14477424	的 措 施
-0.14477424	元 措 施
-0.11886041	及 措 施
-0.61390936	施 政 報
-0.9463936	爭 力 報
-1.2366096	推 算 報
-0.11895401	政 報 告
-0.1448919	力 報 告
-0.1448919	算 報 告
-1.2183461	青 年 提
-0.78653634	報 告 提
-1.0638598	方 向 提
-1.6282128	政 府 提
-0.8906454	年 已 提
-0.8906454	各 界 提
-0.8693247	態 所 提
-0.92924	並 就 提
-0.6341478	積 極 提
-0.6013833	告 提 出
-0.8339497	亦 推 出
-0.8339497	構 推 出
-0.6415813	疇 傑 出
-1.1210237	提 出 循
-0.6415813	出 循 八
-1.2759411	約 三 八
-0.8478544	有 九 八
-1.3177124	本 港 大
-1.4103105	科 的 大
-1.166566	求 的 大
-0.9286196	學 在 大
-1.0767891	提 出 大
-0.8275267	循 八 大
-1.5350629	發 展 大
-1.5768627	政 府 大
-1.2450979	百 人 大
-1.1704812	百 名 大
-0.9105709	則 加 大
-1.3432503	吸 引 大
-0.891912	外 各 大
-0.5226228	聘 請 大
-0.62683946	下 壯 大
-0.31718773	資 助 大
-2.2482622	創 科 方
-1.2647257	力 的 方
-0.9700502	八 大 方
-0.9124018	才 三 方
-1.4920557	人 才 方
-0.9124018	境 等 方
-1.2880037	措 施 向
-0.7282074	的 方 向
-0.7282074	大 方 向
-0.9041573	定 期 向
-1.2422484	求 的 推
-1.0573016	方 向 推
-1.8037415	人 才 推
-1.1321237	層 面 推
-1.1586165	大 力 推
-1.2603518	府 亦 推
-0.8862333	才 是 推
-0.8582493	資 源 推
-1.5435698	相 關 推
-0.8320707	見 以 推
-0.92081153	機 構 推
-0.36568373	向 推 動
-0.36568373	面 推 動
-0.36568373	力 推 動
-0.36568373	是 推 動
-0.36568373	以 推 動
-0.6415813	外 活 動
-0.6415813	來 勞 動
-1.0923032	國 家 發
-1.0923032	國 際 發
-0.87649333	創 科 發
-1.2779793	科 技 發
-1.3646407	方 面 發
-0.39106417	行 研 發
-0.39106417	期 研 發
-0.39106417	和 研 發
-0.39106417	事 研 發
-0.83596313	從 而 發
-1.0923032	一 步 發
-0.9255913	經 濟 發
-0.22542089	家 發 展
-0.22542089	際 發 展
-0.011015021	科 發 展
-0.1817668	技 發 展
-0.22542089	面 發 展
-0.22542089	步 發 展
-0.22542089	濟 發 展
-0.64102113	討 擴 展
-0.9602039	第 二 本
-0.96358854	壯 大 本
-1.3446463	推 動 本
-1.5853758	發 展 本
-1.2034799	涵 蓋 本
-0.6329212	表 示 本
-0.5522096	展 非 本
-0.5522096	入 非 本
-1.4758224	資 助 本
-0.6329212	交 流 本
-0.7743658	優 化 本
-0.9553454	展 本 屆
-0.27577442	向 政 府
-0.27577442	屆 政 府
-0.27577442	才 政 府
-0.27577442	升 政 府
-0.27577442	變 政 府
-0.27577442	合 政 府
-0.27577442	下 政 府
-0.27577442	趣 政 府
-0.27577442	等 政 府
-0.27577442	作 政 府
-0.27577442	言 政 府
-1.6901683	政 府 史
-0.64202577	府 史 無
-0.64202577	史 無 前
-1.6878619	科 技 例
-0.64033353	無 前 例
-0.93777615	蓬 勃 例
-0.64033353	行 列 例
-1.2437887	青 年 投
-0.8836201	前 例 投
-0.787027	例 投 放
-0.64102113	投 放 超
-0.97217715	惠 及 超
-1.2029862	程 中 過
-0.43626902	放 超 過
-0.43626902	及 超 過
-1.5355997	工 作 過
-0.43626902	亦 透 過
-0.43626902	並 透 過
-1.3600872	培 訓 過
-1.2355634	於 二 千
-0.96037245	過 一 千
-0.6415813	一 日 千
-0.94738203	蓋 十 三
-0.84385437	一 千 三
-1.8920323	人 才 三
-0.6874455	的 約 三
-0.6874455	年 約 三
-0.6874455	至 約 三
-1.106648	過 去 三
-0.79689604	五 四 百
-0.79689604	二 四 百
-1.3662925	約 二 百
-0.9528583	四 一 百
-0.80091465	一 七 百
-0.68416315	七 七 百
-0.555812	三 八 百
-0.555812	九 八 百
-0.9124018	千 三 百
-0.948074	三 百 億
-0.64102113	百 億 元
-1.1894993	及 多 元
-1.5491875	才 的 措
-0.7864064	億 元 措
-0.610445	策 及 措
-1.3793867	四 年 已
-1.2770708	措 施 已
-1.176887	報 告 已
-0.8778522	練 局 已
-0.78293204	至 今 已
-0.90497136	施 已 漸
-0.64102113	已 漸 見
-0.5581256	的 意 見
-0.41001445	供 意 見
-0.8821796	漸 見 成
-0.6415813	剛 完 成
-0.6415813	子 集 成
-0.8469541	見 成 效
-0.9031325	最 有 效
-0.46620333	創 科 人
-1.4730111	科 技 人
-0.9125278	告 中 人
-0.9426674	用 的 人
-0.9065515	效 在 人
-0.4747883	四 零 人
-0.3190728	五 零 人
-0.41577142	九 零 人
-0.41577142	六 零 人
-0.749773	七 年 人
-1.3771995	研 發 人
-0.9216267	四 百 人
-0.9216267	七 百 人
-1.0440187	世 界 人
-1.093808	例 如 人
-1.2617671	就 業 人
-0.873223	認 同 人
-0.9408027	吸 引 人
-0.88874954	評 估 人
-1.0202595	優 勢 人
-1.3526773	本 地 人
-1.2743833	科 學 人
-1.0811112	海 外 人
-1.0933838	參 與 人
-1.0392389	研 究 人
-0.6149257	匯 聚 人
-0.6149257	便 利 人
-0.7496363	檢 討 人
-0.6149257	各 項 人
-0.22438549	科 人 才
-0.32042804	技 人 才
-0.32042804	中 人 才
-0.32042804	在 人 才
-0.32042804	界 人 才
-0.32042804	同 人 才
-0.25238976	引 人 才
-0.32042804	地 人 才
-0.32042804	外 人 才
-0.32042804	究 人 才
-0.32042804	聚 人 才
-0.32042804	利 人 才
-0.32042804	討 人 才
-0.32042804	項 人 才
-0.7864064	的 專 才
-0.6877259	地 優 才
-0.6877259	將 優 才
-0.25346994	科 方 面
-0.25346994	三 方 面
-0.20302612	才 方 面
-0.25346994	等 方 面
-0.5581256	觀 層 面
-0.5581256	個 層 面
-1.7247143	香 港 於
-1.6864588	政 府 於
-1.4975986	畢 業 於
-1.1996052	二 十 世
-1.4182249	吸 引 世
-0.43755233	十 世 界
-0.43755233	引 世 界
-0.8967528	科 業 界
-0.8967528	與 業 界
-0.91945237	會 各 界
-1.9322777	人 才 競
-0.64202577	才 競 爭
-0.88445014	府 大 力
-0.88445014	加 大 力
-0.9147393	勞 動 力
-0.41778958	科 人 力
-0.5032608	年 人 力
-0.72673684	估 人 力
-0.72673684	勢 人 力
-0.6390893	競 爭 力
-0.78293204	府 致 力
-1.9322777	人 才 準
-0.64202577	才 準 備
-0.97655576	的 年 度
-1.1914046	大 力 度
-0.6415813	準 備 度
-0.9928226	度 的 表
-0.9031325	告 已 表
-0.8478544	檢 視 現
-0.7864064	的 表 現
-1.2366096	部 門 現
-0.8469541	表 現 排
-0.7856248	業 安 排
-0.51623845	一 百 名
-0.59202874	七 百 名
-0.59202874	八 百 名
-0.7864064	現 排 名
-0.6415813	際 知 名
-0.9031325	排 名 全
-0.7856248	絡 安 全
-0.787027	名 全 球
-0.64202577	全 球 第
-1.00976	創 科 生
-0.8965224	畢 業 生
-0.7058091	的 學 生
-0.32098854	大 學 生
-0.7058091	養 學 生
-1.1103095	研 究 生
-0.03299154	科 生 態
-0.9687271	碼 港 亦
-0.9689695	近 年 亦
-0.57573426	政 府 亦
-1.1030171	生 態 亦
-0.9684848	各 業 亦
-1.2221006	部 門 亦
-0.9404134	態 亦 越
-0.64102113	亦 越 趨
-0.7856248	大 致 趨
-1.4029442	方 面 蓬
-0.7856248	越 趨 蓬
-0.43778086	面 蓬 勃
-0.43778086	趨 蓬 勃
-0.25013912	技 例 如
-0.25013912	勃 例 如
-0.25013912	列 例 如
-0.64102113	答 覆 如
-1.1811702	例 如 初
-0.98833865	初 創 企
-1.163312	透 過 企
-1.5056425	本 地 企
-1.5044492	資 助 企
-1.6773521	的 創 業
-2.2020507	創 科 業
-0.7458026	的 行 業
-0.7458026	多 行 業
-0.10305863	創 企 業
-0.10305863	過 企 業
-0.10305863	地 企 業
-0.10305863	助 企 業
-0.47571766	港 就 業
-0.47571766	的 就 業
-0.47571766	業 就 業
-0.9008994	行 各 業
-0.9199572	並 與 業
-0.94626486	再 工 業
-0.10305863	生 畢 業
-0.10305863	地 畢 業
-0.10305863	學 畢 業
-0.10305863	助 畢 業
-0.7726726	多 職 業
-0.7726726	分 專 業
-1.4640017	企 業 由
-1.210259	人 數 由
-0.84186804	升 幅 由
-0.84186804	目 則 由
-0.9319828	一 個 由
-1.5259185	工 作 由
-1.1881759	當 中 約
-0.61264586	年 的 約
-1.183957	四 年 約
-1.183957	九 年 約
-0.72205365	數 由 約
-0.72205365	則 由 約
-0.7393388	升 至 約
-1.1965909	人 數 約
-1.414989	提 供 約
-0.9255913	舉 辦 約
-0.6341478	平 均 約
-0.9533326	一 零 間
-1.1931752	八 百 間
-0.9041573	學 期 間
-1.596042	零 人 上
-0.83989084	零 間 上
-1.0186353	大 幅 上
-0.9295509	才 加 上
-0.9001404	事 實 上
-1.0994164	一 步 上
-0.45542806	會 議 上
-0.9939305	想 的 升
-0.8032411	界 提 升
-0.8032411	就 提 升
-0.35354304	人 上 升
-0.35354304	間 上 升
-0.35354304	幅 上 升
-0.35354304	步 上 升
-0.78293204	安 排 至
-0.1530109	上 升 至
-0.902962	倍 增 至
-1.2902455	增 加 至
-0.6390893	開 始 至
-1.6107793	零 人 同
-0.84584975	百 間 同
-0.64033353	分 認 同
-0.18716604	在 不 同
-0.18716604	出 不 同
-0.18716604	過 不 同
-0.18716604	校 不 同
-0.8800105	力 長 期
-0.7253883	人 同 期
-0.7253883	間 同 期
-0.9744982	在 學 期
-0.64033353	會 定 期
-1.1210237	同 期 它
-0.64102113	期 它 們
-0.64102113	而 我 們
-1.1103095	生 態 所
-0.78466576	它 們 所
-0.901876	會 有 所
-0.78466576	灣 區 所
-0.8829534	們 所 僱
-2.2738848	創 科 用
-0.64102113	所 僱 用
-0.8015125	的 人 數
-0.8015125	業 人 數
-0.8015125	與 人 數
-0.8478544	人 員 數
-0.97330344	司 及 數
-0.8865284	出 大 幅
-0.8865284	人 大 幅
-0.9031325	的 升 幅
-0.96364707	回 港 就
-0.98173714	界 的 就
-0.9633097	創 業 就
-1.1684606	議 上 就
-1.0156683	適 時 就
-0.63537794	引 擎 就
-0.8928684	果 並 就
-0.63537794	平 台 就
-1.2260746	人 數 近
-0.93485177	年 亦 有
-0.9572322	均 約 有
-0.9659716	或 會 有
-0.9353117	的 最 有
-0.6390893	港 獨 有
-0.9041573	亦 有 理
-0.6415813	速 處 理
-0.6415813	康 護 理
-0.84856933	有 理 想
-1.6058111	零 人 增
-1.024631	大 幅 增
-0.9366979	上 就 增
-0.84385437	展 高 增
-0.6390893	額 倍 增
-1.199236	程 中 加
-1.8760138	人 才 加
-0.32735902	人 增 加
-0.32735902	幅 增 加
-0.32735902	就 增 加
-0.84186804	劃 則 加
-0.9124018	心 等 加
-0.8430157	生 參 加
-1.2014914	二 十 九
-0.3291431	零 一 九
-0.9041573	約 有 九
-0.9182524	進 行 研
-1.1544956	例 如 研
-1.097708	同 期 研
-0.93670976	業 和 研
-0.83596313	從 事 研
-0.8906454	名 為 研
-0.92472756	百 個 研
-0.83596313	與 教 研
-0.6341478	的 調 研
-0.9902519	發 人 員
-1.4891573	企 業 員
-0.08100326	劃 委 員
-0.08100326	( 委 員
-0.08100326	展 委 員
-0.08100326	詢 委 員
-0.08100326	濟 委 員
-0.90497136	員 數 目
-1.6407406	計 劃 則
-0.6415813	數 目 則
-0.6415813	學 金 則
-1.1996052	三 十 六
-0.94655097	二 百 六
-1.615805	零 人 當
-0.7864064	申 請 當
-1.8110493	大 學 當
-0.84750915	人 當 然
-0.64102113	之 冠 然
-0.7856248	當 然 因
-0.88165575	算 需 因
-0.43778086	然 因 應
-0.43778086	需 因 應
-0.9391412	因 應 時
-0.43726417	會 適 時
-0.43726417	並 適 時
-0.84856933	應 時 代
-1.4559301	企 業 和
-0.94404083	調 研 和
-0.6366115	時 代 和
-0.01902463	策 局 和
-0.9295509	用 地 和
-0.49365368	實 習 和
-0.5549086	學 習 和
-0.7794852	學 者 和
-1.6719285	發 展 這
-0.64202577	展 這 些
-0.64202577	這 些 統
-0.83401257	路 設 計
-0.9819515	學 人 計
-1.2035583	優 才 計
-0.8420352	不 同 計
-0.6329212	些 統 計
-0.6329212	多 啲 計
-1.120242	實 習 計
-1.3285815	培 訓 計
-0.6329212	師 友 計
-0.7743658	入 境 計
-1.206769	當 中 涵
-0.9174924	排 至 涵
-0.9543048	統 計 涵
-0.64033353	領 域 涵
-0.10389215	中 涵 蓋
-0.10389215	至 涵 蓋
-0.10389215	計 涵 蓋
-0.10389215	域 涵 蓋
-1.2473115	行 業 類
-0.9031325	劃 分 別
-0.64102113	業 類 別
-0.787027	類 別 或
-0.94075656	同 的 會
-0.94075656	月 的 會
-1.6104128	政 府 會
-0.9773034	府 亦 會
-0.7685158	門 亦 會
-0.018723559	委 員 會
-0.631698	別 或 會
-0.93965936	教 資 會
-1.1989467	部 門 會
-1.0068866	需 求 會
-0.43244165	應 社 會
-0.43244165	與 社 會
-1.7411008	大 學 會
-0.8669607	訓 機 會
-0.8829534	有 所 改
-0.64202577	所 改 變
-0.90497136	十 分 認
-0.78293204	會 ) 是
-0.989012	要 的 是
-1.8920323	人 才 是
-0.6390893	算 只 是
-0.8785957	良 機 是
-1.0826005	重 要 引
-0.0809693	是 吸 引
-0.06735253	及 吸 引
-0.0809693	為 吸 引
-0.0809693	學 吸 引
-0.0809693	個 吸 引
-0.9202956	要 引 擎
-0.2182796	人 力 資
-0.83596313	力 度 資
-0.83596313	金 則 資
-0.7760655	分 別 資
-0.95577705	資 會 資
-0.9255913	才 庫 資
-0.83596313	於 教 資
-0.92472756	辦 與 資
-0.6341478	形 式 資
-0.019505082	力 資 源
-1.3511536	規 劃 經
-1.7247143	香 港 經
-0.7864064	多 元 經
-0.84830385	劃 經 諮
-1.5927998	政 策 諮
-1.5556347	工 作 諮
-0.1448919	經 諮 詢
-0.1448919	策 諮 詢
-0.1448919	作 諮 詢
-0.7760655	基 建 相
-1.9504833	創 科 相
-1.2709434	學 科 相
-1.6262635	科 技 相
-0.92924	台 就 相
-1.0923032	諮 詢 相
-1.2080607	部 門 相
-0.6341478	明 白 相
-0.95847404	會 及 相
-1.0661781	讀 STEM 相
-0.0780318	科 相 關
-0.09405223	技 相 關
-0.09405223	就 相 關
-0.09405223	詢 相 關
-0.09405223	門 相 關
-0.09405223	白 相 關
-0.09405223	及 相 關
-0.09405223	STEM 相 關
-0.33931598	的 政 策
-0.5096692	行 政 策
-0.44606176	同 政 策
-0.44606176	和 政 策
-0.33931598	關 政 策
-0.44606176	個 政 策
-0.44606176	他 政 策
-1.6878619	科 技 局
-0.9733175	展 大 局
-0.26301876	政 策 局
-0.64033353	訓 練 局
-0.8469541	闡 明 部
-0.11978111	局 和 部
-0.023077343	和 部 門
-0.84856933	門 現 綜
-0.6415813	現 綜 合
-0.8478544	外 配 合
-0.7864064	緊 密 合
-0.84856933	綜 合 答
-0.64202577	合 答 覆
-0.8812053	覆 如 下
-0.64102113	管 齊 下
-0.97746366	年 年 底
-0.64102113	年 底 公
-0.64102113	技 園 公
-0.787027	底 公 布
-0.57404625	的 推 算
-0.41950518	源 推 算
-0.57404625	關 推 算
-0.787027	已 表 示
-1.5403949	才 的 需
-0.9372041	業 亦 需
-1.2317191	推 算 需
-0.64033353	長 遠 需
-0.63407236	的 需 求
-0.63407236	遠 需 求
-0.7565252	力 供 求
-0.7565252	期 供 求
-0.9563579	擴 展 非
-1.0307107	需 求 非
-0.9041573	輸 入 非
-0.84750915	求 非 常
-0.8469541	教 育 常
-0.787027	非 常 殷
-0.64102113	常 殷 切
-0.7856248	施 密 切
-0.787027	殷 切 屬
-0.64202577	切 屬 眾
-0.9447629	力 在 多
-0.96398467	三 年 多
-1.3712956	方 面 多
-0.63537794	屬 眾 多
-0.8928684	讓 更 多
-1.0737534	涉 及 多
-0.87562007	值 及 多
-0.63537794	IT 識 多
-0.63537794	供 很 多
-1.2473115	行 業 之
-0.64202577	業 之 冠
-0.7864064	冠 然 而
-0.9041573	態 從 而
-0.7864064	總 括 而
-0.84856933	然 而 我
-0.84856933	們 明 白
-1.2383616	推 算 只
-1.472841	來 港 從
-1.106648	生 態 從
-0.89960647	只 是 從
-0.6390893	一 直 從
-0.89960647	庫 為 從
-0.90497136	是 從 宏
-0.64202577	從 宏 觀
-0.6415813	宏 觀 層
-1.1791168	多 個 層
-0.8478544	的 高 層
-1.1623482	層 面 評
-1.327884	習 和 評
-0.43778086	面 評 估
-0.43778086	和 評 估
-0.21822943	年 提 供
-0.21822943	向 提 供
-0.21822943	府 提 供
-0.21822943	已 提 供
-0.21822943	所 提 供
-0.21822943	極 提 供
-1.732406	人 力 供
-0.9041573	長 期 供
-1.241583	的 大 致
-1.6818238	政 府 致
-0.7864064	致 趨 勢
-0.7864064	展 形 勢
-0.6877259	的 優 勢
-0.6877259	有 優 勢
-0.6334556	趨 勢 更
-0.735691	優 勢 更
-0.64033353	不 斷 更
-0.64033353	劃 讓 更
-0.64033353	清 單 更
-0.96127164	展 一 日
-0.84856933	日 千 里
-0.9391412	因 應 社
-0.9382501	手 與 社
-1.0682862	國 家 及
-1.2419329	創 新 及
-1.2329828	增 加 及
-1.4428742	員 會 及
-1.1470411	政 策 及
-0.854793	技 局 及
-0.6256333	的 普 及
-0.82248944	挽 留 及
-0.6256333	驗 室 及
-0.6256333	已 惠 及
-0.82248944	公 司 及
-1.2935638	培 訓 及
-0.7643044	業 化 及
-0.42927784	理 涉 及
-0.42927784	作 涉 及
-0.6256333	醫 療 及
-0.6256333	增 值 及
-0.88165575	配 對 形
-1.6615824	發 展 形
-1.2010775	會 在 不
-1.1122355	推 出 不
-1.1602944	透 過 不
-0.8785957	形 勢 不
-0.6390893	分 校 不
-0.9070154	勢 不 斷
-0.9041573	更 新 事
-0.9939305	量 的 事
-0.9041573	港 從 事
-1.2956297	創 新 實
-2.258125	創 科 實
-1.4425471	提 供 實
-0.84385437	新 事 實
-1.4969974	本 地 實
-0.9416287	實 上 隨
-0.64202577	上 隨 着
-1.6353884	科 的 普
-0.98657346	出 的 各
-0.9246697	各 行 各
-1.1085578	世 界 各
-1.2217609	社 會 各
-0.96582544	普 及 各
-1.2657962	此 外 各
-0.88165575	亦 需 聘
-0.9391412	機 構 聘
-0.43726417	需 聘 請
-0.43726417	構 聘 請
-0.64102113	的 申 請
-1.241583	請 大 量
-0.9382501	質 與 量
-0.9403518	加 上 今
-0.9187179	始 至 今
-0.25632748	大 本 地
-0.25632748	動 本 地
-0.20517318	非 本 地
-0.25632748	助 本 地
-0.25632748	流 本 地
-0.25632748	化 本 地
-0.7864064	科 用 地
-0.91945237	界 各 地
-0.9526684	地 和 基
-0.9500844	建 相 信
-0.8829534	的 長 遠
-1.7247143	香 港 進
-1.1910744	業 生 進
-1.0792855	亦 會 進
-0.8791175	求 會 進
-0.033131685	進 一 步
-0.96127164	府 一 直
-1.2937135	科 技 培
-1.5233263	關 的 培
-1.4920557	人 才 培
-1.3126707	習 和 培
-0.89734876	直 從 培
-0.7812052	從 小 培
-0.90045905	才 培 育
-0.7581049	從 培 育
-0.8469541	STEM 教 育
-1.0318004	培 育 挽
-1.1910744	業 生 留
-0.7864064	密 切 留
-0.6415813	育 挽 留
-0.89960647	機 是 吸
-0.88168573	留 及 吸
-0.88168573	訓 及 吸
-0.89960647	生 為 吸
-1.7924781	大 學 吸
-0.9344284	零 個 吸
-0.9472555	面 多 管
-0.64202577	多 管 齊
-0.787027	齊 下 壯
-1.5144212	人 才 庫
-1.6164875	計 劃 為
-1.2149123	百 名 為
-0.94119495	究 生 為
-0.9353117	才 庫 為
-0.6390893	途 徑 為
-0.95624197	助 中 小
-0.9031325	為 從 小
-0.93332404	小 培 養
-1.6086378	創 科 學
-0.91292274	理 科 學
-0.9383665	外 中 學
-1.544302	科 的 學
-1.1723715	生 在 學
-0.3732491	港 大 學
-0.42640957	的 大 學
-0.3732491	名 大 學
-0.3732491	引 大 學
-0.3732491	各 大 學
-0.42640957	請 大 學
-0.021158041	助 大 學
-1.5381346	相 關 學
-0.77098596	中 小 學
-0.63047826	培 養 學
-0.9175916	五 個 學
-0.6246051	與 STEM 學
-0.72452146	讀 STEM 學
-0.63047826	技 獎 學
-0.63047826	職 場 學
-1.6353884	科 的 興
-0.64102113	的 興 趣
-0.64102113	及 奇 趣
-0.94271225	六 十 個
-0.89510286	去 五 個
-1.1915443	四 零 個
-0.9503822	是 一 個
-0.91007686	十 三 個
-1.1800308	四 百 個
-0.79449743	在 多 個
-0.9518314	及 多 個
-1.3881602	推 動 STEM
-0.93936133	個 與 STEM
-0.4581867	修 讀 STEM
-0.84830385	業 於 教
-0.8825444	動 STEM 教
-1.1791168	參 與 教
-0.84477127	常 規 課
-1.5317767	關 的 課
-0.9518694	作 在 課
-1.1122355	融 入 課
-1.3600872	培 訓 課
-0.18741626	規 課 程
-0.18741626	在 課 程
-0.18741626	入 課 程
-0.18741626	訓 課 程
-1.6407406	計 劃 以
-1.1796339	意 見 以
-1.1848662	課 程 以
-0.905705	的 課 外
-0.84584975	程 以 外
-0.14469361	動 此 外
-0.14469361	見 此 外
-0.14469361	位 此 外
-0.4369102	向 海 外
-0.4369102	加 海 外
-0.97580755	中 學 IT
-0.7856248	奇 趣 IT
-0.90516347	新 實 驗
-0.64102113	間 體 驗
-0.787027	實 驗 室
-0.97419834	室 及 奇
-0.787027	趣 IT 識
-0.9472555	識 多 啲
-0.21809788	度 資 助
-0.21809788	則 資 助
-0.21809788	別 資 助
-0.21809788	會 資 助
-0.21809788	庫 資 助
-0.21809788	式 資 助
-0.64102113	劃 協 助
-0.9031325	局 已 舉
-0.97580755	小 學 舉
-0.43778086	已 舉 辦
-0.43778086	學 舉 辦
-0.9295509	十 個 與
-0.7794852	體 驗 與
-0.93042433	舉 辦 與
-0.5549086	港 參 與
-0.5549086	程 參 與
-0.89510286	人 並 與
-0.6366115	的 質 與
-0.6366115	攜 手 與
-0.9492177	與 資 訊
-0.93158233	課 外 活
-0.91945237	活 動 此
-1.1796339	意 見 此
-0.6415813	崗 位 此
-0.969991	學 會 適
-0.9031325	況 並 適
-1.0293398	適 時 將
-1.1123419	一 步 將
-1.4338622	來 港 工
-1.4910786	關 的 工
-0.8785901	研 發 工
-0.9819515	如 人 工
-0.9405406	教 研 工
-0.83401257	業 員 工
-1.0887897	研 究 工
-0.6329212	外 再 工
-0.83401257	就 其 工
-0.6329212	制 訂 工
-0.9549908	人 工 智
-0.64202577	工 智 能
-0.64102113	智 能 區
-0.64102113	大 灣 區
-0.787027	能 區 塊
-0.64202577	區 塊 鏈
-1.6048506	計 劃 等
-1.6621649	科 技 等
-1.1030171	中 心 等
-1.2717059	措 施 等
-0.6378487	塊 鏈 等
-0.7812052	環 境 等
-0.9183909	鏈 等 融
-0.64102113	更 好 融
-1.9086645	人 才 入
-0.93688786	中 加 入
-0.4369102	等 融 入
-0.4369102	好 融 入
-0.64033353	及 輸 入
-0.4397102	中 過 去
-0.4397102	作 過 去
-0.4397102	訓 過 去
-0.97746366	學 年 每
-0.975413	每 年 平
-1.1123419	諮 詢 平
-0.787027	年 平 均
-1.2222319	百 名 修
-0.94530874	更 多 修
-0.43778086	名 修 讀
-0.43778086	多 修 讀
-1.4989563	學 生 畢
-1.5056425	本 地 畢
-1.8016645	大 學 畢
-0.901876	協 助 畢
-0.5168948	如 研 究
-0.5168948	為 研 究
-0.5168948	個 研 究
-0.3283196	科 實 習
-0.3283196	供 實 習
-0.3283196	地 實 習
-0.97580755	場 學 習
-1.6451976	計 劃 讓
-0.84856933	期 間 體
-0.8469541	密 合 作
-0.1906531	港 工 作
-0.1906531	的 工 作
-0.15496276	發 工 作
-0.1906531	研 工 作
-0.1906531	究 工 作
-0.1906531	其 工 作
-0.1906531	訂 工 作
-0.97746366	零 年 開
-0.64202577	年 開 始
-0.90497136	今 已 惠
-1.7061853	科 技 園
-0.7864064	園 公 司
-0.8478544	務 司 司
-0.6415813	政 務 司
-0.90497136	及 數 碼
-0.93850684	港 亦 透
-0.9031325	估 並 透
-0.9928226	後 的 青
-0.9031325	劃 為 青
-0.97517765	職 業 訓
-0.24319449	技 培 訓
-0.30774564	的 培 訓
-0.35306007	才 培 訓
-0.30774564	和 培 訓
-1.4430177	研 發 機
-1.6342232	局 和 機
-1.3666722	培 訓 機
-0.64033353	業 良 機
-1.7061853	科 技 獎
-0.9777238	獎 學 金
-1.489468	來 港 參
-1.5075729	學 生 參
-1.1848662	課 程 參
-0.8812053	期 向 海
-0.9382501	參 加 海
-1.165694	海 外 交
-0.64202577	外 交 流
-1.332791	習 和 師
-0.64202577	和 師 友
-1.6451976	計 劃 協
-1.5004947	畢 業 後
-0.787027	年 投 身
-0.93196166	科 行 列
-0.6349732	發 機 構
-0.6349732	和 機 構
-1.5592952	工 作 崗
-0.64202577	作 崗 位
-1.2838147	此 外 再
-0.97517765	工 業 化
-0.9038907	及 優 化
-0.8478544	年 度 配
-0.8478544	劃 以 配
-1.2818696	此 外 配
-0.787027	對 形 式
-0.9549908	員 工 接
-0.64202577	工 接 受
-0.9939305	席 的 高
-1.6673234	發 展 高
-0.6415813	接 受 高
-0.84856933	受 高 端
-0.94530874	年 多 職
-0.9031325	加 入 職
-0.9202956	業 訓 練
-1.2671778	百 人 並
-0.9353117	評 估 並
-1.5355997	工 作 並
-0.6390893	結 果 並
-0.6390893	情 況 並
-1.1210237	業 界 緊
-1.2855277	措 施 密
-0.64102113	界 緊 密
-0.787027	入 職 場
-1.4922376	企 業 共
-1.1153226	中 心 網
-0.64202577	心 網 絡
-1.3888996	就 業 安
-0.64102113	網 絡 安
-0.94024414	等 加 強
-0.95753205	育 在 匯
-0.64202577	在 匯 聚
-1.3944454	就 業 良
-1.2146012	展 的 最
-1.4362882	才 的 最
-0.787027	有 效 途
-0.64202577	效 途 徑
-0.90497136	徑 為 便
-0.64202577	為 便 利
-1.3037547	人 才 來
-1.0792855	優 才 來
-0.6415813	團 隊 來
-0.6415813	升 未 來
-0.9031325	才 入 境
-0.64102113	商 環 境
-1.6451976	計 劃 快
-0.64202577	劃 快 速
-0.64202577	快 速 處
-0.8469541	處 理 涉
-1.5510603	工 作 涉
-1.2415379	涉 及 輸
-0.99481076	作 的 申
-1.6952231	科 技 範
-0.9183909	技 等 範
-0.43778086	技 範 疇
-0.43778086	等 範 疇
-0.94113934	範 疇 傑
-1.1153226	國 際 知
-1.3905345	科 學 者
-0.64102113	持 份 者
-0.9404754	時 就 其
-0.95176005	者 和 其
-0.97330344	局 及 其
-0.84856933	和 其 團
-0.64202577	其 團 隊
-1.3039457	府 亦 剛
-0.64202577	亦 剛 完
-0.8469541	完 成 檢
-0.7856248	持 續 檢
-0.7856248	成 檢 討
-0.64102113	並 探 討
-1.9181163	人 才 清
-0.9031325	單 更 清
-0.787027	才 清 單
-0.787027	更 清 晰
-0.64202577	清 晰 闡
-0.9031325	部 分 專
-0.9928226	疇 的 專
-0.99481076	業 的 領
-0.64202577	的 領 域
-1.2383616	涵 蓋 醫
-0.64202577	蓋 醫 療
-0.97419834	療 及 健
-0.64202577	及 健 康
-0.64202577	健 康 護
-1.3955315	科 學 微
-0.8469541	集 成 電
-0.64102113	學 微 電
-0.787027	微 電 子
-0.64202577	電 子 集
-0.787027	成 電 路
-0.95538586	設 計 藝
-0.64202577	計 藝 術
-0.989012	面 的 優
-0.89960647	獨 有 優
-0.96830386	加 及 優
-0.9344284	各 地 優
-0.78293204	步 將 優
-0.84856933	度 配 額
-0.64202577	配 額 倍
-0.90497136	作 並 探
-0.787027	探 討 擴
-0.9773861	留 港 回
-0.975546	在 大 灣
-0.90497136	設 分 校
-1.237642	亦 會 定
-0.9595008	才 推 廣
-1.6719285	發 展 營
-0.64202577	展 營 商
-0.64202577	營 商 環
-1.3385342	規 劃 委
-0.78293204	會 ( 委
-1.6422906	發 展 委
-1.106648	諮 詢 委
-0.9353117	經 濟 委
-0.9830699	由 政 務
-0.8829534	司 長 擔
-0.64202577	長 擔 任
-0.8489349	高 層 次
-0.787027	詢 平 台
-0.9939305	貴 的 意
-1.009123	提 供 意
-0.8478544	切 留 意
-0.9063088	高 增 值
-0.5588573	港 經 濟
-0.5588573	元 經 濟
-0.90497136	年 五 月
-0.6099998	的 會 議
-1.1830626	議 上 審
-0.8829534	主 要 結
-0.64202577	要 結 果
-1.1210237	提 升 未
-0.8489349	未 來 勞
-1.5523571	才 的 質
-0.84856933	的 事 宜
-0.64202577	事 宜 包
-0.64102113	宜 包 括
-0.64102113	者 總 括
-0.84856933	及 其 他
-0.9202956	的 各 項
-0.9202956	施 等 積
-0.64202577	等 積 極
-1.4596335	提 供 很
-0.9472555	很 多 寶
-0.64202577	多 寶 貴
-0.99481076	源 的 調
-1.59454	政 策 制
-0.64202577	策 制 訂
-0.8469541	會 持 續
-0.64102113	會 繼 續
-0.90497136	最 新 情
-0.64202577	新 情 況
-0.84856933	關 持 份
-0.787027	份 者 總
-0.84856933	括 而 言
-0.97208893	府 會 繼
-0.787027	繼 續 攜
-0.64202577	續 攜 手
-0.9594093	而 發 揮
-1.7299246	香 港 獨
-1.1210237	勢 更 好

\end\
