\data\
ngram 1=278
ngram 2=544
ngram 3=645

\1-grams:
-2.7598019	<unk>	0
0	<s>	-0.06322111
-2.59734	</s>	0
-2.3575363	代	-0.28424153
-2.59734	理	-0.06322111
-2.59734	主	-0.06322111
-2.568079	席	-0.06322115
-2.0933168	在	-0.06322115
-2.2056355	六	-0.40918028
-2.59734	月	-0.06322111
-2.59734	九	-0.06322111
-2.568079	日	-0.06322111
-1.9302235	和	-0.22676717
-2.59734	十	-0.06322111
-2.59734	二	-0.06322111
-2.0041587	出	-0.09907744
-2.0041587	示	-0.2528651
-2.59734	威	-0.06322111
-2.568079	遊	-0.22878975
-1.9302235	行	-0.20262589
-1.5210688	的	-0.09166543
-1.7630186	人	-0.09491848
-2.59734	士	-0.06322111
-2.3575363	絕	-0.16632149
-2.568079	大	-0.06322111
-2.568079	部	-0.22878975
-2.3575363	分	-0.06322111
-1.8119324	我	-0.09494406
-2.59734	同	-0.06322111
-2.568079	意	-0.06322111
-2.568079	局	-0.22878975
-2.59734	長	-0.06322111
-2.59734	特	-0.06322111
-2.59734	區	-0.06322111
-2.3575363	政	-0.16632149
-2.59734	府	-0.06322111
-2.568079	所	-0.06322111
-2.0933168	說	-0.06322115
-2.568079	都	-0.22878975
-1.7190604	是	-0.12663193
-2.59734	平	-0.06322111
-2.2056355	想	-0.06322111
-2.2056355	清	-0.21759039
-2.59734	楚	-0.06322111
-2.2056355	表	-0.21759039
-2.59734	達	-0.06322111
-1.6088781	他	-0.6591362
-2.568079	們	-0.06322111
-2.568079	治	-0.06322111
-2.59734	訴	-0.06322111
-2.59734	求	-0.06322111
-1.7630186	這	-0.2995359
-2.59734	點	-0.06322111
-2.568079	無	-0.06322111
-2.568079	可	-0.16632149
-2.2056355	否	-0.09494406
-2.568079	認	-0.06322111
-2.3575363	但	-0.16632149
-2.0933168	不	-0.06322115
-2.568079	能	-0.06322111
-2.59734	隊	-0.06322111
-2.59734	伍	-0.06322111
-2.568079	前	-0.06322111
-2.568079	方	-0.06322111
-2.2056355	及	-0.06322111
-2.568079	包	-0.06322111
-2.59734	圍	-0.06322111
-2.3575363	立	-0.28424153
-2.568079	法	-0.06322111
-2.3575363	會	-0.06322111
-2.2056355	一	-0.13816269
-2.568079	些	-0.06322111
-2.568079	作	-0.22878975
-2.59734	非	-0.06322111
-2.59734	常	-0.06322111
-2.2056355	暴	-0.21759039
-2.568079	力	-0.06322111
-1.9302235	為	-0.18610889
-2.59734	括	-0.06322111
-2.568079	襲	-0.22878975
-2.59734	擊	-0.06322111
-2.0933168	警	-0.19024168
-2.59734	察	-0.06322111
-2.59734	嘗	-0.06322111
-2.59734	試	-0.06322111
-2.3575363	衝	-0.16632149
-2.59734	過	-0.06322111
-2.59734	防	-0.06322111
-2.59734	線	-0.06322111
-2.59734	等	-0.06322111
-2.568079	剛	-0.22878975
-2.59734	才	-0.06322111
-2.59734	聽	-0.06322111
-2.0041587	到	-0.06322111
-2.0933168	泛	-0.5060903
-2.568079	民	-0.06322111
-2.2056355	議	-0.40918028
-2.568079	員	-0.06322111
-2.3575363	向	-0.16632149
-2.59734	傳	-0.06322111
-2.59734	媒	-0.06322111
-2.568079	只	-0.06322111
-1.5775938	有	-0.2363726
-2.568079	參	-0.22878975
-2.59734	與	-0.06322111
-2.59734	搞	-0.06322111
-2.59734	化	-0.06322111
-2.568079	其	-0.06322111
-2.59734	實	-0.06322111
-2.2056355	而	-0.06322111
-2.59734	辨	-0.06322111
-2.568079	何	-0.06322111
-2.59734	因	-0.06322111
-2.568079	將	-0.06322111
-2.568079	捆	-0.22878975
-2.59734	綁	-0.06322111
-2.59734	起	-0.06322111
-2.59734	即	-0.06322111
-2.3575363	壞	-0.28424153
-2.568079	好	-0.22878975
-2.568079	拘	-0.22878975
-2.59734	捕	-0.06322111
-2.568079	時	-0.06322111
-2.59734	利	-0.06322111
-2.568079	用	-0.06322111
-2.59734	量	-0.06322111
-2.3575363	來	-0.06322111
-2.59734	掩	-0.06322111
-2.59734	護	-0.06322111
-2.3575363	很	-0.06322111
-2.59734	抗	-0.06322111
-2.59734	拒	-0.06322111
-2.568079	公	-0.22878975
-2.568079	開	-0.06322111
-2.59734	對	-0.06322111
-2.568079	者	-0.06322111
-2.3575363	手	-0.06322111
-2.59734	寸	-0.06322111
-2.568079	鐵	-0.06322111
-2.59734	那	-0.06322111
-2.3575363	麼	-0.06322111
-2.59734	鏡	-0.06322111
-2.568079	頭	-0.06322111
-2.2056355	看	-0.21759039
-2.59734	甚	-0.06322111
-2.59734	早	-0.06322111
-2.2056355	上	-0.06322111
-2.59734	挖	-0.06322111
-2.568079	磚	-0.06322111
-2.59734	持	-0.06322111
-2.568079	削	-0.22878975
-2.59734	尖	-0.06322111
-2.59734	枝	-0.06322111
-2.59734	投	-0.06322111
-2.59734	擲	-0.06322111
-2.59734	塊	-0.06322111
-2.568079	戴	-0.22878975
-2.59734	盔	-0.06322111
-2.568079	口	-0.06322111
-2.568079	罩	-0.06322111
-2.59734	眼	-0.06322111
-2.568079	裝	-0.22878975
-2.568079	備	-0.06322111
-2.59734	嗎	-0.06322111
-2.568079	要	-0.06322111
-2.59734	並	-0.06322111
-2.59734	攜	-0.06322111
-2.59734	帶	-0.06322111
-2.59734	居	-0.06322111
-2.59734	然	-0.06322111
-2.59734	片	-0.06322111
-2.568079	段	-0.06322111
-2.59734	今	-0.06322111
-2.568079	天	-0.06322111
-2.59734	發	-0.06322111
-2.59734	言	-0.06322111
-2.59734	提	-0.06322111
-2.59734	質	-0.06322111
-2.59734	詢	-0.06322111
-2.59734	顯	-0.06322111
-2.568079	知	-0.06322111
-2.59734	悉	-0.06322111
-2.59734	關	-0.06322111
-2.59734	情	-0.06322111
-2.59734	況	-0.06322111
-2.568079	沒	-0.22878975
-2.59734	留	-0.06322111
-2.59734	郭	-0.06322111
-2.3575363	家	-0.06322111
-2.59734	麒	-0.06322111
-2.3575363	也	-0.06322111
-2.3575363	了	-0.06322111
-2.59734	句	-0.06322111
-2.59734	打	-0.06322111
-2.59734	張	-0.06322111
-2.59734	超	-0.06322111
-2.59734	雄	-0.06322111
-2.59734	次	-0.06322111
-2.59734	召	-0.06322111
-2.59734	記	-0.06322111
-2.59734	招	-0.06322111
-2.59734	待	-0.06322111
-2.3575363	呼	-0.28424153
-2.59734	籲	-0.06322111
-2.59734	社	-0.06322111
-2.59734	福	-0.06322111
-2.59734	界	-0.06322111
-2.3575363	動	-0.06322111
-2.59734	猜	-0.06322111
-2.59734	測	-0.06322111
-2.59734	機	-0.06322111
-2.568079	心	-0.06322111
-2.59734	裏	-0.06322111
-2.59734	究	-0.06322111
-2.59734	竟	-0.06322111
-2.59734	怎	-0.06322111
-2.59734	真	-0.06322111
-2.59734	完	-0.06322111
-2.59734	全	-0.06322111
-2.568079	當	-0.22878975
-2.59734	希	-0.06322111
-2.59734	望	-0.06322111
-2.59734	市	-0.06322111
-2.59734	夠	-0.06322111
-2.59734	判	-0.06322111
-2.59734	斷	-0.06322111
-2.59734	強	-0.06322111
-2.59734	烈	-0.06322111
-2.59734	便	-0.06322111
-2.59734	姑	-0.06322111
-2.568079	息	-0.06322111
-2.59734	容	-0.06322111
-2.59734	忍	-0.06322111
-2.59734	犯	-0.06322111
-2.59734	罪	-0.06322111
-2.59734	問	-0.06322111
-2.568079	互	-0.22878975
-2.59734	聯	-0.06322111
-2.59734	網	-0.06322111
-2.59734	多	-0.06322111
-2.59734	算	-0.06322111
-2.59734	執	-0.06322111
-2.59734	務	-0.06322111
-2.568079	以	-0.06322111
-2.59734	子	-0.06322111
-2.59734	女	-0.06322111
-2.59734	道	-0.06322111
-2.59734	消	-0.06322111
-2.59734	後	-0.06322111
-2.59734	感	-0.06322111
-2.59734	痛	-0.06322111
-2.568079	職	-0.06322111
-2.568079	教	-0.06322111
-2.59734	師	-0.06322111
-2.568079	任	-0.06322111
-2.59734	班	-0.06322111
-2.59734	別	-0.06322111
-2.59734	學	-0.06322111
-2.59734	生	-0.06322111
-2.59734	父	-0.06322111
-2.59734	母	-0.06322111
-2.59734	懂	-0.06322111
-2.59734	得	-0.06322111
-2.59734	如	-0.06322111
-2.59734	整	-0.06322111
-2.59734	樣	-0.06322111
-2.59734	做	-0.06322111
-2.59734	叫	-0.06322111
-2.568079	停	-0.06322111
-2.59734	該	-0.06322111
-2.59734	案	-0.06322111
-2.59734	止	-0.06322111
-2.59734	運	-0.06322111
-2.59734	白	-0.06322111
-2.59734	色	-0.06322111
-2.59734	恐	-0.06322111
-2.59734	怖	-0.06322111
-2.59734	話	-0.06322111

\2-grams:
-1.5334377	說 </s>	0
-0.8561498	<s> 代	-0.0621479
-1.578824	威 代	-0.0621479
-1.145503	況 代	-0.0621479
-0.31730756	代 理	0
-0.86120075	理 主	0
-0.86072063	主 席	-0.062147934
-0.98075783	出 席	-0.0621479
-1.4676514	席 在	-0.0621479
-1.3888955	日 在	-0.0621479
-1.80402	是 在	-0.0621479
-1.7595848	們 在	-0.0621479
-0.8463496	綁 在	-0.24667235
-1.4883981	在 六	-0.0621479
-1.6373658	和 六	-0.0621479
-1.8437662	是 六	-0.0621479
-1.406132	麼 六	-0.0621479
-0.21381316	六 月	-0.014723243
-1.1553917	月 九	-0.0621479
-0.86072063	九 日	-0.0621479
-0.86072063	二 日	-0.062147934
-1.4289138	席 和	-0.0621479
-1.3563482	日 和	-0.0621479
-1.7592889	人 和	-0.0621479
-1.108528	長 和	-0.0621479
-1.7340147	是 和	-0.0621479
-1.3563482	會 和	-0.0621479
-0.8367657	對 和	-0.0621479
-1.1553917	月 十	0
-0.86120075	十 二	0
-1.372317	日 出	-0.0621479
-1.7676084	是 出	-0.0621479
-0.38157356	作 出	-0.0621479
-1.372317	而 出	-0.0621479
-1.1174808	提 出	-0.0621479
-0.8415313	界 出	-0.0621479
-1.447851	席 示	-0.0621479
-1.6484503	示 示	-0.0621479
-1.447851	說 示	-0.0621479
-1.1174808	平 示	0
-0.4362565	表 示	-0.062147934
-0.8415313	顯 示	-0.0621479
-0.5135387	示 威	-0.062147934
-1.5311847	在 遊	-0.0621479
-1.6035225	威 遊	-0.0621479
-0.3804401	遊 行	-0.0621479
-1.7882897	的 行	-0.0621479
-1.5301002	些 行	-0.0621479
-1.3563482	力 行	-0.0621479
-1.108528	關 行	-0.0621479
-0.8367657	罪 行	-0.0621479
-0.8367657	執 行	-0.0621479
-1.388125	出 的	-0.0621479
-1.3131595	威 的	-0.0621479
-1.4457867	行 的	-0.0621479
-1.4924145	人 的	-0.0621479
-1.0278883	平 的	-0.0621479
-1.4381226	們 的	-0.062147934
-1.1475103	認 的	-0.0621479
-1.2224845	會 的	-0.0621479
-1.2224845	力 的	-0.0621479
-1.3667519	到 的	-0.0621479
-1.1475103	來 的	-0.0621479
-0.7917831	尖 的	-0.24667235
-1.1475103	動 的	-0.0621479
-0.7917831	真 的	-0.0621479
-0.7917831	烈 的	-0.0621479
-1.0278883	教 的	-0.0621479
-0.7917831	生 的	-0.0621479
-1.683035	的 人	-0.0621479
-1.3116888	分 人	-0.24667235
-1.4650491	些 人	-0.0621479
-0.6728073	有 人	-0.0621479
-0.31045848	壞 人	-0.062147934
-0.3770574	好 人	-0.0621479
-1.3116888	麼 人	-0.0621479
-1.2212906	家 人	-0.0621479
-0.8227751	多 人	-0.0621479
-0.8227751	務 人	-0.24667235
-1.0615366	人 士	-0.0621479
-1.424081	士 絕	-0.0621479
-1.5101857	說 絕	-0.0621479
-1.8875197	是 絕	-0.0621479
-0.56090105	絕 大	-0.24667235
-1.1544468	籲 大	-0.24667235
-1.1544468	大 部	-0.24667235
-2.0205567	有 部	-0.0621479
-0.38499174	部 分	-0.17609124
-1.8875197	是 分	-0.0621479
-0.8561498	搞 分	0
-1.691197	人 我	-0.0621479
-1.326071	分 我	-0.0621479
-1.0911577	求 我	-0.0621479
-1.6272272	為 我	-0.0621479
-0.8273887	等 我	-0.0621479
-1.326071	麼 我	-0.0621479
-1.0911577	況 我	-0.0621479
-1.2329336	動 我	-0.0621479
-0.8273887	女 我	-0.0621479
-1.7674229	我 同	-0.0621479
-0.86072063	同 意	-0.0621479
-0.86072063	留 意	-0.0621479
-1.1544468	意 局	-0.0621479
-0.56090105	向 局	-0.24667235
-0.38615242	局 長	-0.17609124
-1.6808417	和 特	-0.0621479
-0.86120075	特 區	-0.0621479
-1.7125009	示 政	-0.0621479
-1.3515817	的 政	-0.24667235
-0.8561498	區 政	-0.0621479
-0.5610909	政 府	-0.0621479
-1.1544468	府 所	-0.0621479
-1.1544468	捕 所	-0.0621479
-1.6316185	出 說	-0.0621479
-1.875979	的 說	-0.0621479
-1.1266221	府 說	-0.0621479
-1.1266221	所 說	-0.0621479
-1.8979212	有 說	-0.0621479
-1.4412278	士 都	-0.0621479
-1.663732	些 都	-0.0621479
-1.4079605	威 是	-0.0621479
-1.2486161	的 是	-0.0621479
-0.37593564	都 是	-0.0621479
-1.8788497	他 是	-0.0621479
-1.5697659	們 是	-0.17609124
-1.6358604	這 是	-0.24667235
-1.3604798	不 是	-0.0621479
-1.2977676	而 是	-0.0621479
-1.4079605	上 是	-0.0621479
-1.2099516	也 是	-0.0621479
-0.81820995	斷 是	-0.0621479
-0.45568836	和 平	-0.014723243
-1.5534132	威 想	-0.0621479
-1.8869112	人 想	-0.0621479
-1.4883981	不 想	-0.0621479
-1.406132	麼 想	-0.0621479
-1.8869112	人 清	-0.0621479
-1.406132	想 清	-0.0621479
-0.8512221	辨 清	-0.0621479
-0.8512221	夠 清	-0.0621479
-0.44159007	清 楚	-0.062147934
-1.8869112	人 表	-0.0621479
-1.2963482	楚 表	-0.0621479
-0.8512221	媒 表	-0.0621479
-1.2963482	開 表	-0.0621479
-1.4510038	表 達	-0.0621479
-1.3154149	席 他	-0.0621479
-0.9350674	示 他	-0.0621479
-1.2584969	想 他	-0.0621479
-0.8047955	達 他	-0.0621479
-1.050548	治 他	-0.0621479
-0.53791803	但 他	-0.24667235
-1.2584969	及 他	-0.0621479
-1.3911562	員 他	-0.0621479
-1.6526767	有 他	-0.0621479
-1.1776097	何 他	-0.24667235
-1.050548	將 他	-0.0621479
-1.1776097	天 他	-0.0621479
-0.8047955	測 他	-0.0621479
-0.8047955	做 他	-0.24667235
-1.0306983	我 們	-0.0621479
-0.11729453	他 們	-0.05592879
-1.327895	政 治	-0.24667235
-0.86072063	整 治	-0.0621479
-1.1553917	治 訴	-0.24667235
-0.86120075	訴 求	-0.0621479
-1.0827262	求 這	-0.0621479
-1.0308387	為 這	-0.24667235
-1.4968394	到 這	-0.0621479
-1.0827262	與 這	-0.0621479
-0.8227751	實 這	-0.0621479
-1.4259869	上 這	-0.0621479
-1.0827262	罩 這	-0.0621479
-1.0827262	要 這	-0.24667235
-0.8227751	忍 這	-0.0621479
-0.8227751	道 這	-0.0621479
-1.829291	這 點	-0.0621479
-0.86072063	點 無	-0.0621479
-1.3233551	手 無	-0.0621479
-1.8942115	們 可	-0.0621479
-1.1544468	無 可	-0.0621479
-1.1995932	是 否	-0.062147934
-0.5571201	可 否	-0.0621479
-1.13596	能 否	-0.0621479
-1.0536871	有 否	-0.062147934
-1.8942115	們 認	-0.0621479
-1.0306983	否 認	-0.0621479
-1.3102231	認 但	-0.0621479
-0.8561498	機 但	-0.0621479
-0.8561498	案 但	-0.0621479
-1.6668565	我 不	-0.0621479
-1.7546264	這 不	-0.0621479
-1.2953568	但 不	-0.0621479
-0.43757933	看 不	0
-1.2829028	家 不	-0.24667235
-1.5311847	不 能	-0.0621479
-1.4412278	民 能	-0.0621479
-1.732381	行 隊	-0.0621479
-0.86120075	隊 伍	-0.0621479
-0.86072063	伍 前	-0.0621479
-1.1544468	頭 前	-0.0621479
-1.1544468	前 方	-0.0621479
-1.5400198	警 方	-0.0621479
-1.13596	方 及	-0.0621479
-1.13596	罩 及	-0.0621479
-0.8512221	言 及	-0.0621479
-1.13596	以 及	-0.0621479
-1.4412278	及 包	-0.0621479
-1.8150687	為 包	-0.0621479
-1.1553917	包 圍	-0.0621479
-0.8561498	圍 立	-0.0621479
-0.8561498	過 立	-0.0621479
-1.683415	到 立	-0.0621479
-0.31722504	立 法	0
-0.86072063	該 法	-0.0621479
-1.145503	法 會	-0.17609124
-1.145503	時 會	-0.0621479
-0.8561498	待 會	-0.0621479
-1.4883981	在 一	-0.24667235
-1.9275025	的 一	-0.0621479
-1.406132	民 一	-0.0621479
-1.2963482	了 一	-0.0621479
-0.35120657	這 些	-0.062147934
-1.445694	一 些	-0.0621479
-1.4412278	士 作	-0.0621479
-1.3233551	察 作	-0.0621479
-1.7224863	出 非	-0.0621479
-0.86120075	非 常	-0.0621479
-1.6597182	出 暴	-0.0621479
-0.8512221	常 暴	-0.0621479
-1.13596	與 暴	-0.0621479
-1.13596	息 暴	-0.0621479
-2.0475626	的 力	-0.0621479
-0.44146198	暴 力	-0.062147934
-0.50518537	行 為	-0.0621479
-1.7882897	的 為	-0.0621479
-1.2572	楚 為	-0.0621479
-1.6110209	否 為	-0.0621479
-1.2572	認 為	-0.0621479
-0.8367657	因 為	-0.0621479
-0.8367657	嗎 為	-0.0621479
-1.1553917	包 括	-0.0621479
-1.9938903	人 襲	-0.0621479
-0.86072063	括 襲	-0.0621479
-0.38615242	襲 擊	-0.24667235
-1.875979	的 警	-0.0621479
-0.8463496	擊 警	-0.24667235
-1.1266221	起 警	-0.0621479
-0.8463496	打 警	-0.0621479
-1.1266221	職 警	-0.0621479
-0.7813697	警 察	-0.062147934
-1.3247498	察 嘗	-0.0621479
-0.86120075	嘗 試	-0.0621479
-1.8875197	是 衝	-0.0621479
-0.8561498	試 衝	-0.0621479
-1.3102231	也 衝	-0.0621479
-1.3290062	衝 過	-0.0621479
-2.0545297	的 防	-0.0621479
-0.86120075	防 線	-0.0621479
-0.86120075	線 等	-0.0621479
-1.763839	我 剛	-0.0621479
-1.663732	員 剛	-0.24667235
-0.38615242	剛 才	-0.062147934
-1.3247498	才 聽	-0.0621479
-1.1174808	意 到	-0.0621479
-1.447851	不 到	-0.062147934
-0.8415313	聽 到	-0.0621479
-1.3993596	看 到	-0.0621479
-1.1174808	枝 到	-0.0621479
-0.8415313	感 到	-0.0621479
-1.6214617	到 泛	-0.0621479
-1.2829028	何 泛	-0.0621479
-0.8463496	拒 泛	-0.0621479
-1.1266221	段 泛	-0.0621479
-1.2829028	了 泛	-0.0621479
-0.1617689	泛 民	-0.023802893
-0.86072063	市 民	-0.0621479
-1.406132	民 議	0
-1.9361792	有 議	-0.0621479
-0.8512221	麒 議	-0.0621479
-0.8512221	雄 議	-0.0621479
-1.9938903	人 員	-0.0621479
-0.21376438	議 員	-0.11539344
-1.8472159	們 向	-0.0621479
-1.3102231	才 向	-0.0621479
-1.6354779	員 向	-0.0621479
-1.3290062	向 傳	-0.0621479
-0.86120075	傳 媒	-0.0621479
-1.763839	我 只	-0.0621479
-1.5311847	說 只	-0.0621479
-1.4746763	行 有	-0.0621479
-1.0428627	所 有	-0.0621479
-1.5311209	是 有	-0.0621479
-1.4777296	們 有	-0.0621479
-1.0037813	為 有	-0.0621479
-1.4001193	到 有	-0.0621479
-1.3744928	員 有	-0.0621479
-1.0428627	只 有	-0.0621479
-1.342519	上 有	-0.0621479
-1.0428627	磚 有	-0.0621479
-1.1673431	天 有	-0.0621479
-0.8004146	詢 有	-0.0621479
-0.8004146	悉 有	-0.0621479
-0.37147745	沒 有	-0.0621479
-0.8004146	別 有	-0.0621479
-1.4412278	士 參	-0.0621479
-1.3233551	來 參	-0.0621479
-0.38615242	參 與	-0.0621479
-1.219035	是 搞	0
-1.4430583	分 化	-0.062147934
-1.4412278	及 其	-0.0621479
-1.3233551	化 其	-0.0621479
-1.1553917	其 實	-0.0621479
-1.2963482	化 而	-0.0621479
-1.13596	口 而	-0.24667235
-1.2963482	備 而	-0.0621479
-0.8512221	師 而	-0.0621479
-1.4430583	分 辨	-0.0621479
-0.8360961	為 何	-0.17609124
-0.86072063	如 何	-0.0621479
-1.3247498	化 因	-0.0621479
-1.4412278	想 將	-0.0621479
-0.86072063	即 將	-0.0621479
-1.9938903	人 捆	-0.0621479
-1.8942115	們 捆	-0.0621479
-0.38615242	捆 綁	-0.24667235
-1.4472499	一 起	-0.0621479
-1.1553917	起 即	-0.0621479
-1.145503	將 壞	-0.0621479
-1.145503	捕 壞	-0.0621479
-0.8561498	護 壞	-0.0621479
-1.6786708	和 好	-0.0621479
-1.1544468	用 好	-0.0621479
-1.1544468	方 拘	-0.0621479
-1.4412278	會 拘	-0.0621479
-0.38615242	拘 捕	-0.0621479
-1.9938903	人 時	-0.0621479
-1.4412278	會 時	-0.0621479
-1.9999952	人 利	-0.0621479
-0.86072063	利 用	-0.0621479
-0.86072063	運 用	-0.0621479
-1.4430583	力 量	-0.0621479
-1.6897624	出 來	-0.0621479
-1.424081	而 來	-0.0621479
-0.8561498	量 來	-0.0621479
-1.3247498	來 掩	-0.0621479
-0.86120075	掩 護	-0.0621479
-1.7309446	我 很	-0.0621479
-1.683415	到 很	-0.0621479
-1.578824	上 很	-0.0621479
-1.3247498	很 抗	-0.0621479
-0.86120075	抗 拒	-0.0621479
-1.763839	否 公	-0.0621479
-1.4412278	民 公	-0.0621479
-0.3860425	公 開	-0.0621479
-0.86072063	召 開	-0.0621479
-1.3290062	絕 對	-0.0621479
-1.6035225	威 者	-0.0621479
-0.86072063	記 者	-0.0621479
-1.9394118	人 手	-0.0621479
-1.145503	者 手	-0.0621479
-0.8561498	怖 手	-0.0621479
-1.1553917	無 寸	-0.0621479
-2.0475626	的 鐵	-0.24667235
-0.86072063	寸 鐵	-0.0621479
-1.1553917	鐵 那	-0.0621479
-0.8561498	那 麼	-0.0621479
-0.8561498	甚 麼	-0.0621479
-0.8561498	怎 麼	-0.0621479
-1.5334377	在 鏡	-0.0621479
-0.86072063	鏡 頭	-0.0621479
-1.6035225	上 頭	-0.0621479
-1.6977195	否 看	-0.0621479
-1.13596	前 看	-0.0621479
-0.8512221	然 看	-0.0621479
-0.8512221	全 看	-0.0621479
-1.219035	是 甚	-0.24667235
-1.4430583	日 早	-0.0621479
-1.6066413	員 上	-0.0621479
-0.8512221	早 上	-0.0621479
-0.38384935	戴 上	-0.0621479
-0.8512221	網 上	-0.0621479
-1.9999952	人 挖	-0.0621479
-0.86072063	挖 磚	-0.0621479
-0.86072063	擲 磚	-0.0621479
-1.3247498	手 持	-0.0621479
-0.86072063	持 削	-0.0621479
-0.86072063	帶 削	-0.0621479
-0.38615242	削 尖	-0.24667235
-1.1553917	鐵 枝	-0.0621479
-1.1553917	枝 投	-0.0621479
-0.86120075	投 擲	-0.0621479
-1.1553917	磚 塊	-0.0621479
-0.86072063	塊 戴	-0.0621479
-1.1544468	要 戴	-0.0621479
-1.1553917	頭 盔	-0.0621479
-0.56090105	衝 口	-0.24667235
-0.86072063	盔 口	-0.0621479
-1.1544468	口 罩	-0.0621479
-0.86072063	眼 罩	-0.0621479
-1.4430583	及 眼	-0.0621479
-2.0475626	的 裝	-0.0621479
-1.663732	些 裝	-0.0621479
-2.0205567	有 備	-0.0621479
-0.3860425	裝 備	-0.0621479
-1.3247498	備 嗎	-0.0621479
-1.8942115	們 要	-0.0621479
-1.5311847	不 要	-0.24667235
-1.3247498	備 並	-0.0621479
-0.86120075	並 攜	-0.0621479
-0.86120075	攜 帶	-0.0621479
-1.666792	員 居	-0.0621479
-0.86120075	居 然	-0.0621479
-1.666792	些 片	-0.0621479
-1.3233551	手 段	-0.0621479
-0.86072063	片 段	-0.0621479
-1.1553917	段 今	-0.0621479
-0.86072063	今 天	-0.0621479
-0.3860425	當 天	-0.0621479
-2.0545297	的 發	-0.0621479
-0.86120075	發 言	-0.0621479
-1.1553917	長 提	-0.0621479
-2.0545297	的 質	-0.0621479
-0.86120075	質 詢	-0.0621479
-1.7674229	否 顯	-0.0621479
-1.763839	我 知	-0.0621479
-1.8942115	們 知	-0.0621479
-1.1553917	知 悉	-0.0621479
-1.0643711	有 關	-0.17609124
-1.1553917	關 情	-0.24667235
-0.86120075	情 況	-0.0621479
-1.5311847	席 沒	-0.0621479
-1.3233551	也 沒	-0.0621479
-1.1553917	只 留	-0.0621479
-1.7185353	到 郭	-0.0621479
-1.145503	大 家	-0.24667235
-1.145503	其 家	-0.0621479
-0.8561498	郭 家	-0.0621479
-1.3247498	家 麒	-0.0621479
-1.3102231	才 也	-0.0621479
-1.145503	時 也	-0.0621479
-0.8561498	話 也	-0.0621479
-1.5101857	說 了	-0.0621479
-1.8472159	們 了	-0.0621479
-1.7849666	為 了	-0.0621479
-0.6848798	一 句	-0.0621479
-1.1553917	句 打	-0.0621479
-1.3247498	察 張	-0.0621479
-0.86120075	張 超	-0.0621479
-0.86120075	超 雄	-0.0621479
-1.6061851	上 次	-0.0621479
-0.86120075	次 召	-0.0621479
-1.3247498	開 記	-0.0621479
-1.1553917	者 招	-0.0621479
-0.86120075	招 待	-0.0621479
-1.6897624	出 呼	-0.0621479
-1.7309446	否 呼	-0.0621479
-1.3102231	開 呼	-0.0621479
-0.31730756	呼 籲	-0.17609124
-1.1553917	籲 社	-0.0621479
-0.86120075	社 福	-0.0621479
-0.86120075	福 界	-0.0621479
-1.7058151	行 動	-0.0621479
-1.985972	的 動	-0.0621479
-1.4373736	暴 動	-0.0621479
-1.4430583	想 猜	-0.0621479
-0.86120075	猜 測	-0.0621479
-1.3247498	動 機	-0.0621479
-1.8942115	們 心	-0.0621479
-0.86072063	痛 心	-0.0621479
-1.1553917	心 裏	-0.0621479
-0.86120075	裏 究	-0.0621479
-0.86120075	究 竟	-0.0621479
-0.86120075	竟 怎	-0.0621479
-1.7674229	否 真	-0.0621479
-2.0545297	的 完	-0.0621479
-0.86120075	完 全	-0.0621479
-1.7150897	到 當	-0.0621479
-0.86072063	算 當	-0.0621479
-1.7674229	我 希	-0.0621479
-0.86120075	希 望	-0.0621479
-0.86120075	望 市	-0.0621479
-1.1553917	能 夠	-0.0621479
-1.3247498	楚 判	-0.0621479
-0.86120075	判 斷	-0.0621479
-1.3247498	了 強	-0.0621479
-0.86120075	強 烈	-0.0621479
-1.8994266	們 便	-0.0621479
-0.86120075	便 姑	-0.0621479
-0.86072063	姑 息	-0.0621479
-0.86072063	消 息	-0.0621479
-1.4430583	力 容	-0.0621479
-0.86120075	容 忍	-0.0621479
-1.666792	些 犯	-0.0621479
-0.86120075	犯 罪	-0.0621479
-1.1553917	提 問	-0.0621479
-1.1544468	心 互	-0.0621479
-0.86072063	問 互	-0.0621479
-0.38615242	互 聯	-0.24667235
-0.86120075	聯 網	-0.24667235
-1.3247498	很 多	-0.0621479
-1.4510038	清 算	-0.0621479
-1.3247498	天 執	-0.0621479
-0.7813697	警 務	-0.24667235
-1.327895	可 以	-0.0621479
-1.663732	員 以	-0.0621479
-1.9999952	人 子	-0.0621479
-0.86120075	子 女	-0.0621479
-1.1553917	知 道	-0.0621479
-1.666792	些 消	-0.0621479
-1.1553917	息 後	-0.0621479
-0.86120075	後 感	-0.0621479
-1.3247498	很 痛	-0.0621479
-1.5311847	在 職	-0.0621479
-1.1544468	任 職	-0.0621479
-1.1544468	職 教	-0.0621479
-1.1544468	任 教	-0.0621479
-1.1553917	教 師	-0.0621479
-1.4412278	而 任	-0.0621479
-0.86072063	母 任	-0.0621479
-2.0545297	的 班	-0.0621479
-0.86120075	班 別	-0.0621479
-2.0252361	有 學	-0.0621479
-0.86120075	學 生	-0.0621479
-2.0545297	的 父	-0.0621479
-0.86120075	父 母	-0.0621479
-2.018385	他 懂	-0.0621479
-0.86120075	懂 得	-0.0621479
-0.86120075	得 如	-0.0621479
-1.3247498	何 整	-0.0621479
-1.829291	這 樣	-0.24667235
-0.86120075	樣 做	-0.24667235
-1.1553917	以 叫	-0.0621479
-1.763839	否 停	-0.0621479
-0.86072063	叫 停	-0.0621479
-1.1553917	停 該	-0.0621479
-1.1553917	法 案	-0.0621479
-1.1553917	停 止	-0.0621479
-0.86120075	止 運	-0.0621479
-1.1553917	用 白	-0.0621479
-0.86120075	白 色	-0.0621479
-0.86120075	色 恐	-0.0621479
-0.86120075	恐 怖	-0.0621479
-1.1553917	句 話	-0.0621479

\3-grams:
-0.79939896	有 說 </s>
-1.3460191	示 威 代
-0.8905545	情 況 代
-0.25906464	<s> 代 理
-0.25906464	威 代 理
-0.25906464	況 代 理
-0.86120075	代 理 主
-0.86072063	理 主 席
-0.649895	日 出 席
-0.649895	是 出 席
-1.1309434	主 席 在
-1.0977759	二 日 在
-0.83285254	他 是 在
-1.0875547	我 們 在
-0.28899232	捆 綁 在
-0.79187655	席 在 六
-0.81443435	日 和 六
-1.1019024	的 是 六
-0.9970328	甚 麼 六
-0.17845748	在 六 月
-0.17845748	和 六 月
-0.17845748	是 六 月
-0.17845748	麼 六 月
-0.9960066	六 月 九
-0.59727746	月 九 日
-0.86072063	十 二 日
-1.0045973	出 席 和
-0.76577604	九 日 和
-1.2252637	壞 人 和
-1.0160583	局 長 和
-1.0827243	都 是 和
-1.1319952	法 會 和
-0.58579373	絕 對 和
-1.1701149	六 月 十
-0.86120075	月 十 二
-1.090348	二 日 出
-1.0890234	都 是 出
-0.30687705	士 作 出
-0.30687705	察 作 出
-0.33972517	口 而 出
-0.8768264	長 提 出
-0.58810455	福 界 出
-1.010685	出 席 示
-1.19439	表 示 示
-0.7845307	的 說 示
-1.132204	和 平 示
-0.3460883	人 表 示
-0.3460883	媒 表 示
-0.3460883	開 表 示
-0.58810455	否 顯 示
-0.39904284	席 示 威
-0.39904284	示 示 威
-0.39904284	說 示 威
-0.5135387	平 示 威
-0.79903793	日 在 遊
-1.3583668	示 威 遊
-0.30604964	在 遊 行
-0.30604964	威 遊 行
-0.83137155	力 的 行
-1.3206315	這 些 行
-1.0830449	暴 力 行
-1.0160583	有 關 行
-0.58579373	犯 罪 行
-0.58579373	天 執 行
-0.77264714	提 出 的
-1.1913702	示 威 的
-1.0100302	遊 行 的
-1.0243111	好 人 的
-0.9066216	和 平 的
-1.4940515	他 們 的
-0.8915205	否 認 的
-0.48302805	法 會 的
-1.0160655	暴 力 的
-0.76806915	看 到 的
-0.70987326	而 來 的
-0.27995706	削 尖 的
-0.70987326	行 動 的
-0.5633377	否 真 的
-0.5633377	強 烈 的
-0.6683508	任 教 的
-0.5633377	學 生 的
-0.82011956	行 的 人
-0.49293506	部 分 人
-0.78771514	一 些 人
-0.49835265	所 有 人
-0.60073674	為 有 人
-0.49835265	上 有 人
-0.49835265	磚 有 人
-0.49835265	天 有 人
-0.25386387	將 壞 人
-0.25386387	捕 壞 人
-0.25386387	護 壞 人
-0.3035769	和 好 人
-0.3035769	用 好 人
-0.96277505	甚 麼 人
-0.73188984	其 家 人
-0.5789342	很 多 人
-0.28520474	警 務 人
-0.6807893	的 人 士
-0.3164904	分 人 士
-0.6807893	些 人 士
-1.1806213	人 士 絕
-0.7955966	所 說 絕
-0.83994555	威 是 絕
-0.42999625	士 絕 大
-0.42999625	說 絕 大
-0.47417223	呼 籲 大
-0.32510066	絕 大 部
-0.8489388	只 有 部
-0.17596555	大 部 分
-0.3093687	有 部 分
-0.83994555	而 是 分
-0.8561498	是 搞 分
-1.2069727	壞 人 我
-1.1197001	部 分 我
-0.863519	訴 求 我
-1.2693783	行 為 我
-0.58120865	線 等 我
-0.7588552	那 麼 我
-0.863519	情 況 我
-0.73512816	暴 動 我
-0.58120865	子 女 我
-0.8293305	分 我 同
-0.59727746	我 同 意
-0.59727746	只 留 意
-0.7120559	同 意 局
-0.42999625	們 向 局
-0.42999625	才 向 局
-0.31021354	意 局 長
-0.17637165	向 局 長
-0.8198584	長 和 特
-0.59750426	和 特 區
-1.2129219	表 示 政
-1.0808368	們 的 政
-0.7647111	烈 的 政
-0.5951117	特 區 政
-0.43011796	示 政 府
-0.43011796	區 政 府
-0.894841	政 府 所
-0.894841	拘 捕 所
-1.0609415	而 出 說
-0.8390381	平 的 說
-0.8813544	政 府 說
-0.7031553	府 所 說
-1.1099721	沒 有 說
-1.18902	人 士 都
-1.3869982	這 些 都
-1.2510513	示 威 是
-0.73939174	認 的 是
-0.73939174	到 的 是
-0.30275574	士 都 是
-0.30275574	些 都 是
-1.1072274	示 他 是
-1.6256946	他 們 是
-0.35023764	為 這 是
-0.7666918	這 不 是
-0.75204295	化 而 是
-0.7767396	早 上 是
-0.7286754	時 也 是
-0.57667154	判 斷 是
-0.35968074	席 和 平
-0.35968074	是 和 平
-0.35968074	會 和 平
-0.35968074	對 和 平
-1.3329489	示 威 想
-1.4212327	有 人 想
-0.79187655	我 不 想
-0.7763685	怎 麼 想
-0.8398982	多 人 清
-0.7763685	威 想 清
-0.5927634	分 辨 清
-0.5927634	能 夠 清
-0.34983724	想 清 楚
-0.34983724	辨 清 楚
-0.34983724	夠 清 楚
-1.4212327	有 人 表
-1.0542979	清 楚 表
-0.5927634	傳 媒 表
-0.95675695	公 開 表
-0.7851222	楚 表 達
-1.0636574	主 席 他
-0.8383694	表 示 他
-0.6308276	顯 示 他
-0.74202085	麼 想 他
-0.5699534	表 達 他
-0.67679393	整 治 他
-0.4151219	機 但 他
-0.4151219	案 但 他
-0.74202085	言 及 他
-0.9919149	人 員 他
-1.0657556	沒 有 他
-0.4773234	為 何 他
-0.67679393	想 將 他
-0.7191726	今 天 他
-0.5699534	猜 測 他
-0.2821983	樣 做 他
-0.6694129	求 我 們
-0.6694129	麼 我 們
-0.09970086	席 他 們
-0.13774402	示 他 們
-0.09970086	想 他 們
-0.09970086	達 他 們
-0.09970086	治 他 們
-0.06254223	但 他 們
-0.09970086	及 他 們
-0.09970086	有 他 們
-0.06254223	何 他 們
-0.09970086	將 他 們
-0.09970086	天 他 們
-0.09970086	測 他 們
-0.06254223	做 他 們
-0.33727324	的 政 治
-0.59727746	何 整 治
-0.3251799	政 治 訴
-0.29129097	治 訴 求
-0.8591723	訴 求 這
-0.9428692	行 為 這
-0.66946584	認 為 這
-1.1423599	不 到 這
-0.8591723	參 與 這
-0.5789342	其 實 這
-1.0036403	戴 上 這
-0.68831307	眼 罩 這
-0.31860346	不 要 這
-0.5789342	容 忍 這
-0.5789342	知 道 這
-0.83513224	求 這 點
-0.59727746	這 點 無
-0.7582161	者 手 無
-1.1845336	他 們 可
-0.7120559	點 無 可
-0.4801823	們 是 否
-0.7256862	斷 是 否
-0.51292586	們 可 否
-0.42756838	無 可 否
-0.7061856	不 能 否
-0.6779419	們 有 否
-0.6779419	員 有 否
-0.6779419	詢 有 否
-1.7088556	他 們 認
-0.83144724	可 否 認
-0.6694129	能 否 認
-0.9622057	否 認 但
-0.5951117	動 機 但
-0.5951117	法 案 但
-0.8181652	動 我 不
-0.82803446	實 這 不
-0.75144696	認 但 不
-0.3470194	否 看 不
-0.3470194	然 看 不
-0.3470194	全 看 不
-0.3345369	大 家 不
-0.79903793	但 不 能
-0.7832767	市 民 能
-1.0824077	遊 行 隊
-0.59750426	行 隊 伍
-0.59727746	隊 伍 前
-0.7120559	鏡 頭 前
-0.7120559	伍 前 方
-0.80044466	起 警 方
-0.7061856	前 方 及
-0.7061856	口 罩 及
-0.5927634	發 言 及
-0.7061856	員 以 及
-0.7832767	方 及 包
-1.3316079	行 為 包
-0.7123514	及 包 圍
-0.5951117	包 圍 立
-0.5951117	衝 過 立
-0.8201647	枝 到 立
-0.25900212	圍 立 法
-0.25900212	過 立 法
-0.25900212	到 立 法
-0.59727746	停 該 法
-1.145503	立 法 會
-0.70923716	人 時 會
-0.5951117	招 待 會
-0.3451133	綁 在 一
-1.1140294	會 的 一
-1.195004	泛 民 一
-0.75169235	說 了 一
-0.28451052	到 這 些
-0.28451052	與 這 些
-0.28451052	上 這 些
-0.28451052	罩 這 些
-0.28451052	忍 這 些
-0.28451052	道 這 些
-0.784124	的 一 些
-1.18902	人 士 作
-1.0674933	警 察 作
-1.0804701	作 出 非
-0.59750426	出 非 常
-1.0673255	作 出 暴
-0.5927634	非 常 暴
-0.88593006	參 與 暴
-0.7061856	姑 息 暴
-0.85047	人 的 力
-0.3497474	出 暴 力
-0.3497474	常 暴 力
-0.3497474	息 暴 力
-0.3934632	的 行 為
-0.3934632	些 行 為
-0.3934632	力 行 為
-0.3934632	罪 行 為
-0.83137155	來 的 為
-1.034425	清 楚 為
-1.1826421	是 否 為
-0.74167824	們 認 為
-0.58579373	化 因 為
-0.58579373	備 嗎 為
-0.7123514	為 包 括
-1.4503088	有 人 襲
-0.59727746	包 括 襲
-0.31021354	人 襲 擊
-0.31021354	括 襲 擊
-0.8390381	動 的 警
-0.28899232	襲 擊 警
-0.8813544	一 起 警
-0.59042776	句 打 警
-0.7031553	任 職 警
-0.27812308	擊 警 察
-0.55797315	打 警 察
-1.0681634	警 察 嘗
-0.59750426	察 嘗 試
-0.83994555	也 是 衝
-0.5951117	嘗 試 衝
-0.75508237	才 也 衝
-0.7595425	試 衝 過
-1.1289487	會 的 防
-0.59750426	的 防 線
-0.59750426	防 線 等
-0.82897097	等 我 剛
-0.7929752	議 員 剛
-0.31021354	我 剛 才
-0.17637165	員 剛 才
-1.0681634	剛 才 聽
-0.70014596	留 意 到
-1.447851	看 不 到
-0.58810455	才 聽 到
-0.7749833	前 看 到
-0.8768264	鐵 枝 到
-0.58810455	後 感 到
-0.8123288	聽 到 泛
-1.1012828	為 何 泛
-0.59042776	抗 拒 泛
-0.7031553	手 段 泛
-0.74832857	們 了 泛
-0.1363899	到 泛 民
-0.1363899	何 泛 民
-0.1363899	拒 泛 民
-0.1363899	段 泛 民
-0.1363899	了 泛 民
-0.59727746	望 市 民
-1.4299349	泛 民 議
-1.1151749	為 有 議
-0.5927634	家 麒 議
-0.5927634	超 雄 議
-0.35745606	務 人 員
-0.21376438	民 議 員
-0.17841852	有 議 員
-0.17841852	麒 議 員
-0.17841852	雄 議 員
-1.681274	他 們 向
-1.0611296	剛 才 向
-1.3982726	議 員 向
-0.7595425	員 向 傳
-0.59750426	向 傳 媒
-0.82897097	況 我 只
-0.79903793	府 說 只
-0.78945327	執 行 有
-0.6739613	捕 所 有
-1.1933558	們 是 有
-1.4248368	他 們 有
-0.9235464	行 為 有
-0.659063	因 為 有
-1.1027162	不 到 有
-1.2628864	議 員 有
-0.6739613	說 只 有
-0.9744817	網 上 有
-0.6739613	挖 磚 有
-0.9009409	當 天 有
-0.567737	質 詢 有
-0.567737	知 悉 有
-0.29948664	席 沒 有
-0.29948664	也 沒 有
-0.567737	班 別 有
-1.18902	人 士 參
-0.7582161	出 來 參
-0.31021354	士 參 與
-0.31021354	來 參 與
-0.33016792	這 是 搞
-0.7312552	不 是 搞
-1.4430583	搞 分 化
-0.7832767	以 及 其
-1.0674933	分 化 其
-0.7123514	化 其 實
-1.0542979	分 化 而
-0.32351822	衝 口 而
-0.75169235	有 備 而
-0.5927634	教 師 而
-0.7836249	是 分 辨
-0.58546793	的 為 何
-0.58546793	楚 為 何
-0.58546793	嗎 為 何
-0.59727746	得 如 何
-1.0681634	分 化 因
-0.7832767	人 想 將
-0.59727746	起 即 將
-1.1223056	好 人 捆
-1.7088556	他 們 捆
-0.31021354	人 捆 綁
-0.31021354	們 捆 綁
-0.3433584	在 一 起
-0.89529115	一 起 即
-0.70923716	即 將 壞
-0.8905545	拘 捕 壞
-0.5951117	掩 護 壞
-0.8195986	人 和 好
-0.7120559	利 用 好
-0.7120559	警 方 拘
-0.7832767	時 會 拘
-0.31021354	方 拘 捕
-0.31021354	會 拘 捕
-1.2738117	壞 人 時
-0.7832767	待 會 時
-1.4518142	有 人 利
-0.59727746	人 利 用
-0.59727746	止 運 用
-0.7836249	的 力 量
-0.82091355	界 出 來
-0.7799576	備 而 來
-0.5951117	力 量 來
-0.7585447	量 來 掩
-0.59750426	來 掩 護
-0.82554376	人 我 很
-0.8201647	感 到 很
-1.0480599	網 上 很
-0.7585447	我 很 抗
-0.59750426	很 抗 拒
-1.2264122	有 否 公
-1.2150903	泛 民 公
-0.31013358	否 公 開
-0.31013358	民 公 開
-0.59727746	次 召 開
-0.7595425	是 絕 對
-1.3583668	示 威 者
-0.59727746	開 記 者
-1.4361534	有 人 手
-0.70923716	威 者 手
-0.5951117	恐 怖 手
-0.7123514	手 無 寸
-0.35811737	尖 的 鐵
-0.59727746	無 寸 鐵
-0.7123514	寸 鐵 那
-0.5951117	鐵 那 麼
-0.29051661	是 甚 麼
-0.5951117	竟 怎 麼
-0.79939896	們 在 鏡
-0.59727746	在 鏡 頭
-1.0542337	戴 上 頭
-1.2088165	是 否 看
-0.7061856	頭 前 看
-0.5927634	居 然 看
-0.5927634	完 全 看
-0.9244361	的 是 甚
-0.7312552	上 是 甚
-1.1209593	二 日 早
-1.3852317	議 員 上
-0.5927634	日 早 上
-0.30853653	塊 戴 上
-0.30853653	要 戴 上
-0.28975376	聯 網 上
-0.8477114	麼 人 挖
-0.59727746	人 挖 磚
-0.59727746	投 擲 磚
-0.7585447	人 手 持
-0.59727746	手 持 削
-0.59727746	攜 帶 削
-0.31021354	持 削 尖
-0.31021354	帶 削 尖
-0.3251799	的 鐵 枝
-0.89529115	鐵 枝 投
-0.59750426	枝 投 擲
-0.7123514	擲 磚 塊
-0.59727746	磚 塊 戴
-0.7120559	們 要 戴
-0.7123514	上 頭 盔
-0.42999625	是 衝 口
-0.42999625	也 衝 口
-0.59727746	頭 盔 口
-0.7120559	盔 口 罩
-0.59727746	及 眼 罩
-0.7836249	罩 及 眼
-0.85047	威 的 裝
-1.3869982	這 些 裝
-0.8489388	是 有 備
-0.31013358	的 裝 備
-0.31013358	些 裝 備
-0.9677975	裝 備 嗎
-1.7088556	他 們 要
-0.34677657	家 不 要
-0.9677975	裝 備 並
-0.59750426	備 並 攜
-0.59750426	並 攜 帶
-1.4118989	議 員 居
-0.59750426	員 居 然
-1.3883978	這 些 片
-0.7582161	怖 手 段
-0.59727746	些 片 段
-0.7123514	片 段 今
-0.59727746	段 今 天
-0.31013358	到 當 天
-0.31013358	算 當 天
-1.2832583	們 的 發
-0.59750426	的 發 言
-0.4743036	局 長 提
-0.85085064	出 的 質
-0.59750426	的 質 詢
-1.2273105	有 否 顯
-0.82897097	女 我 知
-1.7088556	他 們 知
-0.7123514	們 知 悉
-0.68180954	行 有 關
-0.68180954	到 有 關
-0.68180954	悉 有 關
-0.4743036	有 關 情
-0.29129097	關 情 況
-1.1552005	主 席 沒
-0.7582161	話 也 沒
-0.7123514	我 只 留
-0.82418936	意 到 郭
-0.32434276	籲 大 家
-0.70923716	及 其 家
-0.5951117	到 郭 家
-0.7585447	郭 家 麒
-1.0611296	剛 才 也
-0.70923716	會 時 也
-0.5951117	句 話 也
-0.7955966	出 說 了
-1.681274	他 們 了
-0.83105236	否 為 了
-0.5053133	民 一 句
-0.5053133	了 一 句
-0.89529115	一 句 打
-1.0681634	警 察 張
-0.59750426	察 張 超
-0.59750426	張 超 雄
-0.8102426	員 上 次
-0.59750426	上 次 召
-0.7585447	召 開 記
-0.7123514	記 者 招
-0.59750426	者 招 待
-1.0738047	而 出 呼
-1.0821288	可 否 呼
-0.9622057	公 開 呼
-0.25906464	出 呼 籲
-0.25906464	否 呼 籲
-0.25906464	開 呼 籲
-1.0406795	呼 籲 社
-0.59750426	籲 社 福
-0.59750426	社 福 界
-0.8227649	關 行 動
-1.2724944	們 的 動
-0.78253984	與 暴 動
-0.7836249	不 想 猜
-0.59750426	想 猜 測
-0.7585447	的 動 機
-1.7088556	他 們 心
-0.59727746	很 痛 心
-0.7123514	們 心 裏
-0.59750426	心 裏 究
-0.59750426	裏 究 竟
-0.59750426	究 竟 怎
-1.2273105	是 否 真
-0.85085064	真 的 完
-0.59750426	的 完 全
-1.2136304	不 到 當
-0.59727746	清 算 當
-0.8293305	為 我 希
-0.59750426	我 希 望
-0.59750426	希 望 市
-0.7123514	民 能 夠
-1.0681634	清 楚 判
-0.59750426	楚 判 斷
-0.7585447	為 了 強
-0.59750426	了 強 烈
-1.1101844	我 們 便
-0.59750426	們 便 姑
-0.59727746	便 姑 息
-0.59727746	些 消 息
-1.1209593	暴 力 容
-0.59750426	力 容 忍
-1.3883978	這 些 犯
-0.59750426	些 犯 罪
-0.89529115	長 提 問
-0.7120559	痛 心 互
-0.59727746	提 問 互
-0.31021354	心 互 聯
-0.31021354	問 互 聯
-0.29129097	互 聯 網
-0.7585447	上 很 多
-0.7851222	人 清 算
-0.9677975	當 天 執
-0.55797315	的 警 務
-0.55797315	職 警 務
-0.96899307	們 可 以
-1.0682116	人 員 以
-0.8477114	家 人 子
-0.59750426	人 子 女
-0.7123514	我 知 道
-1.3883978	這 些 消
-0.7123514	消 息 後
-0.59750426	息 後 感
-0.7585447	到 很 痛
-0.79903793	是 在 職
-0.7120559	母 任 職
-0.7120559	在 職 教
-0.7120559	而 任 教
-0.7123514	職 教 師
-0.7832767	師 而 任
-0.59727746	父 母 任
-0.85085064	教 的 班
-0.59750426	的 班 別
-0.8492106	別 有 學
-0.59750426	有 學 生
-0.85085064	生 的 父
-0.59750426	的 父 母
-0.84881175	員 他 懂
-0.59750426	他 懂 得
-0.59750426	懂 得 如
-0.7585447	如 何 整
-0.35484442	要 這 樣
-0.29129097	這 樣 做
-0.7123514	可 以 叫
-1.2264122	有 否 停
-0.59727746	以 叫 停
-0.7123514	叫 停 該
-0.7123514	該 法 案
-0.7123514	否 停 止
-0.59750426	停 止 運
-0.7123514	運 用 白
-0.59750426	用 白 色
-0.59750426	白 色 恐
-0.59750426	色 恐 怖
-0.89529115	一 句 話

\end\
