\data\
ngram 1=375
ngram 2=881
ngram 3=1084

\1-grams:
-2.977178	<unk>	0
0	<s>	-0.06303671
-2.8227484	</s>	0
-2.2154968	主	-0.15378124
-2.663112	席	-0.06303674
-1.5954287	西	-1.1532413
-2.57135	九	-0.14280722
-1.8894492	文	-0.34010994
-2.8227484	化	-0.06303671
-2.3051028	區	-0.06303671
-2.663112	是	-0.06303671
-2.4181352	香	-0.3935734
-2.8227484	港	-0.06303671
-2.8227484	很	-0.06303671
-2.663112	重	-0.06303671
-2.3051028	要	-0.06303674
-1.349878	的	-0.099505015
-1.9294535	一	-0.13959804
-2.8227484	個	-0.06303671
-2.57135	建	-0.06303671
-2.1412537	設	-0.2851499
-2.8227484	根	-0.06303671
-2.8227484	據	-0.06303671
-2.3051028	二	-0.17444956
-2.8227484	零	-0.06303671
-2.57135	三	-0.06303671
-2.4181352	年	-0.15550043
-2.2154968	月	-0.19436143
-2.8227484	獲	-0.06303671
-2.663112	核	-0.06303671
-2.8227484	准	-0.06303671
-2.022568	發	-0.5596047
-2.022568	展	-0.13698691
-2.8227484	圖	-0.06303671
-2.663112	則	-0.06303671
-2.8227484	規	-0.06303671
-2.57135	劃	-0.06303674
-2.663112	題	-0.06303671
-2.2154968	與	-0.2536308
-2.3051028	計	-0.13959804
-2.663112	原	-0.24060267
-2.4181352	將	-0.06303674
-2.57135	為	-0.06303671
-2.8227484	糅	-0.06303671
-1.8894492	合	-0.34010994
-2.4181352	地	-0.06303674
-2.57135	方	-0.06303671
-2.663112	傳	-0.06303671
-2.663112	統	-0.06303671
-2.4181352	特	-0.14280722
-2.8227484	色	-0.06303671
-2.0778692	並	-0.06303671
-2.8227484	且	-0.06303671
-2.8227484	加	-0.06303671
-2.8227484	入	-0.06303671
-2.663112	國	-0.24060267
-2.8227484	際	-0.06303671
-2.663112	元	-0.06303671
-2.8227484	素	-0.06303671
-2.8227484	世	-0.06303671
-2.8227484	界	-0.06303671
-2.8227484	級	-0.06303671
-2.663112	藝	-0.24060267
-2.8227484	術	-0.06303671
-2.663112	綜	-0.24060267
-2.022568	以	-0.13318504
-2.8227484	帶	-0.06303671
-2.8227484	來	-0.06303671
-2.663112	更	-0.06303671
-2.663112	豐	-0.24060267
-2.8227484	富	-0.06303671
-1.8190433	和	-0.10109304
-2.8227484	生	-0.06303671
-2.57135	活	-0.17302325
-2.8227484	創	-0.06303671
-2.8227484	造	-0.06303671
-2.57135	就	-0.06303671
-2.4181352	業	-0.06303671
-2.663112	機	-0.06303671
-1.97352	會	-0.1671376
-2.8227484	促	-0.06303671
-2.4181352	進	-0.14280722
-2.8227484	旅	-0.06303671
-2.8227484	遊	-0.06303671
-2.57135	同	-0.06303671
-2.57135	時	-0.06303671
-2.3051028	可	-0.17444956
-2.663112	令	-0.06303671
-2.57135	成	-0.06303671
-2.663112	都	-0.24060267
-2.1412537	在	-0.160101
-1.97352	故	-0.79151344
-2.8227484	宮	-0.06303671
-2.57135	博	-0.2686347
-2.57135	物	-0.06303671
-2.663112	館	-0.06303671
-2.0778692	(	-0.06303671
-2.0778692	)	-0.19758998
-2.8227484	能	-0.06303671
-2.4181352	內	-0.14280722
-2.8227484	施	-0.06303671
-2.663112	多	-0.06303671
-2.0778692	有	-0.10109304
-2.8227484	助	-0.06303671
-2.663112	實	-0.06303671
-2.663112	現	-0.06303671
-2.8227484	願	-0.06303671
-2.8227484	景	-0.06303671
-2.8227484	每	-0.06303671
-1.97352	項	-0.37368122
-2.8227484	目	-0.06303671
-2.4181352	由	-0.06303671
-2.663112	構	-0.06303671
-2.8227484	思	-0.06303671
-2.4181352	至	-0.06303671
-2.8227484	落	-0.06303671
-2.57135	籌	-0.17302325
-2.663112	備	-0.06303671
-2.57135	過	-0.2686347
-2.8227484	程	-0.06303671
-2.57135	事	-0.06303671
-2.663112	團	-0.24060267
-2.8227484	隊	-0.06303671
-2.663112	責	-0.14280722
-2.8227484	任	-0.06303671
-2.8227484	做	-0.06303671
-2.8227484	好	-0.06303671
-2.4181352	前	-0.24060267
-2.4181352	期	-0.06303674
-2.663112	研	-0.24060267
-2.8227484	究	-0.06303671
-2.4181352	策	-0.14280722
-2.57135	工	-0.2686347
-2.3051028	作	-0.0932103
-2.8227484	而	-0.06303671
-2.8227484	言	-0.06303671
-2.4181352	管	-0.20742218
-2.8227484	理	-0.06303671
-2.663112	局	-0.08164818
-2.8227484	院	-0.06303674
-2.4181352	於	-0.3043322
-2.4181352	六	-0.14280722
-2.57135	十	-0.13959804
-2.1412537	日	-0.0932103
-2.4181352	簽	-0.25720385
-2.57135	訂	-0.17302325
-2.8227484	忘	-0.06303671
-2.8227484	錄	-0.06303671
-2.8227484	確	-0.06303671
-2.57135	定	-0.06303671
-2.3051028	行	-0.06303671
-2.8227484	性	-0.06303671
-2.8227484	第	-0.06303671
-2.663112	步	-0.06303671
-2.57135	當	-0.06303671
-2.8227484	醞	-0.06303671
-2.8227484	釀	-0.06303671
-2.8227484	完	-0.06303671
-2.663112	政	-0.06303671
-2.8227484	府	-0.06303671
-2.4181352	已	-0.06303671
-2.8227484	經	-0.06303671
-2.0778692	立	-0.19758998
-2.57135	即	-0.17302325
-2.8227484	邀	-0.06303671
-2.663112	請	-0.06303671
-2.663112	媒	-0.06303671
-2.57135	出	-0.17302325
-2.8227484	署	-0.06303671
-2.8227484	儀	-0.06303671
-2.8227484	式	-0.06303671
-2.663112	隨	-0.06303671
-2.57135	後	-0.06303671
-2.663112	舉	-0.24060267
-2.663112	新	-0.06303671
-2.8227484	聞	-0.06303671
-2.663112	布	-0.06303671
-2.57135	詳	-0.14280722
-2.8227484	細	-0.06303671
-2.8227484	介	-0.06303671
-2.8227484	紹	-0.06303671
-2.3051028	務	-0.12563784
-2.57135	司	-0.06303671
-2.8227484	長	-0.06303671
-2.663112	暨	-0.06303671
-2.8227484	董	-0.06303671
-2.8227484	七	-0.06303671
-2.8227484	法	-0.06303671
-2.4181352	委	-0.20742218
-2.663112	員	-0.06303671
-2.8227484	別	-0.06303671
-2.022568	議	-0.16956125
-2.57135	解	-0.06303671
-2.8227484	釋	-0.06303671
-2.663112	各	-0.24060267
-2.57135	考	-0.17302325
-2.8227484	慮	-0.06303671
-2.663112	情	-0.06303671
-2.8227484	件	-0.06303671
-2.2154968	提	-0.17302325
-2.4181352	交	-0.11455745
-2.1412537	了	-0.06303671
-2.2154968	全	-0.21820311
-2.8227484	面	-0.06303671
-2.8227484	反	-0.06303671
-2.8227484	映	-0.06303671
-2.57135	意	-0.06303671
-2.3051028	向	-0.12563784
-2.8227484	容	-0.06303671
-2.8227484	亦	-0.06303671
-2.8227484	記	-0.06303671
-2.8227484	者	-0.06303671
-2.8227484	招	-0.06303671
-2.8227484	待	-0.06303671
-2.8227484	盡	-0.06303671
-2.8227484	答	-0.06303671
-2.8227484	體	-0.06303671
-2.0778692	公	-0.34314185
-2.8227484	眾	-0.06303671
-2.663112	問	-0.06303671
-2.663112	八	-0.06303671
-2.4181352	間	-0.06303671
-2.8227484	星	-0.06303671
-2.57135	諮	-0.2686347
-2.8227484	詢	-0.06303671
-2.8227484	動	-0.06303671
-2.8227484	收	-0.06303671
-2.8227484	集	-0.06303671
-2.8227484	對	-0.06303671
-2.663112	見	-0.06303671
-2.8227484	涵	-0.06303671
-2.8227484	蓋	-0.06303671
-2.8227484	營	-0.06303671
-2.663112	運	-0.06303671
-2.4181352	及	-0.06303674
-2.663112	覽	-0.06303671
-2.8227484	教	-0.06303671
-2.8227484	育	-0.06303671
-2.663112	點	-0.06303671
-2.8227484	等	-0.06303671
-2.663112	其	-0.06303671
-2.8227484	四	-0.06303671
-2.663112	分	-0.24060267
-2.8227484	析	-0.06303671
-2.663112	呈	-0.24060267
-2.8227484	監	-0.06303671
-2.8227484	察	-0.06303671
-2.663112	推	-0.06303671
-2.8227484	況	-0.06303671
-2.3051028	聯	-0.4904834
-2.8227484	小	-0.06303671
-2.8227484	組	-0.06303671
-2.57135	供	-0.14280722
-2.8227484	參	-0.06303671
-2.663112	五	-0.24060267
-2.8227484	上	-0.06303671
-2.8227484	審	-0.06303671
-2.8227484	接	-0.06303671
-2.8227484	納	-0.06303671
-2.8227484	託	-0.06303671
-2.8227484	獨	-0.06303671
-2.8227484	顧	-0.06303671
-2.3051028	報	-0.3043322
-2.8227484	告	-0.06303671
-2.8227484	相	-0.06303671
-2.663112	關	-0.06303671
-2.8227484	回	-0.06303671
-2.663112	應	-0.06303671
-2.8227484	擬	-0.06303671
-2.8227484	協	-0.06303671
-2.663112	結	-0.24060267
-2.8227484	果	-0.06303671
-2.8227484	求	-0.06303671
-2.57135	安	-0.17302325
-2.8227484	排	-0.06303671
-2.8227484	閱	-0.06303671
-2.8227484	案	-0.06303671
-2.57135	包	-0.2686347
-2.8227484	括	-0.06303671
-2.8227484	a	-0.06303671
-2.8227484	Waters	-0.06303671
-2.8227484	EconomicsLimited	-0.06303671
-2.8227484	萊	-0.06303671
-2.8227484	坊	-0.06303671
-2.8227484	測	-0.06303671
-2.663112	師	-0.06303671
-2.663112	限	-0.06303671
-2.8227484	撰	-0.06303671
-2.8227484	寫	-0.06303671
-2.663112	中	-0.06303671
-2.663112	心	-0.06303674
-2.8227484	初	-0.06303671
-2.8227484	b	-0.06303671
-2.8227484	Economics	-0.06303671
-2.8227484	Limited	-0.06303671
-2.663112	樞	-0.24060267
-2.8227484	紐	-0.06303671
-2.8227484	檢	-0.06303671
-2.8227484	討	-0.06303671
-2.8227484	c	-0.06303671
-2.8227484	永	-0.06303671
-2.8227484	企	-0.06303671
-2.8227484	財	-0.06303671
-2.8227484	服	-0.06303671
-2.663112	商	-0.06303671
-2.8227484	d	-0.06303671
-2.8227484	許	-0.06303671
-2.8227484	李	-0.06303671
-2.8227484	嚴	-0.06303671
-2.8227484	築	-0.06303671
-2.57135	大	-0.17302325
-2.8227484	型	-0.06303671
-2.8227484	表	-0.06303671
-2.8227484	演	-0.06303671
-2.663112	場	-0.06303671
-2.57135	用	-0.06303671
-2.663112	概	-0.24060267
-2.8227484	念	-0.06303671
-2.8227484	便	-0.06303671
-2.8227484	他	-0.06303671
-2.8227484	途	-0.06303671
-2.8227484	所	-0.06303671
-2.663112	決	-0.06303671
-2.8227484	序	-0.06303671
-2.8227484	雙	-0.06303671
-2.8227484	磋	-0.06303671
-2.57135	負	-0.2686347
-2.8227484	常	-0.06303671
-2.8227484	維	-0.06303671
-2.8227484	修	-0.06303671
-2.8227484	保	-0.06303671
-2.8227484	養	-0.06303671
-2.663112	資	-0.06303671
-2.8227484	擁	-0.06303671
-2.8227484	附	-0.06303671
-2.8227484	屬	-0.06303671
-2.8227484	超	-0.06303671
-2.8227484	越	-0.06303671
-2.663112	外	-0.06303671
-2.8227484	借	-0.06303671
-2.8227484	到	-0.06303671
-2.8227484	境	-0.06303671
-2.8227484	制	-0.06303671
-2.8227484	天	-0.06303671
-2.8227484	本	-0.06303671
-2.8227484	自	-0.06303671
-2.8227484	代	-0.06303671
-2.663112	最	-0.06303671
-2.8227484	近	-0.06303671
-2.8227484	次	-0.06303671
-2.8227484	去	-0.06303671
-2.8227484	匯	-0.06303671
-2.8227484	治	-0.06303671
-2.663112	此	-0.06303671
-2.57135	我	-0.06303671
-2.8227484	們	-0.06303671
-2.8227484	直	-0.06303671
-2.8227484	抱	-0.06303671
-2.8227484	着	-0.06303671
-2.8227484	高	-0.06303671
-2.8227484	透	-0.06303671
-2.8227484	明	-0.06303671
-2.663112	度	-0.06303671
-2.8227484	態	-0.06303671
-2.8227484	不	-0.06303671
-2.8227484	量	-0.06303671
-2.8227484	料	-0.06303671
-2.8227484	因	-0.06303671
-2.8227484	認	-0.06303671
-2.8227484	這	-0.06303671
-2.8227484	無	-0.06303671
-2.8227484	需	-0.06303671
-2.8227484	懇	-0.06303671
-2.8227484	否	-0.06303671
-2.8227484	謝	-0.06303671

\2-grams:
-1.5478784	席 </s>	0
-0.8527225	<s> 主	-0.05441012
-2.1224093	的 主	-0.05441012
-1.4909741	劃 主	-0.05441012
-1.2984244	程 主	-0.05441012
-1.8700202	局 主	-0.05441012
-0.8527225	謝 主	-0.05441012
-0.6342069	主 席	-0.054410145
-0.5451088	出 席	-0.05441012
-1.3100159	席 西	-0.05441012
-1.6403761	的 西	-0.05441012
-1.1739893	則 西	-0.05441012
-1.0481398	題 西	-0.05441012
-1.1349978	和 西	-0.12165884
-1.1739893	就 西	-0.05441012
-1.4871889	在 西	-0.05441012
-1.410685	( 西	-0.05441012
-1.0481398	施 西	-0.05441012
-1.3519076	目 西	-0.05441012
-1.3519076	由 西	-0.05441012
-1.1739893	程 西	-0.05441012
-1.4686235	作 西	-0.05441012
-0.80393374	言 西	-0.05441012
-1.2539004	後 西	-0.05441012
-1.0481398	暨 西	-0.05441012
-1.1739893	解 西	-0.05441012
-1.2070613	考 西	-0.12165884
-1.0481398	映 西	-0.05441012
-1.2539004	間 西	-0.05441012
-0.80393374	察 西	-0.05441012
-1.1739893	果 西	-0.05441012
-0.80393374	制 西	-0.05441012
-0.031554263	西 九	-1.0050647
-1.8869307	月 九	-0.05441012
-1.672716	十 九	-0.12165884
-1.3659211	九 文	-0.81124467
-1.2503316	個 文	-0.05441012
-1.4181962	將 文	-0.05441012
-1.1039771	際 文	-0.05441012
-0.83487046	級 文	-0.05441012
-1.7289897	和 文	-0.05441012
-1.8087274	會 文	-0.05441012
-1.2503316	宮 文	-0.05441012
-1.5668975	有 文	-0.05441012
-1.1039771	現 文	-0.05441012
-0.8250958	全 文	-0.05441012
-1.4181962	心 文	-0.05441012
-0.30825448	文 化	-0.37841773
-1.5718386	化 區	-0.06848022
-1.9842794	展 區	-0.05441012
-1.8976952	合 區	-0.05441012
-1.4278077	特 區	-0.05441012
-1.1436536	令 區	-0.05441012
-1.8814893	區 是	-0.05441012
-1.4478799	錄 是	-0.05441012
-1.1496296	是 香	-0.05441012
-2.0204244	展 香	-0.05441012
-1.1496296	令 香	-0.05441012
-1.3157163	括 香	-0.05441012
-0.22434178	香 港	-0.05441012
-1.4549762	港 很	-0.05441012
-0.8633306	很 重	-0.05441012
-2.3536487	的 重	-0.05441012
-1.5851299	主 要	-0.05441012
-1.1436536	重 要	-0.05441012
-2.177756	的 要	-0.05441012
-1.1436536	析 要	-0.05441012
-0.8557706	需 要	-0.05441012
-1.3018728	區 的	-0.05441012
-1.1826639	要 的	-0.05441012
-0.7600765	准 的	-0.05441012
-1.4050655	展 的	-0.05441012
-1.0773817	則 的	-0.05441012
-1.1826639	劃 的	-0.05441012
-1.1826639	地 的	-0.05441012
-0.7600765	素 的	-0.05441012
-0.9738882	富 的	-0.05441012
-0.7600765	遊 的	-0.05441012
-1.2135196	館 的	-0.05441012
-1.3445083	) 的	-0.05441012
-1.2815793	有 的	-0.05441012
-1.2135196	目 的	-0.05441012
-1.1247447	籌 的	-0.05441012
-1.0773817	備 的	-0.05441012
-0.9738882	隊 的	-0.05441012
-0.9738882	任 的	-0.05441012
-1.1826639	期 的	-0.05441012
-0.9167765	作 的	-0.05441012
-1.3423011	局 的	-0.05441012
-1.1826639	院 的	-0.05441012
-1.3048595	日 的	-0.05441012
-1.140138	錄 的	-0.05441012
-1.0773817	性 的	-0.05441012
-1.1247447	出 的	-0.05441012
-1.2369838	員 的	-0.05441012
-1.2453543	交 的	-0.05441012
-1.2184038	向 的	-0.05441012
-1.140138	詢 的	-0.05441012
-1.0773817	動 的	-0.05441012
-1.1826639	及 的	-0.05441012
-1.180876	供 的	-0.05441012
-0.7600765	託 的	-0.05441012
-0.7600765	寫 的	-0.054410145
-0.9738882	中 的	-0.05441012
-1.1826639	心 的	-0.05441012
-1.0773817	紐 的	-0.05441012
-0.7600765	討 的	-0.05441012
-0.9738882	商 的	-0.05441012
-1.9187587	的 一	-0.05441012
-0.8377953	零 一	-0.42596874
-0.88687867	年 一	-0.38527593
-1.2579863	為 一	-0.05441012
-0.8377953	每 一	-0.05441012
-1.483354	於 一	-0.05441012
-0.6856687	十 一	-0.27618456
-0.8377953	第 一	-0.05441012
-1.6134673	立 一	-0.05441012
-0.8377953	近 一	-0.05441012
-0.8377953	們 一	-0.05441012
-1.0002793	一 個	-0.054410145
-1.6048799	化 建	-0.05441012
-1.5325146	及 建	-0.05441012
-0.86193156	嚴 建	-0.05441012
-1.7568053	區 設	-0.05441012
-2.0733254	的 設	-0.05441012
-1.2900299	建 設	-0.05441012
-1.5760046	與 設	-0.05441012
-1.2900299	術 設	-0.05441012
-1.4092079	內 設	-0.05441012
-1.1319427	念 設	-0.05441012
-1.69722	設 根	-0.05441012
-0.86516654	根 據	-0.05441012
-0.8557706	據 二	-0.05441012
-0.54492337	月 二	-0.6071247
-0.8035885	在 二	-0.38527593
-0.3194612	於 二	-0.5102147
-1.640308	十 二	-0.05441012
-0.55631024	二 零	-0.81124467
-1.9356931	一 三	-0.05441012
-1.4425293	至 三	-0.05441012
-1.672716	十 三	-0.05441012
-1.3157163	三 年	-0.05441012
-1.437415	六 年	-0.05441012
-0.8588401	七 年	-0.09806648
-0.8588401	去 年	-0.05441012
-0.9860684	一 月	-0.080074035
-1.5073045	二 月	-0.05441012
-1.2984244	三 月	-0.05441012
-0.6634177	六 月	-0.05441012
-0.8527225	四 月	-0.05441012
-0.3676878	五 月	-0.054410145
-1.912924	月 獲	-0.05441012
-2.3536487	的 核	-0.05441012
-0.8633306	獲 核	-0.05441012
-1.1620746	核 准	-0.05441012
-1.7106396	區 發	-0.12165884
-1.9892017	的 發	-0.05441012
-1.4530624	將 發	-0.05441012
-1.8317668	合 發	-0.05441012
-1.3768822	業 發	-0.05441012
-1.5124584	館 發	-0.05441012
-0.8437048	聞 發	-0.05441012
-1.2737126	紐 發	-0.05441012
-0.8437048	他 發	-0.05441012
-1.6097014	的 展	-0.12165884
-0.14756164	發 展	-0.05441012
-1.4530624	地 展	-0.05441012
-1.2168696	和 展	-0.12165884
-0.65854126	進 展	-0.054410145
-0.65854126	策 展	-0.05441012
-1.1205395	暨 展	-0.05441012
-1.4530624	及 展	-0.05441012
-1.1205395	推 展	-0.05441012
-2.1049972	展 圖	-0.05441012
-0.8633306	圖 則	-0.05441012
-0.36997277	原 則	-0.05441012
-2.4091418	的 規	-0.05441012
-0.86193156	規 劃	-0.05441012
-0.6997615	計 劃	-0.054410145
-1.4472398	策 劃	-0.05441012
-1.6190301	主 題	-0.05441012
-1.1584449	問 題	-0.05441012
-1.4909741	席 與	-0.05441012
-1.1377587	題 與	-0.05441012
-1.2984244	方 與	-0.05441012
-1.68296	) 與	-0.05441012
-1.8700202	局 與	-0.12165884
-1.2984244	意 與	-0.05441012
-1.8084687	區 計	-0.05441012
-0.46455866	設 計	-0.086734116
-1.9842794	展 計	-0.05441012
-0.8557706	紹 計	-0.05441012
-0.8557706	測 計	-0.05441012
-1.5391065	要 原	-0.05441012
-1.6803573	計 原	-0.05441012
-1.8368042	區 將	-0.05441012
-1.6948521	並 將	-0.05441012
-1.9352453	局 將	-0.05441012
-1.7801207	日 將	-0.05441012
-2.059853	展 為	-0.05441012
-1.3246274	成 為	-0.05441012
-0.86193156	認 為	-0.05441012
-1.3340826	個 糅	-0.05441012
-1.8874049	的 合	-0.05441012
-0.83487046	糅 合	-0.05441012
-0.3637426	綜 合	-0.05441012
-1.4727095	館 合	-0.05441012
-1.4181962	院 合	-0.05441012
-0.53427184	訂 合	-0.6071247
-1.2503316	定 合	-0.05441012
-1.1039771	布 合	-0.05441012
-1.7511317	議 合	-0.05441012
-1.5163145	了 合	-0.05441012
-0.16689391	聯 合	-0.6071247
-1.1039771	場 合	-0.05441012
-1.9158692	合 地	-0.05441012
-1.1496296	面 地	-0.05441012
-1.1496296	場 地	-0.05441012
-1.3157163	用 地	-0.05441012
-1.5325146	地 方	-0.05441012
-1.155689	點 方	-0.05441012
-0.86193156	雙 方	-0.05441012
-1.6247233	與 傳	-0.05441012
-1.1584449	請 傳	-0.05441012
-1.1584449	傳 統	-0.05441012
-0.8633306	Limited 統	-0.05441012
-1.1496296	統 特	-0.05441012
-1.9404594	和 特	-0.05441012
-2.0290124	會 特	-0.05441012
-1.3157163	成 特	-0.05441012
-0.67007035	特 色	-0.05441012
-1.8473346	文 並	-0.05441012
-1.8910073	展 並	-0.05441012
-1.1262038	色 並	-0.05441012
-1.9050504	會 並	-0.05441012
-1.3871572	後 並	-0.05441012
-1.8337536	議 並	-0.05441012
-1.1262038	應 並	-0.05441012
-1.2817947	案 並	-0.05441012
-1.740192	並 且	-0.05441012
-0.86516654	且 加	-0.05441012
-0.86516654	加 入	-0.05441012
-1.3287	為 國	-0.05441012
-0.8633306	入 國	-0.05441012
-0.3703638	國 際	-0.05441012
-1.1584449	際 元	-0.05441012
-1.1584449	多 元	-0.05441012
-1.1620746	元 素	-0.05441012
-2.4091418	的 世	-0.05441012
-0.86516654	世 界	-0.05441012
-0.86516654	界 級	-0.05441012
-1.6126777	化 藝	-0.12165884
-2.3536487	的 藝	-0.05441012
-0.3703638	藝 術	-0.054410145
-1.3287	術 綜	-0.05441012
-1.5391065	心 綜	-0.05441012
-1.7106396	區 以	-0.05441012
-1.4765905	可 以	-0.05441012
-1.5604821	員 以	-0.05441012
-1.8115784	議 以	-0.05441012
-0.8437048	體 以	-0.05441012
-1.1205395	運 以	-0.05441012
-1.3768822	告 以	-0.05441012
-0.8437048	治 以	-0.05441012
-0.8437048	着 以	-0.05441012
-1.7926759	以 帶	-0.05441012
-0.86516654	帶 來	-0.05441012
-0.8633306	來 更	-0.05441012
-1.1584449	施 更	-0.05441012
-1.1584449	元 豐	-0.05441012
-1.1584449	更 豐	-0.05441012
-0.3703638	豐 富	-0.05441012
-1.7490746	展 和	-0.05441012
-1.5185591	計 和	-0.05441012
-1.7613388	合 和	-0.05441012
-1.396416	地 和	-0.05441012
-1.2354156	術 和	-0.05441012
-1.0932763	究 和	-0.05441012
-1.2354156	性 和	-0.05441012
-0.8290792	府 和	-0.05441012
-0.8290792	慮 和	-0.05441012
-0.8290792	盡 和	-0.05441012
-1.3288653	覽 和	-0.05441012
-1.3288653	告 和	-0.05441012
-0.8290792	序 和	-0.05441012
-1.0932763	度 和	-0.05441012
-1.6230884	化 生	-0.05441012
-0.86193156	生 活	-0.05441012
-1.4425293	詢 活	-0.12165884
-0.86193156	育 活	-0.05441012
-1.3368189	活 創	-0.05441012
-0.86516654	創 造	-0.05441012
-0.86193156	造 就	-0.05441012
-1.8047806	作 就	-0.05441012
-1.9719417	局 就	-0.05441012
-1.3157163	就 業	-0.05441012
-1.4308757	物 業	-0.05441012
-0.8588401	企 業	-0.05441012
-1.1496296	商 業	-0.05441012
-1.1584449	色 機	-0.05441012
-1.4478799	業 機	-0.05441012
-1.9525535	的 會	-0.05441012
-1.1149483	機 會	-0.05441012
-1.854224	會 會	-0.05441012
-0.36505368	都 會	-0.05441012
-1.6558785	日 會	-0.05441012
-1.1149483	布 會	-0.05441012
-0.84074	法 會	-0.080074035
-1.5452551	員 會	-0.05441012
-0.84074	別 會	-0.05441012
-0.84074	待 會	-0.05441012
-1.740192	並 促	-0.05441012
-1.6978699	的 進	-0.12165884
-0.8588401	促 進	-0.05441012
-1.1496296	新 進	-0.05441012
-1.4308757	間 進	-0.05441012
-1.4576871	進 旅	-0.05441012
-0.86516654	旅 遊	-0.05441012
-2.059853	展 同	-0.05441012
-1.7164993	並 同	-0.05441012
-0.86193156	不 同	-0.05441012
-2.3155262	的 時	-0.05441012
-1.9759233	和 時	-0.05441012
-1.3246274	同 時	-0.05441012
-2.177756	的 可	-0.05441012
-1.4195266	業 可	-0.05441012
-1.3069842	時 可	-0.05441012
-1.5718386	目 可	-0.05441012
-1.1436536	此 可	-0.05441012
-1.7796264	以 令	-0.05441012
-0.8633306	能 令	-0.05441012
-1.4425293	港 成	-0.05441012
-1.5325146	將 成	-0.05441012
-0.86193156	完 成	-0.05441012
-1.6126777	化 都	-0.05441012
-1.1584449	實 都	-0.05441012
-1.4779657	劃 在	-0.05441012
-1.9328836	會 在	-0.05441012
-1.2280068	局 在	-0.054410145
-1.4779657	院 在	-0.05441012
-1.3976812	已 在	-0.05441012
-1.2900299	果 在	-0.05441012
-0.84969574	次 在	-0.05441012
-1.3668447	港 故	-0.05441012
-0.3944445	與 故	-0.6071247
-1.2657783	就 故	-0.05441012
-1.5836782	( 故	-0.05441012
-1.3827218	責 故	-0.05441012
-0.84074	釋 故	-0.05441012
-1.5452551	了 故	-0.05441012
-0.84074	蓋 故	-0.05441012
-1.2657783	關 故	-0.05441012
-1.1149483	代 故	-0.05441012
-0.07643154	故 宮	-0.62066066
-1.6048799	化 博	-0.05441012
-1.3246274	宮 博	-0.6071247
-1.155689	理 博	-0.05441012
-1.934837	文 物	-0.05441012
-2.3155262	的 物	-0.05441012
-0.33467916	博 物	-0.40625858
-1.3287	宮 館	-0.2487814
-1.4478799	物 館	-0.05441012
-1.9050504	會 (	-0.05441012
-1.5265598	館 (	-0.05441012
-1.1262038	究 (	-0.05441012
-1.813324	局 (	-0.05441012
-1.4653356	及 (	-0.05441012
-1.2817947	果 (	-0.05441012
-1.2817947	括 (	-0.05441012
-1.1262038	外 (	-0.05441012
-1.3871572	港 )	-0.05441012
-1.9050504	會 )	-0.05441012
-1.5265598	館 )	-0.05441012
-1.813324	局 )	-0.05441012
-0.84668994	a )	-0.05441012
-0.84668994	b )	-0.05441012
-0.84668994	c )	-0.05441012
-0.84668994	d )	-0.05441012
-1.7485468	) 能	-0.05441012
-1.8368042	區 內	-0.05441012
-2.241201	的 內	-0.05441012
-2.0290124	會 內	-0.05441012
-1.1496296	情 內	-0.05441012
-0.9125349	設 施	-0.05441012
-1.1584449	更 多	-0.05441012
-1.3287	案 多	-0.05441012
-1.1262038	富 有	-0.05441012
-1.9050504	會 有	-0.05441012
-1.1262038	現 有	-0.05441012
-1.1262038	隊 有	-0.05441012
-1.5265598	行 有	-0.05441012
-0.7534964	務 有	-0.12165884
-0.84668994	擁 有	-0.05441012
-0.84668994	量 有	-0.05441012
-1.7428057	有 助	-0.05441012
-0.8633306	助 實	-0.05441012
-0.8633306	落 實	-0.05441012
-1.1584449	實 現	-0.05441012
-1.6740861	了 現	-0.05441012
-2.4091418	的 願	-0.05441012
-0.86516654	願 景	-0.05441012
-0.86516654	景 每	-0.05441012
-1.2657783	個 項	-0.05441012
-1.8383722	展 項	-0.05441012
-1.7730001	和 項	-0.05441012
-1.4988005	館 項	-0.12165884
-1.2657783	定 項	-0.05441012
-0.84074	釀 項	-0.05441012
-0.36505368	各 項	-0.054410145
-0.84074	對 項	-0.05441012
-1.1149483	代 項	-0.05441012
-0.84074	這 項	-0.05441012
-0.2735808	項 目	-0.20244478
-2.0204244	展 由	-0.05441012
-0.52229786	) 由	-0.086734116
-1.5880451	目 由	-0.05441012
-1.6458315	了 由	-0.05441012
-1.1584449	機 構	-0.05441012
-1.6126777	由 構	-0.05441012
-1.1620746	構 思	-0.05441012
-1.8632983	月 至	-0.05441012
-1.0117362	以 至	-0.12165884
-0.8588401	思 至	-0.05441012
-1.7801207	日 至	-0.05441012
-1.4549762	至 落	-0.05441012
-2.3155262	的 籌	-0.05441012
-1.155689	統 籌	-0.05441012
-1.7209238	有 籌	-0.05441012
-0.5451088	籌 備	-0.05441012
-1.8163573	作 備	-0.6071247
-2.3155262	的 過	-0.05441012
-1.9759233	和 過	-0.05441012
-1.3246274	備 過	-0.05441012
-0.3352758	過 程	-0.054410145
-1.6125993	主 事	-0.05441012
-0.86193156	董 事	-0.12165884
-1.155689	師 事	-0.05441012
-2.0788448	展 團	-0.05441012
-1.3287	事 團	-0.05441012
-0.3703638	團 隊	-0.05441012
-1.7302722	有 責	-0.05441012
-0.33493763	負 責	-0.054410145
-0.67007035	責 任	-0.05441012
-1.1620746	任 做	-0.05441012
-0.86516654	做 好	-0.05441012
-2.241201	的 前	-0.05441012
-0.8588401	好 前	-0.05441012
-1.4308757	後 前	-0.05441012
-0.8588401	容 前	-0.05441012
-0.66781783	前 期	-0.05441012
-1.7801207	日 期	-0.05441012
-1.3157163	定 期	-0.05441012
-0.8588401	星 期	-0.05441012
-2.3536487	的 研	-0.05441012
-1.1584449	步 研	-0.05441012
-0.3703638	研 究	-0.05441012
-1.9404594	和 策	-0.05441012
-1.7801207	作 策	-0.05441012
-1.7142017	立 策	-0.05441012
-1.1496296	決 策	-0.05441012
-1.5325146	劃 工	-0.05441012
-1.5325146	期 工	-0.05441012
-0.86193156	養 工	-0.05441012
-0.30686462	合 作	-0.4522758
-0.33353284	工 作	-0.054410145
-1.1436536	運 作	-0.05441012
-1.3069842	用 作	-0.05441012
-0.8557706	所 作	-0.05441012
-1.6230884	目 而	-0.05441012
-0.86516654	而 言	-0.05441012
-1.437415	九 管	-1.1386036
-1.8368042	區 管	-0.05441012
-1.1496296	構 管	-0.05441012
-1.437415	責 管	-0.05441012
-0.45980716	管 理	-0.9528781
-1.3287	事 局	-0.05441012
-1.1584449	理 局	-0.08302147
-1.4549762	物 院	-0.05441012
-1.9352453	局 於	-0.05441012
-1.5182217	院 於	-0.05441012
-0.5434281	即 於	-0.05441012
-0.8588401	亦 於	-0.05441012
-1.9059129	一 六	-0.05441012
-1.6581731	年 六	-0.05441012
-1.8632983	月 六	-0.05441012
-1.4308757	至 六	-0.05441012
-1.5403572	二 十	-0.10735022
-0.9086619	年 十	-0.05441012
-1.8869307	月 十	-0.05441012
-0.66178614	九 日	-0.09806648
-2.0733254	的 日	-0.05441012
-1.8271589	一 日	-0.054410145
-1.2900299	三 日	-0.05441012
-1.4092079	六 日	-0.05441012
-1.6101514	十 日	-0.05441012
-1.1319427	八 日	-0.05441012
-2.241201	的 簽	-0.05441012
-1.0124903	在 簽	-0.05441012
-1.0547662	日 簽	-0.12165884
-0.8588401	自 簽	-0.05441012
-0.5555642	簽 訂	-0.5102147
-1.9656564	議 訂	-0.05441012
-0.86193156	擬 訂	-0.05441012
-1.3340826	備 忘	-0.6071247
-0.86516654	忘 錄	-0.080074035
-1.1620746	是 確	-0.05441012
-1.3294153	訂 定	-0.05441012
-0.86193156	確 定	-0.05441012
-1.4425293	後 定	-0.05441012
-1.4278077	進 行	-0.05441012
-0.55271626	可 行	-0.38527593
-0.36834884	舉 行	-0.05441012
-1.1436536	推 行	-0.05441012
-1.1436536	師 行	-0.05441012
-1.6230884	行 性	-0.054410145
-2.4091418	的 第	-0.05441012
-1.949798	一 步	-0.05441012
-0.8633306	初 步	-0.05441012
-1.155689	步 當	-0.05441012
-1.155689	式 當	-0.05441012
-1.3246274	括 當	-0.05441012
-1.3340826	當 醞	-0.05441012
-0.86516654	醞 釀	-0.05441012
-1.8319736	作 完	-0.05441012
-1.8814893	區 政	-0.05441012
-0.6697339	前 政	-0.12165884
-1.1620746	政 府	-0.05441012
-1.3157163	則 已	-0.05441012
-1.6948521	並 已	-0.05441012
-1.9352453	局 已	-0.05441012
-0.8588401	天 已	-0.05441012
-1.4549762	已 經	-0.05441012
-1.4653356	席 立	-0.05441012
-1.2817947	建 立	-0.05441012
-1.2817947	成 立	-0.05441012
-0.84668994	經 立	-0.05441012
-1.53853	交 立	-0.05441012
-0.7534964	向 立	-0.12165884
-0.84668994	獨 立	-0.05441012
-1.1262038	應 立	-0.05441012
-1.5325146	席 即	-0.05441012
-1.730708	立 即	-0.05441012
-1.155689	隨 即	-0.05441012
-1.3368189	即 邀	-0.05441012
-0.8633306	邀 請	-0.05441012
-0.8633306	懇 請	-0.05441012
-1.1584449	傳 媒	-0.05441012
-0.8633306	答 媒	-0.05441012
-1.8047806	日 出	-0.05441012
-1.155689	媒 出	-0.05441012
-1.6140543	提 出	-0.05441012
-0.7670672	簽 署	-0.12165884
-0.86516654	署 儀	-0.12165884
-0.86516654	儀 式	-0.05441012
-1.989533	局 隨	-0.05441012
-1.1584449	式 隨	-0.05441012
-1.4425293	錄 後	-0.05441012
-1.155689	隨 後	-0.05441012
-1.155689	其 後	-0.05441012
-1.7266092	並 舉	-0.05441012
-1.8163573	日 舉	-0.05441012
-1.6126777	行 新	-0.05441012
-1.1584449	最 新	-0.05441012
-1.1620746	新 聞	-0.05441012
-1.8065835	發 布	-0.05441012
-1.7477818	公 布	-0.05441012
-1.1486337	會 詳	-0.09806648
-1.6048799	目 詳	-0.05441012
-1.9656564	議 詳	-0.05441012
-0.67007035	詳 細	-0.054410145
-1.3340826	細 介	-0.05441012
-0.86516654	介 紹	-0.05441012
-0.6650554	內 務	-0.12165884
-1.3069842	事 務	-0.05441012
-1.1436536	政 務	-0.12165884
-0.8557706	財 務	-0.05441012
-0.8557706	服 務	-0.05441012
-1.5371501	務 司	-0.12165884
-1.4425293	司 司	-0.12165884
-0.96836084	公 司	-0.27618456
-1.4549762	司 長	-0.05441012
-2.0788448	展 暨	-0.05441012
-1.1584449	長 暨	-0.05441012
-2.0136619	局 董	-0.12165884
-1.9689577	一 七	-0.68630594
-0.52442586	立 法	-0.6071247
-1.9352453	局 委	-0.05441012
-1.5246177	務 委	-0.12165884
-0.8588401	組 委	-0.6071247
-0.6666993	供 委	-0.12165884
-0.45928866	委 員	-0.51540303
-0.7948169	議 員	-0.05441012
-1.4576871	特 別	-0.05441012
-0.75534564	會 議	-0.21834934
-1.8160367	項 議	-0.05441012
-1.1205395	請 議	-0.05441012
-1.3768822	覽 議	-0.05441012
-0.8437048	審 議	-0.05441012
-0.8437048	協 議	-0.05441012
-1.1205395	排 議	-0.05441012
-0.8437048	便 議	-0.05441012
-1.1205395	決 議	-0.05441012
-1.5325146	地 解	-0.05441012
-1.3246274	細 解	-0.05441012
-1.665116	了 解	-0.05441012
-1.3340826	解 釋	-0.05441012
-1.7271913	的 各	-0.12165884
-1.3287	程 各	-0.05441012
-2.3155262	的 考	-0.05441012
-1.9067992	項 考	-0.05441012
-0.86193156	參 考	-0.12165884
-0.5457928	考 慮	-0.12165884
-1.6126777	行 情	-0.05441012
-1.4517367	詳 情	-0.05441012
-1.9554603	文 件	-0.05441012
-1.9626235	會 提	-0.05441012
-1.8818201	議 提	-0.05441012
-0.8527225	件 提	-0.05441012
-1.4084666	眾 提	-0.05441012
-1.1377587	問 提	-0.05441012
-1.2984244	案 提	-0.05441012
-1.3157163	細 交	-0.05441012
-0.8405845	提 交	-0.05441012
-1.4308757	眾 交	-0.05441012
-0.36901087	呈 交	-0.05441012
-1.5926381	員 了	-0.05441012
-1.5518163	交 了	-0.05441012
-1.4092079	供 了	-0.05441012
-0.84969574	納 了	-0.05441012
-1.5142016	報 了	-0.05441012
-1.3976812	告 了	-0.05441012
-0.84969574	越 了	-0.05441012
-1.8802514	文 全	-0.05441012
-1.8771911	和 全	-0.05441012
-1.4084666	錄 全	-0.05441012
-1.4084666	已 全	-0.05441012
-1.8818201	議 全	-0.05441012
-1.4084666	間 全	-0.05441012
-0.6353578	全 面	-0.09806648
-1.1620746	面 反	-0.12165884
-0.86516654	反 映	-0.05441012
-1.7178748	的 意	-0.12165884
-1.3246274	同 意	-0.05441012
-1.8047806	作 意	-0.05441012
-1.3069842	方 向	-0.05441012
-1.5043843	期 向	-0.05441012
-1.3069842	意 向	-0.05441012
-1.4195266	間 向	-0.05441012
-1.1436536	度 向	-0.05441012
-1.4576871	內 容	-0.05441012
-1.1620746	長 亦	-0.05441012
-1.6230884	行 記	-0.05441012
-0.86516654	記 者	-0.05441012
-0.86516654	者 招	-0.05441012
-0.86516654	招 待	-0.05441012
-1.4576871	詳 盡	-0.05441012
-1.3340826	解 答	-0.05441012
-1.1620746	媒 體	-0.05441012
-2.0292299	的 公	-0.05441012
-1.4653356	將 公	-0.05441012
-1.3871572	至 公	-0.12165884
-1.4653356	期 公	-0.05441012
-1.3871572	已 公	-0.05441012
-0.84668994	集 公	-0.05441012
-1.1262038	限 公	-0.38527593
-0.84668994	屬 公	-0.05441012
-0.372981	公 眾	-0.18906815
-1.9144405	項 問	-0.05441012
-0.8633306	顧 問	-0.05441012
-1.8980055	月 八	-0.05441012
-1.6126777	行 八	-0.05441012
-1.9059129	一 間	-0.05441012
-1.8632983	月 間	-0.05441012
-1.3157163	時 間	-0.05441012
-1.5182217	期 間	-0.05441012
-1.1620746	八 星	-0.05441012
-1.730708	立 諮	-0.05441012
-1.665116	了 諮	-0.05441012
-1.4425293	眾 諮	-0.38527593
-0.3352758	諮 詢	-0.080074035
-0.5457928	活 動	-0.054410145
-1.3340826	動 收	-0.05441012
-0.86516654	收 集	-0.05441012
-1.4549762	眾 對	-0.05441012
-1.5455421	可 見	-0.05441012
-1.3287	意 見	-0.05441012
-1.3340826	見 涵	-0.05441012
-0.86516654	涵 蓋	-0.05441012
-2.0161145	和 營	-0.05441012
-0.8633306	營 運	-0.05441012
-0.8633306	常 運	-0.05441012
-1.0117362	以 及	-0.05441012
-1.6006538	提 及	-0.05441012
-1.1496296	析 及	-0.05441012
-0.8588401	EconomicsLimited 及	-0.05441012
-0.7675729	展 覽	-0.2852961
-0.8633306	閱 覽	-0.05441012
-2.0161145	和 教	-0.05441012
-0.86516654	教 育	-0.05441012
-1.1584449	重 點	-0.05441012
-1.5391065	要 點	-0.05441012
-1.5505643	向 等	-0.05441012
-1.8163573	作 其	-0.05441012
-0.8633306	等 其	-0.05441012
-1.6913908	年 四	-0.05441012
-1.3287	性 分	-0.05441012
-1.3287	見 分	-0.05441012
-0.3703638	分 析	-0.05441012
-1.1584449	點 呈	-0.05441012
-0.8633306	本 呈	-0.05441012
-2.1090863	會 監	-0.05441012
-0.86516654	監 察	-0.05441012
-1.5391065	劃 推	-0.05441012
-1.7796264	以 推	-0.05441012
-1.1620746	情 況	-0.05441012
-2.177756	的 聯	-0.05441012
-1.6742328	( 聯	-0.05441012
-1.5796745	交 聯	-0.05441012
-1.5124366	向 聯	-0.05441012
-0.8557706	況 聯	-0.05441012
-1.9554603	合 小	-0.6071247
-0.86516654	小 組	-0.6071247
-2.0664465	會 供	-0.05441012
-1.730708	) 供	-0.05441012
-0.8428834	提 供	-0.05441012
-1.6861	員 參	-0.12165884
-1.681537	年 五	-0.12165884
-1.7821453	在 五	-0.05441012
-1.9989209	議 上	-0.054410145
-1.3340826	上 審	-0.05441012
-1.740192	並 接	-0.05441012
-0.86516654	接 納	-0.05441012
-1.4595556	委 託	-0.05441012
-2.4091418	的 獨	-0.05441012
-1.4549762	詢 顧	-0.05441012
-1.8743912	項 報	-0.05441012
-1.3069842	動 報	-0.05441012
-1.3069842	上 報	-0.05441012
-1.1436536	念 報	-0.05441012
-0.8557706	匯 報	-0.05441012
-0.32101512	報 告	-0.05441012
-1.7396814	的 相	-0.12165884
-1.7302722	有 關	-0.05441012
-0.8633306	相 關	-0.05441012
-1.3340826	關 回	-0.05441012
-1.989533	局 應	-0.05441012
-0.8633306	回 應	-0.05441012
-1.5478784	院 擬	-0.05441012
-1.8319736	作 協	-0.6071247
-1.7271913	的 結	-0.12165884
-1.4478799	詢 結	-0.05441012
-0.3703638	結 果	-0.054410145
-1.5478784	要 求	-0.05441012
-2.3155262	的 安	-0.05441012
-1.6048799	由 安	-0.05441012
-0.86193156	求 安	-0.05441012
-0.5457928	安 排	-0.05441012
-1.6861	員 閱	-0.05441012
-1.0302426	議 案	-0.054410145
-1.7164993	( 包	-0.05441012
-1.4472398	策 包	-0.05441012
-1.4425293	告 包	-0.05441012
-0.3352758	包 括	-0.054410145
-1.740192	( a	-0.05441012
-1.6230884	由 Waters	-0.05441012
-1.1620746	Waters EconomicsLimited	-0.05441012
-1.5478784	及 萊	-0.05441012
-0.86516654	萊 坊	-0.05441012
-0.86516654	坊 測	-0.05441012
-1.6803573	計 師	-0.05441012
-0.8633306	築 師	-0.05441012
-2.3536487	的 限	-0.05441012
-0.96633273	有 限	-0.38527593
-1.4549762	司 撰	-0.38527593
-0.86516654	撰 寫	-0.38527593
-1.3287	當 中	-0.05441012
-1.4478799	覽 中	-0.5102147
-1.1584449	核 心	-0.05441012
-1.1584449	中 心	-0.05441012
-2.4091418	的 初	-0.05441012
-1.740192	( b	-0.05441012
-1.1620746	Waters Economics	-0.05441012
-0.86516654	Economics Limited	-0.05441012
-1.4478799	覽 樞	-0.12165884
-1.5391065	心 樞	-0.05441012
-0.3703638	樞 紐	-0.054410145
-1.3340826	紐 檢	-0.05441012
-0.86516654	檢 討	-0.05441012
-1.740192	( c	-0.05441012
-1.3368189	安 永	-0.05441012
-0.86516654	永 企	-0.05441012
-1.4549762	業 財	-0.05441012
-1.5505643	務 服	-0.05441012
-2.3536487	的 商	-0.05441012
-0.8633306	磋 商	-0.05441012
-1.740192	( d	-0.05441012
-1.6230884	由 許	-0.05441012
-0.86516654	許 李	-0.05441012
-0.86516654	李 嚴	-0.05441012
-1.3340826	建 築	-0.05441012
-1.8671184	區 大	-0.05441012
-2.3155262	的 大	-0.05441012
-1.665116	了 大	-0.05441012
-0.5457928	大 型	-0.12165884
-0.86516654	型 表	-0.12165884
-0.86516654	表 演	-0.12165884
-1.3287	同 場	-0.05441012
-0.8633306	演 場	-0.12165884
-1.8671184	區 用	-0.05441012
-2.059853	展 用	-0.05441012
-1.5325146	心 用	-0.05441012
-2.3536487	的 概	-0.05441012
-1.6803573	計 概	-0.05441012
-0.3703638	概 念	-0.05441012
-1.7926759	以 便	-0.05441012
-1.1620746	其 他	-0.05441012
-1.3340826	用 途	-0.05441012
-0.86516654	途 所	-0.05441012
-1.992887	和 決	-0.05441012
-0.8633306	否 決	-0.05441012
-1.3340826	時 序	-0.05441012
-1.1620746	映 雙	-0.05441012
-1.3340826	方 磋	-0.05441012
-1.5325146	將 負	-0.05441012
-1.9759233	和 負	-0.05441012
-1.4425293	司 負	-0.05441012
-1.8319736	日 常	-0.05441012
-2.0161145	和 維	-0.05441012
-0.86516654	維 修	-0.05441012
-0.86516654	修 保	-0.05441012
-0.86516654	保 養	-0.05441012
-1.6228431	全 資	-0.05441012
-1.3287	關 資	-0.05441012
-1.1620746	資 擁	-0.05441012
-2.4091418	的 附	-0.05441012
-0.86516654	附 屬	-0.05441012
-1.1620746	排 超	-0.05441012
-0.86516654	超 越	-0.05441012
-1.4478799	物 外	-0.05441012
-0.8633306	境 外	-0.05441012
-1.1620746	外 借	-0.05441012
-0.86516654	借 到	-0.05441012
-0.86516654	到 境	-0.05441012
-1.1620746	限 制	-0.05441012
-1.3340826	當 天	-0.05441012
-1.9554603	文 本	-0.05441012
-2.0136619	局 自	-0.05441012
-0.8448422	交 代	-0.05441012
-2.3536487	的 最	-0.05441012
-2.0788448	展 最	-0.05441012
-1.1620746	最 近	-0.05441012
-1.9689577	一 次	-0.05441012
-1.7944717	在 去	-0.05441012
-1.3340826	上 匯	-0.05441012
-1.4595556	管 治	-0.05441012
-1.6126777	由 此	-0.05441012
-0.8633306	因 此	-0.05441012
-1.5325146	要 我	-0.05441012
-1.3246274	見 我	-0.05441012
-1.155689	此 我	-0.05441012
-1.3340826	我 們	-0.05441012
-1.9689577	一 直	-0.05441012
-0.86516654	直 抱	-0.05441012
-0.86516654	抱 着	-0.05441012
-1.7926759	以 高	-0.05441012
-0.86516654	高 透	-0.05441012
-0.86516654	透 明	-0.05441012
-0.8633306	明 度	-0.05441012
-0.8633306	態 度	-0.05441012
-2.4091418	的 態	-0.05441012
-1.7944717	在 不	-0.05441012
-1.3368189	大 量	-0.05441012
-1.1620746	資 料	-0.05441012
-0.86516654	料 因	-0.05441012
-1.3340826	我 認	-0.05441012
-1.3340826	為 這	-0.05441012
-1.740192	並 無	-0.05441012
-0.86516654	無 需	-0.05441012
-1.3340826	我 懇	-0.05441012
-1.6861	員 否	-0.05441012
-1.1620746	多 謝	-0.05441012

\3-grams:
-1.1922076	主 席 </s>
-1.1835445	作 的 主
-0.834938	規 劃 主
-1.0776432	過 程 主
-1.1501051	事 局 主
-0.61691123	多 謝 主
-0.49136442	<s> 主 席
-0.49136442	局 主 席
-0.49136442	謝 主 席
-0.43271405	日 出 席
-0.43271405	媒 出 席
-1.0837557	主 席 西
-0.8602871	准 的 西
-0.9281967	原 則 西
-0.7061483	問 題 西
-0.7389582	府 和 西
-0.7389582	告 和 西
-0.7523816	局 就 西
-0.8341981	會 在 西
-0.818091	局 ( 西
-0.8606102	設 施 西
-1.3873589	項 目 西
-0.80412966	了 由 西
-1.0072124	過 程 西
-1.1596397	工 作 西
-0.5912184	而 言 西
-0.7774853	其 後 西
-0.7061483	長 暨 西
-0.7523816	了 解 西
-0.53576994	參 考 西
-0.8606102	反 映 西
-0.7774853	月 間 西
-0.5912184	監 察 西
-1.0072124	結 果 西
-0.5912184	限 制 西
-0.02771732	席 西 九
-0.02771732	的 西 九
-0.02771732	則 西 九
-0.02771732	題 西 九
-0.023630848	和 西 九
-0.02771732	就 西 九
-0.02771732	在 西 九
-0.02771732	( 西 九
-0.02771732	施 西 九
-0.02771732	目 西 九
-0.02771732	由 西 九
-0.02771732	程 西 九
-0.02771732	作 西 九
-0.02771732	言 西 九
-0.02771732	後 西 九
-0.02771732	暨 西 九
-0.02771732	解 西 九
-0.023630848	考 西 九
-0.02771732	映 西 九
-0.02771732	間 西 九
-0.02771732	察 西 九
-0.02771732	果 西 九
-0.02771732	制 西 九
-1.2950147	五 月 九
-0.94188124	二 十 九
-0.5609267	西 九 文
-1.0514615	一 個 文
-0.81977284	並 將 文
-0.8917148	國 際 文
-0.60766864	界 級 文
-0.8721825	術 和 文
-1.5153241	員 會 文
-1.6601548	故 宮 文
-0.8487226	現 有 文
-0.7277078	實 現 文
-0.60253036	錄 全 文
-0.60253036	議 全 文
-0.81977284	核 心 文
-0.03550142	九 文 化
-0.25837618	個 文 化
-0.25837618	際 文 化
-0.25837618	級 文 化
-0.25837618	和 文 化
-0.25837618	宮 文 化
-0.25837618	現 文 化
-0.25837618	心 文 化
-0.2766705	文 化 區
-1.653033	發 展 區
-1.1546369	綜 合 區
-0.8218923	成 特 區
-0.7420065	能 令 區
-1.6143095	化 區 是
-1.2740705	忘 錄 是
-0.7440881	區 是 香
-1.6675435	發 展 香
-0.7440881	以 令 香
-1.0867333	包 括 香
-0.19106595	是 香 港
-0.19106595	展 香 港
-0.19106595	令 香 港
-0.19106595	括 香 港
-1.2190706	香 港 很
-0.6223166	港 很 重
-0.91484684	動 的 重
-0.85174733	的 主 要
-0.7420065	很 重 要
-0.9079367	員 的 要
-0.9127352	分 析 要
-0.61847097	無 需 要
-1.2540901	化 區 的
-0.7552613	重 要 的
-0.56696105	核 准 的
-1.3205783	發 展 的
-0.7176511	圖 則 的
-1.0124043	計 劃 的
-0.7552613	用 地 的
-0.56696105	元 素 的
-0.81653476	豐 富 的
-0.56696105	旅 遊 的
-0.42015696	宮 館 的
-0.8022685	港 ) 的
-0.7854568	擁 有 的
-0.46150208	項 目 的
-0.73529625	統 籌 的
-0.8771205	籌 備 的
-0.81653476	團 隊 的
-0.81653476	責 任 的
-0.9325207	前 期 的
-1.279312	合 作 的
-0.64856476	所 作 的
-1.3555841	理 局 的
-1.0889292	物 院 的
-0.69374734	九 日 的
-1.0768738	忘 錄 的
-0.9466257	行 性 的
-0.73529625	提 出 的
-1.1268393	議 員 的
-0.962483	提 交 的
-0.7667247	意 向 的
-1.0768738	諮 詢 的
-0.9466257	活 動 的
-0.7552613	提 及 的
-0.93163306	提 供 的
-0.56696105	委 託 的
-0.18064004	撰 寫 的
-0.6748017	當 中 的
-1.0586307	中 心 的
-0.9466257	樞 紐 的
-0.56696105	檢 討 的
-0.6748017	磋 商 的
-0.89146566	要 的 一
-0.061481126	二 零 一
-0.634084	三 年 一
-0.73290944	七 年 一
-0.77868485	展 為 一
-0.6091955	景 每 一
-1.0561792	即 於 一
-0.5870638	二 十 一
-0.6183185	年 十 一
-0.6183185	月 十 一
-0.6091955	的 第 一
-0.8562423	成 立 一
-0.6091955	最 近 一
-0.6091955	我 們 一
-0.68629825	的 一 個
-0.68629825	為 一 個
-0.68629825	每 一 個
-1.73892	文 化 建
-1.0717914	以 及 建
-0.6216074	李 嚴 建
-1.55228	化 區 設
-1.4330882	館 的 設
-0.787819	化 建 設
-0.85024667	題 與 設
-1.0731685	藝 術 設
-0.8177576	區 內 設
-0.90662485	概 念 設
-0.8681575	建 設 根
-0.6232455	設 根 據
-0.61847097	根 據 二
-0.58387643	一 月 二
-0.43258768	二 月 二
-0.5080066	六 月 二
-0.43258768	四 月 二
-0.5363673	五 月 二
-0.7497576	局 在 二
-0.59103173	院 在 二
-0.59103173	果 在 二
-0.26716617	局 於 二
-0.26716617	院 於 二
-0.31724977	即 於 二
-0.26716617	亦 於 二
-1.1019686	年 十 二
-0.44031155	據 二 零
-0.15331596	在 二 零
-0.10962328	於 二 零
-1.7197019	零 一 三
-0.8250683	日 至 三
-1.3963786	二 十 三
-0.7947979	一 三 年
-0.8239745	一 六 年
-0.08482042	一 七 年
-0.62003636	在 去 年
-0.20018384	年 一 月
-0.68015665	於 一 月
-1.0751619	十 一 月
-0.8380711	十 二 月
-0.7901329	至 三 月
-0.50968313	年 六 月
-0.50968313	至 六 月
-0.61691123	年 四 月
-0.24534957	年 五 月
-0.30442125	在 五 月
-1.4721992	一 月 獲
-0.91484684	地 的 核
-0.6223166	月 獲 核
-0.7483635	獲 核 准
-1.1492213	化 區 發
-0.89688694	遊 的 發
-0.8272892	區 將 發
-1.143433	綜 合 發
-0.8102382	物 業 發
-1.4942034	宮 館 發
-0.61226535	新 聞 發
-1.064355	樞 紐 發
-0.61226535	其 他 發
-0.855659	籌 的 展
-1.2152209	寫 的 展
-0.10662059	區 發 展
-0.12734686	的 發 展
-0.12734686	將 發 展
-0.12734686	合 發 展
-0.12734686	業 發 展
-0.12734686	館 發 展
-0.12734686	紐 發 展
-0.12734686	他 發 展
-1.0459499	場 地 展
-0.76624566	地 和 展
-0.76624566	性 和 展
-0.38700795	的 進 展
-0.50665694	新 進 展
-0.50665694	作 策 展
-0.50665694	立 策 展
-0.73377824	展 暨 展
-1.0459499	以 及 展
-0.73377824	以 推 展
-1.6987205	發 展 圖
-0.6223166	展 圖 則
-0.30616277	要 原 則
-0.30616277	計 原 則
-0.91652334	則 的 規
-0.6216074	的 規 劃
-0.5318276	區 計 劃
-0.5318276	展 計 劃
-0.5318276	紹 計 劃
-0.82606673	和 策 劃
-0.85709596	劃 主 題
-0.74712485	項 問 題
-1.0586785	出 席 與
-0.7399348	主 題 與
-0.7901329	地 方 與
-0.86626583	局 ) 與
-1.4169383	理 局 與
-0.7901329	同 意 與
-1.5790671	化 區 計
-0.3762684	區 設 計
-0.3762684	的 設 計
-0.3762684	與 設 計
-0.3762684	念 設 計
-1.653033	發 展 計
-0.61847097	介 紹 計
-0.61847097	坊 測 計
-0.8439045	主 要 原
-1.3322207	設 計 原
-1.5931069	化 區 將
-0.8678471	文 並 將
-1.43493	理 局 將
-1.2685016	一 日 將
-1.6825556	發 展 為
-0.7971493	港 成 為
-0.6216074	我 認 為
-1.0962002	一 個 糅
-0.8887803	院 的 合
-0.60766864	個 糅 合
-0.30140918	術 綜 合
-0.30140918	心 綜 合
-1.0526384	物 館 合
-1.242358	物 院 合
-0.10713387	簽 訂 合
-0.42530394	擬 訂 合
-0.7764311	訂 定 合
-0.7277078	公 布 合
-1.4067283	協 議 合
-0.83975935	交 了 合
-0.14356923	的 聯 合
-0.14356923	( 聯 合
-0.14356923	交 聯 合
-0.14356923	向 聯 合
-0.14356923	況 聯 合
-0.7277078	同 場 合
-0.8912256	糅 合 地
-1.018705	全 面 地
-0.52599	演 場 地
-0.7947979	心 用 地
-0.8427239	合 地 方
-0.7461798	重 點 方
-0.6216074	映 雙 方
-0.8579601	方 與 傳
-0.74712485	邀 請 傳
-0.74712485	與 傳 統
-0.6223166	Economics Limited 統
-0.7440881	傳 統 特
-1.1611784	計 和 特
-1.6007713	員 會 特
-0.7947979	完 成 特
-0.51379067	統 特 色
-0.51379067	和 特 色
-1.146207	全 文 並
-1.2959318	進 展 並
-0.9036016	特 色 並
-0.8903134	機 會 並
-0.81267494	隨 後 並
-0.8837553	審 議 並
-0.7358208	回 應 並
-1.0687394	議 案 並
-0.87354136	色 並 且
-0.6232455	並 且 加
-0.6232455	且 加 入
-0.7982122	成 為 國
-0.6223166	加 入 國
-0.3064606	為 國 際
-0.3064606	入 國 際
-0.92034024	國 際 元
-0.74712485	更 多 元
-0.7483635	際 元 素
-0.91652334	素 的 世
-0.6232455	的 世 界
-0.6232455	世 界 級
-1.3687348	文 化 藝
-0.91484684	富 的 藝
-0.24687335	化 藝 術
-0.3064606	的 藝 術
-1.0934458	藝 術 綜
-1.2601503	中 心 綜
-0.8698891	合 區 以
-0.8320987	時 可 以
-1.3203646	議 員 以
-1.4298596	協 議 以
-0.61226535	媒 體 以
-0.73377824	營 運 以
-1.177299	報 告 以
-0.61226535	管 治 以
-0.61226535	抱 着 以
-0.8795113	區 以 帶
-0.6232455	以 帶 來
-0.6223166	帶 來 更
-0.92034024	設 施 更
-0.74712485	多 元 豐
-0.74712485	來 更 豐
-0.3064606	元 豐 富
-0.3064606	更 豐 富
-1.1272665	策 展 和
-0.8327661	設 計 和
-0.8760239	場 合 和
-1.025531	場 地 和
-1.0430735	藝 術 和
-0.8858911	研 究 和
-1.0430735	行 性 和
-0.60463095	政 府 和
-0.44815287	考 慮 和
-0.60463095	詳 盡 和
-1.385789	展 覽 和
-1.1498924	報 告 和
-0.60463095	時 序 和
-0.72370744	明 度 和
-1.749199	文 化 生
-0.6216074	化 生 活
-0.89365685	諮 詢 活
-0.6216074	教 育 活
-0.8003092	生 活 創
-0.6232455	活 創 造
-0.6216074	創 造 就
-1.2750626	工 作 就
-1.8138038	理 局 就
-0.7947979	造 就 業
-0.82256114	的 物 業
-0.62003636	永 企 業
-0.7440881	的 商 業
-0.92034024	特 色 機
-0.8262018	就 業 機
-1.1629311	日 的 會
-0.73174536	業 機 會
-1.535162	員 會 會
-0.30241087	化 都 會
-0.30241087	實 都 會
-1.2310904	一 日 會
-0.73174536	發 布 會
-0.10316816	立 法 會
-0.18762442	委 員 會
-0.6107277	特 別 會
-0.6107277	招 待 會
-0.87354136	會 並 促
-1.3267202	目 的 進
-0.8682425	隊 的 進
-0.62003636	並 促 進
-0.7440881	最 新 進
-0.82256114	期 間 進
-0.828251	促 進 旅
-0.6232455	進 旅 遊
-1.6825556	發 展 同
-0.8706307	應 並 同
-0.6216074	在 不 同
-0.91356885	中 的 時
-0.8959262	合 和 時
-0.7971493	展 同 時
-0.9079367	心 的 可
-0.8200685	商 業 可
-0.79245913	同 時 可
-1.5243361	項 目 可
-0.7420065	由 此 可
-0.8780862	可 以 令
-0.6223166	) 能 令
-1.2126471	香 港 成
-1.0717914	局 將 成
-0.6216074	作 完 成
-1.7433449	文 化 都
-0.74712485	落 實 都
-1.1636614	計 劃 在
-1.160059	都 會 在
-0.9544177	事 局 在
-1.1191401	理 局 在
-1.2765294	物 院 在
-0.81512547	並 已 在
-1.0731685	結 果 在
-0.6153571	一 次 在
-1.1716776	香 港 故
-0.3246763	席 與 故
-0.3246763	) 與 故
-0.26040286	局 與 故
-0.3246763	意 與 故
-0.7809505	作 就 故
-0.85151035	館 ( 故
-1.1203332	負 責 故
-0.6107277	解 釋 故
-0.8449925	報 了 故
-0.6107277	涵 蓋 故
-0.7809505	有 關 故
-0.8976176	交 代 故
-0.06670075	港 故 宮
-0.017672531	與 故 宮
-0.06670075	就 故 宮
-0.06670075	( 故 宮
-0.06670075	責 故 宮
-0.06670075	釋 故 宮
-0.06670075	了 故 宮
-0.06670075	蓋 故 宮
-0.06670075	關 故 宮
-0.06670075	代 故 宮
-1.73892	文 化 博
-0.55247784	故 宮 博
-1.8543162	管 理 博
-0.8927754	有 文 物
-1.3613348	寫 的 物
-0.27902332	化 博 物
-0.061861712	宮 博 物
-0.27902332	理 博 物
-0.30590856	故 宮 館
-1.0767792	博 物 館
-1.5559496	員 會 (
-1.0699643	物 館 (
-0.9036016	研 究 (
-1.7158512	理 局 (
-0.8298239	析 及 (
-1.0687394	結 果 (
-1.0687394	包 括 (
-0.7358208	境 外 (
-1.1829941	香 港 )
-1.5559496	員 會 )
-1.5017713	宮 館 )
-1.7158512	理 局 )
-0.61380845	( a )
-0.61380845	( b )
-0.61380845	( c )
-0.61380845	( d )
-0.87453496	館 ) 能
-0.8840563	令 區 內
-0.9107436	向 的 內
-1.504046	法 會 內
-0.7440881	詳 情 內
-0.64654166	術 設 施
-0.64654166	內 設 施
-0.74712485	施 更 多
-1.0934458	議 案 多
-0.9036016	豐 富 有
-1.1558012	都 會 有
-0.7358208	了 現 有
-0.9036016	團 隊 有
-0.84164464	師 行 有
-0.5632274	事 務 有
-0.5632274	服 務 有
-0.61380845	資 擁 有
-0.61380845	大 量 有
-0.87385404	富 有 助
-0.6223166	有 助 實
-0.6223166	至 落 實
-0.74712485	助 實 現
-0.86506116	越 了 現
-0.91652334	區 的 願
-0.6232455	的 願 景
-0.6232455	願 景 每
-1.0600145	一 個 項
-0.8842103	推 展 項
-1.1322005	慮 和 項
-1.1025891	宮 館 項
-0.7809505	確 定 項
-0.6107277	醞 釀 項
-0.24384573	的 各 項
-0.30241087	程 各 項
-0.6107277	眾 對 項
-0.8976176	交 代 項
-0.6107277	為 這 項
-0.23087566	個 項 目
-0.23087566	展 項 目
-0.23087566	和 項 目
-0.18922375	館 項 目
-0.23087566	定 項 目
-0.23087566	釀 項 目
-0.23087566	對 項 目
-0.23087566	代 項 目
-1.3217697	進 展 由
-0.41704872	a ) 由
-0.41704872	b ) 由
-0.41704872	c ) 由
-0.41704872	d ) 由
-1.5333762	項 目 由
-0.86108136	納 了 由
-0.74712485	色 機 構
-0.85612035	目 由 構
-0.7483635	由 構 思
-1.2895657	五 月 至
-0.69116664	員 以 至
-0.69116664	體 以 至
-0.62003636	構 思 至
-1.2685016	一 日 至
-0.8276882	思 至 落
-1.4723079	館 的 籌
-0.7461798	Limited 統 籌
-0.8711848	會 有 籌
-0.43271405	的 籌 備
-0.43271405	有 籌 備
-0.49608007	合 作 備
-0.91356885	備 的 過
-0.8959262	序 和 過
-0.9971593	籌 備 過
-0.27948624	的 過 程
-0.27948624	和 過 程
-0.27948624	備 過 程
-0.8561082	程 主 事
-0.45821473	局 董 事
-0.7461798	築 師 事
-1.1789153	策 展 團
-0.7982122	主 事 團
-0.3064606	展 團 隊
-0.3064606	事 團 隊
-0.8723396	隊 有 責
-0.27922386	將 負 責
-0.27922386	和 負 責
-0.27922386	司 負 責
-0.51379067	有 責 任
-0.642367	負 責 任
-0.9221872	責 任 做
-0.6232455	任 做 好
-1.462166	目 的 前
-0.62003636	做 好 前
-1.0381551	錄 後 前
-0.62003636	內 容 前
-0.51240253	的 前 期
-0.51240253	好 前 期
-0.8781409	八 日 期
-0.7947979	後 定 期
-0.62003636	八 星 期
-0.91484684	期 的 研
-0.74712485	初 步 研
-0.3064606	的 研 究
-0.3064606	步 研 究
-0.8932229	究 和 策
-0.8781409	運 作 策
-0.87034094	建 立 策
-0.7440881	和 決 策
-0.8427239	策 劃 工
-1.0717914	前 期 工
-0.6216074	保 養 工
-0.25728267	的 合 作
-0.25728267	館 合 作
-0.25728267	院 合 作
-0.058090974	訂 合 作
-0.25728267	定 合 作
-0.25728267	布 合 作
-0.25728267	議 合 作
-0.25728267	了 合 作
-0.27813333	劃 工 作
-0.27813333	期 工 作
-0.27813333	養 工 作
-0.7420065	常 運 作
-0.79245913	區 用 作
-0.61847097	途 所 作
-1.552412	項 目 而
-0.6232455	目 而 言
-0.19778073	西 九 管
-1.5931069	化 區 管
-0.7440881	機 構 管
-1.1458466	負 責 管
-0.021119477	九 管 理
-0.3728423	區 管 理
-0.3728423	責 管 理
-0.5532044	董 事 局
-0.05057068	管 理 局
-0.25841567	博 物 院
-1.792366	理 局 於
-1.2984022	物 院 於
-0.43156862	席 即 於
-0.43156862	隨 即 於
-0.62003636	長 亦 於
-1.7127284	零 一 六
-1.4299859	七 年 六
-1.4566343	一 月 六
-0.82256114	月 至 六
-0.11917548	月 二 十
-0.6446853	六 年 十
-0.6446853	去 年 十
-0.96450984	一 月 十
-0.50867206	月 九 日
-0.38831723	十 九 日
-1.4330882	館 的 日
-0.34774834	十 一 日
-0.787819	十 三 日
-0.8177576	月 六 日
-1.0940647	月 十 日
-0.7378729	月 八 日
-0.9107436	錄 的 簽
-0.6914845	劃 在 簽
-0.90317804	局 在 簽
-0.96024674	九 日 簽
-0.70879614	三 日 簽
-0.62003636	局 自 簽
-0.51660925	在 簽 訂
-0.34238568	日 簽 訂
-0.43980747	自 簽 訂
-1.4801826	協 議 訂
-0.6216074	院 擬 訂
-0.11670878	作 備 忘
-0.104243495	備 忘 錄
-0.7483635	錄 是 確
-0.79839814	議 訂 定
-0.6216074	是 確 定
-1.0422815	錄 後 定
-0.8218923	間 進 行
-0.4378807	的 可 行
-0.4378807	業 可 行
-0.4378807	目 可 行
-0.3049253	並 舉 行
-0.3049253	日 舉 行
-0.7420065	劃 推 行
-0.7420065	計 師 行
-0.2233181	可 行 性
-0.91652334	性 的 第
-0.8939547	第 一 步
-0.6223166	的 初 步
-0.7461798	一 步 當
-0.9189328	儀 式 當
-1.0913508	包 括 當
-0.79960567	步 當 醞
-0.6232455	當 醞 釀
-1.281985	工 作 完
-0.88825345	特 區 政
-0.5135835	後 前 政
-0.5135835	容 前 政
-0.7483635	區 政 府
-0.9934383	原 則 已
-0.8678471	展 並 已
-1.792366	理 局 已
-0.62003636	當 天 已
-0.8276882	局 已 經
-1.0501515	出 席 立
-0.7855174	及 建 立
-0.7855174	將 成 立
-0.61380845	已 經 立
-1.0736197	呈 交 立
-0.5632274	間 向 立
-0.5632274	度 向 立
-0.61380845	的 獨 立
-0.7358208	局 應 立
-1.1861668	主 席 即
-0.8723929	經 立 即
-0.7461798	局 隨 即
-0.8003092	立 即 邀
-0.6223166	即 邀 請
-0.6223166	我 懇 請
-0.74712485	請 傳 媒
-0.6223166	解 答 媒
-0.88079953	六 日 出
-0.7461798	傳 媒 出
-0.8563328	眾 提 出
-0.57090086	的 簽 署
-0.6783623	在 簽 署
-0.45917714	簽 署 儀
-0.45917714	署 儀 式
-1.8238122	理 局 隨
-0.92034024	儀 式 隨
-0.89365685	忘 錄 後
-0.7461798	式 隨 後
-0.7461798	等 其 後
-0.87188977	後 並 舉
-0.8820018	十 日 舉
-1.0947425	舉 行 新
-0.74712485	的 最 新
-0.7483635	行 新 聞
-0.88098866	聞 發 布
-0.8744447	已 公 布
-0.7437426	布 會 詳
-1.0997585	員 會 詳
-0.7437426	待 會 詳
-1.5426085	項 目 詳
-1.5821651	會 議 詳
-0.4769944	會 詳 細
-0.51379067	議 詳 細
-1.0962002	詳 細 介
-0.6232455	細 介 紹
-0.5106965	會 內 務
-0.5106965	情 內 務
-0.79245913	師 事 務
-0.5249097	前 政 務
-0.61847097	業 財 務
-0.61847097	務 服 務
-0.57470703	政 務 司
-0.56608254	務 司 司
-0.1989669	限 公 司
-0.6723438	屬 公 司
-0.56731665	司 司 長
-1.6894875	發 展 暨
-0.92034024	司 長 暨
-1.454072	理 局 董
-0.22214606	零 一 七
-0.418521	席 立 法
-0.418521	交 立 法
-0.32770455	向 立 法
-0.418521	應 立 法
-1.792366	理 局 委
-0.5736606	內 務 委
-0.103970505	小 組 委
-0.5117122	會 供 委
-0.5117122	) 供 委
-0.29519084	務 委 員
-0.07638395	組 委 員
-0.29519084	供 委 員
-0.74847865	會 議 員
-0.58626616	請 議 員
-0.58626616	排 議 員
-0.58626616	便 議 員
-0.828251	會 特 別
-0.5642792	的 會 議
-0.5642792	會 會 議
-0.5642792	日 會 議
-0.6129623	法 會 議
-0.5642792	別 會 議
-0.8819689	這 項 議
-0.73377824	懇 請 議
-0.8102382	閱 覽 議
-0.61226535	上 審 議
-0.10330179	作 協 議
-0.90059924	安 排 議
-0.61226535	以 便 議
-0.73377824	否 決 議
-0.8427239	面 地 解
-1.0913508	詳 細 解
-0.86382174	員 了 解
-0.79960567	細 解 釋
-0.8719615	出 的 各
-0.8719615	及 的 各
-1.0934458	過 程 各
-1.1996732	作 的 考
-1.2994218	各 項 考
-0.45821473	員 參 考
-0.43317974	的 考 慮
-0.43317974	項 考 慮
-0.85612035	推 行 情
-0.82701206	目 詳 情
-0.8943913	會 文 件
-1.4865911	法 會 提
-1.4542927	協 議 提
-0.61691123	文 件 提
-1.3478749	公 眾 提
-0.7399348	顧 問 提
-1.0776432	議 案 提
-1.0867333	詳 細 交
-0.6106469	件 提 交
-0.6106469	問 提 交
-1.3603438	公 眾 交
-0.30542988	點 呈 交
-0.30542988	本 呈 交
-1.3363875	議 員 了
-1.0775957	提 交 了
-1.0302913	提 供 了
-0.6153571	接 納 了
-0.839366	匯 報 了
-1.1887649	報 告 了
-0.6153571	超 越 了
-1.1518087	全 文 全
-0.8878665	盡 和 全
-1.2516645	忘 錄 全
-0.8175899	則 已 全
-1.4542927	協 議 全
-0.8175899	一 間 全
-0.4920948	文 全 面
-0.4920948	和 全 面
-0.4920948	已 全 面
-0.6619172	全 面 反
-0.45917714	面 反 映
-1.3341215	目 的 意
-0.8708035	詢 的 意
-0.7971493	並 同 意
-1.8140166	合 作 意
-0.79245913	點 方 向
-0.8375178	定 期 向
-0.79245913	作 意 向
-0.8200685	時 間 向
-0.7420065	態 度 向
-0.828251	的 內 容
-0.9221872	司 長 亦
-1.0975051	舉 行 記
-0.6232455	行 記 者
-0.6232455	記 者 招
-0.6232455	者 招 待
-1.1735098	會 詳 盡
-0.79960567	地 解 答
-0.7483635	答 媒 體
-0.89962316	交 的 公
-0.8298239	日 將 公
-0.56019115	以 至 公
-0.8298239	星 期 公
-0.81267494	天 已 公
-0.61380845	收 集 公
-0.20833598	有 限 公
-0.61380845	附 屬 公
-0.30845225	的 公 眾
-0.30845225	將 公 眾
-0.24835974	至 公 眾
-0.30845225	期 公 眾
-0.30845225	集 公 眾
-1.3010752	各 項 問
-0.6223166	詢 顧 問
-0.8897081	三 月 八
-0.85612035	進 行 八
-0.8903868	立 一 間
-1.1489676	六 月 間
-0.7947979	和 時 間
-0.84011304	日 期 間
-0.7483635	行 八 星
-0.8723929	獨 立 諮
-0.86382174	告 了 諮
-0.4983406	公 眾 諮
-0.27948624	立 諮 詢
-0.27948624	了 諮 詢
-0.10875903	眾 諮 詢
-0.33783853	詢 活 動
-0.43317974	育 活 動
-1.0962002	活 動 收
-0.6232455	動 收 集
-1.3734345	公 眾 對
-0.845043	此 可 見
-0.5532044	的 意 見
-1.0010589	意 見 涵
-0.6232455	見 涵 蓋
-1.1714824	計 和 營
-0.6223166	和 營 運
-0.6223166	日 常 運
-0.69116664	運 以 及
-0.69116664	治 以 及
-0.8542403	案 提 及
-0.9158229	分 析 及
-0.62003636	Waters EconomicsLimited 及
-0.4278636	的 展 覽
-0.57118475	地 展 覽
-0.4278636	和 展 覽
-0.57118475	暨 展 覽
-0.57118475	及 展 覽
-0.6223166	員 閱 覽
-0.89875233	覽 和 教
-0.6232455	和 教 育
-0.74712485	的 重 點
-0.8439045	析 要 點
-0.8459218	方 向 等
-0.8820018	用 作 其
-0.6223166	向 等 其
-1.4453415	七 年 四
-1.0934458	行 性 分
-0.99884504	意 見 分
-0.3064606	性 分 析
-0.3064606	見 分 析
-0.74712485	要 點 呈
-0.6223166	文 本 呈
-1.5225928	法 會 監
-0.6232455	會 監 察
-1.1887746	計 劃 推
-0.8780862	議 以 推
-0.7483635	行 情 況
-1.1888545	日 的 聯
-0.8650813	會 ( 聯
-1.0856587	呈 交 聯
-0.8390362	期 向 聯
-0.61847097	情 況 聯
-0.12168713	聯 合 小
-0.104243495	合 小 組
-1.6127387	員 會 供
-0.8723929	會 ) 供
-0.6118399	會 提 供
-0.6118399	議 提 供
-1.2176718	委 員 參
-1.0085561	七 年 五
-1.2690506	局 在 五
-0.5226679	會 議 上
-1.0962002	議 上 審
-0.87354136	議 並 接
-0.6232455	並 接 納
-0.8286373	局 委 託
-0.91652334	託 的 獨
-1.2780112	諮 詢 顧
-1.2921518	各 項 報
-1.0821645	活 動 報
-1.0821645	議 上 報
-0.9127352	概 念 報
-0.61847097	上 匯 報
-0.26838106	項 報 告
-0.26838106	動 報 告
-0.26838106	上 報 告
-0.26838106	念 報 告
-1.3419462	目 的 相
-0.8734801	局 的 相
-0.8723396	量 有 關
-0.45863155	的 相 關
-1.0010589	相 關 回
-1.8238122	理 局 應
-0.6223166	關 回 應
-1.3139219	物 院 擬
-0.49633908	合 作 協
-0.8719615	討 的 結
-0.8719615	商 的 結
-1.2740705	諮 詢 結
-0.24687335	的 結 果
-0.3064606	詢 結 果
-0.84545285	的 要 求
-0.91356885	供 的 安
-1.3029447	) 由 安
-0.6216074	要 求 安
-0.43317974	的 安 排
-0.43317974	求 安 排
-1.3795893	議 員 閱
-0.6988752	項 議 案
-0.6988752	覽 議 案
-0.6988752	決 議 案
-0.8706307	外 ( 包
-0.82606673	決 策 包
-1.2126471	報 告 包
-0.27948624	( 包 括
-0.27948624	策 包 括
-0.27948624	告 包 括
-0.87354136	括 ( a
-0.8487417	) 由 Waters
-0.9221872	由 Waters EconomicsLimited
-0.84545285	EconomicsLimited 及 萊
-0.6232455	及 萊 坊
-0.6232455	萊 坊 測
-0.8659147	測 計 師
-0.6223166	建 築 師
-0.91484684	) 的 限
-0.6714376	行 有 限
-0.48681676	務 有 限
-0.33753085	公 司 撰
-0.19088416	司 撰 寫
-0.7982122	括 當 中
-0.3836162	展 覽 中
-0.74712485	的 核 心
-0.14717318	覽 中 心
-0.91652334	劃 的 初
-0.87354136	究 ( b
-0.9221872	由 Waters Economics
-0.6232455	Waters Economics Limited
-1.0540919	展 覽 樞
-1.2601503	中 心 樞
-0.24687335	覽 樞 紐
-0.3064606	心 樞 紐
-1.0962002	樞 紐 檢
-0.6232455	紐 檢 討
-0.87354136	果 ( c
-0.8003092	由 安 永
-0.6232455	安 永 企
-0.8276882	企 業 財
-0.8459218	財 務 服
-0.91484684	紐 的 商
-0.6223166	方 磋 商
-0.87354136	及 ( d
-1.3102932	) 由 許
-0.6232455	由 許 李
-0.6232455	許 李 嚴
-0.79960567	嚴 建 築
-1.6076157	化 區 大
-1.3613348	寫 的 大
-0.86382174	供 了 大
-0.43317974	區 大 型
-0.43317974	的 大 型
-0.45917714	大 型 表
-0.45917714	型 表 演
-0.7982122	不 同 場
-0.45863155	表 演 場
-0.8869461	展 區 用
-1.6825556	發 展 用
-1.2570784	中 心 用
-1.4769526	館 的 概
-1.3322207	設 計 概
-0.3064606	的 概 念
-0.3064606	計 概 念
-0.8795113	告 以 便
-0.7483635	作 其 他
-0.79960567	展 用 途
-0.6232455	用 途 所
-1.1684824	慮 和 決
-0.6223166	員 否 決
-0.79960567	的 時 序
-0.9221872	反 映 雙
-0.79960567	雙 方 磋
-1.0717914	局 將 負
-0.8959262	度 和 負
-1.313815	公 司 負
-0.8835788	的 日 常
-0.89875233	展 和 維
-0.6232455	和 維 修
-0.6232455	維 修 保
-0.6232455	修 保 養
-0.8576758	間 全 資
-0.99884504	相 關 資
-0.7483635	全 資 擁
-0.91652334	有 的 附
-0.6232455	的 附 屬
-0.9221872	安 排 超
-0.6232455	排 超 越
-0.8262018	文 物 外
-0.6223166	到 境 外
-0.7483635	物 外 借
-0.6232455	外 借 到
-0.6232455	借 到 境
-0.7483635	的 限 制
-0.79960567	式 當 天
-0.8943913	將 文 本
-1.8372551	理 局 自
-0.61285394	細 交 代
-0.61285394	眾 交 代
-0.91484684	展 的 最
-1.3315306	進 展 最
-0.7483635	展 最 近
-0.89541125	近 一 次
-0.8797044	次 在 去
-1.0962002	議 上 匯
-0.8286373	構 管 治
-0.85612035	展 由 此
-0.6223166	料 因 此
-0.8427239	需 要 我
-0.7971493	可 見 我
-0.7461798	因 此 我
-0.79960567	見 我 們
-0.89541125	們 一 直
-0.6232455	一 直 抱
-0.6232455	直 抱 着
-0.8795113	着 以 高
-0.6232455	以 高 透
-0.6232455	高 透 明
-0.6223166	透 明 度
-0.6223166	的 態 度
-0.91652334	任 的 態
-0.8797044	已 在 不
-0.8003092	了 大 量
-0.7483635	關 資 料
-0.6232455	資 料 因
-0.79960567	此 我 認
-0.79960567	認 為 這
-0.87354136	案 並 無
-0.6232455	並 無 需
-0.79960567	要 我 懇
-1.3795893	議 員 否
-0.7483635	案 多 謝

\end\
