\data\
ngram 1=442
ngram 2=1275
ngram 3=1641

\1-grams:
-3.0752137	<unk>	0
0	<s>	-0.06823623
-2.9188354	</s>	0
-2.305531	大	-0.25146186
-2.9188354	家	-0.06823623
-2.3804755	都	-0.10485764
-2.830396	記	-0.06823623
-2.5857782	得	-0.14485385
-2.4711065	該	-0.06823623
-2.2416363	項	-0.20908427
-2.830396	協	-0.29323223
-2.0922823	議	-0.1922944
-2.1365945	公	-0.22935098
-2.830396	布	-0.06823626
-2.7420356	後	-0.06823626
-1.6854014	我	-0.38428032
-2.7420356	想	-0.06823626
-1.981356	很	-0.18099713
-2.305531	多	-0.09853558
-2.7420356	香	-0.1652736
-2.9188354	港	-0.06823626
-2.3804755	人	-0.06823623
-2.2416363	其	-0.22386536
-2.7420356	實	-0.13110839
-2.9188354	未	-0.06823623
-2.830396	必	-0.06823623
-2.9188354	真	-0.06823623
-1.5829451	的	-0.119286425
-1.8428391	會	-0.23710038
-2.9188354	反	-0.06823623
-2.4711065	對	-0.14485385
-2.0152779	在	-0.21940564
-2.0520756	西	-0.7673336
-2.9188354	九	-0.06823623
-2.830396	興	-0.29323223
-2.4711065	建	-0.20300427
-2.7420356	故	-0.1652736
-2.9188354	宮	-0.06823623
-2.830396	館	-0.06823626
-2.4711065	讓	-0.12382303
-2.4711065	成	-0.23794653
-2.305531	為	-0.13772981
-2.5857782	重	-0.13890721
-2.0922823	要	-0.1802204
-2.7420356	部	-0.1652736
-2.9188354	分	-0.06823626
-2.5857782	但	-0.06823623
-1.9498928	是	-0.14485385
-1.6854014	這	-0.29033685
-2.0152779	一	-0.14220081
-2.830396	目	-0.06823623
-2.4711065	討	-0.12382303
-2.9188354	論	-0.06823626
-2.5857782	已	-0.06823623
-2.830396	久	-0.06823623
-2.830396	早	-0.06823623
-2.5857782	期	-0.06823623
-2.1859474	也	-0.13421111
-1.7379816	不	-0.16581213
-2.9188354	算	-0.06823623
-2.9188354	最	-0.06823623
-2.5857782	曾	-0.1663238
-2.0922823	文	-0.55445814
-2.830396	化	-0.06823626
-2.830396	區	-0.06823623
-2.9188354	管	-0.06823623
-2.5857782	理	-0.06823626
-2.5857782	局	-0.06823623
-2.5857782	諮	-0.29021236
-2.9188354	詢	-0.06823623
-2.9188354	策	-0.06823623
-2.9188354	劃	-0.06823623
-2.830396	些	-0.06823623
-2.9188354	眾	-0.06823623
-2.9188354	參	-0.06823623
-2.3804755	與	-0.10720205
-2.9188354	活	-0.06823623
-2.5857782	動	-0.06823623
-2.7420356	而	-0.06823626
-2.4711065	市	-0.38712236
-2.830396	民	-0.06823623
-2.830396	直	-0.06823623
-1.7570249	有	-0.1588073
-2.7420356	望	-0.06823623
-2.3804755	當	-0.18451506
-2.7420356	然	-0.06823623
-2.7420356	另	-0.1652736
-2.7420356	個	-0.11451672
-2.3804755	問	-0.1990458
-2.9188354	題	-0.06823626
-2.830396	們	-0.090760276
-2.4711065	希	-0.38712236
-2.830396	盡	-0.29323223
-2.830396	快	-0.06823626
-2.9188354	落	-0.06823623
-2.830396	何	-0.06823623
-2.9188354	拖	-0.06823623
-2.305531	了	-0.06823623
-2.830396	麼	-0.06823626
-2.7420356	雖	-0.1652736
-2.9188354	敲	-0.06823623
-2.830396	定	-0.06823623
-2.830396	設	-0.06823623
-2.9188354	計	-0.06823623
-2.9188354	規	-0.06823623
-2.9188354	模	-0.06823623
-2.3804755	好	-0.06823626
-2.830396	像	-0.06823623
-2.9188354	縮	-0.06823623
-2.7420356	小	-0.06823626
-2.830396	同	-0.06823626
-2.1365945	可	-0.17560379
-2.830396	能	-0.06823623
-2.9188354	盼	-0.06823623
-2.4711065	認	-0.38712236
-2.830396	始	-0.06823623
-2.9188354	終	-0.06823623
-2.830396	藝	-0.29323223
-2.9188354	術	-0.06823626
-2.7420356	應	-0.06823626
-2.9188354	具	-0.06823623
-2.830396	備	-0.06823623
-2.9188354	良	-0.06823623
-2.3804755	表	-0.20300427
-2.9188354	演	-0.06823626
-2.7420356	場	-0.1652736
-2.4711065	地	-0.06823623
-2.305531	以	-0.06823623
-2.830396	至	-0.06823623
-2.830396	博	-0.29323223
-2.830396	物	-0.06823626
-2.4711065	等	-0.06823623
-2.9188354	施	-0.06823623
-2.9188354	亦	-0.06823623
-2.7420356	保	-0.06823626
-2.9188354	留	-0.06823623
-2.9188354	土	-0.06823623
-2.3804755	作	-0.06823623
-2.9188354	綠	-0.06823623
-2.9188354	空	-0.06823623
-2.830396	間	-0.06823623
-2.9188354	休	-0.06823623
-2.9188354	憩	-0.06823623
-2.5857782	方	-0.1663238
-1.8197443	政	-0.6473363
-2.9188354	府	-0.068236195
-2.830396	卻	-0.06823623
-2.830396	突	-0.29323223
-2.830396	宣	-0.29323223
-2.9188354	涉	-0.06823623
-2.4711065	及	-0.06823626
-2.3804755	用	-0.06823623
-2.9188354	帑	-0.06823623
-2.7420356	否	-0.06823623
-2.5857782	由	-0.13890721
-2.2416363	於	-0.14399336
-2.830396	北	-0.29323223
-2.9188354	京	-0.06823623
-2.7420356	下	-0.06823626
-2.7420356	來	-0.06823626
-2.0520756	所	-0.20300427
-2.830396	特	-0.06823623
-2.9188354	別	-0.06823623
-2.7420356	處	-0.1652736
-2.830396	樣	-0.06823623
-2.9188354	撇	-0.06823623
-2.5857782	開	-0.06823623
-2.830396	粵	-0.06823623
-2.9188354	劇	-0.06823623
-2.830396	曲	-0.06823623
-2.7420356	談	-0.06823626
-2.305531	因	-0.26995105
-2.9188354	將	-0.06823623
-2.9188354	戲	-0.06823623
-2.830396	中	-0.06823623
-2.830396	心	-0.06823623
-2.4711065	如	-0.38712236
-2.9188354	果	-0.06823626
-2.1365945	提	-0.2684776
-2.9188354	種	-0.06823623
-2.9188354	新	-0.06823623
-2.4711065	主	-0.12382303
-2.7420356	意	-0.06823626
-2.9188354	決	-0.06823623
-2.4711065	行	-0.13110839
-2.830396	之	-0.06823623
-2.830396	前	-0.06823623
-2.4711065	沒	-0.38712236
-2.830396	過	-0.06823626
-2.9188354	式	-0.06823623
-2.830396	均	-0.06823623
-2.5857782	面	-0.13110839
-2.9188354	懷	-0.06823623
-2.9188354	疑	-0.06823623
-2.305531	此	-0.10213579
-2.830396	支	-0.29323223
-2.9188354	持	-0.06823623
-2.5857782	陳	-0.29323223
-2.9188354	淑	-0.06823623
-2.9188354	莊	-0.06823623
-2.7420356	員	-0.068236195
-2.9188354	根	-0.06823623
-2.830396	據	-0.06823623
-2.830396	基	-0.29323223
-2.830396	本	-0.06823623
-2.5857782	法	-0.06823623
-2.7420356	第	-0.06823623
-2.5857782	七	-0.06823623
-2.4711065	十	-0.109124064
-2.7420356	三	-0.06823623
-2.9188354	條	-0.06823623
-2.830396	案	-0.06823623
-2.9188354	藉	-0.06823623
-2.9188354	索	-0.06823623
-2.830396	取	-0.06823623
-2.9188354	件	-0.068236195
-2.830396	首	-0.06823623
-2.830396	先	-0.06823623
-2.9188354	鑒	-0.06823623
-2.4711065	時	-0.06823626
-2.2416363	任	-0.10213579
-2.7420356	務	-0.06823623
-2.7420356	司	-0.06823623
-2.830396	長	-0.06823623
-2.830396	(	-0.06823623
-2.5857782	即	-0.1663238
-2.9188354	現	-0.06823623
-2.9188354	林	-0.06823623
-2.9188354	鄭	-0.06823623
-2.305531	月	-0.15239918
-2.9188354	娥	-0.06823623
-2.9188354	女	-0.06823623
-2.830396	士	-0.06823623
-2.830396	)	-0.06823623
-2.4711065	二	-0.14485385
-2.9188354	零	-0.06823623
-2.7420356	六	-0.06823626
-2.3804755	年	-0.14485385
-2.5857782	日	-0.06823623
-2.9188354	舉	-0.06823623
-2.9188354	者	-0.06823623
-2.9188354	招	-0.06823623
-2.9188354	待	-0.06823623
-2.9188354	院	-0.06823626
-2.7420356	合	-0.13890721
-2.9188354	求	-0.06823623
-2.4711065	和	-0.06823623
-2.305531	事	-0.14485385
-2.830396	常	-0.06823623
-2.830396	秘	-0.06823623
-2.830396	書	-0.06823623
-2.305531	就	-0.06823623
-2.830396	見	-0.06823623
-2.7420356	商	-0.20464867
-2.7420356	關	-0.15426522
-2.9188354	宜	-0.06823623
-2.3804755	向	-0.31499845
-2.830396	交	-0.06823626
-2.5857782	相	-0.13890721
-2.830396	包	-0.29323223
-2.9188354	括	-0.06823626
-2.830396	信	-0.06823626
-2.305531	資	-0.38194525
-2.9188354	料	-0.068236195
-2.9188354	供	-0.06823623
-2.9188354	坦	-0.06823623
-2.9188354	白	-0.06823623
-2.3804755	說	-0.06823626
-2.9188354	給	-0.06823623
-2.9188354	答	-0.06823623
-2.9188354	覆	-0.06823623
-2.4711065	它	-0.06823623
-2.7420356	存	-0.20464867
-2.830396	紀	-0.29323223
-2.9188354	錄	-0.06823623
-2.9188354	老	-0.06823623
-2.9188354	贅	-0.06823623
-2.7420356	述	-0.06823623
-2.4711065	知	-0.29121667
-2.9188354	道	-0.06823623
-2.9188354	檔	-0.06823626
-2.7420356	使	-0.06823623
-2.5857782	告	-0.11405034
-2.9188354	訴	-0.06823623
-2.7420356	做	-0.06823626
-2.9188354	謊	-0.06823623
-2.9188354	總	-0.06823623
-2.9188354	拿	-0.06823623
-2.5857782	到	-0.12154992
-2.830396	非	-0.29323223
-2.7420356	接	-0.06823626
-2.3804755	聘	-0.31499845
-2.9188354	許	-0.06823623
-2.9188354	李	-0.06823623
-2.9188354	嚴	-0.06823623
-2.9188354	築	-0.06823623
-2.9188354	師	-0.06823623
-2.2416363	四	-0.15239918
-2.9188354	百	-0.06823623
-2.5857782	五	-0.1663238
-2.9188354	萬	-0.06823623
-2.9188354	元	-0.06823626
-2.2416363	顧	-0.5912424
-2.830396	費	-0.06823623
-2.9188354	P	-0.06823623
-2.9188354	發	-0.06823623
-2.830396	展	-0.06823623
-2.9188354	服	-0.06823623
-2.9188354	代	-0.06823623
-2.7420356	上	-0.20464867
-2.9188354	約	-0.06823623
-2.9188354	爭	-0.06823623
-2.830396	點	-0.06823623
-2.7420356	原	-0.20464867
-2.5857782	只	-0.06823623
-2.830396	密	-0.06823623
-2.7420356	甚	-0.06823626
-2.830396	花	-0.06823623
-2.830396	工	-0.29323223
-2.9188354	數	-0.06823623
-2.9188354	俗	-0.06823623
-2.9188354	斬	-0.06823623
-2.9188354	奏	-0.06823623
-2.830396	解	-0.06823623
-2.7420356	業	-0.1663238
-2.9188354	界	-0.06823623
-2.4711065	他	-0.20300427
-2.830396	委	-0.06823623
-2.7420356	進	-0.20464867
-2.7420356	出	-0.06823626
-2.9188354	較	-0.06823623
-2.9188354	低	-0.06823623
-2.9188354	價	-0.06823623
-2.9188354	錢	-0.06823623
-2.9188354	承	-0.06823623
-2.830396	並	-0.06823623
-2.9188354	更	-0.06823623
-2.9188354	注	-0.06823623
-2.9188354	Waters	-0.06823623
-2.9188354	EconomicsLimited	-0.06823623
-2.7420356	簽	-0.1652736
-2.9188354	訂	-0.06823623
-2.9188354	檢	-0.06823623
-2.9188354	途	-0.06823623
-2.9188354	報	-0.06823623
-2.4711065	內	-0.38712236
-2.9188354	容	-0.06823623
-2.9188354	全	-0.06823623
-2.9188354	稍	-0.06823623
-2.830396	再	-0.06823623
-2.9188354	Ernst	-0.06823623
-2.9188354	YoungTransactions	-0.06823623
-2.9188354	Limited	-0.06823623
-2.9188354	覽	-0.06823623
-2.9188354	性	-0.06823623
-2.9188354	研	-0.06823623
-2.9188354	究	-0.06823623
-2.9188354	外	-0.06823623
-2.7420356	立	-0.20464867
-2.830396	核	-0.29323223
-2.9188354	組	-0.06823626
-2.9188354	少	-0.06823623
-2.5857782	次	-0.1663238
-2.830396	每	-0.06823623
-2.9188354	初	-0.06823623
-2.4711065	董	-0.38712236
-2.830396	位	-0.06823623
-2.9188354	深	-0.06823623
-2.9188354	奇	-0.06823623
-2.9188354	怪	-0.06823623
-2.9188354	辦	-0.06823623
-2.9188354	近	-0.06823623
-2.830396	越	-0.06823623
-2.9188354	獲	-0.06823623
-2.9188354	入	-0.06823623
-2.9188354	批	-0.06823623
-2.9188354	評	-0.06823623
-2.9188354	擔	-0.06823623
-2.9188354	職	-0.06823623
-2.9188354	覺	-0.06823623
-2.9188354	則	-0.06823623
-2.830396	須	-0.06823623
-2.9188354	緊	-0.06823623
-2.9188354	申	-0.06823623
-2.9188354	被	-0.06823623
-2.9188354	刪	-0.06823623
-2.9188354	去	-0.06823623
-2.830396	或	-0.06823623
-2.830396	塗	-0.29323223
-2.9188354	黑	-0.06823623
-2.9188354	受	-0.06823623
-2.9188354	屬	-0.06823623
-2.9188354	敏	-0.06823623
-2.9188354	感	-0.06823623
-2.830396	看	-0.06823623
-2.9188354	負	-0.06823623
-2.9188354	責	-0.06823623
-2.830396	監	-0.29323223
-2.9188354	察	-0.06823623
-2.9188354	悉	-0.06823623
-2.9188354	衡	-0.06823623
-2.9188354	量	-0.06823623
-2.9188354	情	-0.06823623
-2.7420356	今	-0.20464867
-2.9188354	般	-0.06823623
-2.9188354	把	-0.06823623
-2.9188354	席	-0.06823626
-2.9188354	簡	-0.06823623
-2.9188354	單	-0.06823623
-2.9188354	講	-0.06823623
-2.9188354	附	-0.06823623
-2.9188354	載	-0.06823623
-2.830396	確	-0.06823623
-2.9188354	肯	-0.06823623
-2.5857782	便	-0.1663238
-2.830396	無	-0.06823623
-2.9188354	效	-0.06823623
-2.9188354	正	-0.06823623
-2.9188354	擬	-0.06823623
-2.9188354	賦	-0.06823623
-2.9188354	予	-0.06823623
-2.9188354	權	-0.06823623
-2.9188354	力	-0.06823623
-2.9188354	死	-0.06823623
-2.9188354	線	-0.06823623
-2.9188354	八	-0.06823623
-2.9188354	昨	-0.06823623
-2.830396	天	-0.1663238
-2.9188354	幸	-0.06823623
-2.9188354	延	-0.06823623
-2.9188354	續	-0.06823623
-2.9188354	仍	-0.06823623
-2.9188354	需	-0.06823623
-2.9188354	走	-0.06823623
-2.9188354	經	-0.06823623
-2.9188354	歷	-0.06823623
-2.9188354	艱	-0.06823623
-2.9188354	辛	-0.06823623
-2.830396	找	-0.29323223
-2.9188354	那	-0.06823623
-2.9188354	願	-0.06823623
-2.9188354	謝	-0.06823623

\2-grams:
-0.8343744	謝 </s>	0
-0.82498944	<s> 大	-0.07564724
-1.864947	很 大	-0.07564724
-1.9659773	是 大	-0.07564724
-2.084886	不 大	-0.07564724
-1.6020577	望 大	-0.07564724
-1.2782303	麼 大	-0.07564724
-1.7582798	件 大	-0.07564724
-0.5541098	大 家	-0.340153
-0.8269393	家 都	-0.14304739
-1.6628712	人 都	-0.07564724
-1.5636451	實 都	-0.07564724
-1.7752935	員 都	-0.07564724
-1.5560846	時 都	-0.07564724
-1.4862721	容 都	-0.07564724
-1.804084	都 記	-0.22286418
-1.596438	行 記	-0.07564724
-1.1254182	記 得	-0.07564724
-1.1254182	取 得	-0.07564724
-1.2951273	做 得	-0.07564724
-0.83086544	覺 得	-0.07564724
-1.501677	得 該	-0.07564724
-1.5666872	及 該	-0.07564724
-1.7202473	用 該	-0.07564724
-1.5666872	交 該	-0.07564724
-1.4952838	錄 該	-0.07564724
-1.468791	該 項	-0.07564724
-1.5513736	的 項	-0.21521428
-1.7113249	九 項	-0.07564724
-1.5356257	館 項	-0.07564724
-0.73700947	這 項	-0.21031493
-1.2315019	一 項	-0.07564724
-1.468791	何 項	-0.07564724
-1.468791	等 項	-0.07564724
-1.9173013	項 協	-0.07564724
-1.593529	及 協	-0.07564724
-1.7910051	項 議	-0.340153
-0.30534437	協 議	-0.07564724
-0.5130899	會 議	-0.17045526
-1.8364806	在 議	-0.07564724
-1.3639174	動 議	-0.07564724
-1.9871802	有 議	-0.07564724
-1.2566774	應 議	-0.07564724
-1.1112568	提 議	-0.07564727
-0.6027784	陳 議	-0.22286418
-0.81727636	莊 議	-0.22286418
-0.81727636	爭 議	-0.07564724
-1.4519863	該 公	-0.07564724
-1.9350533	議 公	-0.07564724
-1.4519863	些 公	-0.07564724
-1.1027089	眾 公	-0.07564724
-1.7176765	問 公	-0.22286418
-1.4519863	等 公	-0.07564724
-1.6498462	用 公	-0.07564724
-1.6207665	任 公	-0.07564724
-1.5564525	向 公	-0.07564724
-1.370699	述 公	-0.22286418
-1.8511046	公 布	-0.07564724
-0.30830538	宣 布	-0.07564724
-1.300909	布 後	-0.07564724
-0.83284193	斬 後	-0.07564724
-0.83284193	稍 後	-0.07564724
-1.6951559	議 我	-0.07564724
-1.1797949	後 我	-0.07564724
-1.4035043	實 我	-0.07564724
-0.6873418	讓 我	-0.21521428
-1.3305519	但 我	-0.07564724
-1.656546	是 我	-0.07564724
-1.0441507	久 我	-0.07564724
-1.3781229	題 我	-0.07564727
-1.471214	以 我	-0.16805781
-1.471214	用 我	-0.07564724
-1.2677346	開 我	-0.07564724
-1.0441507	之 我	-0.07564724
-0.7473778	面 我	-0.07564724
-1.4623682	此 我	-0.07564724
-1.0441507	據 我	-0.07564724
-1.5107098	件 我	-0.07564724
-1.2677346	務 我	-0.07564724
-1.3781229	說 我	-0.07564724
-0.7877252	給 我	-0.07564724
-1.2677346	述 我	-0.07564724
-1.1797949	檔 我	-0.07564724
-0.7877252	訴 我	-0.21521428
-0.7877252	究 我	-0.22286418
-0.7877252	緊 我	-0.07564724
-1.0441507	黑 我	-0.07564724
-1.1797949	席 我	-0.07564724
-0.7877252	續 我	-0.07564724
-1.4891701	我 想	-0.22286418
-2.2257204	有 想	-0.07564724
-2.0884771	府 想	-0.07564724
-2.045799	我 很	-0.07564724
-1.2411867	想 很	-0.22286418
-1.7961044	在 很	-0.07564724
-2.0107534	這 很	-0.07564724
-1.65358	也 很	-0.07564724
-1.0882034	直 很	-0.07564724
-1.4098799	有 很	-0.22286418
-1.5817996	個 很	-0.07564724
-1.7555399	們 很	-0.22286418
-0.81158024	留 很	-0.07564724
-1.2411867	意 很	-0.07564724
-1.0882034	取 很	-0.07564724
-1.6548438	料 很	-0.07564724
-1.3618408	便 很	-0.07564724
-0.6696987	很 多	-0.14304739
-2.131067	的 多	-0.07564724
-1.4841192	討 多	-0.07564724
-1.8826424	們 多	-0.07564724
-1.6020577	了 多	-0.07564724
-1.4774436	案 多	-0.07564724
-1.1139151	越 多	-0.07564724
-1.8677384	多 香	-0.07564724
-1.9671371	在 香	-0.07564724
-1.6513247	道 香	-0.07564724
-0.49847102	香 港	-0.07564727
-1.2837899	港 人	-0.07564724
-1.5702002	的 人	-0.16805781
-1.4613956	有 人	-0.07564724
-1.9927778	府 人	-0.07564724
-0.6050059	五 人	-0.22286418
-1.1177157	界 人	-0.07564724
-1.636877	人 其	-0.07564724
-1.47638	讓 其	-0.07564724
-1.272741	而 其	-0.07564724
-1.468791	等 其	-0.07564724
-1.5356257	及 其	-0.07564724
-1.6225079	因 其	-0.07564724
-1.7419077	件 其	-0.07564724
-1.1101475	) 其	-0.07564724
-0.61123055	其 實	-0.07564724
-1.1293212	定 實	-0.07564724
-1.1293212	確 實	-0.07564724
-1.5999042	實 未	-0.07564724
-0.8336849	未 必	-0.07564724
-1.806918	事 必	-0.07564724
-1.1323596	必 真	-0.07564724
-0.8099185	大 的	-0.07564724
-1.1969862	議 的	-0.07564727
-0.7754031	真 的	-0.07564724
-1.4333713	九 的	-0.07564724
-1.3319923	館 的	-0.22286418
-1.4147451	目 的	-0.07564724
-1.4333713	局 的	-0.07564724
-1.6417986	有 的	-0.07564724
-1.518767	們 的	-0.07564724
-1.3319923	好 的	-0.07564724
-1.3655472	能 的	-0.07564724
-1.3655472	地 的	-0.07564724
-0.7754031	憩 的	-0.07564724
-1.5385703	府 的	-0.07564724
-1.1500129	來 的	-0.07564724
-1.0221597	中 的	-0.07564724
-0.7754031	新 的	-0.07564724
-1.1500129	過 的	-0.07564724
-1.3610084	面 的	-0.07564724
-1.4492285	員 的	-0.07564724
-1.4147451	司 的	-0.07564724
-1.1500129	院 的	-0.07564724
-1.4625633	關 的	-0.07564724
-1.4492285	料 的	-0.07564724
-1.2315397	供 的	-0.22286418
-0.7754031	低 的	-0.07564724
-0.7754031	注 的	-0.07564724
-1.0221597	訂 的	-0.07564724
-1.2889857	容 的	-0.07564724
-0.7754031	覽 的	-0.07564724
-1.1500129	組 的	-0.07564724
-0.7754031	職 的	-0.07564724
-0.7754031	情 的	-0.07564724
-0.7754031	予 的	-0.07564724
-1.5880493	都 會	-0.07564724
-1.216537	後 會	-0.07564724
-1.8372504	的 會	-0.07564724
-1.3835044	期 會	-0.07564724
-1.3824264	不 會	-0.07564727
-1.3131688	詢 會	-0.07564724
-1.4809147	能 會	-0.07564724
-1.216537	演 會	-0.07564724
-1.0707272	間 會	-0.07564724
-1.7239687	府 會	-0.07564724
-1.437644	及 會	-0.22286418
-0.8022495	將 會	-0.07564724
-1.0707272	本 會	-0.437063
-1.3131688	法 會	-0.07564724
-0.8022495	待 會	-0.07564724
-1.216537	括 會	-0.22286418
-1.3835044	約 會	-0.07564724
-0.593014	次 會	-0.22286418
-0.593014	天 會	-0.22286418
-2.153663	會 反	-0.07564724
-1.7646067	都 對	-0.07564724
-0.82889795	反 對	-0.07564724
-1.4952838	民 對	-0.22286418
-1.1215498	均 對	-0.07564724
-1.6321616	到 對	-0.07564724
-2.061711	我 在	-0.07564724
-1.9239291	會 在	-0.07564724
-1.4437474	對 在	-0.07564724
-1.1436689	要 在	-0.07564724
-1.612504	目 在	-0.07564724
-0.59850764	曾 在	-0.07564724
-1.2462891	術 在	-0.07564724
-1.7407408	所 在	-0.07564724
-1.6681957	員 在	-0.07564724
-1.5372759	就 在	-0.07564724
-1.6397227	關 在	-0.07564724
-1.3506634	只 在	-0.07564724
-1.0917846	或 在	-0.07564724
-1.4505799	得 西	-0.07564724
-1.2514522	布 西	-0.07564724
-1.4505799	對 西	-0.22286418
-0.57080376	在 西	-0.5162443
-1.1563733	為 西	-0.340153
-1.3572398	詢 西	-0.07564724
-1.5474238	望 西	-0.07564724
-1.5891366	然 西	-0.07564724
-1.3572398	三 西	-0.07564724
-1.4505799	二 西	-0.07564724
-1.6122601	四 西	-0.07564724
-0.81536937	外 西	-0.07564724
-0.081269614	西 九	-0.3061661
-1.8012681	九 興	-0.437063
-1.6569052	就 興	-0.07564724
-2.2073963	的 建	-0.07564724
-0.307451	興 建	-0.3519897
-2.0136242	是 建	-0.07564724
-1.4952838	些 建	-0.07564724
-0.82889795	嚴 建	-0.07564724
-1.5957147	建 故	-0.437063
-1.5887021	理 故	-0.07564724
-1.1293212	京 故	-0.21521428
-0.49847102	故 宮	-0.39130554
-1.1309912	宮 館	-0.11939924
-1.3033904	物 館	-0.07564724
-1.5666872	館 讓	-0.07564724
-1.4952838	期 讓	-0.07564724
-2.145464	不 讓	-0.07564724
-1.5666872	好 讓	-0.07564724
-1.5713427	告 讓	-0.07564724
-1.6947932	其 成	-0.07564724
-1.7587469	局 成	-0.22286418
-0.82889795	落 成	-0.07564724
-1.6870967	月 成	-0.07564724
-0.82889795	深 成	-0.22286418
-1.995598	議 為	-0.07564724
-0.70062876	成 為	-0.07564724
-0.22772177	認 為	-0.1725208
-1.6496797	作 為	-0.07564724
-1.3917038	否 為	-0.07564724
-0.3726105	因 為	-0.07564724
-1.6020577	道 為	-0.07564724
-1.8481655	多 重	-0.07564724
-2.2512627	的 重	-0.07564724
-1.6940825	此 重	-0.07564724
-1.1254182	常 重	-0.22286418
-1.7910051	項 要	-0.07564724
-1.2566774	布 要	-0.07564724
-2.0953987	我 要	-0.07564724
-1.6685752	九 要	-0.07564724
-0.61392635	重 要	-0.07564724
-1.4173799	不 要	-0.07564724
-1.8055356	們 要	-0.21521428
-1.8690532	府 要	-0.07564724
-1.2566774	下 要	-0.07564724
-1.6961976	員 要	-0.21521428
-0.81727636	力 要	-0.07564724
-1.963002	要 部	-0.07564724
-1.5887021	交 部	-0.07564724
-1.4213904	供 部	-0.07564724
-0.49847102	部 分	-0.07564727
-1.2951273	分 但	-0.07564724
-0.83086544	計 但	-0.07564724
-1.8114611	件 但	-0.07564724
-1.8114611	料 但	-0.07564724
-1.631613	都 是	-0.07564724
-1.8498057	議 是	-0.07564724
-1.4126167	但 是	-0.07564724
-0.9015815	這 是	-0.07564727
-1.9028198	不 是	-0.07564724
-1.6838535	可 是	-0.07564724
-0.8096979	終 是	-0.07564724
-1.7904804	府 是	-0.07564724
-0.8096979	帑 是	-0.07564724
-1.3565304	即 是	-0.07564724
-0.8096979	覆 是	-0.07564724
-1.3378022	只 是	-0.07564724
-0.8096979	正 是	-0.07564724
-0.8096979	線 是	-0.07564724
-0.8096979	那 是	-0.07564724
-0.6753905	得 這	-0.07564724
-1.3954948	的 這	-0.22286418
-1.7381366	會 這	-0.07564724
-0.6753905	對 這	-0.07564724
-1.654746	在 這	-0.07564724
-1.492491	九 這	-0.07564724
-1.0942811	為 這	-0.07564724
-1.1797949	論 這	-0.07564724
-1.3781229	理 這	-0.07564724
-1.7211261	有 這	-0.07564724
-1.4460047	然 這	-0.07564724
-1.4681802	個 這	-0.07564724
-1.4156048	了 這	-0.07564724
-1.6154051	府 這	-0.07564724
-1.5323691	於 這	-0.07564724
-1.1797949	談 這	-0.07564724
-0.7473778	行 這	-0.07564724
-1.0441507	持 這	-0.07564724
-1.5107098	員 這	-0.07564724
-1.2677346	供 這	-0.437063
-1.3781229	說 這	-0.07564724
-1.3305519	錄 這	-0.07564724
-1.4156048	道 這	-0.07564724
-0.80724794	到 這	-0.22286418
-1.1797949	接 這	-0.07564724
-1.1797949	元 這	-0.07564724
-1.0441507	悉 這	-0.07564724
-1.6422474	九 一	-0.07564724
-1.4883353	館 一	-0.07564724
-1.2517318	是 一	-0.22286418
-2.0290258	這 一	-0.07564724
-0.81347066	劃 一	-0.07564724
-1.5480025	與 一	-0.07564724
-0.4906393	另 一	-0.07564727
-1.6681957	件 一	-0.07564724
-0.81347066	零 一	-0.23051277
-0.9783787	年 一	-0.22286418
-1.5372759	就 一	-0.07564724
-1.2462891	括 一	-0.07564724
-0.81347066	俗 一	-0.07564724
-0.51609164	項 目	-0.07564724
-0.8336849	數 目	-0.07564724
-1.2894216	港 討	-0.07564724
-1.810404	可 討	-0.07564724
-1.2960564	商 討	-0.07564724
-1.1215498	密 討	-0.07564724
-0.82889795	檢 討	-0.07564724
-0.71938086	討 論	-0.07564727
-1.2951273	論 已	-0.07564724
-1.6905209	然 已	-0.07564724
-1.1254182	至 已	-0.07564724
-2.0541801	府 已	-0.07564724
-1.4246683	已 久	-0.07564724
-1.3033904	麼 久	-0.07564724
-1.9446332	很 早	-0.07564724
-0.8336849	最 早	-0.07564724
-1.1254182	早 期	-0.07564724
-2.1876981	有 期	-0.07564724
-1.1254182	前 期	-0.07564724
-1.4137764	日 期	-0.07564724
-1.1064123	早 也	-0.07564724
-1.4603074	期 也	-0.07564724
-1.3775884	詢 也	-0.07564724
-1.579373	了 也	-0.07564724
-1.2673202	下 也	-0.07564724
-1.2673202	過 也	-0.07564724
-0.9877661	事 也	-0.07564724
-1.4603074	它 也	-0.07564724
-1.1064123	界 也	-0.07564724
-1.508397	大 不	-0.07564724
-1.5391016	都 不	-0.07564724
-1.4064922	我 不	-0.07564724
-1.206273	是 不	-0.07564724
-1.860916	這 不	-0.07564724
-1.4978597	目 不	-0.07564724
-0.9650612	也 不	-0.07564727
-1.7601264	有 不	-0.07564724
-1.6212136	們 不	-0.22286418
-1.4389604	了 不	-0.07564724
-1.1932116	演 不	-0.07564724
-1.6530087	府 不	-0.07564724
-1.1932116	來 不	-0.07564724
-1.5399797	員 不	-0.07564724
-1.3994988	時 不	-0.07564724
-1.5585152	事 不	-0.07564724
-1.5399797	料 不	-0.07564724
-1.3496605	它 不	-0.07564724
-0.793115	拿 不	-0.07564724
-1.0539273	並 不	-0.07564724
-1.0539273	黑 不	-0.07564724
-1.0539273	看 不	-0.07564724
-1.31145	天 不	-0.07564724
-0.30081475	找 不	-0.22286418
-2.2464538	不 算	-0.07564724
-0.8343744	算 最	-0.07564724
-1.7839574	也 曾	-0.07564724
-1.7757792	局 曾	-0.07564724
-1.5044866	何 曾	-0.07564724
-0.83086544	初 曾	-0.07564724
-1.2844197	議 文	-0.21521428
-2.00972	的 文	-0.22286418
-1.6685752	九 文	-0.641183
-1.8229637	要 文	-0.07564724
-1.2566774	分 文	-0.07564724
-1.4438217	些 文	-0.07564724
-1.6128533	個 文	-0.07564724
-0.9401853	關 文	-0.437063
-1.6961976	料 文	-0.22286418
-1.5331383	他 文	-0.07564724
-0.81727636	把 文	-0.07564724
-1.0473319	文 化	-0.52808094
-0.8336849	綠 化	-0.07564724
-1.3033904	化 區	-0.641183
-1.3033904	術 區	-0.07564724
-1.1323596	區 管	-0.641183
-2.2394538	我 理	-0.07564724
-0.83086544	管 理	-0.641183
-1.5044866	何 理	-0.07564724
-0.49717277	處 理	-0.07564727
-1.5775552	理 局	-0.18806683
-1.5861951	當 局	-0.07564724
-1.4137764	務 局	-0.22286418
-1.7851772	事 局	-0.18915784
-1.8931894	項 諮	-0.07564724
-2.039563	是 諮	-0.07564724
-1.7757792	局 諮	-0.07564724
-1.1254182	性 諮	-0.07564724
-0.3115737	諮 詢	-0.07564724
-2.153663	會 策	-0.07564724
-0.8343744	策 劃	-0.07564724
-1.0450929	這 些	-0.45494127
-1.2690699	一 些	-0.16805781
-1.0458878	公 眾	-0.07564724
-1.1323596	眾 參	-0.07564724
-1.7052244	目 與	-0.07564724
-1.7423574	局 與	-0.07564724
-0.8269393	參 與	-0.07564724
-0.9007784	月 與	-0.07564724
-1.6138605	就 與	-0.07564724
-1.3989375	只 與	-0.07564724
-1.6632805	與 活	-0.07564724
-0.83086544	活 動	-0.07564724
-1.5775552	及 動	-0.07564724
-1.5082002	主 動	-0.07564724
-1.1254182	條 動	-0.07564724
-1.4213904	動 而	-0.07564724
-1.6513247	地 而	-0.07564724
-1.8307409	員 而	-0.07564724
-1.8294369	多 市	-0.22286418
-1.5000238	讓 市	-0.07564724
-1.2894216	而 市	-0.07564724
-2.1527383	有 市	-0.07564724
-1.2894216	同 市	-0.07564724
-0.22876725	市 民	-0.16805781
-1.5179479	和 民	-0.22286418
-2.0389202	一 直	-0.07564724
-1.7163552	月 直	-0.07564724
-1.1004013	很 有	-0.16805781
-0.7530459	實 有	-0.07564724
-1.7836268	會 有	-0.07564724
-1.6490653	為 有	-0.07564724
-1.374312	討 有	-0.07564724
-1.3562216	民 有	-0.07564724
-1.4470333	望 有	-0.07564724
-1.4470333	能 有	-0.07564724
-1.5071177	以 有	-0.07564724
-0.79492664	亦 有	-0.07564724
-1.6663034	府 有	-0.07564724
-1.5071177	用 有	-0.07564724
-1.045305	所 有	-0.27280846
-1.1977775	果 有	-0.07564724
-0.2239624	沒 有	-0.07564727
-1.4297954	面 有	-0.07564724
-1.2898579	法 有	-0.07564724
-1.4068645	交 有	-0.07564724
-1.2262962	存 有	-0.07564724
-1.2898579	使 有	-0.07564724
-1.4685584	到 有	-0.07564724
-1.1977775	出 有	-0.07564724
-0.79492664	載 有	-0.07564724
-1.5138885	期 望	-0.07564724
-0.22866671	希 望	-0.2849768
-0.83284193	盼 望	-0.07564724
-1.7052244	目 當	-0.07564724
-1.6138605	望 當	-0.07564724
-1.9042658	們 當	-0.07564724
-1.9927778	府 當	-0.07564724
-1.3989375	使 當	-0.07564724
-0.8269393	申 當	-0.07564724
-0.7973923	當 然	-0.07564727
-0.49790484	雖 然	-0.07564727
-0.3081555	突 然	-0.07564724
-1.9581264	為 另	-0.07564724
-1.5138885	但 另	-0.07564724
-2.0671499	是 另	-0.07564724
-2.0671499	是 個	-0.07564724
-1.527205	這 個	-0.07564727
-1.2671349	一 個	-0.07564724
-1.5573465	的 問	-0.22286418
-1.4613956	有 問	-0.21521428
-0.899856	個 問	-0.22286418
-1.7752935	件 問	-0.07564724
-0.8269393	老 問	-0.07564724
-0.12798253	顧 問	-0.2262867
-0.52912223	問 題	-0.14904931
-0.34621295	我 們	-0.1972839
-0.48697934	他 們	-0.14304739
-1.480582	我 希	-0.22286418
-2.145464	不 希	-0.07564724
-1.676476	然 希	-0.07564724
-1.9270223	們 希	-0.437063
-1.4952838	容 希	-0.07564724
-1.7589953	目 盡	-0.07564724
-2.10392	府 盡	-0.07564724
-1.9446332	很 快	-0.07564724
-0.30830538	盡 快	-0.07564724
-1.3054273	快 落	-0.07564724
-1.1769497	為 何	-0.07564724
-0.92131585	任 何	-0.07564727
-1.7648358	目 拖	-0.07564724
-1.3917038	詢 了	-0.07564724
-0.82498944	拖 了	-0.07564724
-1.2782303	小 了	-0.07564724
-1.6496797	作 了	-0.07564724
-1.3917038	開 了	-0.07564724
-1.3917038	述 了	-0.07564724
-1.1139151	花 了	-0.07564724
-1.5155389	這 麼	-0.07564724
-1.3033904	甚 麼	-0.07564724
-1.1293212	久 雖	-0.07564724
-1.5138885	錄 雖	-0.07564724
-1.1293212	解 雖	-0.07564724
-1.4273632	已 敲	-0.07564724
-0.8336849	敲 定	-0.07564724
-0.8336849	決 定	-0.07564724
-1.1309912	定 設	-0.07564724
-1.5179479	等 設	-0.07564724
-1.1323596	設 計	-0.07564724
-1.5212911	但 規	-0.07564724
-0.8343744	規 模	-0.07564724
-1.8817189	很 好	-0.07564724
-0.8269393	模 好	-0.07564724
-0.8269393	良 好	-0.07564724
-1.1177157	間 好	-0.07564724
-0.8269393	更 好	-0.07564724
-0.8269393	幸 好	-0.07564724
-1.593529	好 像	-0.07564724
-1.1309912	再 像	-0.07564724
-1.1323596	像 縮	-0.07564724
-2.215883	不 小	-0.07564724
-0.83284193	縮 小	-0.07564724
-1.1293212	心 小	-0.21521428
-1.4718782	不 同	-0.07564724
-1.593529	理 同	-0.07564724
-2.037028	的 可	-0.22286418
-1.6823628	九 可	-0.07564724
-1.7011428	也 可	-0.07564724
-2.007412	不 可	-0.07564724
-1.8235672	們 可	-0.07564724
-1.383757	方 可	-0.07564724
-1.56846	就 可	-0.07564724
-1.383757	業 可	-0.07564724
-0.6012807	便 可	-0.07564724
-0.8191919	仍 可	-0.07564724
-1.1804955	不 能	-0.07564724
-0.74904656	可 能	-0.14304739
-1.3054273	同 盼	-0.07564724
-2.2157116	我 認	-0.07564724
-1.7587469	局 認	-0.07564724
-1.4952838	民 認	-0.22286418
-1.9270223	們 認	-0.22286418
-2.0223947	府 認	-0.07564724
-1.8012681	九 始	-0.07564724
-1.4246683	開 始	-0.07564724
-1.1323596	始 終	-0.07564724
-1.3033904	化 藝	-0.07564724
-1.3033904	演 藝	-0.22286418
-0.3084278	藝 術	-0.07564727
-1.1293212	區 應	-0.07564724
-1.8777373	所 應	-0.07564724
-1.4213904	日 應	-0.07564724
-1.3054273	應 具	-0.07564724
-1.7589953	目 備	-0.07564724
-0.8336849	具 備	-0.07564724
-1.1323596	備 良	-0.07564724
-2.167557	的 表	-0.07564724
-1.6628712	作 表	-0.07564724
-1.1177157	曲 表	-0.07564724
-0.8269393	種 表	-0.07564724
-0.8269393	代 表	-0.07564724
-0.8269393	附 表	-0.07564724
-0.48720676	表 演	-0.14304739
-2.3000631	的 場	-0.07564724
-1.300909	術 場	-0.07564724
-0.83284193	途 場	-0.22286418
-2.2073963	的 地	-0.07564724
-0.496442	場 地	-0.14304739
-0.82889795	土 地	-0.07564724
-1.7202473	用 地	-0.07564724
-1.1215498	樣 地	-0.07564724
-1.6020577	地 以	-0.07564724
-1.3917038	否 以	-0.07564724
-0.60398	所 以	-0.1539113
-0.82498944	藉 以	-0.07564724
-1.7582798	料 以	-0.07564724
-1.4774436	約 以	-0.07564724
-1.2782303	出 以	-0.07564724
-1.7589953	以 至	-0.07564724
-1.3033904	甚 至	-0.07564724
-1.1309912	宮 博	-0.21521428
-1.1309912	至 博	-0.07564724
-0.30830538	博 物	-0.17589843
-1.4246683	築 物	-0.07564724
-1.4952838	該 等	-0.07564724
-1.5666872	館 等	-0.07564724
-2.21197	這 等	-0.07564724
-1.680971	此 等	-0.07564724
-1.5713427	告 等	-0.07564724
-1.1323596	設 施	-0.07564724
-0.8343744	施 亦	-0.07564724
-1.963002	要 保	-0.07564724
-2.2257204	有 保	-0.07564724
-1.1293212	須 保	-0.07564724
-1.3054273	保 留	-0.07564724
-1.8834815	多 土	-0.07564724
-1.8114827	多 作	-0.07564724
-1.6138605	地 作	-0.07564724
-1.7052244	用 作	-0.07564724
-1.4047925	合 作	-0.07564724
-0.3070992	工 作	-0.07564727
-1.1177157	性 作	-0.22286418
-1.9758799	為 綠	-0.07564724
-1.3054273	化 空	-0.07564724
-0.8336849	空 間	-0.07564724
-1.593529	時 間	-0.07564724
-2.2575455	有 休	-0.07564724
-0.8343744	休 憩	-0.07564724
-2.2512627	的 方	-0.07564724
-2.2413826	這 方	-0.07564724
-1.2485683	一 方	-0.22286418
-1.6384742	地 方	-0.07564724
-1.7785772	議 政	-0.07564724
-1.2117707	港 政	-0.07564724
-1.8198125	的 政	-0.07564724
-1.7251222	在 政	-0.07564724
-1.7418606	是 政	-0.07564724
-1.2117707	而 政	-0.07564724
-1.3765213	民 政	-0.22286418
-1.4721934	望 政	-0.3519897
-1.5069978	然 政	-0.07564724
-1.3765213	何 政	-0.07564724
-1.4720774	表 政	-0.07564724
-1.5949843	於 政	-0.07564724
-1.2117707	果 政	-0.21521428
-1.5207776	任 政	-0.07564724
-1.3072226	求 政	-0.3519897
-1.5823529	料 政	-0.07564724
-1.4721934	道 政	-0.07564724
-1.0673149	點 政	-0.07564724
-0.8004072	評 政	-0.07564724
-0.8004072	察 政	-0.22286418
-0.1395114	政 府	-0.15737344
-2.275703	我 卻	-0.07564724
-2.10392	府 卻	-0.07564724
-1.7113556	人 突	-0.07564724
-1.1309912	卻 突	-0.07564724
-2.1440134	會 宣	-0.07564724
-1.7113556	然 宣	-0.07564724
-1.7165858	然 涉	-0.07564724
-1.7202473	以 及	-0.07564724
-0.82889795	涉 及	-0.07564724
-1.4952838	案 及	-0.07564724
-1.7930009	件 及	-0.16805781
-1.4952838	約 及	-0.22286418
-1.069854	多 用	-0.22286418
-1.3989375	動 用	-0.07564724
-1.7959552	可 用	-0.07564724
-1.3989375	七 用	-0.07564724
-1.3989375	使 用	-0.07564724
-0.3066169	聘 用	-0.12870458
-1.8560822	公 帑	-0.07564724
-2.1324809	會 否	-0.07564724
-1.2976414	是 否	-0.07564724
-2.2257204	有 否	-0.07564724
-1.5775552	理 由	-0.07564724
-1.9510378	們 由	-0.07564724
-1.4137764	否 由	-0.07564724
-1.5775552	說 由	-0.07564724
-1.8809991	在 於	-0.07564724
-1.3951442	曾 於	-0.07564724
-1.7113249	局 於	-0.340153
-1.468791	等 於	-0.07564724
-0.61698794	由 於	-0.07564727
-0.8230483	鑒 於	-0.07564724
-1.1101475	) 於	-0.07564724
-1.272741	組 於	-0.07564724
-2.0794303	是 北	-0.07564724
-0.86389625	與 北	-0.21521428
-0.3084278	北 京	-0.17589843
-1.5957147	表 下	-0.07564724
-1.1293212	京 下	-0.07564724
-1.4213904	求 下	-0.07564724
-1.300909	下 來	-0.07564724
-0.48356396	原 來	-0.22286418
-1.1293212	越 來	-0.07564724
-1.984028	的 所	-0.07564724
-1.8226006	在 所	-0.07564724
-1.624598	目 所	-0.07564724
-1.9648228	有 所	-0.07564724
-1.4973903	題 所	-0.07564724
-1.4973903	好 所	-0.07564724
-1.0953956	條 所	-0.07564724
-1.6819711	件 所	-0.07564724
-1.3572398	務 所	-0.07564724
-1.4358077	和 所	-0.07564724
-1.4973903	交 所	-0.21521428
-1.4358077	錄 所	-0.07564724
-2.2429504	有 特	-0.07564724
-1.7134795	任 特	-0.07564724
-1.1323596	特 別	-0.07564724
-1.751948	以 處	-0.07564724
-0.83284193	別 處	-0.07564724
-0.83284193	式 處	-0.07564724
-2.2870722	這 樣	-0.07564724
-1.3033904	同 樣	-0.07564724
-1.6615157	地 撇	-0.07564724
-1.8312476	公 開	-0.07564724
-0.83086544	撇 開	-0.07564724
-1.7358085	司 開	-0.07564724
-1.5044866	它 開	-0.07564724
-1.4246683	開 粵	-0.07564724
-0.8336849	劇 粵	-0.07564724
-1.1323596	粵 劇	-0.07564724
-1.1309912	粵 曲	-0.07564724
-0.8336849	戲 曲	-0.07564724
-2.215883	不 談	-0.07564724
-1.300909	談 談	-0.07564724
-1.1293212	再 談	-0.07564724
-1.5457346	題 因	-0.07564724
-1.2782303	談 因	-0.07564724
-0.82498944	疑 因	-0.07564724
-1.3917038	法 因	-0.07564724
-1.1139151	見 因	-0.07564724
-1.2782303	做 因	-0.07564724
-1.2877283	原 因	-0.07564724
-1.8077102	九 將	-0.07564724
-2.2575455	有 戲	-0.07564724
-1.1309912	曲 中	-0.07564724
-1.596438	行 中	-0.07564724
-1.1309912	中 心	-0.07564724
-0.30830538	核 心	-0.21521428
-1.9235376	要 如	-0.07564724
-1.1215498	心 如	-0.07564724
-1.4952838	案 如	-0.07564724
-1.7202473	司 如	-0.07564724
-0.82889795	辛 如	-0.07564724
-0.22884937	如 果	-0.1539113
-2.037028	的 提	-0.07564724
-1.32864	會 提	-0.1909963
-1.370699	已 提	-0.07564724
-1.6123511	然 提	-0.07564724
-1.6237183	個 提	-0.07564724
-1.2619661	快 提	-0.07564724
-1.8911377	府 提	-0.21521428
-1.5160873	時 提	-0.07564724
-1.1027089	展 提	-0.07564724
-0.8191919	肯 提	-0.07564724
-2.0483434	一 種	-0.07564724
-1.6022613	建 新	-0.07564724
-2.21197	這 主	-0.07564724
-2.145464	不 主	-0.07564724
-1.625993	望 主	-0.07564724
-1.5666872	好 主	-0.07564724
-1.1215498	悉 主	-0.07564724
-2.2257204	有 意	-0.07564724
-1.5165334	主 意	-0.07564724
-0.83284193	願 意	-0.07564724
-1.5975106	好 決	-0.07564724
-1.5729661	實 行	-0.07564724
-1.0384943	可 行	-0.21521428
-0.82889795	舉 行	-0.07564724
-0.48227102	進 行	-0.07564724
-0.82889795	擬 行	-0.07564724
-1.7142172	個 之	-0.07564724
-0.8336849	總 之	-0.07564724
-1.1309912	之 前	-0.07564724
-1.4246683	供 前	-0.07564724
-0.99710166	也 沒	-0.22286418
-1.9270223	們 沒	-0.07564724
-1.1215498	前 沒	-0.07564724
-1.5666872	說 沒	-0.07564724
-1.4952838	它 沒	-0.07564724
-1.3033904	想 過	-0.07564724
-1.4718782	不 過	-0.07564724
-1.4297898	方 式	-0.07564724
-1.5179479	民 均	-0.07564724
-1.8392038	員 均	-0.07564724
-1.5094932	對 面	-0.07564724
-0.60688055	方 面	-0.07564727
-1.1254182	見 面	-0.07564724
-0.83086544	全 面	-0.07564724
-1.8903576	所 懷	-0.07564724
-0.8343744	懷 疑	-0.07564724
-1.1646603	在 此	-0.07564724
-1.8762516	為 此	-0.07564724
-1.5457346	題 此	-0.07564724
-1.7425171	於 此	-0.07564724
-1.6302471	因 此	-0.07564724
-1.6020577	道 此	-0.22286418
-1.5522436	告 此	-0.07564724
-1.9446332	很 支	-0.07564724
-1.1309912	均 支	-0.07564724
-0.3084278	支 持	-0.07564724
-1.9361658	為 陳	-0.07564724
-1.6384742	了 陳	-0.07564724
-1.6905209	作 陳	-0.07564724
-1.1254182	持 陳	-0.07564724
-0.608916	陳 淑	-0.22286418
-0.8343744	淑 莊	-0.22286418
-0.722993	議 員	-0.122886516
-1.7050352	人 員	-0.07564724
-0.70460063	成 員	-0.07564724
-1.8462387	員 根	-0.07564724
-0.8336849	根 據	-0.07564724
-0.8336849	奏 據	-0.07564724
-1.1309912	據 基	-0.07564724
-1.4246683	使 基	-0.07564724
-0.30830538	基 本	-0.22286418
-0.30776277	向 本	-0.437063
-1.1254182	本 法	-0.22286418
-0.482917	立 法	-0.22286418
-0.83086544	辦 法	-0.07564724
-1.1254182	無 法	-0.07564724
-1.963002	要 第	-0.07564724
-1.5887021	題 第	-0.07564724
-1.4213904	法 第	-0.22286418
-2.0022445	一 七	-0.07564724
-1.4137764	第 七	-0.22286418
-1.7405452	十 七	-0.07564724
-1.7851772	年 七	-0.07564724
-1.4062935	七 十	-0.22286418
-1.501677	二 十	-0.07564727
-0.9973609	年 十	-0.07564724
-0.90269095	四 十	-0.07564724
-1.4128053	五 十	-0.21521428
-1.7935067	局 三	-0.22286418
-1.4213904	第 三	-0.07564724
-0.95661074	十 三	-0.16805781
-1.4273632	三 條	-0.07564724
-2.1038697	議 案	-0.07564724
-1.3033904	檔 案	-0.07564724
-1.5212911	案 藉	-0.07564724
-1.7648358	以 索	-0.07564724
-1.8475801	可 取	-0.07564724
-0.8336849	索 取	-0.07564724
-0.19920444	文 件	-0.16697478
-1.1309912	特 首	-0.07564724
-1.8392038	件 首	-0.07564724
-2.0794303	是 先	-0.07564724
-1.1309912	首 先	-0.07564724
-1.1323596	先 鑒	-0.07564724
-1.8294369	多 時	-0.22286418
-2.2073963	的 時	-0.07564724
-0.78026605	當 時	-0.07564724
-1.7704237	於 時	-0.07564724
-1.7930009	料 時	-0.07564724
-2.0621176	有 任	-0.07564724
-1.5356257	時 任	-0.07564724
-0.8230483	現 任	-0.07564724
-1.1101475	常 任	-0.22286418
-1.272741	信 任	-0.07564724
-1.1101475	委 任	-0.07564724
-0.8230483	擔 任	-0.07564724
-0.8230483	歷 任	-0.07564724
-1.3608158	政 務	-0.21521428
-1.002239	事 務	-0.16805781
-0.83284193	服 務	-0.07564724
-0.56990933	公 司	-0.07564724
-1.4213904	務 司	-0.21521428
-1.751948	司 司	-0.21521428
-1.7589953	司 長	-0.16805781
-1.1309912	書 長	-0.07564724
-1.4246683	長 (	-0.07564724
-1.1309912	士 (	-0.07564724
-1.5044866	案 即	-0.07564724
-1.1254182	( 即	-0.07564724
-1.4137764	日 即	-0.07564724
-0.83086544	受 即	-0.07564724
-1.4297898	即 現	-0.07564724
-1.1323596	首 林	-0.07564724
-0.8343744	林 鄭	-0.07564724
-1.9338832	一 月	-0.07564724
-1.3917038	七 月	-0.07564724
-1.6988759	十 月	-0.07564724
-0.82498944	鄭 月	-0.07564724
-1.4864542	二 月	-0.07564724
-1.2782303	六 月	-0.07564724
-1.6643673	四 月	-0.07564724
-1.7207094	月 娥	-0.07564724
-0.8343744	娥 女	-0.07564724
-1.7113556	人 士	-0.07564724
-0.8336849	女 士	-0.07564724
-1.7589953	司 )	-0.07564724
-1.1309912	士 )	-0.07564724
-2.0136242	是 二	-0.07564724
-0.7046929	於 二	-0.5831911
-1.4062935	第 二	-0.07564724
-1.7262065	十 二	-0.07564724
-0.9169484	月 二	-0.21521428
-0.70500463	二 零	-0.641183
-2.0276518	一 六	-0.340153
-1.7553732	十 六	-0.07564724
-1.800318	年 六	-0.07564724
-1.3989375	七 年	-0.07564724
-1.2837899	六 年	-0.07564724
-1.756393	年 年	-0.07564724
-1.406838	五 年	-0.07564724
-0.8269393	近 年	-0.07564724
-0.8269393	八 年	-0.07564724
-2.0659716	議 日	-0.22286418
-1.7405452	十 日	-0.07564724
-1.4137764	三 日	-0.07564724
-1.6989236	四 日	-0.07564724
-1.4273632	日 舉	-0.07564724
-1.1323596	記 者	-0.07564724
-0.8343744	者 招	-0.07564724
-0.8343744	招 待	-0.07564724
-1.3054273	物 院	-0.07564727
-1.5863104	的 合	-0.07564724
-1.804512	問 合	-0.340153
-1.300909	信 合	-0.07564724
-0.70457983	要 求	-0.3159395
-2.041225	議 和	-0.07564724
-1.5729661	面 和	-0.07564724
-1.4062935	長 和	-0.22286418
-1.4952838	錄 和	-0.07564724
-1.2894216	席 和	-0.07564724
-1.5457346	館 事	-0.07564724
-1.2782303	麼 事	-0.07564724
-2.1121776	政 事	-0.22286418
-0.91148806	此 事	-0.07564724
-0.82498944	師 事	-0.07564724
-0.22772177	董 事	-0.437063
-0.82498944	量 事	-0.07564724
-1.8012681	局 常	-0.22286418
-0.30830538	非 常	-0.22286418
-1.7134795	任 秘	-0.22286418
-1.3033904	院 秘	-0.07564724
-1.1309912	秘 書	-0.22286418
-1.3033904	括 書	-0.22286418
-1.4009517	曾 就	-0.07564724
-1.9650524	府 就	-0.07564724
-1.3917038	長 就	-0.07564724
-1.6106286	到 就	-0.07564724
-1.1139151	費 就	-0.07564724
-1.4774436	約 就	-0.07564724
-1.2782303	組 就	-0.07564724
-1.3033904	意 見	-0.07564724
-1.3033904	院 見	-0.07564724
-2.3000631	的 商	-0.07564724
-1.5138885	和 商	-0.07564724
-0.83284193	屬 商	-0.07564724
-1.7994361	也 關	-0.07564724
-1.0159073	有 關	-0.07564724
-0.622139	相 關	-0.23309256
-1.8123828	事 宜	-0.07564724
-1.6138605	能 向	-0.07564724
-1.9927778	府 向	-0.07564724
-1.7052244	司 向	-0.07564724
-1.3989375	求 向	-0.07564724
-0.8269393	宜 向	-0.07564724
-1.406838	次 向	-0.07564724
-1.1317127	提 交	-0.13007487
-1.3033904	意 交	-0.07564724
-2.2394538	我 相	-0.07564724
-2.1876981	有 相	-0.340153
-1.5775552	交 相	-0.07564724
-1.6433421	到 相	-0.07564724
-1.8392038	件 包	-0.340153
-1.1309912	( 包	-0.07564724
-0.3084278	包 括	-0.18915784
-1.1309912	書 信	-0.07564724
-1.4268637	相 信	-0.07564724
-1.4774436	些 資	-0.641183
-1.4774436	和 資	-0.07564724
-1.7072046	關 資	-0.07564724
-1.2782303	信 資	-0.07564724
-1.3917038	述 資	-0.07564724
-1.1139151	位 資	-0.22286418
-0.82498944	感 資	-0.07564724
-0.24816474	資 料	-0.11587267
-0.5164673	提 供	-0.2816653
-1.5999042	面 坦	-0.07564724
-0.8343744	坦 白	-0.07564724
-1.7545625	也 說	-0.07564724
-1.9927778	府 說	-0.07564724
-1.7562463	於 說	-0.07564724
-0.8269393	白 說	-0.07564724
-1.1177157	點 說	-0.07564724
-0.8269393	則 說	-0.07564724
-2.1169505	府 給	-0.07564724
-2.3419008	的 答	-0.07564724
-0.8343744	答 覆	-0.07564724
-2.0136242	是 它	-0.07564724
-1.625993	望 它	-0.07564724
-1.9270223	們 它	-0.07564724
-1.625993	道 它	-0.07564724
-1.2894216	檔 它	-0.07564724
-1.4824066	有 存	-0.22286418
-1.1293212	備 存	-0.07564724
-1.300909	保 存	-0.07564724
-2.1038697	議 紀	-0.21521428
-0.95807844	關 紀	-0.22286418
-0.3084278	紀 錄	-0.07564724
-1.718947	個 老	-0.07564724
-1.7183386	此 贅	-0.07564724
-0.83284193	贅 述	-0.07564724
-0.48356396	上 述	-0.16805781
-0.83284193	講 述	-0.07564724
-0.9963538	都 知	-0.22286418
-1.676476	人 知	-0.07564724
-1.455478	不 知	-0.21521428
-1.1930736	們 知	-0.16805781
-1.625993	能 知	-0.07564724
-0.48739198	知 道	-0.10804114
-0.48406422	存 檔	-0.07564727
-2.3000631	的 使	-0.07564724
-1.5922306	行 使	-0.07564724
-0.6078209	即 使	-0.07564724
-2.106503	會 告	-0.07564724
-1.9428216	要 告	-0.07564724
-0.83086544	報 告	-0.07564727
-1.2951273	席 告	-0.07564724
-0.79809344	告 訴	-0.21521428
-1.8408288	可 做	-0.07564724
-1.1293212	樣 做	-0.07564724
-1.1293212	並 做	-0.07564724
-1.5975106	說 謊	-0.07564724
-0.8343744	謊 總	-0.07564724
-1.8100402	都 拿	-0.07564724
-1.4759456	不 到	-0.07564724
-1.2951273	做 到	-0.07564724
-1.1254182	看 到	-0.07564724
-0.83086544	走 到	-0.07564724
-1.4246683	求 非	-0.07564724
-1.1309912	確 非	-0.07564724
-1.1293212	直 接	-0.07564724
-1.6513247	能 接	-0.07564724
-0.83284193	承 接	-0.07564724
-1.8614609	項 聘	-0.07564724
-1.9050736	要 聘	-0.07564724
-1.6138605	就 聘	-0.07564724
-1.2837899	接 聘	-0.07564724
-1.2837899	元 聘	-0.07564724
-1.1177157	委 聘	-0.07564724
-1.7648358	用 許	-0.07564724
-0.8343744	許 李	-0.07564724
-0.8343744	李 嚴	-0.07564724
-0.48720676	建 築	-0.07564724
-1.4273632	築 師	-0.07564724
-1.6766533	以 四	-0.07564724
-1.636877	作 四	-0.07564724
-1.3845887	第 四	-0.07564724
-1.6858296	十 四	-0.07564724
-1.272741	六 四	-0.07564724
-1.7293984	年 四	-0.07564724
-1.1101475	費 四	-0.07564724
-0.8230483	P 四	-0.07564724
-0.92247444	四 百	-0.21521428
-1.5044866	該 五	-0.07564724
-2.0022445	一 五	-0.22286418
-0.83086544	百 五	-0.21521428
-1.300281	立 五	-0.07564724
-1.7671814	十 萬	-0.21521428
-0.8343744	萬 元	-0.07564727
-1.5390576	的 顧	-0.22286418
-1.468791	期 顧	-0.07564724
-1.5356257	及 顧	-0.22286418
-1.695204	關 顧	-0.07564724
-1.5684963	聘 顧	-0.07564724
-1.3845887	築 顧	-0.07564724
-1.272741	元 顧	-0.07564724
-1.1101475	訂 顧	-0.22286418
-1.8103895	問 費	-0.07564724
-1.1309912	花 費	-0.07564724
-1.6615157	就 P	-0.07564724
-1.6615157	地 發	-0.07564724
-2.1038697	議 展	-0.07564724
-0.8336849	發 展	-0.07564724
-1.8152486	問 服	-0.07564724
-1.4273632	長 代	-0.07564724
-1.300909	分 上	-0.07564724
-1.1293212	像 上	-0.07564724
-1.751948	用 上	-0.22286418
-0.62294006	合 約	-0.11939924
-2.3419008	的 爭	-0.07564724
-2.1038697	議 點	-0.07564724
-2.0389202	一 點	-0.07564724
-2.3000631	的 原	-0.07564724
-1.5887021	時 原	-0.07564724
-0.83284193	怪 原	-0.07564724
-2.1792479	不 只	-0.07564724
-1.5775552	題 只	-0.07564724
-1.8114611	員 只	-0.07564724
-1.7851772	事 只	-0.07564724
-1.3033904	保 密	-0.07564724
-1.1309912	秘 密	-0.07564724
-1.7050352	人 甚	-0.07564724
-1.300909	論 甚	-0.07564724
-1.4213904	動 甚	-0.07564724
-1.4246683	已 花	-0.07564724
-1.3033904	小 花	-0.07564724
-1.9173013	項 工	-0.22286418
-1.1309912	始 工	-0.07564724
-2.2989695	這 數	-0.07564724
-1.6615157	道 俗	-0.07564724
-1.1323596	先 斬	-0.07564724
-1.3054273	後 奏	-0.07564724
-1.593529	理 解	-0.07564724
-1.6569052	了 解	-0.07564724
-0.48356396	商 業	-0.07564724
-1.4213904	築 業	-0.07564724
-1.1293212	解 業	-0.07564724
-0.6085485	業 界	-0.07564724
-0.90394604	其 他	-0.07564724
-1.9152625	為 他	-0.07564724
-1.676476	作 他	-0.07564724
-1.2894216	果 他	-0.07564724
-1.1215498	密 他	-0.07564724
-1.3033904	想 委	-0.07564724
-0.8336849	獲 委	-0.07564724
-1.9099674	項 進	-0.07564724
-1.707602	任 進	-0.07564724
-1.751948	司 進	-0.07564724
-1.7050352	作 出	-0.22286418
-1.9150462	提 出	-0.07564724
-1.5887021	交 出	-0.07564724
-1.7648358	以 較	-0.07564724
-0.8343744	較 低	-0.07564724
-2.3419008	的 價	-0.07564724
-0.8343744	價 錢	-0.07564724
-0.8343744	錢 承	-0.07564724
-1.7113556	作 並	-0.07564724
-1.5179479	容 並	-0.07564724
-1.5237011	得 更	-0.07564724
-1.7695397	關 注	-0.07564724
-1.6632805	與 Waters	-0.07564724
-0.8343744	Waters EconomicsLimited	-0.07564724
-1.751948	司 簽	-0.07564724
-0.83284193	EconomicsLimited 簽	-0.07564724
-0.83284193	Limited 簽	-0.07564724
-0.49847102	簽 訂	-0.16805781
-1.5212911	約 檢	-0.07564724
-1.7648358	用 途	-0.22286418
-1.8152486	問 報	-0.21521428
-1.8294369	多 內	-0.07564724
-2.2073963	的 內	-0.07564724
-1.4952838	但 內	-0.07564724
-1.4952838	些 內	-0.07564724
-1.7930009	件 內	-0.07564724
-0.22884937	內 容	-0.07564724
-2.2464538	不 全	-0.07564724
-2.2850108	我 稍	-0.07564724
-2.1440134	會 再	-0.07564724
-1.6569052	能 再	-0.07564724
-1.6632805	與 Ernst	-0.07564724
-0.8343744	Ernst YoungTransactions	-0.07564724
-0.8343744	YoungTransactions Limited	-0.07564724
-1.1323596	展 覽	-0.07564724
-1.5999042	行 性	-0.16805781
-1.3054273	出 研	-0.22286418
-0.8343744	研 究	-0.22286418
-1.7183386	此 外	-0.07564724
-2.3000631	的 立	-0.07564724
-1.5210466	成 立	-0.07564724
-1.8307409	料 立	-0.07564724
-1.5179479	該 核	-0.07564724
-1.7113556	人 核	-0.22286418
-1.3054273	小 組	-0.07564727
-1.8834815	多 少	-0.07564724
-1.300281	上 次	-0.07564724
-0.83086544	少 次	-0.07564724
-1.1254182	每 次	-0.07564724
-1.300281	今 次	-0.07564724
-2.0794303	是 每	-0.07564724
-1.5179479	和 每	-0.07564724
-1.8123828	年 初	-0.07564724
-1.7587469	局 董	-0.07564724
-1.625993	了 董	-0.07564724
-1.5792052	他 董	-0.07564724
-1.1215498	位 董	-0.07564724
-0.82889795	入 董	-0.07564724
-1.4246683	三 位	-0.22286418
-1.1309912	每 位	-0.07564724
-1.6722026	資 深	-0.22286418
-1.9515495	很 奇	-0.07564724
-0.8343744	奇 怪	-0.07564724
-2.2575455	有 辦	-0.07564724
-1.9758799	為 近	-0.07564724
-1.3033904	來 越	-0.07564724
-1.806918	年 越	-0.07564724
-1.8834815	多 獲	-0.07564724
-1.3078707	進 入	-0.07564724
-2.153663	會 批	-0.07564724
-0.8343744	批 評	-0.07564724
-2.1169505	府 擔	-0.07564724
-1.8560822	公 職	-0.07564724
-2.153663	會 覺	-0.07564724
-1.8462387	員 則	-0.07564724
-1.1309912	必 須	-0.07564724
-1.1309912	無 須	-0.07564724
-1.9792545	要 緊	-0.07564724
-1.4291645	重 申	-0.07564724
-1.8100402	都 被	-0.07564724
-0.8343744	被 刪	-0.07564724
-0.8343744	刪 去	-0.07564724
-1.3033904	甚 或	-0.07564724
-0.8336849	去 或	-0.07564724
-1.5179479	容 塗	-0.07564724
-1.1309912	或 塗	-0.07564724
-0.3084278	塗 黑	-0.07564724
-1.3054273	接 受	-0.07564724
-1.8462387	料 屬	-0.07564724
-1.4297898	業 敏	-0.07564724
-0.8343744	敏 感	-0.07564724
-1.804084	都 看	-0.07564724
-1.1309912	卻 看	-0.07564724
-1.4291645	由 負	-0.07564724
-0.8343744	負 責	-0.07564724
-0.8336849	責 監	-0.07564724
-0.8336849	效 監	-0.07564724
-0.3084278	監 察	-0.22286418
-0.7844585	知 悉	-0.07564724
-1.7648358	以 衡	-0.07564724
-0.8343744	衡 量	-0.07564724
-1.8123828	事 情	-0.07564724
-1.9764591	們 今	-0.07564724
-2.0884771	府 今	-0.07564724
-1.8002473	於 今	-0.07564724
-1.4297898	次 般	-0.07564724
-0.8343744	般 把	-0.07564724
-0.71938086	主 席	-0.07564727
-2.2850108	我 簡	-0.07564724
-0.8343744	簡 單	-0.07564724
-0.8343744	單 講	-0.07564724
-1.7236594	其 附	-0.07564724
-1.3054273	應 載	-0.07564724
-2.3225942	的 確	-0.07564724
-2.10392	府 確	-0.07564724
-2.2464538	不 肯	-0.07564724
-2.106503	會 便	-0.07564724
-1.2951273	快 便	-0.07564724
-1.2951273	物 便	-0.07564724
-1.8114611	料 便	-0.07564724
-1.6597903	到 無	-0.07564724
-1.4276263	便 無	-0.07564724
-2.2575455	有 效	-0.07564724
-2.2989695	這 正	-0.07564724
-1.9971629	們 擬	-0.07564724
-1.8903576	所 賦	-0.07564724
-0.8343744	賦 予	-0.07564724
-2.3419008	的 權	-0.07564724
-0.8343744	權 力	-0.07564724
-2.3419008	的 死	-0.07564724
-0.8343744	死 線	-0.07564724
-2.0483434	一 八	-0.07564724
-1.3013972	是 昨	-0.22286418
-0.48383927	今 天	-0.07564724
-0.8336849	昨 天	-0.07564724
-1.3054273	過 幸	-0.07564724
-2.3419008	的 延	-0.07564724
-0.8343744	延 續	-0.07564724
-1.4297898	天 仍	-0.07564724
-1.4273632	只 需	-0.07564724
-0.8343744	需 走	-0.07564724
-1.1323596	須 經	-0.07564724
-0.8343744	經 歷	-0.07564724
-1.5212911	何 艱	-0.07564724
-0.8343744	艱 辛	-0.07564724
-1.593529	說 找	-0.07564724
-1.5179479	它 找	-0.07564724
-1.9758799	為 那	-0.07564724
-1.4273632	否 願	-0.07564724
-1.8834815	多 謝	-0.07564724

\3-grams:
-0.54839987	多 謝 </s>
-0.76618254	個 很 大
-0.77225745	但 是 大
-0.7778881	目 不 大
-1.5382532	希 望 大
-0.90587753	這 麼 大
-1.6719986	文 件 大
-0.40404993	<s> 大 家
-0.40404993	是 大 家
-0.40404993	望 大 家
-0.40404993	件 大 家
-0.21386263	大 家 都
-0.54919636	的 人 都
-1.2012768	其 實 都
-1.2671298	成 員 都
-0.37878498	多 時 都
-1.2262691	內 容 都
-0.67367405	家 都 記
-0.7419974	舉 行 記
-0.3504251	都 記 得
-0.65208673	可 取 得
-0.69370407	並 做 得
-0.5468704	會 覺 得
-0.9730822	記 得 該
-0.7383952	以 及 該
-1.3360064	聘 用 該
-1.3671503	提 交 該
-1.2304065	紀 錄 該
-0.72490764	得 該 項
-0.98492295	大 的 項
-0.736455	來 的 項
-0.736455	中 的 項
-1.764029	西 九 項
-1.3118236	宮 館 項
-0.29151028	的 這 項
-0.6310328	對 這 項
-0.503354	在 這 項
-0.503354	論 這 項
-0.6310328	行 這 項
-0.503354	持 這 項
-0.503354	員 這 項
-0.503354	接 這 項
-0.6795249	這 一 項
-0.6795249	就 一 項
-0.96466625	為 何 項
-0.72490764	此 等 項
-0.76949596	該 項 協
-1.1511917	件 及 協
-0.59974647	這 項 議
-0.23974606	項 協 議
-0.23974606	及 協 議
-0.3791917	期 會 議
-0.3791917	演 會 議
-0.3791917	間 會 議
-0.23278885	及 會 議
-0.47144705	法 會 議
-0.23278885	括 會 議
-0.3791917	約 會 議
-0.23278885	次 會 議
-0.23278885	天 會 議
-0.7642181	或 在 議
-0.7072964	條 動 議
-1.4263496	所 有 議
-0.68532884	日 應 議
-0.6480391	的 提 議
-0.6480391	然 提 議
-0.6480391	個 提 議
-0.4323312	為 陳 議
-0.4323312	作 陳 議
-0.3075296	淑 莊 議
-0.5408813	的 爭 議
-0.72231925	用 該 公
-1.0472776	協 議 公
-0.5352323	一 些 公
-0.83490753	公 眾 公
-1.0738671	顧 問 公
-0.72231925	該 等 公
-0.74794114	動 用 公
-0.74478555	擔 任 公
-0.73710513	能 向 公
-0.52794045	上 述 公
-0.7652422	議 公 布
-0.24188292	會 宣 布
-0.24188292	然 宣 布
-0.69491386	公 布 後
-0.5477328	先 斬 後
-0.5477328	我 稍 後
-1.1534339	提 議 我
-0.666771	布 後 我
-1.1358312	其 實 我
-0.47827888	期 讓 我
-0.47827888	不 讓 我
-0.47827888	告 讓 我
-0.7009192	料 但 我
-0.7486418	正 是 我
-0.6275466	已 久 我
-0.79599005	問 題 我
-0.5881024	所 以 我
-0.72527397	使 用 我
-0.68779695	公 開 我
-0.6275466	總 之 我
-0.69124043	方 面 我
-0.5084095	全 面 我
-0.7239284	因 此 我
-0.6275466	奏 據 我
-1.5170113	文 件 我
-0.68779695	服 務 我
-0.7098929	白 說 我
-0.52749443	府 給 我
-0.68779695	贅 述 我
-0.963292	存 檔 我
-0.30972487	告 訴 我
-0.30190605	研 究 我
-0.52749443	要 緊 我
-0.80737126	塗 黑 我
-0.963292	主 席 我
-0.52749443	延 續 我
-0.7279347	議 我 想
-0.7279347	後 我 想
-1.499776	沒 有 想
-1.95118	政 府 想
-0.7761968	此 我 很
-0.36075962	我 想 很
-0.7612185	我 在 很
-1.0549015	得 這 很
-0.74833286	詢 也 很
-0.6412463	一 直 很
-0.94837177	實 有 很
-0.7154514	亦 有 很
-1.207811	一 個 很
-1.322042	我 們 很
-0.5383396	保 留 很
-0.68178827	主 意 很
-0.6412463	索 取 很
-1.5338563	資 料 很
-0.70691097	料 便 很
-0.27616015	想 很 多
-0.27616015	有 很 多
-0.27616015	們 很 多
-0.46903014	留 很 多
-0.46903014	取 很 多
-0.77970713	覽 的 多
-0.72719574	檢 討 多
-1.8072844	我 們 多
-0.7426538	開 了 多
-1.1678206	議 案 多
-0.6488061	來 越 多
-1.5267037	很 多 香
-0.7723197	目 在 香
-1.4272952	知 道 香
-0.37011036	多 香 港
-0.37011036	在 香 港
-0.37011036	道 香 港
-1.0132545	香 港 人
-0.73883194	局 的 人
-0.98914385	府 的 人
-0.73883194	職 的 人
-0.723779	果 有 人
-1.2542982	沒 有 人
-1.8999972	政 府 人
-0.4335937	該 五 人
-0.4335937	立 五 人
-0.8416486	業 界 人
-0.74655706	港 人 其
-0.72604907	館 讓 其
-0.68889844	員 而 其
-0.72490764	告 等 其
-0.73439664	案 及 其
-0.74497986	原 因 其
-1.6627846	文 件 其
-0.6477181	司 ) 其
-0.4371069	人 其 實
-0.4371069	因 其 實
-0.4371069	件 其 實
-0.4371069	) 其 實
-0.6531858	決 定 實
-0.6531858	府 確 實
-1.214154	其 實 未
-0.5480999	實 未 必
-1.2751558	此 事 必
-0.6540365	未 必 真
-0.5375947	很 大 的
-0.5375947	麼 大 的
-0.98020256	會 議 的
-0.6711387	動 議 的
-0.5217649	必 真 的
-1.5878978	西 九 的
-0.7716812	宮 館 的
-1.2813956	項 目 的
-1.2532054	事 局 的
-0.74708664	載 有 的
-1.5768372	我 們 的
-0.70120275	良 好 的
-1.14894	可 能 的
-0.635067	場 地 的
-0.5217649	休 憩 的
-1.320366	政 府 的
-0.6588948	下 來 的
-0.620345	行 中 的
-0.5217649	建 新 的
-0.6588948	想 過 的
-0.706756	對 面 的
-1.3300622	議 員 的
-1.2583208	公 司 的
-0.94783837	物 院 的
-1.2151619	有 關 的
-1.0507334	資 料 的
-0.92126775	提 供 的
-0.5217649	較 低 的
-0.5217649	關 注 的
-0.9287845	簽 訂 的
-1.1240134	內 容 的
-0.5217649	展 覽 的
-0.94783837	小 組 的
-0.5217649	公 職 的
-0.5217649	事 情 的
-0.5217649	賦 予 的
-0.993016	人 都 會
-0.67595077	稍 後 會
-0.7642728	真 的 會
-0.9405486	日 期 會
-0.9402217	我 不 會
-0.9402217	是 不 會
-0.71066594	它 不 會
-1.092515	諮 詢 會
-0.6488396	可 能 會
-1.0774933	表 演 會
-0.63592595	時 間 會
-1.7292227	政 府 會
-0.5340345	件 及 會
-0.53413624	九 將 會
-0.17683966	向 本 會
-0.3660206	立 法 會
-0.53413624	招 待 會
-0.6992902	包 括 會
-1.2361602	合 約 會
-0.4267637	少 次 會
-0.4267637	每 次 會
-0.53108394	今 天 會
-0.53108394	昨 天 會
-0.78053164	的 會 反
-0.7586931	實 都 對
-0.5460097	會 反 對
-0.8082408	市 民 對
-0.6509904	民 均 對
-0.7460446	走 到 對
-0.7769029	久 我 在
-1.1986257	不 會 在
-0.721019	反 對 在
-0.65716535	布 要 在
-0.65716535	我 要 在
-1.3926874	項 目 在
-0.4299027	也 曾 在
-0.4299027	何 曾 在
-0.99595374	藝 術 在
-0.7566645	題 所 在
-1.441772	議 員 在
-0.7346154	組 就 在
-1.2904721	有 關 在
-0.7048105	題 只 在
-0.64231825	甚 或 在
-0.95979923	記 得 西
-0.896142	宣 布 西
-0.37405825	民 對 西
-0.4139002	對 在 西
-0.5147926	要 在 西
-0.5147926	曾 在 西
-0.4139002	術 在 西
-0.4139002	就 在 西
-0.4139002	關 在 西
-0.8584249	成 為 西
-0.79161555	認 為 西
-1.0429552	因 為 西
-1.1142328	諮 詢 西
-1.5129275	希 望 西
-1.1253796	雖 然 西
-0.7060517	第 三 西
-0.72209877	第 二 西
-0.7438264	第 四 西
-0.5400324	此 外 西
-0.06721293	得 西 九
-0.06721293	布 西 九
-0.04680075	對 西 九
-0.023185896	在 西 九
-0.035260186	為 西 九
-0.06721293	詢 西 九
-0.06721293	望 西 九
-0.06721293	然 西 九
-0.06721293	三 西 九
-0.06721293	二 西 九
-0.06721293	四 西 九
-0.06721293	外 西 九
-0.79895824	西 九 興
-0.7486791	曾 就 興
-0.78233373	面 的 建
-0.08908398	九 興 建
-0.24126679	就 興 建
-1.4586089	這 是 建
-1.1249626	一 些 建
-0.5460097	李 嚴 建
-0.2676104	興 建 故
-1.125254	處 理 故
-0.4652218	北 京 故
-0.124672234	建 故 宮
-0.37011036	理 故 宮
-0.2335123	京 故 宮
-0.3066001	故 宮 館
-1.1358935	博 物 館
-1.3256426	宮 館 讓
-0.9714831	日 期 讓
-0.7802372	黑 不 讓
-0.7383952	間 好 讓
-1.1201653	報 告 讓
-0.752461	讓 其 成
-0.7648885	事 局 成
-0.5460097	快 落 成
-0.7517167	十 月 成
-0.3096573	資 深 成
-1.2092016	提 議 為
-0.48512596	其 成 為
-0.48512596	落 成 為
-0.18232082	我 認 為
-0.18232082	局 認 為
-0.12162975	民 認 為
-0.12162975	們 認 為
-0.18232082	府 認 為
-0.7479236	地 作 為
-0.71231115	有 否 為
-0.28726822	題 因 為
-0.28726822	談 因 為
-0.28726822	法 因 為
-0.28726822	見 因 為
-0.28726822	做 因 為
-1.4036642	知 道 為
-1.5201855	很 多 重
-0.783653	九 的 重
-1.0135779	在 此 重
-0.3504251	非 常 重
-1.5570245	這 項 要
-0.89807165	宣 布 要
-0.77831864	但 我 要
-1.7396631	西 九 要
-0.43862164	多 重 要
-0.43862164	的 重 要
-0.2619989	常 重 要
-1.0684377	也 不 要
-0.9505357	府 不 要
-1.1991369	我 們 要
-1.8261734	政 府 要
-0.68532884	表 下 要
-0.7912793	議 員 要
-0.5408813	權 力 要
-1.3088037	重 要 部
-1.3773179	提 交 部
-1.4251044	提 供 部
-0.37011036	要 部 分
-0.37011036	交 部 分
-0.37011036	供 部 分
-1.0183268	部 分 但
-0.5468704	設 計 但
-1.2385778	文 件 但
-1.6176572	資 料 但
-1.0019554	人 都 是
-1.6607285	會 議 是
-0.71591496	分 但 是
-0.83759207	為 這 是
-0.5763593	然 這 是
-0.5763593	於 這 是
-0.5763593	說 這 是
-0.5763593	錄 這 是
-0.5763593	道 這 是
-1.0436527	來 不 是
-0.7513994	方 可 是
-0.5374957	始 終 是
-1.7749982	政 府 是
-0.5374957	公 帑 是
-0.7059185	日 即 是
-0.5374957	答 覆 是
-0.7023388	事 只 是
-0.5374957	這 正 是
-0.5374957	死 線 是
-0.5374957	為 那 是
-0.47203335	取 得 這
-0.47203335	覺 得 這
-1.0600747	議 的 這
-0.7129751	員 的 這
-1.1634243	不 會 這
-0.47203335	都 對 這
-0.47203335	均 對 這
-0.7484546	員 在 這
-1.6287419	西 九 這
-0.6544885	認 為 這
-1.0017798	因 為 這
-0.963292	討 論 這
-1.0532501	處 理 這
-1.0181992	實 有 這
-1.0789859	當 然 這
-1.1639816	一 個 這
-0.7164182	拖 了 這
-1.6500143	政 府 這
-1.1082094	由 於 這
-0.666771	談 談 這
-0.5084095	實 行 這
-0.63782966	進 行 這
-0.80737126	支 持 這
-1.1812139	成 員 這
-0.41941756	提 供 這
-0.7098929	點 說 這
-1.1474098	紀 錄 這
-1.3016447	知 道 這
-0.7672217	不 到 這
-0.5363941	看 到 這
-0.666771	承 接 這
-0.963292	萬 元 這
-0.80737126	知 悉 這
-1.724147	西 九 一
-1.2897264	宮 館 一
-1.1325347	這 是 一
-0.684209	終 是 一
-0.77542514	九 這 一
-0.5391852	策 劃 一
-0.73601985	目 與 一
-0.36519775	為 另 一
-0.36519775	但 另 一
-0.36519775	是 另 一
-1.6194371	文 件 一
-0.09332049	二 零 一
-0.8918845	六 年 一
-0.6052672	八 年 一
-0.7346154	到 就 一
-1.1632833	包 括 一
-0.5391852	道 俗 一
-0.23926593	的 項 目
-0.38104206	九 項 目
-0.38104206	館 項 目
-0.47373646	一 項 目
-0.38104206	何 項 目
-0.38104206	等 項 目
-0.5480999	這 數 目
-1.0157833	香 港 討
-0.76231045	仍 可 討
-0.69389933	和 商 討
-0.6509904	秘 密 討
-0.5460097	約 檢 討
-0.49461663	港 討 論
-0.49461663	可 討 論
-0.49461663	密 討 論
-1.0183268	討 論 已
-1.1523108	雖 然 已
-0.65208673	甚 至 已
-1.9334403	政 府 已
-0.7179272	論 已 久
-0.91467965	這 麼 久
-0.7710824	在 很 早
-0.5480999	算 最 早
-0.65208673	很 早 期
-1.2388695	很 有 期
-0.65208673	供 前 期
-0.3721348	議 日 期
-0.64663273	最 早 也
-0.72361153	早 期 也
-1.1238836	諮 詢 也
-0.73995775	花 了 也
-0.6877053	求 下 也
-0.90195704	不 過 也
-0.6085843	麼 事 也
-0.89832515	此 事 也
-0.72361153	檔 它 也
-0.8365831	業 界 也
-0.7306815	不 大 不
-0.98209447	時 都 不
-1.0643096	題 我 不
-0.7148744	說 我 不
-0.6734448	都 是 不
-0.6734448	那 是 不
-1.287879	為 這 不
-0.72918904	數 目 不
-0.6004815	期 也 不
-0.6004815	下 也 不
-0.7670512	事 也 不
-0.75832003	能 有 不
-0.6617249	他 們 不
-0.72025394	小 了 不
-1.0651547	表 演 不
-1.3649448	政 府 不
-0.3567791	原 來 不
-1.3796979	議 員 不
-0.7136712	料 時 不
-1.1993988	此 事 不
-1.4636396	資 料 不
-0.7046199	望 它 不
-0.5299732	都 拿 不
-0.6306699	容 並 不
-0.8121054	塗 黑 不
-0.6306699	卻 看 不
-0.91742945	昨 天 不
-0.23646931	說 找 不
-0.23646931	它 找 不
-1.236204	也 不 算
-0.54839987	不 算 最
-0.7602645	早 也 曾
-1.51074	理 局 曾
-1.0991932	任 何 曾
-0.5468704	年 初 曾
-0.9080736	協 議 文
-1.0139482	會 議 文
-0.39013386	供 的 文
-0.51638776	西 九 文
-1.2790633	重 要 文
-1.000827	部 分 文
-1.5434678	這 些 文
-1.218586	一 個 文
-0.8914632	有 關 文
-0.36739242	相 關 文
-1.1125597	資 料 文
-0.9806977	其 他 文
-0.5408813	般 把 文
-0.10126182	九 文 化
-0.6285682	個 文 化
-0.5480999	為 綠 化
-0.15456012	文 化 區
-1.0219777	藝 術 區
-0.10326393	化 區 管
-0.7833104	據 我 理
-0.09406313	區 管 理
-1.0991932	任 何 理
-0.3692983	以 處 理
-0.3692983	別 處 理
-0.3692983	式 處 理
-0.10925517	管 理 局
-0.74078166	使 當 局
-0.53195906	事 務 局
-0.19351284	董 事 局
-1.5910578	這 項 諮
-0.77591324	只 是 諮
-1.51074	理 局 諮
-0.9822855	行 性 諮
-0.24423693	項 諮 詢
-0.24423693	是 諮 詢
-0.24423693	局 諮 詢
-0.24423693	性 諮 詢
-0.78053164	詢 會 策
-0.54839987	會 策 劃
-0.8078299	得 這 些
-0.6278497	有 這 些
-0.175609	供 這 些
-0.3416474	到 這 些
-0.6278497	悉 這 些
-0.6880917	劃 一 些
-0.6880917	與 一 些
-0.6880917	括 一 些
-0.80821645	些 公 眾
-0.62810504	向 公 眾
-0.8481031	公 眾 參
-1.4371741	項 目 與
-1.4986705	理 局 與
-0.54515076	眾 參 與
-0.7316394	一 月 與
-0.57604	七 月 與
-0.7440081	長 就 與
-0.71357393	不 只 與
-0.74933636	參 與 活
-0.5468704	與 活 動
-0.7397363	涉 及 動
-0.7306539	不 主 動
-0.84505874	三 條 動
-0.7173845	活 動 而
-1.2516559	場 地 而
-1.2809182	成 員 而
-0.9546599	很 多 市
-0.7294981	好 讓 市
-0.6924977	動 而 市
-0.7804987	望 有 市
-0.90983367	不 同 市
-0.12211965	多 市 民
-0.18311174	讓 市 民
-0.18311174	而 市 民
-0.18311174	有 市 民
-0.18311174	同 市 民
-0.37720153	長 和 民
-0.77588373	九 一 直
-0.75448394	六 月 直
-0.6448722	這 很 有
-0.6448722	直 很 有
-0.6448722	便 很 有
-0.7251011	其 實 有
-0.51114696	確 實 有
-0.7602382	將 會 有
-1.421163	認 為 有
-0.7092032	商 討 有
-1.2475952	市 民 有
-0.7215401	盼 望 有
-1.182675	可 能 有
-1.2692386	所 以 有
-0.5308026	施 亦 有
-1.6878152	政 府 有
-1.2588352	聘 用 有
-0.6279178	的 所 有
-0.6279178	和 所 有
-0.35100394	交 所 有
-1.1165284	如 果 有
-0.119863115	也 沒 有
-0.17947291	們 沒 有
-0.17947291	前 沒 有
-0.17947291	說 沒 有
-0.17947291	它 沒 有
-1.0730667	方 面 有
-0.69259036	無 法 有
-1.2849907	提 交 有
-0.6782922	保 存 有
-0.90998656	即 使 有
-1.1641393	不 到 有
-0.67133665	交 出 有
-0.5308026	應 載 有
-0.73144704	有 期 望
-0.12207253	我 希 望
-0.1830357	不 希 望
-0.1830357	然 希 望
-0.0703936	們 希 望
-0.1830357	容 希 望
-0.5477328	同 盼 望
-1.4371741	項 目 當
-0.7440081	期 望 當
-1.8186923	我 們 當
-1.8999972	政 府 當
-0.94516665	即 使 當
-0.54515076	重 申 當
-0.5319285	目 當 然
-0.5319285	望 當 然
-0.5319285	們 當 然
-0.36975634	久 雖 然
-0.36975634	錄 雖 然
-0.36975634	解 雖 然
-0.24177484	人 突 然
-0.24177484	卻 突 然
-0.7718316	議 為 另
-0.9760878	件 但 另
-1.470559	這 是 另
-1.470559	這 是 個
-0.7332691	理 這 個
-0.7332691	談 這 個
-0.97929335	行 這 個
-0.68766433	館 一 個
-0.36274981	是 一 個
-1.0056701	另 一 個
-0.73721886	注 的 問
-0.73721886	情 的 問
-0.5359987	很 有 問
-1.2542982	沒 有 問
-0.79836076	這 個 問
-0.83634025	一 個 問
-1.6814123	文 件 問
-0.54515076	個 老 問
-0.07200646	的 顧 問
-0.10481856	期 顧 問
-0.07200646	及 顧 問
-0.10481856	關 顧 問
-0.10481856	聘 顧 問
-0.10481856	築 顧 問
-0.10481856	元 顧 問
-0.07200646	訂 顧 問
-0.23775846	的 問 題
-0.24342026	有 問 題
-0.23775846	個 問 題
-0.3890174	件 問 題
-0.3890174	老 問 題
-0.26887694	實 我 們
-0.17699361	讓 我 們
-0.26887694	是 我 們
-0.3646667	題 我 們
-0.24138609	以 我 們
-0.26887694	用 我 們
-0.26887694	之 我 們
-0.33866692	面 我 們
-0.26887694	務 我 們
-0.26887694	給 我 們
-0.26887694	述 我 們
-0.17699361	訴 我 們
-0.17319512	究 我 們
-0.26887694	緊 我 們
-0.26887694	黑 我 們
-0.26887694	續 我 們
-0.36289066	為 他 們
-0.36289066	作 他 們
-0.36289066	果 他 們
-0.36289066	密 他 們
-0.7266738	件 我 希
-0.7266738	檔 我 希
-1.065809	我 不 希
-1.1488516	當 然 希
-0.81899726	我 們 希
-1.2304065	內 容 希
-1.4607226	項 目 盡
-1.9589467	政 府 盡
-0.7710824	料 很 快
-0.24188292	目 盡 快
-0.24188292	府 盡 快
-0.91537774	盡 快 落
-0.8670113	成 為 何
-0.66603565	道 為 何
-0.584093	有 任 何
-0.584093	信 任 何
-0.584093	歷 任 何
-1.463182	項 目 拖
-1.1304387	諮 詢 了
-0.5442935	目 拖 了
-0.6900949	縮 小 了
-0.7479236	多 作 了
-0.71231115	它 開 了
-0.71231115	講 述 了
-0.6488061	小 花 了
-0.7316755	個 這 麼
-0.7316755	了 這 麼
-0.69542915	人 甚 麼
-0.6531858	麼 久 雖
-1.2388014	紀 錄 雖
-0.6531858	了 解 雖
-0.71837085	然 已 敲
-0.5480999	已 敲 定
-0.5480999	好 決 定
-0.6536539	敲 定 設
-0.73200756	館 等 設
-0.6540365	定 設 計
-0.73246586	計 但 規
-0.54839987	但 規 模
-0.767285	意 很 好
-0.54515076	規 模 好
-0.54515076	備 良 好
-0.6498969	空 間 好
-0.54515076	得 更 好
-0.54515076	過 幸 好
-0.7416547	模 好 像
-0.6536539	能 再 像
-0.6540365	好 像 縮
-0.7825991	大 不 小
-0.5477328	像 縮 小
-0.36051577	核 心 小
-0.72537404	有 不 同
-0.72537404	了 不 同
-1.1266435	處 理 同
-0.39051446	館 的 可
-1.7476342	西 九 可
-0.75306624	它 也 可
-1.0545896	是 不 可
-1.2944484	他 們 可
-0.7109037	地 方 可
-0.738616	約 就 可
-0.94062513	商 業 可
-0.43148077	快 便 可
-0.43148077	物 便 可
-0.54173183	天 仍 可
-0.6669515	這 不 能
-0.6669515	員 不 能
-0.6669515	時 不 能
-0.6669515	料 不 能
-0.5092174	九 可 能
-0.5092174	也 可 能
-0.5092174	不 可 能
-0.5092174	們 可 能
-0.91537774	不 同 盼
-1.2409472	以 我 認
-0.75820446	當 局 認
-0.8082408	市 民 認
-1.356528	我 們 認
-1.916397	政 府 認
-1.8118947	西 九 始
-0.7179272	司 開 始
-0.6540365	九 始 終
-1.488076	文 化 藝
-0.6262163	表 演 藝
-0.24197122	化 藝 術
-0.15761206	演 藝 術
-0.6531858	術 區 應
-0.7670269	件 所 應
-0.7173845	十 日 應
-0.69585043	區 應 具
-1.4607226	項 目 備
-0.5480999	應 具 備
-0.6540365	具 備 良
-0.78101844	好 的 表
-0.74929446	用 作 表
-0.6498969	粵 曲 表
-0.54515076	一 種 表
-0.54515076	長 代 表
-0.54515076	其 附 表
-0.36303425	的 表 演
-0.36303425	作 表 演
-0.36303425	曲 表 演
-0.36303425	種 表 演
-0.78497624	新 的 場
-1.0208853	藝 術 場
-0.3103689	用 途 場
-0.78233373	憩 的 地
-0.36884075	的 場 地
-0.36884075	術 場 地
-0.22749351	途 場 地
-0.5460097	多 土 地
-0.75483954	七 用 地
-0.6509904	同 樣 地
-1.2369554	場 地 以
-0.71231115	會 否 以
-0.4330126	在 所 以
-0.4330126	目 所 以
-0.4330126	好 所 以
-0.4330126	務 所 以
-0.4330126	錄 所 以
-0.5442935	案 藉 以
-1.5907768	資 料 以
-1.2844553	合 約 以
-0.6900949	提 出 以
-0.7582253	地 以 至
-0.69542915	論 甚 至
-0.79508054	故 宮 博
-0.6536539	以 至 博
-0.16094872	宮 博 物
-0.24188292	至 博 物
-1.1453037	建 築 物
-0.7288195	及 該 等
-0.7383952	物 館 等
-1.3456185	為 這 等
-0.7511156	為 此 等
-1.1201653	報 告 等
-0.6540365	等 設 施
-0.54839987	設 施 亦
-0.7720969	九 要 保
-1.499776	沒 有 保
-0.6531858	必 須 保
-0.69585043	要 保 留
-1.5318054	很 多 土
-0.76239145	們 多 作
-0.7440081	土 地 作
-0.75345105	可 用 作
-0.9468888	的 合 作
-0.15704955	項 工 作
-0.24101298	始 工 作
-0.49568075	行 性 作
-0.7727843	作 為 綠
-0.69585043	綠 化 空
-0.5480999	化 空 間
-0.7416547	的 時 間
-0.78383154	民 有 休
-0.54839987	有 休 憩
-0.783653	目 的 方
-1.0718701	對 這 方
-0.99702823	另 一 方
-0.6834876	件 一 方
-0.7467295	的 地 方
-1.172149	提 議 政
-0.9793159	香 港 政
-0.763011	能 的 政
-1.0188621	曾 在 政
-0.756762	可 是 政
-0.67479265	地 而 政
-0.3700243	和 民 政
-0.36178964	希 望 政
-1.1000214	雖 然 政
-0.9384211	為 何 政
-0.725404	代 表 政
-0.7418264	在 於 政
-0.55667055	如 果 政
-0.7323957	時 任 政
-0.3121125	要 求 政
-1.4903799	資 料 政
-1.3346938	知 道 政
-0.63486964	議 點 政
-0.53330046	批 評 政
-0.3043574	監 察 政
-0.11397646	議 政 府
-0.11397646	港 政 府
-0.11397646	的 政 府
-0.11397646	在 政 府
-0.11397646	是 政 府
-0.11397646	而 政 府
-0.069972284	望 政 府
-0.11397646	然 政 府
-0.11397646	何 政 府
-0.11397646	表 政 府
-0.11397646	於 政 府
-0.079556696	果 政 府
-0.069972284	求 政 府
-0.11397646	料 政 府
-0.11397646	道 政 府
-0.11397646	點 政 府
-0.11397646	評 政 府
-0.0780349	察 政 府
-0.78433377	開 我 卻
-1.9589467	政 府 卻
-1.0165571	有 人 突
-0.6536539	府 卻 突
-0.78018457	待 會 宣
-1.0165571	突 然 宣
-1.1585099	當 然 涉
-0.75483954	約 以 及
-0.5460097	然 涉 及
-1.1750795	議 案 及
-1.0973244	文 件 及
-0.80111146	合 約 及
-0.6356561	的 多 用
-0.6356561	討 多 用
-0.71357393	及 動 用
-0.76120687	就 可 用
-0.71357393	十 七 用
-0.71357393	的 使 用
-0.24066491	項 聘 用
-0.24066491	要 聘 用
-0.24066491	就 聘 用
-0.24066491	接 聘 用
-0.24066491	元 聘 用
-0.7655836	用 公 帑
-0.77975994	府 會 否
-0.6942317	府 是 否
-0.6942317	帑 是 否
-0.7829005	府 有 否
-0.7397363	何 理 由
-1.8424485	我 們 由
-0.9494993	是 否 由
-0.7397363	則 說 由
-0.7672385	只 在 於
-0.71291393	局 曾 於
-0.5464626	理 局 於
-0.72490764	這 等 於
-0.44033688	們 由 於
-0.44033688	否 由 於
-0.44033688	說 由 於
-0.54343796	先 鑒 於
-0.6477181	士 ) 於
-1.0082407	小 組 於
-1.4731421	這 是 北
-0.56099284	局 與 北
-0.56099284	就 與 北
-0.56099284	只 與 北
-0.24197122	是 北 京
-0.16100182	與 北 京
-0.74191236	附 表 下
-1.0482525	北 京 下
-1.4428393	要 求 下
-0.69491386	京 下 來
-0.36073127	時 原 來
-0.36073127	怪 原 來
-0.6531858	年 越 來
-0.77320933	組 的 所
-0.7632159	所 在 所
-1.3987705	項 目 所
-0.7721952	面 有 所
-1.3943343	問 題 所
-0.7291218	更 好 所
-0.83157593	三 條 所
-1.6277674	文 件 所
-1.080298	事 務 所
-0.7197462	席 和 所
-0.71885365	提 交 所
-1.2022398	紀 錄 所
-0.7834128	以 有 特
-0.7542194	現 任 特
-0.6540365	有 特 別
-0.7576299	否 以 處
-0.5477328	特 別 處
-0.5477328	方 式 處
-0.78463805	會 這 樣
-0.69542915	理 同 樣
-0.74915534	樣 地 撇
-0.7638437	眾 公 開
-0.5468704	地 撇 開
-1.4171054	公 司 開
-0.73013127	道 它 開
-0.7179272	撇 開 粵
-0.5480999	粵 劇 粵
-0.6540365	開 粵 劇
-0.6536539	劇 粵 曲
-0.5480999	有 戲 曲
-0.7825991	演 不 談
-0.69491386	再 談 談
-0.6531858	會 再 談
-1.4207231	問 題 因
-0.6900949	不 談 因
-0.5442935	懷 疑 因
-0.71231115	辦 法 因
-0.6488061	意 見 因
-0.6900949	樣 做 因
-0.69213724	的 原 因
-1.8151447	西 九 將
-0.78383154	會 有 戲
-0.6536539	戲 曲 中
-0.9947931	進 行 中
-0.6536539	曲 中 心
-0.24188292	該 核 心
-0.15756026	人 核 心
-1.3011755	重 要 如
-0.6509904	中 心 如
-1.1750795	議 案 如
-1.4107621	公 司 如
-0.5460097	艱 辛 如
-0.18317382	要 如 果
-0.18317382	心 如 果
-0.18317382	案 如 果
-0.18317382	司 如 果
-0.18317382	辛 如 果
-0.7757968	過 的 提
-0.9231827	能 會 提
-0.18601257	本 會 提
-0.7085446	府 已 提
-0.99809057	突 然 提
-1.1350871	這 個 提
-0.90001005	盡 快 提
-0.8158334	政 府 提
-0.9766223	當 時 提
-0.6455501	發 展 提
-0.54173183	不 肯 提
-1.2160797	另 一 種
-1.4230385	興 建 新
-1.3456185	為 這 主
-1.065809	府 不 主
-1.548812	希 望 主
-0.7383952	幸 好 主
-0.84335035	知 悉 主
-0.7829005	用 有 意
-0.7318128	這 主 意
-0.5477328	否 願 意
-0.7421233	很 好 決
-0.7391736	定 實 行
-0.34086025	的 可 行
-0.62571764	業 可 行
-0.5460097	日 舉 行
-0.3599122	項 進 行
-0.3599122	司 進 行
-0.5460097	們 擬 行
-1.1579583	這 個 之
-0.5480999	謊 總 之
-0.6536539	個 之 前
-1.4268296	提 供 前
-0.61183727	了 也 沒
-0.61183727	過 也 沒
-1.830408	我 們 沒
-0.6509904	之 前 沒
-0.7383952	也 說 沒
-0.7288195	是 它 沒
-0.69542915	有 想 過
-0.72537404	事 不 過
-0.72537404	天 不 過
-0.71876836	的 方 式
-1.3256073	市 民 均
-1.5101207	議 員 均
-0.73083496	到 對 面
-0.43465412	這 方 面
-0.26011214	一 方 面
-0.65208673	院 見 面
-0.5468704	不 全 面
-0.7678375	有 所 懷
-0.54839987	所 懷 疑
-0.66281813	會 在 此
-0.86191154	要 在 此
-0.76693	否 為 此
-1.4207231	問 題 此
-1.1644002	由 於 此
-0.7458351	疑 因 此
-0.92138255	知 道 此
-1.1143993	報 告 此
-0.7710824	我 很 支
-0.6536539	員 均 支
-0.24197122	很 支 持
-0.24197122	均 支 持
-1.5139549	認 為 陳
-0.7467295	述 了 陳
-0.7520493	合 作 陳
-0.84505874	支 持 陳
-0.43580317	了 陳 淑
-0.43580317	持 陳 淑
-0.31064397	陳 淑 莊
-0.8535528	會 議 員
-0.4964215	在 議 員
-0.4964215	有 議 員
-0.4964215	應 議 員
-0.288464	陳 議 員
-0.288464	莊 議 員
-0.7534333	府 人 員
-0.28434858	局 成 員
-0.28434858	深 成 員
-1.5125924	議 員 根
-0.5480999	員 根 據
-0.5480999	後 奏 據
-0.6536539	根 據 基
-0.7179272	行 使 基
-0.24188292	據 基 本
-0.24188292	使 基 本
-0.24149166	府 向 本
-0.24149166	司 向 本
-0.24149166	求 向 本
-0.24149166	宜 向 本
-0.24149166	次 向 本
-0.3504251	基 本 法
-0.36032152	的 立 法
-0.36032152	料 立 法
-0.5468704	有 辦 法
-0.65208673	便 無 法
-1.3088037	重 要 第
-0.9686249	問 題 第
-0.37254548	本 法 第
-1.5878184	零 一 七
-0.3721348	法 第 七
-1.0213729	四 十 七
-1.0282298	五 年 七
-0.3717245	第 七 十
-0.38726354	月 二 十
-0.9048628	六 年 十
-0.7839523	五 年 十
-0.57679975	六 四 十
-0.57679975	P 四 十
-0.38267124	百 五 十
-0.76708585	事 局 三
-0.951682	題 第 三
-0.3301715	七 十 三
-0.83526826	二 十 三
-0.53315324	十 三 條
-0.26227465	項 議 案
-1.0219777	存 檔 案
-1.185346	議 案 藉
-0.75871205	藉 以 索
-1.0368614	便 可 取
-0.5480999	以 索 取
-0.110210665	議 文 件
-0.10802567	的 文 件
-0.16056992	要 文 件
-0.16056992	分 文 件
-0.16056992	些 文 件
-0.0627217	關 文 件
-0.10802567	料 文 件
-0.16056992	他 文 件
-0.16056992	把 文 件
-0.6536539	任 特 首
-1.7152954	文 件 首
-1.4731421	這 是 先
-0.6536539	件 首 先
-0.6540365	首 先 鑒
-0.9546599	很 多 時
-1.2328635	議 的 時
-0.5240364	府 當 時
-0.5240364	申 當 時
-0.7591722	鑒 於 時
-1.608511	資 料 時
-0.7769206	到 有 任
-0.73439664	於 時 任
-0.54343796	即 現 任
-0.34886596	局 常 任
-0.68889844	相 信 任
-0.6477181	獲 委 任
-0.54343796	府 擔 任
-0.54343796	經 歷 任
-1.3370924	望 政 務
-0.7067202	任 政 務
-1.3370924	求 政 務
-0.33634308	政 事 務
-0.61360794	師 事 務
-0.5477328	問 服 務
-0.4133764	該 公 司
-0.5141319	些 公 司
-0.249839	問 公 司
-0.4133764	等 公 司
-0.249839	述 公 司
-0.3831547	政 務 司
-0.39626125	務 司 司
-0.39644903	司 司 長
-0.35098192	秘 書 長
-1.1033136	司 長 (
-0.6536539	人 士 (
-0.73013127	檔 案 即
-0.65208673	長 ( 即
-0.7161106	四 日 即
-0.5468704	接 受 即
-0.71876836	( 即 現
-0.6540365	特 首 林
-0.54839987	首 林 鄭
-0.38894454	年 一 月
-0.71231115	年 七 月
-1.0144144	年 十 月
-0.5442935	林 鄭 月
-0.7275382	十 二 月
-0.6900949	年 六 月
-0.7494476	年 四 月
-0.7548815	鄭 月 娥
-0.54839987	月 娥 女
-0.754023	界 人 士
-0.5480999	娥 女 士
-1.4263088	公 司 )
-0.6536539	女 士 )
-0.7746912	線 是 二
-0.48720008	曾 於 二
-0.19841662	局 於 二
-0.48720008	) 於 二
-0.48720008	組 於 二
-0.7148404	要 第 二
-1.0190411	年 十 二
-0.74076825	一 月 二
-0.5823997	二 月 二
-0.5823997	四 月 二
-0.48735878	是 二 零
-0.10215394	於 二 零
-0.5574339	零 一 六
-1.0237174	四 十 六
-1.2735167	六 年 六
-0.71357393	一 七 年
-0.24653618	一 六 年
-1.262122	六 年 年
-0.3717546	一 五 年
-0.54515076	為 近 年
-0.54515076	一 八 年
-1.1703362	會 議 日
-1.1639619	二 十 日
-1.0997542	十 三 日
-0.75285566	十 四 日
-0.71837085	三 日 舉
-0.6540365	行 記 者
-0.54839987	記 者 招
-0.54839987	者 招 待
-0.48666918	博 物 院
-0.74079543	院 的 合
-0.74079543	訂 的 合
-0.68445694	顧 問 合
-0.9138262	書 信 合
-0.4871425	項 要 求
-0.29153895	們 要 求
-0.4871425	下 要 求
-0.29153895	員 要 求
-0.4871425	力 要 求
-1.734265	會 議 和
-0.7391736	見 面 和
-0.5312867	司 長 和
-1.2304065	紀 錄 和
-1.0157833	主 席 和
-1.3163812	宮 館 事
-0.6900949	甚 麼 事
-0.39144766	民 政 事
-0.58026826	題 此 事
-0.58026826	於 此 事
-0.32349563	道 此 事
-0.5442935	築 師 事
-0.18232082	局 董 事
-0.18232082	了 董 事
-0.18232082	他 董 事
-0.18232082	位 董 事
-0.18232082	入 董 事
-0.5442935	衡 量 事
-0.3863054	務 局 常
-0.24188292	求 非 常
-0.24188292	確 非 常
-0.38407114	常 任 秘
-1.0219777	物 院 秘
-0.35098192	任 秘 書
-0.71504945	包 括 書
-0.7139225	初 曾 就
-1.8841944	政 府 就
-0.94301647	書 長 就
-1.2178308	不 到 就
-0.6488061	問 費 就
-1.2844553	合 約 就
-1.0107403	小 組 就
-0.69542915	有 意 見
-1.0219777	物 院 見
-1.0750026	地 的 商
-0.73144704	面 和 商
-0.5477328	料 屬 商
-0.76147586	界 也 關
-0.61825246	為 有 關
-0.61825246	討 有 關
-0.61825246	交 有 關
-0.61825246	存 有 關
-0.61825246	出 有 關
-0.18565685	有 相 關
-0.44321066	交 相 關
-0.44321066	到 相 關
-0.7624589	館 事 宜
-1.2189271	不 能 向
-1.8999972	政 府 向
-1.40451	公 司 向
-1.4312974	要 求 向
-0.54515076	事 宜 向
-0.71493345	今 次 向
-0.614488	會 提 交
-0.65385574	已 提 交
-0.61912435	府 提 交
-0.69542915	願 意 交
-1.2356254	題 我 相
-0.35860366	所 有 相
-1.3722044	提 交 相
-1.2286811	不 到 相
-0.8612535	文 件 包
-0.6536539	士 ( 包
-0.1148211	件 包 括
-0.24197122	( 包 括
-0.35098192	括 書 信
-0.7182888	我 相 信
-0.20140891	這 些 資
-0.7262077	錄 和 資
-1.3146272	有 關 資
-0.90587753	書 信 資
-1.0923556	上 述 資
-0.3492552	三 位 資
-0.5442935	敏 感 資
-0.045489755	些 資 料
-0.19770171	和 資 料
-0.19770171	關 資 料
-0.19770171	信 資 料
-0.19770171	述 資 料
-0.19770171	感 資 料
-0.48158216	會 提 供
-0.38127327	快 提 供
-0.4192221	府 提 供
-0.38127327	時 提 供
-0.38127327	展 提 供
-0.38127327	肯 提 供
-1.1284618	方 面 坦
-0.54839987	面 坦 白
-1.023591	事 也 說
-1.8999972	政 府 說
-0.75799406	等 於 說
-0.54515076	坦 白 說
-0.6498969	一 點 說
-0.54515076	員 則 說
-1.9653934	政 府 給
-0.78600097	們 的 答
-0.54839987	的 答 覆
-0.7746912	覆 是 它
-1.548812	希 望 它
-1.830408	我 們 它
-1.415319	知 道 它
-1.0157833	存 檔 它
-1.2651285	沒 有 存
-0.7269435	使 有 存
-0.6531858	目 備 存
-0.69491386	有 保 存
-1.0200268	會 議 紀
-0.9048313	有 關 紀
-1.0407938	相 關 紀
-0.16100182	議 紀 錄
-0.15761206	關 紀 錄
-0.75472105	是 個 老
-1.0177339	在 此 贅
-0.5477328	此 贅 述
-0.36073127	分 上 述
-0.22330177	用 上 述
-0.5477328	單 講 述
-0.94881654	家 都 知
-0.61157835	員 都 知
-1.0104389	有 人 知
-0.7228641	都 不 知
-0.37430272	們 不 知
-1.1124079	我 們 知
-1.0650808	他 們 知
-1.2229948	不 能 知
-0.22455654	都 知 道
-0.36315113	人 知 道
-0.2298138	不 知 道
-0.31097436	們 知 道
-0.22346617	有 存 檔
-0.36104795	備 存 檔
-1.0750026	地 的 使
-0.7415011	擬 行 使
-0.43518525	案 即 使
-0.43518525	受 即 使
-1.0629677	能 會 告
-1.0481158	不 要 告
-0.3181286	問 報 告
-1.0183268	主 席 告
-0.53224796	會 告 訴
-0.53224796	要 告 訴
-0.53224796	席 告 訴
-1.0359784	便 可 做
-0.6531858	這 樣 做
-0.6531858	作 並 做
-0.7421233	於 說 謊
-0.54839987	說 謊 總
-1.0317974	時 都 拿
-0.7259842	拿 不 到
-0.7259842	看 不 到
-0.37529662	找 不 到
-0.69370407	可 做 到
-0.65208673	都 看 到
-0.5468704	需 走 到
-1.4445	要 求 非
-0.6536539	的 確 非
-0.6531858	月 直 接
-1.2312464	不 能 接
-0.5477328	錢 承 接
-1.5810589	這 項 聘
-0.76875526	府 要 聘
-0.7440081	府 就 聘
-0.6912946	直 接 聘
-1.0132545	萬 元 聘
-0.6498969	想 委 聘
-1.349212	聘 用 許
-0.54839987	用 許 李
-0.54839987	許 李 嚴
-0.36303425	的 建 築
-0.36303425	是 建 築
-0.36303425	些 建 築
-0.36303425	嚴 建 築
-1.1464916	建 築 師
-1.3302794	所 以 四
-1.1386365	工 作 四
-0.94087684	題 第 四
-1.1511648	二 十 四
-0.68889844	十 六 四
-0.75566417	七 年 四
-0.6477181	花 費 四
-0.54343796	就 P 四
-0.58454037	以 四 百
-0.58454037	作 四 百
-0.58454037	費 四 百
-0.73013127	錄 該 五
-0.97386944	零 一 五
-0.3181286	四 百 五
-0.6947831	成 立 五
-0.39666352	五 十 萬
-0.31878293	十 萬 元
-0.73485076	司 的 顧
-0.73485076	關 的 顧
-0.72490764	前 期 顧
-0.3779521	約 及 顧
-1.4152378	相 關 顧
-0.7386205	委 聘 顧
-1.1271487	建 築 顧
-1.0082407	萬 元 顧
-0.49444458	簽 訂 顧
-1.6248357	顧 問 費
-0.6536539	已 花 費
-0.74915534	費 就 P
-0.74915534	用 地 發
-1.7541454	會 議 展
-0.5480999	地 發 展
-1.6267117	顧 問 服
-0.95337504	書 長 代
-1.0208853	部 分 上
-0.6531858	再 像 上
-0.760142	聘 用 上
-0.5526787	的 合 約
-0.18579072	問 合 約
-0.44365627	信 合 約
-1.077003	大 的 爭
-0.7786584	爭 議 點
-0.77588373	俗 一 點
-1.0750026	料 的 原
-0.99315524	當 時 原
-0.5477328	奇 怪 原
-1.0680882	來 不 只
-1.4373621	問 題 只
-0.7623899	人 員 只
-1.2696851	此 事 只
-0.69542915	須 保 密
-0.6536539	院 秘 密
-1.1760054	的 人 甚
-1.0208853	討 論 甚
-0.7173845	主 動 甚
-0.7179272	至 已 花
-0.69542915	不 小 花
-1.0147793	這 項 工
-0.6536539	開 始 工
-0.78494817	元 這 數
-1.4320095	知 道 俗
-0.6540365	是 先 斬
-0.69585043	斬 後 奏
-0.7416547	我 理 解
-0.7486791	作 了 解
-0.36073127	的 商 業
-0.36073127	屬 商 業
-1.1438533	建 築 業
-0.6531858	理 解 業
-0.4355959	築 業 界
-0.4355959	解 業 界
-0.5772972	而 其 他
-0.5772972	等 其 他
-1.3748616	因 為 他
-1.1488516	工 作 他
-1.1674795	如 果 他
-0.6509904	保 密 他
-0.69542915	府 想 委
-0.5480999	多 獲 委
-1.0444772	一 項 進
-0.75367373	委 任 進
-1.423543	公 司 進
-0.38383216	性 作 出
-1.4624767	會 提 出
-0.74108154	意 交 出
-0.75871205	出 以 較
-0.54839987	以 較 低
-0.78600097	低 的 價
-0.54839987	的 價 錢
-0.54839987	價 錢 承
-1.1572887	工 作 並
-1.240607	內 容 並
-0.73279434	做 得 更
-0.75909984	也 關 注
-1.0080171	月 與 Waters
-0.54839987	與 Waters EconomicsLimited
-1.423543	公 司 簽
-0.5477328	Waters EconomicsLimited 簽
-0.5477328	YoungTransactions Limited 簽
-0.37011036	司 簽 訂
-0.37011036	EconomicsLimited 簽 訂
-0.37011036	Limited 簽 訂
-1.3052609	合 約 檢
-0.3854313	多 用 途
-0.93681735	顧 問 報
-1.5137635	很 多 內
-0.78233373	有 的 內
-0.9714831	件 但 內
-1.5654286	這 些 內
-1.6910346	文 件 內
-0.18317382	多 內 容
-0.18317382	的 內 容
-0.18317382	但 內 容
-0.18317382	些 內 容
-0.18317382	件 內 容
-0.7835146	並 不 全
-1.0742369	面 我 稍
-0.78018457	後 會 再
-1.2330207	不 能 再
-1.0080171	月 與 Ernst
-0.54839987	與 Ernst YoungTransactions
-0.54839987	Ernst YoungTransactions Limited
-0.6540365	議 展 覽
-0.3913986	可 行 性
-0.36549285	作 出 研
-0.31064397	出 研 究
-0.7546655	告 此 外
-1.0750026	府 的 立
-0.7324325	月 成 立
-1.6270001	資 料 立
-0.73200756	交 該 核
-0.38401148	五 人 核
-0.37580177	心 小 組
-0.76739854	了 多 少
-0.6947831	像 上 次
-0.5468704	多 少 次
-0.65208673	和 每 次
-0.6947831	府 今 次
-0.77766067	不 是 每
-0.73200756	議 和 每
-0.7624589	年 年 初
-1.5046632	理 局 董
-0.7453667	詢 了 董
-0.99111295	其 他 董
-0.6509904	每 位 董
-0.5460097	進 入 董
-0.3727202	局 三 位
-0.6536539	是 每 位
-0.3828588	位 資 深
-0.7714691	也 很 奇
-0.54839987	很 奇 怪
-1.5046489	沒 有 辦
-1.3887782	因 為 近
-0.69542915	越 來 越
-0.7620473	近 年 越
-0.76739854	越 多 獲
-0.69635373	任 進 入
-1.2277975	不 會 批
-0.54839987	會 批 評
-1.9653934	政 府 擔
-0.7655836	任 公 職
-0.78053164	都 會 覺
-1.2845397	成 員 則
-0.6536539	事 必 須
-0.6536539	到 無 須
-1.0518737	不 要 緊
-0.7186661	此 重 申
-0.7622831	容 都 被
-0.54839987	都 被 刪
-0.54839987	被 刪 去
-0.69542915	動 甚 或
-0.5480999	刪 去 或
-1.240607	內 容 塗
-0.6536539	去 或 塗
-0.24197122	容 塗 黑
-0.24197122	或 塗 黑
-0.69585043	能 接 受
-1.6343555	資 料 屬
-0.9540582	商 業 敏
-0.54839987	業 敏 感
-1.2902298	家 都 看
-0.6536539	我 卻 看
-0.7186661	理 由 負
-0.54839987	由 負 責
-0.5480999	負 責 監
-0.5480999	有 效 監
-0.24197122	責 監 察
-0.24197122	效 監 察
-0.78293854	們 知 悉
-0.5259839	能 知 悉
-0.75871205	料 以 衡
-0.54839987	以 衡 量
-0.7624589	量 事 情
-1.8548323	我 們 今
-1.95118	政 府 今
-1.1765667	由 於 今
-0.71876836	上 次 般
-0.54839987	次 般 把
-0.49461663	望 主 席
-0.49461663	好 主 席
-0.49461663	悉 主 席
-0.78458345	席 我 簡
-0.54839987	我 簡 單
-0.54839987	簡 單 講
-0.7551489	及 其 附
-0.69585043	所 應 載
-0.78554004	容 的 確
-1.9589467	政 府 確
-1.236204	也 不 肯
-1.0629677	法 會 便
-0.69370407	很 快 便
-0.69370407	築 物 便
-1.6176572	資 料 便
-0.74897766	做 到 無
-0.718414	會 便 無
-0.78383154	法 有 效
-0.78494817	府 這 正
-1.8646436	我 們 擬
-0.7678375	條 所 賦
-0.54839987	所 賦 予
-0.78600097	予 的 權
-0.54839987	的 權 力
-1.077003	料 的 死
-0.54839987	的 死 線
-1.5978394	零 一 八
-0.69501543	議 是 昨
-0.69501543	即 是 昨
-0.3609056	們 今 天
-0.3609056	於 今 天
-0.3105203	是 昨 天
-0.91537774	不 過 幸
-1.2432926	議 的 延
-0.54839987	的 延 續
-0.9540582	今 天 仍
-0.71837085	員 只 需
-0.54839987	只 需 走
-0.6540365	無 須 經
-0.54839987	須 經 歷
-1.104674	任 何 艱
-0.54839987	何 艱 辛
-0.7416547	府 說 找
-0.73200756	們 它 找
-1.3887782	因 為 那
-0.95337504	是 否 願
-0.76739854	案 多 謝

\end\
