\data\
ngram 1=348
ngram 2=746
ngram 3=888

\1-grams:
-2.9587045	<unk>	0
0	<s>	-0.06554085
-2.7816365	</s>	0
-2.7816365	主	-0.06554085
-2.7816365	席	-0.06554085
-2.7816365	首	-0.06554085
-2.7816365	先	-0.06554085
-1.8776861	我	-0.16046296
-2.4123328	希	-0.36985844
-2.7816365	望	-0.06554085
-2.034726	大	-0.20849264
-2.7816365	家	-0.06554083
-2.2831545	了	-0.06554085
-2.2831545	解	-0.06554085
-2.1028647	在	-0.06554089
-2.7816365	六	-0.06554085
-2.7816365	月	-0.06554085
-2.7115605	十	-0.06554085
-2.7816365	二	-0.06554085
-2.7115605	日	-0.06554085
-1.8776861	當	-0.10668905
-2.7816365	天	-0.06554085
-1.3972604	的	-0.1135998
-1.8776861	人	-0.1675159
-2.7115605	群	-0.06554085
-2.4123328	數	-0.06554085
-2.7816365	目	-0.06554085
-2.7115605	超	-0.06554085
-2.7115605	過	-0.06554085
-2.7816365	萬	-0.06554085
-2.7816365	正	-0.06554085
-2.2831545	如	-0.1176155
-2.4123328	邵	-0.36985844
-2.7816365	議	-0.06554085
-2.2831545	員	-0.06554089
-2.7816365	剛	-0.06554085
-2.7816365	才	-0.06554085
-2.7115605	所	-0.06554085
-2.7115605	說	-0.06554085
-2.4123328	中	-0.06554085
-1.6202079	有	-0.08562778
-2.7115605	部	-0.1767959
-2.7115605	分	-0.06554085
-2.7816365	士	-0.06554083
-2.7115605	衝	-0.06554085
-2.7115605	擊	-0.06554085
-2.1028647	立	-0.30103
-2.2831545	法	-0.06554085
-2.7115605	會	-0.06554085
-2.7816365	防	-0.06554085
-2.7816365	線	-0.06554085
-2.2831545	並	-0.06554085
-2.2831545	使	-0.22184873
-2.7816365	用	-0.06554085
-2.7115605	量	-0.06554085
-2.1837206	暴	-0.5917072
-2.4123328	力	-0.08791812
-2.2831545	亦	-0.10668905
-2.1837206	同	-0.09452924
-1.9758419	意	-0.2803148
-2.1837206	其	-0.36854038
-2.1028647	他	-0.36797678
-2.7115605	地	-0.1767959
-2.1028647	方	-0.12646434
-2.034726	示	-0.42596874
-2.7115605	威	-0.06554085
-2.7816365	眾	-0.06554085
-2.2831545	沒	-0.49479717
-2.7115605	們	-0.06554085
-2.2831545	只	-0.49479717
-2.1837206	是	-0.06554085
-2.7816365	集	-0.06554085
-1.9758419	表	-0.48622864
-2.7816365	達	-0.06554085
-2.7816365	見	-0.06554085
-2.4123328	提	-0.06554085
-2.2831545	及	-0.06554085
-2.7115605	某	-0.06554085
-2.7115605	電	-0.1767959
-2.7816365	視	-0.06554085
-2.7816365	台	-0.06554085
-2.4123328	直	-0.1176155
-2.7816365	播	-0.06554085
-2.7115605	看	-0.06554085
-2.7816365	相	-0.06554085
-2.7115605	關	-0.06554085
-2.7816365	影	-0.06554085
-2.7816365	片	-0.06554085
-2.7115605	就	-0.1767959
-2.7115605	此	-0.06554085
-2.7816365	知	-0.06554085
-2.2831545	道	-0.06554083
-2.7816365	縱	-0.06554085
-2.2831545	然	-0.06554083
-2.7115605	情	-0.1767959
-2.7816365	況	-0.06554085
-2.7816365	未	-0.06554085
-2.2831545	必	-0.1176155
-2.7115605	涉	-0.1767959
-2.7816365	多	-0.06554085
-2.4123328	者	-0.06554085
-2.7816365	想	-0.06554085
-2.4123328	個	-0.36985844
-2.2831545	但	-0.10668905
-2.7115605	確	-0.06554085
-2.7115605	實	-0.06554085
-2.7115605	報	-0.1767959
-2.7816365	指	-0.06554085
-2.1837206	出	-0.10668905
-2.7115605	三	-0.1767959
-2.1028647	時	-0.06554085
-2.4123328	後	-0.06554085
-2.1028647	不	-0.15647395
-2.4123328	特	-0.36985844
-2.7816365	別	-0.06554085
-2.7115605	位	-0.06554085
-2.4123328	於	-0.06554085
-2.7816365	前	-0.06554085
-2.7816365	挖	-0.06554085
-2.7816365	路	-0.06554085
-2.4123328	上	-0.13646027
-2.7816365	磚	-0.06554085
-2.7816365	塊	-0.06554085
-2.7816365	武	-0.06554085
-2.7816365	襲	-0.06554085
-1.6717043	警	-0.56512535
-2.4123328	這	-0.06554085
-2.4123328	由	-0.06554085
-2.7816365	新	-0.06554085
-2.7816365	聞	-0.06554085
-2.7816365	工	-0.06554085
-2.7816365	作	-0.06554085
-2.2831545	事	-0.1176155
-2.034726	到	-0.06554089
-2.7816365	約	-0.06554085
-2.7816365	四	-0.06554085
-2.7816365	越	-0.06554085
-2.7816365	添	-0.06554085
-2.7816365	華	-0.06554085
-2.1837206	一	-0.15214792
-2.7115605	樓	-0.06554085
-2.7816365	區	-0.06554085
-2.7816365	將	-0.06554085
-2.7816365	鐵	-0.06554085
-2.7816365	馬	-0.06554085
-2.7816365	搬	-0.06554085
-2.7816365	雖	-0.06554085
-2.7816365	增	-0.06554085
-2.7816365	派	-0.06554085
-2.7816365	手	-0.06554085
-2.7816365	已	-0.06554085
-2.7115605	進	-0.06554085
-2.7816365	入	-0.06554085
-2.7816365	範	-0.06554085
-2.7816365	圍	-0.06554085
-2.7816365	斷	-0.06554085
-2.7115605	投	-0.1767959
-2.7816365	擲	-0.06554085
-2.7816365	雜	-0.06554085
-2.7115605	物	-0.06554085
-2.1028647	以	-0.09955453
-2.7816365	開	-0.06554085
-2.7816365	始	-0.06554085
-2.2831545	發	-0.27163038
-2.7816365	生	-0.06554085
-2.4123328	些	-0.06554085
-2.7816365	較	-0.06554085
-2.7816365	埋	-0.06554085
-2.4123328	身	-0.06554085
-2.7816365	推	-0.06554085
-2.7816365	撞	-0.06554085
-2.7816365	更	-0.06554085
-2.7816365	記	-0.06554085
-2.4123328	現	-0.1176155
-2.7816365	場	-0.06554085
-2.7115605	火	-0.06554085
-2.7816365	品	-0.06554085
-2.7115605	冒	-0.06554085
-2.7816365	煙	-0.06554085
-2.7816365	混	-0.06554085
-2.7816365	亂	-0.06554085
-2.2831545	而	-0.1176155
-2.7115605	則	-0.06554085
-2.7115605	向	-0.06554085
-2.7816365	撤	-0.06554085
-2.7816365	退	-0.06554085
-2.4123328	明	-0.36985844
-2.7816365	白	-0.06554085
-2.7115605	嚴	-0.1767959
-2.7115605	重	-0.06554085
-2.7816365	件	-0.06554085
-2.7115605	務	-0.06554085
-2.2831545	處	-0.06554085
-2.7816365	長	-0.06554085
-2.7816365	曾	-0.06554085
-1.9239969	對	-0.08791812
-2.1028647	也	-0.06554085
-2.4123328	盡	-0.06554085
-2.7816365	便	-0.06554085
-2.4123328	讓	-0.06554085
-2.1837206	行	-0.10668905
-2.7115605	言	-0.06554085
-2.7115605	論	-0.06554085
-2.7115605	自	-0.06554085
-2.7816365	活	-0.06554085
-2.7115605	動	-0.06554085
-2.7115605	至	-0.06554085
-2.7115605	互	-0.1767959
-2.7816365	聯	-0.06554085
-2.7816365	網	-0.06554085
-2.4123328	欺	-0.13646027
-2.7816365	凌	-0.06554085
-2.7816365	無	-0.06554085
-2.7816365	何	-0.06554085
-2.7115605	即	-0.1767959
-1.9758419	市	-0.79582715
-2.7816365	民	-0.06554085
-2.7816365	隊	-0.06554085
-2.7816365	恪	-0.06554085
-2.7115605	守	-0.06554085
-2.7816365	崗	-0.06554085
-2.034726	和	-0.06554089
-2.7816365	執	-0.06554085
-2.7115605	職	-0.06554085
-2.2831545	香	-0.49479717
-2.7816365	港	-0.06554085
-2.7115605	罪	-0.06554085
-2.7816365	案	-0.06554085
-2.7816365	仍	-0.06554085
-2.7115605	賴	-0.1767959
-2.7115605	協	-0.1767959
-2.4123328	助	-0.06554085
-2.7816365	調	-0.06554085
-2.7816365	查	-0.06554085
-2.7115605	帖	-0.1767959
-2.7115605	文	-0.06554085
-2.7115605	令	-0.06554085
-2.7816365	禁	-0.06554085
-2.1028647	要	-0.06554085
-2.7816365	問	-0.06554085
-2.7816365	否	-0.06554085
-2.7816365	敵	-0.06554085
-2.7816365	權	-0.06554085
-2.7115605	利	-0.06554085
-2.7816365	須	-0.06554085
-2.7816365	履	-0.06554085
-2.2831545	維	-0.1767959
-2.7816365	護	-0.06554085
-2.4123328	公	-0.36985844
-2.7816365	共	-0.06554085
-2.7115605	安	-0.06554085
-2.7816365	全	-0.06554085
-2.7816365	秩	-0.06554085
-2.7816365	序	-0.06554085
-2.7816365	從	-0.06554085
-2.7816365	保	-0.06554085
-2.7816365	障	-0.06554085
-2.7816365	益	-0.06554085
-2.7816365	聲	-0.06554085
-2.7816365	稱	-0.06554085
-2.7115605	建	-0.1767959
-2.7115605	校	-0.06554085
-2.7816365	園	-0.06554085
-2.4123328	子	-0.36985844
-2.7816365	女	-0.06554085
-2.7115605	化	-0.06554085
-2.7115605	可	-0.06554085
-2.7816365	歸	-0.06554085
-2.7816365	邊	-0.06554085
-2.7816365	揚	-0.06554085
-2.7816365	把	-0.06554085
-2.7816365	負	-0.06554085
-2.7816365	跳	-0.06554085
-2.7115605	認	-0.1767959
-2.7816365	為	-0.06554085
-2.7115605	學	-0.06554085
-2.7816365	抗	-0.06554085
-2.7816365	傳	-0.06554085
-2.7816365	遞	-0.06554085
-2.7816365	禍	-0.06554085
-2.7816365	妻	-0.06554085
-2.7816365	兒	-0.06554085
-2.7816365	信	-0.06554085
-2.7816365	息	-0.06554085
-2.7115605	仇	-0.1767959
-2.7816365	恨	-0.06554085
-2.7816365	得	-0.06554085
-2.7816365	伸	-0.06554085
-2.7816365	張	-0.06554085
-2.7115605	宣	-0.1767959
-2.7816365	泄	-0.06554085
-2.7115605	做	-0.06554085
-2.7115605	均	-0.06554085
-2.7816365	好	-0.06554085
-2.7816365	絕	-0.06554085
-2.7816365	平	-0.06554085
-2.2831545	理	-0.06554085
-2.7816365	性	-0.06554085
-2.7816365	式	-0.06554085
-2.7115605	持	-0.06554085
-2.7115605	治	-0.1767959
-2.7816365	需	-0.06554085
-2.7816365	求	-0.06554085
-2.7816365	刑	-0.06554085
-2.7816365	依	-0.06554085
-2.7816365	供	-0.06554085
-2.7816365	雙	-0.06554085
-2.7816365	留	-0.06554085
-2.7816365	資	-0.06554085
-2.7816365	料	-0.06554085
-2.7816365	私	-0.06554085
-2.7816365	隱	-0.06554085
-2.7816365	專	-0.06554085
-2.7816365	針	-0.06554085
-2.7816365	近	-0.06554085
-2.7816365	期	-0.06554085
-2.7816365	呼	-0.06554085
-2.7816365	籲	-0.06554085
-2.7816365	應	-0.06554085
-2.7816365	放	-0.06554085
-2.7816365	樣	-0.06554085
-2.7115605	除	-0.06554085
-2.7816365	外	-0.06554085
-2.7816365	能	-0.06554085
-2.7816365	觸	-0.06554085
-2.7816365	犯	-0.06554085
-2.7816365	律	-0.06554085
-2.7816365	政	-0.06554085
-2.7816365	府	-0.06554085
-2.7816365	滿	-0.06554085
-2.7816365	忠	-0.06554085
-2.7816365	受	-0.06554085
-2.7816365	採	-0.06554085
-2.7816365	取	-0.06554085
-2.7816365	適	-0.06554085
-2.7816365	脅	-0.06554085
-2.7816365	申	-0.06554085
-2.7816365	致	-0.06554085
-2.7816365	整	-0.06554085
-2.7816365	體	-0.06554085
-2.7816365	穩	-0.06554085
-2.7816365	定	-0.06554085
-2.7816365	心	-0.06554085
-2.7816365	快	-0.06554085
-2.7816365	矛	-0.06554085
-2.7816365	盾	-0.06554085
-2.7816365	紛	-0.06554085
-2.7816365	爭	-0.06554085

\2-grams:
-0.84924483	爭 </s>	0
-0.84924483	<s> 主	-0.058125984
-0.84924483	主 席	-0.058125984
-0.84924483	席 首	-0.058125984
-0.84924483	首 先	-0.058125984
-0.81966084	先 我	-0.058125984
-1.5785869	力 我	-0.058125984
-1.0891864	播 我	-0.058125984
-1.2359049	此 我	-0.18001863
-1.4043704	然 我	-0.058125984
-1.4591346	處 我	-0.058125984
-0.81966084	益 我	-0.058125984
-0.81966084	張 我	-0.058125984
-0.81966084	律 我	-0.058125984
-0.81966084	脅 我	-0.058125984
-0.7578098	我 希	-0.33873332
-1.6811588	也 希	-0.058125984
-1.3008548	安 希	-0.058125984
-0.24109799	希 望	-0.27914867
-1.1080317	望 大	-0.33873332
-1.3669573	了 大	-0.058125984
-1.2625607	會 大	-0.21379457
-1.2625607	用 大	-0.058125984
-1.0869602	對 大	-0.18001863
-0.8296907	絕 大	-0.058125984
-1.3669573	理 大	-0.058125984
-0.6078044	大 家	-0.12354706
-1.4881722	家 了	-0.058125984
-1.2909601	用 了	-0.058125984
-1.4034059	達 了	-0.058125984
-1.1277319	除 了	-0.058125984
-1.4034059	了 解	-0.058125984
-1.5608399	以 解	-0.058125984
-1.2909601	化 解	-0.058125984
-1.4034059	理 解	-0.058125984
-1.3787702	解 在	-0.058125984
-1.7054789	意 在	-0.058125984
-1.520972	們 在	-0.058125984
-1.6507244	是 在	-0.058125984
-0.8330861	約 在	-0.058125984
-1.1144996	泄 在	-0.058125984
-1.6689198	在 六	-0.058125984
-0.84924483	六 月	-0.058125984
-0.8484814	月 十	-0.058125984
-0.8484814	四 十	-0.058125984
-1.1459329	十 二	-0.058125984
-0.8484814	二 日	-0.058125984
-1.8088996	當 日	-0.058125984
-1.0891864	日 當	-0.058125984
-1.0891864	說 當	-0.058125984
-1.4158736	出 當	-0.058125984
-0.81966084	撞 當	-0.058125984
-1.3333323	白 當	-0.058125984
-1.3333323	務 當	-0.058125984
-1.4591346	處 當	-0.058125984
-1.539008	民 當	-0.058125984
-1.0891864	序 當	-0.058125984
-0.81966084	適 當	-0.058125984
-1.81528	當 天	-0.058125984
-1.3434775	當 的	-0.058125984
-0.7581334	天 的	-0.058125984
-1.2639074	員 的	-0.058125984
-1.204354	士 的	-0.058125984
-1.090747	會 的	-0.058125984
-1.3161894	力 的	-0.058125984
-1.2820184	同 的	-0.058125984
-1.4368259	意 的	-0.058125984
-0.839838	方 的	-0.058125984
-1.2380943	見 的	-0.058125984
-1.2380943	及 的	-0.058125984
-0.98092663	台 的	-0.058125984
-1.2265642	出 的	-0.058125984
-1.2843268	時 的	-0.058125984
-0.5982497	上 的	-0.058125984
-1.090747	由 的	-0.058125984
-1.2639074	到 的	-0.058125984
-1.1582015	樓 的	-0.058125984
-1.090747	生 的	-0.058125984
-1.090747	身 的	-0.058125984
-0.7581334	煙 的	-0.058125984
-1.2265642	行 的	-0.058125984
-1.2843268	民 的	-0.058125984
-1.1582015	港 的	-0.058125984
-1.090747	文 的	-0.058125984
-1.090747	女 的	-0.13547702
-0.7581334	兒 的	-0.058125984
-0.98092663	恨 的	-0.058125984
-0.7581334	性 的	-0.18001863
-0.7581334	體 的	-0.058125984
-1.2367508	的 人	-0.13547702
-0.81966084	萬 人	-0.058125984
-1.7475032	有 人	-0.058125984
-1.2359049	分 人	-0.058125984
-1.5132608	同 人	-0.058125984
-1.5902195	他 人	-0.058125984
-0.23736893	個 人	-0.13547702
-0.81966084	派 人	-0.058125984
-1.3333323	務 人	-0.058125984
-1.0891864	令 人	-0.058125984
-1.8862499	人 群	-0.058125984
-1.4354504	威 群	-0.058125984
-1.1345023	群 數	-0.058125984
-1.1345023	過 數	-0.058125984
-0.8434346	多 數	-0.058125984
-1.3177253	數 目	-0.058125984
-0.8484814	目 超	-0.058125984
-1.6017647	者 超	-0.058125984
-1.1444225	超 過	-0.058125984
-1.1444225	看 過	-0.058125984
-1.3177253	數 萬	-0.058125984
-1.8928795	人 正	-0.058125984
-0.8399576	正 如	-0.058125984
-1.8783617	方 如	-0.058125984
-1.1277319	論 如	-0.058125984
-1.5555402	要 如	-0.058125984
-1.4205477	如 邵	-0.058125984
-1.573914	見 邵	-0.058125984
-1.3008548	於 邵	-0.058125984
-0.24109799	邵 議	-0.21379457
-1.8177049	人 員	-0.058125984
-0.8399576	議 員	-0.21379457
-0.7050944	警 員	-0.1290226
-0.8399576	專 員	-0.058125984
-1.6689198	員 剛	-0.21379457
-0.84924483	剛 才	-0.13547702
-1.1444225	才 所	-0.058125984
-1.7657106	對 所	-0.058125984
-1.1444225	所 說	-0.058125984
-1.6017647	者 說	-0.058125984
-1.7686695	當 中	-0.058125984
-1.5276558	其 中	-0.058125984
-1.1345023	播 中	-0.058125984
-1.042598	所 有	-0.058125984
-1.171915	中 有	-0.058125984
-1.372617	使 有	-0.058125984
-0.81667304	亦 有	-0.058125984
-0.1626423	沒 有	-0.19996741
-1.4415023	是 有	-0.058125984
-1.3130618	然 有	-0.058125984
-1.042598	實 有	-0.058125984
-1.171915	後 有	-0.058125984
-0.7939948	更 有	-0.058125984
-1.042598	場 有	-0.058125984
-1.042598	火 有	-0.058125984
-1.042598	向 有	-0.058125984
-1.4187565	也 有	-0.058125984
-1.254631	港 有	-0.058125984
-0.7939948	仍 有	-0.058125984
-1.171915	女 有	-0.058125984
-0.7939948	府 有	-0.058125984
-1.6733931	大 部	-0.058125984
-2.065548	有 部	-0.058125984
-1.1444225	十 分	-0.058125984
-0.4740393	部 分	-0.058125984
-0.64248836	人 士	-0.058125984
-1.5274444	士 衝	-0.058125984
-1.4376907	直 衝	-0.058125984
-1.1444225	衝 擊	-0.058125984
-0.8484814	襲 擊	-0.058125984
-1.5719168	在 立	-0.058125984
-1.2718223	擊 立	-0.058125984
-1.5719168	到 立	-0.058125984
-0.8330861	入 立	-0.058125984
-1.6573974	對 立	-0.058125984
-0.46894753	建 立	-0.18001863
-0.34111854	立 法	-0.33873332
-1.8783617	方 法	-0.058125984
-1.1277319	做 法	-0.058125984
-0.8399576	犯 法	-0.058125984
-1.4354504	法 會	-0.16934347
-0.8484814	集 會	-0.058125984
-1.7022095	的 防	-0.18001863
-0.84924483	防 線	-0.058125984
-1.4034059	解 並	-0.058125984
-1.1277319	線 並	-0.058125984
-0.8399576	圍 並	-0.058125984
-0.8399576	邊 並	-0.058125984
-1.9476268	有 使	-0.18001863
-1.4034059	並 使	-0.058125984
-0.8399576	塊 使	-0.058125984
-0.4712351	即 使	-0.058125984
-0.4622302	使 用	-0.11480984
-1.0143535	大 量	-0.058125984
-1.315484	盡 量	-0.058125984
-1.2812858	用 暴	-0.18001863
-1.2812858	量 暴	-0.058125984
-1.5379122	及 暴	-0.058125984
-1.1210654	重 暴	-0.18001863
-1.1210654	除 暴	-0.058125984
-0.1278673	暴 力	-0.058125984
-0.8434346	武 力	-0.058125984
-0.8434346	致 力	-0.058125984
-1.1519126	我 亦	-0.058125984
-1.4881722	道 亦	-0.058125984
-0.8399576	長 亦	-0.058125984
-0.8399576	外 亦	-0.058125984
-1.4796561	亦 同	-0.058125984
-0.6584678	不 同	-0.05812601
-1.1210654	區 同	-0.058125984
-1.2812858	讓 同	-0.058125984
-1.2812858	持 同	-0.058125984
-1.3554573	了 意	-0.058125984
-1.9197412	的 意	-0.058125984
-1.7244188	人 意	-0.058125984
-1.8045404	有 意	-0.058125984
-0.98275375	同 意	-0.058125984
-1.3554573	達 意	-0.21379457
-0.82632154	留 意	-0.058125984
-0.82632154	滿 意	-0.058125984
-1.5910125	在 其	-0.058125984
-2.0489569	的 其	-0.058125984
-1.4730337	然 其	-0.058125984
-1.2812858	於 其	-0.058125984
-0.8365082	放 其	-0.058125984
-1.6950773	當 他	-0.058125984
-1.6573974	力 他	-0.058125984
-0.26173776	其 他	-0.16934347
-0.8330861	便 他	-0.058125984
-1.2718223	讓 他	-0.058125984
-0.8330861	把 他	-0.058125984
-2.2686744	的 地	-0.058125984
-1.6810237	他 地	-0.21379457
-2.0014834	的 方	-0.058125984
-1.2718223	量 方	-0.058125984
-0.46894753	地 方	-0.11480984
-0.8330861	前 方	-0.058125984
-0.44876486	警 方	-0.1081337
-0.8330861	雙 方	-0.058125984
-1.5903141	的 示	-0.18001863
-1.2625607	數 示	-0.058125984
-1.8361385	有 示	-0.058125984
-1.2625607	分 示	-0.058125984
-1.0623976	表 示	-0.058125984
-1.4530089	但 示	-0.058125984
-1.5536256	到 示	-0.058125984
-1.7657106	力 威	-0.058125984
-0.22862636	示 威	-0.23981953
-1.1459329	群 眾	-0.058125984
-1.8783617	方 沒	-0.058125984
-0.8399576	眾 沒	-0.058125984
-1.6577747	也 沒	-0.18001863
-1.1277319	均 沒	-0.058125984
-0.2738933	他 們	-0.058125984
-1.1444225	學 們	-0.058125984
-1.6109865	員 只	-0.058125984
-1.5555402	們 只	-0.058125984
-1.5555402	者 只	-0.058125984
-1.4034059	隊 只	-0.058125984
-1.8466661	方 是	-0.058125984
-0.16617902	只 是	-0.058125984
-0.8365082	別 是	-0.13547702
-1.2812858	這 是	-0.058125984
-1.1210654	均 是	-0.058125984
-1.7699101	是 集	-0.058125984
-1.8045404	有 表	-0.058125984
-1.2534925	會 表	-0.058125984
-1.4889537	者 表	-0.058125984
-0.82632154	想 表	-0.058125984
-1.1016587	件 表	-0.058125984
-0.82632154	曾 表	-0.058125984
-1.4402745	行 表	-0.058125984
-0.82632154	式 表	-0.058125984
-0.22876523	表 達	-0.1290226
-0.3828076	意 見	-0.08960583
-1.1345023	才 提	-0.18001863
-1.5080458	亦 提	-0.058125984
-1.9125539	方 提	-0.058125984
-1.2909601	提 及	-0.058125984
-1.409008	必 及	-0.058125984
-0.4712351	涉 及	-0.058125984
-1.5608399	以 及	-0.058125984
-2.2686744	的 某	-0.058125984
-1.6017647	及 某	-0.058125984
-1.1444225	某 電	-0.058125984
-1.1444225	關 電	-0.058125984
-0.4742886	電 視	-0.18001863
-0.84924483	視 台	-0.058125984
-2.1630414	的 直	-0.058125984
-1.1345023	台 直	-0.058125984
-0.86489403	一 直	-0.058125984
-0.77348214	直 播	-0.058125984
-1.8138782	我 看	-0.058125984
-2.065548	有 看	-0.058125984
-1.1459329	過 相	-0.058125984
-2.065548	有 關	-0.058125984
-0.8484814	相 關	-0.058125984
-1.1459329	關 影	-0.058125984
-0.84924483	影 片	-0.058125984
-0.8484814	片 就	-0.058125984
-0.8484814	退 就	-0.058125984
-0.7729133	如 此	-0.058125984
-0.4740393	就 此	-0.18001863
-1.5311018	家 知	-0.058125984
-0.8399576	知 道	-0.058125984
-0.4712351	報 道	-0.058125984
-1.493619	出 道	-0.058125984
-0.8399576	華 道	-0.058125984
-1.5311018	道 縱	-0.058125984
-1.148998	當 然	-0.058125984
-0.8399576	縱 然	-0.058125984
-0.8399576	雖 然	-0.058125984
-0.8399576	查 然	-0.058125984
-1.6973608	的 情	-0.18001863
-0.8484814	亂 情	-0.058125984
-0.4742886	情 況	-0.05812601
-1.3177253	況 未	-0.058125984
-0.8399576	未 必	-0.058125984
-1.6577747	時 必	-0.058125984
-1.6577747	也 必	-0.058125984
-0.8399576	禍 必	-0.058125984
-1.6639043	在 涉	-0.058125984
-1.4376907	必 涉	-0.058125984
-1.7717396	力 多	-0.058125984
-1.4162683	威 者	-0.058125984
-0.8434346	作 者	-0.058125984
-0.8434346	記 者	-0.058125984
-1.7699101	是 想	-0.058125984
-2.1630414	的 個	-0.058125984
-1.4162683	達 個	-0.058125984
-1.6319237	到 個	-0.058125984
-1.5555402	見 但	-0.058125984
-0.8399576	手 但	-0.058125984
-1.2909601	動 但	-0.058125984
-1.1277319	利 但	-0.058125984
-1.6973608	的 確	-0.058125984
-1.5296595	但 確	-0.058125984
-1.315484	確 實	-0.058125984
-1.4376907	事 實	-0.058125984
-2.065548	有 報	-0.058125984
-1.1444225	實 報	-0.058125984
-1.5311018	道 指	-0.058125984
-1.1210654	說 出	-0.058125984
-1.2812858	確 出	-0.058125984
-0.8365082	指 出	-0.058125984
-1.2812858	後 出	-0.058125984
-0.8365082	挖 出	-0.058125984
-1.6639043	在 三	-0.058125984
-1.1444225	日 三	-0.058125984
-1.1363493	當 時	-0.058125984
-1.2718223	擊 時	-0.058125984
-1.5790765	同 時	-0.058125984
-0.46894753	三 時	-0.058125984
-0.8330861	案 時	-0.058125984
-1.3787702	助 時	-0.058125984
-1.6811588	時 後	-0.058125984
-0.8434346	品 後	-0.058125984
-1.1345023	向 後	-0.058125984
-1.458405	家 不	-0.058125984
-1.7685618	人 不	-0.058125984
-1.398805	有 不	-0.058125984
-1.3787702	並 不	-0.058125984
-1.6144755	也 不	-0.058125984
-1.6144755	民 不	-0.058125984
-1.5038576	士 特	-0.058125984
-1.6811588	時 特	-0.058125984
-1.1345023	件 特	-0.058125984
-0.24109799	特 別	-0.21379457
-1.7635912	是 位	-0.058125984
-0.8484814	崗 位	-0.058125984
-1.1345023	位 於	-0.058125984
-1.7275862	對 於	-0.058125984
-1.1345023	至 於	-0.058125984
-1.3177253	於 前	-0.058125984
-1.5311018	士 挖	-0.058125984
-1.5311018	道 路	-0.058125984
-0.8434346	路 上	-0.058125984
-1.3008548	身 上	-0.058125984
-1.1345023	網 上	-0.058125984
-2.2870255	的 磚	-0.058125984
-0.84924483	磚 塊	-0.058125984
-1.3177253	量 武	-0.058125984
-1.1211072	力 襲	-0.18001863
-1.4165301	在 警	-0.058125984
-1.6928151	的 警	-0.058125984
-1.3341529	士 警	-0.058125984
-1.1870505	擊 警	-0.058125984
-1.572963	意 警	-0.058125984
-0.82268566	但 警	-0.058125984
-1.205886	上 警	-0.058125984
-0.80027056	越 警	-0.058125984
-1.053785	區 警	-0.058125984
-0.7364809	而 警	-0.058125984
-1.053785	凌 警	-0.18001863
-1.4165301	和 警	-0.058125984
-0.4576871	賴 警	-0.13547702
-1.053785	令 警	-0.058125984
-0.80027056	抗 警	-0.058125984
-0.80027056	申 警	-0.058125984
-1.6319237	員 這	-0.058125984
-1.1345023	為 這	-0.058125984
-1.1345023	料 這	-0.058125984
-1.3008548	中 由	-0.058125984
-1.1345023	線 由	-0.058125984
-1.1345023	自 由	-0.058125984
-1.3177253	由 新	-0.058125984
-0.84924483	新 聞	-0.058125984
-0.84924483	聞 工	-0.058125984
-0.84924483	工 作	-0.058125984
-2.1022637	的 事	-0.058125984
-1.7029078	力 事	-0.058125984
-1.4034059	些 事	-0.058125984
-0.8399576	刑 事	-0.058125984
-1.1080317	衝 到	-0.058125984
-1.6902533	意 到	-0.058125984
-1.2625607	提 到	-0.058125984
-1.1080317	看 到	-0.058125984
-0.8296907	搬 到	-0.058125984
-0.8296907	得 到	-0.058125984
-0.8296907	受 到	-0.058125984
-1.6689198	到 約	-0.058125984
-1.7228155	時 四	-0.058125984
-1.1459329	超 越	-0.058125984
-1.3177253	由 添	-0.058125984
-0.84924483	添 華	-0.058125984
-1.2812858	中 一	-0.058125984
-1.4730337	道 一	-0.058125984
-1.2812858	生 一	-0.058125984
-1.3977671	而 一	-0.058125984
-1.1210654	則 一	-0.058125984
-1.6733931	大 樓	-0.05812601
-0.8484814	跳 樓	-0.058125984
-1.4384073	威 區	-0.058125984
-1.7228155	時 將	-0.058125984
-0.84924483	將 鐵	-0.058125984
-0.84924483	鐵 馬	-0.058125984
-0.84924483	馬 搬	-0.058125984
-1.9757532	方 雖	-0.058125984
-1.5311018	然 增	-0.058125984
-0.84924483	增 派	-0.058125984
-1.8928795	人 手	-0.058125984
-1.6061082	者 已	-0.058125984
-1.6017647	們 進	-0.058125984
-0.8484814	已 進	-0.058125984
-1.1459329	進 入	-0.058125984
-1.4384073	樓 範	-0.058125984
-0.84924483	範 圍	-0.058125984
-1.7290212	不 斷	-0.058125984
-1.6017647	者 投	-0.058125984
-0.8484814	斷 投	-0.058125984
-0.4742886	投 擲	-0.058125984
-1.1459329	擲 雜	-0.058125984
-1.1444225	擲 物	-0.058125984
-0.8484814	雜 物	-0.058125984
-1.6507244	是 以	-0.058125984
-1.520972	見 以	-0.058125984
-1.1144996	物 以	-0.058125984
-1.3787702	務 以	-0.058125984
-1.2718223	動 以	-0.058125984
-1.1144996	可 以	-0.058125984
-1.6061082	及 開	-0.058125984
-0.84924483	開 始	-0.058125984
-0.8399576	始 發	-0.058125984
-1.4034059	港 發	-0.058125984
-0.8399576	期 發	-0.058125984
-0.8399576	應 發	-0.058125984
-0.3656783	發 生	-0.05812601
-1.1345023	某 些	-0.058125984
-1.3008548	這 些	-0.058125984
-0.86489403	一 些	-0.058125984
-1.4384073	些 較	-0.058125984
-0.84924483	較 埋	-0.058125984
-0.8434346	埋 身	-0.058125984
-1.1345023	自 身	-0.058125984
-1.4162683	隊 身	-0.058125984
-2.2870255	的 推	-0.058125984
-0.84924483	推 撞	-0.058125984
-1.7228155	時 更	-0.058125984
-2.077722	有 記	-0.058125984
-1.7221426	示 現	-0.058125984
-0.863938	出 現	-0.058125984
-1.4162683	樓 現	-0.058125984
-0.77348214	現 場	-0.058125984
-2.065548	有 火	-0.058125984
-1.1444225	冒 火	-0.058125984
-1.1459329	物 品	-0.058125984
-1.4376907	現 冒	-0.058125984
-1.1444225	火 冒	-0.058125984
-1.1459329	冒 煙	-0.058125984
-2.2870255	的 混	-0.058125984
-0.84924483	混 亂	-0.058125984
-1.4881722	然 而	-0.058125984
-1.2909601	況 而	-0.058125984
-1.1277319	場 而	-0.058125984
-0.8399576	從 而	-0.058125984
-1.9669564	方 則	-0.058125984
-1.531886	一 則	-0.058125984
-1.4376907	直 向	-0.058125984
-1.4354504	助 向	-0.058125984
-1.3177253	後 撤	-0.058125984
-0.84924483	撤 退	-0.058125984
-1.7777507	我 明	-0.058125984
-1.5038576	家 明	-0.18001863
-1.6811588	民 明	-0.058125984
-0.24109799	明 白	-0.058125984
-1.6639043	到 嚴	-0.058125984
-1.4376907	現 嚴	-0.058125984
-1.8138782	我 重	-0.058125984
-0.4740393	嚴 重	-0.18001863
-0.77348214	事 件	-0.058125984
-1.4469632	警 務	-0.058125984
-1.1444225	職 務	-0.058125984
-1.4034059	務 處	-0.058125984
-1.5555402	處 處	-0.058125984
-0.8399576	好 處	-0.05812601
-0.8399576	心 處	-0.058125984
-1.6061082	處 長	-0.058125984
-1.5330021	亦 曾	-0.058125984
-1.3442539	了 對	-0.058125984
-1.5330945	立 對	-0.058125984
-1.3442539	法 對	-0.058125984
-1.4539132	使 對	-0.058125984
-1.6580333	示 對	-0.058125984
-1.2446097	此 對	-0.058125984
-0.82297844	敵 對	-0.058125984
-1.0953778	校 對	-0.058125984
-0.82297844	針 對	-0.058125984
-1.7108294	我 也	-0.058125984
-1.458405	家 也	-0.18001863
-1.2968283	方 也	-0.05812601
-1.2718223	況 也	-0.058125984
-1.4661281	但 也	-0.058125984
-1.3787702	樓 也	-0.058125984
-1.4162683	法 盡	-0.058125984
-1.7237275	是 盡	-0.058125984
-1.6811588	也 盡	-0.058125984
-1.9757532	方 便	-0.058125984
-1.573914	們 讓	-0.058125984
-1.3008548	化 讓	-0.058125984
-0.8434346	息 讓	-0.058125984
-1.6266934	的 行	-0.18001863
-1.1210654	進 行	-0.058125984
-0.8365082	執 行	-0.058125984
-1.1210654	罪 行	-0.058125984
-0.8365082	履 行	-0.058125984
-1.4354504	達 言	-0.058125984
-0.8484814	揚 言	-0.058125984
-1.1444225	言 論	-0.058125984
-0.8484814	無 論	-0.058125984
-1.1444225	論 自	-0.058125984
-1.1444225	守 自	-0.058125984
-2.2870255	的 活	-0.058125984
-1.5296595	行 動	-0.058125984
-0.8484814	活 動	-0.058125984
-1.315484	動 至	-0.058125984
-0.8484814	負 至	-0.058125984
-2.2686744	的 互	-0.058125984
-1.4354504	些 互	-0.058125984
-0.4742886	互 聯	-0.18001863
-0.84924483	聯 網	-0.058125984
-1.573914	們 欺	-0.058125984
-1.1345023	網 欺	-0.058125984
-0.8434346	園 欺	-0.18001863
-0.6494607	欺 凌	-0.13547702
-1.1459329	凌 無	-0.058125984
-1.4403261	如 何	-0.058125984
-0.8484814	何 即	-0.058125984
-1.7171416	民 即	-0.058125984
-1.1016587	望 市	-0.18001863
-1.8045404	有 市	-0.058125984
-1.2534925	分 市	-0.058125984
-1.6162069	對 市	-0.058125984
-0.82632154	問 市	-0.058125984
-1.2534925	安 市	-0.058125984
-0.82632154	障 市	-0.058125984
-0.82632154	籲 市	-0.058125984
-0.075594	市 民	-0.08241048
-0.84284633	警 隊	-0.058125984
-1.7699101	是 恪	-0.058125984
-0.8484814	恪 守	-0.058125984
-1.1444225	職 守	-0.058125984
-1.3177253	身 崗	-0.058125984
-1.1080317	位 和	-0.058125984
-0.9251405	以 和	-0.18001863
-1.3669573	白 和	-0.058125984
-1.594344	民 和	-0.058125984
-0.8296907	全 和	-0.18001863
-0.8296907	定 和	-0.058125984
-0.8296907	盾 和	-0.058125984
-1.6689198	和 執	-0.058125984
-0.86874926	行 職	-0.18001863
-0.8484814	忠 職	-0.058125984
-1.4034059	解 香	-0.058125984
-1.7427282	當 香	-0.058125984
-1.4034059	白 香	-0.058125984
-1.1277319	護 香	-0.058125984
-0.16717814	香 港	-0.058125984
-1.4376907	事 罪	-0.058125984
-1.315484	生 罪	-0.058125984
-1.1459329	罪 案	-0.058125984
-1.7228155	時 仍	-0.058125984
-1.4554781	有 賴	-0.18001863
-0.8484814	依 賴	-0.058125984
-1.9669564	方 協	-0.058125984
-0.8484814	供 協	-0.058125984
-1.9922073	有 助	-0.058125984
-0.4723834	協 助	-0.058125984
-0.8434346	求 助	-0.058125984
-1.4384073	助 調	-0.058125984
-0.84924483	調 查	-0.058125984
-2.2686744	的 帖	-0.058125984
-1.1444225	則 帖	-0.058125984
-2.2686744	的 文	-0.18001863
-0.4740393	帖 文	-0.058125984
-1.315484	確 令	-0.058125984
-1.603955	以 令	-0.058125984
-1.7290212	不 禁	-0.058125984
-1.638017	不 要	-0.058125984
-1.6144755	也 要	-0.058125984
-1.1144996	言 要	-0.058125984
-0.8330861	禁 要	-0.058125984
-0.8330861	否 要	-0.058125984
-0.8330861	需 要	-0.058125984
-1.6061082	要 問	-0.058125984
-1.7699101	是 否	-0.058125984
-1.3177253	此 敵	-0.058125984
-2.2870255	的 權	-0.058125984
-2.2686744	的 利	-0.058125984
-0.8484814	權 利	-0.058125984
-0.77348214	必 須	-0.058125984
-1.1459329	須 履	-0.058125984
-1.7029078	力 維	-0.058125984
-1.5608399	以 維	-0.058125984
-1.4034059	隊 維	-0.058125984
-1.1277319	守 維	-0.058125984
-0.7738965	維 護	-0.058125984
-1.6319237	和 公	-0.18001863
-1.1345023	護 公	-0.058125984
-1.3008548	持 公	-0.058125984
-0.24109799	公 共	-0.18001863
-1.1444225	共 安	-0.18001863
-0.4740393	治 安	-0.058125984
-1.3177253	安 全	-0.18001863
-1.1459329	共 秩	-0.18001863
-0.84924483	秩 序	-0.058125984
-1.1459329	序 從	-0.058125984
-1.4403261	而 保	-0.058125984
-0.84924483	保 障	-0.058125984
-1.1459329	利 益	-0.058125984
-1.3177253	文 聲	-0.058125984
-0.84924483	聲 稱	-0.058125984
-0.8484814	稱 建	-0.058125984
-1.1444225	為 建	-0.058125984
-1.614077	立 校	-0.18001863
-1.1444225	學 校	-0.058125984
-1.1459329	校 園	-0.18001863
-2.1630414	的 子	-0.058125984
-1.6319237	員 子	-0.21379457
-1.9922073	有 子	-0.058125984
-0.24109799	子 女	-0.14470464
-1.315484	文 化	-0.058125984
-0.8484814	快 化	-0.058125984
-2.065548	有 可	-0.058125984
-1.315484	化 可	-0.058125984
-1.3177253	女 歸	-0.058125984
-0.84924483	歸 邊	-0.058125984
-1.4384073	並 揚	-0.058125984
-1.6061082	要 把	-0.058125984
-1.319663	欺 負	-0.058125984
-1.1459329	至 跳	-0.058125984
-1.8138782	我 認	-0.058125984
-1.6017647	見 認	-0.058125984
-0.4742886	認 為	-0.058125984
-1.6639043	在 學	-0.058125984
-1.6660705	同 學	-0.058125984
-1.7717396	對 抗	-0.058125984
-1.6689198	員 傳	-0.058125984
-0.84924483	傳 遞	-0.058125984
-0.84924483	遞 禍	-0.058125984
-1.6061082	及 妻	-0.058125984
-0.84924483	妻 兒	-0.058125984
-2.2870255	的 信	-0.058125984
-0.84924483	信 息	-0.058125984
-1.315484	讓 仇	-0.058125984
-1.1444225	泄 仇	-0.058125984
-0.4742886	仇 恨	-0.058125984
-1.1459329	恨 得	-0.058125984
-1.6689198	到 伸	-0.058125984
-0.84924483	伸 張	-0.058125984
-1.4354504	些 宣	-0.058125984
-1.6017647	要 宣	-0.058125984
-0.4742886	宣 泄	-0.058125984
-2.2686744	的 做	-0.058125984
-0.8484814	樣 做	-0.058125984
-1.8862499	人 均	-0.058125984
-1.7171416	民 均	-0.058125984
-2.077722	有 好	-0.21379457
-1.4384073	白 絕	-0.058125984
-1.6689198	和 平	-0.18001863
-1.6161469	同 理	-0.058125984
-1.5555402	處 理	-0.058125984
-1.6109865	和 理	-0.058125984
-0.8399576	平 理	-0.18001863
-1.4384073	理 性	-0.18001863
-1.9757532	方 式	-0.058125984
-1.4354504	並 持	-0.058125984
-0.7733996	維 持	-0.058125984
-1.6639043	和 治	-0.058125984
-1.315484	持 治	-0.058125984
-1.7228155	民 需	-0.058125984
-1.6061082	要 求	-0.058125984
-1.6061082	及 刑	-0.058125984
-1.6061082	要 依	-0.058125984
-1.3177253	提 供	-0.058125984
-1.4384073	助 雙	-0.058125984
-1.7228155	也 留	-0.058125984
-1.8928795	人 資	-0.18001863
-0.84924483	資 料	-0.058125984
-1.1459329	料 私	-0.058125984
-0.84924483	私 隱	-0.058125984
-0.84924483	隱 專	-0.058125984
-1.6689198	員 針	-0.058125984
-1.7717396	對 近	-0.058125984
-0.84924483	近 期	-0.058125984
-1.6061082	見 呼	-0.058125984
-0.84924483	呼 籲	-0.058125984
-1.7290212	不 應	-0.058125984
-1.4448568	發 放	-0.058125984
-1.3177253	這 樣	-0.058125984
-1.4354504	解 除	-0.058125984
-1.1444225	做 除	-0.058125984
-1.6061082	處 外	-0.058125984
-1.1459329	可 能	-0.058125984
-0.84924483	能 觸	-0.058125984
-0.84924483	觸 犯	-0.058125984
-1.4384073	法 律	-0.058125984
-1.7717396	對 政	-0.058125984
-0.84924483	政 府	-0.058125984
-1.7290212	不 滿	-0.058125984
-1.3177253	盡 忠	-0.058125984
-1.6061082	們 受	-0.058125984
-1.1459329	須 採	-0.058125984
-0.84924483	採 取	-0.058125984
-0.84924483	取 適	-0.058125984
-1.4384073	威 脅	-0.058125984
-1.1459329	重 申	-0.058125984
-1.4384073	隊 致	-0.058125984
-1.4384073	港 整	-0.058125984
-0.84924483	整 體	-0.058125984
-2.2870255	的 穩	-0.058125984
-0.84924483	穩 定	-0.058125984
-1.4384073	理 心	-0.058125984
-1.3177253	盡 快	-0.058125984
-2.2870255	的 矛	-0.058125984
-0.84924483	矛 盾	-0.058125984
-1.6689198	和 紛	-0.058125984
-0.84924483	紛 爭	-0.058125984

\3-grams:
-0.603724	紛 爭 </s>
-0.603724	<s> 主 席
-0.603724	主 席 首
-0.603724	席 首 先
-0.5887691	首 先 我
-1.3874446	暴 力 我
-0.8733198	直 播 我
-0.4228388	就 此 我
-1.0127362	當 然 我
-1.14178	好 處 我
-0.5887691	利 益 我
-0.5887691	伸 張 我
-0.5887691	法 律 我
-0.5887691	威 脅 我
-0.5558784	先 我 希
-0.3422504	此 我 希
-0.5558784	律 我 希
-0.8431571	但 也 希
-0.9731027	治 安 希
-0.09436294	我 希 望
-0.2024876	也 希 望
-0.2024876	安 希 望
-0.3957151	希 望 大
-0.7882215	用 了 大
-0.4833752	法 會 大
-1.1351473	使 用 大
-0.70582014	了 對 大
-0.70582014	立 對 大
-0.5938957	白 絕 大
-0.7882215	處 理 大
-0.18397318	望 大 家
-0.29901013	對 大 家
-0.46714494	理 大 家
-1.3731894	大 家 了
-1.1511781	使 用 了
-1.2990726	表 達 了
-0.7202095	做 除 了
-0.79636455	家 了 解
-0.825895	動 以 解
-0.7694681	快 化 解
-0.79636455	和 理 解
-0.7909189	了 解 在
-1.0976198	同 意 在
-0.8192224	學 們 在
-0.6151381	別 是 在
-0.59561807	到 約 在
-0.88660556	宣 泄 在
-0.84158325	解 在 六
-0.603724	在 六 月
-0.60334444	六 月 十
-0.60334444	時 四 十
-0.7263534	月 十 二
-0.60334444	十 二 日
-0.8574468	出 當 日
-0.7066285	二 日 當
-0.7066285	所 說 當
-0.7990297	指 出 當
-0.5887691	推 撞 當
-1.1431565	明 白 當
-0.98616683	職 務 當
-1.14178	好 處 當
-1.4221752	市 民 當
-0.8733198	秩 序 當
-0.5887691	取 適 當
-0.8580668	日 當 天
-0.7826898	適 當 的
-0.55605614	當 天 的
-1.2122389	警 員 的
-1.0985681	人 士 的
-1.0641898	法 會 的
-1.2208952	暴 力 的
-1.0582387	不 同 的
-0.8033748	滿 意 的
-0.55179644	地 方 的
-0.5990234	前 方 的
-0.72553074	警 方 的
-1.1876377	意 見 的
-0.94618493	提 及 的
-0.81237984	視 台 的
-0.7515681	說 出 的
-0.96622896	當 時 的
-0.46107504	路 上 的
-0.46107504	網 上 的
-0.70719355	自 由 的
-0.7621813	看 到 的
-0.989173	大 樓 的
-0.94794047	發 生 的
-0.70719355	埋 身 的
-0.55605614	冒 煙 的
-0.7515681	罪 行 的
-1.244899	市 民 的
-1.0358102	香 港 的
-0.87414956	帖 文 的
-0.53549385	子 女 的
-0.55605614	妻 兒 的
-0.81237984	仇 恨 的
-0.34233248	理 性 的
-0.55605614	整 體 的
-0.75452816	天 的 人
-0.75452816	力 的 人
-1.1205173	方 的 人
-0.5887691	數 萬 人
-0.8510432	所 有 人
-0.94520575	部 分 人
-1.1637633	不 同 人
-1.312355	其 他 人
-0.1995006	的 個 人
-0.1995006	達 個 人
-0.1995006	到 個 人
-0.5887691	增 派 人
-0.98616683	警 務 人
-0.7066285	確 令 人
-1.2901478	的 人 群
-1.4087409	示 威 群
-0.72251487	人 群 數
-0.72251487	超 過 數
-0.6008266	力 多 數
-0.77635586	群 數 目
-0.60334444	數 目 超
-1.2740833	威 者 超
-0.7258501	目 超 過
-0.7258501	有 看 過
-0.77635586	過 數 萬
-0.8649811	萬 人 正
-0.59908354	人 正 如
-0.86377174	雙 方 如
-0.7202095	無 論 如
-0.8250372	否 要 如
-0.8000135	正 如 邵
-1.4023407	意 見 邵
-0.7720512	至 於 邵
-0.2024876	如 邵 議
-0.2024876	見 邵 議
-0.2024876	於 邵 議
-0.8583002	務 人 員
-0.3213657	邵 議 員
-0.5261245	的 警 員
-0.5261245	擊 警 員
-0.32825556	凌 警 員
-0.5261245	令 警 員
-0.5261245	抗 警 員
-0.59908354	隱 專 員
-0.39591512	議 員 剛
-0.3230707	員 剛 才
-1.0257207	剛 才 所
-0.85302746	法 對 所
-0.7258501	才 所 說
-0.83223045	作 者 說
-0.85334295	說 當 中
-0.8203769	的 其 中
-0.89684355	直 播 中
-0.68915695	對 所 有
-0.7348311	當 中 有
-1.0011959	即 使 有
-0.7076357	我 亦 有
-0.5872307	外 亦 有
-0.13860622	方 沒 有
-0.13860622	眾 沒 有
-0.10038134	也 沒 有
-0.13860622	均 沒 有
-0.80432206	這 是 有
-0.9780815	當 然 有
-0.68915695	確 實 有
-0.7348311	時 後 有
-0.57538676	時 更 有
-0.84790885	現 場 有
-0.68915695	有 火 有
-0.68915695	助 向 有
-0.7996375	樓 也 有
-1.096989	香 港 有
-0.57538676	時 仍 有
-1.1349493	子 女 有
-0.57538676	政 府 有
-0.842163	絕 大 部
-0.8768285	中 有 部
-0.7258501	四 十 分
-0.37786558	大 部 分
-0.37786558	有 部 分
-0.40565026	的 人 士
-0.4887663	分 人 士
-0.4887663	同 人 士
-0.4887663	他 人 士
-1.292247	人 士 衝
-1.0242748	一 直 衝
-0.7258501	士 衝 擊
-0.36352894	力 襲 擊
-1.0651231	是 在 立
-0.7643476	衝 擊 立
-0.8276599	衝 到 立
-0.59561807	進 入 立
-0.8400659	此 對 立
-0.37429017	稱 建 立
-0.37429017	為 建 立
-0.28061047	在 立 法
-0.28061047	擊 立 法
-0.28061047	到 立 法
-0.28061047	入 立 法
-1.1295389	的 方 法
-0.7202095	的 做 法
-0.59908354	觸 犯 法
-0.25305748	立 法 會
-0.60334444	是 集 會
-0.8457751	會 的 防
-1.3724438	方 的 防
-0.36369395	的 防 線
-0.79636455	理 解 並
-0.893404	防 線 並
-0.59908354	範 圍 並
-0.59908354	歸 邊 並
-0.8451114	沒 有 使
-0.79636455	線 並 使
-0.59908354	磚 塊 使
-0.37589803	何 即 使
-0.37589803	民 即 使
-0.2462343	有 使 用
-0.36955422	並 使 用
-0.36955422	塊 使 用
-0.67798907	了 大 量
-0.67798907	用 大 量
-0.77579117	也 盡 量
-0.6781165	使 用 暴
-0.9649476	大 量 暴
-1.055596	涉 及 暴
-0.4096836	嚴 重 暴
-0.7179163	解 除 暴
-0.08013579	用 暴 力
-0.10963012	量 暴 力
-0.10963012	及 暴 力
-0.08013579	重 暴 力
-0.10963012	除 暴 力
-0.6008266	量 武 力
-0.6008266	隊 致 力
-0.72833484	力 我 亦
-0.72833484	播 我 亦
-1.040672	報 道 亦
-0.59908354	處 長 亦
-0.59908354	處 外 亦
-1.0379956	我 亦 同
-0.49850747	家 不 同
-0.5940028	有 不 同
-0.5940028	民 不 同
-0.8899915	威 區 同
-0.76690036	化 讓 同
-0.76690036	並 持 同
-0.7855407	達 了 意
-0.8671231	同 的 意
-1.2552078	個 人 意
-0.8570185	也 有 意
-0.6649705	亦 同 意
-0.8768896	不 同 意
-0.64367247	表 達 意
-0.59218	也 留 意
-0.59218	不 滿 意
-0.83061457	意 在 其
-0.87587154	到 的 其
-0.81050014	縱 然 其
-0.76690036	對 於 其
-0.59734726	發 放 其
-0.84490055	序 當 他
-1.4300674	暴 力 他
-0.2189269	在 其 他
-0.2189269	然 其 他
-0.2189269	於 其 他
-0.2189269	放 其 他
-0.59561807	方 便 他
-0.7643476	們 讓 他
-0.59561807	要 把 他
-0.886117	意 的 地
-0.51471865	其 他 地
-0.4610256	性 的 方
-0.7643476	盡 量 方
-0.37429017	的 地 方
-0.22447437	他 地 方
-0.59561807	於 前 方
-0.359996	士 警 方
-0.359996	意 警 方
-0.42726213	但 警 方
-0.359996	越 警 方
-0.359996	區 警 方
-0.42726213	而 警 方
-0.359996	和 警 方
-0.31274444	賴 警 方
-0.59561807	助 雙 方
-1.3231075	方 的 示
-0.8305085	樓 的 示
-0.7618098	多 數 示
-0.8600371	火 有 示
-0.7618098	十 分 示
-0.69672537	者 表 示
-0.69672537	曾 表 示
-0.80661845	手 但 示
-0.82472515	搬 到 示
-1.4828277	暴 力 威
-0.13691768	的 示 威
-0.19247787	數 示 威
-0.19247787	有 示 威
-0.19247787	分 示 威
-0.19247787	但 示 威
-0.19247787	到 示 威
-0.7263534	威 群 眾
-1.3822035	地 方 沒
-0.59908354	群 眾 沒
-0.4511649	家 也 沒
-0.7202095	人 均 沒
-0.22853345	當 他 們
-0.22853345	力 他 們
-0.22853345	便 他 們
-0.22853345	讓 他 們
-0.22853345	把 他 們
-0.7258501	同 學 們
-0.83358955	人 員 只
-1.3063192	他 們 只
-1.2544705	威 者 只
-1.1813183	警 隊 只
-1.6017865	警 方 是
-0.14153129	員 只 是
-0.14153129	們 只 是
-0.14153129	者 只 是
-0.14153129	隊 只 是
-0.32072484	特 別 是
-0.76690036	員 這 是
-0.7179163	民 均 是
-1.3355873	只 是 集
-0.8570185	然 有 表
-0.75928676	集 會 表
-0.81348443	記 者 表
-0.59218	是 想 表
-0.8799119	事 件 表
-0.59218	亦 曾 表
-0.8040741	進 行 表
-0.59218	方 式 表
-0.19258966	有 表 達
-0.19258966	會 表 達
-0.19258966	想 表 達
-0.19258966	件 表 達
-0.19258966	行 表 達
-0.19258966	式 表 達
-0.31196445	了 意 見
-0.31196445	的 意 見
-0.31196445	人 意 見
-0.31196445	有 意 見
-0.19251202	達 意 見
-0.5529521	剛 才 提
-0.8169476	道 亦 提
-1.6297885	警 方 提
-0.42812467	才 提 及
-0.7975695	禍 必 及
-0.37589803	在 涉 及
-0.37589803	必 涉 及
-0.825895	物 以 及
-0.886117	生 的 某
-1.0730501	提 及 某
-0.7258501	及 某 電
-0.7258501	有 關 電
-0.37804034	某 電 視
-0.37804034	關 電 視
-0.36369395	電 視 台
-0.88180333	台 的 直
-0.89684355	視 台 直
-0.6114311	道 一 直
-0.6114311	則 一 直
-0.56441975	的 直 播
-0.56441975	台 直 播
-0.85793126	益 我 看
-1.1539297	亦 有 看
-0.7263534	看 過 相
-0.8768285	是 有 關
-0.60334444	過 相 關
-0.7263534	相 關 影
-0.603724	關 影 片
-0.60334444	影 片 就
-0.60334444	撤 退 就
-0.5641121	方 如 此
-0.5641121	要 如 此
-0.37786558	片 就 此
-0.37786558	退 就 此
-1.3974564	大 家 知
-0.59908354	家 知 道
-0.37589803	有 報 道
-0.37589803	實 報 道
-0.8143422	挖 出 道
-0.59908354	添 華 道
-0.82096636	知 道 縱
-0.7273714	處 當 然
-0.7273714	民 當 然
-0.59908354	道 縱 然
-0.59908354	方 雖 然
-0.59908354	調 查 然
-1.3704523	方 的 情
-0.84518194	行 的 情
-0.60334444	混 亂 情
-0.25103894	的 情 況
-0.37804034	亂 情 況
-1.0765294	情 況 未
-0.59908354	況 未 必
-0.84011614	擊 時 必
-1.2147272	方 也 必
-0.59908354	遞 禍 必
-1.088306	是 在 涉
-0.8035506	未 必 涉
-1.4855667	暴 力 多
-0.47945362	示 威 者
-0.6008266	工 作 者
-0.6008266	有 記 者
-1.3355873	只 是 想
-0.88180333	士 的 個
-1.3065419	表 達 個
-0.83658504	意 到 個
-0.9222991	意 見 但
-0.59908354	人 手 但
-0.969006	行 動 但
-0.7202095	權 利 但
-0.84518194	時 的 確
-0.84518194	文 的 確
-1.0532022	見 但 確
-0.77579117	但 確 實
-0.8035506	的 事 實
-0.8768285	實 有 報
-0.7258501	事 實 報
-1.053623	報 道 指
-0.7179163	者 說 出
-0.9649476	的 確 出
-0.59734726	道 指 出
-0.76690036	品 後 出
-0.59734726	士 挖 出
-0.8409271	約 在 三
-0.7258501	當 日 三
-0.72313964	撞 當 時
-0.72313964	白 當 時
-0.9609268	襲 擊 時
-0.8287806	區 同 時
-0.37429017	在 三 時
-0.37429017	日 三 時
-0.59561807	罪 案 時
-0.7909189	求 助 時
-1.0922555	三 時 後
-0.6008266	物 品 後
-0.72251487	直 向 後
-1.3557541	大 家 不
-0.8533315	令 人 不
-0.7953657	後 有 不
-0.7953657	府 有 不
-0.7909189	圍 並 不
-1.2006001	方 也 不
-1.0199786	市 民 不
-1.2800825	人 士 特
-0.8431571	助 時 特
-0.89684355	事 件 特
-0.2024876	士 特 別
-0.2024876	時 特 別
-0.2024876	件 特 別
-1.264617	別 是 位
-0.60334444	身 崗 位
-0.72251487	是 位 於
-0.8487864	示 對 於
-0.72251487	動 至 於
-0.77635586	位 於 前
-1.2941046	人 士 挖
-0.82096636	出 道 路
-0.6008266	道 路 上
-0.7720512	隊 身 上
-0.89684355	聯 網 上
-1.1729412	上 的 磚
-0.603724	的 磚 塊
-0.97996175	大 量 武
-1.075298	暴 力 襲
-0.7179308	武 力 襲
-0.7991684	泄 在 警
-1.2471372	女 的 警
-1.1832365	人 士 警
-0.9226423	襲 擊 警
-1.0654076	同 意 警
-0.59032124	動 但 警
-0.59032124	利 但 警
-0.74540657	身 上 警
-0.57869387	超 越 警
-0.8541236	威 區 警
-0.5440294	況 而 警
-0.5440294	場 而 警
-0.5362585	欺 凌 警
-0.7991684	民 和 警
-0.24440326	有 賴 警
-0.36633897	依 賴 警
-0.6934594	以 令 警
-0.57869387	對 抗 警
-0.57869387	重 申 警
-1.4177262	警 員 這
-0.89684355	認 為 這
-0.89684355	資 料 這
-0.7720512	播 中 由
-0.89684355	防 線 由
-0.72251487	論 自 由
-0.77635586	中 由 新
-0.603724	由 新 聞
-0.603724	新 聞 工
-0.603724	聞 工 作
-0.87882733	出 的 事
-1.4530578	暴 力 事
-0.79636455	某 些 事
-0.59908354	及 刑 事
-0.7133659	直 衝 到
-0.8443018	留 意 到
-0.7618098	亦 提 到
-0.7133659	我 看 到
-0.5938957	馬 搬 到
-0.5938957	恨 得 到
-0.5938957	們 受 到
-0.84158325	提 到 約
-1.1013026	三 時 四
-0.7263534	者 超 越
-0.77635586	線 由 添
-0.603724	由 添 華
-0.76690036	其 中 一
-0.81050014	華 道 一
-1.0578557	發 生 一
-0.79513925	然 而 一
-0.7179163	方 則 一
-0.39606023	會 大 樓
-0.60334444	至 跳 樓
-0.928371	示 威 區
-0.8482321	同 時 將
-0.603724	時 將 鐵
-0.603724	將 鐵 馬
-0.603724	鐵 馬 搬
-1.6543828	警 方 雖
-0.82096636	雖 然 增
-0.603724	然 增 派
-0.8649811	派 人 手
-1.2758646	威 者 已
-1.3284835	他 們 進
-0.60334444	者 已 進
-0.7263534	已 進 入
-1.1329283	大 樓 範
-0.603724	樓 範 圍
-0.8489521	並 不 斷
-1.2740833	威 者 投
-0.60334444	不 斷 投
-0.37804034	者 投 擲
-0.37804034	斷 投 擲
-0.9025907	投 擲 雜
-0.9018356	投 擲 物
-0.60334444	擲 雜 物
-0.83917105	均 是 以
-1.37253	意 見 以
-0.7156351	雜 物 以
-1.0034742	職 務 以
-0.9609268	行 動 以
-0.7156351	化 可 以
-0.83287364	以 及 開
-0.603724	及 開 始
-0.59908354	開 始 發
-1.1813183	香 港 發
-0.59908354	近 期 發
-0.59908354	不 應 發
-0.29917207	始 發 生
-0.29917207	港 發 生
-0.29917207	期 發 生
-0.72251487	的 某 些
-0.7720512	為 這 些
-0.6114311	生 一 些
-0.6114311	而 一 些
-1.0245166	一 些 較
-0.603724	些 較 埋
-0.6008266	較 埋 身
-0.72251487	守 自 身
-1.1880178	警 隊 身
-0.8867688	身 的 推
-0.603724	的 推 撞
-1.1013026	當 時 更
-0.877509	更 有 記
-1.1011617	表 示 現
-0.6109643	確 出 現
-0.6109643	後 出 現
-1.1232053	大 樓 現
-0.56441975	示 現 場
-0.56441975	樓 現 場
-0.8768285	場 有 火
-0.7258501	現 冒 火
-0.7263534	擲 物 品
-1.0242748	出 現 冒
-0.7258501	冒 火 冒
-0.7263534	火 冒 煙
-0.8867688	煙 的 混
-0.603724	的 混 亂
-0.81334	查 然 而
-1.0628879	情 況 而
-0.893404	現 場 而
-0.59908354	序 從 而
-1.6510899	警 方 則
-0.8211	中 一 則
-1.0242748	一 直 向
-0.8030947	有 助 向
-0.77635586	向 後 撤
-0.603724	後 撤 退
-0.8542993	處 我 明
-0.9188846	大 家 明
-1.5064769	市 民 明
-0.2024876	我 明 白
-0.14354418	家 明 白
-0.2024876	民 明 白
-0.8409271	受 到 嚴
-1.0242748	出 現 嚴
-0.85793126	脅 我 重
-0.37786558	到 嚴 重
-0.37786558	現 嚴 重
-0.56441975	力 事 件
-0.56441975	些 事 件
-0.805418	上 警 務
-1.0273836	而 警 務
-0.41261354	行 職 務
-1.0123936	警 務 處
-0.8250372	務 處 處
-0.3213657	有 好 處
-0.59908354	理 心 處
-0.83287364	處 處 長
-0.8212898	長 亦 曾
-0.7828764	除 了 對
-0.82130545	對 立 對
-0.7828764	做 法 對
-1.0296848	即 使 對
-1.0869342	表 示 對
-0.949083	如 此 對
-0.59047115	此 敵 對
-0.7088627	學 校 對
-0.59047115	員 針 對
-0.8468154	然 我 也
-0.9096095	大 家 也
-1.1544335	地 方 也
-0.94018596	警 方 也
-1.0528814	情 況 也
-1.0336698	見 但 也
-0.7909189	跳 樓 也
-0.79911315	方 法 盡
-1.3201844	只 是 盡
-1.221967	方 也 盡
-0.87121457	量 方 便
-1.3152764	他 們 讓
-0.9731027	文 化 讓
-0.6008266	信 息 讓
-0.8358483	當 的 行
-1.339928	方 的 行
-0.7179163	們 進 行
-0.59734726	和 執 行
-0.7179163	事 罪 行
-0.59734726	須 履 行
-1.3175083	表 達 言
-0.60334444	並 揚 言
-0.7258501	達 言 論
-0.60334444	凌 無 論
-0.7258501	言 論 自
-0.7258501	恪 守 自
-0.8867688	由 的 活
-0.44508973	的 行 動
-0.60334444	的 活 動
-0.77579117	活 動 至
-0.60334444	欺 負 至
-0.886117	及 的 互
-1.0235171	一 些 互
-0.37804034	的 互 聯
-0.37804034	些 互 聯
-0.36369395	互 聯 網
-1.3152764	他 們 欺
-0.89684355	聯 網 欺
-0.36243236	校 園 欺
-0.4930339	網 欺 凌
-0.31209382	園 欺 凌
-1.0265613	欺 凌 無
-0.8040846	論 如 何
-0.60334444	如 何 即
-1.5260144	市 民 即
-0.8104503	希 望 市
-0.8570185	使 有 市
-0.9529951	部 分 市
-0.834348	敵 對 市
-0.59218	要 問 市
-0.9529951	治 安 市
-0.59218	保 障 市
-0.59218	呼 籲 市
-0.048441235	望 市 民
-0.06537147	有 市 民
-0.06537147	分 市 民
-0.06537147	對 市 民
-0.06537147	問 市 民
-0.06537147	安 市 民
-0.06537147	障 市 民
-0.06537147	籲 市 民
-0.60053223	在 警 隊
-0.72527426	但 警 隊
-0.83305347	賴 警 隊
-0.60053223	申 警 隊
-1.3355873	只 是 恪
-0.60334444	是 恪 守
-0.7258501	忠 職 守
-0.77635586	自 身 崗
-0.7133659	崗 位 和
-0.63978875	是 以 和
-0.63978875	見 以 和
-1.1618184	明 白 和
-1.4563222	市 民 和
-0.35939527	安 全 和
-0.5938957	穩 定 和
-0.5938957	矛 盾 和
-0.84158325	位 和 執
-0.6133082	執 行 職
-0.6133082	履 行 職
-0.60334444	盡 忠 職
-0.79636455	化 解 香
-0.85051054	務 當 香
-1.1813183	明 白 香
-0.893404	維 護 香
-0.14235686	解 香 港
-0.14235686	當 香 港
-0.14235686	白 香 港
-0.14235686	護 香 港
-0.8035506	刑 事 罪
-1.0754029	發 生 罪
-0.7263534	生 罪 案
-0.8482321	案 時 仍
-0.80710495	港 有 賴
-0.80710495	仍 有 賴
-0.60334444	要 依 賴
-1.6510899	警 方 協
-0.60334444	提 供 協
-0.87232614	女 有 助
-0.3767042	方 協 助
-0.3767042	供 協 助
-0.6008266	要 求 助
-1.0245166	協 助 調
-0.603724	助 調 查
-1.1716821	上 的 帖
-0.7258501	一 則 帖
-0.63795793	女 的 文
-0.37786558	的 帖 文
-0.37786558	則 帖 文
-0.9790596	的 確 令
-0.8325555	可 以 令
-0.8489521	人 不 禁
-0.83743376	也 不 要
-0.8340973	況 也 要
-0.7156351	揚 言 要
-0.59561807	不 禁 要
-0.59561807	是 否 要
-0.59561807	民 需 要
-0.83287364	禁 要 問
-0.8534747	方 是 否
-0.97996175	如 此 敵
-0.8867688	見 的 權
-0.886117	民 的 利
-0.60334444	的 權 利
-0.56441975	時 必 須
-0.56441975	也 必 須
-0.9025907	必 須 履
-0.84586006	致 力 維
-0.825895	務 以 維
-1.1813183	警 隊 維
-0.7202095	職 守 維
-0.5646436	力 維 護
-0.5646436	以 維 護
-0.45007274	全 和 公
-0.89684355	維 護 公
-0.9731027	維 持 公
-0.14354418	和 公 共
-0.2024876	護 公 共
-0.2024876	持 公 共
-0.6634532	公 共 安
-0.37786558	和 治 安
-0.37786558	持 治 安
-0.43048286	共 安 全
-0.6637825	公 共 秩
-0.36369395	共 秩 序
-0.9025907	秩 序 從
-0.8040846	從 而 保
-0.603724	而 保 障
-0.7263534	的 利 益
-0.97996175	帖 文 聲
-0.603724	文 聲 稱
-0.60334444	聲 稱 建
-0.9018356	認 為 建
-0.44928163	建 立 校
-0.7258501	在 學 校
-0.4127983	立 校 園
-0.88180333	員 的 子
-0.6742286	警 員 子
-0.87232614	向 有 子
-0.2024876	的 子 女
-0.13099866	員 子 女
-0.2024876	有 子 女
-0.4302904	的 文 化
-0.60334444	盡 快 化
-1.1539297	亦 有 可
-0.9790596	文 化 可
-1.2252333	子 女 歸
-0.603724	女 歸 邊
-0.80369604	邊 並 揚
-0.83287364	言 要 把
-0.77684236	們 欺 負
-0.7263534	負 至 跳
-0.85793126	張 我 認
-1.4173826	意 見 認
-0.37804034	我 認 為
-0.37804034	見 認 為
-0.8409271	們 在 學
-0.8412113	讓 同 學
-0.85366833	校 對 抗
-1.4341222	警 員 傳
-0.603724	員 傳 遞
-0.603724	傳 遞 禍
-0.83287364	必 及 妻
-0.603724	及 妻 兒
-0.8867688	兒 的 信
-0.603724	的 信 息
-0.77579117	息 讓 仇
-0.9018356	宣 泄 仇
-0.37804034	讓 仇 恨
-0.37804034	泄 仇 恨
-0.9025907	仇 恨 得
-0.84158325	得 到 伸
-0.603724	到 伸 張
-0.8030947	這 些 宣
-0.83223045	不 要 宣
-0.37804034	些 宣 泄
-0.37804034	要 宣 泄
-0.886117	恨 的 做
-0.60334444	這 樣 做
-0.8644335	有 人 均
-1.5260144	市 民 均
-0.6224435	沒 有 好
-1.199326	明 白 絕
-0.4516169	以 和 平
-0.8343394	持 同 理
-0.8250372	心 處 理
-0.83358955	白 和 理
-0.36167112	和 平 理
-0.43960273	平 理 性
-1.1433644	的 方 式
-0.8030947	解 並 持
-0.5643751	隊 維 持
-0.5643751	守 維 持
-0.8409271	定 和 治
-0.9790596	維 持 治
-1.5290276	市 民 需
-0.83287364	需 要 求
-1.0741706	涉 及 刑
-0.83287364	也 要 依
-0.77635586	方 提 供
-1.0245166	協 助 雙
-0.8482321	我 也 留
-0.62784094	個 人 資
-0.36369395	人 資 料
-0.9025907	資 料 私
-0.603724	料 私 隱
-0.603724	私 隱 專
-0.84158325	專 員 針
-0.85366833	針 對 近
-0.603724	對 近 期
-1.4196885	意 見 呼
-0.603724	見 呼 籲
-1.102593	民 不 應
-0.8049966	應 發 放
-0.77635586	料 這 樣
-0.8030947	以 解 除
-0.7258501	樣 做 除
-1.1977599	好 處 外
-0.7263534	有 可 能
-0.603724	可 能 觸
-0.603724	能 觸 犯
-0.80369604	犯 法 律
-0.85366833	使 對 政
-0.603724	對 政 府
-1.102593	有 不 滿
-0.77635586	是 盡 忠
-1.3305031	他 們 受
-0.9025907	必 須 採
-0.603724	須 採 取
-0.603724	採 取 適
-0.80369604	力 威 脅
-0.7263534	我 重 申
-1.199326	警 隊 致
-1.199326	香 港 整
-0.603724	港 整 體
-0.8867688	體 的 穩
-0.603724	的 穩 定
-0.80369604	同 理 心
-0.77635586	法 盡 快
-0.8867688	港 的 矛
-0.603724	的 矛 盾
-0.84158325	盾 和 紛
-0.603724	和 紛 爭

\end\
