\data\
ngram 1=455
ngram 2=1349
ngram 3=1736

\1-grams:
-3.0827222	<unk>	0
0	<s>	-0.076617554
-2.9221644	</s>	0
-2.2656178	主	-0.3182063
-2.9221644	席	-0.076617554
-2.9221644	今	-0.076617554
-2.9221644	天	-0.076617554
-2.404261	我	-0.076617554
-2.4947262	向	-0.1379746
-2.6091316	立	-0.076617554
-2.9221644	法	-0.076617554
-1.9741287	會	-0.11095113
-1.9741287	提	-0.41852564
-2.8767414	交	-0.076617554
-2.076241	政	-0.3718924
-2.9221644	府	-0.076617554
-2.6091316	覆	-0.16739888
-2.9221644	文	-0.076617554
-2.7648928	回	-0.20243001
-2.8767414	應	-0.076617554
-2.32943	帳	-0.29378906
-2.8767414	目	-0.076617554
-2.4947262	委	-0.26430893
-2.404261	員	-0.15080662
-2.32943	(	-0.076617554
-2.32943	)	-0.076617554
-2.7648928	第	-0.20243001
-2.6091316	六	-0.076617554
-2.32943	十	-0.1271274
-2.9221644	九	-0.076617554
-2.9221644	A	-0.076617554
-1.9448091	和	-0.1271274
-2.4947262	七	-0.18429448
-2.9221644	號	-0.076617554
-2.2656178	報	-0.5195814
-2.9221644	告	-0.076617554
-2.9221644	書	-0.076617554
-1.7097585	及	-0.09688257
-2.9221644	副	-0.076617554
-2.0055718	在	-0.10067796
-2.9221644	五	-0.076617554
-2.4947262	月	-0.18429448
-2.2099915	二	-0.26725796
-2.7648928	日	-0.076617554
-2.160688	一	-0.076617554
-2.9221644	闡	-0.076617554
-2.7648928	述	-0.076617554
-2.4947262	對	-0.1379746
-2.6091316	審	-0.15477097
-2.2656178	計	-0.23529437
-2.404261	署	-0.09487732
-2.8767414	長	-0.076617554
-2.6091316	內	-0.076617554
-2.404261	分	-0.18429448
-2.7648928	別	-0.076617554
-1.8440491	有	-0.22763163
-2.4947262	關	-0.1379746
-1.9173442	社	-0.7771939
-2.9221644	福	-0.076617554
-2.9221644	利	-0.076617554
-2.2099915	整	-0.28105187
-2.9221644	筆	-0.076617554
-2.8767414	撥	-0.25014383
-2.8767414	款	-0.076617554
-1.4031378	的	-0.15671113
-2.32943	管	-0.29378906
-2.8767414	理	-0.076617554
-2.7648928	融	-0.20243001
-2.4947262	合	-0.13498373
-1.9448091	教	-0.58473396
-2.9221644	育	-0.076617554
-2.7648928	這	-0.18429448
-2.9221644	兩	-0.076617554
-2.4947262	個	-0.076617554
-2.9221644	章	-0.076617554
-2.8767414	節	-0.076617554
-2.9221644	結	-0.076617554
-2.8767414	論	-0.076617554
-2.7648928	建	-0.18429448
-2.7648928	議	-0.076617554
-2.9221644	歡	-0.076617554
-2.9221644	迎	-0.076617554
-2.2656178	亦	-0.11964051
-2.8767414	感	-0.25014383
-2.8767414	謝	-0.076617554
-2.2656178	為	-0.10962993
-2.2656178	所	-0.11393861
-2.8767414	付	-0.076617554
-2.7648928	出	-0.076617554
-2.8767414	時	-0.076617554
-2.7648928	間	-0.076617554
-2.8767414	努	-0.25014383
-2.8767414	力	-0.076617554
-2.7648928	接	-0.076617554
-2.9221644	納	-0.076617554
-2.7648928	各	-0.076617554
-2.7648928	項	-0.076617554
-2.32943	並	-0.11954199
-2.4947262	已	-0.1271274
-2.32943	中	-0.16103902
-2.8767414	詳	-0.25014383
-2.8767414	細	-0.076617554
-2.9221644	代	-0.076617554
-2.8767414	部	-0.25014383
-2.9221644	門	-0.076617554
-2.7648928	具	-0.20243001
-2.8767414	體	-0.076617554
-2.8767414	此	-0.076617554
-2.9221644	扼	-0.076617554
-2.32943	要	-0.110688195
-2.9221644	說	-0.076617554
-2.8767414	明	-0.076617554
-2.7648928	重	-0.18429448
-2.8767414	策	-0.076617554
-2.7648928	範	-0.20243001
-2.9221644	疇	-0.076617554
-2.8767414	採	-0.25014383
-2.7648928	取	-0.15477097
-2.7648928	措	-0.20243001
-2.8767414	施	-0.076617554
-2.4947262	進	-0.15477097
-2.7648928	展	-0.076617554
-2.404261	於	-0.12614988
-2.4947262	津	-0.26430893
-2.7648928	助	-0.076617554
-2.32943	制	-0.15477097
-2.4947262	度	-0.076617554
-2.8767414	下	-0.076617554
-2.7648928	實	-0.18429448
-2.076241	服	-0.80449
-2.8767414	務	-0.076617554
-2.6091316	表	-0.16739888
-2.6091316	現	-0.11393861
-2.116415	監	-0.6067316
-2.9221644	察	-0.076617554
-2.9221644	非	-0.076617554
-1.76232	機	-0.7953276
-2.8767414	構	-0.076617554
-2.32943	受	-0.29378906
-2.4947262	資	-0.2094492
-2.404261	與	-0.12614988
-2.9221644	共	-0.076617554
-2.7648928	同	-0.076617554
-2.8767414	訂	-0.076617554
-2.9221644	貼	-0.076617554
-2.4947262	協	-0.14766099
-2.0394707	以	-0.14270765
-2.8767414	釐	-0.076617554
-2.4947262	定	-0.076617554
-2.8767414	標	-0.076617554
-2.8767414	準	-0.076617554
-2.4947262	評	-0.42427877
-2.9221644	估	-0.076617554
-2.8767414	須	-0.076617554
-2.9221644	妥	-0.076617554
-2.8767414	善	-0.076617554
-2.2099915	其	-0.10621345
-2.9221644	轄	-0.076617554
-2.8767414	單	-0.25014383
-2.8767414	位	-0.076617554
-2.8767414	使	-0.076617554
-2.9221644	供	-0.076617554
-2.8767414	符	-0.25014383
-2.8767414	求	-0.076617554
-2.9221644	除	-0.076617554
-2.8767414	了	-0.076617554
-2.6091316	期	-0.076617554
-2.9221644	季	-0.076617554
-2.8767414	統	-0.076617554
-2.2099915	年	-0.09754967
-2.9221644	自	-0.076617554
-2.7648928	外	-0.1379746
-2.7648928	每	-0.18429448
-2.7648928	周	-0.18429448
-2.7648928	三	-0.076617554
-2.6091316	探	-0.32736874
-2.9221644	訪	-0.076617554
-2.7648928	當	-0.18429448
-2.8767414	包	-0.25014383
-2.9221644	括	-0.076617554
-2.4947262	或	-0.1271274
-2.9221644	突	-0.076617554
-2.9221644	擊	-0.076617554
-2.9221644	若	-0.076617554
-2.7648928	發	-0.076617554
-2.9221644	不	-0.076617554
-2.6091316	規	-0.16739888
-2.4947262	地	-0.076617554
-2.4947262	方	-0.2094492
-2.6091316	改	-0.32736874
-2.8767414	劃	-0.076617554
-2.8767414	落	-0.25014383
-2.7648928	情	-0.20243001
-2.8767414	況	-0.11954199
-2.404261	更	-0.19326761
-2.9221644	效	-0.076617554
-2.7648928	跟	-0.20243001
-2.2099915	持	-0.311075
-2.8767414	續	-0.076617554
-2.9221644	欠	-0.076617554
-2.9221644	佳	-0.076617554
-2.8767414	零	-0.2094492
-2.32943	成	-0.12614988
-2.9221644	密	-0.076617554
-2.8767414	切	-0.076617554
-2.7648928	商	-0.18429448
-2.7648928	討	-0.076617554
-2.7648928	適	-0.076617554
-2.6091316	行	-0.076617554
-2.8767414	動	-0.076617554
-2.7648928	營	-0.1379746
-2.4947262	運	-0.13498373
-2.8767414	虧	-0.25014383
-2.9221644	損	-0.076617554
-2.8767414	原	-0.18429448
-2.8767414	因	-0.076617554
-2.8767414	例	-0.076617554
-2.7648928	如	-0.076617554
-2.9221644	工	-0.076617554
-2.9221644	流	-0.076617554
-2.9221644	失	-0.076617554
-2.8767414	率	-0.076617554
-2.9221644	低	-0.076617554
-2.8767414	預	-0.076617554
-2.9221644	水	-0.076617554
-2.9221644	平	-0.076617554
-2.6091316	按	-0.15477097
-2.9221644	市	-0.076617554
-2.9221644	場	-0.076617554
-2.8767414	較	-0.076617554
-2.6091316	高	-0.076617554
-2.4947262	薪	-0.26430893
-2.8767414	金	-0.076617554
-2.8767414	招	-0.25014383
-2.9221644	聘	-0.076617554
-2.9221644	挽	-0.076617554
-2.9221644	留	-0.076617554
-2.2099915	人	-0.17745714
-2.9221644	才	-0.076617554
-2.6091316	等	-0.076617554
-2.9221644	略	-0.076617554
-2.9221644	性	-0.076617554
-2.8767414	用	-0.076617554
-2.6091316	儲	-0.32736874
-2.9221644	備	-0.076617554
-2.9221644	滿	-0.076617554
-2.9221644	足	-0.076617554
-2.2656178	需	-0.23255147
-2.8767414	保	-0.076617554
-2.9221644	質	-0.076617554
-2.8767414	素	-0.076617554
-2.9221644	繼	-0.076617554
-2.7648928	從	-0.076617554
-2.4947262	財	-0.22089137
-2.6091316	經	-0.076617554
-2.160688	檢	-0.42427877
-2.8767414	視	-0.076617554
-2.9221644	狀	-0.076617554
-2.6091316	確	-0.16739888
-2.8767414	穩	-0.18429448
-2.9221644	健	-0.076617554
-2.9221644	果	-0.076617554
-2.6091316	上	-0.076617554
-2.9221644	巨	-0.076617554
-2.8767414	大	-0.076617554
-2.32943	額	-0.12614988
-2.8767414	解	-0.076617554
-2.9221644	給	-0.076617554
-2.9221644	予	-0.076617554
-2.8767414	意	-0.25014383
-2.9221644	見	-0.076617554
-2.8767414	能	-0.076617554
-2.9221644	維	-0.076617554
-2.7648928	可	-0.076617554
-2.9221644	認	-0.076617554
-2.7648928	層	-0.15477097
-2.9221644	酬	-0.076617554
-2.7648928	安	-0.20243001
-2.9221644	排	-0.076617554
-2.8767414	空	-0.076617554
-2.6091316	八	-0.076617554
-2.6091316	就	-0.076617554
-2.9221644	控	-0.076617554
-2.9221644	新	-0.076617554
-2.6091316	指	-0.1379746
-2.9221644	引	-0.076617554
-2.6091316	局	-0.076617554
-2.9221644	照	-0.076617554
-2.8767414	該	-0.25014383
-2.9221644	未	-0.076617554
-2.8767414	獲	-0.076617554
-2.9221644	豁	-0.076617554
-2.9221644	免	-0.076617554
-2.32943	公	-0.12614988
-2.8767414	開	-0.076617554
-2.9221644	披	-0.076617554
-2.9221644	露	-0.076617554
-2.6091316	正	-0.1379746
-2.9221644	修	-0.076617554
-2.8767414	手	-0.076617554
-2.9221644	冊	-0.076617554
-2.8767414	通	-0.076617554
-2.9221644	知	-0.076617554
-2.8767414	根	-0.25014383
-2.9221644	據	-0.076617554
-2.9221644	最	-0.076617554
-2.9221644	條	-0.076617554
-2.9221644	件	-0.076617554
-2.8767414	直	-0.076617554
-2.8767414	透	-0.076617554
-2.9221644	過	-0.076617554
-2.8767414	科	-0.25014383
-2.8767414	聯	-0.25014383
-2.9221644	絡	-0.076617554
-2.9221644	任	-0.076617554
-2.32943	支	-0.5704068
-2.9221644	援	-0.076617554
-2.9221644	熱	-0.076617554
-2.9221644	線	-0.076617554
-2.8767414	記	-0.076617554
-2.7648928	本	-0.076617554
-2.9221644	攤	-0.076617554
-2.9221644	事	-0.076617554
-2.8767414	宜	-0.076617554
-2.9221644	答	-0.076617554
-2.9221644	問	-0.076617554
-2.9221644	題	-0.076617554
-2.9221644	查	-0.076617554
-2.8767414	詢	-0.076617554
-2.9221644	清	-0.076617554
-2.8767414	則	-0.076617554
-2.9221644	案	-0.076617554
-2.8767414	諮	-0.25014383
-2.404261	業	-0.22684221
-2.9221644	界	-0.076617554
-2.8767414	步	-0.076617554
-2.9221644	源	-0.076617554
-2.9221644	面	-0.076617554
-2.9221644	然	-0.076617554
-2.8767414	離	-0.25014383
-2.404261	職	-0.18429448
-2.9221644	屬	-0.076617554
-2.9221644	治	-0.076617554
-2.9221644	注	-0.076617554
-2.7648928	多	-0.076617554
-2.9221644	影	-0.076617554
-2.9221644	響	-0.076617554
-2.9221644	待	-0.076617554
-2.9221644	遇	-0.076617554
-2.9221644	他	-0.076617554
-2.9221644	何	-0.076617554
-2.4947262	優	-0.42427877
-2.9221644	化	-0.076617554
-2.8767414	將	-0.076617554
-2.9221644	架	-0.076617554
-2.9221644	缺	-0.076617554
-2.6091316	專	-0.15477097
-2.8767414	責	-0.076617554
-2.32943	小	-0.22905008
-2.9221644	組	-0.076617554
-2.8767414	式	-0.076617554
-2.9221644	積	-0.076617554
-2.9221644	編	-0.076617554
-2.9221644	基	-0.076617554
-2.4947262	加	-0.26430893
-2.9221644	強	-0.076617554
-2.9221644	眾	-0.076617554
-2.9221644	負	-0.076617554
-2.9221644	舉	-0.076617554
-2.9221644	聚	-0.076617554
-2.9221644	焦	-0.076617554
-2.9221644	聆	-0.076617554
-2.9221644	聽	-0.076617554
-2.9221644	收	-0.076617554
-2.9221644	集	-0.076617554
-2.9221644	份	-0.076617554
-2.9221644	者	-0.076617554
-2.9221644	完	-0.076617554
-2.9221644	千	-0.076617554
-1.8440491	學	-0.21325096
-2.9221644	始	-0.076617554
-2.9221644	投	-0.076617554
-2.9221644	放	-0.076617554
-2.8767414	常	-0.076617554
-2.8767414	特	-0.25014383
-2.9221644	殊	-0.076617554
-2.8767414	生	-0.076617554
-2.4947262	而	-0.076617554
-2.9221644	言	-0.076617554
-2.9221644	習	-0.076617554
-2.8767414	輔	-0.25014383
-2.7648928	導	-0.15477097
-2.9221644	後	-0.076617554
-2.6091316	升	-0.076617554
-2.8767414	錄	-0.076617554
-2.6091316	校	-0.10962993
-2.9221644	師	-0.076617554
-2.9221644	些	-0.076617554
-2.9221644	籌	-0.076617554
-2.8767414	級	-0.076617554
-2.4947262	至	-0.14766099
-2.9221644	晉	-0.076617554
-2.9221644	領	-0.076617554
-2.8767414	全	-0.076617554
-2.9221644	參	-0.076617554
-2.9221644	模	-0.076617554
-2.7648928	作	-0.076617554
-2.9221644	南	-0.076617554
-2.9221644	階	-0.076617554
-2.9221644	段	-0.076617554
-2.9221644	幫	-0.076617554
-2.8767414	相	-0.25014383
-2.9221644	早	-0.076617554
-2.9221644	識	-0.076617554
-2.9221644	衞	-0.076617554
-2.9221644	醫	-0.076617554
-2.8767414	院	-0.076617554
-2.8767414	跨	-0.076617554
-2.8767414	得	-0.076617554
-2.9221644	即	-0.076617554
-2.9221644	讀	-0.076617554
-2.9221644	前	-0.076617554
-2.9221644	兒	-0.076617554
-2.9221644	童	-0.076617554
-2.9221644	料	-0.076617554
-2.9221644	便	-0.076617554
-2.9221644	困	-0.076617554
-2.9221644	難	-0.076617554
-2.9221644	心	-0.076617554
-2.9221644	蓋	-0.076617554
-2.9221644	港	-0.076617554
-2.9221644	逐	-0.076617554
-2.9221644	量	-0.076617554
-2.9221644	把	-0.076617554
-2.9221644	家	-0.076617554
-2.8767414	比	-0.25014383
-2.7648928	四	-0.076617554
-2.9221644	擴	-0.076617554
-2.8767414	約	-0.076617554
-2.9221644	百	-0.076617554
-2.9221644	是	-0.076617554
-2.9221644	普	-0.076617554
-2.9221644	餘	-0.076617554
-2.9221644	達	-0.076617554
-2.9221644	增	-0.076617554
-2.9221644	培	-0.076617554
-2.9221644	訓	-0.076617554
-2.9221644	遠	-0.076617554
-2.9221644	再	-0.076617554
-2.9221644	次	-0.076617554
-2.9221644	嚴	-0.076617554
-2.9221644	格	-0.076617554
-2.9221644	盡	-0.076617554
-2.9221644	快	-0.076617554
-2.9221644	帑	-0.076617554

\2-grams:
-1.4769123	席 </s>	0
-0.7791593	<s> 主	-0.06327229
-1.9820384	會 主	-0.1606637
-0.7791593	副 主	-0.06327229
-2.2027493	的 主	-0.06327229
-1.0684718	謝 主	-0.06327229
-1.4330444	求 主	-0.06327229
-1.0684718	絡 主	-0.06327229
-0.7791593	籌 主	-0.06327229
-0.40861687	主 席	-0.102370836
-1.4769123	席 今	-0.06327229
-0.7885173	今 天	-0.06327229
-1.447926	席 我	-0.06327229
-0.7824174	天 我	-0.06327229
-1.3591428	應 我	-0.06327229
-1.5191298	議 我	-0.06327229
-0.7824174	自 我	-0.06327229
-1.0748373	照 我	-0.06327229
-1.5281409	我 向	-0.06327229
-2.0604928	會 向	-0.06327229
-1.2472283	日 向	-0.06327229
-1.8707805	一 向	-0.06327229
-1.4555625	期 向	-0.06327229
-0.7522031	向 立	-0.25131354
-1.2555504	建 立	-0.06327229
-1.6030291	成 立	-0.06327229
-1.3756549	確 立	-0.06327229
-1.4769123	立 法	-0.25131354
-0.76794446	法 會	-0.25131354
-1.535901	府 會	-0.06327229
-1.4188277	委 會	-0.16983543
-1.5939647	員 會	-0.06327229
-1.729573	署 會	-0.1290622
-1.2973773	社 會	-0.25131354
-0.83041584	亦 會	-0.06327229
-0.87563133	並 會	-0.06327229
-1.2019839	門 會	-0.06327229
-2.0736966	機 會	-0.06327229
-1.5080379	額 會	-0.06327229
-1.5707724	局 會	-0.06327229
-1.2019839	詢 會	-0.06327229
-1.0468996	將 會	-0.06327229
-1.8956457	學 會	-0.06327229
-1.3777726	會 提	-0.17920502
-1.771972	和 提	-0.06327229
-1.729573	署 提	-0.06327229
-1.8058722	構 提	-0.17920502
-1.716844	以 提	-0.06327229
-1.535901	定 提	-0.06327229
-1.611111	其 提	-0.06327229
-1.6982996	年 提	-0.06327229
-1.4454783	地 提	-0.06327229
-1.2019839	例 提	-0.06327229
-1.0468996	能 提	-0.06327229
-1.2019839	獲 提	-0.06327229
-0.76794446	題 提	-0.06327229
-1.4948242	生 提	-0.06327229
-0.76794446	段 提	-0.06327229
-0.90282375	提 交	-0.06327226
-1.2594453	細 交	-0.06327229
-1.5208898	交 政	-0.06327229
-1.3236153	應 政	-0.06327229
-1.3236153	力 政	-0.06327229
-1.2150693	各 政	-0.06327229
-1.6444404	要 政	-0.06327229
-1.056014	明 政	-0.06327229
-1.795387	務 政	-0.06327229
-0.77271545	非 政	-0.06327229
-1.5305339	況 政	-0.06327229
-1.4047289	行 政	-0.06327229
-0.7442861	財 政	-0.17920502
-1.056014	面 政	-0.06327229
-0.32688725	政 府	-0.06327229
-1.537343	我 覆	-0.06327229
-1.6521155	府 覆	-0.06327229
-1.8695682	在 覆	-0.06327229
-1.5407444	已 覆	-0.06327229
-0.55247605	覆 文	-0.06327226
-1.2568716	文 回	-0.06327229
-2.4334412	的 回	-0.06327229
-1.4712505	體 回	-0.06327229
-0.42782968	回 應	-0.06327226
-1.9027929	以 應	-0.06327229
-1.6172155	府 帳	-0.06327229
-1.5681425	( 帳	-0.06327229
-1.353016	書 帳	-0.06327229
-0.7807853	迎 帳	-0.06327229
-1.0716429	謝 帳	-0.25131354
-0.7807853	納 帳	-0.06327229
-1.0716429	記 帳	-0.06327229
-1.6237891	帳 目	-0.06327229
-2.1528385	學 目	-0.06327229
-0.34968123	帳 委	-0.4616937
-1.0780554	目 委	-0.06327229
-2.1091275	及 委	-0.06327229
-1.2472283	各 委	-0.06327229
-1.5885838	察 委	-0.06327229
-0.37091377	委 員	-0.14719416
-1.9981154	構 員	-0.06327229
-1.447926	求 員	-0.06327229
-1.2424858	如 員	-0.06327229
-0.9416163	人 員	-0.23110309
-1.5296713	職 員	-0.06327229
-2.006648	會 (	-0.06327229
-1.8578398	署 (	-0.06327229
-1.353016	內 (	-0.06327229
-1.5103017	議 (	-0.06327229
-1.6968191	度 (	-0.06327229
-1.8890342	務 (	-0.06327229
-1.9720438	構 (	-0.06327229
-2.006648	會 )	-0.06327229
-1.8578398	署 )	-0.06327229
-1.5103017	議 )	-0.06327229
-1.6968191	度 )	-0.06327229
-1.8890342	務 )	-0.06327229
-1.9720438	構 )	-0.06327229
-1.4404215	期 )	-0.06327229
-1.610035	交 第	-0.06327229
-1.610035	) 第	-0.06327229
-1.084564	長 第	-0.06327229
-0.42700478	第 六	-0.1606637
-1.8912994	一 六	-0.06327229
-1.8691149	年 六	-0.06327229
-1.0812975	約 六	-0.06327229
-1.353016	六 十	-0.1606637
-0.8267782	七 十	-0.1606637
-1.5225983	月 十	-0.06327229
-1.0192156	二 十	-0.06327229
-1.8324403	一 十	-0.17920502
-1.8578398	署 十	-0.06327229
-1.8154895	年 十	-0.06327229
-1.1315504	十 九	-0.1290622
-1.382622	九 A	-0.25131354
-0.7663657	A 和	-0.25131354
-1.1977084	日 和	-0.06327229
-1.3014487	別 和	-0.06327229
-1.1977084	間 和	-0.06327229
-1.3014487	力 和	-0.06327229
-1.4380156	施 和	-0.06327229
-1.5502505	制 和	-0.06327229
-1.4380156	估 和	-0.06327229
-1.624893	人 和	-0.06327229
-1.3014487	用 和	-0.06327229
-1.1977084	見 和	-0.06327229
-1.1977084	排 和	-0.06327229
-1.5608423	局 和	-0.06327229
-1.0439035	則 和	-0.06327229
-1.0439035	責 和	-0.06327229
-1.1977084	級 和	-0.06327229
-1.7995229	十 七	-0.06327229
-1.2921059	和 七	-0.17920502
-2.1091275	及 七	-0.06327229
-1.8707805	一 七	-0.25131354
-1.8504943	年 七	-0.06327229
-1.8425298	十 號	-0.1606637
-0.7791593	號 報	-0.1606637
-1.6751835	計 報	-0.06327229
-1.6963383	關 報	-0.06327229
-2.2027493	的 報	-0.06327229
-1.3469745	展 報	-0.06327229
-1.8686196	務 報	-0.06327229
-1.5016496	估 報	-0.06327229
-1.6061788	討 報	-0.25131354
-0.1674241	報 告	-0.16542104
-1.6178478	告 書	-0.06327229
-1.312466	席 及	-0.06327226
-1.6709807	會 及	-0.06327229
-1.481179	帳 及	-0.06327229
-1.2457495	九 及	-0.06327229
-1.4038574	告 及	-0.06327229
-1.5885662	署 及	-0.06327229
-1.4368678	理 及	-0.06327229
-1.0122426	論 及	-0.06327229
-1.4798145	為 及	-0.06327229
-1.5045481	要 及	-0.06327229
-1.470092	制 及	-0.06327229
-1.312466	貼 及	-0.06327229
-1.1158015	以 及	-0.06327229
-1.0122426	準 及	-0.06327229
-1.3634171	估 及	-0.06327229
-1.4643981	供 及	-0.06327229
-1.3634171	劃 及	-0.06327229
-1.421136	況 及	-0.06327229
-1.2457495	率 及	-0.06327229
-1.0122426	聘 及	-0.06327229
-1.2457495	視 及	-0.06327229
-1.3634171	引 及	-0.06327229
-1.2457495	強 及	-0.06327229
-0.7493682	聽 及	-0.06327229
-1.7408814	學 及	-0.06327229
-0.7493682	料 及	-0.06327229
-1.0122426	便 及	-0.06327229
-2.2094138	及 副	-0.06327229
-1.3912346	席 在	-0.06327229
-1.4530716	我 在	-0.06327229
-1.8580098	會 在	-0.06327229
-1.5452707	府 在	-0.06327229
-1.5452707	理 在	-0.06327229
-1.4644192	已 在	-0.06327229
-1.7629348	務 在	-0.06327229
-1.823484	構 在	-0.06327229
-0.769529	若 在	-0.06327229
-1.206302	可 在	-0.06327229
-1.4530716	引 在	-0.06327229
-1.0499165	步 在	-0.06327229
-1.3123906	四 在	-0.06327229
-0.769529	是 在	-0.06327229
-1.9030515	在 五	-0.06327229
-1.3653572	六 月	-0.06327229
-0.82961416	七 月	-0.06327229
-0.7840557	五 月	-0.06327229
-1.8707805	一 月	-0.06327229
-1.3653572	八 月	-0.06327229
-1.3410158	九 二	-0.06327229
-1.0719873	在 二	-0.17920502
-0.82396054	月 二	-0.06327229
-0.784411	於 二	-0.38251245
-1.2285613	三 二	-0.06327229
-0.7472811	零 二	-0.1341931
-1.2285613	從 二	-0.06327229
-1.3410158	八 二	-0.06327229
-0.7775394	百 二	-0.06327229
-1.5516092	七 日	-0.06327229
-1.8414451	二 日	-0.06327229
-1.912836	一 日	-0.06327229
-1.5391787	) 一	-0.06327229
-1.1071899	十 一	-0.06327229
-1.805205	署 一	-0.06327229
-1.6319604	為 一	-0.06327229
-1.6011364	進 一	-0.06327229
-1.9020808	構 一	-0.06327229
-0.7461718	零 一	-0.18161467
-0.8888222	小 一	-0.17920502
-0.64120054	至 一	-0.17920502
-1.0621982	約 一	-0.06327229
-1.382622	書 闡	-0.06327229
-0.787351	闡 述	-0.06327229
-1.6667862	所 述	-0.06327229
-1.3780594	上 述	-0.06327229
-1.2472283	述 對	-0.06327229
-1.8968449	署 對	-0.06327229
-1.5934821	於 對	-0.06327229
-2.025853	構 對	-0.06327229
-1.4555625	善 對	-0.06327229
-1.466778	對 審	-0.06327229
-1.701557	為 審	-0.06327229
-1.2520232	細 審	-0.06327229
-1.3716618	經 審	-0.06327229
-0.65223897	審 計	-0.06327229
-1.5582718	育 計	-0.06327229
-1.5016496	助 計	-0.06327229
-1.4330444	善 計	-0.06327229
-1.0684718	統 計	-0.06327229
-1.0684718	預 計	-0.06327229
-2.0204315	學 計	-0.06327229
-1.5582718	生 計	-0.06327229
-1.8503087	政 署	-0.06327229
-1.6932849	計 署	-0.06327229
-1.8769046	署 署	-0.06327229
-0.10514441	社 署	-0.18851398
-0.7824174	利 署	-0.06327229
-1.5782429	生 署	-0.06327229
-1.95172	署 長	-0.06327229
-1.0862932	付 長	-0.06327229
-1.3716618	書 內	-0.06327229
-1.4633356	期 內	-0.06327229
-1.8691149	年 內	-0.06327229
-0.78570026	冊 內	-0.06327229
-1.7846394	十 分	-0.06327229
-1.3591428	內 分	-0.06327229
-2.2809782	的 分	-0.06327229
-1.5833875	並 分	-0.06327229
-1.3591428	就 分	-0.06327229
-1.2424858	本 分	-0.1606637
-0.8324688	分 別	-0.06327229
-1.610035	個 別	-0.06327229
-0.787351	識 別	-0.25131354
-1.3688691	向 有	-0.06327229
-1.7616469	會 有	-0.06327229
-1.3688691	對 有	-0.06327229
-1.2803587	內 有	-0.06327229
-1.2803587	別 有	-0.06327229
-1.4093846	議 有	-0.06327229
-1.5073984	亦 有	-0.06327229
-1.5361689	為 有	-0.06327229
-0.9190961	所 有	-0.06327229
-0.7601076	代 有	-0.06327229
-1.7271591	構 有	-0.06327229
-1.4687871	況 有	-0.06327229
-0.8093184	更 有	-0.25131354
-1.4918635	續 有	-0.06327229
-1.1810148	排 有	-0.06327229
-1.4918635	援 有	-0.25131354
-1.1810148	多 有	-0.06327229
-1.3530989	而 有	-0.06327229
-1.2970492	導 有	-0.06327229
-0.7601076	量 有	-0.06327229
-1.5368615	分 關	-0.06327229
-0.8228776	有 關	-0.06327229
-1.3653572	展 關	-0.06327229
-1.5934821	成 關	-0.06327229
-0.35689858	相 關	-0.06327229
-1.3856239	向 社	-0.06327229
-1.4782776	( 社	-0.06327229
-1.7444417	和 社	-0.06327229
-1.4782776	告 社	-0.06327229
-1.6024544	關 社	-0.06327229
-1.0409279	節 社	-0.06327229
-1.1934744	疇 社	-0.06327229
-1.0409279	下 社	-0.06327229
-1.5338062	受 社	-0.06327229
-1.2960794	位 社	-0.06327229
-1.3999575	方 社	-0.06327229
-1.2960794	等 社	-0.06327229
-1.2960794	備 社	-0.06327229
-1.0409279	素 社	-0.06327229
-1.5511342	局 社	-0.06327229
-1.5177467	援 社	-0.06327229
-1.0409279	案 社	-0.06327229
-2.1458714	會 福	-0.25131354
-0.7885173	福 利	-0.25131354
-1.7840297	在 整	-0.06327229
-0.7456314	對 整	-0.25131354
-1.6664082	計 整	-0.06327229
-2.1683538	的 整	-0.06327229
-0.52881044	重 整	-0.06327229
-1.9241728	構 整	-0.06327229
-1.2285613	訂 整	-0.06327229
-1.3410158	用 整	-0.06327229
-1.2285613	化 整	-0.25131354
-0.38468632	整 筆	-0.58663243
-2.202054	及 撥	-0.06327229
-0.7882223	筆 撥	-0.58663243
-0.35793978	撥 款	-0.1729362
-0.7882223	巨 款	-0.06327229
-1.4337528	會 的	-0.06327229
-1.249982	交 的	-0.06327229
-1.249982	) 的	-0.06327229
-1.249982	告 的	-0.06327229
-1.0602676	述 的	-0.06327229
-1.3876206	計 的	-0.06327229
-1.3780354	署 的	-0.06327229
-1.2212178	款 的	-0.25131354
-0.94310206	節 的	-0.06327229
-1.2212178	議 的	-0.06327229
-1.0602676	出 的	-0.06327229
-1.0602676	門 的	-0.06327229
-1.1839024	體 的	-0.06327229
-1.329706	要 的	-0.1341931
-1.1667991	取 的	-0.06327229
-1.2212178	施 的	-0.06327229
-1.2212178	助 的	-0.06327229
-0.94310206	下 的	-0.06327229
-1.3755434	務 的	-0.06327229
-1.3993468	構 的	-0.06327226
-1.0602676	同 的	-0.06327229
-1.1839024	貼 的	-0.06327229
-1.2728788	定 的	-0.06327229
-1.2915614	供 的	-0.06327229
-1.1839024	期 的	-0.06327229
-0.710267	佳 的	-0.25131354
-1.278476	成 的	-0.06327229
-0.94310206	切 的	-0.06327229
-1.1333289	適 的	-0.06327229
-1.1839024	行 的	-0.06327229
-0.94310206	損 的	-0.06327229
-1.1333289	備 的	-0.06327229
-1.3629727	需 的	-0.06327229
-0.94310206	健 的	-0.06327229
-1.278476	額 的	-0.06327229
-1.2212178	酬 的	-0.06327229
-0.94310206	新 的	-0.25131354
-1.2212178	引 的	-0.06327229
-0.710267	免 的	-0.06327229
-0.33718216	科 的	-0.25131354
-1.0602676	攤 的	-0.06327229
-1.0602676	界 的	-0.06327229
-0.94310206	步 的	-0.06327229
-0.710267	治 的	-0.06327229
-0.710267	缺 的	-0.06327229
-0.710267	者 的	-0.06327229
-1.5169961	學 的	-0.06327229
-1.249982	生 的	-0.14719416
-1.3126767	校 的	-0.06327229
-1.0602676	作 的	-0.06327229
-0.710267	童 的	-0.06327229
-0.710267	難 的	-0.06327229
-0.94310206	家 的	-0.06327229
-0.710267	遠 的	-0.06327229
-2.2401047	的 管	-0.25131354
-1.7996603	監 管	-0.06327229
-1.9720438	構 管	-0.06327229
-1.4404215	善 管	-0.06327229
-1.3593929	層 管	-0.06327229
-1.0716429	源 管	-0.06327229
-1.0716429	院 管	-0.06327229
-0.35060722	管 理	-0.06327226
-0.7882223	心 理	-0.19468817
-1.5283737	及 融	-0.25131354
-1.6127908	於 融	-0.06327229
-1.084564	式 融	-0.06327229
-0.42646515	融 合	-0.28560242
-1.0780554	論 合	-0.06327229
-1.6850055	供 合	-0.06327229
-0.35689858	符 合	-0.06327229
-1.6401678	討 合	-0.06327229
-1.3014487	六 教	-0.06327229
-1.9828111	的 教	-0.06327229
-1.4525073	合 教	-0.28560242
-1.3014487	位 教	-0.06327229
-0.73659486	外 教	-0.06327229
-1.50035	額 教	-0.06327229
-1.5267289	援 教	-0.06327229
-1.1977084	本 教	-0.25131354
-1.4142567	加 教	-0.06327229
-1.8804215	學 教	-0.06327229
-1.0439035	殊 教	-0.4616937
-1.4864721	生 教	-0.06327229
-0.7663657	言 教	-0.06327229
-0.6442164	導 教	-0.06327229
-1.5719917	校 教	-0.06327229
-0.7663657	把 教	-0.06327229
-0.17165194	教 育	-0.37609154
-1.888901	在 這	-0.06327229
-1.610035	育 這	-0.06327229
-1.5467443	升 這	-0.06327229
-0.53360814	這 兩	-0.25131354
-2.0604928	會 個	-0.06327229
-1.748384	整 個	-0.06327229
-2.326102	的 個	-0.06327229
-0.7840557	兩 個	-0.06327229
-0.5316666	每 個	-0.06327229
-1.6178478	個 章	-0.06327229
-0.7882223	章 節	-0.06327229
-1.2594453	細 節	-0.06327229
-2.478585	的 結	-0.06327229
-0.7882223	結 論	-0.06327229
-1.6710095	討 論	-0.06327229
-2.1809866	及 建	-0.06327229
-1.2568716	項 建	-0.06327229
-1.54917	已 建	-0.06327229
-1.3805268	審 議	-0.06327229
-0.53310174	建 議	-0.06327229
-0.6482791	協 議	-0.06327226
-1.5534894	我 歡	-0.06327229
-0.7885173	歡 迎	-0.06327229
-1.3469745	書 亦	-0.06327229
-1.620501	中 亦	-0.06327229
-1.8686196	務 亦	-0.06327229
-1.440155	外 亦	-0.06327229
-1.3469745	等 亦	-0.06327229
-1.6474754	局 亦	-0.25131354
-1.2331533	組 亦	-0.06327229
-1.653943	校 亦	-0.06327229
-1.6731529	亦 感	-0.06327229
-0.7882223	次 感	-0.06327229
-0.35793978	感 謝	-0.25131354
-1.2594453	多 謝	-0.06327229
-0.99511063	員 為	-0.06327229
-1.6835955	度 為	-0.06327229
-1.947449	構 為	-0.06327229
-1.7989913	年 為	-0.06327229
-1.5650456	況 為	-0.06327229
-0.7791593	認 為	-0.06327229
-0.7791593	線 為	-0.06327229
-1.0684718	早 為	-0.06327229
-1.2331533	文 所	-0.06327229
-1.661471	員 所	-0.06327229
-1.7563204	十 所	-0.06327229
-1.5582718	告 所	-0.06327229
-1.9620407	有 所	-0.06327229
-1.2331533	訂 所	-0.06327229
-1.4330444	求 所	-0.06327229
-0.7791593	港 所	-0.06327229
-1.3814646	應 付	-0.06327229
-1.6728803	所 付	-0.06327229
-1.084564	付 出	-0.06327229
-1.2568716	發 出	-0.06327229
-1.664401	續 出	-0.06327229
-2.4667284	的 時	-0.06327229
-1.3814646	適 時	-0.06327229
-1.084564	時 間	-0.06327229
-1.4712505	期 間	-0.06327229
-1.084564	空 間	-0.06327229
-2.001031	和 努	-0.06327229
-2.4667284	的 努	-0.06327229
-0.35793978	努 力	-0.06327229
-1.0532941	人 力	-0.06327229
-1.664401	府 接	-0.06327229
-1.610035	) 接	-0.06327229
-1.084564	直 接	-0.06327229
-1.2603189	接 納	-0.06327229
-2.1809866	及 各	-0.06327229
-2.4334412	的 各	-0.06327229
-1.5467443	引 各	-0.06327229
-1.2568716	各 項	-0.06327229
-1.3780594	八 項	-0.06327229
-1.2568716	多 項	-0.06327229
-1.5103017	議 並	-0.06327229
-1.8890342	務 並	-0.06327229
-1.6172155	定 並	-0.06327229
-1.5103017	劃 並	-0.06327229
-1.2377945	因 並	-0.06327229
-1.2377945	組 並	-0.06327229
-0.7807853	南 並	-0.06327229
-1.6401678	府 已	-0.06327229
-1.24182	署 已	-0.17920502
-1.6449939	亦 已	-0.06327229
-1.5928574	並 已	-0.06327229
-1.9329895	務 已	-0.06327229
-1.2377945	文 中	-0.06327229
-1.6230704	所 中	-0.06327229
-1.039832	其 中	-0.06327229
-1.8154895	年 中	-0.06327229
-0.5302361	當 中	-0.25131354
-1.4466593	營 中	-0.06327229
-1.0716429	通 中	-0.06327229
-2.1397076	會 詳	-0.06327229
-1.6750329	中 詳	-0.06327229
-2.001031	和 細	-0.06327229
-0.35793978	詳 細	-0.06327229
-1.6178478	交 代	-0.06327229
-1.0528818	關 部	-0.25131354
-1.0862932	跨 部	-0.06327229
-0.3580132	部 門	-0.06327226
-1.8335704	的 具	-0.25131354
-1.5519649	更 具	-0.06327229
-1.664401	援 具	-0.06327229
-1.7729199	整 體	-0.06327229
-0.42782968	具 體	-0.06327229
-1.8994325	在 此	-0.06327229
-1.6158605	生 此	-0.06327229
-1.0868793	此 扼	-0.06327229
-1.6484444	主 要	-0.06327229
-2.006648	會 要	-0.06327229
-2.2401047	的 要	-0.06327229
-0.7807853	扼 要	-0.06327229
-1.2443167	重 要	-0.06327229
-0.5727527	需 要	-0.1853456
-1.5103017	引 要	-0.06327229
-1.766993	要 說	-0.06327229
-0.7882223	說 明	-0.06327229
-1.0862932	透 明	-0.06327229
-2.121971	會 重	-0.06327229
-1.610035	個 重	-0.06327229
-1.3780594	經 重	-0.06327229
-1.1679713	政 策	-0.06327229
-2.1050062	構 策	-0.06327229
-2.4334412	的 範	-0.06327229
-1.2568716	策 範	-0.06327229
-1.664401	討 範	-0.06327229
-0.42792594	範 疇	-0.06327226
-1.0862932	時 採	-0.06327229
-1.2594453	疇 採	-0.06327229
-1.888901	在 取	-0.06327229
-0.35772264	採 取	-0.06327229
-1.4712505	而 取	-0.06327229
-1.7568374	要 措	-0.06327229
-1.6691846	進 措	-0.06327229
-1.4712505	善 措	-0.25131354
-0.42782968	措 施	-0.06327229
-0.53348017	實 施	-0.06327229
-1.2921059	和 進	-0.06327229
-2.1091275	及 進	-0.06327229
-2.326102	的 進	-0.06327229
-1.6850055	供 進	-0.06327229
-0.42646515	跟 進	-0.06327226
-0.95599204	進 展	-0.06327229
-1.2568716	發 展	-0.06327229
-0.787351	擴 展	-0.06327229
-2.0327365	會 於	-0.06327229
-1.0436481	關 於	-0.06327229
-1.5833875	並 於	-0.06327229
-0.82713425	已 於	-0.1606637
-0.7824174	低 於	-0.06327229
-0.7824174	屬 於	-0.06327229
-1.5281409	款 津	-0.1606637
-2.326102	的 津	-0.06327229
-1.2472283	訂 津	-0.06327229
-0.7840557	過 津	-0.06327229
-1.6401678	援 津	-0.25131354
-1.4777966	津 助	-0.1606637
-0.753997	資 助	-0.2724958
-0.787351	幫 助	-0.06327229
-1.5103017	助 制	-0.1606637
-1.5681425	察 制	-0.1606637
-1.4290209	機 制	-0.06327229
-1.2377945	同 制	-0.06327229
-0.7807853	控 制	-0.06327229
-0.7807853	編 制	-0.06327229
-1.5681425	生 制	-0.06327229
-1.0780554	明 度	-0.06327229
-1.6486304	進 度	-0.06327229
-0.95193696	制 度	-0.11738166
-0.7840557	季 度	-0.06327229
-1.1863775	年 度	-0.06327229
-1.7622889	度 下	-0.25131354
-0.7882223	轄 下	-0.06327229
-1.4736968	向 實	-0.06327229
-0.35772264	落 實	-0.25131354
-1.7143234	校 實	-0.06327229
-1.4047289	立 服	-0.06327229
-1.9233754	及 服	-0.06327229
-1.7397778	在 服	-0.06327229
-1.7139772	的 服	-0.1606637
-1.5646396	理 服	-0.25131354
-1.4686682	施 服	-0.06327229
-1.4686682	助 服	-0.38251245
-1.5646396	定 服	-0.06327229
-1.4686682	估 服	-0.06327229
-1.6431526	其 服	-0.06327229
-1.6562101	持 服	-0.06327229
-1.2150693	化 服	-0.25131354
-0.07399262	服 務	-0.12381938
-0.6490999	財 務	-0.17920502
-1.7278374	報 表	-0.06327229
-1.6587859	進 表	-0.06327229
-1.9567565	務 表	-0.38251245
-1.5991769	察 表	-0.06327229
-1.2520232	出 現	-0.06327229
-0.55114645	表 現	-0.16062526
-1.2520232	發 現	-0.06327229
-1.6982727	局 現	-0.06327229
-1.9156114	會 監	-0.06327229
-1.529938	( 監	-0.06327229
-1.529938	) 監	-0.06327229
-1.8328952	和 監	-0.06327229
-1.9455211	及 監	-0.06327229
-1.7540333	在 監	-0.06327229
-1.6627376	關 監	-0.06327229
-2.1067934	的 監	-0.06327229
-1.529938	個 監	-0.06327229
-1.5833554	現 監	-0.25131354
-1.059095	切 監	-0.06327229
-0.1317862	監 察	-0.1508264
-1.6250154	管 非	-0.06327229
-1.4595904	府 機	-0.06327229
-1.4248757	( 機	-0.06327229
-1.7462833	有 機	-0.06327229
-1.5413017	關 機	-0.06327229
-1.8375045	的 機	-0.06327229
-1.503077	為 機	-0.06327229
-1.4433037	於 機	-0.06327229
-1.382525	助 機	-0.28560242
-0.9109507	現 機	-0.25131354
-0.7629645	與 機	-0.1606637
-1.4595904	定 機	-0.06327229
-1.020651	使 機	-0.06327229
-1.3294168	求 機	-0.06327229
-0.79902047	或 機	-0.25131354
-1.020651	動 機	-0.06327229
-1.1649392	從 機	-0.06327229
-1.2602457	視 機	-0.25131354
-0.75393826	果 機	-0.06327229
-0.75393826	知 機	-0.06327229
-1.020651	據 機	-0.06327229
-1.1649392	詢 機	-0.06327229
-1.4293618	業 機	-0.06327229
-1.2602457	強 機	-0.06327229
-1.1649392	作 機	-0.06327229
-0.09865986	機 構	-0.09122877
-0.7882223	架 構	-0.06327229
-1.9798671	有 受	-0.06327229
-1.4455756	的 受	-0.28560242
-0.9959474	為 受	-0.25131354
-1.2377945	接 受	-0.06327229
-1.5681425	察 受	-0.25131354
-1.353016	率 受	-0.06327229
-0.7807853	足 受	-0.06327229
-1.3653572	力 資	-0.06327229
-1.2472283	接 資	-0.06327229
-0.34968123	受 資	-0.68354243
-1.5281409	估 資	-0.06327229
-1.0780554	常 資	-0.06327229
-1.6828563	員 與	-0.06327229
-1.8769046	署 與	-0.06327229
-1.5833875	況 與	-0.06327229
-0.7495625	正 與	-0.06327229
-0.7824174	參 與	-0.06327229
-1.0748373	家 與	-0.25131354
-2.0005229	務 共	-0.06327229
-1.912836	一 同	-0.06327229
-0.787351	共 同	-0.06327229
-1.084564	不 同	-0.06327229
-0.9570654	制 訂	-0.06327229
-0.7882223	修 訂	-0.06327229
-0.3724408	津 貼	-0.06327229
-1.5885838	( 協	-0.06327229
-1.5331136	合 協	-0.06327229
-1.2472283	門 協	-0.06327229
-1.9329895	務 協	-0.06327229
-1.0780554	院 協	-0.06327229
-1.5120263	) 以	-0.06327229
-1.5120263	告 以	-0.06327229
-1.4607998	施 以	-0.06327229
-1.0529544	準 以	-0.06327229
-1.3179667	訪 以	-0.06327229
-1.4607998	劃 以	-0.06327229
-0.87931883	況 以	-0.06327229
-1.3179667	備 以	-0.06327229
-1.5238346	額 以	-0.06327229
-1.2106636	見 以	-0.06327229
-1.2106636	可 以	-0.06327229
-1.0529544	任 以	-0.06327229
-1.2106636	組 以	-0.06327229
-1.2594453	同 釐	-0.06327229
-1.9027929	以 釐	-0.06327229
-1.0780554	釐 定	-0.06327229
-1.0780554	須 定	-0.06327229
-0.55036813	規 定	-0.14719416
-1.2517735	穩 定	-0.06327229
-1.4599676	指 定	-0.06327229
-1.0862932	目 標	-0.06327229
-1.9957417	務 標	-0.06327229
-1.0862932	標 準	-0.06327229
-0.7882223	基 準	-0.06327229
-1.5281409	我 評	-0.06327229
-2.1091275	及 評	-0.06327229
-2.326102	的 評	-0.06327229
-1.1880652	以 評	-0.25131354
-1.3653572	括 評	-0.06327229
-0.20482358	評 估	-0.06327226
-2.1050062	構 須	-0.06327229
-1.0862932	了 須	-0.06327229
-1.0868793	須 妥	-0.06327229
-0.7882223	妥 善	-0.06327229
-0.27568528	改 善	-0.1290622
-1.5954156	理 其	-0.06327229
-1.2285613	疇 其	-0.06327229
-1.6707629	度 其	-0.06327229
-1.5486203	察 其	-0.06327229
-1.0653236	使 其	-0.06327229
-1.3410158	保 其	-0.06327229
-0.7775394	露 其	-0.06327229
-0.7775394	遇 其	-0.06327229
-1.4257907	而 其	-0.06327229
-1.7667491	其 轄	-0.06327229
-2.4667284	的 單	-0.06327229
-1.9957417	務 單	-0.06327229
-0.35793978	單 位	-0.06327229
-0.83322316	職 位	-0.06327229
-1.3814646	位 使	-0.06327229
-1.3814646	視 使	-0.06327229
-0.3776368	提 供	-0.06327229
-1.9957417	務 符	-0.06327229
-1.0862932	不 符	-0.06327229
-0.94769734	要 求	-0.06327226
-0.9576658	需 求	-0.06327229
-2.1111648	構 除	-0.06327229
-2.1050062	構 了	-0.06327229
-0.7882223	除 了	-0.06327229
-1.6521155	定 期	-0.06327229
-0.53238356	周 期	-0.06327229
-1.3716618	訪 期	-0.06327229
-1.0812975	預 期	-0.06327229
-1.6178478	交 季	-0.06327229
-1.7644047	要 統	-0.06327229
-1.7622889	度 統	-0.06327229
-1.5087886	七 年	-0.06327229
-1.9935186	及 年	-0.06327229
-2.1683538	的 年	-0.06327229
-1.783097	年 年	-0.06327229
-1.2369859	周 年	-0.06327229
-1.2285613	三 年	-0.06327229
-1.4418514	零 年	-0.06327229
-1.3410158	八 年	-0.06327226
-1.33011	學 年	-0.06327226
-1.7650757	度 自	-0.06327229
-1.610035	告 外	-0.06327229
-1.084564	此 外	-0.06327229
-0.7932952	額 外	-0.06327226
-1.610035	( 每	-0.06327229
-1.888901	在 每	-0.06327229
-1.3805268	按 每	-0.06327229
-1.912836	一 周	-0.06327229
-2.4334412	的 周	-0.06327229
-1.610035	察 周	-0.06327229
-1.8309134	十 三	-0.06327229
-1.2593604	每 三	-0.06327229
-1.3780594	高 三	-0.06327229
-1.8695682	在 探	-0.06327229
-1.655438	現 探	-0.06327229
-1.537343	估 探	-0.06327229
-0.78570026	擊 探	-0.06327229
-0.27573612	探 訪	-0.06327229
-1.3780594	訪 當	-0.06327229
-1.084564	面 當	-0.06327229
-0.787351	響 當	-0.06327229
-0.95711786	中 包	-0.1606637
-0.7882223	然 包	-0.06327229
-0.3580132	包 括	-0.06327229
-1.3653572	訪 或	-0.06327229
-1.0780554	損 或	-0.06327229
-0.7840557	平 或	-0.06327229
-1.0780554	聘 或	-0.06327229
-1.3653572	備 或	-0.06327229
-1.5552032	或 突	-0.06327229
-0.7885173	突 擊	-0.06327229
-1.67496	現 若	-0.06327229
-1.2568716	間 發	-0.06327229
-1.7615714	人 發	-0.06327229
-1.2568716	排 發	-0.06327229
-1.3725544	有 不	-0.06327229
-1.870128	政 規	-0.06327229
-1.8185358	的 規	-0.25131354
-1.541241	合 規	-0.06327229
-1.6982727	供 規	-0.06327229
-2.326102	的 地	-0.06327229
-1.6401678	定 地	-0.06327229
-0.7840557	效 地	-0.06327229
-0.7840557	性 地	-0.06327229
-1.2472283	本 地	-0.06327229
-2.326102	的 方	-0.06327229
-1.6401678	理 方	-0.06327229
-1.5885838	育 方	-0.06327229
-1.5281409	地 方	-0.06327229
-1.2472283	攤 方	-0.06327229
-1.5991769	交 改	-0.06327229
-2.038208	有 改	-0.06327229
-1.2555504	實 改	-0.25131354
-1.0812975	源 改	-0.06327229
-0.45944208	計 劃	-0.06327229
-1.3836656	規 劃	-0.06327229
-1.7641356	其 落	-0.06327229
-0.7882223	快 落	-0.06327229
-1.3780594	別 情	-0.06327229
-1.7353461	的 情	-0.1606637
-0.787351	場 情	-0.06327229
-0.42782968	情 況	-0.06327229
-0.7882223	狀 況	-0.06327229
-2.077215	及 更	-0.06327229
-1.6770978	為 更	-0.06327229
-1.9981154	構 更	-0.06327229
-1.6721318	供 更	-0.06327229
-1.3591428	經 更	-0.06327229
-1.447926	而 更	-0.06327229
-2.075212	有 效	-0.25131354
-2.4334412	的 跟	-0.06327229
-1.3805268	取 跟	-0.06327229
-1.5467443	地 跟	-0.06327229
-1.9587488	會 持	-0.06327229
-1.602759	現 持	-0.25131354
-1.9241728	構 持	-0.06327229
-1.7961106	以 持	-0.06327229
-1.6777477	其 持	-0.06327229
-1.3410158	保 持	-0.06327229
-1.3410158	上 持	-0.06327229
-0.7775394	維 持	-0.06327229
-0.7775394	集 持	-0.06327229
-0.33897334	持 續	-0.16062526
-0.7882223	繼 續	-0.06327226
-1.6732665	續 欠	-0.25131354
-0.7885173	欠 佳	-0.25131354
-1.0275259	二 零	-0.26518017
-0.7882223	千 零	-0.1606637
-1.353016	六 成	-0.06327229
-2.0474875	及 成	-0.06327229
-0.8267782	月 成	-0.25131354
-1.353016	就 成	-0.06327229
-0.7807853	清 成	-0.06327229
-0.7807853	完 成	-0.06327229
-1.353016	四 成	-0.06327229
-2.1458714	會 密	-0.06327229
-0.7882223	密 切	-0.06327229
-1.3814646	適 切	-0.06327229
-1.6124401	並 商	-0.06327229
-2.0872843	構 商	-0.06327229
-1.4740535	協 商	-0.06327229
-1.9885383	和 討	-0.06327229
-0.53310174	商 討	-0.06327229
-0.38466465	檢 討	-0.11738166
-0.72690403	合 適	-0.17920502
-1.8931488	以 適	-0.06327229
-0.787351	予 適	-0.06327229
-1.2520232	間 行	-0.06327229
-0.95395976	進 行	-0.06327229
-1.2520232	可 行	-0.06327229
-0.78570026	舉 行	-0.06327229
-1.5536709	或 動	-0.06327229
-1.4754748	行 動	-0.06327229
-1.9818997	務 營	-0.06327229
-1.6667862	現 營	-0.06327229
-0.7932952	公 營	-0.06327226
-2.326102	的 運	-0.06327229
-1.5885838	育 運	-0.06327229
-1.5281409	地 運	-0.06327229
-0.75088084	營 運	-0.06327229
-0.7840557	帑 運	-0.06327229
-1.5517753	款 虧	-0.06327229
-1.5539471	運 虧	-0.06327229
-0.3580132	虧 損	-0.06327229
-1.8416975	的 原	-0.06327229
-1.0862932	解 原	-0.06327229
-1.2594453	項 因	-0.06327229
-0.53348017	原 因	-0.06327229
-1.2594453	因 例	-0.06327229
-0.35793978	比 例	-0.06327229
-1.664401	討 如	-0.06327229
-1.2568716	例 如	-0.06327229
-1.084564	健 如	-0.06327229
-0.90297514	員 工	-0.17920502
-1.0868793	工 流	-0.06327229
-0.7885173	流 失	-0.06327229
-0.7882223	失 率	-0.06327229
-1.5555748	職 率	-0.06327226
-1.382622	率 低	-0.06327229
-1.6180179	於 預	-0.06327229
-1.2594453	見 預	-0.06327229
-2.478585	的 水	-0.06327229
-0.7885173	水 平	-0.06327229
-2.0901449	會 按	-0.06327229
-2.0554833	構 按	-0.06327229
-1.6644126	需 按	-0.06327229
-0.78570026	格 按	-0.06327229
-1.3843564	按 市	-0.06327229
-0.7885173	市 場	-0.06327229
-1.9027929	以 較	-0.06327229
-1.2594453	錄 較	-0.06327229
-1.9808006	提 高	-0.06327229
-2.0554833	構 高	-0.1606637
-1.0812975	較 高	-0.06327229
-0.78570026	最 高	-0.06327229
-1.6939572	員 薪	-0.28560242
-1.7286291	其 薪	-0.06327229
-1.3653572	括 薪	-0.06327229
-1.3653572	高 薪	-0.06327229
-1.2472283	界 薪	-0.06327229
-1.4805756	薪 金	-0.06327229
-0.7882223	積 金	-0.06327229
-1.3814646	括 招	-0.06327229
-1.0862932	金 招	-0.06327229
-0.3580132	招 聘	-0.06327229
-1.5552032	或 挽	-0.06327229
-0.7885173	挽 留	-0.06327229
-1.7840297	在 人	-0.06327229
-1.7503014	的 人	-0.06327229
-1.5954156	理 人	-0.06327229
-1.5486203	個 人	-0.06327229
-1.4931664	劃 人	-0.06327229
-0.7775394	留 人	-0.06327229
-0.651228	層 人	-0.1606637
-1.0653236	絡 人	-0.06327229
-1.5140966	業 人	-0.06327229
-1.7703615	人 才	-0.06327229
-1.3716618	展 等	-0.06327229
-1.7390916	度 等	-0.06327229
-1.3716618	率 等	-0.06327229
-0.78570026	才 等	-0.06327229
-1.2603189	策 略	-0.06327229
-0.7885173	略 性	-0.06327229
-1.0862932	動 用	-0.06327229
-0.72756666	運 用	-0.06327226
-1.537343	款 儲	-0.25131354
-2.376464	的 儲	-0.06327229
-1.4633356	體 儲	-0.06327229
-1.0812975	金 儲	-0.06327229
-0.27573612	儲 備	-0.1290622
-1.9061024	以 滿	-0.06327229
-0.7885173	滿 足	-0.06327229
-1.9620407	有 需	-0.06327229
-2.2027493	的 需	-0.06327229
-1.5582718	育 需	-0.4616937
-1.6127961	所 需	-0.06327229
-1.3469745	力 需	-0.06327229
-1.6474754	局 需	-0.06327229
-1.2331533	手 需	-0.06327229
-1.0684718	殊 需	-0.06327229
-2.202054	及 保	-0.06327229
-0.552337	確 保	-0.06327226
-2.0005229	務 質	-0.06327229
-1.2594453	因 素	-0.06327229
-0.7882223	質 素	-0.06327229
-1.4608365	會 繼	-0.1606637
-2.121971	會 從	-0.06327229
-1.664401	續 從	-0.06327229
-1.084564	師 從	-0.06327229
-1.9440954	和 財	-0.06327229
-2.1091275	及 財	-0.06327229
-1.8040043	的 財	-0.25131354
-1.7245388	度 財	-0.06327229
-1.8504943	年 財	-0.06327229
-2.1435726	及 經	-0.06327229
-1.2520232	出 經	-0.06327229
-1.466778	外 經	-0.06327229
-1.537343	劃 經	-0.06327229
-1.5391787	個 檢	-0.06327229
-1.2240171	項 檢	-0.06327229
-1.6582985	度 檢	-0.06327229
-1.345523	表 檢	-0.06327229
-1.3351378	括 檢	-0.06327229
-1.5849128	續 檢	-0.06327229
-1.4186559	行 檢	-0.06327229
-1.4848459	酬 檢	-0.06327229
-1.4274316	正 檢	-0.06327229
-0.7759254	件 檢	-0.06327229
-1.3833857	審 視	-0.06327229
-0.6731135	檢 視	-0.14719416
-1.887761	政 狀	-0.25131354
-1.9657485	和 確	-0.06327229
-2.1435726	及 確	-0.06327229
-1.537343	施 確	-0.06327229
-1.0812975	式 確	-0.06327229
-1.7300384	持 穩	-0.06327229
-1.6710095	續 穩	-0.06327229
-0.53360814	穩 健	-0.06327229
-1.2603189	如 果	-0.06327229
-1.655438	所 上	-0.06327229
-1.541241	運 上	-0.06327229
-1.3751462	專 上	-0.06327229
-1.3751462	導 上	-0.06327229
-2.075212	有 巨	-0.06327229
-1.3814646	用 大	-0.06327229
-1.2594453	錄 大	-0.06327229
-1.2377945	述 額	-0.06327229
-1.4404215	貼 額	-0.06327229
-1.6596286	供 額	-0.06327229
-1.0716429	大 額	-0.06327229
-2.0415902	學 額	-0.06327229
-0.7807853	放 額	-0.06327229
-1.0716429	常 額	-0.06327229
-1.0862932	了 解	-0.06327229
-1.2594453	宜 解	-0.06327229
-1.6195513	並 給	-0.06327229
-0.7885173	給 予	-0.06327229
-1.7418157	的 意	-0.1606637
-1.7193377	供 意	-0.06327229
-0.3580132	意 見	-0.14719416
-2.1050062	構 能	-0.06327229
-1.7211962	校 能	-0.06327229
-1.0868793	能 維	-0.06327229
-1.2593604	商 可	-0.06327229
-1.664401	討 可	-0.06327229
-1.3780594	保 可	-0.06327229
-1.6732665	府 認	-0.06327229
-1.2568716	三 層	-0.06327229
-1.3780594	高 層	-0.17920502
-1.664401	援 層	-0.06327229
-0.3724408	薪 酬	-0.10922661
-1.4712505	體 安	-0.06327229
-1.610035	察 安	-0.06327229
-1.5467443	酬 安	-0.06327229
-0.42792594	安 排	-0.06327226
-1.4754748	善 空	-0.06327229
-1.3814646	位 空	-0.06327229
-1.4633356	立 八	-0.06327229
-1.8149346	十 八	-0.06327229
-1.8912994	一 八	-0.1606637
-1.8691149	年 八	-0.06327229
-1.2520232	日 就	-0.06327229
-2.0554833	構 就	-0.06327229
-1.6521155	續 就	-0.06327229
-0.78570026	他 就	-0.06327229
-1.382622	就 控	-0.06327229
-0.7280464	更 新	-0.17920502
-1.9657485	和 指	-0.06327229
-1.4647765	的 指	-0.2738694
-0.3573104	該 指	-0.25131354
-1.2520232	作 指	-0.06327229
-0.754466	指 引	-0.06327226
-1.6521155	理 局	-0.06327229
-1.5991769	育 局	-0.14719416
-1.2520232	策 局	-0.06327229
-1.0812975	跨 局	-0.06327229
-0.6580512	按 照	-0.06327229
-1.0862932	照 該	-0.06327229
-1.0862932	據 該	-0.06327229
-1.4769123	求 未	-0.06327229
-1.4595565	會 獲	-0.06327229
-0.7882223	未 獲	-0.06327229
-1.2603189	獲 豁	-0.06327229
-0.7885173	豁 免	-0.06327229
-2.0474875	及 公	-0.06327229
-1.4466593	對 公	-0.06327229
-1.9798671	有 公	-0.06327229
-2.2401047	的 公	-0.06327229
-1.6290053	制 公	-0.06327229
-1.5164064	或 公	-0.06327229
-1.353016	保 公	-0.06327229
-1.8991702	年 開	-0.06327229
-1.6180179	公 開	-0.06327229
-1.0868793	開 披	-0.06327229
-0.7885173	披 露	-0.06327229
-1.5441728	月 正	-0.06327229
-1.917745	署 正	-0.06327229
-1.655438	現 正	-0.06327229
-1.6982727	局 正	-0.06327229
-1.6732665	討 修	-0.06327229
-1.5517753	款 手	-0.06327229
-1.0532941	人 手	-0.06327229
-1.2603189	手 冊	-0.06327229
-1.3814646	內 通	-0.06327229
-0.7882223	普 通	-0.06327229
-1.0868793	通 知	-0.06327229
-2.202054	及 根	-0.06327229
-1.6747591	制 根	-0.06327229
-0.3580132	根 據	-0.06327229
-1.6178478	交 最	-0.06327229
-1.5534894	酬 條	-0.06327229
-0.7885173	條 件	-0.06327229
-2.202054	及 直	-0.06327229
-1.9246149	一 直	-0.06327229
-1.3814646	高 透	-0.06327229
-1.0862932	直 透	-0.06327229
-1.0868793	透 過	-0.06327229
-1.9957417	務 科	-0.06327229
-1.4754748	貼 科	-0.06327229
-2.1050062	構 聯	-0.06327229
-1.6710095	定 聯	-0.06327229
-0.3580132	聯 絡	-0.06327229
-0.95846456	主 任	-0.06327229
-1.2827923	和 支	-0.25131354
-1.7763233	的 支	-0.25131354
-1.6596286	供 支	-0.06327229
-1.5103017	地 支	-0.06327229
-1.353016	適 支	-0.06327229
-1.353016	強 支	-0.06327229
-1.0716429	習 支	-0.25131354
-0.13583304	支 援	-0.1290622
-1.6732665	援 熱	-0.06327229
-0.7885173	熱 線	-0.06327229
-2.001031	和 記	-0.06327229
-1.3814646	別 記	-0.06327229
-1.6127908	與 本	-0.06327229
-0.7932952	成 本	-0.1606637
-1.005974	校 本	-0.25131354
-0.83347845	分 攤	-0.14719416
-1.2603189	攤 事	-0.25131354
-0.7882223	事 宜	-0.06327229
-1.0862932	得 宜	-0.06327229
-1.0868793	解 答	-0.06327229
-0.7885173	答 問	-0.06327229
-0.7885173	問 題	-0.06327229
-1.6178478	個 查	-0.06327229
-0.7882223	查 詢	-0.06327229
-0.35793978	諮 詢	-0.06327229
-1.0868793	釐 清	-0.06327229
-1.6180179	成 則	-0.06327229
-1.2613792	原 則	-0.06327229
-0.75479215	方 案	-0.06327229
-1.2594453	宜 諮	-0.06327229
-1.2594453	界 諮	-0.06327229
-1.447926	行 業	-0.06327229
-1.3591428	視 業	-0.06327229
-1.3591428	就 業	-0.06327229
-1.2424858	詢 業	-0.06327229
-0.7824174	注 業	-0.06327229
-1.3645808	專 業	-0.06327229
-0.4514167	業 界	-0.14719416
-1.9246149	一 步	-0.06327229
-0.7882223	逐 步	-0.06327229
-0.75479215	資 源	-0.06327229
-0.75479215	方 面	-0.06327229
-1.2620639	當 然	-0.06327229
-2.202054	及 離	-0.06327229
-1.0862932	工 離	-0.25131354
-2.077215	及 職	-0.06327229
-1.9995303	教 職	-0.06327229
-1.0748373	任 職	-0.06327229
-0.35648713	離 職	-0.1606637
-1.5191298	升 職	-0.06327229
-1.0748373	師 職	-0.06327229
-1.382622	等 屬	-0.06327229
-1.6250154	管 治	-0.06327229
-1.7684293	關 注	-0.06327229
-1.6201816	受 多	-0.06327229
-1.084564	較 多	-0.06327229
-1.2568716	宜 多	-0.06327229
-1.0868793	素 影	-0.06327229
-0.7885173	影 響	-0.06327229
-1.5534894	酬 待	-0.06327229
-0.7885173	待 遇	-0.06327229
-1.7667491	其 他	-0.06327229
-1.2603189	如 何	-0.06327229
-1.4555625	立 優	-0.06327229
-1.5885838	( 優	-0.06327229
-1.5281409	施 優	-0.06327229
-1.8504943	年 優	-0.06327229
-0.7840557	何 優	-0.06327229
-0.20482358	優 化	-0.20662905
-1.6731529	亦 將	-0.06327229
-0.7882223	即 將	-0.06327229
-1.5534894	酬 架	-0.06327229
-1.0868793	空 缺	-0.06327229
-1.7456102	關 專	-0.06327229
-1.537343	地 專	-0.06327229
-1.6521155	討 專	-0.06327229
-1.3716618	等 專	-0.06327229
-0.6578687	專 責	-0.25131354
-0.7882223	負 責	-0.06327229
-1.7763233	的 小	-0.25131354
-0.8448351	中 小	-0.1606637
-1.5103017	劃 小	-0.06327229
-1.4466593	營 小	-0.06327229
-1.0716429	責 小	-0.25131354
-0.7807853	焦 小	-0.06327229
-0.7807853	讀 小	-0.06327229
-0.9003038	小 組	-0.06327226
-1.477383	正 式	-0.06327229
-0.7882223	模 式	-0.06327229
-1.6197994	公 積	-0.06327229
-1.2603189	手 編	-0.06327229
-1.5534894	款 基	-0.06327229
-1.9440954	和 加	-0.06327229
-2.1091275	及 加	-0.06327229
-1.4555625	貼 加	-0.06327229
-1.6401678	續 加	-0.06327229
-0.7840557	增 加	-0.06327229
-0.3724408	加 強	-0.06327229
-1.6197994	公 眾	-0.06327229
-0.7885173	眾 負	-0.06327229
-1.6752067	亦 舉	-0.06327229
-2.2094138	及 聚	-0.06327229
-0.7885173	聚 焦	-0.06327229
-1.9061024	以 聆	-0.06327229
-0.7885173	聆 聽	-0.06327229
-2.2094138	及 收	-0.06327229
-0.7885173	收 集	-0.06327229
-1.7315441	持 份	-0.06327229
-0.7885173	份 者	-0.06327229
-1.6769077	中 完	-0.06327229
-0.58426905	二 千	-0.4616937
-1.6168323	十 學	-0.06327229
-1.2803587	九 學	-0.06327229
-1.6423244	一 學	-0.25131354
-1.7910197	有 學	-0.06327229
-1.6257929	整 學	-0.06327229
-1.6297708	的 學	-0.20662905
-1.4918635	理 學	-0.1606637
-1.8958224	教 學	-0.06327229
-1.5361689	為 學	-0.06327229
-1.5642871	要 學	-0.1606637
-1.4093846	助 學	-0.06327229
-1.4708909	與 學	-0.25131354
-1.2803587	上 學	-0.06327229
-0.77437854	小 學	-0.06327229
-0.7601076	後 學	-0.06327229
-1.1810148	錄 學	-0.06327229
-0.7601076	些 學	-0.06327229
-1.0321217	便 學	-0.06327229
-1.2803587	四 學	-0.06327229
-0.7601076	訓 學	-0.06327229
-1.0868793	開 始	-0.06327229
-0.7885173	始 投	-0.06327229
-0.7885173	投 放	-0.06327229
-1.477383	外 常	-0.06327229
-1.3814646	經 常	-0.06327229
-0.8260921	有 特	-0.4616937
-2.4667284	的 特	-0.06327229
-0.3580132	特 殊	-0.37723115
-0.91820645	學 生	-0.14843917
-0.7882223	衞 生	-0.06327229
-1.8707805	一 而	-0.06327229
-1.4555625	體 而	-0.06327229
-1.2472283	從 而	-0.06327229
-1.5281409	升 而	-0.06327229
-1.3653572	四 而	-0.06327229
-1.4769123	而 言	-0.06327229
-1.359318	學 習	-0.17920502
-2.001031	和 輔	-0.06327229
-1.3814646	強 輔	-0.06327229
-1.4736968	指 導	-0.06327229
-0.35772264	輔 導	-0.06327229
-0.787351	領 導	-0.06327229
-1.7747015	整 後	-0.06327229
-1.1759734	提 升	-0.06327226
-1.3716618	上 升	-0.06327229
-1.0812975	將 升	-0.06327229
-0.78570026	晉 升	-0.06327229
-0.6578687	取 錄	-0.06327229
-1.0862932	記 錄	-0.06327229
-1.6521155	援 校	-0.06327229
-1.2520232	化 校	-0.06327229
-0.91572255	學 校	-0.10922661
-1.0812975	全 校	-0.06327229
-1.3101526	教 師	-0.06327229
-1.2620639	這 些	-0.06327229
-1.0868793	統 籌	-0.06327229
-1.3833857	層 級	-0.06327229
-0.83322316	職 級	-0.06327229
-1.3653572	展 至	-0.06327229
-1.2472283	例 至	-0.06327229
-1.5281409	升 至	-0.06327229
-1.2472283	級 至	-0.06327229
-0.7840557	達 至	-0.06327229
-1.4788874	至 晉	-0.06327229
-1.2603189	級 領	-0.06327229
-1.0862932	新 全	-0.06327229
-0.7882223	蓋 全	-0.06327229
-1.7235446	校 參	-0.06327229
-1.6197994	與 模	-0.06327229
-1.6667862	所 作	-0.06327229
-1.4740535	協 作	-0.06327229
-1.5495236	運 作	-0.06327229
-1.4786363	指 南	-0.06327229
-1.5569236	分 階	-0.06327229
-0.7885173	階 段	-0.06327229
-1.5534894	引 幫	-0.06327229
-2.202054	及 相	-0.06327229
-1.6180179	與 相	-0.06327229
-1.4316622	及 早	-0.17920502
-1.0868793	早 識	-0.25131354
-1.7218611	局 衞	-0.06327229
-1.9558593	署 醫	-0.06327229
-2.1528385	學 院	-0.06327229
-0.7882223	醫 院	-0.06327229
-1.4754748	立 跨	-0.06327229
-1.7193377	局 跨	-0.06327229
-1.3814646	用 得	-0.06327229
-1.2594453	獲 得	-0.06327229
-1.0868793	得 即	-0.06327229
-1.5534894	升 讀	-0.06327229
-2.1578517	學 前	-0.06327229
-0.7885173	前 兒	-0.06327229
-0.7885173	兒 童	-0.06327229
-1.4803672	資 料	-0.06327229
-1.1978387	以 便	-0.06327229
-1.0868793	習 困	-0.06327229
-0.7885173	困 難	-0.06327229
-1.6178478	育 心	-0.38251245
-1.3846091	覆 蓋	-0.06327229
-1.0868793	全 港	-0.06327229
-1.4786363	正 逐	-0.06327229
-1.0868793	大 量	-0.06327229
-1.6178478	) 把	-0.06327229
-2.1578517	學 家	-0.17920502
-2.4667284	的 比	-0.06327229
-1.7211962	校 比	-0.06327229
-1.8309134	十 四	-0.06327229
-1.912836	一 四	-0.06327229
-0.787351	餘 四	-0.06327229
-1.5552032	已 擴	-0.06327229
-1.5517753	升 約	-0.06327229
-1.477661	至 約	-0.06327229
-1.9286704	一 百	-0.06327229
-1.0868793	標 是	-0.06327229
-1.4786363	營 普	-0.06327229
-1.7667491	其 餘	-0.06327229
-1.0868793	則 達	-0.06327229
-1.0868793	案 增	-0.06327229
-2.478585	的 培	-0.06327229
-0.7885173	培 訓	-0.06327229
-1.0868793	長 遠	-0.06327229
-1.5534894	我 再	-0.06327229
-0.7885173	再 次	-0.06327229
-2.1458714	會 嚴	-0.06327229
-0.7885173	嚴 格	-0.06327229
-1.382622	應 盡	-0.06327229
-0.7885173	盡 快	-0.06327229
-1.6197994	公 帑	-0.06327229

\3-grams:
-1.339952	主 席 </s>
-0.7913928	委 會 主
-0.5539117	及 副 主
-0.8507995	取 的 主
-0.6790064	多 謝 主
-1.0013953	需 求 主
-0.8488722	聯 絡 主
-0.5539117	統 籌 主
-0.32518694	<s> 主 席
-0.23745258	會 主 席
-0.32518694	副 主 席
-0.32518694	謝 主 席
-0.32518694	求 主 席
-1.339952	主 席 今
-0.55870223	席 今 天
-1.323011	主 席 我
-0.5555854	今 天 我
-1.0809244	回 應 我
-1.0271276	建 議 我
-0.5555854	度 自 我
-0.8521792	按 照 我
-0.79264927	天 我 向
-1.4739451	署 會 向
-0.7340138	一 日 向
-0.8320507	) 一 向
-0.78027177	定 期 向
-0.5398309	我 向 立
-0.5398309	日 向 立
-0.736205	已 建 立
-0.3435743	月 成 立
-0.7645427	式 確 立
-0.3390833	向 立 法
-0.27163038	立 法 會
-1.3755785	政 府 會
-0.17536695	帳 委 會
-0.6237389	委 員 會
-0.7098418	社 署 會
-0.74675757	關 社 會
-0.95321834	下 社 會
-0.57953304	外 亦 會
-0.28216088	局 亦 會
-0.57953304	校 亦 會
-0.60088074	定 並 會
-0.60088074	劃 並 會
-1.002245	部 門 會
-0.845061	業 機 會
-0.7893913	貼 額 會
-0.88946664	育 局 會
-0.9133551	諮 詢 會
-0.6712775	亦 將 會
-1.4189955	小 學 會
-0.33456105	法 會 提
-1.1541946	亦 會 提
-0.8233654	責 和 提
-1.687207	社 署 提
-1.3500578	機 構 提
-0.8176834	見 以 提
-1.262504	規 定 提
-0.80482256	使 其 提
-1.2040739	學 年 提
-0.7784131	定 地 提
-0.9133551	比 例 提
-0.6712775	校 能 提
-0.9133551	會 獲 提
-0.5481042	問 題 提
-1.4224969	學 生 提
-0.5481042	階 段 提
-0.4251665	會 提 交
-0.61315566	署 提 交
-0.4251665	構 提 交
-0.61315566	定 提 交
-0.93797654	詳 細 交
-1.3129393	提 交 政
-1.0643797	回 應 政
-0.9632987	努 力 政
-0.72525173	引 各 政
-0.8091765	重 要 政
-0.67457306	說 明 政
-1.7253033	服 務 政
-0.55058366	管 非 政
-1.2790595	情 況 政
-0.7705359	間 行 政
-0.53561616	和 財 政
-0.2673045	的 財 政
-0.8423328	方 面 政
-0.2653563	交 政 府
-0.2653563	應 政 府
-0.2653563	力 政 府
-0.2653563	明 政 府
-0.2653563	務 政 府
-0.2653563	非 政 府
-0.2653563	況 政 府
-0.2653563	面 政 府
-0.7940989	照 我 覆
-1.4412335	政 府 覆
-0.8319547	已 在 覆
-0.79462826	亦 已 覆
-0.42271796	我 覆 文
-0.42271796	府 覆 文
-0.42271796	在 覆 文
-1.031337	覆 文 回
-0.8577341	述 的 回
-1.1999714	具 體 回
-0.33880478	文 回 應
-0.33880478	的 回 應
-0.33880478	體 回 應
-0.8344977	額 以 應
-1.4223211	政 府 帳
-0.7987661	會 ( 帳
-1.1412294	告 書 帳
-0.5547477	歡 迎 帳
-0.3125645	感 謝 帳
-0.5547477	接 納 帳
-0.6801219	別 記 帳
-0.806513	府 帳 目
-1.478932	小 學 目
-0.282344	( 帳 委
-0.282344	書 帳 委
-0.282344	迎 帳 委
-0.16116925	謝 帳 委
-0.282344	納 帳 委
-0.68236136	帳 目 委
-1.2847073	席 及 委
-0.7340138	及 各 委
-1.5150361	監 察 委
-0.29796126	目 委 員
-0.29796126	及 委 員
-0.29796126	各 委 員
-0.29796126	察 委 員
-0.8408659	架 構 員
-1.0061014	需 求 員
-0.7327512	例 如 員
-0.6299407	理 人 員
-0.41089708	層 人 員
-0.6299407	業 人 員
-0.7928922	教 職 員
-1.1174752	員 會 (
-1.0981114	利 署 (
-0.7596518	期 內 (
-1.1433547	協 議 (
-1.4209623	制 度 (
-1.7828562	服 務 (
-1.8755211	機 構 (
-1.5337799	委 會 )
-1.7579299	社 署 )
-1.1433547	協 議 )
-1.4209623	制 度 )
-1.7828562	服 務 )
-1.8755211	機 構 )
-1.003742	周 期 )
-1.3583957	提 交 第
-0.80467707	會 ) 第
-0.6846125	署 長 第
-0.33822376	交 第 六
-0.33822376	) 第 六
-0.33822376	長 第 六
-1.2700831	至 一 六
-1.245071	八 年 六
-0.6834855	升 約 六
-0.46869013	第 六 十
-0.40722787	和 七 十
-0.5777645	及 七 十
-1.0280906	七 月 十
-0.822497	月 二 十
-0.51976275	零 二 十
-0.660995	百 二 十
-0.9008683	零 一 十
-1.7579299	社 署 十
-1.0914757	七 年 十
-0.44339505	六 十 九
-0.4662313	一 十 九
-0.68502504	十 九 A
-0.27134773	九 A 和
-0.7203231	二 日 和
-0.33034652	識 別 和
-0.7203231	時 間 和
-0.9548071	努 力 和
-1.1842716	措 施 和
-0.79608905	控 制 和
-1.2666034	評 估 和
-0.8066582	絡 人 和
-1.05369	運 用 和
-0.5769603	意 見 和
-0.9999064	安 排 和
-0.79768515	理 局 和
-0.67018455	原 則 和
-0.67018455	負 責 和
-0.7203231	層 級 和
-1.3890193	二 十 七
-0.329781	A 和 七
-0.7454693	日 和 七
-0.8468018	九 及 七
-0.9255393	零 一 七
-1.0969993	七 年 七
-0.49600214	七 十 號
-0.37254438	十 號 報
-0.8129419	統 計 報
-1.3515576	有 關 報
-1.1354483	會 的 報
-0.9719596	進 展 報
-0.5201917	財 務 報
-1.3025299	評 估 報
-0.7815923	檢 討 報
-0.108448826	號 報 告
-0.14057681	計 報 告
-0.14057681	關 報 告
-0.14057681	的 報 告
-0.14057681	展 報 告
-0.1833032	務 報 告
-0.14057681	估 報 告
-0.08584043	討 報 告
-0.71734446	報 告 書
-0.7670068	主 席 及
-0.8124409	詢 會 及
-0.7848373	記 帳 及
-1.1592493	十 九 及
-0.97125316	報 告 及
-1.5989234	社 署 及
-1.2659343	管 理 及
-0.65833986	結 論 及
-0.78459966	度 為 及
-1.4499408	需 要 及
-0.7828884	編 制 及
-1.1598132	津 貼 及
-0.69511193	準 以 及
-0.69511193	任 以 及
-0.65833986	標 準 及
-1.2216061	評 估 及
-1.3493562	提 供 及
-1.1900859	計 劃 及
-0.99754965	狀 況 及
-1.0255816	職 率 及
-0.81865114	招 聘 及
-1.1286817	檢 視 及
-1.2216061	指 引 及
-1.0810168	加 強 及
-0.5383258	聆 聽 及
-1.3684253	小 學 及
-0.5383258	資 料 及
-0.81865114	以 便 及
-1.2964625	席 及 副
-1.2885338	主 席 在
-0.7798159	應 我 在
-1.3383694	亦 會 在
-1.3811536	政 府 在
-1.3258255	管 理 在
-0.7818754	並 已 在
-1.7042603	服 務 在
-1.773532	機 構 在
-0.54892915	現 若 在
-0.7227804	討 可 在
-1.2753103	指 引 在
-0.6723733	逐 步 在
-0.9590322	一 四 在
-0.54892915	標 是 在
-0.83451676	席 在 五
-0.7623427	年 六 月
-0.844114	和 七 月
-0.5791439	年 七 月
-0.5564246	在 五 月
-1.1000321	十 一 月
-0.7623427	年 八 月
-1.2147188	十 九 二
-0.68024266	可 在 二
-0.68024266	四 在 二
-0.68024266	是 在 二
-0.57638943	五 月 二
-0.57638943	八 月 二
-0.5566064	會 於 二
-0.5566064	並 於 二
-0.37396055	已 於 二
-0.7289853	十 三 二
-0.9335279	二 零 二
-0.55560666	千 零 二
-0.7289853	會 從 二
-0.7569774	十 八 二
-0.5530773	一 百 二
-0.79629564	十 七 日
-1.0956072	月 二 日
-1.1059463	十 一 日
-0.794385	署 ) 一
-0.6922674	月 十 一
-0.6922674	年 十 一
-1.7300421	社 署 一
-0.8075801	年 為 一
-0.8034622	供 進 一
-1.8288524	機 構 一
-0.28763697	二 零 一
-0.5551135	千 零 一
-0.2909185	的 小 一
-0.6068879	讀 小 一
-0.47748268	例 至 一
-0.47748268	升 至 一
-0.47748268	達 至 一
-0.6767841	至 約 一
-1.156693	告 書 闡
-0.558108	書 闡 述
-0.8119365	文 所 述
-0.7650505	導 上 述
-0.7340138	闡 述 對
-1.1037554	利 署 對
-1.0465842	關 於 對
-1.909675	機 構 對
-1.2745873	改 善 對
-0.7822979	述 對 審
-1.0707194	員 為 審
-0.9349007	詳 細 審
-0.7636945	及 經 審
-0.48399386	對 審 計
-0.48399386	經 審 計
-1.7563157	教 育 計
-1.5354204	資 助 計
-1.2634134	改 善 計
-0.6790064	度 統 計
-0.6790064	見 預 計
-0.84217703	教 學 計
-1.4595394	學 生 計
-0.8303964	行 政 署
-1.0690335	審 計 署
-0.8325318	計 署 署
-0.08930811	向 社 署
-0.08930811	( 社 署
-0.08930811	和 社 署
-0.08930811	告 社 署
-0.08930811	節 社 署
-0.08930811	疇 社 署
-0.12706365	下 社 署
-0.08930811	受 社 署
-0.08930811	位 社 署
-0.08930811	方 社 署
-0.08930811	等 社 署
-0.08930811	備 社 署
-0.08930811	素 社 署
-0.08930811	局 社 署
-0.08930811	援 社 署
-0.08930811	案 社 署
-0.27418306	福 利 署
-0.8002363	衞 生 署
-0.837929	署 署 長
-0.68520683	應 付 長
-1.151027	告 書 內
-1.010859	周 期 內
-1.245071	八 年 內
-0.5572655	手 冊 內
-0.82458186	署 十 分
-0.76099515	書 內 分
-1.1407808	適 的 分
-0.800974	南 並 分
-0.76099515	構 就 分
-0.4574876	成 本 分
-0.58052766	內 分 別
-0.58052766	就 分 別
-0.80467707	的 個 別
-0.27503726	早 識 別
-0.76309764	會 向 有
-0.8223499	額 會 有
-0.76309764	善 對 有
-0.7425555	冊 內 有
-0.94647837	分 別 有
-0.77146626	審 議 有
-0.78928554	等 亦 有
-0.7939154	早 為 有
-0.6203001	求 所 有
-0.6203001	港 所 有
-0.5440031	交 代 有
-1.7018704	機 構 有
-1.248049	情 況 有
-0.56917024	為 更 有
-0.56917024	而 更 有
-1.3806245	持 續 有
-0.99067587	安 排 有
-0.9515247	支 援 有
-0.71544975	較 多 有
-0.75967	一 而 有
-0.95308983	輔 導 有
-0.5440031	大 量 有
-0.79402375	十 分 關
-0.5758597	向 有 關
-0.5758597	內 有 關
-0.5758597	別 有 關
-0.5758597	議 有 關
-0.5758597	代 有 關
-0.9785706	進 展 關
-0.8023999	完 成 關
-0.2876753	及 相 關
-0.2876753	與 相 關
-0.7666336	期 向 社
-0.78433126	署 ( 社
-0.82060874	局 和 社
-1.4554441	報 告 社
-1.3124187	有 關 社
-0.6690943	細 節 社
-0.9975803	範 疇 社
-0.3094681	度 下 社
-0.7935449	接 受 社
-0.9527099	單 位 社
-0.7695741	地 方 社
-0.7464415	展 等 社
-1.1891875	儲 備 社
-0.6690943	質 素 社
-1.432076	育 局 社
-1.4423757	支 援 社
-0.83429456	方 案 社
-0.3532397	社 會 福
-0.27523807	會 福 利
-0.8245241	理 在 整
-0.5363349	署 對 整
-0.5363349	於 對 整
-0.81189084	預 計 整
-1.2919376	構 的 整
-0.40739685	會 重 整
-0.40739685	經 重 整
-1.8438582	機 構 整
-0.7289853	修 訂 整
-1.0725733	運 用 整
-0.6727332	優 化 整
-0.30798253	在 整 筆
-0.17356011	對 整 筆
-0.30798253	的 整 筆
-0.30798253	訂 整 筆
-0.30798253	用 整 筆
-0.17356011	化 整 筆
-0.85077274	制 及 撥
-0.10615877	整 筆 撥
-0.2884425	及 撥 款
-0.0682511	筆 撥 款
-0.558552	有 巨 款
-0.7660792	委 會 的
-1.1474715	提 交 的
-0.7347423	構 ) 的
-1.2945774	報 告 的
-0.676096	所 述 的
-0.9863389	審 計 的
-1.448508	社 署 的
-0.86016774	撥 款 的
-0.6305667	章 節 的
-1.0126361	協 議 的
-0.676096	付 出 的
-0.9192531	部 門 的
-1.0433768	具 體 的
-0.6113095	需 要 的
-0.89735436	採 取 的
-1.0663381	措 施 的
-1.3525312	資 助 的
-0.6305667	轄 下 的
-1.415127	服 務 的
-1.1917529	機 構 的
-0.676096	不 同 的
-1.0771915	津 貼 的
-0.5889007	規 定 的
-1.2274014	提 供 的
-0.7163022	預 期 的
-0.26073915	欠 佳 的
-0.742083	六 成 的
-0.6305667	適 切 的
-0.46648523	合 適 的
-0.7163022	可 行 的
-0.7790292	虧 損 的
-1.0874208	儲 備 的
-0.76182747	所 需 的
-0.7790292	穩 健 的
-0.742083	大 額 的
-0.76382506	薪 酬 的
-0.433727	更 新 的
-1.12763	指 引 的
-0.51709753	豁 免 的
-0.27305692	務 科 的
-0.27305692	貼 科 的
-1.0181158	分 攤 的
-0.5502141	業 界 的
-0.6305667	一 步 的
-0.51709753	管 治 的
-0.51709753	空 缺 的
-0.51709753	份 者 的
-1.2724484	小 學 的
-0.5949236	學 生 的
-0.7867925	學 校 的
-0.676096	所 作 的
-0.51709753	兒 童 的
-0.51709753	困 難 的
-0.91848254	學 家 的
-0.51709753	長 遠 的
-0.35400596	款 的 管
-0.82598335	) 監 管
-1.8755211	機 構 管
-0.7774677	妥 善 管
-1.1300354	高 層 管
-0.85052264	資 源 管
-0.6801219	醫 院 管
-0.16150536	的 管 理
-0.28302932	善 管 理
-0.28302932	層 管 理
-0.28302932	源 管 理
-0.28302932	院 管 理
-0.18506733	育 心 理
-0.79268634	理 及 融
-0.79268634	劃 及 融
-1.0512432	關 於 融
-0.6846125	模 式 融
-0.18751585	及 融 合
-0.33784348	於 融 合
-0.33784348	式 融 合
-0.68236136	討 論 合
-1.4825764	提 供 合
-0.2876753	務 符 合
-0.2876753	不 符 合
-1.0575836	商 討 合
-0.74774456	一 六 教
-0.8399294	學 的 教
-0.30086023	融 合 教
-0.9548071	職 位 教
-0.5314872	此 外 教
-0.69094664	額 外 教
-0.7881116	常 額 教
-1.4479637	支 援 教
-0.32338113	校 本 教
-0.7724314	增 加 教
-1.414549	小 學 教
-0.22256133	特 殊 教
-1.4174539	學 生 教
-0.5472809	而 言 教
-0.47926837	指 導 教
-0.57855684	輔 導 教
-1.3957504	學 校 教
-0.5472809	) 把 教
-0.14400926	六 教 育
-0.14400926	的 教 育
-0.08047476	合 教 育
-0.14400926	位 教 育
-0.18709208	外 教 育
-0.14400926	援 教 育
-0.08779967	本 教 育
-0.14400926	加 教 育
-0.14400926	學 教 育
-0.051960528	殊 教 育
-0.14400926	生 教 育
-0.14400926	言 教 育
-0.18709208	導 教 育
-0.14400926	把 教 育
-0.8334563	府 在 這
-1.7899722	教 育 這
-1.1565332	提 升 這
-0.41052666	在 這 兩
-0.41052666	育 這 兩
-0.84437704	機 會 個
-0.82101315	計 整 個
-1.3074079	構 的 個
-0.27446765	這 兩 個
-0.4092615	在 每 個
-0.4092615	按 每 個
-1.0524375	兩 個 章
-0.558552	個 章 節
-0.7372199	和 細 節
-0.85871977	節 的 結
-0.558552	的 結 論
-0.81244427	和 討 論
-0.84994245	論 及 建
-0.7365501	各 項 建
-1.194621	署 已 建
-0.76556927	為 審 議
-0.4101968	及 建 議
-0.4101968	項 建 議
-0.48166585	( 協 議
-0.48166585	合 協 議
-0.48166585	務 協 議
-0.7965807	議 我 歡
-0.55870223	我 歡 迎
-1.1380119	告 書 亦
-1.05306	其 中 亦
-1.7707193	服 務 亦
-0.77741766	告 外 亦
-0.75831246	才 等 亦
-0.90002984	育 局 亦
-1.0189776	小 組 亦
-1.436289	學 校 亦
-0.81270033	書 亦 感
-0.558552	再 次 感
-0.2884425	亦 感 謝
-0.2884425	次 感 謝
-0.7372199	宜 多 謝
-0.9748838	委 員 為
-1.0629095	人 員 為
-0.813932	進 度 為
-1.8594011	機 構 為
-0.8259219	三 年 為
-1.2954369	情 況 為
-0.5539117	府 認 為
-0.5539117	熱 線 為
-0.992563	及 早 為
-1.0189776	覆 文 所
-1.3060147	委 員 所
-1.3740226	二 十 所
-1.5055921	報 告 所
-0.83860797	會 有 所
-0.9269417	制 訂 所
-1.1130384	要 求 所
-0.5539117	全 港 所
-0.76576585	以 應 付
-0.81266785	告 所 付
-0.6846125	所 付 出
-0.7365501	排 發 出
-1.4643364	持 續 出
-0.8584705	出 的 時
-0.76576585	以 適 時
-0.6846125	的 時 間
-0.783094	訪 期 間
-0.6846125	善 空 間
-0.8410408	間 和 努
-0.8584705	作 的 努
-0.2884425	和 努 力
-0.2884425	的 努 力
-0.6735943	在 人 力
-0.84089327	的 人 力
-1.4477252	政 府 接
-0.80467707	期 ) 接
-0.6846125	及 直 接
-0.73744667	府 接 納
-1.2933705	席 及 各
-1.1489043	會 的 各
-1.3265934	指 引 各
-0.7365501	的 各 項
-0.7650505	立 八 項
-0.7365501	受 多 項
-1.0246515	建 議 並
-1.7828562	服 務 並
-1.291613	規 定 並
-1.2691402	計 劃 並
-0.9289178	原 因 並
-1.0214216	小 組 並
-0.5547477	指 南 並
-1.4348375	政 府 已
-0.73257315	政 署 已
-1.0360018	社 署 已
-0.80924636	務 亦 已
-0.80231243	議 並 已
-1.8081976	服 務 已
-1.0214216	覆 文 中
-0.80641836	十 所 中
-0.6686916	疇 其 中
-0.6686916	度 其 中
-0.8274133	年 年 中
-0.40832818	訪 當 中
-0.40832818	響 當 中
-1.1186197	公 營 中
-0.6801219	普 通 中
-0.8481993	將 會 詳
-0.81292397	文 中 詳
-0.8410408	排 和 細
-0.2884425	會 詳 細
-0.2884425	中 詳 細
-0.8057261	細 交 代
-0.9844418	有 關 部
-0.84067464	相 關 部
-0.68520683	局 跨 部
-0.16417715	關 部 門
-0.2884965	跨 部 門
-0.8289897	告 的 具
-0.8289897	門 的 具
-0.79634964	供 更 具
-1.5280236	支 援 具
-0.8234576	構 整 體
-0.18795666	的 具 體
-0.33880478	更 具 體
-0.33880478	援 具 體
-0.83424854	我 在 此
-1.4911928	學 生 此
-0.68540794	在 此 扼
-0.8096802	的 主 要
-1.4630489	署 會 要
-0.85217756	議 的 要
-0.5547477	此 扼 要
-0.7332398	個 重 要
-0.43560928	有 需 要
-0.43560928	的 需 要
-0.12668666	育 需 要
-0.43560928	殊 需 要
-1.3072371	指 引 要
-0.8228784	扼 要 說
-0.558552	要 說 明
-0.68520683	高 透 明
-1.128925	局 會 重
-1.0505878	兩 個 重
-0.7650505	劃 經 重
-0.71154904	各 政 策
-0.71154904	要 政 策
-1.9570513	機 構 策
-0.8577341	治 的 範
-0.9369135	政 策 範
-1.4075613	檢 討 範
-0.3388726	的 範 疇
-0.3388726	策 範 疇
-0.3388726	討 範 疇
-0.68520683	適 時 採
-1.0326587	範 疇 採
-0.8334563	步 在 取
-0.28828245	時 採 取
-0.28828245	疇 採 取
-0.783094	升 而 取
-0.8218694	主 要 措
-1.1958113	跟 進 措
-0.6971421	改 善 措
-0.33880478	要 措 施
-0.33880478	進 措 施
-0.18795666	善 措 施
-0.4104433	向 實 施
-0.4104433	校 實 施
-0.7454693	施 和 進
-0.95114774	見 和 進
-0.8468018	料 及 進
-1.4287994	生 的 進
-1.4825764	提 供 進
-0.33784348	的 跟 進
-0.33784348	取 跟 進
-0.33784348	地 跟 進
-0.78661966	和 進 展
-0.6359457	及 進 展
-0.7365501	人 發 展
-0.558108	已 擴 展
-1.1203095	並 會 於
-0.67009115	展 關 於
-0.67009115	成 關 於
-0.800974	組 並 於
-0.57793796	府 已 於
-0.40731752	署 已 於
-0.5555854	率 低 於
-0.5555854	等 屬 於
-0.91017133	撥 款 津
-0.854947	貼 的 津
-0.93289727	制 訂 津
-0.5564246	透 過 津
-0.9792909	支 援 津
-0.4785801	款 津 助
-0.54078096	接 資 助
-0.0812979	受 資 助
-0.558108	引 幫 助
-0.48075283	津 助 制
-0.9853362	監 察 制
-0.77530336	據 機 制
-0.77530336	作 機 制
-0.7314923	共 同 制
-0.5547477	就 控 制
-0.5547477	手 編 制
-1.4650989	學 生 制
-0.68236136	透 明 度
-0.8097035	的 進 度
-0.4129778	助 制 度
-0.4129778	察 制 度
-0.5564246	交 季 度
-0.71702975	及 年 度
-0.71702975	的 年 度
-0.796845	制 度 下
-0.558552	其 轄 下
-0.7835266	一 向 實
-0.28828245	其 落 實
-0.28828245	快 落 實
-1.4636923	學 校 實
-0.9921335	成 立 服
-0.83598506	貼 及 服
-0.820126	構 在 服
-0.8173699	署 的 服
-0.34660518	佳 的 服
-0.71411043	心 理 服
-1.0124784	實 施 服
-0.54622203	資 助 服
-0.7982493	釐 定 服
-1.2841952	評 估 服
-1.0582564	察 其 服
-0.8106457	保 持 服
-0.67037165	優 化 服
-0.063191324	立 服 務
-0.063191324	及 服 務
-0.063191324	在 服 務
-0.04973762	的 服 務
-0.03992195	理 服 務
-0.063191324	施 服 務
-0.029154144	助 服 務
-0.063191324	定 服 務
-0.063191324	估 服 務
-0.063191324	其 服 務
-0.063191324	持 服 務
-0.03992195	化 服 務
-0.48214912	及 財 務
-0.48214912	度 財 務
-0.48214912	年 財 務
-1.0759078	務 報 表
-1.1927632	跟 進 表
-0.8105365	服 務 表
-1.521324	監 察 表
-0.73528004	續 出 現
-0.421865	進 表 現
-0.15363853	務 表 現
-0.421865	察 表 現
-0.73528004	間 發 現
-1.5055621	育 局 現
-1.1063195	並 會 監
-0.7929344	度 ( 監
-0.7929344	度 ) 監
-0.8289319	制 和 監
-0.8375139	估 及 監
-0.8215871	務 在 監
-1.3381156	有 關 監
-1.1275703	酬 的 監
-1.0301101	每 個 監
-0.8429619	表 現 監
-0.6756772	密 切 監
-0.11139834	會 監 察
-0.11139834	( 監 察
-0.11139834	和 監 察
-0.11139834	及 監 察
-0.11139834	在 監 察
-0.11139834	關 監 察
-0.11139834	的 監 察
-0.11139834	個 監 察
-0.06891783	現 監 察
-0.11139834	切 監 察
-0.8066743	監 管 非
-1.3283839	政 府 機
-0.77450496	構 ( 機
-0.8207981	亦 有 機
-1.2842427	有 關 機
-0.8293248	助 的 機
-0.78856766	線 為 機
-0.7780077	屬 於 機
-0.7047118	資 助 機
-0.98224384	表 現 機
-0.6167426	發 現 機
-0.54550225	署 與 機
-0.54550225	況 與 機
-0.66356987	正 與 機
-1.0097134	指 定 機
-0.6615383	視 使 機
-1.0671308	要 求 機
-0.5640191	平 或 機
-0.6880371	備 或 機
-0.6615383	行 動 機
-0.7106305	續 從 機
-0.58701396	檢 視 機
-0.54074985	如 果 機
-0.54074985	通 知 機
-0.8232853	根 據 機
-0.7106305	查 詢 機
-0.77536875	就 業 機
-1.0895334	加 強 機
-0.7106305	協 作 機
-0.08389671	府 機 構
-0.08389671	( 機 構
-0.08389671	有 機 構
-0.08389671	關 機 構
-0.08389671	的 機 構
-0.08389671	為 機 構
-0.08389671	於 機 構
-0.048314206	助 機 構
-0.052533016	現 機 構
-0.06569199	與 機 構
-0.08389671	定 機 構
-0.08389671	使 機 構
-0.08389671	求 機 構
-0.052533016	或 機 構
-0.08389671	動 機 構
-0.08389671	從 機 構
-0.052533016	視 機 構
-0.08389671	果 機 構
-0.08389671	知 機 構
-0.08389671	詢 機 構
-0.08389671	強 機 構
-0.558552	酬 架 構
-1.114404	所 有 受
-0.7784312	) 的 受
-1.0053655	定 的 受
-0.7784312	供 的 受
-0.7784312	免 的 受
-0.6520318	構 為 受
-0.6520318	認 為 受
-0.7314923	) 接 受
-1.0044395	監 察 受
-1.0781229	職 率 受
-0.5547477	滿 足 受
-0.9785706	人 力 資
-0.7340138	直 接 資
-0.282344	有 受 資
-0.14660159	的 受 資
-0.16116925	為 受 資
-0.16116925	察 受 資
-0.282344	足 受 資
-1.3168074	評 估 資
-0.68236136	經 常 資
-0.81384563	職 員 與
-1.7676384	社 署 與
-1.303863	情 況 與
-0.6543105	署 正 與
-0.53842914	局 正 與
-0.5555854	校 參 與
-0.45765048	學 家 與
-1.8449976	服 務 共
-0.83523166	構 一 同
-0.558108	務 共 同
-0.8571875	有 不 同
-0.63638943	同 制 訂
-0.63638943	生 制 訂
-0.558552	討 修 訂
-0.2990766	的 津 貼
-0.2990766	訂 津 貼
-0.2990766	過 津 貼
-0.1692988	援 津 貼
-0.8017115	議 ( 協
-1.0309763	符 合 協
-1.026351	部 門 協
-1.8081976	服 務 協
-0.68236136	學 院 協
-0.79004776	議 ) 以
-1.4770206	報 告 以
-1.1951029	措 施 以
-0.6734718	基 準 以
-1.1222732	探 訪 以
-1.2438774	計 劃 以
-0.85002005	情 況 以
-0.74012077	狀 況 以
-1.2017655	儲 備 以
-0.791962	學 額 以
-1.1092381	意 見 以
-0.7240143	保 可 以
-0.8407132	主 任 以
-1.0069603	小 組 以
-0.7372199	一 同 釐
-0.8344977	) 以 釐
-0.68236136	以 釐 定
-0.68236136	了 須 定
-0.2238557	的 規 定
-0.4213653	合 規 定
-0.4213653	供 規 定
-0.9347967	續 穩 定
-0.78275466	的 指 定
-0.68520683	學 目 標
-1.842478	服 務 標
-0.68520683	務 標 準
-0.558552	款 基 準
-0.79264927	自 我 評
-0.8468018	準 及 評
-0.854947	童 的 評
-0.7175242	訪 以 評
-0.90710986	況 以 評
-1.1477365	包 括 評
-0.17071828	我 評 估
-0.17071828	及 評 估
-0.17071828	的 評 估
-0.10281755	以 評 估
-0.17071828	括 評 估
-1.9570513	機 構 須
-0.68520683	除 了 須
-0.68540794	構 須 妥
-0.558552	須 妥 善
-0.22638844	交 改 善
-0.22638844	有 改 善
-0.13281289	實 改 善
-0.22638844	源 改 善
-1.3512545	管 理 其
-1.0165474	範 疇 其
-1.4102376	制 度 其
-1.0006034	監 察 其
-0.6778938	位 使 其
-1.0725733	確 保 其
-0.5530773	披 露 其
-0.5530773	待 遇 其
-0.7746817	四 而 其
-0.82285446	理 其 轄
-0.8584705	下 的 單
-1.842478	服 務 單
-0.2884425	的 單 位
-0.2884425	務 單 位
-0.5808926	及 職 位
-0.5808926	師 職 位
-0.9842168	單 位 使
-1.1972473	檢 視 使
-0.49130267	構 提 供
-0.30286393	以 提 供
-0.30286393	其 提 供
-0.30286393	地 提 供
-0.30286393	能 提 供
-0.30286393	獲 提 供
-0.30286393	題 提 供
-0.30286393	生 提 供
-0.30286393	段 提 供
-1.842478	服 務 符
-0.8580721	有 不 符
-0.632495	會 要 求
-0.632495	的 要 求
-0.632495	引 要 求
-0.63663733	力 需 求
-0.63663733	手 需 求
-1.9605912	機 構 除
-1.9570513	機 構 了
-0.558552	構 除 了
-0.8101385	須 定 期
-0.4097289	一 周 期
-0.4097289	察 周 期
-1.151027	探 訪 期
-0.6834855	於 預 期
-1.3621616	提 交 季
-1.5802021	需 要 統
-0.8224137	季 度 統
-0.34033966	一 七 年
-1.1159905	告 及 年
-0.8494258	計 的 年
-0.8244355	零 年 年
-0.73127425	的 周 年
-0.7289853	每 三 年
-1.4089363	二 零 年
-0.46759447	一 八 年
-0.7544967	十 學 年
-0.7544967	九 學 年
-0.7544967	四 學 年
-1.0828383	年 度 自
-1.5361763	報 告 外
-0.6846125	生 此 外
-0.56112874	述 額 外
-0.56112874	供 額 外
-0.56112874	放 額 外
-0.80467707	內 ( 每
-0.8334563	會 在 每
-0.76556927	會 按 每
-0.83523166	為 一 周
-0.8577341	交 的 周
-1.5277042	監 察 周
-1.3993126	二 十 三
-0.7371979	( 每 三
-0.7650505	最 高 三
-0.8319547	若 在 探
-1.4604073	表 現 探
-1.3216728	評 估 探
-0.5572655	突 擊 探
-0.22642767	在 探 訪
-0.22642767	現 探 訪
-0.22642767	估 探 訪
-0.22642767	擊 探 訪
-1.1543427	探 訪 當
-0.8571875	方 面 當
-0.558108	影 響 當
-0.78727823	其 中 包
-0.29995468	當 中 包
-0.558552	當 然 包
-0.21314776	中 包 括
-0.2884965	然 包 括
-1.1477365	探 訪 或
-0.85384226	虧 損 或
-0.5564246	水 平 或
-0.85384226	招 聘 或
-0.68240774	儲 備 或
-0.79683954	訪 或 突
-0.55870223	或 突 擊
-1.4689066	表 現 若
-0.7365501	期 間 發
-0.82234246	個 人 發
-1.031337	安 排 發
-0.76388466	構 有 不
-0.76388466	況 有 不
-1.2666614	財 政 規
-1.0919714	酬 的 規
-0.82768315	引 的 規
-1.033172	符 合 規
-1.4897218	提 供 規
-1.1434717	定 的 地
-0.80863446	穩 定 地
-0.27446765	有 效 地
-0.5564246	略 性 地
-0.7340138	與 本 地
-0.854947	行 的 方
-1.3727273	管 理 方
-1.776195	教 育 方
-0.79264927	的 地 方
-1.1294857	分 攤 方
-1.3531035	提 交 改
-0.8431769	排 有 改
-0.32745528	落 實 改
-0.85551167	資 源 改
-0.3608246	育 計 劃
-0.3608246	助 計 劃
-0.3608246	善 計 劃
-0.3608246	學 計 劃
-0.3608246	生 計 劃
-0.7662259	政 規 劃
-1.0826693	察 其 落
-0.558552	盡 快 落
-0.7650505	個 別 情
-0.81966287	施 的 情
-0.81966287	損 的 情
-0.81966287	缺 的 情
-0.558108	市 場 情
-0.33880478	別 情 況
-0.24629568	的 情 況
-0.33880478	場 情 況
-0.27518734	政 狀 況
-0.84524	視 及 更
-0.8131687	況 為 更
-1.8922623	機 構 更
-1.4755466	提 供 更
-0.76099515	出 經 更
-0.7788675	從 而 更
-0.35254678	更 有 效
-1.1489043	適 的 跟
-0.98389184	採 取 跟
-1.0346419	效 地 跟
-1.1118616	局 會 持
-0.8453519	表 現 持
-1.8438582	機 構 持
-0.8256561	可 以 持
-0.8132455	保 其 持
-0.7569774	及 保 持
-0.7569774	運 上 持
-0.5530773	能 維 持
-0.5530773	收 集 持
-0.274392	會 持 續
-0.15724932	現 持 續
-0.274392	構 持 續
-0.274392	以 持 續
-0.274392	其 持 續
-0.274392	上 持 續
-0.37498045	會 繼 續
-0.853284	持 續 欠
-0.27523807	續 欠 佳
-0.96933234	在 二 零
-0.2045118	於 二 零
-0.9879927	零 二 零
-0.1482173	二 千 零
-0.7596518	約 六 成
-0.8436837	帳 及 成
-0.7064229	七 月 成
-0.5777645	一 月 成
-0.7596518	續 就 成
-0.5547477	釐 清 成
-0.5547477	中 完 成
-0.7596518	餘 四 成
-1.1309724	員 會 密
-0.558552	會 密 切
-0.76576585	予 適 切
-0.80500174	務 並 商
-1.9467461	機 構 商
-0.7835895	院 協 商
-0.8402835	則 和 討
-0.4101968	並 商 討
-0.4101968	構 商 討
-0.30796683	個 檢 討
-0.30796683	項 檢 討
-0.30796683	度 檢 討
-0.30796683	酬 檢 討
-0.30796683	正 檢 討
-0.30796683	件 檢 討
-0.52623665	論 合 適
-0.52623665	供 合 適
-0.52623665	討 合 適
-0.83377796	施 以 適
-0.558108	給 予 適
-0.73528004	空 間 行
-0.78542906	和 進 行
-0.84985393	跟 進 行
-0.73528004	商 可 行
-0.5572655	亦 舉 行
-0.7966081	損 或 動
-1.0145253	進 行 動
-1.8351098	服 務 營
-0.8119365	出 現 營
-0.56112874	有 公 營
-0.56112874	的 公 營
-0.56112874	制 公 營
-0.854947	備 的 運
-1.776195	教 育 運
-0.79264927	性 地 運
-0.5391295	務 營 運
-0.5391295	現 營 運
-0.5564246	公 帑 運
-0.7963209	巨 款 虧
-1.036545	營 運 虧
-0.2884965	款 虧 損
-0.2884965	運 虧 損
-0.8296789	同 的 原
-0.8296789	攤 的 原
-0.68520683	了 解 原
-0.7372199	多 項 因
-0.49368292	的 原 因
-0.4104433	解 原 因
-0.93797654	原 因 例
-0.2884425	的 比 例
-0.2884425	校 比 例
-1.4075613	檢 討 如
-0.7365501	因 例 如
-0.8571875	穩 健 如
-0.61322284	構 員 工
-0.61322284	求 員 工
-0.61322284	如 員 工
-1.0026968	員 工 流
-0.55870223	工 流 失
-0.558552	流 失 率
-0.48353624	離 職 率
-0.76600796	失 率 低
-0.8057488	低 於 預
-1.136081	意 見 預
-0.85871977	期 的 水
-0.55870223	的 水 平
-1.4794974	署 會 按
-1.9278152	機 構 按
-0.8116492	局 需 按
-0.5572655	嚴 格 按
-0.7663699	構 按 市
-0.55870223	按 市 場
-1.1045784	況 以 較
-0.93797654	取 錄 較
-0.83980405	和 提 高
-1.4075778	機 構 高
-0.6834855	以 較 高
-0.5572655	交 最 高
-0.40075174	人 員 薪
-0.8189529	露 其 薪
-1.1477365	包 括 薪
-0.7623427	較 高 薪
-1.1294857	業 界 薪
-0.7847323	高 薪 金
-0.558552	公 積 金
-1.1560979	包 括 招
-0.68520683	薪 金 招
-0.2884965	括 招 聘
-0.2884965	金 招 聘
-0.79683954	聘 或 挽
-0.55870223	或 挽 留
-0.8245241	引 在 人
-1.0801463	界 的 人
-0.8212087	遠 的 人
-1.3512545	管 理 人
-0.7958405	會 個 人
-0.78689873	規 劃 人
-0.5530773	挽 留 人
-0.48340037	三 層 人
-0.35588843	高 層 人
-0.8472281	聯 絡 人
-0.79038656	專 業 人
-0.82320845	留 人 才
-0.7636945	發 展 等
-0.82005453	明 度 等
-1.0865824	職 率 等
-0.5572655	人 才 等
-0.73744667	構 策 略
-0.55870223	策 略 性
-0.68520683	或 動 用
-0.5265973	的 運 用
-0.5265973	地 運 用
-0.5265973	帑 運 用
-0.931366	撥 款 儲
-0.85633826	額 的 儲
-0.7816806	整 體 儲
-0.6834855	積 金 儲
-0.13283342	款 儲 備
-0.22642767	的 儲 備
-0.22642767	體 儲 備
-0.22642767	金 儲 備
-0.8347413	備 以 滿
-0.55870223	以 滿 足
-0.83860797	為 有 需
-0.8507995	務 的 需
-0.738975	教 育 需
-0.80504966	訂 所 需
-0.9719596	人 力 需
-0.8095587	策 局 需
-0.9269417	人 手 需
-1.258046	特 殊 需
-0.85077274	要 及 保
-0.4226288	和 確 保
-0.4226288	及 確 保
-0.4226288	施 確 保
-1.8449976	服 務 質
-0.7372199	項 因 素
-0.558552	務 質 素
-0.6958268	署 會 繼
-1.1951201	亦 會 繼
-0.8474002	府 會 從
-1.1944156	繼 續 從
-0.8571875	教 師 從
-0.83741766	用 和 財
-1.1277814	以 及 財
-1.2308747	構 的 財
-0.8263805	健 的 財
-1.0752703	年 度 財
-0.83041173	周 年 財
-1.1307799	告 及 經
-0.73528004	發 出 經
-1.126679	額 外 經
-1.2823449	計 劃 經
-0.794385	整 個 檢
-0.7277372	八 項 檢
-1.4049728	制 度 檢
-0.7579886	報 表 檢
-1.131648	包 括 檢
-1.4278934	持 續 檢
-0.99673975	進 行 檢
-1.3484138	薪 酬 檢
-0.99959165	署 正 檢
-0.5522445	條 件 檢
-0.76616746	細 審 視
-0.49612087	表 檢 視
-0.49612087	括 檢 視
-0.49612087	續 檢 視
-0.49612087	行 檢 視
-0.5207477	財 政 狀
-0.83884823	估 和 確
-0.84836936	況 及 確
-1.2293184	措 施 確
-0.6834855	正 式 確
-0.8191027	維 持 穩
-0.8530474	持 續 穩
-0.41052666	持 穩 健
-0.4937839	續 穩 健
-0.73744667	健 如 果
-0.8105504	有 所 上
-1.033172	營 運 上
-0.764435	地 專 上
-0.764435	領 導 上
-0.8451383	續 有 巨
-0.76576585	動 用 大
-0.93797654	取 錄 大
-0.7314923	上 述 額
-1.2330683	津 貼 額
-1.4686289	提 供 額
-0.6801219	用 大 額
-0.8433628	訓 學 額
-0.5547477	投 放 額
-0.6801219	外 常 額
-0.68520683	構 了 解
-0.93797654	事 宜 解
-0.80595267	因 並 給
-0.55870223	並 給 予
-0.8203375	切 的 意
-1.0785661	界 的 意
-0.8203375	者 的 意
-1.5008597	提 供 意
-0.21314776	的 意 見
-0.2884965	供 意 見
-1.9570513	機 構 能
-1.46668	學 校 能
-0.68540794	構 能 維
-0.7371979	協 商 可
-1.4075613	檢 討 可
-1.0894393	確 保 可
-1.4523559	政 府 認
-0.7365501	高 三 層
-0.4708897	構 高 層
-1.5280236	支 援 層
-0.15385891	員 薪 酬
-0.2990766	其 薪 酬
-0.2990766	括 薪 酬
-0.2990766	界 薪 酬
-1.1999714	具 體 安
-1.5277042	監 察 安
-1.3824831	薪 酬 安
-0.3388726	體 安 排
-0.3388726	察 安 排
-0.3388726	酬 安 排
-1.284225	改 善 空
-0.9842168	職 位 空
-0.7816806	確 立 八
-1.2570608	一 十 八
-0.9051307	零 一 八
-1.245071	八 年 八
-0.73528004	七 日 就
-1.9278152	機 構 就
-1.1907808	繼 續 就
-0.5572655	其 他 就
-0.76600796	日 就 控
-0.5268584	及 更 新
-0.5268584	構 更 新
-0.5268584	經 更 新
-0.83884823	力 和 指
-0.7819395	體 的 指
-0.33858123	新 的 指
-0.33858123	科 的 指
-0.7819395	步 的 指
-0.28797877	照 該 指
-0.28797877	據 該 指
-0.73528004	運 作 指
-0.3819904	的 指 引
-0.26918948	該 指 引
-1.3782656	管 理 局
-0.5713614	教 育 局
-0.9349007	政 策 局
-0.6834855	立 跨 局
-0.48739496	需 按 照
-0.48739496	格 按 照
-0.8580721	按 照 該
-0.8580721	根 據 該
-1.1306541	要 求 未
-1.1945195	亦 會 獲
-0.78099823	學 會 獲
-0.558552	求 未 獲
-0.73744667	未 獲 豁
-0.55870223	獲 豁 免
-0.8436837	供 及 公
-0.7786326	構 對 公
-1.114404	所 有 公
-0.85217756	成 的 公
-1.0550355	機 制 公
-1.0263677	備 或 公
-1.0781229	確 保 公
-1.2510781	學 年 開
-0.8057488	及 公 開
-0.68540794	公 開 披
-0.55870223	開 披 露
-0.7951582	六 月 正
-1.2023915	社 署 正
-0.8105504	局 現 正
-1.5055621	育 局 正
-1.064847	商 討 修
-1.4696362	撥 款 手
-0.84089327	的 人 手
-0.6735943	劃 人 手
-0.73744667	款 手 冊
-0.76576585	年 內 通
-0.558552	營 普 通
-0.68540794	內 通 知
-0.85077274	引 及 根
-1.0651643	機 制 根
-0.2884965	及 根 據
-0.2884965	制 根 據
-1.3621616	提 交 最
-1.3860635	薪 酬 條
-0.55870223	酬 條 件
-0.85077274	學 及 直
-0.83607256	署 一 直
-0.76576585	提 高 透
-0.68520683	一 直 透
-0.68540794	直 透 過
-1.2850363	財 務 科
-1.2515136	津 貼 科
-1.9570513	機 構 聯
-1.0643653	指 定 聯
-0.2884965	構 聯 絡
-0.2884965	定 聯 絡
-0.6369668	絡 主 任
-0.6369668	籌 主 任
-0.743164	人 和 支
-0.947452	見 和 支
-0.8237869	需 的 支
-1.3389523	生 的 支
-1.4686289	提 供 支
-1.0246515	效 地 支
-1.1275351	合 適 支
-1.1412294	加 強 支
-0.45713842	學 習 支
-0.0708762	和 支 援
-0.0708762	的 支 援
-0.1147334	供 支 援
-0.1147334	地 支 援
-0.1147334	適 支 援
-0.1147334	強 支 援
-0.0708762	習 支 援
-1.5328124	支 援 熱
-0.55870223	援 熱 線
-0.8410408	級 和 記
-0.9842168	分 別 記
-1.0512432	正 與 本
-0.56112874	及 成 本
-0.56112874	就 成 本
-0.56112874	清 成 本
-0.6559304	援 校 本
-0.6559304	化 校 本
-0.581016	的 分 攤
-0.3865986	本 分 攤
-0.58702505	分 攤 事
-0.27518734	攤 事 宜
-0.68520683	用 得 宜
-0.68540794	宜 解 答
-0.55870223	解 答 問
-0.55870223	答 問 題
-1.0524375	每 個 查
-0.558552	個 查 詢
-0.2884425	宜 諮 詢
-0.2884425	界 諮 詢
-0.68540794	同 釐 清
-0.8057488	四 成 則
-0.938773	的 原 則
-0.5412015	的 方 案
-0.5412015	攤 方 案
-0.93797654	事 宜 諮
-1.136081	業 界 諮
-0.7788675	舉 行 業
-0.76099515	審 視 業
-0.76099515	他 就 業
-0.93090296	諮 詢 業
-0.5555854	關 注 業
-0.7621752	關 專 業
-0.35528067	行 業 界
-0.35528067	視 業 界
-0.35528067	詢 業 界
-0.35528067	注 業 界
-0.83607256	進 一 步
-0.558552	正 逐 步
-0.5412015	力 資 源
-0.5412015	常 資 源
-0.5412015	理 方 面
-0.5412015	育 方 面
-0.7378985	面 當 然
-0.85077274	聘 及 離
-0.4594611	員 工 離
-0.84524	率 及 職
-0.84095097	校 教 職
-0.8521792	主 任 職
-0.28737193	及 離 職
-0.163629	工 離 職
-0.7912045	晉 升 職
-0.8521792	教 師 職
-0.76600796	率 等 屬
-0.8066743	構 管 治
-0.82301944	分 關 注
-0.80603635	率 受 多
-0.6846125	錄 較 多
-0.7365501	得 宜 多
-0.68540794	因 素 影
-0.55870223	素 影 響
-1.3860635	薪 酬 待
-0.55870223	酬 待 遇
-0.82285446	遇 其 他
-0.73744667	討 如 何
-1.0084738	成 立 優
-0.8017115	務 ( 優
-1.029618	實 施 優
-1.24118	學 年 優
-0.5564246	如 何 優
-0.17071828	立 優 化
-0.17071828	( 優 化
-0.17071828	施 優 化
-0.17071828	年 優 化
-0.17071828	何 優 化
-0.81270033	中 亦 將
-0.558552	得 即 將
-1.3860635	薪 酬 架
-0.68540794	位 空 缺
-1.0792758	相 關 專
-0.7940989	本 地 專
-1.4023287	檢 討 專
-0.7636945	度 等 專
-0.48728848	討 專 責
-0.48728848	等 專 責
-0.558552	眾 負 責
-1.3355308	要 的 小
-0.8237869	難 的 小
-0.5864682	所 中 小
-0.5864682	營 中 小
-0.5864682	通 中 小
-1.2691402	計 劃 小
-1.1186197	公 營 小
-0.3125645	專 責 小
-0.5547477	聚 焦 小
-0.5547477	升 讀 小
-0.2925249	責 小 組
-0.6120358	焦 小 組
-0.7841747	月 正 式
-0.558552	與 模 式
-0.8059856	或 公 積
-0.93833655	人 手 編
-1.4705882	撥 款 基
-1.1100326	別 和 加
-1.1277814	以 及 加
-1.2411222	津 貼 加
-1.1871761	繼 續 加
-0.5564246	案 增 加
-0.2990766	和 加 強
-0.2990766	及 加 強
-0.2990766	貼 加 強
-0.2990766	續 加 強
-0.8059856	對 公 眾
-0.55870223	公 眾 負
-0.81294465	組 亦 舉
-0.8510538	會 及 聚
-0.55870223	及 聚 焦
-0.8347413	組 以 聆
-0.55870223	以 聆 聽
-0.8510538	聽 及 收
-0.55870223	及 收 集
-0.81926227	集 持 份
-0.55870223	持 份 者
-0.8131462	年 中 完
-0.44283298	九 二 千
-0.3322668	在 二 千
-0.44283298	三 二 千
-0.44283298	從 二 千
-0.44283298	八 二 千
-1.3187336	二 十 學
-1.1799874	十 九 學
-0.5114676	小 一 學
-0.82518256	導 有 學
-1.0542927	重 整 學
-0.6035579	要 的 學
-0.6263696	生 的 學
-0.6858895	心 理 學
-1.1036129	導 教 學
-1.0318052	員 為 學
-0.91767067	需 要 學
-0.77146626	幫 助 學
-0.3388359	家 與 學
-0.7425555	專 上 學
-0.37124434	中 小 學
-0.5514449	劃 小 學
-0.5514449	營 小 學
-0.5440031	整 後 學
-0.71544975	記 錄 學
-0.5440031	這 些 學
-0.8295421	以 便 學
-0.7425555	十 四 學
-0.5440031	培 訓 學
-0.68540794	年 開 始
-0.55870223	開 始 投
-0.55870223	始 投 放
-1.1308373	額 外 常
-0.76576585	外 經 常
-0.5774301	對 有 特
-0.28147203	援 有 特
-0.5774301	多 有 特
-0.5774301	而 有 特
-0.5774301	量 有 特
-1.1503453	校 的 特
-0.093626685	有 特 殊
-0.2884965	的 特 殊
-0.29495782	一 學 生
-0.6007407	的 學 生
-0.6199134	為 學 生
-0.4060292	要 學 生
-0.6199134	錄 學 生
-0.558552	局 衞 生
-1.2667689	小 一 而
-1.1926396	具 體 而
-0.7340138	師 從 而
-0.79264927	上 升 而
-0.9785706	一 四 而
-0.7840922	體 而 言
-0.76103336	有 學 習
-0.76103336	整 學 習
-0.76103336	後 學 習
-1.1168448	別 和 輔
-1.1560979	加 強 輔
-0.7835266	和 指 導
-0.28828245	和 輔 導
-0.28828245	強 輔 導
-0.558108	級 領 導
-1.0845522	重 整 後
-1.0490011	會 提 升
-0.7139519	年 提 升
-0.7139519	例 提 升
-0.7636945	所 上 升
-0.6834855	即 將 升
-0.5572655	至 晉 升
-0.48728848	在 取 錄
-0.48728848	而 取 錄
-0.68520683	和 記 錄
-1.5213131	支 援 校
-1.2083353	優 化 校
-0.5999961	的 學 校
-0.6188313	助 學 校
-0.29462543	與 學 校
-0.6188313	些 學 校
-0.6188313	便 學 校
-0.6834855	新 全 校
-0.9581733	外 教 師
-0.74983114	額 教 師
-0.7378985	升 這 些
-0.68540794	要 統 籌
-0.76616746	援 層 級
-0.5808926	任 職 級
-0.5808926	升 職 級
-0.7623427	擴 展 至
-0.93289727	比 例 至
-1.149894	提 升 至
-0.93289727	職 級 至
-0.5564246	則 達 至
-0.78443784	級 至 晉
-0.93833655	職 級 領
-1.002377	更 新 全
-0.558552	覆 蓋 全
-0.81840897	全 校 參
-0.8059856	參 與 模
-0.8119365	員 所 作
-0.7835895	門 協 作
-0.7959783	育 運 作
-0.78439397	作 指 南
-0.7970985	並 分 階
-0.55870223	分 階 段
-1.3300923	指 引 幫
-0.85077274	署 及 相
-0.8057488	員 與 相
-0.77580893	為 及 早
-0.77580893	強 及 早
-0.77580893	便 及 早
-0.45955265	及 早 識
-1.5161877	育 局 衞
-0.83820313	生 署 醫
-0.8487711	上 學 院
-0.558552	署 醫 院
-0.78383976	建 立 跨
-0.8179546	跨 局 跨
-1.0909505	運 用 得
-0.93797654	會 獲 得
-0.68540794	獲 得 即
-0.7965807	將 升 讀
-1.5025837	的 學 前
-0.55870223	學 前 兒
-0.55870223	前 兒 童
-0.784696	估 資 料
-0.72036064	告 以 便
-0.72036064	劃 以 便
-1.0026968	學 習 困
-0.55870223	習 困 難
-0.8619159	教 育 心
-0.7664225	已 覆 蓋
-0.68540794	蓋 全 港
-0.78439397	現 正 逐
-0.68540794	錄 大 量
-0.8057261	務 ) 把
-0.5030314	理 學 家
-1.1503453	校 的 比
-1.46668	學 校 比
-1.3993126	二 十 四
-0.521441	至 一 四
-0.558108	其 餘 四
-0.79683954	務 已 擴
-1.1582974	提 升 約
-0.7842234	展 至 約
-0.83635724	約 一 百
-0.68540794	目 標 是
-1.1313246	公 營 普
-0.82285446	而 其 餘
-0.68540794	成 則 達
-0.85837156	方 案 增
-0.85871977	家 的 培
-0.55870223	的 培 訓
-0.68540794	付 長 遠
-0.7965807	席 我 再
-0.55870223	我 再 次
-0.8484698	門 會 嚴
-0.55870223	會 嚴 格
-1.0914626	回 應 盡
-0.55870223	應 盡 快
-0.8059856	保 公 帑

\end\
